SVM-light Version V6.02
0 # kernel type
3 # kernel parameter -d 
1 # kernel parameter -g 
1 # kernel parameter -s 
1 # kernel parameter -r 
empty# kernel parameter -u 
10015 # highest feature index 
74 # number of training documents 
56 # number of support vectors plus 1 
1.0717253 # threshold b, each following line is a SV (starting with alpha*y)
-0.0050017616092156149884551119555454 3:1 5:8 6:4 9:3 13:1 16:7 23:1 24:5 29:1 33:14 35:5 36:2 37:7 38:2 44:1 46:5 52:5 61:1 69:1 72:1 76:1 82:1 87:3 96:1 103:1 105:1 108:3 109:1 110:1 111:1 122:2 137:6 160:2 176:1 193:2 205:1 228:3 236:1 237:1 239:1 249:1 257:1 258:1 259:1 260:1 261:1 262:1 263:1 264:1 265:1 266:1 267:1 268:1 269:1 270:1 271:1 272:1 273:1 274:1 275:1 276:1 277:1 278:1 279:1 281:1 282:1 294:1 312:2 313:1 314:2 315:1 316:1 317:1 318:1 319:1 320:1 321:1 322:1 323:1 324:1 325:1 326:1 327:1 328:1 329:1 330:1 331:1 332:1 333:1 334:1 335:1 336:2 337:1 338:1 339:1 340:1 341:1 10005:1 #
0.0050017616092156149884551119555454 1:1 2:1 3:1 4:1 5:4 6:1 7:2 8:1 9:2 10:1 11:1 12:1 13:1 14:1 15:1 16:2 17:1 18:1 19:1 20:1 21:2 22:1 23:2 24:3 25:2 26:1 27:1 28:1 29:1 30:1 31:1 32:1 33:2 34:1 35:1 36:1 37:3 38:1 39:1 40:1 41:1 42:1 43:1 44:1 45:1 46:1 47:1 48:1 49:1 50:1 51:1 52:1 53:1 54:1 55:1 56:1 57:1 58:1 59:1 60:1 61:1 62:1 63:1 10005:1 #
-0.0008976891015214222540458122168161 24:5 33:3 58:1 168:4 219:1 557:6 572:1 613:2 619:2 621:4 636:1 646:4 700:1 712:1 713:1 811:1 820:1 836:1 904:3 985:1 989:1 1069:1 1096:1 1097:1 1107:1 1109:2 1128:1 1129:1 1138:1 1149:2 1201:1 1202:1 1203:1 1204:1 1205:1 1206:1 1207:1 1208:2 1209:1 1210:1 1211:1 1212:1 1213:1 1214:1 1215:1 1216:1 1217:1 1218:1 1219:1 1220:1 1221:1 1222:1 1223:1 1224:1 1225:1 1226:1 1227:1 1228:1 1229:1 1230:1 1231:1 1232:1 1233:1 1234:1 1235:1 1236:1 1237:1 1238:1 1239:1 10005:1 #
-0.002621504953346084128978921157227 24:2 33:2 58:1 167:2 168:3 348:1 557:6 611:2 613:1 617:2 621:1 808:1 811:1 877:1 1116:2 1121:2 1149:1 1235:1 1353:1 1513:1 1722:1 1725:1 1737:1 1927:1 1935:1 1936:1 1937:1 1938:1 1939:1 1940:1 1941:1 1942:1 1943:1 1944:1 1945:1 1946:1 1947:1 1948:1 1949:1 1950:1 1951:1 1952:1 10005:1 #
-0.0050017616092156149884551119555454 5:1 6:1 9:3 15:1 18:1 24:3 33:2 35:1 38:1 39:1 46:1 126:1 131:1 163:2 359:1 367:2 396:2 557:2 588:1 611:1 617:1 646:1 660:1 694:1 713:1 885:1 890:1 891:1 892:1 893:1 894:1 895:1 896:1 897:1 898:1 899:1 900:1 901:1 902:1 903:1 904:1 905:1 10005:1 #
-0.0014905645373118215496477390047403 24:2 33:8 58:4 168:2 557:2 572:1 611:1 613:3 617:1 643:1 646:3 671:1 713:3 719:1 727:1 734:2 811:1 813:1 845:1 863:1 954:1 1031:1 1100:1 1128:1 1216:1 1230:1 1253:1 1355:1 1408:1 1524:1 1525:1 1526:1 1527:1 1528:1 1529:1 1530:1 1531:1 1532:1 1533:1 1534:2 1535:1 1536:1 1537:1 1538:1 1539:1 1540:1 1541:1 1542:1 1543:1 1544:1 1545:1 1546:1 1547:1 1548:1 10005:1 #
-0.0050017616092156149884551119555454 6:2 16:1 23:1 24:1 33:3 39:1 52:1 61:1 69:1 160:1 228:2 245:1 429:1 465:1 499:1 604:1 679:1 680:1 681:1 682:1 683:1 684:1 685:1 686:1 687:1 688:1 689:1 690:1 691:1 10005:1 #
0.00250255201497268618682223717542 5:3 6:4 9:3 18:1 21:1 23:1 24:11 33:4 35:2 37:1 39:2 46:2 58:1 80:1 82:5 87:3 126:1 131:1 137:3 157:1 163:1 168:3 197:2 228:3 280:1 294:1 304:2 312:2 314:1 359:1 456:1 499:1 554:4 557:1 566:1 568:1 611:3 613:2 617:3 618:1 620:1 621:1 651:1 692:1 713:1 727:1 743:1 773:1 775:1 776:1 777:1 778:1 779:1 780:1 781:1 782:1 783:1 784:2 785:1 786:1 787:1 788:1 789:1 790:1 791:1 792:1 793:1 794:1 795:1 796:1 797:1 798:1 799:1 800:1 801:1 802:1 803:1 804:1 805:1 806:1 807:1 808:1 809:1 810:1 811:1 812:1 813:1 814:1 815:1 816:1 817:1 818:1 10005:1 10012:1 #
-0.0015554470027718545269146410703343 24:2 33:4 168:6 280:1 557:9 572:1 613:1 615:1 619:1 621:1 646:2 671:1 699:1 703:1 713:2 716:1 719:1 734:2 809:1 811:1 981:2 1127:1 1210:1 1382:1 1388:1 1397:2 1398:2 1399:2 1400:2 1401:1 1402:1 1403:1 1404:2 1405:1 1406:1 1407:1 1408:1 1409:1 1410:1 1411:1 1412:1 1413:1 1414:1 1415:1 1416:1 1417:1 1418:1 1419:1 1420:1 1421:1 1422:1 10005:1 #
0.0025623679020486938434641999151609 5:10 6:6 9:3 15:1 16:3 21:1 23:2 24:5 29:2 33:10 35:5 36:1 37:5 39:2 46:5 52:4 58:1 59:1 61:2 76:1 82:2 87:3 96:2 97:1 104:1 108:3 109:1 110:1 118:1 119:1 122:2 126:2 131:2 137:2 144:1 150:1 152:1 164:1 184:1 193:1 204:1 205:1 206:1 226:1 234:1 239:3 249:3 263:1 272:1 274:1 275:1 303:1 313:1 324:1 358:1 425:1 467:2 492:1 541:1 542:1 691:1 936:1 993:1 1053:1 1054:1 1066:1 1085:2 1086:1 1242:1 1263:1 1283:1 1289:1 1307:1 1364:1 1453:1 1656:1 1657:1 1658:1 1659:1 1660:1 1661:1 1662:1 1663:1 1664:1 1665:1 1666:1 1667:1 1668:1 1669:1 1670:1 1671:1 1672:1 1673:1 1674:1 1675:1 1676:1 1677:1 1678:1 1679:1 1680:1 1681:1 1682:1 1683:1 10005:1 10012:1 #
0.0050017616092156149884551119555454 3:1 5:7 6:3 9:7 13:3 15:1 16:1 18:1 21:1 24:6 29:4 33:10 35:1 36:3 37:3 39:2 46:1 52:2 61:2 69:1 78:2 82:1 87:2 95:1 105:1 108:3 109:3 110:4 126:1 131:1 137:7 143:1 144:1 145:1 146:1 147:1 148:1 149:1 150:1 151:1 152:1 153:1 154:2 155:1 156:1 157:1 158:1 159:1 160:1 161:1 162:1 163:2 164:1 165:1 166:1 167:1 168:1 169:1 170:1 171:1 172:1 173:1 174:1 175:1 176:2 177:1 178:1 179:1 180:1 181:1 182:1 183:1 184:1 185:1 186:1 187:1 188:1 189:1 190:1 191:1 192:1 193:2 194:1 195:1 196:1 197:1 198:1 199:1 200:1 201:1 202:1 203:1 204:1 205:2 206:1 207:1 208:1 209:1 210:1 211:1 212:1 213:1 214:1 215:1 216:1 217:1 218:1 219:1 220:1 221:1 222:1 223:1 224:1 225:1 226:1 227:1 228:1 229:1 230:1 231:1 232:1 233:1 234:1 10005:1 10012:1 #
-0.0050017616092156149884551119555454 5:12 6:11 9:7 13:1 16:5 18:1 21:5 24:10 29:4 33:14 35:1 36:5 37:13 39:1 46:1 52:2 58:1 61:3 69:2 87:4 96:2 105:1 107:1 108:6 109:4 110:4 126:3 137:6 160:5 168:1 178:1 182:1 183:3 184:1 193:2 205:2 206:1 214:1 215:1 216:1 218:1 219:2 230:1 237:1 255:2 294:1 300:1 304:1 310:1 324:2 352:1 367:1 371:1 390:1 395:1 400:1 401:1 402:1 403:3 404:1 405:1 406:1 407:1 408:1 409:1 410:1 411:1 412:1 413:1 414:1 415:1 416:1 417:1 418:1 419:1 420:1 421:1 422:1 423:1 424:1 425:1 426:1 427:1 428:2 429:1 430:2 431:1 432:1 433:1 434:1 435:3 436:2 437:1 438:1 439:1 440:1 441:1 442:1 443:1 444:1 445:1 446:1 447:1 448:1 449:1 450:1 451:1 452:1 453:1 454:1 455:1 456:1 457:1 458:1 459:1 460:1 461:1 462:1 463:1 464:1 465:1 466:1 467:2 468:1 469:1 470:1 471:1 472:1 473:1 474:1 475:1 476:1 477:1 478:1 479:1 480:1 481:1 482:1 483:1 484:1 485:1 486:1 487:1 488:1 489:1 490:1 10005:1 #
-0.0050017616092156149884551119555454 3:2 5:10 6:6 9:6 13:1 16:2 21:1 24:6 25:2 29:1 33:13 35:1 36:3 37:6 39:1 46:1 52:6 58:1 61:2 69:2 73:1 78:1 82:2 87:6 96:1 97:1 103:1 107:1 108:3 109:1 110:1 126:1 137:6 142:1 153:1 160:1 163:1 183:1 193:1 196:1 197:1 204:1 205:2 228:1 232:1 237:1 281:1 294:1 303:1 304:2 306:1 311:1 314:1 324:3 352:1 358:1 363:2 364:1 365:1 367:1 376:1 378:1 397:1 399:1 409:1 429:1 432:1 438:1 453:1 462:1 467:1 482:1 484:1 491:1 492:2 493:1 494:1 495:1 496:2 497:3 498:1 499:2 500:1 501:1 502:1 503:1 504:1 505:1 506:1 507:1 508:1 509:1 510:1 511:1 512:1 513:1 514:1 515:1 516:2 517:1 518:1 519:1 520:1 521:1 522:1 523:1 524:1 525:1 526:1 527:1 528:1 529:1 530:1 531:1 532:1 533:1 534:1 535:1 536:1 537:1 538:1 539:1 540:1 541:1 542:1 543:1 544:1 545:1 10005:1 #
-0.0050017616092156149884551119555454 3:4 5:11 6:4 9:5 13:1 16:2 21:2 24:7 25:1 29:3 33:7 36:1 37:3 39:1 52:4 58:1 59:1 61:1 69:4 73:1 76:1 78:2 82:2 87:2 92:1 96:1 103:1 107:1 108:2 109:1 110:1 123:1 137:5 160:4 193:3 205:3 206:1 227:1 231:1 237:2 239:1 250:2 263:1 281:1 303:1 310:1 311:1 312:1 314:1 328:1 331:1 335:1 342:1 343:1 344:1 345:2 346:1 347:1 348:1 349:1 350:2 351:1 352:2 353:1 354:1 355:1 356:1 357:1 358:1 359:1 360:1 361:1 362:1 363:1 364:1 365:1 366:1 367:3 368:1 369:2 370:1 371:2 372:1 373:1 374:1 375:1 376:2 377:1 378:2 379:1 380:2 381:1 382:1 383:1 384:1 385:1 386:1 387:1 388:1 389:1 390:1 391:1 392:1 393:2 394:1 395:1 396:1 397:1 398:1 399:1 10005:1 #
-0.0050017616092156149884551119555454 5:10 6:6 9:2 13:2 16:3 18:1 21:2 23:4 24:7 29:1 33:8 35:3 36:1 37:4 38:1 39:1 46:3 52:3 58:2 69:3 72:1 76:1 82:1 87:2 96:2 108:6 126:1 137:6 158:1 160:3 163:2 168:1 183:1 212:1 222:1 227:1 237:2 300:1 301:1 304:1 312:2 363:1 367:3 372:1 376:1 378:1 409:1 484:1 492:1 497:1 499:1 548:1 554:2 557:4 558:1 563:1 588:1 611:3 613:1 617:3 668:1 684:1 710:1 713:1 715:1 734:1 793:1 803:2 817:1 856:1 890:1 892:1 906:1 918:3 919:3 926:1 930:1 952:1 982:3 998:1 999:1 1000:1 1001:1 1002:1 1003:1 1004:2 1005:3 1006:1 1007:1 1008:1 1009:1 1010:1 1011:1 1012:1 1013:1 1014:1 1015:1 1016:1 1017:1 1018:1 1019:1 1020:1 1021:1 1022:1 1023:1 1024:1 1025:1 1026:1 1027:1 1028:1 1029:1 1030:1 1031:1 1032:1 1033:1 1034:1 1035:1 1036:1 1037:1 1038:1 1039:1 1040:1 1041:1 1042:1 10005:1 #
-0.0050017616092156149884551119555454 5:10 6:11 9:1 14:1 15:2 16:4 21:2 23:1 24:8 29:3 33:5 35:1 37:1 38:4 46:1 52:3 58:1 59:1 61:4 69:4 72:1 73:3 76:1 96:1 103:1 108:5 122:1 126:1 131:1 135:1 137:5 144:2 160:2 163:1 178:1 193:4 197:1 204:1 205:3 206:1 232:1 250:1 281:2 304:1 307:1 312:3 314:3 342:1 358:1 371:1 426:1 427:1 430:1 438:1 500:1 509:1 538:2 554:2 555:1 566:1 573:1 592:1 690:1 789:1 972:1 1016:2 1054:2 1097:1 1478:2 1663:1 1680:1 1691:1 1704:1 1857:1 1860:1 1861:1 2012:1 2013:1 2014:1 2015:1 2016:1 2017:1 2018:1 2019:1 2020:1 2021:1 2022:1 2023:1 2024:1 2025:1 2026:1 2027:1 2028:1 2029:1 2030:1 2031:1 2032:1 2033:1 2034:1 2035:1 2036:1 2037:1 2038:1 2039:1 2040:1 2041:1 2042:1 2043:1 2044:1 10005:1 #
0.0050017616092156149884551119555454 5:2 6:3 9:1 16:3 23:1 29:1 33:3 34:1 35:2 37:1 38:1 39:1 44:1 46:2 52:1 61:1 82:2 87:1 92:1 107:1 108:3 109:1 110:1 122:1 126:2 137:1 162:1 170:1 172:1 193:1 206:1 228:1 235:1 236:1 237:1 238:1 239:1 240:1 241:1 242:1 243:1 244:1 245:1 246:1 247:1 248:1 249:1 250:1 251:1 252:1 253:1 10005:1 10015:1 #
0.0050017616092156149884551119555454 5:2 6:3 15:1 21:1 24:2 33:6 35:1 39:2 46:1 52:1 58:1 61:1 69:1 76:2 82:2 87:4 92:1 103:1 108:1 137:4 160:1 168:1 202:1 228:1 269:1 371:1 438:1 557:2 611:1 617:1 689:1 1014:1 1019:1 1031:1 1130:1 1243:1 1263:1 1277:2 1307:1 1388:1 1681:1 1704:1 1716:1 1717:1 1722:1 1725:1 1797:1 1901:1 1910:1 1911:1 1912:1 1913:1 1914:1 1915:1 1916:1 1917:1 1918:1 1919:1 1920:1 1921:1 1922:1 1923:1 1924:1 1925:1 1926:1 1927:1 1928:1 1929:1 1930:1 1931:1 1932:1 1933:1 1934:1 10005:1 10012:1 #
0.0050017616092156149884551119555454 5:3 9:3 15:1 16:3 21:1 24:2 33:4 37:4 38:3 52:1 69:1 82:1 87:1 104:1 108:1 118:1 119:1 122:1 126:2 137:3 142:1 144:1 160:1 182:1 193:1 204:1 205:1 206:1 208:1 209:1 222:1 232:1 237:2 297:1 352:1 367:1 371:1 387:1 452:1 484:1 503:1 599:1 677:1 1085:1 1088:1 1193:2 1371:1 1438:1 1478:1 1684:1 1685:1 1686:1 1687:1 1688:1 1689:1 1690:1 1691:1 1692:1 1693:1 1694:1 1695:1 1696:1 1697:1 1698:1 1699:1 1700:1 10005:1 10012:1 #
0.0050017616092156149884551119555454 3:2 5:2 6:4 9:1 21:2 24:3 33:5 37:3 44:1 52:2 58:1 84:1 87:1 108:1 126:1 137:4 163:1 208:1 281:1 324:1 372:1 385:1 448:1 511:1 530:1 679:1 689:1 721:1 1053:2 1713:1 1716:1 1717:1 1723:1 1850:1 1860:1 1899:1 1900:1 1901:1 1902:1 1903:1 1904:1 1905:1 1906:1 1907:1 1908:1 1909:1 10005:1 10012:1 #
0.0050017616092156149884551119555454 3:1 5:6 6:3 9:5 13:2 15:1 21:3 23:1 24:3 33:5 37:1 39:2 44:1 61:1 72:1 76:1 82:1 87:2 103:2 108:1 111:1 123:1 135:1 137:5 144:1 160:1 170:1 172:1 190:1 197:1 206:1 228:2 275:1 300:2 305:1 314:1 403:1 431:1 438:2 495:2 516:1 540:1 563:1 633:1 657:1 677:1 945:1 1045:2 1046:1 1173:1 1270:1 1284:1 1469:1 1498:1 1499:1 1500:1 1522:1 1549:1 1550:1 1551:1 1552:1 1553:1 1554:1 1555:1 1556:1 1557:1 1558:1 1559:1 1560:1 1561:1 1562:1 1563:1 1564:1 1565:1 1566:1 1567:1 1568:1 1569:1 1570:1 1571:1 1572:1 1573:1 1574:1 1575:1 10005:1 #
-0.0050017616092156149884551119555454 3:2 5:10 6:1 9:4 16:1 18:1 23:3 24:7 29:2 33:10 35:3 37:4 38:1 39:5 46:3 52:2 61:1 69:2 80:3 82:2 83:1 96:1 99:1 103:2 111:2 122:1 126:3 135:1 137:4 160:2 163:1 168:2 184:1 204:1 206:1 228:4 314:1 325:1 358:1 396:1 525:1 537:1 548:1 555:1 567:1 579:2 589:1 599:1 600:1 601:1 602:1 603:1 604:1 605:1 606:1 607:1 608:2 609:1 610:1 611:1 612:1 613:2 614:1 615:1 616:1 617:1 618:1 619:2 620:1 621:2 622:1 623:1 624:1 625:1 626:1 627:1 628:1 629:1 630:1 631:1 632:1 633:1 634:1 635:1 636:1 637:1 638:1 639:1 640:1 641:1 642:1 643:1 644:1 645:1 646:1 647:1 648:1 649:1 650:1 651:1 652:1 653:2 654:1 655:1 656:1 657:1 658:1 659:1 660:1 661:1 662:1 663:1 664:1 665:1 666:1 667:1 668:1 669:1 670:1 671:1 672:1 673:1 674:1 675:1 676:1 677:1 678:1 10005:1 #
-0.0022590665075742730888430642721687 24:2 33:10 39:2 58:2 168:3 280:1 297:1 348:1 557:1 572:1 611:2 613:2 617:2 618:1 636:1 646:5 647:1 705:1 710:2 713:1 719:1 729:1 734:6 813:1 836:1 862:1 985:1 1029:1 1100:1 1113:1 1121:2 1128:1 1147:2 1210:1 1230:2 1536:1 1576:1 1577:1 1578:1 1579:1 1580:1 1581:1 1582:2 1583:1 1584:1 1585:1 1586:3 1587:1 1588:1 1589:1 1590:1 1591:1 1592:1 1593:1 1594:1 1595:2 1596:2 1597:2 1598:1 1599:1 1600:1 1601:1 10005:1 #
-0.0050017616092156149884551119555454 3:1 5:5 6:5 9:1 16:7 24:2 29:1 33:14 37:5 39:1 43:1 44:1 52:1 61:1 69:1 87:1 96:1 108:1 126:1 137:6 160:2 193:1 196:1 206:2 212:1 232:1 247:1 253:1 254:1 255:1 256:1 257:1 258:1 259:1 260:1 261:1 262:1 263:1 264:1 265:1 266:1 267:1 268:1 269:1 270:1 271:1 272:1 273:1 274:1 275:1 276:1 277:1 278:1 279:1 280:1 281:1 282:1 283:1 284:1 285:1 286:1 287:1 10005:1 #
-0.0015628266255583588180411158674588 24:1 33:8 39:1 58:1 167:1 168:5 182:1 280:3 557:4 613:5 618:1 646:1 671:1 700:1 710:2 810:1 1121:1 1123:1 1128:2 1131:1 1150:1 1509:1 1866:1 1867:1 1868:1 1869:1 1870:1 1871:2 1872:1 1873:1 1874:1 1875:1 1876:1 1877:1 1878:1 1879:1 1880:1 1881:1 1882:1 1883:1 1884:1 1885:1 1886:1 1887:1 1888:1 1889:1 1890:1 1891:1 1892:1 1893:1 1894:1 1895:1 1896:1 1897:1 1898:1 10005:1 #
0.0050017616092156149884551119555454 3:1 5:6 6:2 9:4 13:2 16:2 21:1 24:4 29:2 33:3 35:1 36:1 37:4 38:2 46:1 52:2 59:1 61:2 64:1 69:2 72:1 73:1 87:2 97:1 108:2 126:1 137:3 160:1 163:1 193:2 205:2 236:1 237:1 239:1 250:1 305:1 330:1 343:1 353:1 398:1 400:2 465:1 484:2 495:1 496:1 523:2 529:1 689:1 1051:1 1054:1 1060:1 1180:1 1200:1 1329:1 1367:1 1440:1 1680:1 1684:1 1987:1 2067:1 2068:1 2069:1 2070:1 2071:1 2072:1 2073:1 2074:1 2075:1 2076:1 2077:1 2078:1 2079:1 2080:1 2081:1 2082:1 2083:1 2084:1 2085:1 2086:1 10005:1 #
0.0042758976338508700859586397768908 3:1 5:10 6:5 9:1 13:1 24:6 25:1 33:8 36:1 37:3 39:1 44:2 52:2 58:1 69:2 72:2 82:4 84:1 87:2 96:1 99:1 103:1 111:1 131:2 137:3 163:2 196:1 197:1 207:1 228:2 246:1 250:2 277:1 312:2 314:4 316:1 342:1 367:2 446:1 458:1 497:2 516:1 677:1 680:1 690:1 782:2 919:1 960:1 1064:1 1277:1 1323:1 1432:1 1440:1 1445:2 1471:1 1614:1 1615:1 1704:2 1716:1 1717:1 1724:1 1725:1 1755:1 1797:1 1850:1 1854:1 1919:1 1987:2 1988:1 1989:2 1990:1 1991:1 1992:1 1993:1 1994:1 1995:1 1996:1 1997:1 1998:1 1999:1 2000:1 2001:1 2002:1 2003:1 2004:1 2005:1 2006:2 2007:1 2008:1 2009:1 2010:1 2011:1 10005:1 10012:1 #
0.0050017616092156149884551119555454 1:1 3:1 5:8 6:3 15:1 16:5 21:2 24:6 25:2 29:1 33:8 35:3 37:1 38:1 39:1 44:1 46:3 52:3 61:2 69:4 72:1 73:1 78:1 83:1 84:1 107:1 108:1 131:1 137:2 160:1 162:1 163:1 227:1 237:1 238:1 300:1 305:1 312:2 314:1 324:1 358:1 438:2 514:1 557:1 564:1 585:1 671:1 700:1 722:1 743:1 775:1 783:1 791:1 793:1 842:1 973:1 974:1 976:2 980:1 981:1 1016:3 1020:1 1319:1 1600:1 1670:1 1704:1 1738:1 1743:1 1744:1 1745:1 1746:1 1747:1 1748:1 1749:1 1750:1 1751:1 1752:1 1753:1 1754:1 1755:1 1756:1 1757:1 1758:1 1759:1 1760:1 1761:1 1762:1 1763:1 1764:1 1765:1 1766:2 1767:1 1768:1 1769:1 1770:1 1771:1 1772:1 1773:1 1774:1 1775:1 1776:1 1777:1 1778:1 1779:1 1780:1 1781:1 1782:1 1783:1 1784:1 1785:1 1786:1 1787:1 1788:1 10005:1 10012:1 #
0.0050017616092156149884551119555454 9:2 16:1 23:1 24:1 33:2 35:1 37:1 39:1 46:1 52:1 53:1 58:1 137:1 178:1 227:1 228:1 772:1 775:1 925:1 1001:1 1069:1 1073:1 1168:1 1194:1 1195:1 1196:1 1197:1 1198:1 1199:1 1200:1 10005:1 10012:1 #
0.0050017616092156149884551119555454 5:7 6:3 9:2 13:1 16:4 21:1 23:1 24:5 29:2 33:8 37:7 52:4 58:1 61:2 87:3 96:2 103:3 108:1 111:1 137:3 142:1 160:2 163:1 168:1 176:1 183:1 228:1 232:1 290:1 304:1 312:1 314:2 358:2 366:1 367:1 414:2 467:1 489:1 495:2 496:3 529:1 546:1 547:1 548:1 549:1 550:1 551:1 552:1 553:1 554:3 555:1 556:1 557:2 558:1 559:1 560:1 561:1 562:1 563:1 564:1 565:2 566:1 567:1 568:1 569:1 570:1 571:1 572:1 573:1 574:1 575:1 576:1 577:1 578:1 579:1 580:1 581:1 582:1 583:1 584:1 585:1 586:1 587:1 588:1 589:1 590:1 591:1 592:1 593:1 594:1 595:1 596:1 597:1 598:1 10005:1 10012:1 #
-0.0019094317492243681553404366368909 5:1 23:1 24:1 1058:1 2129:1 10005:1 #
0.0050017616092156149884551119555454 3:1 5:5 6:4 9:3 16:1 23:1 24:4 33:14 35:1 37:3 39:2 46:1 58:3 61:2 69:2 76:1 78:1 87:1 126:1 137:4 160:2 168:5 170:2 172:2 228:2 305:1 372:1 425:1 429:1 492:1 499:1 500:1 512:2 514:1 557:3 564:1 566:1 611:1 613:1 617:1 633:1 646:1 649:1 713:1 721:1 722:2 723:1 724:1 725:1 726:1 727:1 728:2 729:1 730:1 731:1 732:1 733:1 734:2 735:2 736:1 737:1 738:1 739:1 740:1 741:1 742:1 743:1 744:1 745:1 746:1 747:1 748:1 749:1 750:2 751:1 752:1 753:1 754:1 755:1 756:1 757:1 758:1 759:1 760:1 761:1 762:2 763:1 764:1 765:1 766:1 767:1 768:1 769:1 770:1 771:1 772:1 773:1 774:1 10005:1 10012:1 #
-0.0034755041479132423379305727451083 3:1 5:6 6:1 9:1 13:1 16:2 23:1 24:4 25:1 27:1 29:3 33:6 35:1 36:3 37:5 38:1 39:2 42:1 46:1 52:1 58:1 61:1 69:2 72:1 76:1 80:2 82:1 87:1 95:1 96:1 97:1 99:1 104:1 105:1 108:1 126:1 131:1 160:2 162:1 163:1 184:2 232:1 292:1 293:1 294:1 300:1 304:1 312:1 313:1 314:1 335:1 350:1 358:1 371:1 425:1 457:2 555:1 593:1 783:1 1047:2 1048:1 1056:1 1057:1 1059:2 1061:1 1066:1 1073:1 1381:1 1584:1 1652:2 1786:1 1816:1 1822:1 1847:1 2036:1 2046:1 2047:1 2048:1 2049:1 2050:1 2051:1 2052:1 2053:1 2054:1 2055:1 2056:1 2057:1 2058:1 2059:1 2060:1 2061:1 2062:1 2063:1 2064:1 2065:1 2066:1 10005:1 #
0.0050017616092156149884551119555454 1:1 5:1 6:3 9:1 21:1 24:9 29:1 33:10 35:1 37:3 39:1 46:1 52:4 58:1 59:1 73:1 87:3 92:1 108:1 111:1 135:2 137:3 160:2 193:1 197:1 205:1 209:1 299:1 314:1 358:1 367:1 371:1 390:2 438:2 511:2 611:2 617:2 620:1 636:1 646:2 680:1 705:1 808:1 874:1 904:1 1016:1 1020:1 1116:1 1334:1 1438:1 1693:1 1703:1 1704:1 1705:1 1706:1 1707:1 1708:2 1709:1 1710:1 1711:1 1712:1 1713:1 1714:1 1715:1 1716:1 1717:1 1718:1 1719:1 1720:1 1721:1 1722:2 1723:1 1724:2 1725:1 1726:1 1727:1 1728:1 1729:1 1730:1 1731:1 1732:1 1733:1 1734:1 1735:1 1736:1 1737:1 1738:1 1739:1 1740:1 1741:1 1742:1 10005:1 10012:1 #
0.0050017616092156149884551119555454 5:3 6:1 9:2 16:1 21:2 24:2 29:1 33:5 37:1 39:2 42:1 44:1 52:1 61:1 72:1 74:1 87:4 108:2 126:1 137:5 168:3 170:1 172:1 193:2 197:1 204:1 205:1 237:1 238:1 278:1 316:1 371:1 400:2 483:1 511:1 557:3 564:1 613:1 782:1 793:1 856:1 973:1 1045:3 1179:1 1193:1 1602:1 1603:1 1604:1 1605:1 1606:1 1607:2 1608:2 1609:1 1610:1 1611:1 1612:1 1613:1 1614:1 1615:1 1616:1 1617:1 1618:1 1619:1 1620:1 1621:1 1622:1 1623:1 10005:1 10012:1 #
0.0050017616092156149884551119555454 3:3 5:2 6:6 9:1 16:2 21:2 24:5 29:2 33:10 35:3 37:3 38:1 39:1 46:3 52:3 61:1 69:2 73:1 76:1 80:1 87:1 108:2 126:1 135:2 160:2 168:1 232:1 237:1 294:1 312:1 314:1 335:1 350:1 358:1 371:1 465:1 499:1 511:1 557:2 625:1 677:1 700:1 728:1 729:1 813:2 844:1 869:1 886:1 953:1 972:1 973:1 990:1 1016:3 1048:1 1452:1 1581:1 1586:3 1668:1 1704:1 1717:1 1723:1 1790:1 1791:1 1794:1 1817:1 1824:1 1825:1 1826:1 1827:1 1828:1 1829:1 1830:1 1831:1 1832:1 1833:1 1834:1 1835:1 1836:1 1837:1 1838:1 1839:1 1840:1 1841:1 1842:1 1843:1 1844:1 1845:1 1846:1 1847:1 1848:1 1849:1 1850:1 1851:1 1852:1 10005:1 10012:1 #
0.0050017616092156149884551119555454 5:12 6:5 9:2 13:1 16:2 21:1 23:1 24:5 29:1 33:7 35:2 37:1 38:2 39:3 46:2 58:1 69:1 78:1 87:2 111:1 126:1 137:1 168:2 277:2 304:1 359:1 367:2 372:1 378:1 394:1 395:1 495:1 496:1 542:1 554:1 555:1 557:7 587:1 588:1 608:1 621:2 646:3 671:1 734:1 782:2 813:3 819:1 820:1 821:1 822:1 823:1 824:1 825:1 826:1 827:1 828:2 829:1 830:2 831:1 832:1 833:1 834:1 835:1 836:1 837:1 838:1 839:1 840:1 841:1 842:1 843:1 844:2 845:2 846:2 847:1 848:1 849:1 850:1 851:1 852:1 853:1 854:1 855:1 856:1 857:1 10005:1 #
0.0020355020426847153687532898658219 3:2 5:12 6:6 9:4 13:1 15:1 16:2 23:3 24:4 25:1 27:1 29:1 33:8 35:1 36:1 37:1 38:4 39:1 46:1 65:2 66:1 67:1 68:1 69:2 70:1 71:1 72:1 73:1 74:1 75:1 76:2 77:1 78:1 79:1 80:1 81:1 82:2 83:2 84:1 85:1 86:1 87:5 88:1 89:1 90:1 91:1 92:2 93:1 94:1 95:1 96:1 97:1 98:1 99:1 100:1 101:1 102:1 103:2 104:2 105:2 106:1 107:1 108:1 109:1 110:1 111:1 112:1 113:1 114:1 115:1 116:1 117:1 118:1 119:1 120:1 121:1 122:2 123:1 124:1 125:1 126:1 127:1 128:1 129:1 130:1 131:1 132:2 133:1 134:1 135:1 136:1 137:1 138:1 139:1 140:1 141:1 142:1 10005:1 10012:1 #
-0.0050017616092156149884551119555454 3:2 5:2 6:2 9:4 16:3 21:1 23:1 24:4 25:1 29:1 33:3 35:1 36:2 37:2 39:1 46:1 52:2 69:2 78:1 82:1 83:1 84:2 87:1 103:1 105:1 111:1 126:2 135:1 137:2 219:1 223:1 300:1 312:1 314:1 324:1 438:1 457:1 497:1 534:1 972:1 990:1 995:1 1048:1 1061:1 1263:1 1362:2 1415:1 1429:1 1430:2 1431:1 1432:2 1433:1 1434:1 1435:1 1436:1 1437:1 1438:1 1439:1 1440:1 1441:1 1442:1 1443:1 1444:1 10005:1 #
-0.0050017616092156149884551119555454 5:5 6:3 13:2 21:2 23:1 24:3 33:3 35:1 37:3 39:1 46:1 52:3 69:1 72:1 96:1 108:1 111:1 126:1 137:2 144:1 206:1 227:1 228:1 232:1 304:1 333:1 352:1 396:1 601:1 630:1 686:1 1022:1 1222:1 1307:1 1326:1 1332:1 1362:1 1363:2 1364:1 1365:1 1366:1 1367:1 1368:1 1369:1 1370:1 1371:1 1372:1 1373:1 1374:1 1375:1 1376:1 1377:1 1378:1 1379:1 1380:1 1381:1 10005:1 #
-0.0050017616092156149884551119555454 1:1 3:1 5:4 6:3 9:4 16:1 23:1 24:3 29:3 33:2 35:1 36:4 37:5 46:1 52:3 69:2 80:1 87:3 95:1 107:1 108:1 109:1 110:1 126:1 184:2 300:1 313:1 350:1 363:1 364:1 403:1 457:1 467:1 469:1 484:1 495:1 523:1 544:1 1043:1 1044:1 1045:1 1046:1 1047:2 1048:1 1049:1 1050:1 1051:1 1052:1 1053:1 1054:1 1055:1 1056:1 1057:1 10005:1 #
0.0050017616092156149884551119555454 3:1 5:2 6:1 9:4 16:1 18:1 21:1 23:3 24:4 29:2 33:6 35:3 36:2 37:4 46:3 52:2 53:1 61:1 69:1 82:1 87:1 96:1 103:3 108:1 123:1 126:1 137:2 205:1 219:1 222:1 228:1 232:1 248:1 272:1 312:1 314:1 328:1 358:1 368:1 446:2 467:2 539:1 543:1 583:1 761:1 775:1 782:1 793:1 942:1 1045:2 1046:1 1069:1 1073:1 1187:1 1188:1 1206:1 1232:1 1240:1 1241:1 1242:1 1243:1 1244:1 1245:1 1246:1 1247:1 1248:1 1249:1 1250:1 1251:1 1252:1 1253:1 1254:1 1255:1 1256:1 1257:1 1258:1 1259:1 1260:1 1261:1 10005:1 10012:1 #
0.0050017616092156149884551119555454 3:1 5:2 6:3 9:3 13:3 16:2 23:2 24:2 33:6 35:1 36:1 37:3 39:1 46:1 52:5 72:1 78:1 82:2 87:1 96:1 103:1 137:3 168:1 192:1 219:1 228:1 234:1 243:1 304:1 333:1 371:1 376:1 438:1 465:1 557:1 633:1 679:1 681:1 929:1 1046:1 1191:1 1198:2 1266:1 1323:1 1324:1 1325:1 1326:1 1327:1 1328:1 1329:1 1330:2 1331:1 1332:1 1333:1 1334:1 1335:1 1336:2 1337:1 1338:1 1339:1 1340:1 1341:1 1342:1 1343:1 1344:1 1345:1 1346:1 10005:1 10012:1 #
-0.0030073468552603284213720069573128 24:2 33:7 58:4 168:4 280:1 348:1 557:3 572:1 613:1 619:3 625:2 636:1 646:2 706:1 712:1 811:1 813:3 845:1 858:1 859:1 860:1 861:1 862:1 863:2 864:2 865:1 866:1 867:1 868:1 869:1 870:1 871:1 872:1 873:1 874:1 875:1 876:2 877:1 878:1 879:1 880:1 881:1 882:1 883:1 884:1 885:1 886:1 887:1 888:1 889:1 10005:1 #
-0.0050017616092156149884551119555454 24:2 33:6 168:2 348:1 425:1 557:5 613:1 619:1 621:2 646:1 710:1 719:1 727:1 813:1 863:1 869:1 953:1 1113:1 1124:1 1145:1 1184:1 1528:1 1624:1 1625:1 1626:1 1627:1 1628:1 1629:1 1630:1 1631:1 1632:1 1633:1 1634:1 1635:1 1636:2 1637:1 1638:1 1639:1 10005:1 #
-0.0050017616092156149884551119555454 3:1 5:2 6:1 16:1 24:2 25:1 29:2 33:5 37:5 39:1 44:1 58:1 61:2 87:2 92:1 137:3 160:1 193:2 205:2 250:1 281:1 300:1 305:1 372:1 376:1 398:1 574:1 593:1 677:1 834:1 1047:1 1086:1 1279:1 1652:1 1689:1 1853:1 1854:1 1855:1 1856:1 1857:1 1858:1 1859:1 1860:1 1861:1 1862:1 1863:1 1864:1 1865:1 10005:1 #
-0.0045276372603073973197029822301829 5:5 6:1 9:1 16:1 21:1 33:5 36:1 37:3 61:2 80:1 87:1 96:1 105:1 107:1 108:1 109:1 110:1 122:1 137:2 205:1 288:1 289:1 290:1 291:1 292:1 293:1 294:2 295:1 296:1 297:2 298:1 299:1 300:1 301:1 302:1 303:1 304:1 305:1 306:1 307:1 308:1 10005:1 #
0.0050017616092156149884551119555454 3:1 5:8 6:7 9:4 21:1 23:2 24:3 33:6 35:1 36:2 37:3 39:2 46:1 52:2 58:2 61:2 82:1 84:1 86:1 87:2 96:2 99:1 103:1 108:2 126:1 137:1 142:1 144:1 163:1 183:1 275:1 298:1 304:1 328:1 348:2 371:1 384:1 425:2 430:1 483:1 557:1 689:1 945:1 991:1 1023:1 1047:2 1059:1 1060:1 1061:1 1062:1 1063:2 1064:1 1065:1 1066:2 1067:1 1068:1 1069:1 1070:1 1071:1 1072:1 1073:1 1074:1 1075:1 1076:1 1077:1 1078:1 1079:1 1080:1 1081:1 1082:1 1083:1 1084:1 1085:1 1086:1 1087:1 1088:1 1089:1 1090:1 1091:1 1092:1 1093:1 10005:1 10012:1 #
-0.0050017616092156149884551119555454 3:1 5:4 6:1 9:1 15:1 16:1 24:4 33:2 39:1 52:1 69:1 80:1 81:2 96:2 103:2 137:3 160:1 197:1 206:1 228:2 281:1 312:1 350:1 358:1 514:1 657:1 786:1 993:3 1014:1 1086:1 1307:1 1449:1 1704:2 1822:1 1860:1 1861:1 1972:3 1973:1 1974:2 1975:1 1976:1 1977:2 1978:1 1979:1 1980:1 1981:1 1982:1 1983:1 1984:1 1985:1 1986:1 10005:1 #
-0.0050017616092156149884551119555454 5:1 6:2 9:1 33:3 37:1 39:1 80:1 82:1 126:1 137:1 204:1 209:1 228:1 312:2 438:1 562:1 689:1 761:1 1704:1 1722:1 1786:1 1797:1 1953:1 1954:1 1955:1 1956:1 1957:1 1958:1 1959:1 1960:1 10005:1 #
0.0042028070574993258573526233590201 3:2 5:3 6:3 9:2 15:2 16:4 21:2 24:7 33:7 35:1 37:4 39:1 46:1 52:1 61:1 69:2 82:1 87:3 96:1 108:1 137:4 160:1 168:1 206:1 228:2 237:1 246:1 275:1 312:1 314:2 358:2 371:1 390:1 438:3 446:1 501:1 557:1 592:1 662:1 674:1 677:1 679:1 700:1 743:2 957:1 959:1 1016:2 1191:1 1193:2 1252:1 1307:1 1445:2 1449:1 1586:1 1607:1 1608:1 1623:2 1738:2 1761:2 1762:1 1789:1 1790:1 1791:1 1792:1 1793:2 1794:1 1795:1 1796:1 1797:1 1798:1 1799:1 1800:1 1801:1 1802:1 1803:1 1804:1 1805:1 1806:1 1807:1 1808:1 1809:1 1810:1 1811:1 1812:1 1813:1 1814:1 1815:1 1816:1 1817:1 1818:1 1819:1 1820:1 1821:1 1822:1 1823:1 10005:1 10012:1 #
0.0044882111875186184515862386490426 1:1 3:1 4:1 5:7 6:5 9:4 16:3 18:1 23:1 24:4 29:3 33:6 35:1 36:3 37:1 38:1 39:2 46:1 52:3 61:1 82:1 87:4 97:1 105:1 137:5 160:1 206:2 228:2 238:1 275:1 294:1 312:2 314:3 315:1 316:1 350:2 400:1 430:1 484:1 495:1 511:1 557:1 789:1 859:1 973:2 985:1 1059:1 1082:1 1097:1 1475:1 1648:1 1663:1 1987:1 2029:1 2087:1 2088:1 2089:1 2090:1 2091:1 2092:1 2093:1 2094:1 2095:1 2096:1 2097:1 2098:1 2099:1 2100:1 2101:1 2102:1 2103:1 2104:1 2105:1 2106:1 2107:1 2108:1 2109:1 2110:1 2111:1 2112:1 2113:1 2114:1 2115:1 2116:2 2117:1 2118:1 2119:1 2120:1 2121:1 2122:1 2123:1 2124:1 2125:1 2126:1 10005:1 10012:1 #
-0.0050017616092156149884551119555454 5:3 9:1 21:1 23:1 24:2 29:2 33:3 37:2 52:1 61:1 82:1 87:1 108:1 137:3 160:1 280:1 324:1 328:1 409:1 532:1 945:1 991:1 1045:1 1263:1 1564:1 1621:1 1623:1 1640:1 1641:1 1642:1 1643:1 1644:1 1645:1 1646:1 1647:1 1648:1 1649:1 1650:1 1651:1 1652:1 1653:1 1654:1 1655:1 10005:1 #
-0.0010047201288036649614865414292808 9:1 18:1 24:1 36:1 309:1 10005:1 #
-0.00075736057819772439891892190644285 5:1 6:1 23:1 24:1 36:1 1047:1 1058:1 10005:1 #
