SVM-light Version V6.02
0 # kernel type
3 # kernel parameter -d 
1 # kernel parameter -g 
1 # kernel parameter -s 
1 # kernel parameter -r 
empty# kernel parameter -u 
100043 # highest feature index 
1555 # number of training documents 
510 # number of support vectors plus 1 
-0.0017285275 # threshold b, each following line is a SV (starting with alpha*y)
-0.011810025753950454188712093639424 1:1 2:1 3:1 4:1 5:1 6:1 7:1 8:1 9:1 10:1 11:1 12:1 100002:1 100040:1 100042:1 #
-0.011810025753950454188712093639424 4:1 12:1 13:2 14:1 15:1 100002:1 100041:1 100042:1 100043:1 #
0.0003662091491723936114051352053167 4:4 7:1 12:5 14:1 25:2 27:10 32:1 37:2 45:1 90:1 91:1 93:1 112:1 144:2 296:1 629:1 840:2 842:1 895:2 932:2 998:1 1199:1 1344:1 1353:1 1427:1 1646:1 2903:1 3274:1 3369:2 4105:1 5477:2 6019:3 7163:1 7264:1 7265:1 7266:2 7267:3 7268:1 7269:2 7270:1 7271:1 7272:1 7273:1 7274:1 7275:1 7276:1 7277:1 7278:1 100002:1 100011:1 100040:1 100043:1 #
-0.0078704350410912816971009675626192 4:2 7:3 14:1 16:1 25:5 27:2 31:2 32:1 33:1 34:1 35:1 36:1 37:1 38:1 39:1 40:2 41:1 42:2 43:1 44:1 45:1 46:1 47:1 48:1 49:1 50:1 51:1 52:1 53:1 54:1 55:1 56:1 57:1 58:1 100002:1 100040:1 100043:1 #
-0.011810025753950454188712093639424 12:1 15:1 37:1 59:1 60:1 100002:1 100041:1 100042:1 100043:1 #
-0.011810025753950454188712093639424 4:1 7:1 12:1 52:1 56:1 362:1 363:1 364:1 365:1 100002:1 100041:1 100042:1 100043:1 #
0.0077026130876911985678745509176224 12:2 27:1 95:1 136:1 2465:1 100002:1 100011:1 100012:1 100040:1 100043:1 #
0.011810025753950454188712093639424 1:1 2:1 4:1 10:1 12:2 25:1 27:3 56:1 90:1 93:1 101:1 321:1 382:1 1540:1 3503:1 10378:1 10390:1 10391:1 10392:1 10393:1 100002:1 100040:1 #
-0.011810025753950454188712093639424 100002:1 100040:1 100042:1 100043:1 #
0.011810025753950454188712093639424 4:1 7:1 9:1 11:1 12:1 17:1 19:1 25:2 27:1 47:1 66:1 90:1 91:1 93:1 112:1 144:1 290:1 431:1 1062:1 5419:1 5420:1 5421:1 5422:1 5423:1 5424:1 5425:1 5426:1 5427:1 5428:1 100002:1 100011:1 100040:1 100042:1 100043:1 #
-0.0014347089786036894363402405261354 2:1 4:8 7:1 12:3 14:4 16:2 17:3 25:2 27:17 37:1 42:2 56:6 72:1 84:1 112:2 130:1 138:2 144:6 213:1 296:1 418:1 430:1 530:2 629:1 932:1 943:1 950:1 972:4 1073:1 1142:1 1145:1 1301:1 1314:1 1446:1 2341:1 2688:1 2750:1 3415:1 7733:1 7929:1 8190:1 8212:2 8666:1 10397:1 10409:2 10410:1 10411:1 10412:1 10413:1 10414:2 10415:1 10416:2 10417:1 10418:1 10419:1 10420:1 10421:1 10422:1 10423:1 10424:1 10425:1 10426:1 10427:1 10428:1 10429:1 10430:1 10431:1 10432:1 10433:1 10434:1 10435:1 10436:1 10437:1 10438:1 10439:1 10440:1 10441:1 10442:1 100002:1 100040:1 100042:1 100043:1 #
-0.011810025753950454188712093639424 4:2 7:1 9:1 11:1 12:1 25:1 27:15 32:1 56:1 61:2 191:1 267:1 601:1 962:1 1048:1 2404:1 2474:1 4511:1 7798:1 12124:1 12125:1 12126:1 12127:1 12128:1 12129:1 12130:1 12131:1 12132:1 12133:1 12134:1 12135:1 12136:1 12137:1 12138:1 12139:1 12140:1 12141:1 12142:1 12143:1 12144:1 12145:1 12146:1 12147:1 12148:1 12149:1 12150:1 12151:1 100002:1 100040:1 100043:1 #
0.0052751102996433842790002799461035 12:1 27:1 644:1 4562:1 4563:1 5176:1 100002:1 100011:1 100012:1 100040:1 100043:1 #
0.011810025753950454188712093639424 2:1 1130:1 2663:1 100002:1 100040:1 100042:1 100043:1 #
0.011810025753950454188712093639424 2:2 4:2 9:2 11:1 12:2 25:3 27:2 37:1 56:5 80:1 144:3 169:1 314:1 430:1 722:1 1291:1 1317:1 2394:1 2623:1 3240:1 3241:1 3399:1 3412:1 3413:1 3414:2 3415:1 3416:1 3417:1 3418:1 3419:1 100002:1 100040:1 100043:1 #
0.011810025753950454188712093639424 9:1 11:1 12:1 27:1 249:1 6730:1 8270:1 100002:1 100040:1 100042:1 #
-0.011810025753950454188712093639424 12:1 27:3 66:1 78:1 95:1 209:1 395:1 975:1 1025:1 1137:1 1157:1 1375:1 1376:1 100002:1 100012:1 100040:1 #
0.0013581777473725973118257037697276 2:4 4:9 7:1 9:1 11:1 12:5 17:2 25:7 27:11 31:1 40:1 47:1 51:2 56:2 66:2 81:2 85:3 86:1 90:1 91:1 93:1 101:1 118:1 144:2 167:2 334:1 411:1 514:1 521:1 534:1 562:1 570:1 644:1 649:1 722:1 821:1 895:1 932:1 966:1 980:1 1007:2 1141:1 1822:1 1934:1 2042:1 2294:1 2328:1 2335:1 2397:2 2399:2 2403:1 3479:1 3494:1 3930:1 5188:1 5901:1 6779:1 6780:1 9001:2 9016:2 9017:1 9433:1 9434:1 9435:1 9436:1 9437:1 9438:1 9439:1 9440:1 9441:1 9442:1 9443:1 9444:1 9445:1 9446:1 9447:1 9448:1 9449:1 9450:1 9451:1 9452:1 9453:1 9454:1 9455:1 9456:1 9457:1 100002:1 100011:1 100012:1 100040:1 #
0.011810025753950454188712093639424 2:1 4:8 7:1 9:1 11:1 12:3 25:2 27:4 42:1 47:1 51:1 56:1 78:1 90:1 91:1 93:1 105:2 124:1 388:1 570:1 652:1 850:1 942:1 967:1 1017:1 1309:1 1407:1 2036:1 2668:1 3355:1 3448:1 3915:1 3996:1 4045:1 4196:1 5886:1 6534:1 8293:1 10561:1 11034:2 11035:2 11036:1 11037:2 11038:1 11039:1 11040:1 11041:1 11042:1 11043:1 100002:1 100011:1 100040:1 #
-0.0047264529574768295028253106693228 2:2 4:5 12:5 14:1 16:2 20:1 25:1 27:13 31:2 32:1 37:2 40:2 42:2 47:1 56:3 59:1 64:1 72:1 85:1 112:1 142:1 144:5 403:2 431:1 483:2 514:1 955:1 1040:1 1043:1 1179:1 1351:1 1859:1 1865:1 1919:1 1934:1 2328:2 2420:1 3175:1 3192:2 3358:1 3556:1 5188:1 5381:1 5392:1 6779:1 8816:1 9001:1 9016:1 9017:1 9102:1 9210:1 9226:1 9330:1 9403:1 9481:1 9499:1 9528:1 9572:1 9640:1 9641:1 9642:1 9643:1 9644:1 9645:1 9646:1 9647:1 9648:1 9649:1 9650:1 9651:1 9652:1 9653:1 9654:1 9655:1 9656:1 100002:1 100040:1 100043:1 #
-0.0055485381313615288537133274360258 2:1 4:3 9:4 11:4 12:4 13:1 14:6 19:1 25:4 27:14 28:1 32:1 42:1 56:1 59:1 72:1 75:1 85:2 112:3 196:1 347:1 460:1 569:1 629:1 651:1 723:2 754:1 907:1 958:1 1028:2 1168:1 1311:1 1383:1 1483:1 1576:1 1624:1 1646:1 1777:1 1865:1 2404:1 3359:1 3505:1 6127:1 6469:1 6470:1 6471:1 6472:1 6473:1 6474:2 6475:1 6476:1 6477:1 6478:1 6479:1 6480:1 6481:1 6482:1 6483:1 6484:1 6485:1 100002:1 100040:1 100043:1 #
0.011810025753950454188712093639424 4:3 9:1 11:1 12:2 20:1 25:3 27:1 31:1 40:1 66:1 169:1 570:1 722:1 758:1 907:1 1527:1 3233:1 3240:1 3241:1 3326:1 3403:1 3517:1 3518:1 100002:1 100040:1 100043:1 #
-0.011810025753950454188712093639424 27:1 31:1 40:1 42:1 51:1 56:2 85:1 94:1 97:1 112:1 209:1 290:1 319:1 592:1 719:1 836:1 1132:1 6680:1 8343:1 8382:1 8383:1 8384:1 8385:1 8386:1 100002:1 100040:1 #
0.011810025753950454188712093639424 3:1 7:1 12:5 27:1 174:1 175:1 319:1 570:1 700:1 1561:1 1705:1 1786:1 3392:1 3449:1 3450:1 3451:1 100002:1 100011:1 100040:1 100043:1 #
-0.011810025753950454188712093639424 4:5 12:1 16:2 17:1 20:1 25:3 27:9 51:1 56:2 85:3 95:2 144:1 264:1 265:1 403:1 439:1 629:1 754:1 944:1 1082:1 1340:1 2658:1 2693:1 2997:1 4254:1 4522:1 6185:1 6336:1 6517:1 7051:1 7269:1 7793:2 8455:1 8456:1 8457:1 8462:1 8463:1 8464:1 8465:1 8466:1 8467:1 8468:1 8469:1 8470:1 8471:1 8472:1 8473:1 100002:1 100012:1 100040:1 100043:1 #
-0.011810025753950454188712093639424 4:5 12:8 20:1 27:7 51:1 56:3 85:1 144:1 169:1 190:1 209:1 213:1 249:1 314:3 335:1 403:1 541:1 606:1 618:1 619:1 620:1 621:1 622:1 623:1 624:1 625:1 626:1 627:1 628:1 629:1 630:1 631:1 632:1 633:1 634:1 635:1 636:1 637:1 638:1 639:1 640:1 641:1 642:1 643:1 644:1 645:1 100002:1 100012:1 100040:1 #
0.011810025753950454188712093639424 27:1 2682:1 2683:1 100002:1 100041:1 100042:1 100043:1 #
0.011810025753950454188712093639424 27:1 2768:1 2769:1 100002:1 100041:1 100042:1 100043:1 #
0.011810025753950454188712093639424 27:1 171:1 8261:1 100002:1 100041:1 100042:1 100043:1 #
-0.011810025753950454188712093639424 2:1 12:1 27:1 51:2 124:1 204:2 206:1 225:1 1490:1 1557:1 1960:1 5281:1 5315:1 5316:1 5329:1 5330:1 5331:1 5332:1 100002:1 100040:1 100042:1 #
-0.011810025753950454188712093639424 2:1 12:2 31:1 40:1 44:1 1168:1 6527:1 7192:1 7221:1 7222:1 7223:1 100002:1 100040:1 100042:1 100043:1 #
0.0029093091351834726027147937088557 4:2 9:3 11:3 12:4 14:1 27:4 31:1 40:1 51:3 65:1 78:1 190:1 209:1 213:1 225:1 247:1 416:1 636:1 644:1 1028:2 1705:1 2265:1 3708:1 3714:1 3716:1 3804:1 3834:1 3835:1 3836:1 3837:1 3838:1 3839:1 3840:1 3841:1 3842:1 3843:1 3844:1 3845:1 3846:1 3847:1 3848:1 3849:1 3850:2 3851:1 3852:1 3853:1 3854:1 3855:1 3856:1 3857:1 100002:1 100012:1 100040:1 #
-0.011810025753950454188712093639424 12:1 27:4 56:2 66:1 101:1 306:1 307:1 416:1 601:1 2481:1 5541:1 5542:1 5543:1 5544:1 100002:1 100040:1 100043:1 #
-0.011810025753950454188712093639424 12:1 27:2 42:1 95:2 429:1 1448:1 2845:1 6601:1 6628:1 100002:1 100012:1 100040:1 100043:1 #
-0.011810025753950454188712093639424 2:1 7:1 14:1 19:1 25:1 27:3 31:1 37:1 40:1 42:1 56:1 66:1 67:1 81:1 120:1 150:1 167:1 320:1 411:1 567:1 594:1 1000:1 1221:1 1395:1 2753:1 3439:1 4440:1 6311:1 7268:1 8165:1 8239:1 8245:1 8265:1 8309:1 8310:1 8311:1 8312:1 8313:1 100002:1 100040:1 100042:1 #
-0.011178301550383212825678924673412 4:3 7:2 12:1 25:1 27:3 42:1 200:1 570:1 1078:1 1846:1 2864:1 3403:1 4502:2 8440:1 8441:2 8450:1 100002:1 100040:1 100043:1 #
0.011810025753950454188712093639424 2:3 4:2 7:2 12:3 13:4 14:1 16:1 25:2 27:7 31:1 37:2 40:1 42:1 56:2 144:6 200:1 204:1 206:2 209:1 430:4 478:1 570:1 655:1 671:1 1224:2 1235:1 1384:1 1418:1 1419:1 1696:1 1732:1 1771:1 2212:1 2991:1 3079:1 3414:1 3465:1 3548:1 3580:1 3641:1 4208:1 4473:1 5355:1 5368:1 6024:2 7088:1 7598:1 7639:1 7640:1 7693:1 7701:1 7703:2 7704:1 7705:1 7706:3 7707:1 7708:1 7709:2 7710:1 7711:1 7712:1 7713:1 7714:1 7715:1 7716:1 7717:1 7718:1 7719:1 7720:1 7721:1 7722:1 7723:1 7724:1 7725:1 7726:1 100002:1 100040:1 100043:1 #
0.011810025753950454188712093639424 2:2 4:4 7:1 9:1 11:1 12:3 13:1 14:1 25:1 27:4 28:1 32:1 85:2 97:1 112:1 130:2 144:1 186:1 297:1 360:1 629:1 961:1 962:1 974:2 975:1 978:1 1075:1 1076:1 1077:1 1078:1 1079:1 1080:1 1081:1 1082:1 1083:1 1084:1 1085:1 1086:1 1087:1 1088:1 1089:1 1090:1 1091:1 100002:1 100040:1 #
0.011544708390074343365427900209852 2:3 4:2 7:7 12:5 14:1 16:5 17:2 25:2 27:5 31:1 40:1 51:1 66:1 72:1 90:1 91:1 93:1 112:4 144:1 150:1 354:1 478:1 483:1 535:1 629:1 1004:1 1199:1 1243:1 1342:1 1377:1 1382:1 1401:1 1446:1 2290:1 2510:1 2991:2 3556:1 3908:1 4044:1 4273:1 4298:1 4977:2 6358:1 7796:1 9016:1 9150:1 9276:2 9317:1 9467:1 9914:5 10167:1 10168:1 10169:1 10170:1 10171:1 10172:1 10173:1 10174:1 10175:1 10176:1 10177:1 10178:1 10179:1 10180:1 10181:1 10182:1 10183:1 10184:1 10185:1 10186:1 100002:1 100011:1 100040:1 100043:1 #
0.011810025753950454188712093639424 12:6 27:5 213:2 334:1 335:3 403:1 483:1 644:3 1028:1 5030:1 5033:1 5055:1 5056:1 5057:1 5058:1 100002:1 100012:1 100040:1 100043:1 #
-0.011810025753950454188712093639424 12:1 27:2 56:1 144:3 981:1 1381:1 2658:1 2791:1 3438:1 3449:1 5947:1 5948:1 5949:1 5950:1 5951:1 5952:1 5953:1 5954:1 100002:1 100040:1 100042:1 100043:1 #
-0.011810025753950454188712093639424 2:1 4:15 7:3 9:4 11:4 12:4 14:2 17:2 25:4 27:20 31:1 32:1 38:1 40:1 42:2 45:1 51:4 56:2 59:1 66:1 75:1 78:1 94:1 95:3 102:1 112:5 144:3 167:2 204:3 206:3 209:1 213:2 216:1 225:1 256:2 264:1 265:1 319:2 345:1 405:1 430:1 431:1 443:1 445:1 530:1 567:1 570:1 654:1 671:3 720:1 810:2 916:1 1040:1 1089:1 1142:1 1258:1 1278:1 1347:1 1399:1 1428:1 1454:1 1569:1 1621:3 1674:1 1747:1 2247:1 2372:1 2545:1 2687:1 2791:2 2921:1 2926:1 2929:1 2998:1 3023:1 3414:2 3474:1 3661:1 3706:1 4154:2 4433:1 4618:1 5370:1 5592:1 5672:1 6036:1 6037:1 6406:2 7021:1 7627:2 7678:1 7720:1 8129:1 8499:1 8542:1 8636:1 8637:1 8638:1 8639:1 8640:1 8641:1 8642:1 8643:1 8644:1 8645:1 8646:1 8647:1 8648:1 8649:1 8650:4 8651:1 8652:1 8653:1 8654:1 8655:1 8656:1 8657:1 8658:1 8659:1 8660:1 8661:1 8662:1 8663:1 8664:1 8665:1 8666:1 8667:1 8668:1 8669:1 100002:1 100012:1 100040:1 #
-0.011810025753950454188712093639424 2:1 4:1 9:1 11:1 12:1 27:1 31:1 40:1 72:1 73:1 74:1 75:1 76:1 77:1 78:1 79:1 80:1 100002:1 100040:1 100042:1 #
0.011810025753950454188712093639424 12:1 14:1 85:3 133:1 605:1 1040:1 2397:1 2851:1 5243:1 5714:1 5715:1 5716:1 100002:1 100041:1 100043:1 #
0.011810025753950454188712093639424 12:4 25:1 27:5 31:1 36:1 40:1 56:3 85:1 153:1 172:1 195:1 213:1 225:1 518:1 611:1 1462:1 6580:1 6658:1 6684:1 6767:1 6779:1 6780:1 6781:1 6782:1 100002:1 100040:1 #
0.011810025753950454188712093639424 4:1 27:1 66:1 570:1 821:1 907:1 8263:1 8264:1 100002:1 100040:1 100042:1 100043:1 #
0.011810025753950454188712093639424 27:1 56:1 2585:1 2586:1 2587:1 2588:1 100002:1 100041:1 100042:1 100043:1 #
-0.011810025753950454188712093639424 2:1 12:4 27:3 66:1 85:1 113:1 133:1 144:1 443:1 1171:1 1206:1 1448:1 2273:1 3122:1 3175:1 4469:1 6779:1 6780:1 10252:1 10253:1 10254:1 10255:1 10256:1 10257:1 100002:1 100040:1 #
-0.011810025753950454188712093639424 4:1 9:1 11:1 314:1 739:1 1079:1 11429:1 11430:1 100002:1 100040:1 100042:1 100043:1 #
0.0022112090990976432901271575559576 4:7 7:1 9:1 11:1 12:3 16:2 19:1 25:2 27:13 42:1 47:1 51:2 56:3 59:1 85:2 112:2 144:3 185:1 196:1 322:1 327:1 370:1 388:1 416:1 429:1 439:1 570:1 592:1 712:1 766:1 972:2 1040:1 1078:1 1086:1 1089:1 1289:1 1342:1 1532:1 1621:1 1846:1 1975:1 2864:1 3147:1 3707:1 5594:1 6406:1 6480:1 7093:1 8434:1 8435:1 8436:1 8437:2 8438:3 8439:1 8440:1 8441:1 8442:1 8443:1 8444:1 8445:1 8446:1 8447:1 8448:1 8449:1 8450:1 8451:1 8452:1 8453:1 8454:1 100002:1 100011:1 100012:1 100040:1 100043:1 #
0.011810025753950454188712093639424 4:1 9:1 11:1 12:3 14:2 19:1 20:1 51:1 56:1 66:1 90:1 91:1 93:1 112:2 124:1 319:1 411:1 417:1 443:1 514:1 535:1 536:1 605:1 650:1 1557:2 2622:1 3405:1 3891:2 6347:1 7505:1 12108:1 12126:1 12186:1 12187:1 12188:1 12189:1 12190:1 100002:1 100011:1 100040:1 100043:1 #
0.011810025753950454188712093639424 4:1 19:1 27:1 632:1 8321:1 8322:1 8323:1 100002:1 100041:1 100042:1 #
-0.011810025753950454188712093639424 12:1 17:1 27:3 31:1 40:1 51:1 56:1 66:1 138:1 144:2 296:1 325:1 430:1 451:1 934:1 1106:1 1343:1 2658:1 2719:2 3182:1 3233:4 3268:2 3447:1 5383:1 6438:1 8435:1 11081:1 11082:1 11083:1 11084:1 11085:1 100002:1 100040:1 100042:1 100043:1 #
-0.011810025753950454188712093639424 12:1 27:1 31:1 40:1 206:1 1960:1 5254:1 5469:1 5505:1 5651:1 100002:1 100018:1 100040:1 100042:1 100043:1 #
0.011810025753950454188712093639424 4:1 25:1 27:1 31:1 40:1 42:1 51:1 190:1 1042:1 1117:1 3551:1 7093:1 8188:1 100002:1 100040:1 100042:1 #
0.011810025753950454188712093639424 12:2 27:1 95:1 204:5 206:3 209:1 243:1 495:1 651:1 774:1 1057:1 1058:1 1069:1 1296:1 2554:1 4552:1 4588:1 4589:1 4590:1 4591:1 4592:1 4593:1 4594:1 4595:1 4597:1 4598:1 4599:1 4600:1 4601:1 4602:1 4603:1 4768:1 4787:1 4832:1 4833:1 100002:1 100012:1 100040:1 100043:1 #
0.011810025753950454188712093639424 27:1 171:1 8274:1 100002:1 100041:1 100042:1 100043:1 #
-0.011810025753950454188712093639424 12:2 95:1 334:1 100002:1 100012:1 100040:1 100043:1 #
-0.011810025753950454188712093639424 12:1 31:1 40:1 85:1 10670:1 11184:1 11185:1 100002:1 100040:1 100042:1 100043:1 #
-0.0041026209342758055559352570185183 2:7 4:3 12:4 19:2 20:2 25:1 27:3 31:8 32:1 37:3 40:8 42:2 56:1 66:1 68:1 72:1 85:2 112:2 144:2 150:1 348:1 360:1 421:1 422:1 432:2 530:1 583:1 621:1 880:1 907:1 927:2 966:1 1156:1 1224:1 1235:1 1350:1 1378:1 1522:2 1934:1 2561:1 2604:2 2739:1 2755:2 2987:1 3401:1 3456:1 4028:1 4490:1 4511:1 5819:1 7214:2 7857:1 7983:1 8267:1 9673:1 11432:6 11624:1 11635:1 11827:1 11834:1 11835:1 11836:1 11837:1 11838:1 11839:1 11840:2 11841:1 11842:1 100002:1 100040:1 100043:1 #
-0.011810025753950454188712093639424 1:1 2:2 4:2 7:1 9:1 11:1 12:4 25:2 27:3 28:1 31:3 40:3 42:2 51:4 56:2 59:1 95:1 105:1 111:1 112:2 133:1 190:1 213:2 334:1 335:1 416:1 483:1 530:1 758:1 821:1 1040:1 1090:1 1099:1 1345:1 2727:1 2760:1 4011:1 4245:1 4289:1 4381:1 4398:1 4428:1 4456:1 4457:1 4458:1 4513:1 4514:1 4515:1 4516:1 4517:1 4518:1 4519:1 4520:1 4521:1 100002:1 100012:1 100040:1 #
0.011810025753950454188712093639424 12:1 27:1 7279:1 7280:1 100002:1 100040:1 100042:1 100043:1 #
-0.011810025753950454188712093639424 570:1 100002:1 100040:1 100042:1 100043:1 #
0.0055157204276228381789604071627764 2:1 4:9 7:1 9:2 11:1 12:6 14:1 16:2 19:1 20:1 25:6 27:6 31:3 32:1 37:2 40:3 42:3 51:1 56:4 95:2 112:3 136:1 144:5 167:1 169:1 334:1 430:2 570:1 580:1 722:2 758:2 894:1 928:1 950:1 1167:1 1234:1 1255:1 1271:1 1366:1 1527:1 2630:1 2944:1 3197:1 3233:2 3240:1 3241:1 3276:1 3326:1 3403:1 3429:1 3440:1 3517:1 3518:1 3578:2 3674:1 3675:1 3676:1 3677:1 3678:1 3679:1 3680:1 3681:1 3682:1 3683:1 3684:1 3685:1 3686:1 3687:1 3688:1 3689:1 3690:1 3691:1 3692:1 3693:1 3694:2 3695:1 3696:1 3697:1 3698:1 100002:1 100011:1 100012:1 100040:1 100043:1 #
-0.011810025753950454188712093639424 4:1 12:3 27:4 115:1 1407:1 3747:1 6789:1 7241:1 7242:1 7243:1 100002:1 100040:1 #
0.011810025753950454188712093639424 4:1 20:1 27:1 31:1 40:1 51:1 112:1 1177:1 2604:1 2624:1 2625:1 2626:1 2627:1 2628:1 2629:1 100002:1 100040:1 100042:1 100043:1 #
0.011810025753950454188712093639424 4:1 16:1 27:1 31:1 37:1 40:1 42:1 68:2 144:1 321:1 388:1 934:1 965:1 1228:1 1255:1 2414:1 2679:1 3405:1 6415:1 8305:1 8306:1 8307:1 100002:1 100040:1 100042:1 100043:1 #
-0.011810025753950454188712093639424 100002:1 100041:1 100042:1 100043:1 #
-0.011810025753950454188712093639424 12:1 570:1 5464:1 100002:1 100018:1 100041:1 100042:1 100043:1 #
-0.011810025753950454188712093639424 12:1 27:2 1031:1 5085:1 6338:1 100002:1 100040:1 100043:1 #
0.011810025753950454188712093639424 9:1 11:1 12:1 27:1 95:1 249:1 10537:1 100002:1 100012:1 100040:1 100042:1 100043:1 #
-0.011810025753950454188712093639424 12:4 27:5 172:1 174:1 360:1 632:1 880:1 1429:1 1763:1 4549:1 4648:1 4963:1 5036:1 5037:1 5038:1 100002:1 100040:1 #
-0.011810025753950454188712093639424 12:3 27:4 56:1 133:3 2294:2 6779:1 6780:1 10201:1 10202:1 10203:1 10204:1 10205:1 100002:1 100040:1 100043:1 #
0.011810025753950454188712093639424 42:1 45:1 319:1 1349:1 2694:1 2695:1 2696:1 100002:1 100040:1 100042:1 100043:1 #
0.011810025753950454188712093639424 20:1 27:1 31:1 40:1 51:1 72:1 324:1 516:1 2591:1 2592:1 2593:1 2594:1 2595:1 100002:1 100040:1 100042:1 100043:1 #
-0.011810025753950454188712093639424 100002:1 100040:1 100042:1 100043:1 #
0.011810025753950454188712093639424 9:1 11:1 12:1 27:2 249:1 570:1 2587:1 2588:1 2677:1 2678:1 100002:1 100040:1 100042:1 100043:1 #
0.011810025753950454188712093639424 12:3 136:1 651:1 6789:1 100002:1 100011:1 100040:1 100042:1 100043:1 #
0.011810025753950454188712093639424 12:1 27:1 7174:1 7175:1 100002:1 100040:1 100042:1 #
-0.011810025753950454188712093639424 100002:1 100040:1 100042:1 100043:1 #
-0.011810025753950454188712093639424 100002:1 100040:1 100042:1 100043:1 #
-0.011810025753950454188712093639424 100002:1 100040:1 100042:1 100043:1 #
-0.011810025753950454188712093639424 100002:1 100040:1 100042:1 100043:1 #
0.011810025753950454188712093639424 2:1 3:1 4:5 6:1 9:1 11:1 12:4 16:1 27:4 31:1 32:1 40:1 42:2 45:1 51:3 56:2 65:2 111:1 112:1 144:2 150:2 190:1 209:1 388:1 411:2 443:2 448:1 530:1 636:2 650:1 720:1 895:1 932:1 942:1 1156:1 1242:3 1334:1 1705:1 2561:1 2621:1 2622:1 2712:1 2937:1 3713:1 3714:1 3715:1 3716:2 3717:1 3718:1 3719:1 3720:1 3721:1 3722:1 3723:1 3724:1 3725:1 3726:1 3727:1 3728:1 3729:1 3730:1 3731:1 3732:1 3733:1 100002:1 100040:1 #
0.011810025753950454188712093639424 12:1 27:1 550:1 1090:1 1895:1 2037:1 2309:1 2315:1 2316:1 2317:1 100002:1 100011:1 100040:1 #
0.011810025753950454188712093639424 14:1 27:2 31:1 40:1 55:1 2728:1 7288:1 7493:1 11502:1 11514:1 100002:1 100040:1 100042:1 100043:1 #
0.010101233923626875763068788671717 2:2 4:5 7:4 12:6 14:7 20:1 25:2 27:11 32:2 42:1 51:3 56:2 85:1 90:1 91:1 93:1 111:1 112:3 144:1 153:2 338:2 360:1 403:1 483:1 521:2 723:2 857:1 1199:1 1312:1 1407:4 1448:1 1505:1 1822:1 1859:1 1910:1 1919:1 2091:1 2133:1 2399:1 2688:1 3050:1 4965:1 5083:1 5710:1 6328:1 6700:1 6779:1 9166:1 9226:1 9328:1 9331:1 9433:1 9487:1 9488:1 9489:1 9528:1 9572:1 9873:1 10004:1 10005:1 10006:1 10007:1 10008:1 10009:1 10010:1 10011:1 10012:1 10013:1 10014:1 10015:1 100002:1 100011:1 100040:1 100043:1 #
0.011810025753950454188712093639424 1:1 4:2 9:1 12:2 14:2 17:1 25:4 27:10 31:1 37:1 40:1 45:1 56:1 64:1 66:1 85:2 105:1 144:1 264:1 265:1 296:1 321:1 445:1 514:1 530:2 591:1 629:1 940:1 977:1 980:1 981:1 982:1 983:1 984:1 985:1 986:1 987:1 988:1 989:1 990:1 991:1 992:1 993:1 994:1 995:1 996:1 997:1 998:1 999:1 1000:1 1001:1 1002:1 1003:1 1004:1 1005:1 1006:1 1007:1 1008:1 1009:1 1010:1 1011:1 1012:1 1013:1 1014:1 1015:1 100002:1 100040:1 #
0.011810025753950454188712093639424 27:1 570:1 2140:1 2141:1 100002:1 100041:1 100042:1 100043:1 #
-0.011810025753950454188712093639424 1:1 27:3 80:1 204:1 206:1 209:1 229:1 478:1 674:1 785:1 821:1 862:1 892:1 1624:1 2212:1 11283:1 11442:1 11443:1 100002:1 100040:1 #
-0.011810025753950454188712093639424 12:1 27:4 78:1 81:1 115:1 295:1 1763:1 10521:1 10522:1 10523:1 10524:1 10525:1 100002:1 100040:1 100042:1 #
-0.011810025753950454188712093639424 9:1 11:1 12:4 27:6 51:1 190:1 204:1 206:1 225:1 335:1 488:1 550:1 644:1 1057:1 1058:1 1447:1 1605:1 1866:1 4549:1 4554:1 4567:1 4579:1 4777:1 5181:1 5182:1 5183:1 5184:1 5185:1 5186:1 5187:1 5188:1 5189:1 5190:1 5191:1 5192:1 100002:1 100012:1 100040:1 #
0.011810025753950454188712093639424 2:1 4:5 12:1 17:1 25:2 27:4 37:1 42:1 56:1 66:1 112:1 144:1 167:1 190:1 304:1 348:1 411:1 439:1 632:2 853:1 934:1 937:1 976:1 1296:2 1368:1 1490:1 1504:1 1511:1 2260:1 3116:1 4523:1 8049:1 8292:1 8321:2 8327:1 8408:1 8409:1 8410:1 8411:1 8412:1 8413:1 8414:1 8415:1 8416:1 8417:1 8418:1 100002:1 100040:1 100042:1 #
0.011200560914879848992131705642805 4:5 7:1 9:1 11:1 12:3 14:2 25:3 27:6 31:2 37:1 40:2 42:2 44:1 45:2 50:1 51:1 56:1 85:1 102:1 111:1 133:1 144:1 167:2 264:1 265:1 485:1 530:1 552:1 570:1 591:1 644:1 821:2 880:1 914:1 1199:1 1242:2 1272:1 1353:1 1621:1 1975:1 3281:1 3468:1 3949:1 4294:1 5364:1 6270:1 6779:1 6780:1 7522:1 8727:1 8985:1 8986:1 8994:1 9425:1 9759:2 9847:1 10140:1 10141:1 10142:1 10143:1 10144:1 10145:1 10146:1 100002:1 100011:1 100012:1 100040:1 100043:1 #
0.011810025753950454188712093639424 9:1 11:1 12:3 27:3 190:1 204:1 206:1 225:1 335:1 488:1 550:1 644:1 1057:1 1058:1 1447:1 1605:1 4549:1 4554:1 4579:1 4776:1 4777:1 5181:1 5182:1 5183:1 5184:1 5185:1 5188:1 5189:1 100002:1 100012:1 100040:1 #
-0.011810025753950454188712093639424 4:3 12:1 13:2 14:1 19:1 25:1 534:1 598:1 2712:1 2942:1 3387:1 3720:1 3731:1 3796:1 7804:1 100002:1 100041:1 100042:1 100043:1 #
-0.0083407252194987631377376402497248 7:1 12:1 13:1 16:1 20:1 42:1 56:2 439:1 927:1 1342:1 1384:1 2885:1 3472:1 7760:1 7761:1 7762:1 7763:1 7764:1 7765:1 7766:1 7767:1 7768:1 7769:1 7770:1 7771:1 7772:1 100002:1 100041:1 100042:1 100043:1 #
-0.011810025753950454188712093639424 4:1 12:1 25:1 570:1 1089:1 2202:1 8574:1 8575:1 100002:1 100041:1 100042:1 100043:1 #
-0.011810025753950454188712093639424 4:1 12:1 25:1 570:1 1090:1 2317:1 2319:1 100002:1 100041:1 100043:1 #
0.011570469119699907864506904786595 2:1 4:6 7:1 9:1 11:1 12:5 14:1 25:3 27:7 31:1 37:1 40:1 45:1 56:2 85:2 112:2 144:2 149:1 167:1 611:1 644:1 655:1 726:1 766:1 836:1 1199:1 2604:1 2716:1 4008:1 9102:1 9128:1 9160:1 9327:1 9328:1 9329:1 9557:1 9667:1 9668:1 9669:1 9670:1 9671:1 9672:1 9673:1 9674:1 9675:1 9676:1 9677:1 9678:1 9679:1 9680:1 9681:1 9682:1 100002:1 100011:1 100012:1 100040:1 100043:1 #
0.011810025753950454188712093639424 12:1 27:4 51:1 204:2 206:1 214:1 225:1 256:1 383:1 1127:1 1663:1 2155:1 6688:1 7957:1 7958:1 7959:1 7960:1 7961:1 100002:1 100011:1 100040:1 100043:1 #
0.011810025753950454188712093639424 2:2 12:2 27:2 31:1 40:1 95:1 6307:1 7192:1 7197:1 7198:1 7199:1 100002:1 100012:1 100040:1 100043:1 #
0.011810025753950454188712093639424 2:1 4:1 27:2 31:1 40:1 46:1 66:1 112:1 749:1 1063:1 1069:1 2669:1 2670:1 2671:1 2672:1 2673:1 2674:1 100002:1 100040:1 100042:1 100043:1 #
0.011810025753950454188712093639424 12:2 27:2 36:1 95:2 611:1 2404:1 2845:1 6628:1 100002:1 100012:1 100040:1 100043:1 #
0.011810025753950454188712093639424 12:1 27:2 95:1 403:1 1635:1 1641:1 1916:1 1934:1 1935:1 100002:1 100012:1 100040:1 100043:1 #
0.011810025753950454188712093639424 2:1 4:1 27:1 31:1 40:1 51:1 56:1 75:1 85:2 144:1 167:1 204:2 206:1 209:1 430:1 432:1 443:1 580:1 629:1 965:1 1061:1 1082:1 1353:1 2575:1 2608:1 2609:1 2610:1 2611:1 2612:1 2613:1 2614:1 2615:1 2616:1 2617:1 2618:1 2619:1 100002:1 100040:1 100042:1 100043:1 #
0.011810025753950454188712093639424 4:1 27:1 31:1 40:1 144:1 537:1 740:1 2574:1 100002:1 100040:1 100042:1 100043:1 #
0.011810025753950454188712093639424 27:1 1763:1 8392:1 100002:1 100041:1 100042:1 #
-0.011810025753950454188712093639424 14:1 570:1 3903:1 100002:1 100040:1 100042:1 100043:1 #
-0.011810025753950454188712093639424 9:4 11:4 12:5 27:7 51:2 95:1 190:1 204:6 206:5 209:1 243:2 376:1 410:2 485:2 606:2 651:1 712:1 917:1 1057:2 1058:2 1063:1 1069:1 1497:1 1646:1 1690:2 1950:1 2053:1 2222:1 2533:1 3076:1 3258:1 4307:1 4564:2 4587:1 4598:1 4614:1 4633:1 4669:1 4707:1 4708:1 4710:2 4711:2 4728:1 4880:1 4970:2 5020:1 5221:1 5222:1 5223:1 5224:1 5225:1 5226:1 5227:1 5228:1 5229:1 5230:1 5231:1 5232:3 5233:2 5234:1 5235:1 5236:1 5237:1 5238:1 100002:1 100012:1 100040:1 #
-0.011810025753950454188712093639424 9:1 12:2 27:4 172:1 174:1 206:1 208:1 403:1 632:1 1057:1 1058:1 1407:1 1763:1 4246:1 4547:1 4548:1 4549:1 4552:1 4554:1 4555:1 4560:1 4985:1 4986:1 4987:1 4988:1 4989:1 4990:1 100002:1 100040:1 #
-0.011810025753950454188712093639424 9:1 11:1 12:2 27:4 172:1 174:1 208:1 632:1 1057:1 1058:1 1407:1 1576:1 1763:1 4547:1 4548:1 4549:1 4550:1 4551:1 4552:1 4553:1 4554:1 4555:1 4556:1 4557:1 4558:1 4559:1 4560:1 100002:1 100040:1 #
-0.011810025753950454188712093639424 4:1 12:4 27:6 81:1 632:1 998:1 1057:1 1058:1 1705:1 4726:1 6598:1 6605:1 6606:1 6607:1 6608:1 6609:1 6610:1 6611:1 6612:1 6613:1 6614:1 6615:1 6616:1 6617:1 6618:1 6619:1 6620:1 6621:1 6622:1 6623:1 6624:1 100002:1 100040:1 100042:1 #
-0.011810025753950454188712093639424 9:1 11:1 12:1 27:2 45:1 66:1 95:1 113:1 172:1 264:1 530:1 962:1 1047:1 1334:1 1561:1 2419:1 2825:1 6743:1 6899:1 6900:1 6901:1 6902:1 6903:1 6904:1 6905:1 100002:1 100012:1 100040:1 #
0.011810025753950454188712093639424 12:1 20:2 27:3 31:1 40:1 56:1 67:2 295:1 969:1 1386:1 4237:1 8319:1 8320:1 100002:1 100040:1 100042:1 #
0.011810025753950454188712093639424 2:1 4:1 27:2 31:1 40:1 51:1 56:1 112:1 295:1 418:1 459:1 580:2 754:1 4070:1 7695:1 8363:1 8433:1 100002:1 100040:1 100042:1 #
0.011810025753950454188712093639424 27:2 31:1 40:1 56:2 1913:1 2572:1 2602:1 2603:1 2722:1 2723:1 2724:1 100002:1 100040:1 100042:1 100043:1 #
-0.0072785352507741818417486001635552 2:2 4:2 12:2 19:1 25:1 27:1 31:2 40:2 42:1 72:1 112:1 138:1 144:1 169:2 439:1 965:1 1023:1 2658:1 3233:1 3556:1 4534:1 5720:1 8700:1 9265:1 9417:1 11086:2 11087:1 11088:1 100002:1 100040:1 100042:1 100043:1 #
0.011810025753950454188712093639424 12:1 27:1 95:1 758:1 7371:1 7372:1 100002:1 100012:1 100040:1 100043:1 #
-0.011810025753950454188712093639424 100002:1 100040:1 100042:1 100043:1 #
-0.011810025753950454188712093639424 12:1 25:2 561:1 562:1 563:1 564:1 100002:1 100041:1 100042:1 100043:1 #
-0.011810025753950454188712093639424 7:1 12:1 17:1 31:1 37:1 40:1 144:1 348:1 555:1 940:1 958:1 1384:1 1488:1 1642:1 2972:1 2973:1 2974:1 2975:1 2976:1 2977:1 2978:1 2979:1 2980:1 2981:1 100002:1 100040:1 100042:1 100043:1 #
-0.011810025753950454188712093639424 100002:1 100040:1 100042:1 100043:1 #
0.011810025753950454188712093639424 4:1 9:1 11:1 12:2 16:1 27:3 112:1 144:1 167:1 249:1 592:1 1099:1 1314:1 1495:1 1586:1 8343:1 8376:1 8377:1 8378:1 8379:1 8380:1 8381:1 100002:1 100040:1 #
0.011810025753950454188712093639424 9:1 11:1 12:2 19:1 25:1 27:3 42:1 66:1 81:1 92:1 95:1 112:1 167:1 411:1 758:1 1347:1 2036:1 2629:1 3510:1 4487:1 7373:3 7374:1 7375:1 7376:1 7377:1 7378:1 100002:1 100012:1 100040:1 #
-0.011810025753950454188712093639424 2:1 4:1 9:1 11:1 12:1 14:1 25:1 27:2 56:1 117:1 124:1 416:1 2992:1 4038:1 4045:1 4214:1 5243:1 5490:1 5491:1 5492:1 5493:1 5494:1 5495:1 5496:1 100002:1 100040:1 100043:1 #
0.0079847466157887403426229866454378 9:2 11:2 12:6 27:8 95:1 172:1 174:1 213:1 335:1 632:1 1028:1 1407:1 1484:1 1763:1 4565:1 4963:1 4964:1 4965:1 5030:1 5033:1 5076:1 5083:1 5084:1 5085:1 100002:1 100012:1 100040:1 #
0.011810025753950454188712093639424 9:2 11:2 12:4 27:4 103:1 204:2 206:2 335:1 643:1 644:1 988:1 1057:1 1058:1 1653:1 1655:1 2033:1 4552:1 4751:1 4776:1 4777:1 4835:1 4836:1 4837:1 4838:1 4839:1 4840:1 4841:1 4842:1 100002:1 100012:1 100040:1 #
0.011810025753950454188712093639424 27:1 78:1 3829:1 100002:1 100041:1 100042:1 #
-0.0040088828293246524248072404361665 12:3 27:6 6040:1 6041:1 6042:1 6043:3 6044:2 6045:3 6046:3 6047:1 6048:1 6049:1 6050:1 6051:1 6052:1 6053:1 6054:1 6055:1 6056:2 6057:1 6058:2 6059:1 6060:2 6061:4 6062:4 6063:1 6064:1 6065:1 6066:1 6067:1 6068:1 6069:1 6070:1 6071:1 6072:1 6073:1 6074:1 6075:1 6076:4 6077:1 6078:2 6079:1 6080:1 6081:1 6082:1 6083:1 6084:1 6085:1 6086:1 6087:1 6088:1 6089:1 6090:1 6091:1 6092:1 6093:1 6094:2 6095:1 6096:1 6097:1 6098:1 6099:1 6100:1 6101:2 6102:1 6103:1 6104:1 6105:1 6106:1 6107:1 6108:1 6109:1 6110:1 6111:1 6112:1 6113:1 6114:1 6115:1 100002:1 100040:1 100042:1 100043:1 #
-0.011810025753950454188712093639424 12:1 27:5 56:2 483:1 677:1 1401:1 1605:1 2192:1 6359:1 6360:1 6361:1 100002:1 100040:1 100043:1 #
-0.011810025753950454188712093639424 2:1 4:2 7:2 9:1 11:1 12:4 16:1 19:1 20:1 25:5 27:9 31:4 40:4 42:1 56:1 72:1 75:1 144:2 150:1 206:1 225:1 284:1 335:1 354:1 364:1 432:1 644:1 691:1 765:1 784:1 922:1 950:1 1127:1 1135:1 1270:1 1497:1 1705:1 1765:1 1771:1 2155:1 2279:1 2342:1 2644:1 4464:1 5471:1 5512:2 7884:1 7885:1 7886:1 7887:4 7888:1 7889:1 7890:1 7891:1 7892:1 7893:1 7894:1 7895:1 7896:1 7897:1 7898:1 7899:1 7900:1 7901:1 7902:1 7903:1 7904:1 100002:1 100012:1 100040:1 100043:1 #
-0.011810025753950454188712093639424 4:1 12:1 27:2 95:1 2158:1 5953:1 5984:1 6178:1 100002:1 100012:1 100040:1 100043:1 #
-0.011810025753950454188712093639424 9:1 11:1 12:1 27:2 190:1 439:1 648:1 758:1 821:2 2000:1 2761:1 3846:1 5712:1 8170:1 11267:1 11279:1 11280:1 11281:1 11282:1 11283:1 100002:1 100040:1 100042:1 #
-0.011810025753950454188712093639424 9:1 11:1 12:1 27:3 51:1 204:1 209:1 225:1 403:1 711:1 965:1 1786:1 1792:1 1872:1 1873:1 1874:1 1875:1 1876:1 1877:1 1878:1 1879:1 1880:1 1881:1 100002:1 100040:1 100043:1 #
-0.0021941588440343401215926188996264 2:3 4:2 7:1 12:1 14:1 16:2 17:3 27:8 31:1 37:1 40:1 44:1 51:1 56:2 77:2 150:1 153:1 430:2 521:1 530:2 836:1 895:1 1275:1 1312:1 1342:3 1446:2 1909:1 2335:1 2909:1 3742:1 4049:1 5788:1 6052:1 6062:1 6072:1 6076:1 6080:3 6086:1 6102:1 6103:1 6111:1 6426:1 6427:1 6428:1 6429:1 6430:1 6431:1 6432:1 6433:1 6434:1 6435:1 6436:1 6437:1 6438:1 6439:2 6440:1 6441:1 6442:1 6443:1 6444:1 6445:1 6446:1 6447:1 6448:2 6449:1 6450:1 6451:1 6452:1 6453:1 6454:1 6455:1 6456:1 6457:1 100002:1 100040:1 100042:1 100043:1 #
-0.011810025753950454188712093639424 4:1 7:1 10:1 12:2 25:1 27:4 31:1 37:1 40:1 42:1 51:1 80:1 85:1 112:1 144:1 167:1 194:1 204:1 209:1 348:2 445:1 737:1 965:1 1063:2 1069:2 1078:1 1086:1 1353:1 1705:1 2252:1 4502:1 4542:1 10230:1 11524:2 11525:1 11526:1 11527:1 11528:1 11529:1 11530:1 100002:1 100040:1 100043:1 #
-0.011810025753950454188712093639424 12:1 27:7 66:1 72:1 213:2 483:1 907:1 1028:2 1031:1 1074:1 1121:2 1407:2 1483:1 1646:1 100002:1 100040:1 100043:1 #
-0.011810025753950454188712093639424 12:2 27:4 172:1 174:1 632:1 1763:1 3721:1 4963:1 4964:1 4965:1 4966:1 100002:1 100040:1 #
0.011810025753950454188712093639424 2:1 4:2 12:3 27:2 42:1 95:2 142:1 174:1 175:1 483:1 1557:1 2328:1 2845:1 6592:1 6593:1 6628:1 100002:1 100011:1 100012:1 100040:1 100043:1 #
0.011810025753950454188712093639424 27:2 209:1 544:1 561:1 1063:1 1069:1 1635:1 1773:1 2138:1 2139:1 100002:1 100040:1 100042:1 100043:1 #
-0.011810025753950454188712093639424 7:1 9:1 11:1 12:2 20:1 27:1 31:1 37:1 40:1 95:1 112:1 144:1 403:1 530:1 932:1 1057:1 1058:1 1580:1 2419:1 2790:1 3371:1 3423:1 3460:1 3461:1 3462:1 3463:1 3464:1 3465:1 3466:1 3467:1 100002:1 100012:1 100040:1 100043:1 #
-0.011810025753950454188712093639424 12:1 27:2 1306:1 1407:1 1646:1 100002:1 100040:1 100043:1 #
0.011810025753950454188712093639424 4:3 9:1 11:1 12:1 14:1 25:2 27:4 45:1 56:1 66:1 85:1 90:1 91:1 93:1 112:1 121:1 177:1 178:1 179:1 180:1 181:1 182:1 183:1 184:1 185:1 186:1 187:1 188:1 189:1 100002:1 100011:1 100040:1 100043:1 #
-0.011810025753950454188712093639424 4:1 12:2 27:3 42:1 95:1 1552:1 1561:1 2252:1 3764:1 6316:1 7262:1 7263:1 100002:1 100012:1 100040:1 100043:1 #
-0.011810025753950454188712093639424 12:3 27:3 133:1 1407:1 4137:1 6779:1 6780:1 10292:1 10293:1 100002:1 100040:1 #
-0.011810025753950454188712093639424 12:1 56:1 85:1 7295:1 7296:1 100002:1 100041:1 100042:1 100043:1 #
-0.011810025753950454188712093639424 2:3 12:3 16:1 17:1 20:1 25:2 27:6 31:2 32:1 37:1 40:2 42:1 45:2 51:1 66:1 73:1 85:2 112:3 144:1 153:2 264:2 265:1 274:1 296:1 348:1 430:1 442:1 537:2 554:1 895:1 932:1 1082:1 1204:1 1278:1 1309:1 1427:1 1446:1 1843:1 2654:1 3281:1 3679:1 3751:1 3801:1 6435:1 6662:1 7192:1 7224:1 7225:1 7226:1 7227:1 7228:1 7229:1 7230:1 7231:1 7232:1 7233:1 7234:1 7235:1 7236:1 7237:1 7238:1 7239:1 7240:1 100002:1 100040:1 100042:1 100043:1 #
0.011810025753950454188712093639424 27:1 95:1 8364:1 100002:1 100012:1 100041:1 100042:1 100043:1 #
0.011810025753950454188712093639424 27:1 95:1 8401:1 100002:1 100012:1 100041:1 100042:1 100043:1 #
-0.011810025753950454188712093639424 4:1 12:1 42:1 172:1 319:1 570:1 2328:1 3809:1 10478:1 100002:1 100041:1 100042:1 #
0.011810025753950454188712093639424 9:1 11:1 12:4 27:2 80:1 95:1 174:1 175:1 334:1 3240:1 100002:1 100011:1 100012:1 100040:1 100043:1 #
0.011810025753950454188712093639424 12:5 27:1 95:1 651:1 4588:1 4854:1 4855:1 4908:1 4932:1 100002:1 100011:1 100012:1 100040:1 100043:1 #
0.0099884850710445730742614856012551 4:4 9:1 11:1 12:4 20:1 27:6 32:1 33:1 42:1 56:1 72:1 85:1 101:1 144:1 150:1 264:1 265:1 405:1 644:1 880:1 961:1 1026:1 1310:1 1353:1 2416:1 2978:1 3475:1 7093:1 7497:1 8994:1 9001:1 9016:1 9017:1 9046:1 10117:1 10145:1 10152:1 10153:1 10154:1 10155:1 10156:1 10157:1 100002:1 100011:1 100012:1 100040:1 100043:1 #
-0.011810025753950454188712093639424 2:1 4:1 9:2 11:2 12:3 14:2 27:3 31:2 40:2 51:1 56:3 66:2 105:2 150:1 190:1 296:1 321:1 348:1 410:2 694:1 880:1 1074:1 1135:1 1274:1 4376:1 4377:1 4378:1 4379:1 4380:2 4381:2 4382:1 4383:1 4384:1 100002:1 100040:1 #
-0.011810025753950454188712093639424 2:1 4:1 12:3 16:1 17:1 27:4 31:1 40:1 45:1 56:1 144:1 153:1 213:1 264:1 315:1 403:1 629:1 1117:1 1771:1 2588:1 3933:2 4437:1 6580:1 6795:1 6800:1 6801:1 6802:1 6916:1 6917:1 6918:1 6919:1 6920:1 6921:1 6922:1 100002:1 100040:1 100043:1 #
0.011810025753950454188712093639424 4:1 9:4 11:4 12:4 27:1 51:2 56:2 65:1 85:1 112:5 190:2 237:2 265:1 315:2 1031:1 1586:1 2204:1 2758:1 2981:2 3703:2 3704:1 3705:1 3706:1 3707:1 3708:2 3709:2 3710:1 3711:1 3712:1 100002:1 100040:1 #
0.011810025753950454188712093639424 12:1 2090:1 100002:1 100011:1 100041:1 100042:1 100043:1 #
-0.0010191812797225655029542679130827 4:2 9:2 11:2 12:1 20:1 25:1 51:1 56:1 112:1 144:1 345:1 416:1 439:1 570:1 758:1 821:4 2192:1 2588:1 3403:1 3601:1 5940:1 6287:1 6367:1 11208:1 11213:1 11314:1 11315:1 11316:1 100002:1 100040:1 100042:1 #
-0.011810025753950454188712093639424 2:1 9:1 11:1 12:2 20:2 27:2 42:1 45:1 51:1 56:1 80:1 214:1 225:1 243:1 514:1 530:1 555:1 889:1 901:1 1771:1 2224:1 2394:1 2399:1 3209:1 3234:1 3235:1 3236:1 3237:1 3238:1 3239:1 3240:1 3241:1 3401:1 3402:1 3403:1 3404:1 3405:1 100002:1 100040:1 100043:1 #
-0.011140557754417539440550122264995 9:1 11:1 12:1 27:4 6034:1 6044:1 6052:1 6076:3 6094:1 6098:1 6101:1 6174:1 6175:1 6188:1 6189:2 6190:1 6191:2 6192:1 6193:1 6194:1 6195:1 6196:1 6197:1 6198:1 6199:1 6200:1 6201:1 6202:1 6203:1 6204:1 6205:1 6206:1 6207:1 6208:1 6209:1 6210:1 6211:1 6212:1 6213:1 6214:1 6215:1 6216:1 6217:1 6218:1 6219:1 6220:1 6221:1 6222:1 6223:1 6224:1 6225:1 6226:1 6227:1 100002:1 100040:1 100043:1 #
0.011810025753950454188712093639424 9:1 11:1 12:5 27:3 95:1 335:1 723:1 1028:1 1407:1 1484:1 4565:1 5030:1 5033:1 5076:1 100002:1 100012:1 100040:1 100043:1 #
0.011810025753950454188712093639424 9:2 11:1 12:4 27:2 32:1 95:2 174:1 175:1 2820:1 5895:1 6625:1 6636:1 6923:1 6924:1 100002:1 100011:1 100012:1 100040:1 100043:1 #
-0.011810025753950454188712093639424 12:3 27:2 133:1 6779:1 6780:1 10213:1 10214:1 100002:1 100040:1 #
-0.011810025753950454188712093639424 12:3 27:2 133:1 1768:1 6779:1 6780:1 10291:1 100002:1 100040:1 #
-0.011810025753950454188712093639424 4:7 7:1 9:6 11:6 12:2 16:2 20:1 25:2 27:9 37:1 56:1 85:1 95:1 112:2 113:1 144:3 264:1 295:1 334:1 336:1 535:1 550:1 592:1 636:1 639:1 1192:1 1242:2 1342:1 1740:1 2202:1 2572:1 2698:2 2998:1 3439:1 3448:3 3817:1 4165:1 4472:1 6602:1 7063:1 7091:1 7128:1 7229:1 7803:1 8565:1 10482:2 10503:1 10504:1 10505:1 10506:1 10507:1 10508:1 10509:1 10510:1 10511:1 10512:1 10513:1 10514:1 10515:1 10516:1 100002:1 100012:1 100040:1 #
-0.0021511601561279253096159447267155 4:4 7:2 9:3 11:3 12:5 14:2 16:2 17:1 25:3 27:11 28:1 31:1 40:1 42:3 56:4 59:1 66:1 75:1 85:2 95:3 144:2 153:1 184:1 213:1 321:1 325:1 416:2 521:2 530:2 569:1 629:2 632:1 652:1 703:1 749:1 840:1 879:1 902:1 913:1 927:1 934:1 951:1 965:1 980:3 1028:1 1046:1 1078:1 1086:1 1275:1 1309:1 1334:1 1342:1 1375:1 1624:1 2404:1 2416:1 2791:1 2978:1 4443:1 4482:1 5978:1 5985:1 6034:2 6179:1 6228:1 6229:1 6230:1 6231:1 6232:1 6233:1 6234:1 6235:1 6236:1 6237:1 6238:1 6239:1 6240:2 6241:1 6242:1 6243:1 6244:1 6245:1 6246:1 6247:1 6248:1 6249:1 6250:1 6251:1 6252:1 6253:1 6254:1 6255:1 100002:1 100012:1 100040:1 #
-0.011810025753950454188712093639424 12:1 85:2 1065:1 3403:1 3996:1 5512:1 100002:1 100041:1 100042:1 100043:1 #
-0.011810025753950454188712093639424 2:2 4:1 12:3 17:2 19:2 25:2 27:7 31:5 32:1 37:2 40:5 47:1 66:1 72:1 75:1 85:1 124:1 365:1 388:1 411:1 518:1 629:1 907:1 952:1 1023:2 1270:2 1457:1 1677:1 3390:1 4473:1 6996:2 7176:1 7178:3 7179:1 7180:1 7181:1 7182:2 7183:2 7184:1 7185:1 7186:1 7187:1 7188:1 7189:1 7190:1 7191:1 100002:1 100040:1 100042:1 100043:1 #
0.011810025753950454188712093639424 2:1 4:2 7:1 9:1 11:1 12:2 16:1 25:3 27:4 31:1 40:1 51:1 67:1 81:2 102:1 530:1 605:1 821:4 1401:1 1456:1 2183:1 3166:1 3358:1 3433:1 4026:1 4326:1 4361:1 9801:1 11431:1 11432:1 11433:1 11434:1 11435:1 11436:1 100002:1 100040:1 #
0.011810025753950454188712093639424 4:1 12:1 17:1 20:1 25:2 27:6 31:1 32:1 37:1 40:1 47:1 51:1 56:1 64:2 66:2 76:1 112:1 142:1 144:1 150:1 172:1 322:1 410:1 587:1 611:1 629:1 852:1 952:1 966:2 1366:1 1611:1 1675:1 2416:1 3029:1 3872:1 8210:1 8211:1 8212:3 8213:1 8214:1 8215:1 8216:1 8217:1 8218:1 8219:1 8220:1 8221:1 8222:1 8223:1 8224:1 8225:1 8226:1 100002:1 100040:1 100042:1 #
0.011810025753950454188712093639424 4:2 24:1 25:1 27:2 31:1 40:1 56:1 345:1 530:1 821:1 1132:1 1466:1 8231:1 8232:1 8233:1 8234:1 8235:1 100002:1 100040:1 100042:1 #
0.011810025753950454188712093639424 4:1 16:1 27:3 31:1 40:1 42:1 112:1 530:1 749:1 1157:1 1191:1 1447:1 2690:1 2691:1 2692:1 2693:1 100002:1 100040:1 100043:1 #
-0.011810025753950454188712093639424 12:1 14:1 25:1 66:1 388:1 534:1 654:1 1974:1 5333:1 5334:1 5335:1 5336:1 100002:1 100041:1 100043:1 #
-0.011810025753950454188712093639424 12:2 27:1 758:1 2864:1 6907:1 100002:1 100040:1 100043:1 #
-0.011810025753950454188712093639424 12:2 27:4 172:1 174:1 632:1 1763:1 4560:1 4963:1 4964:1 4965:1 5083:1 5139:1 100002:1 100040:1 #
-0.011810025753950454188712093639424 12:1 27:5 56:1 213:1 723:1 1028:1 1483:1 1530:1 2346:1 6372:1 6373:1 6374:1 100002:1 100040:1 100043:1 #
0.011810025753950454188712093639424 2:1 4:4 7:1 12:1 13:1 14:2 25:2 27:3 31:3 40:3 42:2 56:2 65:1 72:3 102:2 112:1 144:2 147:3 388:1 408:1 513:3 516:1 598:1 681:1 895:1 932:1 993:1 1381:1 1642:2 2562:2 2603:1 2605:2 2606:2 2636:1 2637:1 2638:1 2639:1 2640:1 2641:1 2642:1 2643:1 2644:1 2645:2 2646:1 2647:1 2648:1 2649:1 2650:1 2651:1 100002:1 100040:1 100042:1 100043:1 #
0.011810025753950454188712093639424 2:1 4:1 20:1 27:2 31:1 37:1 40:1 51:1 144:1 319:1 1384:1 1486:1 2630:1 7192:1 8191:1 8192:1 8193:1 8194:1 8195:1 100002:1 100040:1 100042:1 #
0.011810025753950454188712093639424 27:2 45:1 206:2 520:1 1458:1 1635:1 1642:1 1658:1 1946:1 1947:2 1948:1 1949:1 1953:1 2142:1 100002:1 100040:1 100043:1 #
0.011810025753950454188712093639424 4:2 25:1 27:2 31:1 40:1 112:1 144:1 209:1 537:1 740:1 950:1 2249:1 2664:1 2665:1 2666:1 2667:1 2668:1 100002:1 100040:1 100042:1 100043:1 #
0.011810025753950454188712093639424 4:1 9:1 11:1 12:1 14:1 25:1 27:2 31:1 40:1 51:1 56:1 57:1 144:1 182:1 370:1 758:1 1144:1 3058:1 4199:1 6871:1 7331:1 7332:1 7333:1 100002:1 100040:1 100043:1 #
0.0099845392728772058149599999410384 2:3 4:1 12:4 13:2 17:1 19:1 25:3 27:8 31:2 37:1 40:2 42:2 51:1 66:2 112:4 144:3 225:1 319:1 327:1 430:2 472:1 606:2 671:1 674:1 821:1 990:1 2212:1 2556:1 2791:1 2991:1 2993:1 3079:1 3439:1 3495:1 3807:1 4208:1 4460:1 4600:1 5528:1 5580:2 5612:1 6024:2 6426:1 7193:1 7214:1 7610:1 7639:1 7640:1 7677:2 7678:2 7679:1 7680:1 7681:1 7682:1 7683:1 7684:1 7685:1 7686:1 7687:1 7688:1 7689:1 7690:1 7691:1 7692:1 7693:1 7694:2 7695:2 7696:1 7697:1 7698:1 7699:1 7700:1 7701:1 7702:1 100002:1 100040:1 #
0.0052145771327431686414932698880875 1:1 2:1 4:5 7:1 12:3 13:1 14:1 17:1 19:1 25:1 27:9 31:1 40:1 72:2 75:1 85:1 112:3 144:2 161:1 167:1 395:1 416:1 430:1 440:1 530:1 570:1 908:1 1082:1 1086:1 1116:1 1217:1 1240:1 1309:1 2273:1 2423:1 3387:1 3580:1 3596:1 3977:1 4094:2 4188:1 6415:1 6528:1 6910:1 7524:1 7532:1 7549:1 7773:1 7774:1 7775:1 7776:1 7777:2 7778:2 7779:1 7780:1 7781:1 7782:1 7783:1 7784:1 7785:1 7786:1 7787:1 7788:1 7789:1 7790:1 100002:1 100011:1 100040:1 #
0.011810025753950454188712093639424 2:2 12:1 25:1 27:3 42:1 47:1 56:1 169:1 1057:1 1058:1 1457:1 1974:1 3191:1 5243:1 5553:1 5554:1 5555:1 5556:1 5557:1 5558:1 5559:1 5560:1 100002:1 100011:1 100040:1 #
0.0021796235343001053516576170920871 12:1 27:4 51:1 204:1 206:1 209:1 225:2 256:1 473:1 671:1 1755:1 2552:1 4617:1 5580:1 5581:1 5582:1 5583:1 5584:1 5585:1 5586:1 5587:1 5588:1 5589:1 100002:1 100011:1 100040:1 100043:1 #
-0.011810025753950454188712093639424 12:2 27:4 172:1 174:1 632:1 1074:1 1763:1 1885:1 4963:1 4964:1 4965:1 100002:1 100040:1 #
0.011810025753950454188712093639424 27:1 171:1 8261:1 100002:1 100041:1 100042:1 100043:1 #
0.011810025753950454188712093639424 27:1 570:1 2587:1 2588:1 100002:1 100041:1 100042:1 100043:1 #
0.011810025753950454188712093639424 27:1 56:1 632:1 1740:1 2583:1 2584:1 100002:1 100041:1 100042:1 #
-0.010518843665414478669162257062908 9:1 11:1 12:1 27:3 483:1 651:1 1057:1 1058:1 1865:1 2419:1 6043:2 6045:1 6068:1 6070:1 6080:2 6081:1 6088:1 6101:1 6220:1 6452:2 6492:1 6493:1 6494:1 6495:1 6496:1 6497:1 6498:1 6499:1 6500:1 6501:1 6502:1 6503:1 6504:1 6505:1 6506:1 6507:1 6508:1 6509:1 6510:1 6511:1 6512:1 6513:1 6514:1 6515:1 6516:1 100002:1 100040:1 100043:1 #
-0.011810025753950454188712093639424 7:1 12:2 16:1 19:1 27:2 31:2 32:1 40:2 85:2 112:1 144:1 149:1 164:1 319:1 421:1 422:1 439:1 583:1 584:1 585:1 586:1 587:1 588:1 589:1 590:1 591:1 592:1 593:1 594:1 595:1 596:1 597:1 598:1 599:1 600:1 100002:1 100040:1 100043:1 #
-0.011810025753950454188712093639424 4:1 12:1 27:3 31:1 40:1 206:1 209:1 622:1 650:1 712:1 758:1 2423:1 7726:1 10754:2 10797:1 100002:1 100040:1 100043:1 #
-0.011810025753950454188712093639424 12:1 27:3 66:1 651:1 907:1 2403:1 6343:1 100002:1 100040:1 100043:1 #
0.011810025753950454188712093639424 2:2 4:2 7:1 12:3 25:4 27:4 31:1 32:1 37:1 40:1 42:1 51:1 61:1 85:3 112:1 153:1 264:1 265:1 423:1 443:1 445:1 530:1 595:1 611:1 880:1 1250:1 1314:1 1427:1 2249:1 2419:1 2903:1 3724:1 4060:1 6577:1 7238:1 8424:1 8994:1 9014:1 9128:1 10095:1 10096:1 10097:1 10098:1 10099:1 10100:1 10101:1 10102:1 10103:1 10104:1 100002:1 100011:1 100040:1 100043:1 #
0.011810025753950454188712093639424 2:1 4:2 12:1 16:1 25:1 27:4 31:1 40:1 42:1 45:1 51:1 56:1 66:1 72:1 85:2 150:1 169:1 321:1 411:1 439:1 530:1 629:1 1223:1 1368:1 3555:1 3724:1 5421:1 7735:1 7857:1 8065:1 8340:1 8347:1 8348:1 8420:1 8421:1 8422:1 8423:1 8424:1 8425:1 8426:1 8427:1 8428:1 8429:1 8430:1 8431:1 8432:1 100002:1 100040:1 100042:1 #
0.011810025753950454188712093639424 4:1 7:1 9:1 11:1 12:2 20:1 25:1 27:4 85:1 264:2 265:1 1898:1 2904:1 3448:1 3949:1 4085:1 6019:1 6034:1 6517:1 7379:1 8441:1 8546:1 8547:1 8568:1 8569:1 8570:1 100002:1 100011:1 100040:1 #
0.011810025753950454188712093639424 12:3 27:5 31:1 40:1 45:2 85:1 97:1 204:1 220:1 229:1 327:1 555:1 1242:2 1522:1 1658:1 2222:1 2942:1 3175:1 3209:1 3234:1 3245:1 3246:1 3247:1 3248:1 3249:1 3250:1 3251:1 3252:1 3253:1 3254:1 3255:1 100002:1 100040:1 #
-0.011810025753950454188712093639424 7:1 12:2 27:2 203:1 284:1 1024:1 1040:1 1217:1 1866:1 6019:1 7244:1 100002:1 100040:1 100043:1 #
-0.0037902909619199828816782371632144 12:2 27:1 167:1 319:1 348:1 439:1 654:1 758:1 4542:1 7661:1 11531:1 100002:1 100040:1 100043:1 #
0.011810025753950454188712093639424 2:2 4:1 9:1 10:1 12:2 14:2 25:1 27:5 31:2 40:2 111:1 117:1 167:1 319:1 570:1 758:2 913:1 1057:1 1058:1 1061:1 1142:1 1352:1 1401:1 1407:1 2328:1 2702:1 2871:2 3957:1 5364:1 5936:1 5937:1 5938:1 5939:1 5940:1 5941:1 100002:1 100040:1 100043:1 #
0.011810025753950454188712093639424 12:1 27:5 31:1 40:1 1621:1 2705:1 2706:1 2707:1 2708:1 2709:1 100002:1 100040:1 100043:1 #
0.011810025753950454188712093639424 2:1 12:1 27:5 206:1 209:1 225:1 327:1 1960:2 2556:1 3876:1 5243:1 5254:1 5355:1 5432:1 5644:1 5645:1 5646:1 5647:1 5648:1 5649:1 5650:1 100002:1 100040:1 100043:1 #
0.011810025753950454188712093639424 4:1 27:3 31:1 40:1 56:1 66:1 112:1 537:1 907:1 2605:1 2674:1 2710:1 2711:1 2712:1 2713:1 2714:1 2715:1 2716:1 100002:1 100040:1 100042:1 100043:1 #
-0.005709095588219165184895587117353 2:3 12:3 20:1 27:5 56:1 85:1 1121:1 1199:1 1859:2 3355:2 3358:1 6779:1 9226:1 9403:1 9481:2 9482:1 9483:1 9484:1 9485:1 9486:1 100002:1 100040:1 100043:1 #
0.011810025753950454188712093639424 4:1 7:1 12:1 27:2 31:1 40:1 56:1 516:2 2596:1 2597:1 2598:1 2599:1 2600:1 2601:1 100002:1 100040:1 100042:1 100043:1 #
0.011810025753950454188712093639424 4:1 9:1 11:1 12:2 25:1 27:2 31:1 40:1 51:1 200:1 220:1 690:1 722:1 2212:1 3235:1 3240:1 3241:1 3403:1 3406:1 3407:1 100002:1 100040:1 100043:1 #
0.011810025753950454188712093639424 16:1 27:2 31:1 40:1 51:1 56:1 67:1 80:1 144:1 169:1 1934:1 5269:1 9035:1 9199:1 11187:1 11379:1 11444:1 11472:1 100002:1 100040:1 100043:1 #
-0.011810025753950454188712093639424 12:1 27:2 403:1 1165:1 2144:1 2145:1 100002:1 100040:1 100043:1 #
-0.011810025753950454188712093639424 12:1 27:2 416:1 439:1 550:1 821:2 1865:1 5712:1 10459:1 11342:1 11348:1 11352:1 100002:1 100040:1 #
-0.011810025753950454188712093639424 12:1 27:3 56:1 59:1 144:1 334:1 483:1 570:1 723:1 894:1 1165:1 1407:1 100002:1 100040:1 100043:1 #
0.011810025753950454188712093639424 2:1 4:1 12:1 19:1 27:6 59:1 68:1 200:1 206:1 214:1 256:1 570:1 671:1 882:1 1637:1 2016:1 2017:1 5349:1 5370:1 5811:1 5812:1 5813:1 100002:1 100011:1 100040:1 100043:1 #
-0.011810025753950454188712093639424 42:1 100002:1 100040:1 100042:1 100043:1 #
0.0025248779353500977462587684385653 1:1 2:1 4:1 7:1 9:1 11:1 12:1 27:7 66:2 101:1 144:1 376:1 485:1 550:1 629:1 907:1 908:1 909:1 910:2 911:2 912:1 913:1 914:1 915:1 916:1 917:1 918:1 919:1 100002:1 100011:1 100040:1 #
0.002230442999385642832699261361995 7:1 9:1 12:3 25:1 27:6 42:1 45:1 59:1 85:1 94:1 144:2 213:1 225:1 250:1 429:1 478:1 534:1 570:2 636:1 693:1 825:1 950:1 1090:1 1165:1 1199:1 1458:1 1462:1 1642:1 1925:1 1950:1 2080:1 2757:1 2844:1 6579:1 6580:1 6581:1 6582:1 6583:1 6584:1 6585:1 6586:1 6587:1 6588:1 6589:1 6590:1 6591:1 100002:1 100011:1 100040:1 #
-0.011810025753950454188712093639424 12:1 27:4 56:1 213:2 682:1 880:1 1975:1 5085:1 6230:2 6339:1 6340:1 100002:1 100040:1 100043:1 #
-0.011810025753950454188712093639424 12:2 27:4 172:1 174:1 403:1 632:1 1763:1 4560:1 5046:1 5079:1 5080:1 5081:1 100002:1 100040:1 #
-0.011810025753950454188712093639424 2:1 12:3 20:1 27:3 85:1 112:1 403:1 682:1 1407:1 1822:1 3175:1 3357:1 3358:1 6779:1 9175:1 9226:1 9227:1 9228:1 10234:1 10235:1 100002:1 100040:1 100043:1 #
0.011810025753950454188712093639424 9:1 11:1 12:3 27:3 31:1 40:1 51:2 56:1 191:1 209:1 629:1 1063:1 1069:1 2872:1 3804:1 7357:1 7358:1 7398:1 7399:1 7400:1 7401:1 7402:1 7403:1 7404:1 7405:1 100002:1 100040:1 100043:1 #
0.0070440683504671810014063915161842 4:2 7:1 9:1 11:1 12:4 14:2 16:1 17:1 19:4 20:1 25:5 27:7 31:1 37:1 40:1 42:1 47:1 51:2 56:2 66:1 75:2 90:1 91:1 92:5 93:1 112:2 113:1 144:1 150:1 167:1 284:1 297:1 339:1 348:1 388:1 411:1 432:1 530:2 934:1 1015:1 1217:1 1245:1 1382:1 1676:1 2140:1 2642:1 2950:1 3356:1 3416:1 3590:1 3818:1 3977:1 4334:1 4473:1 4917:1 6117:1 7233:2 7528:1 7533:1 7565:1 7684:1 7811:3 7857:1 7971:3 7972:2 7973:1 7974:1 7975:1 7976:1 7977:1 7978:1 7979:1 7980:1 7981:1 7982:1 7983:1 7984:1 7985:1 7986:1 7987:1 7988:1 7989:1 7990:1 7991:1 7992:1 7993:1 100002:1 100011:1 100040:1 100043:1 #
0.011810025753950454188712093639424 16:1 27:2 42:1 85:1 112:1 172:1 324:1 570:1 3474:1 6262:1 6403:1 8397:1 8398:1 8399:1 8400:1 100002:1 100040:1 100042:1 #
-0.011810025753950454188712093639424 2:1 12:3 20:1 27:3 1859:1 2403:1 2510:1 3357:1 6779:1 9098:1 9226:1 9481:1 9482:1 9762:1 100002:1 100040:1 100043:1 #
0.011810025753950454188712093639424 4:1 20:1 27:2 31:1 40:1 56:1 65:1 144:1 190:2 1504:1 8188:1 8189:1 8190:1 8191:1 100002:1 100040:1 100042:1 #
0.011810025753950454188712093639424 4:1 9:1 11:1 12:1 27:3 31:1 40:1 42:1 56:2 81:1 249:1 295:1 1106:1 1486:1 1670:1 2630:1 8262:1 8296:1 8297:1 8298:1 100002:1 100040:1 100042:1 #
0.011810025753950454188712093639424 4:2 12:1 25:1 27:2 31:1 40:1 56:1 112:1 410:1 962:1 3414:1 4426:1 7217:1 8347:1 8348:1 8349:1 100002:1 100040:1 100042:1 #
0.0065549905059908777915644861877809 2:1 4:1 12:1 27:6 57:1 144:1 410:1 411:1 592:1 615:1 1057:1 1058:1 2294:2 3919:1 5243:1 5545:1 5546:1 5547:1 5548:1 5549:1 5550:1 5551:1 5552:1 100002:1 100011:1 100040:1 100043:1 #
0.005816276315282036153686551216424 12:1 27:4 644:1 1057:1 1058:1 1771:1 1885:1 2240:2 4564:1 4653:1 4659:1 4660:1 4661:2 5074:1 100002:1 100012:1 100040:1 #
0.011810025753950454188712093639424 12:3 27:3 213:1 335:2 644:2 4839:1 5177:1 5178:1 5179:1 5180:1 100002:1 100012:1 100040:1 100043:1 #
0.011810025753950454188712093639424 27:2 95:1 295:1 8363:1 8419:1 100002:1 100012:1 100040:1 100042:1 #
0.011810025753950454188712093639424 9:1 11:1 12:2 27:4 31:1 40:1 45:1 51:1 80:2 95:1 214:1 225:1 243:1 403:1 555:1 722:1 889:1 1771:1 2224:1 2394:1 3209:1 3233:1 3234:1 3235:1 3236:1 3237:1 3238:1 3239:1 3240:1 3241:1 100002:1 100012:1 100040:1 100043:1 #
0.011810025753950454188712093639424 2:1 9:1 11:1 12:2 20:1 21:1 27:2 31:1 40:1 56:1 85:1 112:1 144:1 167:1 739:1 1031:1 1109:1 1117:1 1846:1 2698:1 2872:1 3403:1 4000:1 4047:1 4426:1 6411:1 8136:1 8137:1 8138:1 8139:1 8140:1 100002:1 100011:1 100040:1 100043:1 #
-0.0077481558939376526939923905956675 4:7 7:1 9:1 11:1 12:2 13:1 14:1 17:1 19:1 25:7 26:1 27:2 31:2 40:3 51:2 56:4 95:1 112:1 144:1 416:1 443:1 530:1 629:1 840:1 1082:1 1242:1 1347:1 1444:1 1490:1 1508:1 1565:2 2202:1 2949:1 3175:1 5790:2 5877:1 6394:1 6822:1 8103:1 8892:1 10449:1 10487:1 10512:1 10669:1 10670:1 10671:1 10672:2 10673:1 10674:1 10675:1 10676:1 10677:1 10678:1 10679:1 10680:1 10681:1 100002:1 100012:1 100040:1 100043:1 #
-0.0034694087034234204203198004279329 2:2 4:4 12:1 19:1 25:4 31:3 37:1 40:3 42:1 51:1 58:1 65:1 144:1 206:1 225:1 324:1 514:1 530:1 629:1 895:1 975:1 1082:1 1557:2 1558:1 1559:1 1560:1 1561:1 1562:1 1563:1 1564:1 1565:1 1566:2 1567:1 1568:1 1569:1 1570:1 1571:1 1572:1 1573:1 100002:1 100040:1 100042:1 100043:1 #
-0.00098768595799343943293646663761365 2:3 3:1 4:8 9:3 11:3 12:2 14:4 17:1 25:6 27:8 31:2 32:1 40:2 42:1 56:2 66:3 94:1 95:1 97:1 101:2 111:1 112:1 144:1 166:1 210:1 214:2 225:1 295:1 296:1 322:1 345:1 439:1 582:1 598:1 615:1 629:1 761:1 840:1 1106:1 1168:1 1169:1 1309:1 1311:1 1319:1 1377:1 1565:1 2204:1 2328:1 2900:1 2987:1 2998:1 3196:2 3304:1 3405:1 3449:2 3760:1 3879:1 3884:1 3885:1 3886:1 3887:1 3888:1 3889:1 3890:1 3891:1 3892:1 3893:1 3894:1 3895:1 3896:1 3897:1 3898:1 3899:1 3900:1 3901:1 3902:2 3903:1 3904:1 3905:1 3906:1 3907:1 3908:1 3909:1 100002:1 100012:1 100040:1 #
-0.011810025753950454188712093639424 100002:1 100040:1 100042:1 100043:1 #
-0.011810025753950454188712093639424 4:1 12:1 13:1 17:1 27:3 34:1 56:1 167:1 629:1 840:1 896:1 920:1 921:1 922:1 923:1 924:1 925:1 926:1 927:1 928:1 929:1 100002:1 100040:1 100042:1 100043:1 #
0.011810025753950454188712093639424 27:3 78:1 570:1 636:1 8206:1 8207:1 8208:1 8209:1 100002:1 100040:1 100042:1 #
0.011810025753950454188712093639424 4:1 12:1 27:4 56:1 327:1 403:1 1057:1 1058:1 1347:1 1755:1 2294:1 5553:2 5626:1 5627:1 5628:1 5629:1 5630:1 5631:1 5632:1 5633:2 5634:1 100002:1 100011:1 100040:1 100043:1 #
0.011810025753950454188712093639424 12:1 27:2 644:1 1090:1 1895:1 1907:1 1975:1 2062:1 100002:1 100012:1 100040:1 100043:1 #
-0.011810025753950454188712093639424 4:3 7:2 12:1 14:1 17:1 25:2 27:8 31:1 32:1 40:1 42:2 45:1 47:2 51:1 56:1 85:1 95:1 112:1 130:1 167:1 276:1 290:1 322:1 464:1 483:1 629:2 900:1 927:1 966:1 974:1 975:1 1030:1 1032:1 1042:1 1043:1 1044:1 1045:1 1046:1 1047:2 1048:1 1049:1 1050:1 1051:1 1052:1 1053:1 1054:1 1055:1 1056:1 1057:1 1058:1 1059:1 1060:1 1061:1 1062:1 1063:1 1064:1 1065:1 1066:1 1067:1 1068:1 1069:1 1070:1 1071:1 1072:1 1073:1 1074:1 100002:1 100012:1 100040:1 100043:1 #
-0.011810025753950454188712093639424 4:1 12:4 14:1 20:1 25:1 27:6 37:1 42:1 85:1 95:1 111:1 112:1 144:1 209:1 290:1 322:1 439:1 443:1 570:1 840:1 895:1 900:1 932:1 950:2 969:1 970:1 971:1 972:1 974:1 975:1 1016:1 1017:1 1018:1 1019:1 1020:1 1021:1 1022:1 1023:1 1024:1 1025:1 1026:1 1027:1 1028:1 1029:1 1030:1 1031:1 1032:1 1033:1 100002:1 100012:1 100040:1 100043:1 #
-0.0097508089090017485700556676420092 4:3 9:1 11:1 12:1 17:1 27:5 31:1 32:2 40:1 42:2 52:1 56:1 85:2 92:1 95:1 112:1 144:2 153:2 167:2 200:1 530:4 840:2 895:2 922:1 932:1 1057:1 1058:1 1067:2 1270:1 1272:2 2419:1 2742:1 3623:2 4541:1 5889:1 6345:2 7238:2 7685:1 10579:1 12070:1 12090:1 12091:1 12092:1 100002:1 100012:1 100040:1 100043:1 #
0.011810025753950454188712093639424 4:1 14:1 25:2 27:2 31:1 40:1 51:1 56:1 130:1 516:1 1109:1 2715:1 2717:1 2718:1 2719:1 2720:1 2721:1 100002:1 100040:1 100042:1 100043:1 #
0.011810025753950454188712093639424 4:1 12:1 25:1 27:2 31:1 40:1 172:1 939:1 7911:1 8367:1 8368:1 8369:1 100002:1 100040:1 100042:1 #
0.011810025753950454188712093639424 27:1 632:1 8346:1 100002:1 100041:1 100042:1 #
0.011810025753950454188712093639424 27:1 632:1 8407:1 100002:1 100041:1 100042:1 #
-0.0032182171581035157355288323088871 2:1 4:1 7:2 12:1 16:1 20:1 25:4 27:3 56:1 66:1 72:1 112:4 167:1 906:1 1154:1 1242:1 1309:1 1378:1 2581:1 2801:1 2937:1 3807:1 3938:1 4055:1 4245:1 4270:1 4288:1 4459:1 4460:1 4461:1 4462:2 4463:1 4464:1 4465:1 4466:1 4467:1 4468:1 100002:1 100040:1 100042:1 100043:1 #
-0.011810025753950454188712093639424 12:2 14:1 25:1 66:1 144:1 150:1 537:1 1366:1 3872:1 5041:1 7781:1 10445:1 10446:1 10447:1 100002:1 100040:1 100043:1 #
-0.011810025753950454188712093639424 12:1 17:1 19:1 25:1 27:1 37:1 42:1 95:1 204:2 206:3 319:1 411:1 439:1 749:1 1007:1 3190:1 5578:1 5892:1 5899:1 5900:1 5901:1 5931:1 5932:1 100002:1 100012:1 100040:1 100043:1 #
0.011810025753950454188712093639424 2:1 27:2 31:1 40:1 42:1 51:1 85:1 396:1 1441:1 4169:1 4237:1 8308:1 100002:1 100040:1 100042:1 #
-0.011810025753950454188712093639424 14:1 20:1 27:3 61:1 62:1 63:1 64:1 65:1 66:2 67:1 68:1 69:1 70:1 71:1 100002:1 100040:1 100042:1 100043:1 #
0.00060479798826664193239777134181168 2:2 4:8 7:3 9:1 11:1 12:5 16:1 19:1 25:5 27:7 31:3 40:3 42:1 45:1 51:1 56:1 85:3 90:1 91:1 93:1 133:1 161:1 172:1 204:3 206:1 220:1 335:1 416:1 421:1 432:1 478:1 530:1 570:1 690:1 712:1 790:1 1079:2 1171:1 1407:1 1457:1 1642:1 3227:2 3231:1 3235:1 3276:2 3326:2 3329:1 3330:1 3443:1 3463:1 3500:1 3501:1 3502:1 3503:1 3504:1 3505:1 3506:3 3507:1 3508:1 3509:1 3510:1 3511:1 3512:1 3513:1 3514:1 3515:1 3516:1 100002:1 100011:1 100040:1 #
0.009337178612610068373367511185279 2:3 4:4 7:2 9:2 10:1 11:2 12:2 17:1 25:5 27:5 31:3 37:1 40:3 42:1 56:1 66:2 90:1 91:1 93:1 112:1 144:2 167:1 284:1 395:1 432:1 443:1 448:1 1082:2 1255:1 1427:1 2160:1 2183:1 2574:1 2742:1 2973:1 3284:2 3449:1 3914:1 6328:1 6393:1 8157:1 8293:1 10747:3 10754:1 10811:2 10822:1 10827:1 10835:1 10836:1 10837:1 10838:1 10839:1 10840:1 10841:1 10842:1 10843:1 10844:1 10845:1 10846:1 10847:1 10848:1 10849:1 10850:1 10851:1 10852:1 100002:1 100011:1 100040:1 100043:1 #
-0.011810025753950454188712093639424 2:1 4:2 9:1 11:1 12:1 25:1 27:1 31:2 40:2 42:1 85:1 167:1 336:1 1314:2 3643:1 3724:1 3740:1 3910:1 7919:1 11589:1 11590:1 100002:1 100040:1 100042:1 100043:1 #
-0.011810025753950454188712093639424 12:1 25:1 31:1 40:1 167:1 570:1 870:1 5505:1 5506:1 5507:1 100002:1 100018:1 100040:1 100042:1 100043:1 #
-0.011810025753950454188712093639424 12:1 500:1 100002:1 100041:1 100042:1 100043:1 #
0.011810025753950454188712093639424 2:2 4:4 7:1 9:1 11:1 12:4 14:2 16:1 27:4 45:1 66:1 85:2 90:1 91:1 93:1 112:1 142:1 144:3 167:1 290:1 376:1 388:1 459:1 530:1 646:1 758:2 821:2 895:2 932:1 955:1 1199:1 1401:1 1591:1 1760:1 2420:1 2851:1 3357:1 3544:1 4482:1 7335:1 7777:1 8431:1 9181:1 9290:1 11105:1 11198:2 11232:1 11233:1 11234:1 11235:1 11236:1 11237:1 11238:1 11239:1 11240:1 11241:1 11242:1 11243:1 11244:1 11245:1 11246:1 11247:1 11248:1 100002:1 100011:1 100040:1 100043:1 #
0.011810025753950454188712093639424 2:1 4:6 12:2 25:2 27:3 37:1 42:3 55:1 56:1 72:1 85:1 90:1 91:1 93:1 112:2 144:2 156:1 646:1 960:1 1046:1 1116:2 1206:1 1217:1 1250:1 1313:1 1384:1 2183:1 2290:1 2564:1 2872:1 5383:1 6729:2 7292:1 9989:1 10811:1 10813:1 10814:1 10815:1 10816:1 10817:1 10818:1 10819:1 10820:1 10821:1 10822:1 100002:1 100011:1 100040:1 100043:1 #
-0.010283265095396071017730399432821 2:1 4:5 7:1 9:3 11:3 12:2 14:1 25:4 27:6 31:2 40:2 42:1 66:1 85:1 95:1 144:1 167:2 213:1 319:1 403:1 421:2 422:1 431:1 514:1 526:1 749:1 895:1 940:1 950:1 1148:1 1171:1 1370:1 1427:1 1580:1 1635:2 1673:1 1676:1 1677:1 1679:2 1721:1 1858:1 1916:1 1934:1 1996:2 2282:1 2320:1 2321:1 2322:3 2323:1 2324:1 2325:1 2326:1 2327:1 2328:2 2329:1 2330:1 2331:1 2332:1 2333:1 2334:1 2335:1 2336:1 2337:1 100002:1 100012:1 100040:1 #
-0.011810025753950454188712093639424 2:1 12:1 14:1 25:1 42:1 56:1 102:1 144:1 1248:1 1368:1 1488:1 5456:1 5779:1 5780:1 5781:1 5782:1 5783:1 100002:1 100041:1 100042:1 100043:1 #
0.011810025753950454188712093639424 27:1 56:1 2587:1 2588:1 2675:1 2676:1 100002:1 100041:1 100042:1 100043:1 #
-0.011810025753950454188712093639424 4:1 7:2 12:1 27:4 31:1 37:1 40:1 56:3 72:1 85:3 144:2 150:4 430:1 1559:1 1763:2 1999:1 2328:1 2419:1 2612:1 4011:1 4158:1 4436:1 6179:1 8700:1 9487:1 9603:1 10268:1 11161:1 11397:2 11457:1 11458:1 11459:1 11460:1 11461:1 11462:1 11463:1 11464:1 11465:1 11466:1 11467:1 11468:1 11469:1 11470:1 11471:1 100002:1 100040:1 #
-0.011810025753950454188712093639424 2:1 4:2 12:4 27:5 445:1 2018:1 4000:1 5376:1 5477:1 7247:2 7248:1 7249:1 7250:1 7251:1 7252:1 100002:1 100040:1 100042:1 100043:1 #
-0.011810025753950454188712093639424 4:2 7:4 12:2 25:2 27:6 31:1 32:1 40:1 42:1 51:1 56:1 73:1 85:1 112:1 144:1 194:1 264:1 319:1 421:1 632:1 840:1 900:1 1052:1 1082:1 1154:1 1208:1 1211:1 1224:1 1536:1 1573:1 1598:1 1599:1 1600:1 1601:1 1602:1 1603:1 1604:1 1605:1 1606:1 1607:2 1608:1 1609:1 1610:1 1611:1 1612:1 1613:1 1614:1 1615:1 1616:1 100002:1 100040:1 100042:1 #
-0.011810025753950454188712093639424 2:2 4:2 7:1 12:1 19:1 25:2 27:5 31:1 32:1 40:1 42:2 51:1 56:1 64:1 85:1 95:1 213:1 410:1 445:1 959:1 1502:1 1643:1 2328:1 2671:1 3031:1 3544:1 4270:1 4329:1 4398:1 4504:1 4505:1 4506:1 4507:1 4508:1 4509:1 4510:1 4511:1 4512:1 100002:1 100012:1 100040:1 100042:1 100043:1 #
0.011810025753950454188712093639424 4:2 14:1 25:2 27:1 31:1 40:1 51:1 56:1 102:1 111:1 112:2 324:1 530:1 537:1 2580:1 2602:1 2603:1 2604:1 2605:1 2606:1 2607:1 100002:1 100040:1 100042:1 100043:1 #
0.011810025753950454188712093639424 4:1 9:1 11:1 12:1 27:2 31:1 40:1 51:1 636:1 1015:1 2430:1 2623:1 3715:1 3796:1 3797:1 3798:1 100002:1 100040:1 #
0.011810025753950454188712093639424 4:1 25:1 27:2 31:1 40:1 81:1 629:1 4355:1 8197:1 8236:1 8237:1 8238:1 100002:1 100040:1 100042:1 #
-0.011810025753950454188712093639424 12:1 66:1 1034:1 1035:1 1036:1 1037:1 100002:1 100041:1 100042:1 100043:1 #
-0.011810025753950454188712093639424 12:1 5513:1 100002:1 100018:1 100041:1 100042:1 100043:1 #
-0.011810025753950454188712093639424 100002:1 100040:1 100042:1 100043:1 #
0.0076344010357204290795340995146034 4:1 7:1 12:4 20:1 25:4 27:6 35:1 56:4 66:1 85:2 95:1 101:1 144:1 167:1 334:1 358:1 649:2 735:1 1000:1 1007:2 1407:2 1462:1 1881:2 1931:1 2204:1 2396:2 3355:1 3622:1 3872:1 5896:1 6866:1 7741:1 8054:1 9001:1 9057:1 9399:1 9400:1 9401:1 9402:1 100002:1 100011:1 100012:1 100040:1 100043:1 #
0.010501593163462521335338450967356 2:2 4:2 12:3 13:1 14:1 16:2 17:1 20:1 25:2 27:5 31:1 40:1 51:1 56:2 67:1 85:2 144:2 644:1 896:1 1141:1 1280:1 1312:1 1366:1 1446:1 1822:1 2399:1 2688:1 2721:1 4185:1 5376:1 6780:1 7193:1 8494:1 9032:1 9057:1 9330:1 9433:1 9481:1 9555:1 9570:1 9657:1 9658:1 9659:1 9660:1 9661:1 9662:1 9663:1 9664:1 9665:1 100002:1 100011:1 100012:1 100040:1 100043:1 #
-0.011810025753950454188712093639424 4:1 9:1 11:1 12:1 14:2 27:2 31:1 40:1 45:1 461:1 515:1 530:1 629:1 1548:1 3671:1 4481:1 4482:1 6702:1 8355:1 8356:1 8357:1 8358:1 100002:1 100040:1 100043:1 #
-0.011810025753950454188712093639424 4:2 9:1 11:1 12:1 27:4 38:1 42:1 47:1 97:1 101:1 144:2 167:1 187:1 317:1 339:1 430:1 1309:1 3191:1 5085:1 5953:1 5986:1 6341:1 6342:1 100002:1 100040:1 #
0.011810025753950454188712093639424 27:1 172:1 247:1 6354:1 100002:1 100041:1 100042:1 #
0.011810025753950454188712093639424 2:1 4:4 7:1 9:1 11:1 12:2 16:1 25:3 27:4 31:2 40:2 42:1 47:2 51:1 56:2 144:1 146:1 167:1 295:2 327:1 388:1 570:1 1061:1 1062:1 1078:1 1919:1 2623:1 4207:1 5774:1 8192:2 8197:3 8234:2 8291:1 8301:2 8302:1 8303:1 100002:1 100040:1 #
0.009749271044347472200963800048612 2:2 4:5 7:3 9:1 11:1 12:2 14:1 16:2 19:1 25:2 27:3 31:2 32:1 40:2 44:1 47:2 51:1 56:1 77:1 90:1 91:1 93:1 144:1 290:2 296:1 319:1 388:1 432:1 443:1 514:1 629:1 650:1 981:1 1057:1 1058:1 1061:1 1062:1 1538:1 2925:2 2944:1 3405:1 3557:2 4071:1 4522:1 5368:2 6019:1 6335:1 6418:2 7276:1 7689:1 8852:1 11473:1 11728:1 11766:1 11795:1 11808:1 11819:1 11820:1 11905:1 11906:1 11907:1 11908:1 11909:1 11910:1 11911:1 11912:1 11913:1 11914:1 100002:1 100011:1 100040:1 100043:1 #
-0.011810025753950454188712093639424 4:1 7:1 9:1 11:1 12:1 27:1 295:1 439:1 758:1 821:2 1199:1 3740:1 5712:1 5940:1 11262:1 11263:1 11264:1 100002:1 100040:1 100042:1 #
-0.0035595544810077149253113582005881 2:1 4:1 12:1 14:1 17:1 25:1 27:2 32:1 37:1 56:1 72:1 75:1 112:6 445:1 972:1 4382:1 4511:1 7927:1 8374:1 10923:1 11211:1 11224:1 11225:1 11226:1 11227:1 11228:1 11229:1 11230:1 11231:1 100002:1 100040:1 100042:1 100043:1 #
-0.0016075256789468517042152040374958 4:3 9:1 11:1 12:1 25:1 26:1 27:2 56:1 416:1 439:1 821:2 1740:1 1865:1 2628:1 5712:1 8672:1 10459:1 11202:1 11215:1 11216:1 100002:1 100040:1 100042:1 #
-0.004850706927234648205282674382488 2:1 4:1 9:1 11:1 12:1 16:1 25:1 27:2 56:1 81:1 85:1 314:1 416:1 439:1 515:1 753:1 821:2 2051:1 2712:1 2751:1 3531:1 5255:1 5712:1 10294:1 11212:1 11213:1 11214:1 100002:1 100040:1 100042:1 #
-0.0031124301728741900208152770801462 9:1 11:1 12:2 204:2 206:1 229:1 376:1 496:1 712:2 1658:2 2032:1 2142:1 2285:1 4246:1 11147:1 11148:2 11149:1 11150:1 11151:1 11152:1 11153:1 11154:1 11155:1 100002:1 100040:1 100043:1 #
-0.011810025753950454188712093639424 2:1 9:1 11:1 16:1 314:1 472:1 739:1 1079:1 11424:1 11425:1 100002:1 100040:1 100042:1 100043:1 #
-0.005231380327853776129876095524196 4:1 10:1 12:1 20:1 27:1 42:1 56:1 2313:1 3355:1 3441:1 4330:1 7779:1 11087:1 11089:1 11090:1 11091:1 11092:1 11093:1 11094:1 11095:1 100002:1 100040:1 100043:1 #
0.0059239508317917057012014225847452 4:4 9:1 11:1 12:2 27:3 90:1 91:1 93:1 101:1 102:1 112:1 315:1 569:1 1653:1 2003:1 4246:1 6762:1 8061:1 8440:1 8441:1 8514:1 8515:1 100002:1 100011:1 100040:1 100043:1 #
-0.011810025753950454188712093639424 4:1 12:1 25:1 31:2 40:1 56:1 895:1 922:1 1217:1 1540:1 7161:1 100002:1 100040:1 100042:1 100043:1 #
-0.011810025753950454188712093639424 4:2 12:1 16:1 25:1 27:1 31:1 40:1 314:1 570:1 611:1 629:1 1309:1 2328:1 3957:1 5364:1 5936:1 5937:1 5945:1 5946:1 100002:1 100040:1 100042:1 100043:1 #
-0.011810025753950454188712093639424 4:2 12:5 14:1 25:2 27:1 31:3 40:3 42:2 51:2 56:1 70:1 80:1 113:1 138:2 144:2 324:1 722:1 850:1 1242:1 1270:1 1278:1 1309:1 1342:1 1378:1 1558:1 1561:1 1762:1 1919:1 3128:1 3403:1 3468:1 3469:1 3470:1 3471:1 3472:1 3473:1 3474:1 3475:1 3476:1 3477:1 100002:1 100040:1 100043:1 #
-0.011810025753950454188712093639424 12:1 31:1 100002:1 100040:1 100042:1 100043:1 #
0.011810025753950454188712093639424 9:3 11:3 12:3 27:5 51:1 206:1 220:1 335:1 483:1 644:1 700:1 1057:1 1058:1 1407:1 4555:1 4565:1 4628:1 4675:1 5028:1 5029:1 5030:1 5031:1 5032:1 5033:1 5034:1 5035:1 100002:1 100012:1 100040:1 100043:1 #
0.011810025753950454188712093639424 4:2 9:2 11:2 12:4 25:1 27:5 31:1 40:1 56:1 85:1 112:1 167:1 174:1 175:1 209:1 315:1 327:1 644:1 1144:1 1381:1 2367:1 3510:1 3580:1 7515:1 7516:1 7518:1 7519:1 7521:1 7524:1 7526:1 7527:1 7541:1 7547:1 7551:1 7552:1 7553:1 7554:1 7955:1 7956:1 100002:1 100012:1 100040:1 100043:1 #
-0.011810025753950454188712093639424 4:1 12:1 27:3 7650:1 9641:1 11584:1 11747:1 12048:1 100002:1 100040:1 100042:1 100043:1 #
-0.011810025753950454188712093639424 4:1 9:1 11:1 12:1 27:1 51:2 66:1 67:1 85:1 112:1 1347:1 1401:1 1865:1 2628:1 3355:1 7255:1 9810:1 10215:1 10216:1 10217:1 10218:1 10219:1 10220:1 10221:1 100002:1 100040:1 100043:1 #
-0.011810025753950454188712093639424 2:1 4:1 27:2 51:1 85:1 144:1 270:1 376:1 555:1 1223:1 3358:1 4068:1 4219:1 9095:1 11437:1 11439:1 11440:1 100002:1 100040:1 100043:1 #
-0.011810025753950454188712093639424 4:2 12:2 27:3 42:1 95:1 144:1 160:1 225:1 250:1 339:1 1175:1 1879:1 2950:1 4349:1 4917:1 5098:1 7427:1 7428:1 7429:1 100002:1 100012:1 100040:1 100043:1 #
0.011810025753950454188712093639424 4:1 16:1 27:2 31:1 40:1 85:1 112:1 530:1 1612:1 2746:1 4447:1 6730:1 8192:1 8279:1 8299:1 8300:1 100002:1 100040:1 100042:1 #
0.011810025753950454188712093639424 2:1 4:2 12:1 27:2 31:1 40:1 56:2 67:1 112:2 570:1 611:1 655:1 740:1 1177:1 1314:1 1354:1 1755:1 2587:1 2588:1 2648:1 2675:1 2676:1 2770:1 2771:1 100002:1 100040:1 100043:1 #
-0.011810025753950454188712093639424 2:2 4:2 9:1 11:1 12:1 16:1 25:1 27:1 31:3 40:3 56:1 85:2 112:1 144:1 416:1 418:2 1007:1 1291:1 1975:1 2755:1 3355:1 3401:1 4074:1 4235:1 5400:1 6736:1 9717:1 11827:1 11828:1 11829:2 11830:1 11831:1 100002:1 100040:1 100043:1 #
0.011810025753950454188712093639424 27:1 345:1 463:1 100002:1 100041:1 100042:1 #
-0.011810025753950454188712093639424 2:1 4:1 7:1 12:1 16:1 17:1 19:1 25:2 27:5 32:1 37:1 56:1 66:2 95:1 112:1 144:2 197:1 319:1 388:1 758:1 1043:1 1061:1 1062:1 1090:1 1458:1 2425:1 3472:1 4472:1 6568:1 7480:1 7481:1 7482:1 7483:1 7484:1 7485:1 7486:1 7487:1 7488:1 7489:1 7490:1 7491:1 7492:1 100002:1 100012:1 100040:1 100043:1 #
-0.011810025753950454188712093639424 2:1 4:1 7:1 9:1 11:1 12:3 16:1 20:1 25:1 27:4 51:1 56:1 85:1 95:1 112:3 445:1 649:1 654:1 966:2 1090:1 1448:1 1564:1 3461:1 6430:1 6779:1 6780:1 7999:1 9016:1 9561:1 9772:1 10018:1 10019:1 10020:1 10021:1 10022:1 10023:1 10024:1 10025:1 10026:1 10027:1 100002:1 100040:1 #
-0.011810025753950454188712093639424 4:2 7:1 9:1 11:1 12:1 13:1 25:1 27:3 31:1 33:1 40:1 56:2 75:2 92:1 95:1 112:1 296:2 591:1 595:1 621:1 629:2 703:1 840:1 924:1 1395:1 1466:1 7676:1 7685:1 11189:1 11698:1 11699:1 11700:1 11701:1 11702:1 11703:1 11704:1 11705:1 11706:1 100002:1 100012:1 100040:1 100043:1 #
0.011810025753950454188712093639424 1:1 2:1 4:2 7:1 9:1 11:1 12:2 14:1 19:1 25:2 27:2 42:1 56:1 85:1 95:1 117:1 144:1 167:1 965:1 1090:2 1272:1 1407:1 1635:1 1642:1 1863:1 1895:1 1916:1 2160:1 2161:1 2321:1 2322:1 2396:1 2397:1 2398:1 2399:1 2400:1 2401:1 2402:1 2403:1 2404:1 2405:1 100002:1 100011:1 100012:1 100040:1 #
0.011810025753950454188712093639424 27:1 172:1 8399:1 100002:1 100041:1 100042:1 #
0.011810025753950454188712093639424 27:2 190:1 632:1 8321:1 8327:1 100002:1 100040:1 100042:1 #
0.011810025753950454188712093639424 14:1 27:2 31:1 40:1 3479:1 8271:1 8272:1 8273:1 100002:1 100040:1 100042:1 #
-0.011810025753950454188712093639424 100002:1 100040:1 100042:1 100043:1 #
-0.011810025753950454188712093639424 9:1 11:1 12:1 14:1 25:2 27:2 31:1 40:1 112:1 144:1 167:2 530:2 836:1 1314:2 1378:1 2721:1 4440:1 4444:1 4469:1 7302:1 8257:1 8265:1 8266:1 8267:1 8268:1 8269:1 100002:1 100040:1 100042:1 100043:1 #
0.011810025753950454188712093639424 27:1 8314:1 8315:1 100002:1 100041:1 100042:1 #
-0.011810025753950454188712093639424 12:1 27:2 45:1 980:1 1024:1 1025:1 1082:1 1589:1 1590:1 100002:1 100040:1 100042:1 100043:1 #
-0.011810025753950454188712093639424 4:1 12:1 14:1 27:1 85:1 112:1 144:1 537:1 2562:1 2572:1 2573:1 2574:2 2575:1 2576:1 2577:1 2578:1 100002:1 100040:1 100042:1 100043:1 #
-0.011810025753950454188712093639424 12:2 27:1 45:2 204:1 229:1 351:1 707:1 1127:1 1990:1 2032:1 3641:1 11139:1 11140:2 11141:1 11142:1 11143:1 11144:1 11145:1 11146:1 100002:1 100040:1 100042:1 100043:1 #
0.011810025753950454188712093639424 4:1 12:2 20:1 25:1 27:2 264:1 265:1 611:1 880:1 1409:1 2044:1 7966:1 9128:1 9184:1 9185:1 100002:1 100011:1 100040:1 100043:1 #
0.011810025753950454188712093639424 27:2 31:1 40:1 42:1 51:1 56:1 112:1 144:1 167:1 513:1 629:1 632:1 1275:1 1722:1 6887:1 7844:1 8257:1 8316:1 8317:1 8318:1 100002:1 100040:1 100042:1 #
0.011810025753950454188712093639424 12:1 25:1 27:1 31:1 40:1 51:1 112:2 144:1 190:1 436:1 537:1 1109:1 2562:1 2574:1 2579:1 2580:1 2581:1 2582:1 100002:1 100040:1 #
0.011810025753950454188712093639424 12:2 136:1 100002:1 100011:1 100040:1 100042:1 100043:1 #
0.011810025753950454188712093639424 14:1 27:1 31:1 40:1 51:1 56:1 102:1 112:3 537:1 2562:1 2580:1 2592:1 2620:1 2621:2 2622:1 2623:1 100002:1 100040:1 100042:1 100043:1 #
0.011810025753950454188712093639424 12:1 27:1 644:1 651:2 1069:1 4588:1 4589:1 4590:1 4591:1 4592:1 4593:1 4594:1 4595:1 4596:1 4597:1 4598:1 4816:1 100002:1 100012:1 100040:1 100043:1 #
0.011810025753950454188712093639424 27:1 246:1 8366:1 100002:1 100041:1 100042:1 #
0.011810025753950454188712093639424 12:2 95:1 136:1 1121:1 100002:1 100011:1 100012:1 100040:1 100043:1 #
0.011810025753950454188712093639424 9:1 11:1 12:3 27:3 51:1 95:1 335:1 1028:1 1448:1 2252:1 4565:1 4587:1 5030:1 5033:1 5205:1 100002:1 100012:1 100040:1 100043:1 #
0.011810025753950454188712093639424 2:1 4:4 9:2 11:2 12:3 14:1 20:1 27:1 42:1 51:1 65:1 85:1 90:1 91:1 93:1 144:1 200:1 249:1 265:1 396:1 530:1 652:1 1017:1 1314:1 3163:1 3448:1 3643:1 3707:1 4196:1 6019:1 7318:1 7319:1 7320:1 7321:1 7322:1 7323:1 7324:1 7325:1 7326:1 7327:1 100002:1 100011:1 100040:1 100043:1 #
0.011810025753950454188712093639424 4:1 9:1 11:1 12:2 25:1 27:4 31:1 40:1 51:1 95:1 191:1 209:1 758:1 2845:1 4380:1 4543:1 7362:1 7363:1 7364:1 7365:1 7366:1 7367:1 7368:1 7369:1 7370:1 100002:1 100012:1 100040:1 100043:1 #
0.011810025753950454188712093639424 2:1 4:1 12:1 27:2 570:1 657:1 1090:1 1165:1 1757:1 1895:1 2498:1 2499:1 100002:1 100011:1 100040:1 100043:1 #
-0.011810025753950454188712093639424 4:1 9:2 11:2 12:1 14:1 27:7 56:1 144:1 167:1 213:2 1106:1 4481:1 6263:1 6649:2 6717:1 6866:1 6867:1 6868:1 6869:1 6870:2 6871:1 6872:1 6873:1 6874:1 6875:1 6876:1 6877:1 6878:1 100002:1 100040:1 100043:1 #
-0.011810025753950454188712093639424 4:1 12:1 17:1 27:6 56:1 144:2 836:1 1165:1 1242:1 1309:1 1708:1 3817:1 3818:1 3819:1 3820:1 3821:1 3822:1 3823:1 3824:1 3825:1 3826:1 3827:1 3828:1 3829:1 3830:1 3831:1 3832:1 3833:1 100002:1 100040:1 100042:1 100043:1 #
-0.0047371263720354097812026417102516 2:4 4:3 9:6 11:6 12:2 17:1 27:8 31:1 37:1 40:1 51:1 56:6 66:1 78:1 81:1 85:1 101:1 144:1 297:1 418:1 439:1 443:1 445:1 632:1 636:1 758:1 836:1 934:1 1109:1 1242:1 1740:1 1919:1 2044:1 2702:1 2842:1 3103:1 3448:2 3817:1 3922:1 4201:2 4293:1 4407:1 5248:1 5255:1 5454:1 5578:1 5983:1 9152:1 10301:1 10321:1 10449:1 10509:1 10514:1 10627:1 10628:2 10629:2 10630:1 10631:1 10632:1 10633:1 10634:1 10635:1 10636:1 10637:1 10638:1 10639:1 10640:1 10641:1 100002:1 100040:1 #
-0.011810025753950454188712093639424 2:2 4:3 12:3 14:1 19:1 25:2 27:8 31:1 40:1 42:1 44:1 85:1 112:1 124:1 295:1 319:2 348:1 694:1 1017:2 1082:1 1242:1 1427:1 1428:1 2698:1 3163:1 3448:1 3817:1 3933:1 4045:1 4196:1 4542:1 5255:1 5432:1 8378:1 10118:1 10449:1 10657:1 10658:1 10659:1 10660:1 10661:1 10662:1 100002:1 100040:1 #
-0.011810025753950454188712093639424 7:1 12:1 14:1 20:2 27:5 34:1 37:1 42:1 56:1 65:1 112:1 156:1 895:1 896:1 897:1 898:1 899:1 900:1 901:1 902:1 903:1 904:1 905:1 906:1 100002:1 100040:1 100042:1 100043:1 #
0.0062728919807386353257872002586737 2:3 4:7 7:5 9:2 11:4 12:15 14:1 15:1 16:2 20:2 25:1 27:6 31:1 32:4 40:1 42:2 51:1 56:3 58:1 60:1 61:2 72:1 75:2 90:2 91:2 93:2 95:1 99:1 112:2 141:1 144:1 150:1 153:1 319:1 430:2 431:1 443:1 514:1 526:1 534:3 566:1 629:5 646:1 655:1 840:2 894:1 895:3 896:1 907:1 932:1 943:1 958:1 960:2 997:1 1031:1 1046:5 1057:1 1058:1 1063:4 1069:4 1083:1 1084:1 1137:1 1166:1 1232:1 1233:1 1234:1 1235:3 1236:1 1237:1 1238:1 1239:1 1240:1 1241:1 1242:9 1243:3 1244:1 1245:1 1246:1 1247:1 1248:1 1249:1 1250:1 1251:1 1252:1 1253:1 1254:1 1255:1 1256:1 1257:1 1258:1 1259:1 1260:1 1261:1 1262:1 1263:1 1264:1 1265:1 1266:1 1267:1 1268:1 1269:1 1270:1 1271:1 1272:1 1273:1 1274:1 1275:1 1276:1 1277:1 1278:1 1279:1 1280:1 1281:1 1282:1 1283:1 1284:1 1285:1 1286:1 1287:1 1288:1 1289:1 1290:1 1291:1 1292:1 1293:1 1294:1 1295:1 1296:1 1297:2 1298:1 1299:1 1300:1 1301:1 100002:1 100011:1 100012:1 100040:1 100043:1 #
-0.0090470485944150504098448806189481 1:1 2:4 4:5 7:1 12:2 14:2 20:1 25:2 27:5 31:2 40:2 42:1 51:2 56:2 75:1 85:1 120:1 133:2 150:1 439:1 1090:1 1141:1 1448:1 1540:2 2410:2 2753:1 3413:1 4047:2 6866:1 7728:1 8567:3 10386:3 10402:1 10403:1 10404:2 10405:1 10406:1 10407:1 100002:1 100040:1 #
-0.011810025753950454188712093639424 2:1 4:3 7:1 12:3 27:2 51:1 66:1 81:1 144:1 2510:1 4568:1 6780:1 9032:1 9038:1 9166:1 9317:1 9481:1 9774:1 10091:1 10114:1 10115:1 10116:1 100002:1 100040:1 #
-0.011810025753950454188712093639424 2:1 4:3 16:1 25:1 27:2 51:1 67:1 112:1 167:1 485:1 605:1 722:1 1007:1 1822:1 3479:1 10294:1 11407:2 11437:1 11441:1 100002:1 100040:1 100043:1 #
0.011810025753950454188712093639424 27:1 1740:1 8205:1 100002:1 100041:1 100042:1 #
0.011810025753950454188712093639424 27:2 31:1 40:1 56:2 740:1 2572:1 2585:1 2586:1 2587:1 2588:1 2589:1 2590:1 100002:1 100040:1 100042:1 100043:1 #
0.011810025753950454188712093639424 27:3 31:1 40:1 172:1 530:1 8402:1 8403:1 8404:1 8405:1 8406:1 100002:1 100040:1 100042:1 #
-0.006797518763884285476761792921252 2:1 4:4 7:1 9:2 11:2 12:2 14:3 17:3 25:4 27:12 31:1 37:1 40:1 42:2 51:2 56:1 66:1 72:3 81:1 112:2 144:4 167:1 206:2 209:2 256:1 290:1 295:1 315:1 388:1 405:1 411:1 440:1 530:1 674:1 691:1 850:1 928:2 1144:2 1342:1 1466:2 1676:1 1705:1 1763:2 2155:1 2261:1 2671:1 2788:1 2981:1 3548:1 3580:1 3594:1 3675:2 4242:1 5263:1 5952:1 7597:1 7654:1 7887:4 7888:1 7905:1 7906:1 7907:1 7908:1 7909:1 7910:1 7911:2 7912:1 7913:1 7914:1 7915:1 7916:1 7917:1 7918:1 7919:1 7920:1 7921:1 7922:1 7923:1 7924:1 7925:1 7926:1 7927:1 7928:1 100002:1 100040:1 #
-0.0060606290726185237105472225493941 2:4 4:2 12:4 14:2 25:8 27:12 31:1 40:1 42:1 44:1 45:1 56:3 59:1 66:1 85:1 100:1 109:1 144:1 156:1 213:2 388:1 430:1 439:1 965:1 980:1 1248:1 1250:1 1309:1 1477:1 1721:1 1760:1 1771:1 3202:1 3203:1 3204:1 3205:1 3206:1 3207:1 3208:1 3209:1 3210:1 3211:1 3212:1 3213:1 3214:1 3215:1 3216:1 3217:1 3218:1 3219:1 3220:1 3221:1 3222:1 3223:1 3224:1 3225:1 3226:1 3227:1 3228:1 3229:1 3230:1 3231:1 3232:1 100002:1 100040:1 100042:1 100043:1 #
-0.011810025753950454188712093639424 2:2 4:1 7:2 12:2 17:1 19:1 20:1 25:1 27:8 31:3 32:1 37:1 40:3 42:1 56:1 66:1 112:1 195:1 213:1 403:1 432:1 895:1 932:1 962:1 1040:1 1171:1 1202:1 1217:1 5578:1 6179:1 7200:1 7201:1 7202:1 7203:1 7204:1 7205:3 7206:1 7207:1 7208:1 7209:2 7210:1 7211:1 7212:1 7213:1 7214:1 7215:1 100002:1 100040:1 100043:1 #
0.011810025753950454188712093639424 27:1 345:1 463:1 100002:1 100041:1 100042:1 #
0.011810025753950454188712093639424 27:1 295:1 8275:1 100002:1 100041:1 100042:1 #
0.011810025753950454188712093639424 4:1 14:1 27:3 31:1 40:1 51:1 56:2 150:1 160:1 411:1 1128:1 2718:1 2722:1 2723:1 2724:1 2725:1 2726:1 2727:1 2728:1 2729:1 2730:1 2731:1 100002:1 100040:1 100042:1 100043:1 #
0.011810025753950454188712093639424 12:2 27:1 204:5 206:3 209:1 243:1 495:1 644:1 651:2 774:1 1057:1 1058:1 1069:1 1296:1 2372:1 2554:1 4552:1 4588:1 4589:1 4590:1 4591:1 4592:1 4593:1 4594:1 4595:1 4596:1 4597:1 4598:1 4599:1 4600:1 4601:1 4602:1 4603:1 4608:1 100002:1 100012:1 100040:1 100043:1 #
0.011810025753950454188712093639424 27:1 636:1 4171:1 100002:1 100041:1 100042:1 #
-0.011810025753950454188712093639424 4:2 12:1 25:1 56:1 112:1 418:1 1153:1 1592:1 2397:1 4483:1 5918:1 8361:1 8362:1 100002:1 100041:1 100043:1 #
-0.0084523835577286696163490375965921 4:2 12:2 14:1 56:1 75:1 112:1 144:1 388:1 430:1 459:1 646:1 753:1 1001:1 1235:1 1386:1 2630:1 2981:2 3471:1 8723:1 10394:1 100002:1 100040:1 100042:1 100043:1 #
-0.011810025753950454188712093639424 4:1 7:1 12:1 27:3 31:1 40:1 112:2 621:1 821:2 951:1 1090:1 1822:1 2183:1 2399:1 3103:1 4431:1 7436:1 9719:1 11549:1 12042:1 12068:1 12069:1 12070:1 12071:1 12072:1 12073:1 100002:1 100040:1 100043:1 #
0.011810025753950454188712093639424 27:1 81:1 8338:1 100002:1 100041:1 100042:1 #
0.011810025753950454188712093639424 27:1 81:1 10520:1 100002:1 100041:1 100042:1 #
-0.011810025753950454188712093639424 12:1 85:1 758:1 1007:1 1865:1 1919:1 100002:1 100041:1 100043:1 #
0.011810025753950454188712093639424 2:1 12:1 27:4 65:1 263:1 264:2 416:1 554:1 555:1 556:1 639:1 1833:1 3950:1 5243:1 5633:1 5708:1 100002:1 100011:1 100040:1 100043:1 #
-0.011810025753950454188712093639424 100002:1 100040:1 100042:1 100043:1 #
0.011810025753950454188712093639424 4:1 14:1 25:1 27:4 31:1 33:1 40:1 51:1 65:1 102:1 112:1 430:1 440:1 537:2 623:1 847:1 1309:1 1565:1 2414:1 2561:1 2562:1 2645:1 2648:1 2652:1 2653:1 2654:1 2655:1 2656:1 2657:1 2658:1 2659:1 2660:1 2661:1 2662:1 100002:1 100040:1 100042:1 100043:1 #
0.011810025753950454188712093639424 12:1 27:2 451:1 1090:1 1576:1 1830:1 1895:1 2146:1 100002:1 100011:1 100040:1 100043:1 #
-0.011810025753950454188712093639424 2:1 4:2 12:3 25:1 27:5 403:1 2183:1 3357:1 3399:1 4137:1 6779:1 6780:1 8132:1 9767:1 9768:1 9769:1 9770:1 9771:1 9772:1 100002:1 100040:1 #
-0.0065748813256889795594850589566249 4:2 9:5 11:5 12:2 27:14 32:1 56:1 59:1 61:1 85:1 112:1 153:1 191:2 259:1 267:1 348:1 403:5 530:1 629:1 1378:5 2747:1 4020:1 4087:1 4511:1 6920:1 12124:1 12125:1 12127:1 12129:1 12130:1 12132:1 12135:1 12136:1 12138:1 12142:1 12143:1 12144:1 12147:1 12148:1 12149:1 12172:1 12173:1 12174:1 12175:1 12176:1 12177:1 12178:1 12179:1 12180:1 12181:1 12182:1 12183:1 12184:1 12185:1 100002:1 100040:1 100043:1 #
0.011810025753950454188712093639424 4:1 25:1 27:3 31:1 40:1 85:1 95:1 144:1 209:1 370:1 1007:1 1763:1 1915:1 2403:1 3175:1 8334:1 8335:1 100002:1 100012:1 100040:1 #
-0.011810025753950454188712093639424 100002:1 100040:1 100042:1 100043:1 #
0.0065350755106971950350591704648195 4:1 9:1 11:1 12:3 25:1 27:5 31:1 40:1 51:2 95:1 153:1 209:1 758:2 776:1 4380:1 6036:2 7368:1 7369:1 7381:1 7382:1 7383:1 7439:1 7440:1 7441:1 7442:1 7443:1 7444:1 7445:1 100002:1 100012:1 100040:1 100043:1 #
-0.011810025753950454188712093639424 12:2 13:1 14:2 25:1 27:3 45:1 56:1 319:1 534:1 632:1 649:1 980:1 981:1 1043:1 1184:1 1186:1 1208:1 1211:1 1221:1 1222:1 1223:1 1224:1 1225:1 1226:1 1227:1 1228:1 1229:1 1230:1 1231:1 100002:1 100040:1 #
-0.011810025753950454188712093639424 100002:1 100040:1 100042:1 100043:1 #
0.011810025753950454188712093639424 4:1 7:1 27:4 31:2 40:2 42:1 51:1 56:2 112:1 144:1 213:1 324:1 411:1 516:1 537:1 2602:1 2603:1 2614:1 2715:1 2717:1 2732:1 2733:1 2734:1 2735:1 2736:1 2737:1 2738:1 2739:1 2740:1 2741:1 2742:1 2743:1 100002:1 100040:1 100042:1 100043:1 #
0.011810025753950454188712093639424 9:1 11:1 12:1 27:2 31:1 40:1 51:2 105:1 200:1 206:1 225:1 830:1 880:1 928:1 1407:1 1651:1 3858:1 3859:1 3860:1 3861:1 3862:1 3863:1 3864:1 3865:1 3866:1 3867:1 3868:1 100002:1 100040:1 #
-0.011810025753950454188712093639424 4:3 16:1 20:1 27:1 31:1 40:1 51:1 69:1 758:1 1007:1 3479:1 3643:1 4401:1 7776:1 9801:1 11407:1 11437:1 11438:1 100002:1 100040:1 100043:1 #
-0.011810025753950454188712093639424 9:1 11:1 12:1 27:5 37:1 42:1 44:1 47:1 72:2 112:3 439:2 483:1 629:1 932:1 946:1 1082:1 1168:1 1250:1 1534:1 1646:1 3018:1 3033:1 3879:1 6293:1 6389:1 6390:1 6391:1 6392:1 6393:1 6394:1 6395:1 6396:1 100002:1 100040:1 100043:1 #
0.011810025753950454188712093639424 27:1 632:1 8321:1 100002:1 100041:1 100042:1 #
-0.011810025753950454188712093639424 100002:1 100040:1 100042:1 100043:1 #
0.011810025753950454188712093639424 4:2 12:1 25:1 27:5 101:1 264:2 265:1 416:1 1104:1 2331:1 3922:1 6517:1 8440:1 8441:1 8542:1 8591:1 8592:1 8593:1 8594:1 8595:1 100002:1 100011:1 100040:1 100043:1 #
0.011810025753950454188712093639424 27:1 295:1 8262:1 100002:1 100041:1 100042:1 #
0.011810025753950454188712093639424 27:1 295:1 8363:1 100002:1 100041:1 100042:1 #
-0.011810025753950454188712093639424 100002:1 100040:1 100042:1 100043:1 #
0.011810025753950454188712093639424 4:1 7:1 12:1 25:2 27:6 42:1 56:1 85:1 94:1 101:1 112:1 730:1 757:1 1086:1 1734:1 2243:1 3414:1 3707:1 7679:1 8458:1 8499:1 8676:1 8738:1 8828:1 8983:1 8984:1 100002:1 100011:1 100040:1 100043:1 #
0.011810025753950454188712093639424 4:1 12:1 14:1 20:1 25:1 27:5 56:1 101:1 264:1 265:1 629:1 907:1 3414:1 6290:1 6374:1 6517:1 7269:1 8455:1 8456:1 8457:1 8458:1 8459:1 8460:1 8461:1 100002:1 100011:1 100040:1 100043:1 #
0.011810025753950454188712093639424 9:1 11:1 12:4 16:1 25:1 27:6 56:1 90:1 93:1 101:1 112:2 124:1 249:1 530:2 2872:1 5364:1 5936:1 8567:1 8661:1 8923:1 10378:1 10382:1 10383:1 10384:1 10385:1 10386:1 10387:1 10388:1 100002:1 100040:1 100043:1 #
-0.011810025753950454188712093639424 4:1 12:2 27:2 334:1 651:1 965:1 1353:1 7294:1 100002:1 100040:1 100043:1 #
-0.011810025753950454188712093639424 12:2 13:1 570:1 6127:1 100002:1 100040:1 100042:1 100043:1 #
-0.011810025753950454188712093639424 2:1 12:1 16:1 19:1 25:2 27:1 31:1 40:1 42:1 47:1 66:1 67:1 102:1 421:1 530:1 4026:1 9801:1 11431:1 11432:1 11473:1 100002:1 100040:1 100042:1 100043:1 #
-0.011810025753950454188712093639424 100002:1 100040:1 100042:1 100043:1 #
0.011810025753950454188712093639424 27:4 66:1 190:1 611:1 8207:1 8208:1 8229:1 8230:1 100002:1 100040:1 100042:1 #
0.011810025753950454188712093639424 27:1 8347:1 8348:1 100002:1 100041:1 100042:1 #
0.011810025753950454188712093639424 12:3 27:1 95:1 335:1 403:1 1899:1 4858:1 100002:1 100011:1 100012:1 100040:1 100043:1 #
0.011810025753950454188712093639424 12:4 27:1 644:1 4562:1 4563:1 4991:1 100002:1 100011:1 100012:1 100040:1 100043:1 #
0.011810025753950454188712093639424 12:1 27:1 644:1 651:2 1063:1 1069:1 4587:1 4588:1 4589:1 4590:1 4591:1 4592:1 4593:1 4594:1 4595:1 4596:1 4597:1 4598:1 4815:1 100002:1 100012:1 100040:1 100043:1 #
-0.011810025753950454188712093639424 12:1 14:1 20:1 25:1 27:1 31:1 40:1 42:1 45:1 51:1 66:1 416:1 636:1 724:1 966:1 980:1 1248:1 1490:1 1565:1 2202:1 2696:1 2698:1 3175:1 3328:1 5255:1 10449:1 10514:1 10668:1 100002:1 100040:1 #
-0.011810025753950454188712093639424 100002:1 100040:1 100042:1 100043:1 #
0.011810025753950454188712093639424 9:1 11:1 12:1 27:2 965:1 1090:1 1407:2 1635:1 1895:1 2104:1 2123:1 2124:1 100002:1 100011:1 100040:1 100043:1 #
-0.011810025753950454188712093639424 100002:1 100040:1 100042:1 100043:1 #
0.011810025753950454188712093639424 2:1 27:3 31:2 40:2 42:1 56:1 112:3 144:1 147:1 167:1 443:1 537:1 570:1 1353:1 1522:1 2630:1 2631:1 2632:1 2633:1 2634:1 2635:1 100002:1 100040:1 100042:1 100043:1 #
0.011810025753950454188712093639424 4:1 25:1 27:4 31:1 40:1 72:1 85:1 172:1 321:1 632:1 1368:1 2599:1 3510:1 6403:1 7735:1 7862:1 8340:1 8387:1 8388:1 8389:1 8390:1 8391:1 100002:1 100040:1 100042:1 #
0.0068183295905055989888365886031352 4:1 12:1 14:2 20:1 27:3 85:1 90:1 91:1 93:1 133:1 213:1 514:1 655:1 966:1 1401:1 1987:2 2294:1 3175:1 5243:1 5560:1 5631:1 5814:1 5815:1 5816:1 5817:1 5818:1 5819:1 5820:1 5821:1 5822:1 100002:1 100011:1 100040:1 100043:1 #
0.011810025753950454188712093639424 27:1 632:1 8321:1 100002:1 100041:1 100042:1 #
0.011810025753950454188712093639424 27:2 95:1 636:1 8336:1 8337:1 100002:1 100012:1 100040:1 100042:1 #
-0.011810025753950454188712093639424 100002:1 100040:1 100042:1 100043:1 #
-0.011810025753950454188712093639424 2:1 4:1 7:1 12:1 45:1 501:1 502:1 503:1 504:1 505:1 506:1 100002:1 100041:1 100043:1 #
-0.011810025753950454188712093639424 12:2 1228:1 6532:1 100002:1 100040:1 100042:1 100043:1 #
0.011810025753950454188712093639424 9:1 11:1 12:2 14:1 27:4 51:1 56:1 85:1 2872:1 2999:1 5243:1 5247:1 5248:1 5401:1 5877:1 5882:1 5883:1 5884:1 5885:1 5886:1 5887:1 5888:1 100002:1 100011:1 100040:1 100043:1 #
0.011810025753950454188712093639424 12:1 570:1 1089:1 1090:1 2219:1 100002:1 100011:1 100041:1 100043:1 #
-0.011810025753950454188712093639424 100002:1 100040:1 100042:1 100043:1 #
-0.0094917810574988471794544153681272 4:1 9:1 11:1 12:2 14:2 19:1 20:1 25:2 27:8 37:1 85:2 112:2 150:1 156:1 334:2 880:1 894:1 932:1 1040:1 1089:1 1121:1 1167:1 1381:1 1542:1 2192:1 2395:1 2564:4 2958:1 4327:1 5780:1 6796:1 7688:1 7791:1 7988:1 9603:1 9801:1 10769:1 11397:1 11415:1 11416:1 11417:1 11418:1 11419:1 11420:1 11421:1 100002:1 100040:1 100043:1 #
0.011810025753950454188712093639424 1937:1 100002:1 100011:1 100040:1 100042:1 #
0.011810025753950454188712093639424 12:1 1090:1 1895:1 2121:1 100002:1 100011:1 100041:1 100043:1 #
0.011810025753950454188712093639424 12:1 1090:1 1895:1 2379:1 100002:1 100011:1 100041:1 100043:1 #
-0.011810025753950454188712093639424 2:1 4:2 12:1 20:1 25:1 66:1 101:1 297:1 327:1 3425:1 4545:1 5453:1 5454:1 5455:1 5456:1 100002:1 100041:1 100043:1 #
-0.011810025753950454188712093639424 3734:1 100002:1 100018:1 100040:1 100042:1 100043:1 #
-0.011810025753950454188712093639424 3762:1 100002:1 100018:1 100040:1 100042:1 100043:1 #
-0.011810025753950454188712093639424 3770:1 100002:1 100018:1 100040:1 100042:1 100043:1 #
0.011810025753950454188712093639424 27:3 31:1 40:1 81:1 142:1 431:1 629:1 1368:1 1386:1 8239:1 8240:1 100002:1 100040:1 100042:1 #
0.011810025753950454188712093639424 27:4 31:1 40:1 580:1 1038:1 1763:1 8359:1 8360:1 100002:1 100040:1 100042:1 #
0.011810025753950454188712093639424 12:1 2090:1 100002:1 100011:1 100041:1 100042:1 100043:1 #
-0.011810025753950454188712093639424 12:2 27:1 382:1 621:1 100002:1 100040:1 100043:1 #
0.010463880377971447599438903353075 4:3 7:2 9:1 11:1 12:2 25:3 27:4 56:1 90:1 91:1 93:1 592:1 960:1 1987:1 2258:1 9001:2 9079:1 9121:1 9706:1 10052:1 10053:1 10054:1 10055:1 10056:1 10057:1 10058:1 100002:1 100011:1 100040:1 100043:1 #
-0.011810025753950454188712093639424 9:1 11:1 16:1 3507:1 5527:1 8672:1 11422:1 100002:1 100040:1 100042:1 100043:1 #
-0.011810025753950454188712093639424 9345:1 100002:1 100018:1 100040:1 100042:1 100043:1 #
-0.011810025753950454188712093639424 4:1 7:1 12:1 14:1 27:2 56:1 112:1 443:1 629:1 963:1 966:1 1043:1 7489:1 9486:1 9800:1 9854:1 9911:1 9912:1 9913:1 9914:1 9915:1 100002:1 100040:1 100043:1 #
-0.011810025753950454188712093639424 4:2 12:1 14:2 27:2 31:1 37:2 40:1 56:1 66:2 112:2 138:1 142:1 167:1 290:1 321:1 416:1 434:1 569:1 584:1 629:1 980:1 2739:1 2851:1 3023:1 5265:1 5339:1 5374:1 5375:1 5376:1 5377:1 5378:1 5379:1 5380:1 5381:1 5382:1 5383:1 5384:1 5385:1 5386:1 5387:1 100002:1 100040:1 #
-0.011810025753950454188712093639424 12:2 27:1 209:1 256:1 416:1 100002:1 100040:1 100043:1 #
-0.011810025753950454188712093639424 12:2 27:1 382:1 416:1 100002:1 100040:1 100043:1 #
-0.011810025753950454188712093639424 4:1 12:3 27:3 51:1 85:1 133:1 1401:1 2294:1 3355:1 6779:1 6780:1 9057:1 9314:1 9773:1 9774:1 9775:1 9776:1 100002:1 100040:1 100043:1 #
0.011810025753950454188712093639424 27:2 95:1 636:1 8336:1 8337:1 100002:1 100012:1 100040:1 100042:1 #
-0.011810025753950454188712093639424 4:1 27:2 42:1 144:1 388:1 592:1 1042:1 1334:1 1707:1 7074:1 8227:1 8228:1 100002:1 100040:1 100043:1 #
-0.011810025753950454188712093639424 12:2 13:1 17:1 25:2 26:1 27:3 31:1 40:1 42:1 75:1 85:2 120:1 514:2 655:1 1242:1 2950:1 2987:1 3209:1 3321:1 3478:1 3479:1 3480:1 3481:1 3482:1 3483:1 3484:1 100002:1 100040:1 100042:1 100043:1 #
-0.011810025753950454188712093639424 12:1 27:1 75:1 113:1 144:1 922:1 4315:1 6879:1 100002:1 100040:1 100042:1 100043:1 #
0.011810025753950454188712093639424 12:3 27:1 335:1 403:1 644:1 4858:1 5075:1 100002:1 100011:1 100012:1 100040:1 100043:1 #
0.011810025753950454188712093639424 12:3 27:1 95:1 136:1 1401:1 100002:1 100011:1 100012:1 100040:1 100043:1 #
0.011810025753950454188712093639424 12:2 27:1 95:1 136:1 677:1 100002:1 100011:1 100012:1 100040:1 100043:1 #
-0.011810025753950454188712093639424 12:2 1228:1 6532:1 100002:1 100040:1 100042:1 100043:1 #
0.011810025753950454188712093639424 2:1 4:1 12:1 14:1 27:1 66:1 85:2 90:1 91:1 93:1 327:1 570:1 646:1 907:1 1448:1 1919:1 2036:1 5456:1 5486:1 5487:1 5488:1 5489:1 100002:1 100011:1 100040:1 100043:1 #
0.011810025753950454188712093639424 12:1 2090:1 100002:1 100011:1 100041:1 100042:1 100043:1 #
-0.0061033040636294492997659943966937 2:4 4:3 7:1 9:1 11:1 12:5 16:2 20:2 25:3 27:3 31:5 32:1 40:5 47:1 51:1 56:1 61:1 66:1 72:2 85:2 86:2 112:2 144:1 167:1 388:1 411:2 443:2 514:2 530:3 766:1 895:2 907:1 1040:1 1057:1 1058:1 1293:1 1340:1 1351:1 1682:1 1822:3 2342:1 2399:2 2419:1 2668:1 2790:1 3428:1 3510:1 4511:1 5386:1 5512:1 5672:1 6482:1 6918:1 7276:1 7436:1 7632:1 7689:1 7745:2 7999:1 8425:1 10288:2 11535:1 11623:2 12074:1 12075:1 12076:1 12077:1 12078:1 12079:1 12080:2 12081:1 12082:1 12083:1 12084:1 12085:1 12086:1 12087:1 12088:1 12089:1 100002:1 100040:1 100043:1 #
-0.0030224243324554552099503457185392 4:1 9:1 11:1 12:2 13:2 17:3 27:4 31:1 32:1 37:1 40:1 45:1 51:1 56:1 144:1 153:1 348:2 758:1 880:1 913:1 1023:1 1057:1 1058:1 1242:1 1291:1 1446:2 2419:1 3358:1 4028:1 6127:1 6277:2 6836:1 7890:1 10989:1 11709:1 11835:1 11843:1 11844:1 11845:1 11846:1 11847:1 100002:1 100040:1 100043:1 #
-0.011810025753950454188712093639424 12:1 16:1 25:2 27:1 56:2 85:1 112:3 416:1 440:1 1007:1 1673:1 1934:1 2346:1 2755:1 3463:1 7436:1 11832:1 11833:1 100002:1 100040:1 100043:1 #
-0.011810025753950454188712093639424 4:1 12:1 27:2 56:1 85:1 112:1 360:1 410:1 430:1 530:1 836:1 896:1 1005:1 2121:1 2564:2 3907:1 4146:1 7508:1 7803:1 7804:1 7805:1 7806:1 100002:1 100040:1 100043:1 #
-0.011810025753950454188712093639424 2:1 4:2 12:1 14:1 25:1 27:1 42:1 47:1 66:1 85:1 327:1 530:1 632:1 934:1 1001:1 1228:1 2679:1 2904:1 2942:1 3044:1 6247:1 6645:1 8321:1 8324:1 8325:1 8326:1 100002:1 100040:1 #
-0.011810025753950454188712093639424 4:1 12:1 25:3 42:1 56:1 66:1 85:2 112:1 144:1 1171:1 1187:1 2898:1 2906:1 2991:1 2992:1 2993:1 2994:1 2995:1 2996:1 100002:1 100041:1 100042:1 100043:1 #
-0.00122716902806214176249732794588 2:1 4:3 12:2 14:1 16:1 27:2 66:2 85:1 112:1 150:1 167:1 204:1 296:1 319:1 327:1 348:1 570:1 629:1 907:2 1061:1 1062:1 1407:1 1642:1 1934:1 1958:1 2396:1 2397:1 2790:1 3284:1 4215:1 4426:1 5275:1 5337:1 5338:1 5339:1 5340:1 5341:1 5342:1 5343:1 5344:1 5345:1 5346:1 100002:1 100018:1 100040:1 #
-0.011810025753950454188712093639424 4:4 12:1 17:1 27:3 31:1 40:1 51:1 56:2 66:1 530:1 922:1 1342:2 4425:1 5968:1 7329:1 8435:1 11003:1 11096:1 11097:1 11098:1 11099:1 11100:1 11101:1 11102:1 11103:1 11104:1 100002:1 100040:1 100042:1 100043:1 #
0.011810025753950454188712093639424 12:1 136:1 100002:1 100011:1 100041:1 100042:1 100043:1 #
0.007702613087691503879206322835671 12:2 27:1 95:1 136:1 4817:1 100002:1 100011:1 100012:1 100040:1 100043:1 #
-0.011810025753950454188712093639424 9:3 11:3 12:3 14:1 27:2 3166:1 11116:1 11117:1 11118:1 11119:1 100002:1 100040:1 100042:1 100043:1 #
-0.011810025753950454188712093639424 4:1 12:1 16:1 25:1 27:1 32:1 112:1 1864:1 3795:1 4511:1 7563:1 7651:1 7652:1 100002:1 100040:1 100042:1 100043:1 #
-0.011810025753950454188712093639424 4:1 9:1 11:1 56:1 739:1 1079:1 11424:1 11426:1 11427:1 11428:1 100002:1 100040:1 100042:1 100043:1 #
-0.011810025753950454188712093639424 2:1 4:1 12:2 19:1 25:1 27:3 56:1 65:1 72:1 75:1 696:1 943:1 2044:1 2791:1 2792:1 3023:1 3773:1 4047:1 4469:1 5308:1 10632:1 12093:1 12094:1 12095:1 12096:1 12097:1 12098:1 12099:1 100002:1 100040:1 100042:1 100043:1 #
0.0086910330087153781636333249593918 12:2 27:1 95:1 136:1 4918:1 100002:1 100011:1 100012:1 100040:1 100043:1 #
0.0076966512752536520025614663609304 12:2 27:1 95:1 136:1 2357:1 100002:1 100011:1 100012:1 100040:1 100043:1 #
0.0076966512752525417795368412043899 12:2 27:1 95:1 136:1 4993:1 100002:1 100011:1 100012:1 100040:1 100043:1 #
-0.0055175322513688011133448085843156 2:2 4:1 12:1 16:1 17:1 19:1 25:1 144:1 388:1 1082:1 1350:1 1351:1 1401:1 1580:1 3030:1 3401:1 3998:1 4288:1 6270:1 6528:1 7524:1 8494:1 9603:1 11367:1 11397:1 11455:1 11456:1 100002:1 100041:1 100043:1 #
0.0058865838176996518327221963318152 12:1 27:1 644:1 4562:1 4563:1 5087:1 100002:1 100011:1 100012:1 100040:1 100043:1 #
-0.0086926744602001029121884911887719 2:1 4:3 12:1 25:2 27:2 31:1 40:1 51:1 56:1 85:1 439:1 448:1 530:2 573:1 615:1 832:1 1165:2 1380:1 1381:1 1392:1 2490:1 2688:1 3140:1 3181:1 3412:1 3438:1 3748:1 4208:1 5516:1 7498:1 7499:1 7500:1 7501:1 7502:1 7503:1 7504:1 100002:1 100040:1 100043:1 #
0.011810025753950454188712093639424 12:1 136:1 100002:1 100011:1 100041:1 100042:1 100043:1 #
0.0086910330087164866519344741391251 12:2 27:1 95:1 136:1 5008:1 100002:1 100011:1 100012:1 100040:1 100043:1 #
0.0086910330087154458178488880548684 12:2 27:1 95:1 136:1 5044:1 100002:1 100011:1 100012:1 100040:1 100043:1 #
0.0077026130876914900014185150212143 12:2 27:1 95:1 136:1 5077:1 100002:1 100011:1 100012:1 100040:1 100043:1 #
0.0086910330087163496087798719713646 12:2 27:1 95:1 136:1 6980:1 100002:1 100011:1 100012:1 100040:1 100043:1 #
-0.0003602678421771790670188884142533 2:1 4:12 7:7 9:3 10:1 11:3 12:7 14:3 16:4 19:2 20:2 21:1 25:9 27:22 31:5 40:5 42:4 45:2 51:1 52:2 56:9 57:1 61:4 66:3 72:2 73:1 75:2 85:1 92:1 95:3 112:8 141:1 142:1 144:5 153:1 213:1 290:2 319:1 348:2 351:1 383:1 416:1 418:1 422:1 430:2 521:1 530:3 566:2 588:1 598:1 629:2 757:1 836:1 840:2 880:1 895:2 922:1 932:2 952:1 966:1 994:1 1127:1 1221:2 1240:1 1255:1 1342:1 1350:1 1353:1 1428:1 1504:1 1564:1 1603:1 1670:1 1705:1 2249:4 2334:1 2404:1 2420:2 2425:1 2601:1 2731:1 2790:3 2901:1 2927:1 2987:1 3161:1 3416:1 3449:1 3503:1 3555:1 3781:2 3785:4 3789:2 4235:1 4315:1 4473:2 5983:1 6311:1 6523:1 6645:1 6725:3 6817:1 7181:1 7224:3 7228:4 7276:1 7988:2 8418:1 8912:1 9212:1 9604:1 10390:1 10423:1 10821:1 11002:1 11026:1 11197:3 11499:1 11583:2 11641:1 11642:1 11707:7 11708:1 11709:1 11710:1 11711:1 11712:2 11713:2 11714:1 11715:1 11716:1 11717:1 11718:1 11719:1 11720:1 11721:1 11722:1 11723:1 11724:1 11725:1 11726:1 11727:1 11728:1 11729:1 11730:1 11731:1 11732:1 11733:1 11734:1 11735:1 11736:1 11737:1 11738:1 11739:1 11740:1 11741:1 11742:1 11743:1 11744:1 11745:1 11746:1 11747:1 11748:1 100002:1 100012:1 100040:1 100043:1 #
-0.011810025753950454188712093639424 4:1 7:1 12:1 25:1 27:1 61:1 92:1 443:1 1059:1 1228:1 1521:1 1974:1 2864:1 4028:1 5824:1 5825:1 5826:1 100002:1 100040:1 100042:1 100043:1 #
-0.003463397038732417883982739326143 4:1 9:3 11:3 14:2 16:1 24:1 27:4 42:1 56:1 66:1 72:2 112:1 144:1 150:1 167:1 200:1 458:1 570:1 615:1 1223:1 2551:1 2604:1 2942:1 3182:1 3401:1 4074:2 4118:1 11579:1 11580:1 11581:2 11582:1 11583:1 11584:1 11585:1 11586:1 11587:1 11588:1 100002:1 100040:1 100043:1 #
-0.011103335464665584422783162210635 7:1 10:1 12:3 27:1 28:1 37:1 51:1 144:1 319:2 1428:1 2379:1 11539:1 11540:1 11541:1 11542:1 100002:1 100040:1 100043:1 #
0.0026495984463424269647613407130393 2:2 4:7 7:1 9:4 11:3 12:4 13:1 14:1 16:3 17:1 25:5 27:10 31:1 37:1 40:1 42:2 56:3 59:1 85:3 90:1 91:1 93:1 95:1 112:3 144:5 150:1 167:1 225:1 249:1 270:1 314:1 319:1 644:1 821:1 864:1 1067:1 1242:1 1250:1 1309:1 1580:2 1708:1 1906:1 2204:1 2249:1 2864:1 2872:1 3000:1 3049:1 3194:1 3379:1 3748:1 3790:1 3862:2 3875:1 3878:1 3912:1 3945:2 3946:2 3958:1 3997:1 4093:1 4158:1 4159:1 4204:1 4205:1 4206:1 4207:1 4208:1 4209:1 4210:1 4211:1 4212:1 4213:1 4214:1 4215:1 4216:1 4217:1 4218:1 4219:1 4220:1 4221:1 4222:1 4223:1 4224:1 4225:1 4226:1 4227:1 4228:1 4229:1 4230:1 4231:1 4232:1 4233:1 4234:1 4235:1 4236:1 4237:1 4238:1 4239:1 4240:1 4241:1 4242:1 4243:1 4244:1 100002:1 100011:1 100012:1 100040:1 100043:1 #
0.0030537908703236523594304330231353 2:2 4:3 7:6 9:4 11:3 12:5 13:2 14:1 17:1 19:1 24:2 25:9 27:13 31:1 40:1 47:1 56:4 66:1 81:1 85:3 90:1 91:1 93:1 112:3 124:1 144:2 156:1 167:1 169:1 213:1 225:1 233:1 314:1 319:1 327:3 360:1 411:3 443:1 530:4 629:1 700:1 712:1 767:1 822:1 840:1 901:1 986:1 999:1 1057:2 1058:2 1156:1 1171:1 1181:1 1370:1 1551:2 1580:1 1786:1 1919:1 1979:1 2644:1 2791:1 2973:1 2991:1 3182:1 3206:1 3207:1 3208:1 3353:1 3354:1 3355:2 3356:1 3357:5 3358:3 3359:2 3360:2 3361:2 3362:3 3363:1 3364:1 3365:1 3366:1 3367:1 3368:1 3369:1 3370:1 3371:2 3372:1 3373:1 3374:1 3375:1 3376:1 3377:1 3378:1 3379:1 3380:1 3381:1 3382:1 3383:1 3384:1 3385:1 3386:1 3387:1 3388:1 3389:1 3390:1 3391:1 3392:1 3393:2 3394:2 3395:1 3396:1 3397:1 3398:1 3399:1 3400:1 100002:1 100011:1 100040:1 #
0.011810025753950454188712093639424 27:2 31:1 40:1 51:1 85:1 112:1 144:1 321:1 1772:1 2628:1 7563:1 8340:1 8347:1 8348:1 8349:1 8350:1 8365:1 100002:1 100040:1 100042:1 #
0.011810025753950454188712093639424 4:1 27:4 31:1 40:1 51:1 56:1 85:1 209:1 443:1 550:1 2761:1 3506:1 4169:1 4288:1 8340:1 8347:1 8348:1 8370:1 8371:1 8372:1 8373:1 8374:1 8375:1 100002:1 100040:1 100042:1 #
0.006869957660593123925651948269433 9:1 11:1 12:1 27:4 31:1 40:1 42:1 56:1 112:1 144:1 209:1 249:1 321:1 606:1 629:1 1457:1 8256:1 8347:2 8348:2 8349:1 8350:1 8351:1 8352:1 8353:1 8354:1 100002:1 100040:1 100042:1 #
0.0039885205454162839244780514036393 12:1 16:1 25:1 27:3 31:1 40:1 51:1 90:1 91:1 93:1 200:1 204:1 206:2 209:1 225:1 229:1 482:1 628:1 786:1 1448:1 2192:1 2202:1 2222:1 2533:1 3538:1 3573:1 7700:1 7931:1 9150:1 9337:1 10749:1 10750:1 10751:2 10752:1 10753:1 10754:1 10755:1 10756:1 10757:1 10758:1 10759:1 100002:1 100040:1 100043:1 #
-0.0075148873700097429395583503719536 4:1 7:1 12:1 27:1 56:1 85:1 144:1 629:1 1179:1 1221:1 3475:1 5948:1 8700:1 9446:1 9857:1 9925:1 9926:1 9927:1 100002:1 100040:1 100042:1 100043:1 #
-0.011810025753950454188712093639424 2:1 4:1 7:1 10:1 12:1 25:1 27:2 85:1 112:1 570:1 913:1 2192:1 2397:1 3996:2 5941:1 10925:1 10926:1 10927:1 10928:1 100002:1 100018:1 100040:1 100043:1 #
0.00936885197197353386533436037098 4:2 9:1 11:1 12:4 14:1 16:1 25:1 27:2 28:1 31:1 37:1 40:1 51:1 56:2 85:1 90:1 91:1 93:1 135:1 167:1 403:1 443:1 621:1 832:1 895:1 932:1 1057:1 1058:1 1157:1 1228:1 1250:1 1353:1 1522:1 1705:1 2420:1 3510:1 3801:1 4315:1 6237:2 7275:1 8322:1 10230:3 11519:1 11520:1 11521:1 11522:1 11523:1 100002:1 100011:1 100040:1 100043:1 #
0.011810025753950454188712093639424 9:1 11:1 12:1 27:3 95:1 249:1 606:1 1740:1 10517:1 10518:1 10519:1 100002:1 100012:1 100040:1 100042:1 #
-0.0082708031854259733695045042622951 7:1 12:2 27:1 37:1 434:1 443:1 530:1 1047:1 1240:1 1542:1 2878:1 3820:1 6127:1 6278:1 7165:1 7166:1 7167:1 7168:1 100002:1 100040:1 100042:1 100043:1 #
-0.0066388590300101284896738818019912 12:2 204:4 206:1 209:2 216:1 225:1 229:1 729:1 788:1 821:1 1063:1 1069:1 1726:1 1890:1 2032:1 2053:1 3675:1 4638:1 4687:1 11120:1 11121:2 11122:1 11123:1 11124:1 11125:1 11126:1 11127:1 11128:1 11129:1 11130:1 11131:1 11132:1 11133:1 11134:1 11135:1 11136:1 11137:1 11138:1 100002:1 100040:1 100042:1 100043:1 #
-0.011810025753950454188712093639424 4:1 9:2 11:2 12:1 27:1 56:1 85:1 418:1 570:2 621:1 965:1 2612:1 2872:1 5918:1 6830:1 11960:1 11961:1 100002:1 100040:1 100043:1 #
0.008103676243425639649786695883904 4:2 12:2 25:2 27:4 31:1 36:1 40:1 51:1 72:1 99:1 112:2 144:1 150:1 611:1 644:1 3438:1 6410:1 8584:1 8993:1 8994:2 8995:2 8999:1 9262:1 9340:1 9341:1 9342:1 9343:1 9344:1 100002:1 100012:1 100040:1 100043:1 #
0.011810025753950454188712093639424 12:2 27:5 31:1 40:1 90:1 93:1 133:1 269:1 321:1 416:1 2182:1 7844:1 8028:1 10376:1 10377:1 10378:1 10379:1 10380:1 100002:1 100040:1 100043:1 #
