SVM-light Version V6.02
0 # kernel type
3 # kernel parameter -d 
1 # kernel parameter -g 
1 # kernel parameter -s 
1 # kernel parameter -r 
empty# kernel parameter -u 
100043 # highest feature index 
1555 # number of training documents 
485 # number of support vectors plus 1 
0.3185753 # threshold b, each following line is a SV (starting with alpha*y)
-0.012463700907981347526520821134 1:1 2:1 3:1 4:1 5:1 6:1 7:1 8:1 9:1 10:1 11:1 12:1 100002:1 100042:1 #
-0.012463700907981347526520821134 4:1 12:1 13:2 14:1 15:1 100002:1 100041:1 100042:1 100043:1 #
-0.0089544608881445310333280218628715 2:1 4:1 9:1 12:1 14:1 25:1 27:2 56:1 117:1 124:1 416:1 3021:1 4075:1 4082:1 4253:1 5561:1 5562:1 5563:1 5564:1 5565:1 5566:1 5567:1 5568:1 100002:1 100043:1 #
-0.0080248238374094425090499171915326 4:2 7:3 14:1 16:1 25:5 27:2 31:2 32:1 33:1 34:1 35:1 36:1 37:1 38:1 39:1 40:2 41:1 42:2 43:1 44:1 45:1 46:1 47:1 48:1 49:1 50:1 51:1 52:1 53:1 54:1 55:1 56:1 57:1 58:1 100002:1 100043:1 #
-0.012463700907981347526520821134 12:1 15:1 37:1 59:1 60:1 100002:1 100041:1 100042:1 100043:1 #
-0.012463700907981347526520821134 7:1 12:1 14:1 20:2 27:5 34:1 37:1 42:1 56:1 65:1 112:1 156:1 897:1 898:1 899:1 900:1 901:1 902:1 903:1 904:1 905:1 906:1 907:1 908:1 100002:1 100042:1 100043:1 #
0.012463700907981347526520821134 4:1 9:1 11:1 12:3 14:2 19:1 20:1 51:1 56:1 66:1 90:1 91:1 93:1 112:2 124:1 319:1 411:1 417:1 443:1 515:1 536:1 537:1 606:1 651:1 1570:2 2649:1 3436:1 3928:2 6447:1 7637:1 12309:1 12327:1 12387:1 12388:1 12389:1 12390:1 12391:1 100002:1 100011:1 #
-0.012463700907981347526520821134 2:2 4:2 9:1 11:1 12:1 16:1 25:1 27:1 31:3 40:3 56:1 85:2 112:1 144:1 416:1 418:2 1010:1 1299:1 1993:1 2782:1 3385:1 3432:1 4111:1 4274:1 5471:1 6854:1 9880:1 12018:1 12019:1 12020:2 12021:1 12022:1 100002:1 100043:1 #
0.012463700907981347526520821134 12:1 27:1 204:1 645:1 1060:1 1061:1 4359:1 4603:1 4649:1 4682:1 4874:1 4875:1 4881:1 100002:1 100011:1 100012:1 100043:1 #
-5.6467564586427237971477666178544e-05 2:1 4:5 9:2 11:1 14:1 16:4 25:2 27:5 37:1 42:2 56:2 85:1 101:1 112:3 144:4 535:1 1007:1 1043:1 1124:1 1323:1 1419:1 2419:1 2598:3 2650:1 3170:1 3761:1 4470:1 5471:1 6331:1 8186:1 8583:1 9631:2 11489:1 11499:1 11508:2 11562:1 11563:1 11564:1 11565:1 11566:1 100002:1 100043:1 #
-0.012463700907981347526520821134 4:2 7:1 9:1 11:1 12:1 25:1 27:15 32:1 56:1 61:2 191:1 267:1 602:1 964:1 1051:1 2428:1 2500:1 4558:1 7931:1 12325:1 12326:1 12327:1 12328:1 12329:1 12330:1 12331:1 12332:1 12333:1 12334:1 12335:1 12336:1 12337:1 12338:1 12339:1 12340:1 12341:1 12342:1 12343:1 12344:1 12345:1 12346:1 12347:1 12348:1 12349:1 12350:1 12351:1 12352:1 100002:1 100043:1 #
-0.0060472112512680109910889747482088 2:1 4:8 7:1 12:3 14:4 16:2 17:3 25:2 27:15 37:1 42:2 56:6 72:1 84:1 112:2 130:1 138:2 144:6 213:1 294:1 418:1 430:1 531:2 630:1 934:1 945:1 952:1 974:4 1076:1 1146:1 1149:1 1309:1 1321:1 1459:1 2365:1 2715:1 2777:1 3447:1 7865:1 8066:1 8328:1 8350:2 8810:1 10561:1 10573:2 10574:1 10575:1 10576:1 10577:1 10578:2 10579:1 10580:2 10581:1 10582:1 10583:1 10584:1 10585:1 10586:1 10587:1 10588:1 10589:1 10590:1 10591:1 10592:1 10593:1 10594:1 10595:1 10596:1 10597:1 10598:1 10599:1 10600:1 10601:1 10602:1 10603:1 10604:1 10605:1 10606:1 100002:1 100042:1 #
-0.012301515813023307377438442244966 4:2 9:5 11:5 12:2 27:14 32:1 56:1 59:1 61:1 85:1 112:1 153:1 191:2 259:1 267:1 348:1 403:5 531:1 630:1 1388:5 2774:1 4060:1 4123:1 4558:1 7042:1 12325:1 12326:1 12328:1 12330:1 12331:1 12333:1 12336:1 12337:1 12339:1 12343:1 12344:1 12345:1 12348:1 12349:1 12350:1 12373:1 12374:1 12375:1 12376:1 12377:1 12378:1 12379:1 12380:1 12381:1 12382:1 12383:1 12384:1 12385:1 12386:1 100002:1 100042:1 100043:1 #
0.012463700907981347526520821134 2:1 1133:1 2690:1 100002:1 100040:1 100042:1 100043:1 #
-0.002159782432619080597829830381329 2:3 3:1 4:8 9:3 11:3 12:2 14:4 17:1 25:6 27:8 31:2 32:1 40:2 42:1 56:2 66:3 94:1 95:1 97:1 101:2 111:1 112:1 144:1 166:1 210:1 214:2 225:1 293:1 294:1 322:1 345:1 439:1 583:1 599:1 618:1 630:1 763:1 842:1 1109:1 1172:1 1173:1 1317:1 1326:1 1330:1 1387:1 1578:1 2225:1 2351:1 2928:1 3016:1 3027:1 3226:2 3334:1 3436:1 3481:2 3797:1 3916:1 3921:1 3922:1 3923:1 3924:1 3925:1 3926:1 3927:1 3928:1 3929:1 3930:1 3931:1 3932:1 3933:1 3934:1 3935:1 3936:1 3937:1 3938:1 3939:2 3940:1 3941:1 3942:1 3943:1 3944:1 3945:1 3946:1 100002:1 100012:1 #
0.012463700907981347526520821134 4:3 9:1 11:1 12:2 20:1 25:3 27:1 31:1 40:1 66:1 169:1 571:1 723:1 760:1 909:1 1540:1 3263:1 3270:1 3271:1 3356:1 3434:1 3552:1 3553:1 100002:1 100042:1 #
-0.012463700907981347526520821134 12:2 95:1 334:1 100002:1 100012:1 100041:1 #
-0.012463700907981347526520821134 100002:1 100040:1 100042:1 100043:1 #
0.012463700907981347526520821134 2:1 4:1 27:2 31:1 40:1 51:1 56:1 112:1 293:1 418:1 460:1 581:2 756:1 4107:1 7827:1 8502:1 8573:1 100002:1 100042:1 #
-0.012463700907981347526520821134 2:4 4:2 12:4 14:2 25:8 27:12 31:1 40:1 42:1 44:1 45:1 56:3 59:1 66:1 85:1 100:1 109:1 144:1 156:1 213:2 388:1 430:1 439:1 967:1 982:1 1255:1 1257:1 1317:1 1490:1 1736:1 1775:1 1786:1 3232:1 3233:1 3234:1 3235:1 3236:1 3237:1 3238:1 3239:1 3240:1 3241:1 3242:1 3243:1 3244:1 3245:1 3246:1 3247:1 3248:1 3249:1 3250:1 3251:1 3252:1 3253:1 3254:1 3255:1 3256:1 3257:1 3258:1 3259:1 3260:1 3261:1 3262:1 100002:1 100042:1 #
0.012463700907981347526520821134 27:1 56:1 2612:1 2613:1 2614:1 2615:1 100002:1 100041:1 100042:1 100043:1 #
0.012463700907981347526520821134 27:1 56:1 2614:1 2615:1 2702:1 2703:1 100002:1 100041:1 100042:1 100043:1 #
0.012463700907981347526520821134 27:1 2709:1 2710:1 100002:1 100041:1 100042:1 100043:1 #
-0.012463700907981347526520821134 12:2 27:1 133:1 637:1 1419:1 4177:1 6896:1 6897:1 10454:1 100002:1 #
-0.012463700907981347526520821134 12:1 27:1 1419:1 1659:1 6479:1 100002:1 100043:1 #
0.0037736927658044449630792005478952 2:2 4:3 7:6 9:4 11:3 12:5 13:2 14:1 17:1 19:1 24:2 25:9 27:12 31:1 40:1 47:1 56:4 66:1 81:1 85:3 90:1 91:1 93:1 112:3 124:1 144:2 156:1 167:1 169:1 213:1 225:1 233:1 314:1 319:1 327:3 360:1 411:3 443:1 531:4 630:1 701:1 713:1 769:1 824:1 842:1 903:1 988:1 1002:1 1060:2 1061:2 1160:1 1175:1 1184:1 1380:1 1564:2 1593:1 1801:1 1935:1 1997:1 2671:1 2818:1 3002:1 3020:1 3212:1 3237:1 3238:1 3383:1 3384:1 3385:2 3386:1 3387:5 3388:3 3389:2 3390:2 3391:2 3392:3 3393:1 3394:1 3395:1 3396:1 3397:1 3398:1 3399:1 3400:1 3401:1 3402:2 3403:1 3404:1 3405:1 3406:1 3407:1 3408:1 3409:1 3410:1 3411:1 3412:1 3413:1 3414:1 3415:1 3416:1 3417:1 3418:1 3419:1 3420:1 3421:1 3422:1 3423:1 3424:2 3425:2 3426:1 3427:1 3428:1 3429:1 3430:1 3431:1 100002:1 100011:1 #
-0.012463700907981347526520821134 12:1 56:1 85:1 7425:1 7426:1 100002:1 100040:1 100042:1 #
-0.0063414803132264812440821444283756 2:1 4:3 7:1 12:2 27:1 51:1 66:1 81:1 144:1 2537:1 4619:1 6897:1 9190:1 9192:1 9322:1 9476:1 9641:1 9937:1 10254:1 10277:1 10278:1 10279:1 100002:1 #
0.0091538435996754360934879457545321 9:2 11:2 12:3 27:4 103:1 204:2 206:2 335:1 644:1 645:1 990:1 1060:1 1061:1 1666:1 1668:1 2051:1 4603:1 4800:1 4825:1 4826:1 4885:1 4886:1 4887:1 4888:1 4889:1 4890:1 4891:1 4892:1 100002:1 100012:1 #
-0.012463700907981347526520821134 100002:1 100040:1 100042:1 100043:1 #
-0.012463700907981347526520821134 4:3 7:2 12:1 14:1 17:1 25:2 27:7 31:1 32:1 40:1 42:2 45:1 47:2 51:1 56:1 85:1 95:1 112:1 130:1 167:1 276:1 289:1 322:1 465:1 484:1 630:2 902:1 929:1 968:1 976:1 977:1 1033:1 1035:1 1045:1 1046:1 1047:1 1048:1 1049:1 1050:2 1051:1 1052:1 1053:1 1054:1 1055:1 1056:1 1057:1 1058:1 1059:1 1060:1 1061:1 1062:1 1063:1 1064:1 1065:1 1066:1 1067:1 1068:1 1069:1 1070:1 1071:1 1072:1 1073:1 1074:1 1075:1 1076:1 1077:1 100002:1 100012:1 100043:1 #
0.012463700907981347526520821134 2:3 4:2 7:2 12:3 13:4 14:1 16:1 25:2 27:7 31:1 37:2 40:1 42:1 56:2 144:6 200:1 204:1 206:2 209:1 430:4 479:1 571:1 656:1 672:1 1228:2 1241:1 1394:1 1430:1 1431:1 1711:1 1747:1 1786:1 2233:1 3020:1 3109:1 3446:1 3498:1 3583:1 3615:1 3676:1 4247:1 4519:1 5426:1 5439:1 6110:2 7213:1 7730:1 7771:1 7772:1 7825:1 7833:1 7835:2 7836:1 7837:1 7838:3 7839:1 7840:1 7841:2 7842:1 7843:1 7844:1 7845:1 7846:1 7847:1 7848:1 7849:1 7850:1 7851:1 7852:1 7853:1 7854:1 7855:1 7856:1 7857:1 7858:1 100002:1 #
0.012463700907981347526520821134 2:2 4:2 9:2 11:1 12:2 25:3 27:2 37:1 56:5 80:1 144:3 169:1 314:1 430:1 723:1 1299:1 1324:1 2418:1 2650:1 3270:1 3271:1 3430:1 3444:1 3445:1 3446:2 3447:1 3448:1 3449:1 3450:1 3451:1 100002:1 100042:1 #
0.012463700907981347526520821134 4:1 16:1 27:1 31:1 37:1 40:1 42:1 68:2 144:1 321:1 388:1 936:1 967:1 1234:1 1262:1 2438:1 2706:1 3436:1 6522:1 8444:1 8445:1 8446:1 100002:1 100042:1 100043:1 #
-0.012463700907981347526520821134 4:5 12:8 20:1 27:6 51:1 56:3 85:1 144:1 169:1 190:1 209:1 213:1 249:1 314:3 335:1 403:1 542:1 607:1 619:1 620:1 621:1 622:1 623:1 624:1 625:1 626:1 627:1 628:1 629:1 630:1 631:1 632:1 633:1 634:1 635:1 636:1 637:1 638:1 639:1 640:1 641:1 642:1 643:1 644:1 645:1 646:1 100002:1 100012:1 #
0.012463700907981347526520821134 4:1 9:1 11:1 12:1 27:3 31:1 40:1 42:1 56:2 81:1 249:1 293:1 1109:1 1499:1 1684:1 2657:1 8401:1 8435:1 8436:1 8437:1 100002:1 100042:1 #
-0.010339808513739294840161342392548 2:2 4:5 12:4 14:1 16:2 20:1 25:1 27:12 31:2 32:1 37:2 40:2 42:2 47:1 56:3 59:1 64:1 72:1 85:1 112:1 142:1 144:5 403:2 431:1 484:2 515:1 957:1 1043:1 1046:1 1182:1 1360:1 1879:1 1935:1 1950:1 2351:2 2443:1 3205:1 3222:2 3388:1 3591:1 5259:1 5452:1 5463:1 6415:1 6896:1 8968:1 9154:1 9169:1 9170:1 9258:1 9367:1 9489:1 9562:1 9638:1 9641:1 9659:1 9687:1 9732:1 9801:1 9802:1 9803:1 9804:1 9805:1 9806:1 9807:1 9808:1 9809:1 9810:1 9811:1 9812:1 9813:1 9814:1 9815:1 9816:1 9817:1 100002:1 100043:1 #
0.012463700907981347526520821134 27:1 2795:1 2796:1 100002:1 100041:1 100042:1 100043:1 #
0.012463700907981347526520821134 27:1 171:1 8400:1 100002:1 100041:1 100042:1 100043:1 #
-0.012463700907981347526520821134 12:1 27:4 78:1 81:1 115:1 293:1 1778:1 10690:1 10691:1 10692:1 10693:1 10694:1 100002:1 100042:1 #
0.0038530186563552918863062579646339 2:3 4:7 7:5 9:2 11:3 12:12 14:1 15:1 16:2 20:2 25:1 27:6 31:1 32:4 40:1 42:2 51:1 56:3 58:1 60:1 61:1 72:1 75:2 90:2 91:2 93:2 95:1 99:1 112:2 141:1 144:1 150:1 153:1 319:1 430:2 431:1 443:1 515:1 527:1 535:3 567:1 630:5 647:1 656:1 842:2 896:1 897:3 898:1 909:1 934:1 945:1 960:1 962:2 1000:1 1034:1 1049:5 1060:1 1066:4 1072:4 1086:1 1087:1 1141:1 1170:1 1238:1 1239:1 1240:1 1241:3 1242:1 1243:1 1244:1 1245:1 1246:1 1247:1 1248:1 1249:9 1250:3 1251:1 1252:1 1253:1 1254:1 1255:1 1256:1 1257:1 1258:1 1259:1 1260:1 1261:1 1262:1 1263:1 1264:1 1265:1 1266:1 1267:1 1268:1 1269:1 1270:1 1271:1 1272:1 1273:1 1274:1 1275:1 1276:1 1277:1 1278:1 1279:1 1280:1 1281:1 1282:1 1283:1 1284:1 1285:1 1286:1 1287:1 1288:1 1289:1 1290:1 1291:1 1292:1 1293:1 1294:1 1295:1 1296:1 1297:1 1298:1 1299:1 1300:1 1301:1 1302:1 1303:1 1304:1 1305:2 1306:1 1307:1 1308:1 1309:1 100002:1 100011:1 100012:1 #
-0.0083029684879863951962875034951139 2:1 4:15 7:3 9:4 11:4 12:3 14:2 17:1 25:4 27:15 31:1 32:1 38:1 42:2 45:1 51:4 56:2 59:1 66:1 75:1 78:1 94:1 95:3 102:1 112:5 144:3 167:2 204:3 206:3 209:1 213:2 216:1 225:1 256:1 264:1 265:1 319:2 345:1 405:1 430:1 431:1 443:1 445:1 531:1 568:1 571:1 655:1 672:3 721:1 823:2 918:1 1092:1 1146:1 1265:1 1286:1 1356:1 1409:1 1441:1 1467:1 1582:1 1634:3 1688:1 2268:1 2396:1 2572:1 2714:1 2818:2 2950:1 2955:1 2958:1 3027:1 3053:1 3446:2 3508:1 3516:1 3697:1 3743:1 4195:2 4477:1 4667:1 5441:1 5666:1 5749:1 6122:1 6123:1 6512:2 7142:1 7759:2 7810:1 7852:1 8267:1 8639:1 8683:1 8776:1 8777:1 8778:1 8779:1 8780:1 8781:1 8782:1 8783:1 8784:1 8785:1 8786:1 8787:1 8788:1 8789:1 8790:4 8791:1 8792:1 8793:1 8794:1 8795:1 8796:1 8797:1 8798:1 8799:1 8800:1 8801:1 8802:1 8803:1 8804:1 8805:1 8806:1 8807:1 8808:1 8809:1 8810:1 8811:1 8812:1 8813:1 100002:1 100012:1 #
-0.0017133004178978359765411765280874 2:1 4:6 7:2 9:7 11:8 12:2 14:3 16:1 19:1 25:2 27:16 42:2 56:1 57:1 66:3 85:3 112:6 144:2 150:1 167:1 295:1 418:4 432:1 459:1 531:1 740:1 756:1 1227:1 1252:1 1286:1 1317:1 1385:1 2631:3 3212:1 3675:1 3761:1 3763:1 3844:1 4112:1 4157:1 4536:1 5439:1 5471:1 6037:1 7993:1 8328:1 8471:1 10298:1 11499:1 11560:1 11735:1 11738:1 11739:3 11740:4 11741:1 11742:1 11743:2 11744:2 11745:1 11746:1 11747:1 11748:1 11749:1 11750:1 11751:1 11752:1 11753:1 11754:1 11755:1 11756:1 11757:1 11758:1 11759:1 11760:1 11761:2 11762:1 11763:1 11764:1 11765:1 11766:1 11767:1 11768:1 11769:1 100002:1 100042:1 100043:1 #
-0.012463700907981347526520821134 12:1 27:4 66:1 72:1 213:2 484:1 909:1 1031:2 1124:2 1419:1 1496:1 1659:1 4182:1 5103:1 6577:1 100002:1 100043:1 #
-0.003921112276553767768405567295531 2:4 4:3 9:6 11:6 12:2 17:1 27:7 31:1 37:1 40:1 51:1 56:6 66:1 78:1 81:1 85:1 101:1 144:1 295:1 418:1 439:1 443:1 445:1 633:1 637:1 760:1 838:1 936:1 1112:1 1249:1 1755:1 1935:1 2062:1 2729:1 2869:1 3133:1 3480:2 3854:1 3959:1 4240:1 4335:1 4451:1 5318:1 5325:1 5525:1 5652:1 6068:1 9308:1 10473:1 10481:1 10613:1 10677:1 10683:1 10797:1 10798:2 10799:2 10800:1 10801:1 10802:1 10803:1 10804:1 10805:1 10806:1 10807:1 10808:1 10809:1 10810:1 10811:1 10812:1 100002:1 #
0.01076116203083424087416641867776 12:5 27:5 213:2 334:1 335:3 403:1 484:1 645:3 1031:1 5112:1 5113:1 5114:1 5115:1 5116:1 5117:1 100002:1 100012:1 100043:1 #
-0.012463700907981347526520821134 12:1 27:2 42:1 95:2 429:1 1461:1 2872:1 6719:1 6746:1 100002:1 100012:1 100043:1 #
0.012214251511548189846334544483852 9:3 11:2 12:3 27:5 51:1 206:1 220:1 335:1 484:1 645:1 701:1 1060:1 1061:1 1419:1 4606:1 4616:1 4676:1 4724:1 5083:1 5084:1 5085:1 5086:1 5087:1 5088:1 5089:1 5090:1 100002:1 100012:1 100043:1 #
0.012463700907981347526520821134 42:1 45:1 319:1 1358:1 2721:1 2722:1 2723:1 100002:1 100040:1 100042:1 100043:1 #
-0.012463700907981347526520821134 1:1 27:3 80:1 204:1 206:1 209:1 229:1 479:1 675:1 787:1 864:1 894:1 1637:1 1677:1 2233:1 11464:1 11632:1 11633:1 100002:1 #
-0.012463700907981347526520821134 571:1 100002:1 100040:1 100042:1 100043:1 #
-0.012463700907981347526520821134 2:1 12:1 27:1 51:2 124:1 204:2 206:1 225:1 1503:1 1570:1 1977:1 5352:1 5386:1 5387:1 5400:1 5401:1 5402:1 5403:1 100002:1 100042:1 #
-0.012463700907981347526520821134 12:1 85:2 1068:1 3434:1 4033:1 5584:1 100002:1 100041:1 100042:1 100043:1 #
-0.012463700907981347526520821134 12:2 13:1 571:1 6213:1 100002:1 100041:1 100042:1 #
-0.012463700907981347526520821134 12:2 13:1 25:2 26:1 27:2 31:1 40:1 42:1 75:1 85:2 120:1 515:2 656:1 1249:1 2979:1 3016:1 3239:1 3351:1 3512:1 3513:1 3514:1 3515:1 3516:1 3517:1 3518:1 3519:1 100002:1 100042:1 #
-0.012463700907981347526520821134 7:1 12:1 27:2 203:1 284:1 1027:1 1221:1 1880:1 6105:1 7371:1 7372:1 100002:1 100042:1 #
-0.012463700907981347526520821134 4:1 12:2 27:2 42:1 95:1 1565:1 1574:1 3801:1 6407:1 7391:1 7392:1 7393:1 100002:1 100012:1 #
-0.012463700907981347526520821134 12:1 27:1 75:1 113:1 144:1 924:1 4358:1 6999:1 100002:1 100042:1 100043:1 #
-0.012463700907981347526520821134 12:1 27:2 66:1 78:1 95:1 209:1 395:1 977:1 1028:1 1141:1 1332:1 1385:1 1386:1 100002:1 100012:1 #
-0.012463700907981347526520821134 12:1 27:1 2891:1 7027:1 10551:1 100002:1 100041:1 100042:1 #
0.012463700907981347526520821134 4:1 9:4 11:4 12:4 27:1 51:2 56:2 65:1 85:1 112:5 190:2 237:2 265:1 315:2 1034:1 1599:1 2225:1 2785:1 3010:2 3740:2 3741:1 3742:1 3743:1 3744:1 3745:2 3746:2 3747:1 3748:1 3749:1 100002:1 #
0.012463700907981347526520821134 2:2 4:4 7:1 9:1 11:1 12:3 13:1 14:1 25:1 27:4 28:1 32:1 85:2 97:1 112:1 130:2 144:1 186:1 295:1 360:1 630:1 963:1 964:1 976:2 977:1 980:1 1078:1 1079:1 1080:1 1081:1 1082:1 1083:1 1084:1 1085:1 1086:1 1087:1 1088:1 1089:1 1090:1 1091:1 1092:1 1093:1 1094:1 100002:1 #
0.012463700907981347526520821134 2:1 4:5 12:1 17:1 25:2 27:4 37:1 42:1 56:1 66:1 112:1 144:1 167:1 190:1 304:1 348:1 411:1 439:1 633:2 855:1 936:1 939:1 978:1 1304:2 1378:1 1503:1 1517:1 1524:1 2282:1 3146:1 4572:1 8186:1 8431:1 8460:2 8466:1 8548:1 8549:1 8550:1 8551:1 8552:1 8553:1 8554:1 8555:1 8556:1 8557:1 8558:1 100002:1 100042:1 #
0.0020048244416247360151495104929609 4:2 9:3 11:3 12:4 14:1 27:4 31:1 40:1 51:3 65:1 78:1 190:1 209:1 213:1 225:1 247:1 416:1 637:1 645:1 1031:2 1720:1 2287:1 3745:1 3751:1 3753:1 3841:1 3871:1 3872:1 3873:1 3874:1 3875:1 3876:1 3877:1 3878:1 3879:1 3880:1 3881:1 3882:1 3883:1 3884:1 3885:1 3886:1 3887:2 3888:1 3889:1 3890:1 3891:1 3892:1 3893:1 3894:1 100002:1 100012:1 #
0.012463700907981347526520821134 27:1 78:1 3866:1 100002:1 100041:1 100042:1 #
0.012463700907981347526520821134 27:1 293:1 8401:1 100002:1 100041:1 100042:1 #
0.012463700907981347526520821134 27:1 633:1 8547:1 100002:1 100041:1 100042:1 #
0.012463700907981347526520821134 27:1 293:1 8414:1 100002:1 100041:1 100042:1 #
-0.012463700907981347526520821134 12:2 1234:1 6649:1 100002:1 100041:1 100042:1 #
-0.012463700907981347526520821134 12:2 1234:1 6649:1 100002:1 100041:1 100042:1 #
0.012463700907981347526520821134 1:1 4:2 9:1 12:2 14:2 17:1 25:4 27:8 31:1 37:1 40:1 45:1 56:1 64:1 66:1 85:2 105:1 144:1 264:1 265:1 294:1 321:1 515:1 531:2 592:1 630:1 942:1 979:1 982:1 983:1 984:1 985:1 986:1 987:1 988:1 989:1 990:1 991:1 992:1 993:1 994:1 995:1 996:1 997:1 998:1 999:1 1000:1 1001:1 1002:1 1003:1 1004:1 1005:1 1006:1 1007:1 1008:1 1009:1 1010:1 1011:1 1012:1 1013:1 1014:1 1015:1 1016:1 1017:1 1018:1 100002:1 #
-0.010463295006465724718003329485327 4:3 7:2 12:1 25:1 27:3 42:1 200:1 571:1 1081:1 1862:1 2891:1 3434:1 4548:2 8580:1 8581:2 8590:1 100002:1 100043:1 #
0.0074562897454621464982116307851356 2:2 4:5 7:4 12:5 14:7 20:1 25:2 27:11 32:2 42:1 51:3 56:2 85:1 90:1 91:1 93:1 111:1 112:3 144:1 153:2 338:2 360:1 403:1 484:1 522:2 724:2 859:1 1203:1 1319:1 1419:4 1461:1 1518:1 1837:1 1926:1 1935:1 2109:1 2153:1 2423:1 2715:1 3080:1 5020:1 5144:1 5787:1 6415:1 6422:1 6818:1 6896:1 9322:1 9487:1 9490:1 9592:1 9638:1 9647:1 9648:1 9649:1 9687:1 9732:1 10036:1 10167:1 10168:1 10169:1 10170:1 10171:1 10172:1 10173:1 10174:1 10175:1 10176:1 10177:1 10178:1 100002:1 100011:1 100043:1 #
0.012463700907981347526520821134 12:2 27:1 95:1 204:5 206:3 209:1 243:1 496:1 652:1 776:1 1060:1 1061:1 1072:1 1304:1 2581:1 4603:1 4637:1 4638:1 4639:1 4640:1 4641:1 4642:1 4643:1 4644:1 4646:1 4647:1 4648:1 4649:1 4650:1 4651:1 4652:1 4816:1 4837:1 4882:1 4883:1 100002:1 100012:1 100043:1 #
0.012463700907981347526520821134 2:2 4:1 9:1 10:1 12:2 14:2 25:1 27:5 31:2 40:2 111:1 117:1 167:1 319:1 571:1 760:2 915:1 1060:1 1064:1 1146:1 1361:1 1411:1 1419:1 2351:1 2729:1 2899:1 3994:1 5435:1 6019:1 6020:1 6021:1 6022:1 6023:1 6024:1 6025:1 100002:1 100043:1 #
-0.012463700907981347526520821134 12:1 571:1 5535:1 100002:1 100018:1 100040:1 100042:1 #
0.012463700907981347526520821134 4:1 12:1 17:1 20:1 25:2 27:6 31:1 32:1 37:1 40:1 47:1 51:1 56:1 64:2 66:2 76:1 112:1 142:1 144:1 150:1 172:1 322:1 410:1 588:1 612:1 630:1 854:1 954:1 968:2 1376:1 1624:1 1689:1 2440:1 3059:1 3909:1 8348:1 8349:1 8350:3 8351:1 8352:1 8353:1 8354:1 8355:1 8356:1 8357:1 8358:1 8359:1 8360:1 8361:1 8362:1 8363:1 8364:1 100002:1 100042:1 #
0.012463700907981347526520821134 2:1 4:4 7:1 12:1 13:1 14:2 25:2 27:3 31:3 40:3 42:2 56:2 65:1 72:3 102:2 112:1 144:2 147:3 388:1 408:1 514:3 517:1 599:1 682:1 897:1 934:1 996:1 1391:1 1655:2 2589:2 2630:1 2632:2 2633:2 2663:1 2664:1 2665:1 2666:1 2667:1 2668:1 2669:1 2670:1 2671:1 2672:2 2673:1 2674:1 2675:1 2676:1 2677:1 2678:1 100002:1 100042:1 100043:1 #
0.012463700907981347526520821134 9:1 11:1 12:1 27:1 95:1 249:1 10705:1 100002:1 100012:1 100042:1 100043:1 #
0.012463700907981347526520821134 9:1 11:1 12:1 27:1 249:1 6848:1 8409:1 100002:1 100042:1 #
-0.012463700907981347526520821134 12:1 25:1 31:1 40:1 167:1 571:1 872:1 5577:1 5578:1 5579:1 100002:1 100018:1 100042:1 #
-0.012463700907981347526520821134 12:1 31:1 40:1 85:1 10855:1 11365:1 11366:1 100002:1 100042:1 100043:1 #
-0.012463700907981347526520821134 12:1 25:2 562:1 563:1 564:1 565:1 100002:1 100040:1 100042:1 #
-0.0019530717646584643855389717970183 2:7 4:3 12:4 19:2 20:2 25:1 27:3 31:8 32:1 37:3 40:8 42:2 56:1 66:1 68:1 72:1 85:2 112:2 144:2 150:1 348:1 360:1 421:1 422:1 432:2 531:1 584:1 622:1 881:1 909:1 929:2 968:1 1160:1 1228:1 1241:1 1359:1 1388:1 1535:2 1950:1 2588:1 2631:2 2766:1 2782:2 3016:1 3432:1 3489:1 4065:1 4536:1 4558:1 5899:1 7340:2 7993:1 8120:1 8406:1 9834:1 11622:6 11815:1 11826:1 12018:1 12025:1 12026:1 12027:1 12028:1 12029:1 12030:1 12031:2 12032:1 12033:1 100002:1 100043:1 #
0.012463700907981347526520821134 2:1 4:2 12:3 27:2 42:1 95:2 142:1 174:1 484:1 1570:1 2351:1 2872:1 3035:1 6710:1 6711:1 6746:1 100002:1 100011:1 100012:1 #
0.012463700907981347526520821134 27:1 637:1 4212:1 100002:1 100041:1 100042:1 #
-0.012463700907981347526520821134 12:1 31:1 100002:1 100041:1 100042:1 #
0.012463700907981347526520821134 2:1 4:4 7:1 9:1 11:1 12:2 16:1 25:3 27:4 31:2 40:2 42:1 47:2 51:1 56:2 144:1 146:1 167:1 293:2 327:1 388:1 571:1 1064:1 1065:1 1081:1 1935:1 2650:1 4246:1 5854:1 8330:2 8335:3 8372:2 8430:1 8440:2 8441:1 8442:1 100002:1 #
0.012463700907981347526520821134 12:1 14:1 85:3 133:1 606:1 1043:1 2421:1 2878:1 5313:1 5791:1 5792:1 5793:1 100002:1 100041:1 100043:1 #
0.00050856154692335115655860144912026 9:1 11:1 12:4 16:1 25:1 27:6 56:1 90:1 93:1 101:1 112:2 124:1 249:1 531:2 2900:1 5435:1 6019:1 8708:1 8804:1 9073:1 10540:1 10544:1 10545:1 10546:1 10547:1 10548:1 10549:1 10550:1 100002:1 #
-0.0074485784050265235745058589600376 27:1 1060:1 1061:1 2450:1 6129:2 6131:1 6154:1 6156:1 6166:2 6167:1 6174:1 6187:1 6307:1 6559:2 6607:1 6608:1 6609:1 6610:1 6611:1 6612:1 6613:1 6614:1 6615:1 6616:1 6617:1 6618:1 6619:1 6620:1 6621:1 6622:1 6623:1 6624:1 6625:1 6626:1 6627:1 6628:1 6629:1 6630:1 6631:1 6632:1 6633:1 100002:1 100042:1 100043:1 #
-0.012463700907981347526520821134 12:1 85:1 760:1 1010:1 1879:1 1935:1 100002:1 100041:1 100043:1 #
0.012463700907981347526520821134 4:1 27:1 66:1 571:1 909:1 1677:1 8402:1 8403:1 100002:1 100042:1 100043:1 #
-0.012463700907981347526520821134 12:1 27:2 66:1 652:1 909:1 6441:1 6442:1 100002:1 100043:1 #
0.012463700907981347526520821134 12:1 27:2 95:1 403:1 1648:1 1654:1 1932:1 1950:1 1951:1 100002:1 100012:1 100043:1 #
-0.012463700907981347526520821134 12:1 27:2 416:1 439:1 551:1 1677:2 1879:1 5789:1 10623:1 11524:1 11531:1 11536:1 100002:1 #
0.012463700907981347526520821134 12:1 27:1 7300:1 7301:1 100002:1 100041:1 100042:1 #
-0.012463700907981347526520821134 4:1 12:1 42:1 172:1 319:1 571:1 2351:1 3846:1 10645:1 100002:1 100041:1 100042:1 #
0.012463700907981347526520821134 12:1 27:1 7409:1 7410:1 100002:1 100041:1 100042:1 #
-0.012463700907981347526520821134 14:1 571:1 3940:1 100002:1 100040:1 100042:1 100043:1 #
-0.012463700907981347526520821134 100002:1 100040:1 100042:1 100043:1 #
-0.012463700907981347526520821134 12:1 5585:1 100002:1 100018:1 100040:1 100042:1 #
0.012463700907981347526520821134 2:2 4:2 7:1 12:3 25:4 27:4 31:1 32:1 37:1 40:1 42:1 51:1 61:1 85:3 112:1 153:1 264:1 265:1 423:1 443:1 445:1 531:1 596:1 612:1 881:1 1257:1 1321:1 1440:1 2270:1 2450:1 2931:1 3761:1 4097:1 6695:1 7364:1 8564:1 9147:1 9167:1 9284:1 10258:1 10259:1 10260:1 10261:1 10262:1 10263:1 10264:1 10265:1 10266:1 10267:1 100002:1 100011:1 100043:1 #
0.012463700907981347526520821134 2:1 4:2 7:1 9:1 11:1 12:2 16:1 25:3 27:4 31:1 40:1 51:1 67:1 81:2 102:1 531:1 606:1 1411:1 1469:1 1677:4 2204:1 3196:1 3388:1 3465:1 4063:1 4370:1 4405:1 9964:1 11621:1 11622:1 11623:1 11624:1 11625:1 11626:1 100002:1 #
0.012463700907981347526520821134 27:1 1778:1 8532:1 100002:1 100041:1 100042:1 #
0.012463700907981347526520821134 27:1 56:1 633:1 1755:1 2610:1 2611:1 100002:1 100041:1 100042:1 #
-0.012463700907981347526520821134 12:1 27:1 31:1 40:1 206:1 1977:1 5324:1 5540:1 5577:1 5727:1 100002:1 100018:1 100042:1 100043:1 #
-0.012463700907981347526520821134 12:1 27:1 5103:1 6098:1 6432:1 100002:1 100043:1 #
0.012463700907981347526520821134 2:1 4:1 27:1 31:1 40:1 51:1 56:1 75:1 85:2 144:1 167:1 204:2 206:1 209:1 430:1 432:1 443:1 581:1 630:1 967:1 1064:1 1085:1 1362:1 2602:1 2635:1 2636:1 2637:1 2638:1 2639:1 2640:1 2641:1 2642:1 2643:1 2644:1 2645:1 2646:1 100002:1 100042:1 100043:1 #
0.012463700907981347526520821134 4:1 9:1 11:1 12:2 16:1 27:3 112:1 144:1 167:1 249:1 593:1 1102:1 1321:1 1508:1 1599:1 8482:1 8515:1 8516:1 8517:1 8518:1 8519:1 8520:1 100002:1 #
-0.012463700907981347526520821134 12:2 133:1 637:1 6896:1 6897:1 10377:1 100002:1 #
-0.012463700907981347526520821134 12:2 133:1 637:1 1783:1 6896:1 6897:1 100002:1 #
-0.012463700907981347526520821134 12:2 27:1 167:1 319:1 348:1 439:1 655:1 760:1 4592:1 7792:1 11722:1 100002:1 #
0.012463700907981347526520821134 4:1 19:1 27:1 633:1 8460:1 8461:1 8462:1 100002:1 100041:1 100042:1 #
-0.012463700907981347526520821134 12:1 27:1 382:1 5618:1 100002:1 100041:1 100042:1 #
-0.012463700907981347526520821134 12:1 27:1 382:1 10552:1 100002:1 100041:1 100042:1 #
-0.012463700907981347526520821134 12:1 501:1 100002:1 100041:1 100042:1 100043:1 #
-0.012463700907981347526520821134 12:1 27:1 209:1 256:1 5618:1 100002:1 100041:1 100042:1 #
0.012463700907981347526520821134 2:1 4:2 12:1 16:1 25:1 27:4 31:1 40:1 42:1 45:1 51:1 56:1 66:1 72:1 85:2 150:1 169:1 321:1 411:1 439:1 531:1 630:1 1227:1 1378:1 3590:1 3761:1 5491:1 7867:1 7993:1 8202:1 8479:1 8486:1 8487:1 8560:1 8561:1 8562:1 8563:1 8564:1 8565:1 8566:1 8567:1 8568:1 8569:1 8570:1 8571:1 8572:1 100002:1 100042:1 #
0.012463700907981347526520821134 12:3 25:1 27:4 31:1 36:1 40:1 56:3 85:1 153:1 172:1 195:1 213:1 225:1 519:1 612:1 1475:1 6698:1 6776:1 6802:1 6884:1 6896:1 6897:1 6898:1 6899:1 100002:1 #
0.012463700907981347526520821134 4:1 7:1 12:1 27:2 31:1 40:1 56:1 517:2 2623:1 2624:1 2625:1 2626:1 2627:1 2628:1 100002:1 100042:1 100043:1 #
0.012463700907981347526520821134 27:1 633:1 8485:1 100002:1 100041:1 100042:1 #
-0.012463700907981347526520821134 12:1 27:1 45:1 982:1 1027:1 1028:1 1085:1 1602:1 1603:1 100002:1 100042:1 100043:1 #
-0.012463700907981347526520821134 100002:1 100040:1 100042:1 100043:1 #
0.012463700907981347526520821134 9:1 11:1 12:1 27:2 249:1 571:1 2614:1 2615:1 2704:1 2705:1 100002:1 100042:1 100043:1 #
-0.012463700907981347526520821134 100002:1 100040:1 100042:1 100043:1 #
0.012463700907981347526520821134 4:2 25:1 27:2 31:1 40:1 112:1 144:1 209:1 538:1 741:1 952:1 2270:1 2691:1 2692:1 2693:1 2694:1 2695:1 100002:1 100042:1 100043:1 #
0.012463700907981347526520821134 27:1 293:1 8502:1 100002:1 100041:1 100042:1 #
0.012463700907981347526520821134 4:1 27:1 31:1 40:1 144:1 538:1 741:1 2601:1 100002:1 100042:1 100043:1 #
-0.012463700907981347526520821134 2:1 12:2 66:1 430:1 1317:1 1389:1 1391:1 6032:1 7318:1 100002:1 100041:1 100042:1 #
-0.012463700907981347526520821134 100002:1 100040:1 100042:1 100043:1 #
-0.012463700907981347526520821134 100002:1 100040:1 100042:1 100043:1 #
0.012463700907981347526520821134 2:1 4:1 27:2 31:1 40:1 46:1 66:1 112:1 751:1 1066:1 1072:1 2696:1 2697:1 2698:1 2699:1 2700:1 2701:1 100002:1 100042:1 100043:1 #
0.012463700907981347526520821134 27:1 633:1 8460:1 100002:1 100041:1 100042:1 #
-0.012463700907981347526520821134 12:1 66:1 1037:1 1038:1 1039:1 1040:1 100002:1 100041:1 100042:1 100043:1 #
-0.012463700907981347526520821134 100002:1 100040:1 100042:1 100043:1 #
-0.0024372637375252512170753504960885 12:2 204:4 206:1 209:2 216:1 225:1 229:1 729:1 791:1 1066:1 1072:1 1677:1 1741:1 1905:1 2050:1 2071:1 3712:1 4687:1 4736:1 11301:1 11302:2 11303:1 11304:1 11305:1 11306:1 11307:1 11308:1 11309:1 11310:1 11311:1 11312:1 11313:1 11314:1 11315:1 11316:1 11317:1 11318:1 11319:1 100002:1 100042:1 100043:1 #
0.012463700907981347526520821134 27:1 633:1 8460:1 100002:1 100041:1 100042:1 #
0.012463700907981347526520821134 14:1 27:2 31:1 40:1 55:1 2755:1 7418:1 7625:1 11693:1 11705:1 100002:1 100042:1 100043:1 #
0.012463700907981347526520821134 4:1 20:1 27:1 31:1 40:1 51:1 112:1 1180:1 2631:1 2651:1 2652:1 2653:1 2654:1 2655:1 2656:1 100002:1 100042:1 100043:1 #
0.012463700907981347526520821134 9:1 11:1 12:1 27:3 95:1 249:1 607:1 1755:1 10686:1 10687:1 10688:1 100002:1 100012:1 100042:1 #
-0.012463700907981347526520821134 100002:1 100040:1 100042:1 100043:1 #
0.012463700907981347526520821134 12:2 27:1 204:5 206:3 209:1 243:1 496:1 645:1 652:2 776:1 1060:1 1061:1 1072:1 1304:1 2396:1 2581:1 4603:1 4637:1 4638:1 4639:1 4640:1 4641:1 4642:1 4643:1 4644:1 4645:1 4646:1 4647:1 4648:1 4649:1 4650:1 4651:1 4652:1 4657:1 100002:1 100012:1 100043:1 #
-0.012463700907981347526520821134 100002:1 100040:1 100042:1 100043:1 #
0.00050184068479575474897025344489521 1:1 2:1 4:1 7:1 9:1 11:1 12:1 27:7 66:2 101:1 144:1 376:1 486:1 551:1 630:1 909:1 910:1 911:1 912:2 913:2 914:1 915:1 916:1 917:1 918:1 919:1 920:1 921:1 100002:1 100011:1 #
-0.012463700907981347526520821134 7:1 12:2 27:1 37:1 434:1 443:1 531:1 1050:1 1246:1 1555:1 2906:1 3857:1 6213:1 6369:1 7291:1 7292:1 7293:1 7294:1 100002:1 100042:1 #
0.012463700907981347526520821134 2:2 12:2 27:2 31:1 40:1 95:1 6398:1 7318:1 7323:1 7324:1 7325:1 100002:1 100012:1 #
0.012463700907981347526520821134 4:1 12:1 25:1 27:2 31:1 40:1 172:1 941:1 8048:1 8506:1 8507:1 8508:1 100002:1 100042:1 #
-0.012463700907981347526520821134 100002:1 100040:1 100042:1 100043:1 #
0.012463700907981347526520821134 27:2 190:1 633:1 8460:1 8466:1 100002:1 100042:1 #
0.012463700907981347526520821134 2:1 3:1 4:5 6:1 9:1 11:1 12:4 16:1 27:4 31:1 32:1 40:1 42:2 45:1 51:3 56:2 65:2 111:1 112:1 144:2 150:2 190:1 209:1 388:1 411:2 443:2 448:1 531:1 637:2 651:1 721:1 897:1 934:1 944:1 1160:1 1249:3 1342:1 1720:1 2588:1 2648:1 2649:1 2739:1 2966:1 3750:1 3751:1 3752:1 3753:2 3754:1 3755:1 3756:1 3757:1 3758:1 3759:1 3760:1 3761:1 3762:1 3763:1 3764:1 3765:1 3766:1 3767:1 3768:1 3769:1 3770:1 100002:1 #
-0.012463700907981347526520821134 100002:1 100040:1 100042:1 100043:1 #
-0.012463700907981347526520821134 100002:1 100040:1 100042:1 100043:1 #
0.012463700907981347526520821134 9:1 11:1 12:3 27:3 190:1 204:1 206:1 225:1 335:1 489:1 551:1 645:1 1060:1 1061:1 1460:1 1618:1 4600:1 4605:1 4631:1 4825:1 4826:1 5245:1 5246:1 5247:1 5248:1 5249:1 5255:1 5259:1 100002:1 100012:1 #
0.012463700907981347526520821134 4:1 9:1 11:1 12:1 14:1 25:1 27:2 31:1 40:1 51:1 56:1 57:1 144:1 182:1 370:1 760:1 1148:1 3088:1 4238:1 6989:1 7461:1 7462:1 7463:1 100002:1 #
-0.012463700907981347526520821134 100002:1 100040:1 100042:1 100043:1 #
0.012463700907981347526520821134 27:2 31:1 40:1 56:2 1929:1 2599:1 2629:1 2630:1 2749:1 2750:1 2751:1 100002:1 100042:1 100043:1 #
-0.012463700907981347526520821134 100002:1 100040:1 100042:1 100043:1 #
0.012463700907981347526520821134 4:1 25:1 27:1 31:1 40:1 42:1 51:1 190:1 1045:1 1120:1 3586:1 7218:1 8326:1 100002:1 100042:1 #
0.012463700907981347526520821134 4:2 24:1 25:1 27:2 31:1 40:1 56:1 345:1 531:1 1136:1 1479:1 1677:1 8369:1 8370:1 8371:1 8372:1 8373:1 100002:1 100042:1 #
0.012463700907981347526520821134 4:2 14:1 25:2 27:1 31:1 40:1 51:1 56:1 102:1 111:1 112:2 324:1 531:1 538:1 2607:1 2629:1 2630:1 2631:1 2632:1 2633:1 2634:1 100002:1 100042:1 100043:1 #
0.012463700907981347526520821134 14:1 27:2 31:1 40:1 3513:1 8410:1 8411:1 8412:1 100002:1 100042:1 #
-0.012463700907981347526520821134 100002:1 100040:1 100042:1 100043:1 #
0.012463700907981347526520821134 2:2 4:5 7:3 9:1 11:1 12:2 14:1 16:2 19:1 25:2 27:2 31:2 32:1 40:2 44:1 47:2 51:1 56:1 77:1 90:1 91:1 93:1 144:1 289:2 294:1 319:1 388:1 432:1 443:1 515:1 630:1 651:1 1060:1 1064:1 1065:1 1229:1 1551:1 2954:2 2972:1 3436:1 3592:2 4108:1 4571:1 5439:2 6105:1 6429:1 6525:2 7406:1 7821:1 9002:1 11664:1 11919:1 11957:1 11986:1 11999:1 12010:1 12098:1 12099:1 12100:1 12101:1 12102:1 12103:1 12104:1 12105:1 12106:1 12107:1 12108:1 100002:1 100011:1 100043:1 #
0.012463700907981347526520821134 4:1 16:1 27:3 31:1 40:1 42:1 112:1 531:1 751:1 1161:1 1195:1 1460:1 2717:1 2718:1 2719:1 2720:1 100002:1 100043:1 #
0.012463700907981347526520821134 4:1 14:1 25:2 27:2 31:1 40:1 51:1 56:1 130:1 517:1 1112:1 2742:1 2744:1 2745:1 2746:1 2747:1 2748:1 100002:1 100042:1 100043:1 #
-0.012463700907981347526520821134 100002:1 100040:1 100042:1 100043:1 #
0.012463700907981347526520821134 4:2 12:1 25:1 27:2 31:1 40:1 56:1 112:1 410:1 964:1 3446:1 4470:1 7343:1 8486:1 8487:1 8488:1 100002:1 100042:1 #
-0.012463700907981347526520821134 100002:1 100040:1 100042:1 100043:1 #
0.012463700907981347526520821134 4:1 16:1 27:2 31:1 40:1 85:1 112:1 531:1 1625:1 2773:1 4492:1 6848:1 8330:1 8418:1 8438:1 8439:1 100002:1 100042:1 #
-0.012463700907981347526520821134 100002:1 100040:1 100042:1 100043:1 #
0.0024257065596168872478877176490641 12:2 27:1 90:1 91:1 93:1 174:1 3035:1 11053:1 11054:1 100002:1 100011:1 100042:1 100043:1 #
-0.012463700907981347526520821134 2:2 4:1 12:3 17:2 19:2 25:2 27:7 31:5 32:1 37:2 40:5 47:1 66:1 72:1 75:1 85:1 124:1 365:1 388:1 411:1 519:1 630:1 909:1 954:1 1026:2 1278:2 1470:1 1691:1 3421:1 4519:1 7118:2 7302:1 7304:3 7305:1 7306:1 7307:1 7308:2 7309:2 7310:1 7311:1 7312:1 7313:1 7314:1 7315:1 7316:1 7317:1 100002:1 100042:1 #
-0.0058494098997574003884203364123096 2:4 4:3 7:1 9:1 12:4 16:2 20:2 25:3 27:3 31:5 32:1 40:5 47:1 51:1 56:1 61:1 66:1 72:2 85:2 86:2 112:2 144:1 167:1 388:1 411:2 443:2 515:2 531:3 768:1 897:2 909:1 1060:1 1061:1 1301:1 1348:1 1360:1 1697:1 1837:3 2366:1 2423:2 2450:1 2695:1 2817:1 3460:1 3544:1 4558:1 5457:1 5584:1 5749:1 6593:1 7040:1 7406:1 7567:1 7764:1 7821:1 7878:2 8136:1 8565:1 10451:2 11726:1 11814:2 12272:1 12273:1 12274:1 12275:1 12276:1 12277:1 12278:1 12279:2 12280:1 12281:1 12282:1 12283:1 12284:1 12285:1 12286:1 12287:1 12288:1 100002:1 100042:1 100043:1 #
0.012463700907981347526520821134 12:2 136:1 100002:1 100011:1 100040:1 100042:1 #
0.012463700907981347526520821134 12:1 2108:1 100002:1 100011:1 100040:1 100042:1 #
0.012463700907981347526520821134 12:1 136:1 100002:1 100011:1 100040:1 100042:1 #
-0.012463700907981347526520821134 9:3 11:1 12:5 27:5 51:1 95:1 190:1 204:6 206:5 209:1 243:2 410:2 486:2 551:1 607:2 652:1 713:1 919:1 1060:2 1061:2 1066:1 1072:1 1510:1 1659:1 1705:2 1967:1 2071:1 2243:1 2560:1 3106:1 3288:1 4350:1 4615:2 4636:1 4647:1 4663:1 4682:1 4718:1 4757:1 4759:2 4760:2 4777:1 4933:1 5025:2 5075:1 5289:1 5290:1 5291:1 5292:1 5293:1 5294:1 5295:1 5296:1 5297:1 5298:1 5299:1 5300:2 5301:1 5302:1 5303:1 5304:1 5305:1 5306:1 5307:2 5308:1 100002:1 100012:1 #
-0.012463700907981347526520821134 9:1 12:3 27:3 190:1 204:1 206:1 225:1 335:1 489:1 551:1 645:1 1060:1 1061:1 1460:1 1880:1 4600:1 4605:1 4618:1 4631:1 5245:1 5246:1 5247:1 5248:1 5249:1 5250:1 5251:1 5252:1 5253:1 5254:1 5255:1 5256:1 5257:1 5258:1 100002:1 100012:1 #
-0.012463700907981347526520821134 27:1 31:1 40:1 42:1 51:1 56:2 85:1 94:1 97:1 112:1 209:1 289:1 319:1 593:1 720:1 838:1 1136:1 6798:1 8482:1 8521:1 8522:1 8523:1 8524:1 8525:1 100002:1 #
-0.012463700907981347526520821134 9:1 11:1 12:2 27:4 172:1 174:1 208:1 633:1 1060:1 1061:1 1419:1 1589:1 1778:1 4598:1 4599:1 4600:1 4601:1 4602:1 4603:1 4604:1 4605:1 4606:1 4607:1 4608:1 4609:1 4610:1 4611:1 100002:1 #
0.012463700907981347526520821134 2:3 4:2 7:7 12:5 14:1 16:5 17:2 25:2 27:5 31:1 40:1 51:1 66:1 72:1 90:1 91:1 93:1 112:4 144:1 150:1 354:1 479:1 484:1 536:1 630:1 1007:1 1203:1 1250:1 1350:1 1387:1 1392:1 1411:1 1459:1 2312:1 2537:1 3020:2 3591:1 3945:1 4081:1 4315:1 4341:1 5032:2 6458:1 7929:1 9169:1 9306:1 9434:2 9476:1 9626:1 10077:5 10329:1 10330:1 10331:1 10332:1 10333:1 10334:1 10335:1 10336:1 10337:1 10338:1 10339:1 10340:1 10341:1 10342:1 10343:1 10344:1 10345:1 10346:1 10347:1 10348:1 100002:1 100011:1 100043:1 #
-0.012463700907981347526520821134 100002:1 100040:1 100042:1 100043:1 #
0.012463700907981347526520821134 2:1 4:6 12:2 25:2 27:3 37:1 42:3 55:1 56:1 72:1 85:1 90:1 91:1 93:1 112:2 144:2 156:1 647:1 962:1 1049:1 1119:2 1210:1 1221:1 1257:1 1320:1 1394:1 2204:1 2312:1 2598:1 2900:1 5454:1 6847:2 7422:1 10152:1 10989:1 10991:1 10992:1 10993:1 10994:1 10995:1 10996:1 10997:1 10998:1 10999:1 11000:1 100002:1 100011:1 #
-0.0001952115695439107703051950792883 4:8 7:1 12:2 14:2 16:3 20:1 25:7 27:8 32:1 42:1 51:2 56:1 59:1 72:1 112:3 167:1 213:1 388:1 411:2 431:1 443:1 531:1 630:1 842:1 908:2 940:1 1003:2 1257:1 1288:1 1581:1 1593:1 2181:2 2698:1 2817:1 2899:1 3013:1 3033:1 3063:2 3304:2 3313:1 3387:1 3448:1 4108:1 4148:1 4341:1 4408:1 4548:1 4558:1 5880:1 6430:1 7882:1 7980:1 8065:1 8379:1 8380:2 8381:1 8382:1 8383:1 8384:1 8385:1 8386:1 8387:1 8388:1 8389:1 8390:1 8391:1 8392:1 8393:1 8394:1 8395:1 8396:1 8397:1 8398:1 8399:1 100002:1 100042:1 100043:1 #
-0.012463700907981347526520821134 4:5 12:1 16:2 17:1 20:1 25:3 27:9 51:1 56:2 85:3 95:2 144:1 264:1 265:1 403:1 439:1 630:1 756:1 946:1 1085:1 1348:1 2685:1 2720:1 3026:1 4294:1 4571:1 6272:1 6430:1 6634:1 7173:1 7399:1 7926:2 8595:1 8596:1 8597:1 8602:1 8603:1 8604:1 8605:1 8606:1 8607:1 8608:1 8609:1 8610:1 8611:1 8612:1 8613:1 100002:1 100012:1 100043:1 #
0.012463700907981347526520821134 12:1 2108:1 100002:1 100011:1 100040:1 100042:1 #
-0.012463700907981347526520821134 1:1 2:2 4:2 7:1 9:1 11:1 12:4 25:2 27:2 28:1 31:3 40:3 42:2 51:4 56:2 59:1 95:1 105:1 111:1 112:2 133:1 190:1 213:2 334:1 335:1 416:1 531:1 760:1 1043:1 1093:1 1102:1 1354:1 1677:1 2754:1 2787:1 4048:1 4284:1 4332:1 4425:1 4442:1 4472:1 4501:1 4502:1 4503:1 4560:1 4561:1 4562:1 4563:1 4564:1 4565:1 4566:1 4567:1 4568:1 4569:1 100002:1 100012:1 #
0.0056096285275258478408844098339614 1:1 2:1 4:5 7:1 12:3 13:1 14:1 17:1 19:1 25:1 27:9 31:1 40:1 72:2 75:1 85:1 112:3 144:2 161:1 167:1 395:1 416:1 430:1 440:1 531:1 571:1 910:1 1085:1 1089:1 1119:1 1221:1 1246:1 1317:1 2295:1 2446:1 3418:1 3615:1 3631:1 4014:1 4131:2 4227:1 6522:1 6645:1 7030:1 7656:1 7664:1 7681:1 7906:1 7907:1 7908:1 7909:1 7910:2 7911:2 7912:1 7913:1 7914:1 7915:1 7916:1 7917:1 7918:1 7919:1 7920:1 7921:1 7922:1 7923:1 100002:1 100011:1 #
-0.0082358950151321455579456198847765 4:7 7:1 9:6 11:6 12:2 16:2 20:1 25:2 27:8 37:1 56:1 85:1 95:1 112:2 113:1 144:3 264:1 293:1 334:1 336:1 536:1 551:1 593:1 637:1 640:1 1196:1 1249:2 1350:1 1755:1 2223:1 2599:1 2725:2 3027:1 3471:1 3480:3 4206:1 4518:1 6720:1 7216:1 7253:1 7355:1 7937:1 8706:1 10649:2 10670:1 10671:1 10672:1 10673:1 10674:1 10675:1 10676:1 10677:1 10678:1 10679:1 10680:1 10681:1 10682:1 10683:1 10684:1 10685:1 100002:1 #
-0.0080935430440135375240728876633511 2:1 4:4 7:1 9:2 11:1 12:2 14:3 17:3 25:4 27:11 31:1 37:1 40:1 42:2 51:2 56:1 66:1 72:3 81:1 112:2 144:4 167:1 206:2 209:2 256:1 289:1 293:1 315:1 388:1 411:1 440:1 531:1 675:1 692:1 852:1 930:2 1148:2 1350:1 1479:2 1690:1 1720:1 1778:2 2175:1 2283:1 2698:1 2815:1 3010:1 3583:1 3615:1 3629:1 3712:2 4281:1 5333:1 6037:1 7729:1 7786:1 8023:4 8024:1 8041:1 8042:1 8043:1 8044:1 8045:1 8046:1 8047:1 8048:2 8049:1 8050:1 8051:1 8052:1 8053:1 8054:1 8055:1 8056:1 8057:1 8058:1 8059:1 8060:1 8061:1 8062:1 8063:1 8064:1 8065:1 100002:1 100042:1 #
-0.012463700907981347526520821134 9:1 11:1 16:1 3542:1 5599:1 8816:1 11612:1 100002:1 100042:1 100043:1 #
-0.012463700907981347526520821134 4:2 7:4 12:2 25:2 27:6 31:1 32:1 40:1 42:1 51:1 56:1 73:1 85:1 112:1 144:1 194:1 264:1 319:1 421:1 633:1 842:1 902:1 1055:1 1085:1 1158:1 1212:1 1228:1 1232:1 1549:1 1586:1 1611:1 1612:1 1613:1 1614:1 1615:1 1616:1 1617:1 1618:1 1619:1 1620:2 1621:1 1622:1 1623:1 1624:1 1625:1 1626:1 1627:1 1628:1 1629:1 100002:1 100042:1 #
0.012463700907981347526520821134 3:1 7:1 12:5 27:1 174:1 319:1 571:1 701:1 1574:1 1720:1 1801:1 3035:1 3423:1 3481:1 3482:1 3483:1 100002:1 100011:1 #
0.012463700907981347526520821134 12:2 95:1 136:1 1124:1 100002:1 100011:1 100043:1 #
0.012463700907981347526520821134 12:5 27:3 95:1 335:1 1031:1 1497:1 4616:1 5088:1 5112:1 5136:1 5137:1 100002:1 100012:1 100043:1 #
-0.012463700907981347526520821134 12:3 27:4 172:1 360:1 633:1 881:1 1778:1 3484:1 4600:1 4832:1 5018:1 5091:1 5092:1 5093:1 5094:1 100002:1 #
-0.012463700907981347526520821134 4:1 12:1 13:1 17:1 27:3 34:1 56:1 167:1 630:1 842:1 898:1 922:1 923:1 924:1 925:1 926:1 927:1 928:1 929:1 930:1 931:1 100002:1 100042:1 100043:1 #
-0.012350625690971960696229459131246 2:1 4:1 12:2 20:1 27:3 395:1 1935:1 3387:1 6415:1 6896:1 8270:1 8510:1 9638:1 9639:1 9640:1 9641:1 100002:1 100043:1 #
-0.012463700907981347526520821134 2:1 4:2 7:2 9:1 11:1 12:4 16:1 19:1 20:1 25:5 27:7 31:4 40:4 42:1 56:1 72:1 75:1 144:2 150:1 206:1 225:1 284:1 335:1 354:1 364:1 432:1 645:1 692:1 767:1 786:1 924:1 952:1 1130:1 1139:1 1278:1 1720:1 1780:1 1786:1 2175:1 2301:1 2366:1 2671:1 4509:1 5542:1 5584:2 6443:1 8020:1 8021:1 8022:1 8023:4 8024:1 8025:1 8026:1 8027:1 8028:1 8029:1 8030:1 8031:1 8032:1 8033:1 8034:1 8035:1 8036:1 8037:1 8038:1 8039:1 8040:1 100002:1 100043:1 #
-0.012463700907981347526520821134 2:1 4:1 9:2 11:2 12:3 14:2 27:3 31:2 40:2 51:1 56:3 66:2 105:2 150:1 190:1 294:1 321:1 348:1 410:2 695:1 881:1 1077:1 1139:1 1282:1 4420:1 4421:1 4422:1 4423:1 4424:2 4425:2 4426:1 4427:1 4428:1 100002:1 #
0.012463700907981347526520821134 27:1 571:1 2160:1 2161:1 100002:1 100041:1 100042:1 100043:1 #
0.012463700907981347526520821134 12:1 2108:1 100002:1 100011:1 100040:1 100042:1 #
0.012463700907981347526520821134 27:1 171:1 8413:1 100002:1 100041:1 100042:1 100043:1 #
-0.012463700907981347526520821134 2:1 4:1 27:2 51:1 85:1 144:1 270:1 376:1 556:1 1227:1 3388:1 4105:1 4258:1 9251:1 11627:1 11629:1 11630:1 100002:1 #
-0.012463700907981347526520821134 27:3 56:2 484:1 1618:1 2213:1 6459:1 6460:1 6461:1 6462:1 6463:1 100002:1 100043:1 #
-0.012463700907981347526520821134 12:1 27:4 172:1 633:1 1778:1 3484:1 3758:1 5018:1 5019:1 5020:1 5021:1 100002:1 100043:1 #
-0.012463700907981347526520821134 12:1 27:4 172:1 633:1 1778:1 3484:1 4611:1 5018:1 5019:1 5020:1 5144:1 5202:1 100002:1 100043:1 #
-0.012463700907981347526520821134 4:1 12:3 27:5 81:1 633:1 1001:1 1060:1 1061:1 1720:1 4775:1 6716:1 6723:1 6724:1 6725:1 6726:1 6727:1 6728:1 6729:1 6730:1 6731:1 6732:1 6733:1 6734:1 6735:1 6736:1 6737:1 6738:1 6739:1 6740:1 6741:1 6742:1 100002:1 100042:1 #
-0.012463700907981347526520821134 4:1 9:2 11:1 14:1 27:7 56:1 144:1 167:1 213:2 1109:1 4527:1 6354:1 6767:2 6984:1 6985:1 6986:1 6987:1 6988:1 6989:1 6990:1 6991:1 6992:1 6993:1 6994:1 6995:1 6996:1 6997:1 6998:1 100002:1 100043:1 #
-0.0063048788246524746503585134860259 2:1 4:3 12:1 25:2 27:2 31:1 40:1 51:1 56:1 85:1 439:1 448:1 531:2 574:1 618:1 834:1 1169:2 1390:1 1391:1 1402:1 2517:1 2715:1 3170:1 3211:1 3444:1 3470:1 3785:1 4247:1 5588:1 7630:1 7631:1 7632:1 7633:1 7634:1 7635:1 7636:1 100002:1 100043:1 #
0.012463700907981347526520821134 12:1 1093:1 1910:1 2403:1 100002:1 100011:1 100040:1 #
0.012463700907981347526520821134 27:1 571:1 2614:1 2615:1 100002:1 100041:1 100042:1 100043:1 #
-0.012463700907981347526520821134 7:1 9:1 11:1 12:2 20:1 27:1 31:1 37:1 40:1 95:1 112:1 144:1 403:1 531:1 934:1 1060:1 1061:1 1593:1 2450:1 2817:1 3402:1 3455:1 3493:1 3494:1 3495:1 3496:1 3497:1 3498:1 3499:1 3500:1 100002:1 100012:1 #
-0.012463700907981347526520821134 4:1 7:1 12:1 27:2 31:1 40:1 112:2 622:1 953:1 1093:1 1677:2 1837:1 2204:1 2423:1 3133:1 4475:1 7567:1 9882:1 11740:1 12240:1 12266:1 12267:1 12268:1 12269:1 12270:1 12271:1 100002:1 100043:1 #
0.0065194768467428838853994221835819 4:1 9:2 11:1 12:6 19:1 25:3 27:7 28:2 42:1 47:1 56:1 66:1 85:2 95:3 115:1 120:2 136:1 144:1 167:1 187:1 213:2 339:1 531:1 1326:1 3048:1 3401:1 3470:1 3801:1 3838:1 4571:1 5617:1 6063:1 6069:2 6071:1 6120:2 6260:1 6261:1 6262:1 6263:1 6264:1 6265:1 6266:1 6267:1 6268:1 6269:1 6270:1 6271:1 6272:1 6273:1 6274:1 100002:1 100011:1 100012:1 #
0.012463700907981347526520821134 12:1 27:1 551:1 1093:1 1910:1 2055:1 2331:1 2337:1 2338:1 2339:1 100002:1 100011:1 100041:1 #
0.012463700907981347526520821134 27:2 209:1 545:1 562:1 1066:1 1072:1 1648:1 1788:1 2158:1 2159:1 100002:1 100042:1 100043:1 #
0.012463700907981347526520821134 20:1 27:1 31:1 40:1 51:1 72:1 324:1 517:1 2618:1 2619:1 2620:1 2621:1 2622:1 100002:1 100042:1 100043:1 #
0.012463700907981347526520821134 27:2 45:1 206:2 521:1 1471:1 1648:1 1655:1 1671:1 1963:1 1964:2 1965:1 1966:1 1970:1 2162:1 100002:1 100043:1 #
-0.012463700907981347526520821134 4:1 12:2 27:3 115:1 1419:1 3784:1 7367:1 7368:1 7369:1 7370:1 100002:1 #
-0.012463700907981347526520821134 4:1 27:3 31:1 40:1 206:1 209:1 623:1 713:1 760:1 2446:1 7858:1 10929:2 10973:1 10974:1 100002:1 100043:1 #
-0.012463700907981347526520821134 4:1 12:1 25:1 31:2 40:1 56:1 897:1 924:1 1221:1 1553:1 7287:1 100002:1 100042:1 #
0.012463700907981347526520821134 4:1 7:1 12:4 20:1 25:4 27:5 35:1 56:4 66:1 85:2 95:1 101:1 144:1 167:1 334:1 358:1 650:2 736:1 1003:1 1010:2 1419:2 1475:1 1912:2 1947:1 2225:1 2420:2 3385:1 3657:1 3909:1 5977:1 6984:1 7873:1 8191:1 9154:1 9212:1 9558:1 9559:1 9560:1 9561:1 100002:1 100011:1 100012:1 100043:1 #
0.0040410617847617498130108337761612 2:1 4:2 7:3 9:1 12:5 14:2 16:1 19:1 20:1 25:2 27:6 32:1 37:1 51:1 56:2 59:1 85:2 90:1 91:1 93:1 111:1 112:4 120:1 133:1 144:2 294:1 439:1 630:2 637:1 645:1 842:2 852:1 1163:1 1225:1 1282:1 1394:1 1440:1 1783:1 1837:1 2423:1 2958:1 2973:1 3016:1 3463:2 3716:1 3938:1 5272:1 6208:1 6422:1 6533:1 6896:1 6897:1 9154:1 9169:1 9170:1 9420:1 9580:2 9598:1 9600:2 9602:1 9631:1 9632:1 9648:1 9717:1 9763:1 9802:1 9818:1 9896:1 10189:2 10458:1 10459:1 10460:1 10461:1 10462:1 10463:1 10464:1 10465:1 10466:1 10467:1 10468:1 10469:1 10470:1 10471:1 10472:1 10473:1 100002:1 100011:1 100012:1 #
-0.00029493343817031230638323058279582 2:1 4:3 9:4 11:2 12:3 13:1 14:6 19:1 25:4 27:9 28:1 32:1 42:1 56:1 59:1 72:1 75:1 85:2 112:3 196:1 347:1 461:1 570:1 630:1 652:1 724:1 756:1 909:1 1031:2 1172:1 1330:1 1393:1 1637:1 1659:1 1792:1 3389:1 3540:1 6213:1 6578:1 6579:1 6580:1 6581:1 6582:1 6583:2 6584:1 6585:1 6586:1 6587:1 6588:1 6589:1 6590:1 6591:1 6592:1 6593:1 6594:1 6595:1 6596:1 6597:1 6598:1 6599:1 6600:1 100002:1 100043:1 #
0.012463700907981347526520821134 27:1 171:1 8400:1 100002:1 100041:1 100042:1 100043:1 #
-0.012357324044952593122825845739499 4:1 7:2 12:1 27:4 31:1 37:1 40:1 56:3 72:1 85:3 144:2 150:4 430:1 1572:1 1778:2 2017:1 2351:1 2450:1 2639:1 4048:1 4199:1 4480:1 6265:1 8844:1 9647:1 9763:1 10429:1 11342:1 11583:2 11648:1 11649:1 11650:1 11651:1 11652:1 11653:1 11654:1 11655:1 11656:1 11657:1 11658:1 11659:1 11660:1 11661:1 11662:1 100002:1 #
-0.012463700907981347526520821134 7:1 12:2 16:1 19:1 27:2 31:2 32:1 40:2 85:2 112:1 144:1 149:1 164:1 319:1 421:1 422:1 439:1 584:1 585:1 586:1 587:1 588:1 589:1 590:1 591:1 592:1 593:1 594:1 595:1 596:1 597:1 598:1 599:1 600:1 601:1 100002:1 100043:1 #
0.012463700907981347526520821134 4:1 9:1 11:1 12:2 25:1 27:4 31:1 40:1 51:1 95:1 191:1 209:1 760:1 2872:1 4424:1 4593:1 7492:1 7493:1 7494:1 7495:1 7496:1 7497:1 7498:1 7499:1 7500:1 100002:1 100012:1 100043:1 #
-0.012463700907981347526520821134 2:1 12:2 20:1 27:3 2482:1 2537:1 3387:1 6415:1 6896:1 9254:1 9638:1 9641:1 9642:1 9926:1 100002:1 100043:1 #
-0.012463700907981347526520821134 2:3 12:3 16:1 17:1 20:1 25:2 27:6 31:2 32:1 37:1 40:2 42:1 45:2 51:1 66:1 73:1 85:2 112:3 144:1 153:2 264:2 265:1 274:1 294:1 348:1 430:1 442:1 538:2 555:1 897:1 934:1 1085:1 1208:1 1286:1 1317:1 1440:1 1459:1 1859:1 2681:1 3311:1 3716:1 3788:1 3838:1 6542:1 6780:1 7318:1 7350:1 7351:1 7352:1 7353:1 7354:1 7355:1 7356:1 7357:1 7358:1 7359:1 7360:1 7361:1 7362:1 7363:1 7364:1 7365:1 7366:1 100002:1 100042:1 #
-0.012463700907981347526520821134 4:3 16:1 20:1 27:1 31:1 40:1 51:1 69:1 760:1 1010:1 3513:1 3678:1 4445:1 7909:1 9964:1 11593:1 11627:1 11628:1 100002:1 100043:1 #
-0.012463700907981347526520821134 4:1 7:1 10:1 12:2 25:1 27:3 31:1 37:1 40:1 42:1 51:1 80:1 85:1 112:1 144:1 167:1 194:1 204:1 209:1 348:2 445:1 738:1 967:1 1066:2 1072:2 1081:1 1089:1 1362:1 1720:1 4548:1 4592:1 7393:1 10393:1 11715:2 11716:1 11717:1 11718:1 11719:1 11720:1 11721:1 100002:1 #
-0.012463700907981347526520821134 4:2 7:1 9:1 11:1 12:1 13:1 25:1 27:3 31:1 33:1 40:1 56:2 75:2 92:1 95:1 112:1 294:2 592:1 596:1 622:1 630:2 704:1 842:1 926:1 1405:1 1479:1 7807:1 7817:1 11370:1 11889:1 11890:1 11891:1 11892:1 11893:1 11894:1 11895:1 11896:1 11897:1 100002:1 100012:1 100043:1 #
-0.012463700907981347526520821134 4:2 9:1 27:4 38:1 42:1 47:1 97:1 101:1 144:2 167:1 187:1 317:1 339:1 430:1 1317:1 6038:1 6071:1 6098:1 6438:1 6439:1 6440:1 100002:1 100042:1 #
0.012463700907981347526520821134 2:1 12:1 27:5 206:1 209:1 225:1 327:1 1977:2 2583:1 3913:1 5313:1 5324:1 5426:1 5503:1 5720:1 5721:1 5722:1 5723:1 5724:1 5725:1 5726:1 100002:1 100043:1 #
0.012463700907981347526520821134 4:1 27:3 31:1 40:1 56:1 66:1 112:1 538:1 909:1 2632:1 2701:1 2737:1 2738:1 2739:1 2740:1 2741:1 2742:1 2743:1 100002:1 100042:1 100043:1 #
0.012463700907981347526520821134 16:1 27:2 42:1 85:1 112:1 172:1 324:1 571:1 3508:1 6353:1 8527:1 8537:1 8538:1 8539:1 8540:1 100002:1 100042:1 #
0.012463700907981347526520821134 4:1 20:1 27:2 31:1 40:1 56:1 65:1 144:1 190:2 1517:1 8326:1 8327:1 8328:1 8329:1 100002:1 100042:1 #
-0.005696677976163530034148241298908 4:7 7:1 9:1 11:1 12:2 13:1 14:1 17:1 19:1 25:7 26:1 27:2 31:2 40:3 51:2 56:4 95:1 112:1 144:1 416:1 443:1 531:1 630:1 842:1 1085:1 1249:1 1356:1 1457:1 1503:1 1521:1 1578:2 2223:1 2978:1 3205:1 5870:2 5957:1 6499:1 8240:1 9042:1 10613:1 10654:1 10681:1 10843:1 10844:1 10845:2 10846:1 10847:1 10848:1 10849:1 10850:1 10851:1 10852:1 10853:1 10854:1 10855:1 10856:1 100002:1 100012:1 100043:1 #
-0.012463700907981347526520821134 9:3 11:3 12:3 14:1 27:2 3196:1 11297:1 11298:1 11299:1 11300:1 100002:1 100042:1 100043:1 #
0.012463700907981347526520821134 27:3 78:1 571:1 637:1 8344:1 8345:1 8346:1 8347:1 100002:1 100042:1 #
0.012463700907981347526520821134 27:1 345:1 464:1 100002:1 100041:1 100042:1 #
-0.012463700907981347526520821134 2:1 7:1 14:1 19:1 25:1 27:3 31:1 37:1 40:1 42:1 56:1 66:1 67:1 81:1 120:1 150:1 167:1 320:1 411:1 568:1 595:1 1003:1 1225:1 1405:1 2780:1 3471:1 4484:1 6402:1 7398:1 8303:1 8377:1 8383:1 8404:1 8448:1 8449:1 8450:1 8451:1 8452:1 100002:1 100042:1 #
-0.012463700907981347526520821134 4:1 12:1 17:1 27:6 56:1 144:2 838:1 1169:1 1249:1 1317:1 1723:1 3854:1 3855:1 3856:1 3857:1 3858:1 3859:1 3860:1 3861:1 3862:1 3863:1 3864:1 3865:1 3866:1 3867:1 3868:1 3869:1 3870:1 100002:1 100042:1 100043:1 #
-0.012463700907981347526520821134 12:2 13:1 14:2 25:1 27:3 45:1 56:1 319:1 535:1 633:1 650:1 982:1 1046:1 1187:1 1190:1 1212:1 1225:1 1226:1 1227:1 1228:1 1229:1 1230:1 1231:1 1232:1 1233:1 1234:1 1235:1 1236:1 1237:1 100002:1 #
-0.012463700907981347526520821134 12:1 27:4 172:1 633:1 1077:1 1778:1 1900:1 3484:1 5018:1 5019:1 5020:1 100002:1 100043:1 #
-0.0046915255525900711325304470733499 12:3 27:6 6126:1 6127:1 6128:1 6129:3 6130:2 6131:3 6132:3 6133:1 6134:1 6135:1 6136:1 6137:1 6138:1 6139:1 6140:1 6141:1 6142:2 6143:1 6144:2 6145:1 6146:2 6147:4 6148:4 6149:1 6150:1 6151:1 6152:1 6153:1 6154:1 6155:1 6156:1 6157:1 6158:1 6159:1 6160:1 6161:1 6162:4 6163:1 6164:2 6165:1 6166:1 6167:1 6168:1 6169:1 6170:1 6171:1 6172:1 6173:1 6174:1 6175:1 6176:1 6177:1 6178:1 6179:1 6180:2 6181:1 6182:1 6183:1 6184:1 6185:1 6186:1 6187:2 6188:1 6189:1 6190:1 6191:1 6192:1 6193:1 6194:1 6195:1 6196:1 6197:1 6198:1 6199:1 6200:1 6201:1 100002:1 100042:1 100043:1 #
0.012463700907981347526520821134 4:1 14:1 27:3 31:1 40:1 51:1 56:2 150:1 160:1 411:1 1131:1 2745:1 2749:1 2750:1 2751:1 2752:1 2753:1 2754:1 2755:1 2756:1 2757:1 2758:1 100002:1 100042:1 100043:1 #
0.012463700907981347526520821134 9:1 11:1 12:3 27:3 31:1 40:1 51:2 56:1 191:1 209:1 630:1 1066:1 1072:1 2900:1 3841:1 7487:1 7488:1 7529:1 7530:1 7531:1 7532:1 7533:1 7534:1 7535:1 7536:1 100002:1 #
0.012463700907981347526520821134 4:1 25:1 27:2 31:1 40:1 81:1 630:1 4399:1 8335:1 8374:1 8375:1 8376:1 100002:1 100042:1 #
-0.012463700907981347526520821134 2:1 4:1 9:1 11:1 12:1 27:1 31:1 40:1 72:1 73:1 74:1 75:1 76:1 77:1 78:1 79:1 80:1 100002:1 100042:1 #
-0.012463700907981347526520821134 2:1 4:3 16:1 25:1 27:2 51:1 67:1 112:1 167:1 486:1 606:1 723:1 1010:1 1837:1 3513:1 10455:1 11593:2 11627:1 11631:1 100002:1 100043:1 #
0.012463700907981347526520821134 4:1 12:1 27:4 56:1 327:1 403:1 1060:1 1061:1 1356:1 1770:1 2316:1 5627:2 5702:1 5703:1 5704:1 5705:1 5706:1 5707:1 5708:2 5709:1 5710:1 100002:1 100011:1 100043:1 #
0.012463700907981347526520821134 4:1 12:2 20:1 25:1 27:2 264:1 265:1 612:1 881:1 1421:1 2062:1 8103:1 9284:1 9341:1 9342:1 100002:1 100011:1 100043:1 #
0.012463700907981347526520821134 9:1 12:1 19:1 25:1 27:3 42:1 66:1 81:1 92:1 95:1 112:1 167:1 411:1 760:1 1356:1 2656:1 3544:1 4533:1 7503:3 7504:1 7505:1 7506:1 7507:1 7508:1 7509:1 100002:1 100012:1 #
0.012463700907981347526520821134 1:1 2:1 4:1 10:1 12:2 25:1 27:3 56:1 90:1 93:1 101:1 321:1 382:1 1553:1 3538:1 10540:1 10554:1 10555:1 10556:1 10557:1 100002:1 #
0.012463700907981347526520821134 2:2 12:1 25:1 27:3 42:1 47:1 56:1 169:1 1060:1 1061:1 1470:1 1992:1 3221:1 5313:1 5627:1 5628:1 5629:1 5630:1 5631:1 5632:1 5633:1 5634:1 100002:1 100011:1 #
-0.010398867921530757091330698926868 2:3 12:2 20:1 27:5 56:1 85:1 1124:1 1203:1 3385:2 3388:1 6415:2 6896:1 9562:1 9638:1 9641:2 9642:1 9643:1 9644:1 9645:1 9646:1 100002:1 100043:1 #
-0.0036920692010863342957804889010731 4:2 9:1 11:1 12:2 13:1 25:2 27:5 45:1 345:2 416:2 439:2 535:1 982:1 1146:1 1212:1 1221:1 1411:1 1677:4 3169:1 3682:1 4043:1 5789:2 7291:1 11394:1 11395:1 11411:1 11530:1 11531:1 11532:1 11533:1 11534:1 11535:1 100002:1 #
0.012463700907981347526520821134 27:1 172:1 8539:1 100002:1 100041:1 100042:1 #
0.012463700907981347526520821134 4:1 9:1 11:1 12:1 27:2 31:1 40:1 51:1 637:1 1018:1 2455:1 2650:1 3752:1 3833:1 3834:1 3835:1 100002:1 #
0.012463700907981347526520821134 27:1 172:1 247:1 6454:1 100002:1 100041:1 100042:1 #
-0.0075049412950721327425496198770816 2:1 12:1 14:1 25:1 42:1 56:1 102:1 144:1 1255:1 1378:1 1501:1 5527:1 5859:1 5860:1 5861:1 5862:1 5863:1 100002:1 100041:1 100042:1 100043:1 #
-0.012463700907981347526520821134 4:2 12:1 16:1 25:1 27:1 31:1 40:1 314:1 571:1 612:1 630:1 1317:1 2351:1 3994:1 5435:1 6019:1 6020:1 6030:1 6031:1 100002:1 100042:1 100043:1 #
0.012463700907981347526520821134 12:2 27:2 36:1 95:2 612:1 2428:1 2872:1 6746:1 100002:1 100012:1 100043:1 #
0.012463700907981347526520821134 27:1 8453:1 8454:1 100002:1 100041:1 100042:1 #
-0.012463700907981347526520821134 12:1 17:1 27:3 31:1 40:1 51:1 56:1 66:1 138:1 144:2 294:1 325:1 430:1 451:1 936:1 1109:1 1351:1 2685:1 2746:2 3212:1 3263:4 3298:2 3479:1 5454:1 6545:1 8575:1 11261:1 11262:1 11263:1 11264:1 11265:1 100002:1 100042:1 100043:1 #
-0.012463700907981347526520821134 12:1 27:4 172:1 403:1 633:1 1778:1 3484:1 4611:1 5102:1 5140:1 5141:1 5142:1 100002:1 100043:1 #
-0.012463700907981347526520821134 100002:1 100040:1 100042:1 100043:1 #
0.012463700907981347526520821134 2:2 4:4 7:1 9:1 11:1 12:4 14:2 16:1 27:4 45:1 66:1 85:2 90:1 91:1 93:1 112:1 142:1 144:3 167:1 289:1 376:1 388:1 460:1 531:1 647:1 760:2 897:2 934:1 957:1 1203:1 1411:1 1604:1 1677:2 1775:1 2443:1 2878:1 3387:1 4528:1 4557:1 7465:1 7910:1 8571:1 9338:1 9448:1 11286:1 11379:2 11413:1 11414:1 11415:1 11416:1 11417:1 11418:1 11419:1 11420:1 11421:1 11422:1 11423:1 11424:1 11425:1 11426:1 11427:1 11428:1 11429:1 100002:1 100011:1 #
-0.012463700907981347526520821134 4:2 12:5 14:1 25:2 27:1 31:3 40:3 42:2 51:2 56:1 70:1 80:1 113:1 138:2 144:2 324:1 723:1 852:1 1249:1 1278:1 1286:1 1317:1 1350:1 1388:1 1571:1 1574:1 1935:1 3158:1 3434:1 3501:1 3502:1 3503:1 3504:1 3505:1 3506:1 3507:1 3508:1 3509:1 3510:1 3511:1 100002:1 #
-0.0087970510589264645784357554703092 1:1 2:4 4:5 7:1 12:2 14:2 20:1 25:2 27:5 31:2 40:2 42:1 51:2 56:2 75:1 85:1 120:1 133:2 150:1 439:1 1093:1 1145:1 1461:1 1553:2 2434:2 2780:1 3445:1 4084:2 6984:1 7860:1 8708:3 10548:3 10566:1 10567:1 10568:2 10569:1 10570:1 10571:1 100002:1 #
0.012463700907981347526520821134 27:1 345:1 464:1 100002:1 100041:1 100042:1 #
0.012463700907981347526520821134 27:1 246:1 8505:1 100002:1 100041:1 100042:1 #
0.012463700907981347526520821134 27:1 1755:1 8343:1 100002:1 100041:1 100042:1 #
-0.012463700907981347526520821134 9:1 11:1 12:1 27:2 190:1 439:1 649:1 760:1 1677:2 2018:1 2788:1 3883:1 5789:1 8308:1 11448:1 11460:1 11461:1 11462:1 11463:1 11464:1 100002:1 100042:1 #
-0.012463700907981347526520821134 2:1 4:3 9:1 11:1 12:2 27:5 42:1 411:1 651:1 804:1 838:1 982:1 1020:1 1025:1 1169:1 1317:1 3063:1 3761:1 4235:1 4285:1 6331:1 6847:1 7827:1 8234:1 10832:1 11356:1 11357:1 11358:1 11359:1 100002:1 100043:1 #
-0.01193634178677347064401192966443 4:4 12:1 17:1 27:3 31:1 40:1 51:1 56:2 66:1 531:1 924:1 1350:2 4469:1 6053:1 7459:1 8575:1 11183:1 11277:1 11278:1 11279:1 11280:1 11281:1 11282:1 11283:1 11284:1 11285:1 100002:1 100042:1 100043:1 #
-0.002235062173270231829225185293808 2:2 4:2 12:2 19:1 25:1 27:1 31:2 40:2 42:1 72:1 112:1 138:1 144:1 169:2 439:1 967:1 1026:1 2685:1 3263:1 3591:1 4584:1 8844:1 9423:1 9576:1 11266:1 11267:2 11268:1 11269:1 100002:1 100042:1 100043:1 #
0.0071550606204447350644493042182148 4:2 12:2 25:2 27:4 31:1 36:1 40:1 51:1 72:1 99:1 112:2 144:1 150:1 612:1 645:1 3470:1 6516:1 8725:1 9146:1 9147:2 9148:2 9152:1 9420:1 9499:1 9500:1 9501:1 9502:1 9503:1 100002:1 100012:1 100043:1 #
0.0059096205443889696443116044122235 4:1 12:2 14:1 27:2 90:1 91:1 93:1 144:1 174:1 302:1 2450:1 3035:1 9240:1 11042:1 11063:1 11099:1 11100:1 100002:1 100011:1 100042:1 100043:1 #
0.0024257065596164448934013435632551 12:2 27:1 90:1 91:1 93:1 174:1 3035:1 11069:1 11070:1 100002:1 100011:1 100042:1 100043:1 #
0.012463700907981347526520821134 14:1 27:1 31:1 40:1 51:1 56:1 102:1 112:3 538:1 2589:1 2607:1 2619:1 2647:1 2648:2 2649:1 2650:1 100002:1 100042:1 100043:1 #
0.012463700907981347526520821134 2:1 4:2 12:1 27:2 31:1 40:1 56:2 67:1 112:2 571:1 612:1 656:1 741:1 1180:1 1321:1 1364:1 1770:1 2614:1 2615:1 2675:1 2702:1 2703:1 2797:1 2798:1 100002:1 #
0.012463700907981347526520821134 12:1 27:1 645:1 652:2 1066:1 1072:1 4636:1 4637:1 4638:1 4639:1 4640:1 4641:1 4642:1 4643:1 4644:1 4645:1 4646:1 4647:1 4865:1 100002:1 100012:1 100043:1 #
0.0061065398740309806413506521494128 4:1 9:1 11:1 12:3 25:1 27:5 31:1 40:1 45:1 51:1 56:1 95:1 153:1 209:1 592:1 630:1 2872:1 2900:2 3841:1 5397:1 5543:1 5980:1 7533:2 7534:1 7535:1 7536:1 7537:1 7538:1 7539:1 7540:1 7541:1 7542:1 7543:1 7544:1 7545:1 7546:1 7547:1 7548:1 7549:1 7550:1 100002:1 100012:1 100043:1 #
0.0022258071666718657645456236338077 4:2 9:2 11:2 12:3 25:1 27:5 31:1 40:1 56:1 85:1 112:1 167:1 174:1 175:1 209:1 315:1 327:1 645:1 1148:1 1391:1 2391:1 3544:1 3615:1 7647:1 7648:1 7650:1 7651:1 7653:1 7656:1 7658:1 7659:1 7673:1 7679:1 7683:1 7684:1 7685:1 7686:1 8092:1 8093:1 100002:1 100012:1 #
-0.012463700907981347526520821134 12:1 14:1 20:1 25:1 27:1 31:1 40:1 42:1 45:1 51:1 66:1 416:1 637:1 725:1 968:1 982:1 1255:1 1503:1 1578:1 2223:1 2723:1 2725:1 3205:1 3358:1 5325:1 10613:1 10683:1 10842:1 100002:1 #
0.0044391799017286385012348581824426 9:1 11:1 12:1 27:4 31:1 40:1 42:1 56:1 112:1 144:1 209:1 249:1 321:1 607:1 630:1 1470:1 8395:1 8486:2 8487:2 8488:1 8489:1 8490:1 8491:1 8492:1 8493:1 100002:1 100042:1 #
-0.012463700907981347526520821134 2:2 4:2 7:1 12:1 19:1 25:2 27:5 31:1 32:1 40:1 42:2 51:1 56:1 64:1 85:1 95:1 213:1 410:1 445:1 961:1 1515:1 1656:1 2351:1 2698:1 3061:1 4311:1 4373:1 4442:1 4550:1 4551:1 4552:1 4553:1 4554:1 4555:1 4556:1 4557:1 4558:1 4559:1 100002:1 100012:1 100042:1 100043:1 #
-0.00078978845172503740236502611793412 3799:1 100002:1 100018:1 100040:1 100042:1 100043:1 #
0.012463700907981347526520821134 1953:1 100002:1 100011:1 100040:1 100042:1 #
-0.00078978845172513888368837076114914 3771:1 100002:1 100018:1 100040:1 100042:1 100043:1 #
-0.012463700907981347526520821134 2:1 4:1 12:2 16:1 17:1 27:3 31:1 40:1 45:1 56:1 144:1 153:1 213:1 264:1 315:1 403:1 630:1 1120:1 1786:1 2615:1 3970:1 4481:1 6698:1 6913:1 6918:1 6919:1 7036:1 7037:1 7038:1 7039:1 7040:1 7041:1 7042:1 7043:1 7044:1 100002:1 #
-0.012463700907981347526520821134 4:1 9:1 11:1 12:1 14:2 27:2 31:1 40:1 45:1 462:1 516:1 531:1 630:1 1560:1 3708:1 4527:1 4528:1 6820:1 8494:1 8495:1 8496:1 8497:1 100002:1 100043:1 #
-0.012463700907981347526520821134 12:1 27:4 172:1 206:1 208:1 403:1 633:1 1060:1 1061:1 1419:1 1778:1 3484:1 4285:1 4598:1 4599:1 4600:1 4603:1 4605:1 4611:1 4910:1 5040:1 5041:1 5042:1 5043:1 5044:1 5045:1 100002:1 100043:1 #
-0.010830639782698712678121744090731 4:2 12:1 14:2 27:2 31:1 37:2 40:1 56:1 66:2 112:2 138:1 142:1 167:1 289:1 321:1 416:1 434:1 570:1 585:1 630:1 982:1 2766:1 2878:1 3053:1 5335:1 5410:1 5445:1 5446:1 5447:1 5448:1 5449:1 5450:1 5451:1 5452:1 5453:1 5454:1 5455:1 5456:1 5457:1 5458:1 100002:1 #
0.012463700907981347526520821134 1:1 2:1 4:2 7:1 9:1 12:1 14:1 19:1 25:2 27:2 42:1 56:1 85:1 95:1 117:1 144:1 167:1 967:1 1093:2 1280:1 1419:1 1648:1 1655:1 1877:1 1910:1 1932:1 2180:1 2181:1 2343:1 2344:1 2420:1 2421:1 2422:1 2423:1 2424:1 2425:1 2426:1 2427:1 2428:1 2429:1 100002:1 100011:1 100012:1 #
-0.0086224399530983007744477930600624 4:3 9:2 11:2 12:1 25:2 27:3 56:2 112:2 149:1 274:1 416:1 439:1 1094:1 1677:2 1778:1 2428:1 2655:1 2739:1 2778:1 3723:1 4043:1 4082:1 5789:1 7879:1 11432:1 11543:1 11544:1 100002:1 100042:1 #
-0.012463700907981347526520821134 9:1 11:1 12:1 14:1 25:2 27:2 31:1 40:1 112:1 144:1 167:2 531:2 838:1 1321:2 1388:1 2748:1 4484:1 4489:1 4515:1 7432:1 8396:1 8404:1 8405:1 8406:1 8407:1 8408:1 100002:1 100042:1 100043:1 #
-0.012463700907981347526520821134 100002:1 100040:1 100042:1 100043:1 #
-0.0007897884517253531220376538968253 3807:1 100002:1 100018:1 100040:1 100042:1 100043:1 #
-0.00057915437375526210989074016310951 9504:1 100002:1 100018:1 100040:1 100042:1 100043:1 #
0.012463700907981347526520821134 9:1 11:1 12:3 27:3 51:1 95:1 335:1 1031:1 1461:1 2273:1 4616:1 4636:1 5088:1 5112:1 5273:1 100002:1 100012:1 100043:1 #
0.012463700907981347526520821134 12:3 27:3 213:1 335:2 645:2 4892:1 5241:1 5242:1 5243:1 5244:1 100002:1 100012:1 100043:1 #
0.012463700907981347526520821134 2:1 9:1 11:1 12:2 20:1 21:1 27:2 31:1 40:1 56:1 85:1 112:1 144:1 167:1 740:1 1034:1 1112:1 1120:1 1862:1 2725:1 2900:1 3434:1 4037:1 4084:1 4470:1 6517:1 8274:1 8275:1 8276:1 8277:1 8278:1 100002:1 100011:1 #
0.012463700907981347526520821134 9:1 11:1 12:2 14:1 27:4 51:1 56:1 85:1 2900:1 3028:1 5313:1 5317:1 5318:1 5472:1 5957:1 5963:1 5964:1 5965:1 5966:1 5967:1 5968:1 5969:1 100002:1 100011:1 100043:1 #
0.012463700907981347526520821134 12:1 571:1 1092:1 1093:1 2240:1 100002:1 100011:1 100040:1 #
0.012463700907981347526520821134 27:1 81:1 8477:1 100002:1 100041:1 100042:1 #
0.012463700907981347526520821134 27:1 81:1 10689:1 100002:1 100041:1 100042:1 #
0.012463700907981347526520821134 4:1 7:1 9:1 11:1 12:1 17:1 19:1 25:2 27:1 47:1 66:1 90:1 91:1 93:1 112:1 144:1 289:1 431:1 1065:1 5490:1 5491:1 5492:1 5493:1 5494:1 5495:1 5496:1 5497:1 5498:1 5499:1 100002:1 100011:1 100042:1 100043:1 #
-0.012463700907981347526520821134 2:2 4:3 12:3 14:1 19:1 25:2 27:5 31:1 40:1 42:1 44:1 85:1 112:1 124:1 293:1 319:2 348:1 1020:2 1085:1 1249:1 1440:1 1441:1 2725:1 3193:1 3480:1 3854:1 4082:1 4235:1 4592:1 5325:1 5503:1 7036:1 8517:1 10613:1 10829:1 10830:1 10831:1 10832:1 10833:1 10834:1 10835:1 10836:1 100002:1 100042:1 #
-0.012463700907981347526520821134 2:1 12:1 16:1 19:1 25:2 27:1 31:1 40:1 42:1 47:1 66:1 67:1 102:1 421:1 531:1 4063:1 9964:1 11621:1 11622:1 11664:1 100002:1 100042:1 100043:1 #
-0.012463700907981347526520821134 2:2 4:1 7:2 12:2 17:1 19:1 20:1 25:1 27:8 31:3 32:1 37:1 40:3 42:1 56:1 66:1 112:1 195:1 213:1 403:1 432:1 897:1 934:1 964:1 1043:1 1175:1 1206:1 1221:1 5652:1 6265:1 7326:1 7327:1 7328:1 7329:1 7330:1 7331:3 7332:1 7333:1 7334:1 7335:2 7336:1 7337:1 7338:1 7339:1 7340:1 7341:1 100002:1 #
0.012463700907981347526520821134 27:4 66:1 190:1 612:1 8345:1 8346:1 8367:1 8368:1 100002:1 100042:1 #
0.012463700907981347526520821134 27:1 95:1 8503:1 100002:1 100012:1 100041:1 100042:1 100043:1 #
0.012463700907981347526520821134 27:1 95:1 8541:1 100002:1 100012:1 100041:1 100042:1 100043:1 #
0.012463700907981347526520821134 12:1 27:1 645:1 652:2 1072:1 4637:1 4638:1 4639:1 4640:1 4641:1 4642:1 4643:1 4644:1 4645:1 4646:1 4647:1 4866:1 100002:1 100012:1 100043:1 #
-0.012463700907981347526520821134 2:1 4:2 12:1 16:1 25:1 27:2 31:1 32:1 40:1 42:1 45:1 56:1 85:1 982:1 1081:1 1570:1 2720:1 2895:1 2926:1 3032:1 3033:1 3034:1 100002:1 100042:1 100043:1 #
-0.012463700907981347526520821134 2:1 4:2 9:1 11:1 12:1 25:1 27:1 31:2 40:2 42:1 85:1 167:1 336:1 1321:2 3678:1 3761:1 3777:1 3947:1 8056:1 11780:1 11781:1 100002:1 100042:1 100043:1 #
-0.012463700907981347526520821134 4:2 12:2 14:1 56:1 75:1 112:1 144:1 388:1 430:1 460:1 647:1 755:1 1004:1 1241:1 1396:1 2657:1 3010:2 3505:1 8870:1 10558:1 100002:1 100041:1 100042:1 #
0.012463700907981347526520821134 4:1 14:1 25:1 27:4 31:1 33:1 40:1 51:1 65:1 102:1 112:1 430:1 440:1 538:2 624:1 849:1 1317:1 1578:1 2438:1 2588:1 2589:1 2672:1 2675:1 2679:1 2680:1 2681:1 2682:1 2683:1 2684:1 2685:1 2686:1 2687:1 2688:1 2689:1 100002:1 100042:1 100043:1 #
-0.012463700907981347526520821134 4:1 12:4 14:1 20:1 25:1 27:5 37:1 42:1 85:1 95:1 111:1 112:1 144:1 209:1 289:1 322:1 439:1 443:1 571:1 842:1 897:1 902:1 934:1 952:2 971:1 972:1 973:1 974:1 976:1 977:1 1019:1 1020:1 1021:1 1022:1 1023:1 1024:1 1025:1 1026:1 1027:1 1028:1 1029:1 1030:1 1031:1 1032:1 1033:1 1034:1 1035:1 1036:1 100002:1 100012:1 #
-0.012463700907981347526520821134 2:1 4:1 7:1 9:1 12:1 16:1 20:1 25:1 27:2 51:1 56:1 85:1 95:1 112:3 445:1 637:1 650:1 655:1 968:2 1093:1 1461:1 1577:1 3494:1 6537:1 6896:1 6897:1 8136:1 9169:1 9935:1 10181:1 10182:1 10183:1 10184:1 10185:1 10186:1 10187:1 10188:1 10189:1 10190:1 100002:1 #
0.011896997684394797212270589170657 4:5 7:1 9:1 12:2 14:2 25:3 27:5 31:2 37:1 40:2 42:2 44:1 45:2 50:1 51:1 56:1 85:1 102:1 111:1 133:1 144:1 167:2 264:1 265:1 486:1 531:1 553:1 571:1 592:1 645:1 881:1 916:1 1249:2 1280:1 1362:1 1634:1 1993:1 3311:1 3502:1 3986:1 4337:1 5435:1 6361:1 6896:1 6897:1 7654:1 8875:1 9139:1 9140:1 9147:1 9584:1 9923:2 10010:1 10303:1 10304:1 10305:1 10306:1 10307:1 10308:1 100002:1 100011:1 100012:1 100043:1 #
0.012463700907981347526520821134 12:1 1093:1 1910:1 2140:1 100002:1 100011:1 100041:1 100043:1 #
0.012463700907981347526520821134 27:1 8486:1 8487:1 100002:1 100041:1 100042:1 #
-0.012463700907981347526520821134 12:2 19:1 25:1 61:1 112:1 156:1 443:1 682:1 1350:2 1385:1 3460:1 3461:1 3462:1 3463:1 3464:1 3465:1 100002:1 100041:1 100042:1 #
-0.012463700907981347526520821134 4:1 12:1 27:1 95:1 2178:1 6038:1 6069:1 6676:1 100002:1 100012:1 100043:1 #
-0.012463700907981347526520821134 9:1 11:1 12:1 27:1 45:1 66:1 95:1 113:1 172:1 264:1 531:1 964:1 1050:1 1342:1 1574:1 2450:1 2852:1 6861:1 7019:1 7020:1 7021:1 7022:1 7023:1 7024:1 7025:1 100002:1 100012:1 #
-0.012463700907981347526520821134 12:2 14:1 25:1 66:1 144:1 150:1 538:1 1376:1 3909:1 5097:1 7914:1 10609:1 10610:1 10611:1 100002:1 100041:1 #
0.0075525375698712090416497844103105 2:3 4:1 12:4 13:2 17:1 19:1 25:3 27:8 31:2 37:1 40:2 42:2 51:1 66:2 112:4 144:3 225:1 319:1 327:1 430:2 473:1 607:2 672:1 675:1 993:1 1677:1 2233:1 2583:1 2818:1 3020:1 3022:1 3109:1 3471:1 3530:1 3844:1 4247:1 4505:1 4649:1 5600:1 5654:2 5687:1 6110:2 6533:1 7319:1 7340:1 7742:1 7771:1 7772:1 7809:2 7810:2 7811:1 7812:1 7813:1 7814:1 7815:1 7816:1 7817:1 7818:1 7819:1 7820:1 7821:1 7822:1 7823:1 7824:1 7825:1 7826:2 7827:2 7828:1 7829:1 7830:1 7831:1 7832:1 7833:1 7834:1 100002:1 #
0.0083676445331717745623745230432178 2:1 4:9 7:1 9:2 11:1 12:6 14:1 16:2 19:1 20:1 25:6 27:5 31:3 32:1 37:2 40:3 42:3 51:1 56:4 95:2 112:3 136:1 144:5 167:1 169:1 334:1 430:2 571:1 581:1 723:2 760:2 896:1 930:1 952:1 1171:1 1240:1 1262:1 1279:1 1376:1 1540:1 2657:1 2972:1 3227:1 3263:2 3270:1 3271:1 3306:1 3356:1 3434:1 3461:1 3472:1 3552:1 3553:1 3613:2 3711:1 3712:1 3713:1 3714:1 3715:1 3716:1 3717:1 3718:1 3719:1 3720:1 3721:1 3722:1 3723:1 3724:1 3725:1 3726:1 3727:1 3728:1 3729:1 3730:1 3731:2 3732:1 3733:1 3734:1 3735:1 100002:1 100011:1 100012:1 #
0.0031972083817068111186165957349203 2:3 4:4 7:2 9:2 10:1 11:2 12:2 17:1 25:5 27:5 31:3 37:1 40:3 42:1 56:1 66:2 90:1 91:1 93:1 112:1 144:2 167:1 284:1 395:1 432:1 443:1 448:1 1085:2 1262:1 1440:1 2180:1 2204:1 2601:1 2769:1 3002:1 3314:2 3481:1 3951:1 6422:1 6498:1 8295:1 8432:1 10922:3 10929:1 10989:2 11000:1 11005:1 11013:1 11014:1 11015:1 11016:1 11017:1 11018:1 11019:1 11020:1 11021:1 11022:1 11023:1 11024:1 11025:1 11026:1 11027:1 11028:1 11029:1 11030:1 100002:1 100011:1 #
-0.012463700907981347526520821134 4:1 12:2 27:2 334:1 652:1 967:1 1362:1 7424:1 100002:1 #
0.012463700907981347526520821134 4:1 12:1 27:1 85:1 90:1 91:1 93:1 117:1 334:1 1837:1 2423:1 9200:1 9333:1 9592:1 100002:1 100011:1 100043:1 #
-0.012463700907981347526520821134 7:1 12:1 17:1 31:1 37:1 40:1 144:1 348:1 556:1 942:1 960:1 1394:1 1501:1 1655:1 3001:1 3002:1 3003:1 3004:1 3005:1 3006:1 3007:1 3008:1 3009:1 3010:1 100002:1 100042:1 #
-0.012463700907981347526520821134 4:2 12:2 27:3 42:1 95:1 144:1 160:1 225:1 250:1 339:1 1188:1 1893:1 2979:1 4393:1 4970:1 5160:1 7558:1 7559:1 7560:1 100002:1 #
0.012463700907981347526520821134 12:3 27:1 95:1 335:1 403:1 1915:1 4911:1 100002:1 100011:1 100012:1 100043:1 #
-0.012463700907981347526520821134 2:1 4:2 7:1 12:2 4528:1 7342:1 7343:1 7344:1 7345:1 7346:1 100002:1 100041:1 #
0.012463700907981347526520821134 4:1 7:1 9:1 11:1 12:1 20:1 25:1 27:4 85:1 264:2 265:1 1914:1 2932:1 3480:1 3986:1 4121:1 6105:1 6120:1 6634:1 7510:1 8581:1 8687:1 8688:1 8709:1 8710:1 8711:1 100002:1 100011:1 #
0.012463700907981347526520821134 12:3 136:1 652:1 6907:1 100002:1 100011:1 100042:1 #
0.012463700907981347526520821134 27:2 95:1 637:1 8475:1 8476:1 100002:1 100012:1 100042:1 #
0.012463700907981347526520821134 9:1 11:1 12:1 27:2 967:1 1093:1 1419:2 1648:1 1910:1 2122:1 2142:1 2143:1 100002:1 100011:1 100043:1 #
-0.012463700907981347526520821134 2:2 12:2 19:1 939:1 7373:2 7374:1 100002:1 100041:1 100042:1 #
-0.012463700907981347526520821134 2:2 12:2 19:1 167:1 7381:1 7382:1 7383:1 100002:1 100041:1 100042:1 #
-0.012463700907981347526520821134 2:1 4:2 12:4 27:4 445:1 2036:1 4037:1 5447:1 5548:1 7375:2 7376:1 7377:1 7378:1 7379:1 7380:1 100002:1 100042:1 #
0.012463700907981347526520821134 12:1 136:1 100002:1 100011:1 100041:1 100042:1 100043:1 #
0.0022533500977196486633746808081469 12:1 27:4 51:1 204:1 206:1 209:1 225:2 256:1 474:1 672:1 1770:1 2579:1 4666:1 5654:1 5655:1 5656:1 5657:1 5658:1 5659:1 5660:1 5661:1 5662:1 5663:1 100002:1 100011:1 100043:1 #
0.012463700907981347526520821134 12:1 27:1 95:1 760:1 7501:1 7502:1 100002:1 100012:1 100041:1 #
0.012463700907981347526520821134 27:2 95:1 637:1 8475:1 8476:1 100002:1 100012:1 100042:1 #
-0.012463700907981347526520821134 4:1 12:1 25:1 571:1 1093:1 2339:1 2341:1 100002:1 100041:1 100043:1 #
-0.012463700907981347526520821134 2:1 4:1 7:1 10:1 12:1 25:2 27:1 51:1 85:1 144:1 167:1 171:1 571:1 915:1 2213:1 2421:1 3925:1 4033:1 4488:1 6025:1 10832:1 11122:1 11123:1 11124:1 11125:1 11126:1 11127:1 100002:1 100018:1 #
-0.012463700907981347526520821134 1:1 7:1 10:1 12:2 27:1 37:1 51:1 144:1 319:2 1441:1 2403:1 11730:1 11731:1 11732:1 11733:1 100002:1 #
-0.012463700907981347526520821134 12:1 27:2 56:1 59:1 144:1 484:1 571:1 724:1 896:1 1169:1 1419:1 2144:1 100002:1 100043:1 #
-0.012449871306259262249138686229344 2:1 4:1 7:1 12:1 16:1 17:1 19:1 25:2 27:4 32:1 37:1 56:1 66:2 95:1 112:1 144:2 197:1 319:1 388:1 1046:1 1064:1 1065:1 1093:1 1471:1 2448:1 3506:1 4518:1 6686:1 7611:1 7612:1 7613:1 7614:1 7615:1 7616:1 7617:1 7618:1 7619:1 7620:1 7621:1 7622:1 7623:1 7624:1 100002:1 100012:1 100043:1 #
0.0090558302096579203210868769247099 4:1 27:4 31:1 40:1 51:1 56:1 85:1 209:1 443:1 551:1 2788:1 3541:1 4210:1 4331:1 8479:1 8486:1 8487:1 8509:1 8510:1 8511:1 8512:1 8513:1 8514:1 100002:1 100042:1 #
0.012463700907981347526520821134 12:1 27:2 645:1 1093:1 1910:1 1923:1 1993:1 2080:1 100002:1 100012:1 #
0.012463700907981347526520821134 27:2 95:1 293:1 8502:1 8559:1 100002:1 100012:1 100042:1 #
-0.012463700907981347526520821134 2:1 12:2 31:1 40:1 44:1 1172:1 6644:1 7318:1 7347:1 7348:1 7349:1 100002:1 100042:1 #
0.012463700907981347526520821134 2:1 4:1 12:1 27:2 571:1 658:1 1093:1 1169:1 1772:1 1910:1 2525:1 2526:1 100002:1 100011:1 #
0.012463700907981347526520821134 4:3 7:2 9:1 11:1 12:2 25:3 27:4 56:1 90:1 91:1 93:1 593:1 962:1 2005:1 2279:1 9154:2 9235:1 9277:1 9869:1 10215:1 10216:1 10217:1 10218:1 10219:1 10220:1 10221:1 100002:1 100011:1 100043:1 #
-0.012463700907981347526520821134 9:1 12:1 27:2 51:1 204:1 209:1 225:1 403:1 712:1 967:1 1801:1 1807:1 1886:1 1887:1 1888:1 1889:1 1890:1 1891:1 1892:1 1893:1 1894:1 1895:1 100002:1 100043:1 #
-0.011773878898793025890578967107558 9:1 27:3 6120:1 6130:1 6138:1 6162:3 6180:1 6184:1 6187:1 6260:1 6275:1 6276:2 6277:1 6278:2 6279:1 6280:1 6281:1 6282:1 6283:1 6284:1 6285:1 6286:1 6287:1 6288:1 6289:1 6290:1 6291:1 6292:1 6293:1 6294:1 6295:1 6296:1 6297:1 6298:1 6299:1 6300:1 6301:1 6302:1 6303:1 6304:1 6305:1 6306:1 6307:1 6308:1 6309:1 6310:1 6311:1 6312:1 6313:1 6314:1 6315:1 100002:1 100042:1 100043:1 #
0.012463700907981347526520821134 4:1 12:1 14:1 20:1 25:1 27:5 56:1 101:1 264:1 265:1 630:1 909:1 3446:1 6381:1 6477:1 6634:1 7399:1 8595:1 8596:1 8597:1 8598:1 8599:1 8600:1 8601:1 100002:1 100011:1 100043:1 #
-0.012463700907981347526520821134 2:1 4:2 12:2 25:1 27:3 403:1 637:1 2204:1 3387:1 3430:1 4177:1 6896:1 6897:1 8270:1 9931:1 9932:1 9933:1 9934:1 9935:1 100002:1 #
-0.012463700907981347526520821134 27:3 56:2 66:1 306:1 307:1 602:1 2508:1 5613:1 5614:1 5615:1 5616:1 5617:1 5618:1 100002:1 100042:1 100043:1 #
-0.012463700907981347526520821134 4:1 12:1 25:1 571:1 1092:1 2223:1 8715:1 8716:1 100002:1 100041:1 100042:1 100043:1 #
-0.0062022617097866232852010348608474 2:1 4:2 7:2 12:1 25:2 27:1 45:1 56:1 112:1 213:1 1360:1 2822:1 4837:1 6087:1 7355:1 11286:1 11287:1 11288:1 11289:1 11290:1 11291:1 11292:1 11293:1 11294:1 11295:1 11296:1 100002:1 100041:1 #
-0.012463700907981347526520821134 12:1 27:2 56:1 144:3 1229:1 1391:1 2685:1 2818:1 3470:1 3481:1 6032:1 6033:1 6034:1 6035:1 6036:1 6037:1 6038:1 6039:1 100002:1 100042:1 100043:1 #
-0.012463700907981347526520821134 12:1 27:3 56:1 213:1 724:1 1031:1 1543:1 6474:1 6475:1 6476:1 6477:1 6478:1 100002:1 100043:1 #
0.012463700907981347526520821134 12:3 27:1 335:1 403:1 645:1 4911:1 5135:1 100002:1 100011:1 100012:1 100043:1 #
0.012463700907981347526520821134 12:1 27:2 451:1 1093:1 1589:1 1845:1 1910:1 2166:1 100002:1 100011:1 #
0.012463700907981347526520821134 2:1 12:1 27:1 90:1 91:1 93:1 354:1 484:1 2878:1 9646:1 9981:1 100002:1 100011:1 100043:1 #
3.3026186497361192939692386971728e-05 4:1 7:1 12:1 25:2 27:5 42:1 56:1 85:1 94:1 101:1 112:1 730:1 759:1 1089:1 1749:1 2264:1 3446:1 3744:1 7811:1 8598:1 8639:1 8820:1 8979:1 9136:1 9137:1 9138:1 100002:1 100011:1 #
0.012463700907981347526520821134 2:1 12:1 27:1 90:1 91:1 93:1 200:1 1145:1 3205:1 5906:1 9919:1 100002:1 100011:1 100043:1 #
0.012463700907981347526520821134 12:3 27:2 115:1 174:1 1031:1 3035:1 6868:1 6869:1 100002:1 100011:1 100042:1 #
0.012463700907981347526520821134 12:1 27:1 645:1 4613:1 4614:1 5149:1 100002:1 100011:1 100012:1 100043:1 #
0.012463700907981347526520821134 12:1 27:1 645:1 4613:1 4614:1 5240:1 100002:1 100011:1 100012:1 100043:1 #
0.012463700907981347526520821134 4:1 7:1 27:4 31:2 40:2 42:1 51:1 56:2 112:1 144:1 213:1 324:1 411:1 517:1 538:1 2629:1 2630:1 2641:1 2742:1 2744:1 2759:1 2760:1 2761:1 2762:1 2763:1 2764:1 2765:1 2766:1 2767:1 2768:1 2769:1 2770:1 100002:1 100042:1 100043:1 #
-0.012463700907981347526520821134 4:1 12:2 27:2 51:1 85:1 133:1 1411:1 2316:1 3385:1 6896:1 6897:1 9212:1 9473:1 9936:1 9937:1 9938:1 9939:1 100002:1 100043:1 #
0.0020038153329819678900858281878072 7:1 12:1 25:1 27:5 56:1 101:1 112:1 327:1 404:1 411:1 1051:1 2792:1 5609:2 5610:1 5611:1 5612:1 100002:1 100011:1 100043:1 #
0.00083043833950812698165705461050834 9:3 11:1 12:4 27:5 45:1 51:3 95:1 206:4 209:1 214:2 225:1 348:1 486:3 551:2 607:1 711:2 1060:2 1061:2 1066:1 1072:1 1659:1 2301:1 2417:1 4285:1 4639:1 4799:1 4800:2 4801:2 4802:2 4803:2 4804:1 4805:2 4806:1 4807:1 4808:2 4809:1 4810:1 4811:1 4812:1 4813:1 4814:1 4815:1 4816:1 4817:1 4818:1 4819:1 4820:1 4821:1 4822:1 4823:1 4824:2 4825:1 4826:1 4827:1 100002:1 100012:1 #
0.0060609556925337159521971486242364 7:1 9:1 12:3 25:1 27:6 42:1 45:1 59:1 85:1 94:1 144:2 213:1 225:1 250:1 429:1 479:1 535:1 571:2 637:1 694:1 827:1 952:1 1093:1 1169:1 1203:1 1471:1 1475:1 1655:1 1941:1 1967:1 2098:1 2784:1 2871:1 6697:1 6698:1 6699:1 6700:1 6701:1 6702:1 6703:1 6704:1 6705:1 6706:1 6707:1 6708:1 6709:1 100002:1 100011:1 #
-0.012463700907981347526520821134 14:1 20:1 27:3 61:1 62:1 63:1 64:1 65:1 66:2 67:1 68:1 69:1 70:1 71:1 100002:1 100042:1 100043:1 #
-0.012463700907981347526520821134 27:3 56:1 213:2 881:1 1993:1 6098:1 6433:1 6434:1 6435:1 6436:1 6437:1 100002:1 100043:1 #
0.012463700907981347526520821134 2:1 4:1 20:1 27:2 31:1 37:1 40:1 51:1 144:1 319:1 1394:1 1499:1 2657:1 7318:1 8329:1 8330:1 8331:1 8332:1 8333:1 100002:1 100042:1 #
0.012463700907981347526520821134 16:1 27:2 31:1 40:1 51:1 56:1 67:1 80:1 144:1 169:1 1950:1 5339:1 9188:1 9356:1 11368:1 11564:1 11634:1 11663:1 100002:1 100043:1 #
0.012463700907981347526520821134 2:1 27:2 31:1 40:1 42:1 51:1 85:1 396:1 1454:1 4210:1 4276:1 8447:1 100002:1 100042:1 #
0.012463700907981347526520821134 27:2 31:1 40:1 56:2 741:1 2599:1 2612:1 2613:1 2614:1 2615:1 2616:1 2617:1 100002:1 100042:1 100043:1 #
-0.012463700907981347526520821134 4:1 12:1 27:2 7781:1 9802:1 11775:1 11938:1 12246:1 100002:1 100042:1 100043:1 #
-0.012463700907981347526520821134 9:1 27:4 37:1 42:1 44:1 47:1 72:2 112:3 439:2 630:1 934:1 948:1 1085:1 1172:1 1257:1 1547:1 1659:1 3063:1 3916:1 4561:1 6384:1 6494:1 6495:1 6496:1 6497:1 6498:1 6499:1 6500:1 6501:1 6502:1 100002:1 100042:1 100043:1 #
-0.012463700907981347526520821134 4:1 27:2 42:1 144:1 388:1 593:1 1045:1 1342:1 1722:1 7197:1 8365:1 8366:1 100002:1 100043:1 #
-0.012463700907981347526520821134 2:1 9:1 11:1 12:1 20:2 27:2 42:1 45:1 51:1 56:1 80:1 214:1 225:1 243:1 515:1 531:1 556:1 891:1 903:1 1786:1 2245:1 2418:1 2423:1 3239:1 3264:1 3265:1 3266:1 3267:1 3268:1 3269:1 3270:1 3432:1 3433:1 3434:1 3435:1 3436:1 3437:1 100002:1 100042:1 #
0.012463700907981347526520821134 4:1 9:1 11:1 12:2 25:1 27:2 31:1 40:1 51:1 200:1 220:1 691:1 723:1 2233:1 3265:1 3270:1 3271:1 3434:1 3438:1 3439:1 100002:1 100042:1 #
0.012463700907981347526520821134 27:2 31:1 40:1 42:1 51:1 56:1 112:1 144:1 167:1 514:1 630:1 633:1 1283:1 1737:1 7007:1 7980:1 8396:1 8455:1 8456:1 8457:1 100002:1 100042:1 #
0.012463700907981347526520821134 12:1 20:2 27:3 31:1 40:1 56:1 67:2 293:1 971:1 1396:1 4276:1 8458:1 8459:1 100002:1 100042:1 #
0.012463700907981347526520821134 2:1 4:8 7:1 9:1 11:1 12:3 25:2 27:4 42:1 47:1 51:1 56:1 78:1 90:1 91:1 93:1 105:2 124:1 388:1 571:1 653:1 852:1 944:1 969:1 1020:1 1317:1 1419:1 2054:1 2695:1 3385:1 3480:1 3952:1 4033:1 4082:1 4235:1 5966:1 6651:1 8432:1 10729:1 11214:2 11215:2 11216:1 11217:2 11218:1 11219:1 11220:1 11221:1 11222:1 11223:1 100002:1 100011:1 #
-0.012463700907981347526520821134 4:1 12:1 14:1 27:1 85:1 112:1 144:1 538:1 2589:1 2599:1 2600:1 2601:2 2602:1 2603:1 2604:1 2605:1 100002:1 100042:1 100043:1 #
0.012463700907981347526520821134 27:3 31:1 40:1 172:1 531:1 8542:1 8543:1 8544:1 8545:1 8546:1 100002:1 100042:1 #
0.012463700907981347526520821134 2:1 27:3 31:2 40:2 42:1 56:1 112:3 144:1 147:1 167:1 443:1 538:1 571:1 1362:1 1535:1 2657:1 2658:1 2659:1 2660:1 2661:1 2662:1 100002:1 100042:1 100043:1 #
0.012463700907981347526520821134 12:1 25:1 27:1 31:1 40:1 51:1 112:2 144:1 190:1 436:1 538:1 1112:1 2589:1 2601:1 2606:1 2607:1 2608:1 2609:1 100002:1 #
-0.012463700907981347526520821134 12:2 27:3 56:1 133:3 2316:2 6896:1 6897:1 10363:1 10364:1 10365:1 10366:1 10367:1 100002:1 100043:1 #
-0.012463700907981347526520821134 4:1 9:1 11:1 12:1 27:1 51:2 66:1 67:1 85:1 112:1 1356:1 1411:1 1879:1 2655:1 3385:1 7383:1 9973:1 10378:1 10379:1 10380:1 10381:1 10382:1 10383:1 10384:1 100002:1 100043:1 #
-0.012463700907981347526520821134 4:1 7:1 12:1 14:1 27:2 56:1 112:1 443:1 630:1 965:1 968:1 1046:1 7621:1 9646:1 9963:1 10017:1 10074:1 10075:1 10076:1 10077:1 10078:1 100002:1 100043:1 #
0.012463700907981347526520821134 2:1 4:4 9:2 11:2 12:3 14:1 20:1 27:1 42:1 51:1 65:1 85:1 90:1 91:1 93:1 144:1 200:1 249:1 265:1 396:1 531:1 653:1 1020:1 1321:1 3193:1 3480:1 3678:1 3744:1 4235:1 6105:1 7448:1 7449:1 7450:1 7451:1 7452:1 7453:1 7454:1 7455:1 7456:1 7457:1 100002:1 100011:1 #
0.012463700907981347526520821134 27:4 31:1 40:1 581:1 1041:1 1778:1 8498:1 8499:1 100002:1 100042:1 #
0.012463700907981347526520821134 27:3 31:1 40:1 81:1 142:1 431:1 630:1 1378:1 1396:1 8377:1 8378:1 100002:1 100042:1 #
0.012463700907981347526520821134 9:1 11:1 12:1 27:2 31:1 40:1 51:2 105:1 200:1 206:1 225:1 832:1 881:1 930:1 1419:1 1664:1 3895:1 3896:1 3897:1 3898:1 3899:1 3900:1 3901:1 3902:1 3903:1 3904:1 3905:1 100002:1 #
0.012463700907981347526520821134 4:1 25:1 27:4 31:1 40:1 72:1 85:1 172:1 321:1 633:1 1378:1 2626:1 3544:1 7867:1 7998:1 8479:1 8526:1 8527:1 8528:1 8529:1 8530:1 8531:1 100002:1 100042:1 #
-0.012463700907981347526520821134 4:1 7:1 9:1 11:1 12:1 27:1 293:1 439:1 760:1 1203:1 1677:2 3777:1 5789:1 6024:1 11443:1 11444:1 11445:1 100002:1 100042:1 #
-0.0084717271087263734674621673548245 4:1 9:3 11:3 14:2 16:1 24:1 27:4 42:1 56:1 66:1 72:2 112:1 144:1 150:1 167:1 200:1 459:1 571:1 618:1 1227:1 2578:1 2631:1 2970:1 3212:1 3432:1 4111:2 4157:1 11770:1 11771:1 11772:2 11773:1 11774:1 11775:1 11776:1 11777:1 11778:1 11779:1 100002:1 100043:1 #
-0.012463700907981347526520821134 4:1 12:1 27:2 56:1 85:1 112:1 360:1 410:1 430:1 531:1 838:1 898:1 1008:1 2140:1 2598:2 3944:1 4187:1 7640:1 7937:1 7938:1 7939:1 7940:1 100002:1 100043:1 #
0.012463700907981347526520821134 12:2 27:1 95:1 136:1 7102:1 100002:1 100011:1 100012:1 100043:1 #
-0.012463700907981347526520821134 12:1 27:1 403:1 1169:1 2164:1 2165:1 100002:1 100043:1 #
0.012463700907981347526520821134 12:3 27:5 31:1 40:1 45:2 85:1 97:1 204:1 220:1 229:1 327:1 556:1 1249:2 1535:1 1671:1 2243:1 2970:1 3205:1 3239:1 3264:1 3275:1 3276:1 3277:1 3278:1 3279:1 3280:1 3281:1 3282:1 3283:1 3284:1 3285:1 100002:1 #
0.012463700907981347526520821134 2:2 4:2 12:2 13:1 14:1 16:2 17:1 20:1 25:2 27:4 31:1 40:1 51:1 56:2 67:1 85:2 144:2 645:1 898:1 1145:1 1288:1 1319:1 1376:1 1459:1 1837:1 2423:1 2715:1 2748:1 5447:1 6897:1 7179:1 7319:1 8634:1 9190:1 9212:1 9489:1 9592:1 9641:1 9715:1 9730:1 9818:1 9819:1 9820:1 9821:1 9822:1 9823:1 9824:1 9825:1 9826:1 100002:1 100011:1 100012:1 100043:1 #
0.012463700907981347526520821134 12:1 27:5 31:1 40:1 1634:1 2732:1 2733:1 2734:1 2735:1 2736:1 100002:1 #
-0.012463700907981347526520821134 2:1 12:2 20:1 27:3 85:1 112:1 403:1 683:1 1419:1 1837:1 3205:1 3387:1 3388:1 6896:1 9332:1 9384:1 9385:1 9638:1 10397:1 10398:1 100002:1 100043:1 #
0.012463700907981347526520821134 27:2 31:1 40:1 51:1 85:1 112:1 144:1 321:1 1787:1 2655:1 7695:1 8479:1 8486:1 8487:1 8488:1 8489:1 8504:1 100002:1 100042:1 #
-0.010381338566997799777169575463631 4:1 7:1 12:1 52:1 56:1 362:1 363:1 364:1 365:1 100002:1 100041:1 100042:1 100043:1 #
0.0057694118100678750890586421462558 4:1 12:1 14:2 20:1 27:3 85:1 90:1 91:1 93:1 133:1 213:1 515:1 656:1 968:1 1411:1 2005:2 2316:1 3205:1 5313:1 5634:1 5707:1 5894:1 5895:1 5896:1 5897:1 5898:1 5899:1 5900:1 5901:1 5902:1 100002:1 100011:1 100043:1 #
-0.0011422693517091106300831437891929 2:1 4:12 7:7 9:3 10:1 11:3 12:7 14:3 16:4 19:2 20:2 21:1 25:9 27:22 31:5 40:5 42:4 45:2 51:1 52:2 56:9 57:1 61:4 66:3 72:2 73:1 75:2 85:1 92:1 95:3 112:8 141:1 142:1 144:5 153:1 213:1 289:2 319:1 348:2 351:1 383:1 416:1 418:1 422:1 430:2 522:1 531:3 567:2 589:1 599:1 630:2 759:1 838:1 842:2 881:1 897:2 924:1 934:2 954:1 968:1 997:1 1130:1 1225:2 1246:1 1262:1 1350:1 1359:1 1362:1 1441:1 1517:1 1577:1 1616:1 1684:1 1720:1 2270:4 2357:1 2428:1 2443:2 2448:1 2628:1 2758:1 2817:3 2929:1 2956:1 3016:1 3191:1 3448:1 3481:1 3538:1 3590:1 3818:2 3822:4 3826:2 4274:1 4358:1 4519:2 6068:1 6402:1 6640:1 6763:1 6842:3 6935:1 7307:1 7350:3 7354:4 7406:1 8125:2 8558:1 9062:1 9369:1 9764:1 10554:1 10587:1 10999:1 11182:1 11206:1 11378:3 11690:1 11774:2 11832:1 11833:1 11898:7 11899:1 11900:1 11901:1 11902:1 11903:2 11904:2 11905:1 11906:1 11907:1 11908:1 11909:1 11910:1 11911:1 11912:1 11913:1 11914:1 11915:1 11916:1 11917:1 11918:1 11919:1 11920:1 11921:1 11922:1 11923:1 11924:1 11925:1 11926:1 11927:1 11928:1 11929:1 11930:1 11931:1 11932:1 11933:1 11934:1 11935:1 11936:1 11937:1 11938:1 11939:1 100002:1 100012:1 100043:1 #
0.012463700907981347526520821134 9:1 11:1 12:4 27:8 95:1 172:1 213:1 335:1 633:1 1031:1 1497:1 1778:1 3484:1 4616:1 5018:1 5019:1 5020:1 5088:1 5137:1 5144:1 5145:1 5146:1 5147:1 100002:1 100012:1 100043:1 #
-0.0098879429602809314203692991895878 12:2 27:1 45:2 204:1 229:1 351:1 708:1 1130:1 2008:1 2050:1 3676:1 11320:1 11321:2 11322:1 11323:1 11324:1 11325:1 11326:1 11327:1 100002:1 100042:1 100043:1 #
-0.0099830492561127481127014604567194 4:1 7:1 12:2 14:1 17:1 27:2 32:1 45:1 51:1 56:2 59:1 73:1 102:1 150:1 531:1 1257:2 2450:1 6357:1 8023:1 9339:1 10532:1 10533:1 10534:1 10535:1 10536:1 10537:1 100002:1 100042:1 #
0.012463700907981347526520821134 12:3 27:1 51:1 335:1 403:1 645:1 4636:1 4911:1 5148:1 100002:1 100011:1 100012:1 100043:1 #
0.012463700907981347526520821134 2:1 12:1 27:1 90:1 91:1 93:1 506:1 1461:1 1950:1 9487:1 9488:1 100002:1 100011:1 100043:1 #
-0.011646498235259605119606973744339 2:1 4:1 7:1 10:1 12:1 25:1 27:2 85:1 112:1 571:1 915:1 2213:1 2421:1 4033:2 6025:1 11103:1 11104:1 11105:1 11106:1 100002:1 100043:1 #
-0.0084916237589612950792394840959787 2:1 4:2 12:1 14:1 25:1 27:1 42:1 47:1 66:1 85:1 327:1 531:1 633:1 936:1 1004:1 1234:1 2706:1 2932:1 2970:1 3074:1 6338:1 6763:1 8460:1 8463:1 8464:1 8465:1 100002:1 #
-0.012463700907981347526520821134 4:1 12:1 16:1 25:1 27:1 32:1 112:1 1878:1 3832:1 4558:1 7695:1 7783:1 7784:1 100002:1 100042:1 100043:1 #
-0.012463700907981347526520821134 12:1 17:1 19:1 25:1 27:1 37:1 42:1 95:1 204:2 206:3 319:1 411:1 439:1 751:1 1010:1 3220:1 5652:1 5973:1 5980:1 5981:1 5982:1 6014:1 6015:1 100002:1 100012:1 100043:1 #
-0.01167232003067617679414880171862 12:1 14:1 25:1 66:1 388:1 535:1 655:1 1992:1 5404:1 5405:1 5406:1 5407:1 100002:1 100041:1 100043:1 #
0.012463700907981347526520821134 12:2 27:4 31:1 36:1 40:1 56:1 95:1 612:1 9154:1 9903:1 9904:1 9905:1 10250:1 10251:1 100002:1 100012:1 100043:1 #
0.0093383229253881823439531473241004 4:4 9:1 12:4 20:1 27:6 32:1 33:1 42:1 56:1 72:1 85:1 101:1 144:1 150:1 264:1 265:1 405:1 645:1 881:1 963:1 1029:1 1318:1 1362:1 2440:1 3007:1 3509:1 7218:1 7629:1 9147:1 9154:1 9169:1 9170:1 9200:1 10280:1 10307:1 10314:1 10315:1 10316:1 10317:1 10318:1 10319:1 100002:1 100011:1 100012:1 100043:1 #
0.012463700907981347526520821134 4:1 25:1 27:3 31:1 40:1 85:1 95:1 144:1 209:1 370:1 1010:1 1778:1 1931:1 2482:1 3205:1 8473:1 8474:1 100002:1 100012:1 #
0.0026171140688035160817848101544314 4:2 7:1 9:1 11:1 12:4 14:2 16:1 17:1 19:4 20:1 25:5 27:7 31:1 37:1 40:1 42:1 47:1 51:2 56:2 66:1 75:2 90:1 91:1 92:5 93:1 112:2 113:1 144:1 150:1 167:1 284:1 295:1 339:1 348:1 388:1 411:1 432:1 531:2 936:1 1018:1 1221:1 1252:1 1392:1 1690:1 2160:1 2669:1 2979:1 3386:1 3448:1 3625:1 3855:1 4014:1 4378:1 4519:1 4970:1 6203:1 7359:2 7660:1 7665:1 7697:1 7816:1 7945:3 7993:1 8108:3 8109:2 8110:1 8111:1 8112:1 8113:1 8114:1 8115:1 8116:1 8117:1 8118:1 8119:1 8120:1 8121:1 8122:1 8123:1 8124:1 8125:1 8126:1 8127:1 8128:1 8129:1 8130:1 100002:1 100011:1 #
-0.009941723748351477540907694674388 2:1 4:1 12:2 19:1 25:1 27:3 56:1 65:1 72:1 75:1 697:1 945:1 2062:1 2818:1 2819:1 3053:1 3810:1 4084:1 4515:1 5379:1 10803:1 12294:1 12295:1 12296:1 12297:1 12298:1 12299:1 12300:1 100002:1 100042:1 100043:1 #
-0.009737190227943171016988799237879 4:1 9:2 11:2 12:1 27:1 56:1 85:1 418:1 571:2 622:1 967:1 2639:1 2900:1 6001:1 6947:1 12156:1 12157:1 100002:1 100043:1 #
-0.012463700907981347526520821134 12:1 16:1 25:2 27:1 56:2 85:1 112:3 416:1 440:1 1010:1 1687:1 1950:1 2370:1 2782:1 3496:1 7567:1 12023:1 12024:1 100002:1 100043:1 #
0.00458416576632795884360671578861 2:4 4:4 12:2 20:1 25:1 27:3 31:1 37:1 40:1 51:1 56:1 66:1 85:3 90:1 91:1 93:1 95:1 102:1 144:1 432:2 443:1 553:1 630:2 650:1 842:1 896:1 897:1 898:1 1387:1 1419:1 1935:1 2116:3 2176:1 2177:1 2213:1 2420:1 2537:1 3148:1 6533:1 6818:1 9154:1 9332:1 9654:1 9685:1 9713:1 9734:1 10192:1 10206:1 10207:1 10208:1 10209:1 10210:1 10211:1 10212:1 10213:1 10214:1 100002:1 100011:1 100012:1 100043:1 #
0.011387350245438881968240707465156 2:1 4:1 12:1 19:1 27:6 59:1 68:1 200:1 206:1 214:1 256:1 571:1 672:1 884:1 1650:1 2034:1 2035:1 5420:1 5441:1 5891:1 5892:1 5893:1 100002:1 100011:1 100043:1 #
-0.0097768314866735119700313916268897 12:2 27:1 484:1 6415:1 6896:1 9638:1 9687:1 10117:1 100002:1 100043:1 #
0.012463700907981347526520821134 4:3 9:1 11:1 12:1 14:1 25:2 27:4 45:1 56:1 66:1 85:1 90:1 91:1 93:1 112:1 121:1 177:1 178:1 179:1 180:1 181:1 182:1 183:1 184:1 185:1 186:1 187:1 188:1 189:1 100002:1 100011:1 100043:1 #
0.0091399408492290491051734946381657 9:1 11:1 12:2 27:4 31:1 40:1 45:1 51:1 80:2 95:1 214:1 225:1 243:1 403:1 556:1 723:1 891:1 1786:1 2245:1 2418:1 3239:1 3263:1 3264:1 3265:1 3266:1 3267:1 3268:1 3269:1 3270:1 3271:1 100002:1 100012:1 #
-0.0063774305232089968653585998481503 4:1 9:1 11:1 12:2 14:2 19:1 20:1 25:2 27:5 37:1 85:2 112:2 150:1 156:1 334:1 934:1 1092:1 1124:1 1171:1 1391:1 1555:1 2598:1 2987:1 4371:1 5860:1 6914:1 7820:1 7924:1 8125:1 9763:1 9964:1 10944:1 11583:1 11602:1 11603:1 11604:1 11605:1 11606:1 11607:1 11608:1 11609:1 11610:1 11611:1 100002:1 100043:1 #
-0.011127126536031197931442271453761 4:1 9:1 11:1 56:1 740:1 1082:1 11614:1 11616:1 11617:1 11618:1 100002:1 100042:1 100043:1 #
-0.0069565075236192267654766752116302 4:2 12:1 25:1 56:1 112:1 418:1 1157:1 1605:1 2421:1 4529:1 6001:1 8500:1 8501:1 100002:1 100041:1 100043:1 #
0.011550527961401522297757438195731 2:1 12:1 27:1 90:1 91:1 93:1 506:1 1461:1 2878:1 9487:1 9488:1 100002:1 100011:1 100043:1 #
-0.0095907968310439319775673183698927 4:1 9:1 11:1 314:1 740:1 1082:1 11619:1 11620:1 100002:1 100042:1 100043:1 #
0.0043840307227669640319223098856583 12:1 27:4 645:1 1060:1 1061:1 1786:1 1900:1 2261:2 4615:1 4702:1 4708:1 4709:1 4710:2 5134:1 100002:1 100012:1 #
-0.0028042142924612108167981006090486 2:3 4:2 7:1 12:1 14:1 16:2 17:3 27:8 31:1 37:1 40:1 44:1 51:1 56:2 77:2 150:1 153:1 430:2 522:1 531:2 838:1 897:1 1283:1 1319:1 1350:3 1459:2 1925:1 2358:1 2937:1 3779:1 4086:1 5868:1 6138:1 6148:1 6158:1 6162:1 6166:3 6172:1 6188:1 6189:1 6197:1 6533:1 6534:1 6535:1 6536:1 6537:1 6538:1 6539:1 6540:1 6541:1 6542:1 6543:1 6544:1 6545:1 6546:2 6547:1 6548:1 6549:1 6550:1 6551:1 6552:1 6553:1 6554:1 6555:2 6556:1 6557:1 6558:1 6559:1 6560:1 6561:1 6562:1 6563:1 6564:1 100002:1 100042:1 100043:1 #
-0.0043454493240798934897139993438486 4:1 9:1 12:1 13:2 17:3 27:3 31:1 32:1 37:1 40:1 45:1 51:1 56:1 144:1 153:1 348:2 760:1 881:1 915:1 1026:1 1060:1 1061:1 1249:1 1299:1 1459:2 2450:1 3388:1 4065:1 6213:1 6368:2 6953:1 8026:1 11168:1 11900:1 12034:1 12035:1 12036:1 12037:1 12038:1 12039:1 100002:1 100043:1 #
-0.012463700907981347526520821134 4:1 12:1 25:1 27:1 144:1 439:1 1770:1 2878:1 5493:1 5789:1 5790:1 100002:1 100043:1 #
0.012463700907981347526520821134 12:5 27:1 95:1 652:1 4637:1 4904:1 4905:1 4961:1 4986:1 100002:1 100011:1 100012:1 #
0.0040805383353840580726301645597687 4:2 9:1 11:1 12:4 14:1 16:1 25:1 27:2 28:1 31:1 37:1 40:1 51:1 56:2 85:1 90:1 91:1 93:1 135:1 167:1 403:1 443:1 622:1 834:1 897:1 934:1 1060:1 1061:1 1161:1 1234:1 1257:1 1362:1 1535:1 1720:1 2443:1 3544:1 3838:1 4358:1 6328:2 7405:1 8461:1 10393:3 11710:1 11711:1 11712:1 11713:1 11714:1 100002:1 100011:1 #
-0.0062053758681437105187983505061311 4:1 9:1 27:2 66:1 85:2 144:1 167:1 213:1 443:1 571:1 909:1 974:1 1564:1 1837:1 2273:1 3432:1 12050:1 12152:1 12153:1 12154:1 12155:1 100002:1 100042:1 100043:1 #
-0.0059006783260490587583735333510049 4:2 12:2 14:1 19:1 20:1 27:1 47:1 75:1 319:1 1441:1 1535:1 1684:2 3002:1 7282:1 7283:1 7284:1 7285:1 7286:1 100002:1 100042:1 #
-0.002351212613960683601999068770283 4:2 12:2 27:2 51:1 56:1 85:1 112:1 133:1 484:1 2310:1 2316:1 3385:1 6006:1 6831:1 6896:1 6897:1 9199:1 9356:1 9937:1 9939:1 10268:1 10269:1 10270:1 100002:1 100043:1 #
-0.0068920576438069001967701154853785 12:2 27:1 484:1 6415:1 6896:1 9638:1 9687:1 9732:1 100002:1 100043:1 #
0.012463700907981347526520821134 12:3 27:3 51:1 335:1 645:1 1874:1 4636:1 4892:1 5203:1 5204:1 5205:1 100002:1 100012:1 #
0.011953149036850171937906850416766 12:4 27:1 645:1 4613:1 4614:1 5046:1 100002:1 100011:1 100012:1 #
-0.00200251315573270628062063636321 4:2 7:1 12:1 14:1 25:2 27:2 531:1 2443:1 3531:1 8048:3 8203:3 8533:1 8534:1 8535:1 8536:1 100002:1 100042:1 100043:1 #
0.012463700907981347526520821134 12:2 27:1 56:1 90:1 91:1 93:1 174:1 175:1 407:1 737:1 738:1 100002:1 100011:1 100042:1 100043:1 #
-0.001286323383946997699761594091683 2:2 4:1 12:2 20:1 27:2 51:1 112:1 403:1 1203:1 1419:1 1837:1 1950:1 4593:1 6896:1 9332:2 9384:1 9385:1 9638:1 9784:1 10286:1 100002:1 100043:1 #
-0.0048657249004290178961973367677274 2:1 4:1 12:1 14:2 27:2 37:1 45:1 56:1 112:1 150:1 529:1 2160:1 2816:1 2831:1 2832:1 2833:1 2834:1 2835:1 2836:1 2837:1 2838:1 100002:1 100043:1 #
-0.0035526763535575767161134308480541 4:1 10:1 12:1 20:1 27:1 42:1 56:1 2335:1 3385:1 3473:1 4374:1 7912:1 11268:1 11270:1 11271:1 11272:1 11273:1 11274:1 11275:1 11276:1 100002:1 100043:1 #
-0.0039034343342478124844197040488325 4:1 7:1 12:1 25:1 27:1 61:1 92:1 443:1 1062:1 1234:1 1534:1 1992:1 2891:1 4065:1 5904:1 5905:1 5906:1 100002:1 100042:1 100043:1 #
-0.0016871958636159433558843190326115 2:1 4:2 9:1 11:1 12:1 25:1 27:2 33:1 51:1 85:1 111:1 144:1 295:1 348:1 897:1 1317:1 1321:1 1366:1 4054:1 4281:1 4592:1 8634:1 10813:1 10814:1 10815:1 10816:1 10817:1 10818:1 100002:1 100042:1 100043:1 #
-0.0041094849706783684664679334730408 2:1 9:1 11:1 16:1 314:1 473:1 740:1 1082:1 11614:1 11615:1 100002:1 100042:1 100043:1 #
-0.00070797436338874010063743069665065 4:1 12:1 14:1 20:1 27:1 42:1 112:1 144:2 388:1 429:1 432:1 1169:1 1249:1 1317:1 1320:1 2554:1 2695:1 2715:1 3076:1 3502:1 3829:1 4274:1 4357:1 4365:1 4442:1 4443:1 4444:1 4445:1 4446:1 4447:1 4448:1 100002:1 100042:1 100043:1 #
-0.0006854669777487925469428020619489 2:1 4:1 7:2 16:1 20:1 25:4 27:3 56:1 66:1 72:1 112:4 167:1 1158:1 1249:1 1317:1 1388:1 2608:1 2828:1 2966:1 3844:1 3975:1 4091:1 4284:1 4311:1 4331:1 4504:1 4505:1 4506:1 4507:2 4508:1 4509:1 4510:1 4511:1 4512:1 4513:1 4514:1 100002:1 100042:1 100043:1 #
0.0024183484990767402898759197427125 2:1 4:1 12:1 27:6 57:1 144:1 410:1 411:1 593:1 618:1 1060:1 1061:1 2316:2 3956:1 5313:1 5619:1 5620:1 5621:1 5622:1 5623:1 5624:1 5625:1 5626:1 100002:1 100011:1 100043:1 #
-0.0012192383190059170438440672157299 2:1 4:1 9:1 11:1 12:1 16:1 25:1 27:2 56:1 81:1 85:1 314:1 416:1 439:1 516:1 755:1 1677:2 2069:1 2739:1 2778:1 3566:1 5325:1 5789:1 10455:1 11393:1 11394:1 11395:1 100002:1 100042:1 #
0.00011039613743925823490660276249287 2:2 4:9 7:4 9:2 12:3 14:5 16:1 25:6 27:19 37:2 42:2 45:1 47:4 51:2 56:3 65:1 72:1 85:1 95:2 101:2 112:2 124:1 133:1 184:2 213:2 284:1 295:1 322:1 376:1 389:1 410:1 439:1 443:1 535:2 571:1 607:1 919:2 968:2 982:1 1050:1 1051:1 1146:1 1152:1 1388:2 1470:1 1570:1 1589:1 1637:2 2201:1 2312:1 2648:1 3133:1 3634:1 3986:1 4527:1 6269:1 6422:1 6714:1 6754:1 6758:1 6769:1 6789:1 6854:1 6859:1 6894:1 6923:1 6998:1 7193:1 7194:1 7195:1 7196:1 7197:1 7198:2 7199:1 7200:2 7201:2 7202:1 7203:1 7204:1 7205:1 7206:1 7207:1 7208:1 7209:1 7210:1 7211:1 7212:1 7213:1 7214:1 7215:1 100002:1 100011:1 100012:1 #
0.001228930329090133222180725169892 9:2 11:1 12:4 27:2 32:1 95:2 174:1 2847:1 3035:1 5976:1 6743:1 6754:1 7045:1 7046:1 100002:1 100011:1 100012:1 #
0.0010768908912635564989468406338347 4:2 7:1 12:1 17:1 25:2 27:3 31:1 37:1 40:1 90:1 91:1 93:1 117:1 133:1 486:1 1049:1 1616:1 7480:1 7596:1 9154:1 9235:1 9476:1 9873:1 9895:1 9896:1 100002:1 100011:1 100043:1 #
-0.00071951836159384779164488454838988 2:1 4:1 12:2 19:1 27:1 32:1 37:1 56:1 85:1 150:1 169:1 365:1 531:1 1173:1 1470:1 3671:1 3672:1 3673:1 3674:1 3675:1 3676:1 3677:1 100002:1 100042:1 #
0.00034239612168902866518038763388176 12:2 27:3 95:2 403:1 484:1 1087:1 2890:1 2891:1 2901:1 3035:1 100002:1 100011:1 100012:1 100043:1 #
-0.00018502689856691504851661511654726 9:1 11:1 12:2 204:2 206:1 229:1 376:1 497:1 713:2 1671:2 2050:1 2162:1 2307:1 4285:1 11328:1 11329:2 11330:1 11331:1 11332:1 11333:1 11334:1 11335:1 11336:1 100002:1 100043:1 #
0.00037364591333560368512090033021877 12:3 27:1 95:1 136:1 1411:1 100002:1 100011:1 100012:1 #
-4.0099766917107487133441895421626e-05 4:1 7:1 12:1 27:1 56:1 85:1 144:1 630:1 1182:1 1225:1 3509:1 6033:1 8844:1 9604:1 10020:1 10088:1 10089:1 10090:1 100002:1 100042:1 100043:1 #
