SVM-light Version V6.02
0 # kernel type
3 # kernel parameter -d 
1 # kernel parameter -g 
1 # kernel parameter -s 
1 # kernel parameter -r 
empty# kernel parameter -u 
10022 # highest feature index 
162 # number of training documents 
93 # number of support vectors plus 1 
-0.23770303 # threshold b, each following line is a SV (starting with alpha*y)
-0.010562212314315946176668248313035 1:3 3:5 6:1 8:1 10:1 11:7 12:1 14:2 23:3 36:1 41:1 45:1 46:1 88:1 135:2 141:1 142:1 143:1 144:2 145:1 146:1 147:1 148:1 149:1 150:1 151:1 152:1 153:1 154:1 155:1 156:1 157:1 158:1 159:1 160:1 161:1 162:1 163:1 164:1 165:1 166:1 167:1 168:1 169:1 170:1 171:1 10001:1 10021:1 10022:1 #
-0.010562212314315946176668248313035 1:1 12:1 14:1 23:1 30:1 35:1 46:1 119:2 121:3 151:1 210:1 211:1 212:1 213:1 214:1 215:1 216:1 217:1 218:1 219:1 220:1 221:1 222:1 10001:1 10006:1 10008:1 10020:1 10022:1 #
-0.002719223792478192222588084803192 1:2 3:1 6:2 8:2 10:2 11:8 12:6 14:1 23:8 25:3 27:3 30:1 36:1 41:3 45:1 53:4 88:1 138:1 144:1 157:3 181:2 182:2 210:1 212:1 256:1 310:1 311:1 312:1 313:1 314:1 315:1 316:1 317:1 318:1 319:1 320:1 321:1 322:1 323:1 324:1 325:1 326:1 327:1 328:1 329:1 330:1 331:1 332:1 333:1 334:1 335:1 336:1 337:1 338:1 339:1 340:1 341:2 342:2 343:1 344:1 345:1 346:1 347:1 348:1 349:1 350:1 351:1 352:1 353:1 354:1 355:1 356:1 357:1 358:1 359:1 360:1 361:1 362:1 363:1 364:1 365:2 366:1 367:1 10001:1 10006:1 #
-0.010562212314315946176668248313035 1:1 23:3 25:1 27:1 44:1 119:1 126:1 349:1 383:1 384:1 385:1 386:1 387:1 388:1 389:1 390:1 391:1 392:1 393:1 394:1 395:1 396:1 397:1 10001:1 10008:1 10022:1 #
-0.010562212314315946176668248313035 1:1 23:2 25:1 26:1 27:1 212:1 398:1 399:1 400:1 401:1 402:1 403:1 404:1 405:1 406:1 407:1 408:1 409:1 410:2 411:1 10001:1 #
0.010562212314315946176668248313035 1:6 2:1 3:5 4:1 5:1 6:3 7:1 8:4 9:1 10:3 11:9 12:6 13:1 14:3 15:1 16:2 17:1 18:1 19:1 20:1 21:2 22:1 23:6 24:1 25:2 26:2 27:1 28:1 29:1 30:2 31:1 32:1 33:1 34:1 35:2 36:3 37:1 38:1 39:1 40:1 41:1 42:1 43:2 44:1 45:1 46:1 47:1 48:1 49:1 50:1 51:1 52:1 53:1 54:1 55:2 56:1 57:1 58:1 59:1 60:1 61:2 62:1 63:1 64:1 65:1 66:1 67:1 68:1 69:1 70:1 71:2 72:1 73:1 74:1 75:1 76:1 77:1 78:1 79:1 10001:1 10006:1 10008:1 10022:1 #
0.0068770244970823481839294899486958 1:2 2:1 5:1 8:1 12:1 23:6 25:1 27:1 76:1 98:1 151:1 181:1 432:1 855:1 886:1 1875:1 1876:1 1877:1 1878:1 1879:1 1880:1 1881:1 1882:1 1883:1 1884:1 1885:1 10001:1 10008:1 10022:1 #
0.0066570864641985819099012644528557 1:2 12:1 18:1 23:3 83:1 139:1 381:1 452:1 582:1 615:1 1352:1 1353:1 10001:1 10006:1 10008:1 10014:1 10022:1 #
0.0079838746046035167364118834143483 1:2 6:1 10:1 11:3 12:1 14:1 23:4 30:1 83:1 381:1 615:1 668:1 669:1 681:1 1536:1 1537:1 2203:1 2204:1 2205:1 2206:1 2207:1 10001:1 10006:1 10022:1 #
0.0051333011368351168582369048465353 1:2 5:1 6:1 8:1 10:1 11:1 23:7 25:2 27:2 30:1 36:1 41:1 53:1 126:1 303:2 668:1 669:1 681:1 793:1 1085:1 1086:1 1087:1 1254:1 1590:1 1594:2 1595:1 1735:1 1786:1 1787:1 1928:1 2091:1 2092:1 2093:1 2094:1 2102:1 2104:1 2148:1 2149:1 2150:1 2151:1 2152:1 2153:1 2154:1 2155:1 2156:1 2157:1 2158:1 10001:1 10006:1 10022:1 #
-0.010562212314315946176668248313035 1:4 3:1 6:1 8:3 10:1 11:2 12:8 14:1 23:12 41:4 53:2 55:1 92:1 148:1 157:1 184:2 212:1 234:1 235:1 352:1 396:1 550:1 703:1 876:1 961:1 1314:1 1488:1 1714:1 1744:1 2031:1 2032:1 2033:1 2034:1 2035:1 2036:1 2037:1 2038:1 2039:1 2040:1 2041:1 2042:1 2043:1 2044:1 2045:1 2046:1 2047:1 2048:1 2049:1 2050:1 2051:1 2052:1 2053:1 2054:1 2055:1 2056:1 2057:1 2058:1 2059:1 2060:1 2061:1 2062:1 2063:1 2064:1 10001:1 10021:1 10022:1 #
-0.010562212314315946176668248313035 1:1 3:1 8:2 11:5 12:3 18:1 23:9 30:2 44:1 61:2 88:1 148:3 210:1 212:1 397:1 449:1 450:1 572:1 1070:1 1182:1 1183:1 1184:1 1185:1 1186:1 1187:1 1188:1 1189:1 1190:1 1191:1 1192:1 1193:1 1194:1 1195:1 1196:1 1197:1 1198:2 1199:1 1200:1 1201:1 1202:1 1203:1 1204:1 1205:1 1206:1 1207:1 1208:1 1209:1 10001:1 10006:1 10008:1 10014:1 10022:1 #
-0.0083798821835077991898588223307343 1:4 3:3 11:4 12:3 14:2 23:11 25:3 27:3 41:2 45:1 53:5 76:1 88:1 98:1 148:1 151:1 165:1 179:2 181:1 234:1 244:2 343:1 404:1 425:1 626:1 694:1 703:1 704:1 894:1 920:1 921:1 951:1 983:2 1000:1 1201:1 1254:1 1290:1 1773:1 1843:1 2356:1 2377:2 2427:1 2428:1 2429:1 2430:1 2431:1 2432:1 2433:2 2434:1 2435:1 2436:1 2437:1 2438:1 2439:1 2440:1 2441:1 2442:1 2443:1 2444:1 2445:1 2446:1 2447:1 2448:1 2449:1 2450:1 2451:1 2452:1 2453:1 2454:1 2455:1 2456:1 2457:1 2458:1 2459:1 2460:1 2461:1 2462:1 10001:1 10022:1 #
-0.010562212314315946176668248313035 1:3 3:2 5:1 6:4 8:2 10:4 11:3 12:4 14:2 23:8 35:1 36:2 44:1 53:2 55:1 151:1 157:2 165:1 210:2 213:1 286:1 357:1 422:2 428:1 429:1 672:1 687:1 688:1 689:2 690:1 691:1 692:1 693:1 694:1 695:1 696:1 697:1 698:2 699:1 700:1 701:1 702:2 703:1 704:2 705:1 706:1 707:1 708:2 709:1 710:1 711:1 712:1 713:1 714:1 715:2 716:1 717:1 10001:1 10008:1 10022:1 #
-0.010562212314315946176668248313035 1:4 23:6 25:1 27:1 44:1 113:1 115:1 119:1 121:1 131:1 139:1 349:1 399:1 465:1 909:1 1043:1 1044:1 1045:1 1046:1 1047:1 1048:1 1049:1 1050:1 1051:1 1052:1 1053:1 1054:1 1055:1 1056:1 1057:1 1058:1 1059:1 1060:1 1061:1 1062:1 10001:1 10006:1 #
0.010562212314315946176668248313035 1:1 2:1 11:1 23:1 41:1 53:1 148:2 157:1 293:1 294:1 295:1 296:1 297:1 298:1 299:1 300:1 301:1 302:1 303:1 10001:1 10008:1 10020:1 10022:1 #
0.010562212314315946176668248313035 23:1 79:1 1444:1 1453:1 2017:1 10001:1 10008:1 10019:1 10022:1 #
0.010562212314315946176668248313035 1:1 23:1 41:1 93:1 189:1 190:1 191:1 192:1 10001:1 10008:1 10020:1 10022:1 #
0.010562212314315946176668248313035 1:1 2:1 14:1 23:1 44:1 190:1 359:1 360:1 600:1 2519:1 2520:1 2521:1 10001:1 10008:1 10020:1 10022:1 #
-0.010562212314315946176668248313035 1:3 23:2 95:1 583:1 610:1 2146:1 2147:1 10001:1 #
-0.010562212314315946176668248313035 1:2 3:1 6:1 10:1 18:1 23:1 25:1 27:1 30:1 35:1 36:1 76:1 115:1 131:1 165:1 397:1 1001:1 1751:1 1752:1 1753:1 1754:1 1755:1 1756:1 1757:1 1758:1 1759:1 1760:1 1761:1 1762:1 1763:1 10001:1 10006:1 10008:1 10022:1 #
0.0018559132166192093826850850746268 1:4 2:1 3:3 5:2 6:1 8:2 10:1 11:15 12:4 14:2 23:20 25:4 27:4 30:3 36:5 41:1 44:4 45:1 53:2 55:1 76:3 119:3 121:3 126:1 151:2 157:1 163:1 165:1 179:1 184:2 210:2 234:1 258:1 263:1 332:1 346:1 349:1 366:1 430:1 432:3 449:1 450:1 538:2 559:1 595:1 626:1 638:1 700:1 768:2 780:3 811:1 812:1 813:1 814:1 815:1 816:2 817:1 818:1 819:1 820:2 821:1 822:1 823:1 824:1 825:2 826:1 827:1 828:1 829:1 830:2 831:1 832:1 833:1 834:1 835:1 836:1 837:1 838:1 839:1 840:1 841:1 842:1 843:1 844:1 845:1 846:1 847:1 848:1 849:4 850:2 851:1 852:1 853:1 854:1 855:1 856:1 857:1 858:1 859:1 860:1 861:1 862:1 863:1 864:1 865:1 866:1 867:1 868:1 869:1 870:1 871:1 872:1 873:1 874:1 875:1 876:1 877:1 878:1 879:1 880:1 881:1 882:1 883:1 884:1 885:1 886:1 887:1 888:1 889:1 10001:1 10006:1 10008:1 10014:1 #
0.0025161936392345315288698870404005 1:3 3:4 5:2 6:1 8:4 10:1 11:11 12:10 14:2 18:2 23:21 30:1 34:1 35:3 44:4 53:2 76:3 88:1 115:1 131:1 148:2 157:1 165:1 176:1 190:1 244:1 273:1 321:1 436:1 597:2 599:2 603:1 622:1 902:1 903:1 919:1 1106:1 1339:1 1376:1 1554:1 1558:1 1560:1 1620:1 1799:1 1964:2 1965:2 1966:1 1967:1 1968:1 1969:1 1970:1 1971:1 1972:1 1973:1 1974:1 1975:1 1976:1 1977:1 1978:1 1979:1 1980:1 1981:2 1982:2 1983:1 1984:1 1985:1 1986:1 1987:1 1988:1 1989:1 1990:1 1991:1 1992:1 1993:1 1994:1 1995:1 1996:1 1997:1 1998:1 1999:1 2000:1 2001:1 2002:1 2003:1 2004:1 2005:1 2006:1 2007:1 2008:2 2009:1 2010:1 2011:1 2012:1 2013:1 2014:1 2015:1 2016:1 10001:1 10006:1 10008:1 #
0.0058623094550080325632057665075081 1:3 6:1 8:1 10:1 11:1 12:1 23:5 25:1 27:1 30:1 44:1 88:1 126:1 206:1 207:1 208:2 219:1 234:1 532:1 668:1 669:1 681:1 1118:1 1380:2 1381:1 1382:1 1383:1 1384:1 1385:1 1386:1 1387:1 1388:1 1389:1 1390:1 1391:1 1392:1 1393:1 1394:1 1395:1 1396:1 1397:1 1398:1 1399:1 10001:1 10006:1 10014:1 10022:1 #
-0.010562212314315946176668248313035 1:1 23:7 157:1 184:2 190:1 204:2 257:1 299:1 525:2 527:2 556:1 1039:1 1400:1 1401:1 10001:1 10022:1 #
-0.010562212314315946176668248313035 1:2 3:2 8:2 11:5 12:4 14:2 23:6 25:2 27:2 35:1 36:3 44:1 55:1 61:1 76:2 148:3 163:1 212:1 257:1 258:2 622:1 623:1 624:1 625:1 626:1 627:1 628:1 629:1 630:1 631:1 632:1 633:1 634:2 635:1 636:1 637:1 638:1 639:1 640:1 641:1 642:1 643:1 644:1 645:1 646:1 647:1 648:1 649:1 650:1 651:1 652:1 653:1 654:1 655:1 656:1 657:1 658:1 659:1 660:1 10001:1 10008:1 10021:1 10022:1 #
-0.010562212314315946176668248313035 1:4 3:1 11:3 12:2 23:5 25:1 27:1 35:1 36:3 44:1 45:2 48:1 61:1 76:1 190:1 210:2 412:1 557:1 558:1 559:1 560:1 561:1 562:1 563:1 564:1 565:1 566:1 567:1 568:1 569:1 570:1 571:1 572:1 573:1 574:1 575:1 576:1 577:1 578:1 579:1 580:1 581:1 582:1 583:1 584:1 585:1 586:1 587:1 10001:1 10022:1 #
0.010562212314315946176668248313035 1:1 369:1 370:1 2187:1 10001:1 10008:1 10019:1 10022:1 #
0.010562212314315946176668248313035 1:1 23:1 26:1 30:1 223:1 224:1 10001:1 10006:1 10014:1 10020:1 10022:1 #
0.010562212314315946176668248313035 1:2 23:1 78:1 139:1 1607:1 10001:1 10006:1 10008:1 10022:1 #
0.010562212314315946176668248313035 1:2 23:1 78:1 139:1 377:1 10001:1 10006:1 10008:1 10022:1 #
0.010562212314315946176668248313035 1:2 3:2 8:1 11:6 12:2 14:3 23:3 35:1 36:2 41:1 148:1 208:1 257:1 273:1 300:1 703:1 899:1 1064:1 1083:2 1488:1 1559:1 1870:1 2276:2 2277:1 2278:1 2279:1 2280:1 2281:1 2282:1 2283:1 2284:1 2285:1 2286:1 2287:1 2288:1 2289:1 2290:1 2291:1 2292:1 2293:1 2294:1 2295:1 10001:1 10008:1 10022:1 #
-0.010562212314315946176668248313035 1:1 12:2 730:1 731:1 732:1 733:1 10001:1 10008:1 10019:1 10021:1 10022:1 #
-0.010562212314315946176668248313035 1:2 5:1 23:1 26:1 151:1 212:1 694:1 886:1 1442:1 1494:1 1495:1 10001:1 10022:1 #
0.010562212314315946176668248313035 1:3 3:1 11:4 12:1 23:4 36:1 41:1 44:1 76:1 83:1 93:1 302:1 381:1 409:1 559:1 615:1 876:1 976:1 977:1 978:1 979:1 980:1 981:1 982:1 983:1 984:1 985:1 986:1 987:1 988:1 989:1 990:1 991:1 992:1 10001:1 10008:1 10022:1 #
-0.010562212314315946176668248313035 1:1 8:2 23:5 190:1 382:1 753:1 1058:1 2130:1 2131:1 2132:1 2133:1 10001:1 10014:1 10022:1 #
-0.010562212314315946176668248313035 1:3 11:2 12:1 18:1 23:3 35:1 41:3 44:2 190:1 215:1 583:1 584:1 585:1 586:1 896:1 898:1 1001:1 1261:1 1335:1 1737:2 1796:1 2056:1 2122:1 2123:1 2124:1 2125:1 2126:1 2127:1 2128:1 2129:1 10001:1 10022:1 #
-0.010562212314315946176668248313035 1:1 3:3 5:1 8:2 11:3 12:1 18:1 23:3 25:1 27:1 35:1 36:1 41:1 148:1 177:1 253:1 298:1 332:1 920:1 983:1 1085:1 1086:1 1559:1 2087:1 2088:1 2089:1 2090:1 2091:1 2092:1 2093:1 2094:1 2095:1 2096:1 2097:2 2098:1 2099:1 2100:1 2101:1 2102:1 2103:1 2104:1 2105:1 2106:1 2107:1 2108:1 2109:1 2110:1 2111:1 10001:1 10008:1 10014:1 10022:1 #
0.010562212314315946176668248313035 1:4 5:1 6:1 8:2 10:1 11:2 12:1 23:2 25:1 27:1 35:1 44:1 53:1 61:1 115:1 131:1 148:1 258:1 397:1 412:1 418:1 554:1 687:1 703:1 797:1 923:1 1001:1 1003:1 1122:1 1777:1 1881:1 1953:1 2075:1 2076:1 2077:3 2078:2 2079:1 2080:1 2081:1 2082:1 2083:1 2084:1 2085:1 2086:1 10001:1 10008:1 10022:1 #
0.010562212314315946176668248313035 1:2 11:1 12:2 23:2 83:1 378:1 380:1 381:1 678:1 1286:1 1287:1 10001:1 10008:1 10021:1 10022:1 #
0.010562212314315946176668248313035 1:2 3:1 5:1 8:1 11:2 12:2 14:1 23:2 25:1 27:1 30:1 41:1 46:1 53:1 76:1 148:1 204:1 369:1 370:2 396:1 568:1 748:1 902:1 931:1 1063:1 1332:1 1453:1 1796:1 1830:1 2415:1 2416:1 2417:1 2418:1 2419:1 2420:1 2421:1 2422:1 2423:1 2424:1 2425:1 2426:1 10001:1 10006:1 10008:1 #
-0.010562212314315946176668248313035 1:2 11:2 18:1 23:1 46:1 53:1 151:1 225:1 418:1 559:1 626:1 1174:1 1175:1 1176:1 1177:2 1178:1 1179:1 1180:1 10001:1 10021:1 10022:1 #
0.0058098230082339061622342946122899 1:5 3:1 12:1 23:9 25:5 27:5 53:1 139:1 148:1 190:1 204:2 212:2 324:1 371:1 382:1 491:1 605:1 610:1 1460:1 1545:1 1546:1 1547:1 1548:1 1549:1 1550:1 1551:1 1552:1 1553:1 1554:1 1555:1 1556:1 1557:1 1558:5 1559:1 1560:1 1561:1 1562:1 1563:1 1564:1 1565:1 1566:1 1567:1 1568:1 1569:1 1570:1 10001:1 10006:1 10008:1 10014:1 10022:1 #
0.0022687216775029318133194422557608 1:2 3:2 6:1 8:1 10:1 11:2 12:2 18:1 23:9 30:1 35:1 36:1 44:1 45:1 69:1 83:1 88:1 152:1 157:2 160:1 210:1 225:1 251:2 256:1 283:1 320:1 424:1 444:1 1128:1 1802:1 1823:1 2019:1 2159:1 2160:1 2161:1 2162:3 2163:1 2164:1 2165:1 2166:1 2167:1 2168:1 2169:1 2170:1 2171:1 2172:1 2173:1 2174:1 2175:1 2176:2 2177:1 2178:1 2179:1 2180:1 2181:1 2182:1 2183:1 2184:1 2185:1 10001:1 10006:1 10008:1 #
-0.0049399520822534306874196374792518 1:2 3:1 6:2 8:4 10:3 11:7 12:7 23:2 25:1 27:1 30:1 36:1 44:2 46:1 53:1 76:1 88:1 98:1 165:1 210:1 258:1 318:2 357:1 600:1 815:1 920:1 922:1 958:1 1070:1 1216:1 1288:1 1289:1 1290:2 1291:1 1292:1 1293:1 1294:2 1295:1 1296:1 1297:1 1298:1 1299:1 1300:1 1301:1 1302:1 1303:1 1304:1 1305:1 1306:1 1307:1 1308:1 1309:1 1310:1 1311:1 1312:1 1313:1 10001:1 10006:1 10008:1 10022:1 #
-0.010562212314315946176668248313035 1:3 3:1 5:1 8:1 11:6 12:4 23:3 36:1 45:1 61:1 76:2 157:1 165:1 210:1 283:2 626:1 694:1 697:1 1005:1 1070:1 1179:1 1343:1 1431:1 1432:2 1433:1 1434:2 1435:1 1436:1 1437:1 1438:1 1439:1 1440:1 1441:1 1442:1 1443:1 1444:1 10001:1 10022:1 #
-0.0059008782941365259255839248453412 1:4 3:1 8:2 11:5 12:1 23:4 36:5 45:2 46:1 53:4 61:1 76:2 148:1 157:2 165:1 210:1 225:2 244:1 416:1 436:2 639:1 653:3 876:1 996:1 1017:2 1335:2 1364:1 2050:1 2225:2 2333:1 2334:2 2335:1 2336:1 2337:1 2338:1 2339:1 2340:1 2341:1 2342:2 2343:1 2344:1 2345:3 2346:1 2347:1 2348:1 2349:1 2350:1 2351:1 2352:1 2353:1 2354:1 2355:1 2356:1 2357:1 2358:1 2359:1 2360:1 2361:1 2362:1 2363:1 2364:1 2365:1 10001:1 10022:1 #
-0.010562212314315946176668248313035 1:1 23:2 397:1 718:1 719:1 720:1 10001:1 10014:1 10022:1 #
-0.010562212314315946176668248313035 1:1 23:2 204:1 476:1 556:1 10001:1 10022:1 #
0.0077911959276662830914395030390551 1:7 3:4 6:1 8:3 10:1 11:3 12:3 23:7 25:1 27:1 30:2 36:3 53:1 83:1 148:2 157:1 165:1 334:2 357:1 381:1 436:1 617:1 618:1 619:1 1110:1 1111:1 1121:1 1122:1 1796:1 1797:1 1798:1 1799:1 1800:1 1801:1 1802:1 1803:1 1804:1 1805:1 1806:1 1807:1 1808:1 1809:1 1810:1 1811:1 1812:1 1813:1 1814:1 1815:1 1816:1 1817:1 1818:1 1819:1 10001:1 10006:1 10008:1 10022:1 #
0.010562212314315946176668248313035 1:2 5:1 11:3 12:4 23:3 53:1 54:1 61:1 138:1 174:2 432:1 623:2 754:1 1508:1 2208:1 2209:1 2210:1 2211:1 2212:1 2213:1 10001:1 10008:1 10010:1 #
0.0054613987562516239440690846151938 1:2 3:2 6:3 8:3 10:3 11:4 12:2 14:2 23:6 30:1 36:1 41:1 53:2 76:1 95:1 167:1 176:1 178:1 179:2 239:1 257:3 283:1 364:1 417:3 550:1 748:2 920:1 993:1 994:1 995:1 996:3 997:2 998:2 999:1 1000:1 1001:1 1002:1 1003:1 1004:1 1005:1 1006:1 1007:2 1008:1 1009:2 1010:1 1011:1 1012:1 1013:1 1014:1 1015:1 1016:1 1017:1 1018:1 1019:1 1020:1 1021:1 1022:1 10001:1 10006:1 10008:1 10014:1 10022:1 #
0.010562212314315946176668248313035 1:2 23:1 78:1 139:1 588:1 10001:1 10006:1 10008:1 10022:1 #
-0.010562212314315946176668248313035 1:2 687:1 1221:1 10001:1 10020:1 10021:1 10022:1 #
-0.010562212314315946176668248313035 1:3 8:2 11:1 18:1 23:3 36:1 41:1 148:2 583:1 584:1 586:1 662:1 897:2 898:1 899:1 1449:1 1798:1 1886:1 1887:1 1888:1 1889:2 1890:1 1891:1 1892:1 1893:1 10001:1 10022:1 #
0.010562212314315946176668248313035 1:1 23:1 30:1 2073:1 2074:1 10001:1 10006:1 10008:1 10020:1 #
-0.010562212314315946176668248313035 1:2 3:1 6:2 10:2 23:2 36:1 45:1 46:1 61:1 76:1 148:2 151:1 212:1 364:1 627:1 628:1 983:1 1128:1 1387:1 1516:1 1517:1 1518:1 1519:1 1520:1 1521:1 1522:1 1523:1 1524:1 1525:1 1526:1 1527:1 1528:1 1529:1 1530:1 1531:1 10001:1 10008:1 10022:1 #
-0.010562212314315946176668248313035 1:1 3:1 8:1 11:2 14:1 23:2 25:4 27:4 34:1 41:1 1201:1 1823:1 2265:1 2266:1 2267:1 2268:1 2269:1 2270:1 2271:1 2272:1 2273:1 2274:1 2275:1 10001:1 10008:1 10021:1 10022:1 #
0.010562212314315946176668248313035 1:2 23:1 30:1 78:1 1181:1 10001:1 10006:1 10008:1 10022:1 #
-0.010562212314315946176668248313035 1:2 12:1 18:1 23:2 41:2 46:1 61:1 159:1 210:1 917:1 918:1 919:1 920:1 921:1 922:1 923:1 924:1 925:1 10001:1 10008:1 10022:1 #
-0.010562212314315946176668248313035 1:3 8:1 11:1 18:1 23:2 41:1 44:1 148:1 190:2 397:1 449:1 583:1 584:1 585:1 586:1 896:1 897:1 898:1 899:1 900:2 901:1 902:1 903:1 10001:1 10022:1 #
0.010562212314315946176668248313035 1:2 8:1 11:3 12:1 14:1 18:1 23:3 25:1 27:1 41:1 44:1 76:1 148:1 214:1 268:1 450:2 882:1 1264:1 1265:1 1266:1 1267:1 1268:1 1269:1 1270:1 1271:1 1272:1 1273:1 1274:1 1275:1 1276:1 1277:1 1278:1 1279:1 1280:1 1281:1 1282:1 1283:1 1284:1 10001:1 10008:1 #
0.010562212314315946176668248313035 1:2 23:1 30:1 78:1 1285:1 10001:1 10006:1 10008:1 10022:1 #
-0.010562212314315946176668248313035 1:1 6:1 8:2 10:1 11:2 12:1 23:3 25:1 27:1 30:1 36:1 76:1 88:2 339:2 357:1 422:1 626:2 751:1 920:1 951:1 1348:1 1387:1 1525:1 1777:1 1894:1 1895:1 1896:1 1897:1 1898:1 1899:1 1900:1 1901:1 1902:1 1903:1 1904:1 1905:1 1906:1 1907:1 10001:1 10006:1 10022:1 #
-0.010562212314315946176668248313035 1:2 3:1 12:1 14:1 36:1 53:1 214:1 2366:1 2367:1 2368:1 2369:1 2370:1 2371:1 2372:1 2373:1 2374:1 2375:1 2376:1 2377:1 2378:1 10001:1 10020:1 10022:1 #
-0.010562212314315946176668248313035 1:1 6:1 10:1 12:1 14:1 18:1 23:1 44:1 53:1 98:1 157:1 234:1 235:1 251:1 318:1 426:1 600:1 1216:1 1301:1 1305:1 1314:1 1315:1 1316:1 1317:1 1318:1 1319:1 1320:1 1321:1 10001:1 #
-0.010562212314315946176668248313035 1:1 2:1 5:1 6:1 10:1 12:1 1210:1 1211:1 1212:1 1213:1 10001:1 10017:1 10021:1 10022:1 #
0.010562212314315946176668248313035 1:1 8:1 12:1 14:1 20:1 23:3 41:2 115:1 131:1 225:1 280:1 675:1 717:1 721:1 722:1 723:1 724:1 725:1 726:1 727:1 728:1 729:1 10001:1 10008:1 #
0.010562212314315946176668248313035 1:1 11:1 23:3 36:1 320:1 416:1 1779:1 1780:1 1781:1 1782:1 1783:1 1784:1 10001:1 10008:1 10022:1 #
0.010562212314315946176668248313035 1:1 6:1 8:1 10:1 11:2 12:2 23:5 44:1 53:1 95:1 334:1 460:1 715:1 1017:1 1322:1 1323:1 1324:1 1325:1 1326:1 1327:1 1328:1 1329:1 1330:1 1331:1 10001:1 10008:1 10022:1 #
0.010562212314315946176668248313035 1:2 12:2 23:4 26:1 181:1 890:1 891:1 892:1 893:1 894:1 895:1 10001:1 10008:1 10022:1 #
0.010562212314315946176668248313035 1:1 12:1 23:4 36:1 98:1 181:1 182:1 444:1 1961:1 1962:1 1963:1 10001:1 10008:1 10010:1 #
0.010562212314315946176668248313035 1:1 23:2 30:1 36:1 41:1 93:1 301:1 985:1 1261:1 1262:1 1263:1 10001:1 10006:1 10008:1 10022:1 #
0.010562212314315946176668248313035 1:1 8:1 23:2 30:1 369:1 370:1 397:1 1738:1 1739:1 1740:1 10001:1 10006:1 10008:1 10022:1 #
0.0091066520036883202848798646300565 1:1 23:4 41:1 53:1 181:1 326:1 1692:1 2230:1 2231:1 2232:1 2233:1 2234:1 10001:1 10008:1 10010:1 #
-0.010562212314315946176668248313035 1:1 12:1 53:1 157:1 244:1 550:1 729:1 886:1 1023:1 1024:1 1025:1 1026:1 10001:1 10019:1 10022:1 #
-0.010562212314315946176668248313035 11:1 25:1 27:1 1926:1 1927:1 1928:1 1929:1 1930:1 10001:1 10020:1 10021:1 10022:1 #
-0.010562212314315946176668248313035 1:1 3:1 5:1 8:1 11:1 23:2 35:1 36:1 41:4 55:1 61:1 157:1 167:1 944:1 945:1 946:1 947:1 948:1 949:1 950:1 951:1 952:1 953:1 954:1 955:1 956:1 957:1 958:1 959:1 960:1 961:1 962:1 10001:1 10022:1 #
0.004833262896391063434542445520492 1:1 3:2 6:3 8:2 10:3 11:5 12:2 14:2 23:8 25:1 27:1 30:2 36:2 41:1 44:1 50:1 84:1 88:1 144:1 148:3 184:1 252:1 266:1 317:1 418:1 422:1 715:1 808:1 1093:1 1122:1 1292:1 2240:1 2241:1 2242:1 2243:1 2244:1 2245:1 2246:2 2247:1 2248:1 2249:1 2250:1 2251:1 2252:1 2253:1 2254:1 2255:1 2256:1 2257:1 2258:1 2259:1 2260:1 2261:1 2262:1 2263:1 2264:1 10001:1 10006:1 10008:1 10010:1 10014:1 #
0.0046670709105680052708464700117474 1:4 8:1 11:6 12:3 18:1 23:11 36:2 41:3 44:1 61:2 76:1 148:3 181:2 214:1 332:3 366:1 676:1 1104:1 1122:1 1229:1 1233:1 1387:1 1451:1 1709:1 1710:1 1711:2 1712:2 1713:1 1714:1 1715:1 1716:1 1717:1 1718:1 1719:1 1720:1 1721:1 1722:1 1723:1 1724:1 1725:2 1726:1 1727:1 1728:1 1729:1 1730:1 1731:1 1732:1 1733:1 1734:1 1735:1 1736:1 1737:1 10001:1 10008:1 10022:1 #
0.0041783667215777031689327714047977 1:3 2:1 3:2 5:1 6:1 10:1 11:5 12:1 23:9 36:3 41:1 46:1 53:1 55:1 76:1 96:1 98:1 148:1 165:1 210:1 257:2 352:1 626:1 646:1 920:1 1063:1 1064:1 1065:1 1066:1 1067:2 1068:1 1069:1 1070:1 1071:1 1072:1 1073:1 1074:1 1075:2 1076:2 1077:1 1078:1 1079:1 1080:1 1081:1 1082:1 1083:1 1084:1 1085:1 1086:1 1087:1 1088:1 1089:1 1090:1 1091:1 1092:1 1093:1 1094:1 1095:1 1096:1 1097:1 1098:1 1099:1 1100:1 1101:1 1102:1 10001:1 10008:1 10010:1 10014:1 #
0.0048396185876200883968500932041934 1:4 6:1 8:3 10:1 11:3 12:4 14:1 23:6 36:2 41:2 44:1 76:2 83:1 93:1 99:1 123:1 139:2 160:1 339:1 352:1 381:1 422:1 560:1 563:1 617:1 683:1 684:1 685:1 972:1 985:2 1332:1 1333:1 1334:1 1335:1 1336:1 1337:1 1338:1 1339:1 1340:1 1341:1 1342:1 1343:1 1344:1 1345:1 1346:1 1347:1 1348:1 1349:1 1350:1 1351:1 10001:1 10006:1 10008:1 10014:1 10022:1 #
-0.010562212314315946176668248313035 5:1 8:1 11:3 12:3 15:1 16:1 18:2 21:1 23:1 24:1 25:2 27:2 29:1 53:1 98:2 148:1 302:1 902:1 1449:1 1550:1 1648:1 1735:1 1773:1 1927:1 2185:1 2235:1 2236:1 2237:1 2238:1 10001:1 10022:1 #
-0.0034122451399214792991387845688678 3:2 5:1 8:2 11:3 12:3 18:1 23:1 41:3 44:1 53:1 61:1 76:1 88:1 160:1 165:1 212:1 257:1 258:1 313:1 615:3 626:1 972:3 988:1 1103:1 1104:1 1105:1 1106:1 1107:1 1108:1 1109:1 1110:2 1111:1 1112:1 1113:1 1114:1 1115:1 1116:1 1117:1 1118:1 1119:1 1120:1 1121:1 1122:1 1123:1 1124:1 1125:1 1126:1 1127:1 10001:1 10019:1 10021:1 10022:1 #
0.0084612228353271694281101389378819 1:1 2:1 3:1 5:1 6:2 8:2 10:2 14:1 23:5 36:3 41:1 51:1 95:1 258:1 412:1 413:1 414:1 415:1 416:1 417:1 418:1 419:1 420:1 421:1 422:1 423:1 424:1 10001:1 10008:1 10022:1 #
0.0060491745370356824612612101077502 1:2 11:1 23:5 25:1 27:1 44:1 119:2 126:1 183:1 349:1 410:1 600:1 730:1 902:1 1030:1 1031:1 1032:1 1033:1 1034:1 1035:1 1036:1 1037:1 1038:1 1039:1 1040:1 1041:1 1042:1 10001:1 10008:1 10022:1 #
0.0057887755694070825926433876418287 1:2 3:1 5:1 11:2 12:1 23:4 25:1 27:1 30:1 31:1 53:1 76:1 115:1 131:1 436:1 586:1 589:1 590:1 591:1 592:1 593:1 594:1 595:1 596:1 597:1 598:1 599:1 600:1 601:1 602:1 603:1 604:1 605:1 10001:1 10006:1 10008:1 10010:1 #
0.0014037852564052414987283423641884 1:3 23:1 25:1 27:1 30:1 44:1 100:1 114:1 115:2 119:3 121:2 126:1 131:2 349:1 397:1 442:1 494:1 556:1 754:1 1402:1 1403:1 1404:1 1405:1 1406:1 1407:1 1408:2 1409:1 1410:1 1411:1 1412:1 1413:1 1414:1 1415:1 1416:1 1417:1 1418:1 1419:1 1420:1 1421:1 1422:1 1423:1 1424:1 1425:1 1426:1 1427:1 1428:1 1429:1 1430:1 10001:1 10006:1 10008:1 #
0.0078172117211705981904001916404923 1:2 23:1 30:1 101:1 102:1 103:1 104:1 105:1 106:1 107:1 108:1 109:1 110:1 111:1 112:1 114:1 115:1 116:1 117:1 118:1 119:5 120:1 121:3 122:1 123:1 124:1 125:1 126:1 127:1 128:1 129:1 130:1 131:1 1407:1 2239:1 10001:1 10006:1 10022:1 #
0.00050984480782198266651805695914845 1:4 8:1 23:2 25:1 27:1 30:1 44:1 113:1 115:1 116:1 119:1 124:1 131:1 399:1 502:1 904:1 905:1 906:1 907:1 908:1 909:1 910:1 911:1 912:1 913:1 914:1 915:1 916:1 10001:1 10006:1 10008:1 #
0.0018717353372471384406749983497775 1:1 23:6 25:2 26:1 27:2 44:2 98:1 118:1 119:2 121:1 184:1 546:1 758:1 759:1 760:1 761:1 762:1 763:2 764:1 765:1 766:1 767:1 768:2 769:1 770:1 771:1 772:1 773:1 774:1 775:1 776:1 777:1 778:1 779:2 780:1 10001:1 10008:1 #
0.0026685287536447888090407332128962 1:1 8:1 11:1 12:1 23:3 30:1 179:1 428:1 429:1 463:1 754:1 755:1 756:1 757:1 10001:1 10006:1 10008:1 10010:1 #
