SVM-light Version V6.02
0 # kernel type
3 # kernel parameter -d 
1 # kernel parameter -g 
1 # kernel parameter -s 
1 # kernel parameter -r 
empty# kernel parameter -u 
100008 # highest feature index 
1377 # number of training documents 
417 # number of support vectors plus 1 
0.9990054 # threshold b, each following line is a SV (starting with alpha*y)
-0.011707806964580921502139254641861 1:1 2:1 3:1 4:1 5:1 6:1 7:3 8:1 9:1 10:1 11:1 12:1 13:1 100001:1 100002:1 100003:1 #
0.0054287042143933324223059599944463 7:4 39:1 473:1 959:1 1300:1 1301:1 1302:1 1303:1 1304:1 1305:1 100001:1 100002:1 100004:1 #
-0.011707806964580921502139254641861 7:4 13:2 50:1 121:1 122:1 123:1 124:1 125:1 126:1 127:1 128:1 100002:1 100006:1 #
0.0017814797147651024490644378062143 7:4 13:1 28:1 37:1 94:1 127:1 319:1 326:1 544:1 901:1 1453:1 1454:1 1455:1 1456:1 1457:1 1458:1 1459:1 1460:1 100001:1 100002:1 100004:1 100005:1 #
-0.0016037417631996121226978235796423 7:2 13:1 29:2 43:1 75:2 100:1 103:1 234:1 397:1 398:3 399:3 400:1 401:1 402:1 403:1 #
0.0016019530275651876899400960496678 7:4 13:1 14:1 15:1 16:1 17:1 18:1 19:1 20:1 21:1 22:1 23:1 24:1 100001:1 100002:1 100004:1 #
-0.011707806964580921502139254641861 7:1 13:3 112:1 113:1 304:1 831:1 832:1 833:1 100002:1 #
0.0015174582143629416347563321210146 7:5 13:1 18:2 42:1 43:1 44:1 45:1 46:1 47:1 48:1 49:1 50:1 51:1 52:1 53:1 54:1 55:1 56:2 57:2 58:1 59:1 60:1 61:1 62:1 63:1 64:1 100001:1 100002:1 100004:1 #
0.011707806964580921502139254641861 7:1 13:1 65:1 66:1 67:1 68:1 69:1 70:1 100001:1 100002:1 100004:1 #
-0.00057878182492686943566573276598319 2:1 7:10 13:3 24:1 28:1 29:4 32:2 34:2 43:1 46:1 65:4 75:4 90:3 93:1 98:1 100:4 103:1 152:1 168:1 172:1 179:2 186:1 231:1 307:1 313:1 364:1 407:1 411:1 503:2 517:3 519:1 533:1 604:2 645:1 754:1 755:1 780:1 788:1 818:1 824:1 873:1 917:1 996:2 1459:1 1587:2 1893:1 1896:1 2143:1 2168:1 2307:1 2489:1 2686:1 2803:1 2961:2 3159:1 3742:1 3843:1 3844:2 3845:1 3846:1 3847:1 3848:1 3849:1 3850:1 3851:1 3852:1 3853:2 3854:1 3855:1 3856:1 3857:1 3858:1 3859:1 3860:1 3861:1 3862:1 3863:1 3864:1 3865:1 3866:1 3867:1 3868:1 3869:1 3870:1 3871:1 3872:1 3873:1 3874:1 3875:1 3876:1 3877:1 3878:1 3879:1 3880:1 100001:1 100002:1 100003:1 100006:1 #
-0.010314739714359772576601770310845 7:15 13:1 28:1 29:1 32:1 34:1 75:2 90:1 100:1 687:1 690:1 762:2 765:1 971:1 3760:1 4234:1 5110:1 5343:1 5344:1 5345:1 5346:1 5347:1 5348:1 5349:1 5350:1 5353:1 5354:1 5355:1 5359:1 5360:1 5361:1 5362:1 5363:1 6474:1 8918:1 9372:1 9373:1 9374:1 9375:1 9376:1 9377:1 9378:1 9379:1 9380:1 9381:1 9382:1 9383:1 100002:1 #
0.011707806964580921502139254641861 7:1 13:1 512:1 766:1 2226:1 2227:1 100001:1 100002:1 100004:1 #
0.0047720195378415410092376447437346 7:2 10:1 13:1 39:2 98:1 298:1 407:1 411:1 775:1 790:1 966:1 1415:1 1499:1 2458:1 2512:2 5020:1 5021:1 5022:1 5023:1 5024:1 5025:1 5026:1 100001:1 100002:1 100003:1 100004:1 #
-0.011707806964580921502139254641861 13:1 29:1 46:1 75:1 1222:1 1299:1 7190:1 100002:1 #
0.011267668957855076286578288602414 2:1 13:3 28:1 32:1 34:1 41:1 75:1 94:2 97:1 103:2 231:1 367:1 375:1 503:1 518:1 604:1 666:1 855:1 1339:1 1379:1 2034:1 2427:2 2444:2 2458:1 3170:1 6324:1 8915:1 8916:1 8917:1 8918:1 8919:1 8920:1 8921:1 8922:1 100001:1 100002:1 100004:1 #
0.0027095035824600834616082689620953 7:6 10:1 12:1 13:15 28:3 29:1 32:2 34:4 42:2 65:3 75:7 90:4 91:1 94:2 97:1 98:2 100:5 103:1 107:5 143:4 146:4 172:1 186:1 227:1 307:9 315:2 323:1 375:2 407:1 411:1 448:1 481:1 492:1 518:1 519:3 537:1 544:1 548:2 604:1 667:1 668:1 744:1 755:1 762:2 780:1 835:3 981:1 1066:1 1105:1 1246:1 1253:1 1379:1 1484:1 1494:1 1582:1 1738:5 1893:2 2052:1 2106:3 2119:1 2166:1 2299:1 2316:1 2394:2 2410:1 2817:1 2834:1 2841:1 2853:1 3385:1 3651:1 3971:1 3972:1 4072:1 4132:1 4415:1 5286:1 5840:3 6172:1 6278:1 6718:1 7449:1 7452:1 9566:1 10076:1 10900:1 10901:1 10902:1 10903:1 10904:1 10905:1 10906:1 10907:1 10908:1 10909:1 10910:1 10911:1 10912:1 10913:1 10914:1 10915:1 10916:1 10917:1 10918:1 10919:1 10920:1 10921:1 10922:1 10923:1 10924:1 10925:1 10926:1 10927:1 10928:1 10929:1 10930:1 10931:1 10932:1 10933:1 10934:1 10935:1 10936:1 10937:1 10938:1 10939:1 10940:1 10941:1 10942:2 10943:1 10944:1 10945:1 100001:1 100002:1 100003:1 100004:1 100006:1 #
0.0098959987733683064947687313406277 7:1 13:3 32:2 34:2 39:1 43:1 65:1 70:1 75:4 97:1 98:1 103:1 209:1 323:1 327:1 365:1 366:1 375:1 551:1 940:1 941:1 952:1 1041:1 2533:1 4417:1 4929:1 7974:1 8935:1 8940:1 9106:1 9107:1 9108:1 9109:1 9110:1 9111:1 9112:1 9113:1 100001:1 100002:1 100004:1 #
0.011707806964580921502139254641861 2:1 7:1 13:2 29:3 32:1 34:1 46:1 75:3 84:1 172:1 186:1 375:1 920:1 932:1 935:1 1246:1 1294:1 1904:1 2521:1 2583:1 3781:1 4509:1 5429:1 100002:1 100004:1 #
0.0063778562909201051700502915764446 3:1 7:4 13:3 28:1 29:2 32:1 34:1 46:1 65:1 75:8 97:1 98:1 100:1 169:2 211:1 248:1 299:1 300:1 484:1 503:1 721:1 788:1 940:1 941:1 984:1 2303:1 2456:1 2533:1 3253:1 3358:1 3361:1 4929:1 5443:1 6443:1 7840:1 8514:2 8515:2 8516:1 8517:2 8518:1 8519:1 8520:1 8521:1 8522:1 8523:1 8524:1 100001:1 100002:1 100004:1 100005:1 #
-0.007047874641062949231662404514509 5:2 13:4 16:1 32:2 34:1 60:3 143:6 146:6 195:2 504:1 1403:1 1427:1 1474:1 1485:1 3432:2 3971:1 3972:1 4128:1 5662:1 5879:1 8263:1 8802:1 10811:2 10812:1 10813:1 10814:1 10815:1 10816:1 100001:1 #
0.011707806964580921502139254641861 7:2 10:1 13:1 220:1 268:1 3283:1 3958:1 4646:1 4647:1 100002:1 100003:1 100004:1 #
0.011707806964580921502139254641861 7:2 13:2 28:5 29:3 32:2 34:1 65:2 75:2 323:3 432:1 517:1 548:1 673:1 920:1 932:1 933:1 934:1 935:1 1904:1 1912:1 2410:1 2679:2 4727:1 4728:1 4729:1 4730:1 4731:1 4732:1 4733:1 4734:1 100002:1 100004:1 #
0.010439223649140298016968486649603 2:1 7:10 13:2 28:1 29:4 32:1 39:2 43:2 54:1 75:2 103:2 107:1 169:1 172:1 186:1 313:1 323:1 358:1 391:1 517:1 616:1 818:1 845:1 895:1 1041:1 1152:1 1309:1 1333:1 1367:1 1379:1 1445:1 1508:1 1558:1 1756:1 1865:1 1887:1 1994:1 2036:1 2180:1 2832:1 2952:1 3136:1 3217:1 3582:1 3732:1 3790:1 4524:1 4881:1 9566:1 9933:1 10655:1 11180:1 11181:1 11182:1 11183:1 11184:1 11185:1 11186:1 11187:1 11188:1 11189:1 11190:1 11191:1 11192:1 11193:1 100002:1 100004:1 #
0.00014164070988337254986162705439057 7:5 13:1 29:1 37:1 75:2 343:1 391:2 1041:1 2918:1 4422:1 4423:1 4739:1 4746:1 4922:1 6180:1 6181:1 6182:1 6183:1 6184:1 6185:1 100001:1 100002:1 100004:1 #
0.007934769742904884681777843979944 2:2 7:9 13:4 24:1 28:1 29:3 94:1 103:1 343:1 364:1 504:2 505:2 544:1 912:1 959:1 1246:1 1446:1 1465:1 1612:1 1761:1 2961:1 3790:1 4225:1 4744:1 4903:1 5030:1 5031:1 5032:1 5033:1 100002:1 100004:1 #
0.011707806964580921502139254641861 7:1 13:1 304:1 526:1 1078:1 100001:1 100002:1 100004:1 #
-0.011707806964580921502139254641861 7:3 13:1 28:1 46:1 93:1 119:1 299:1 304:1 323:1 790:1 1494:1 1933:1 100002:1 #
-0.0029121907235411786246670473587983 2:2 7:8 13:5 28:7 29:9 32:4 34:4 39:2 46:1 65:3 69:1 75:5 94:3 97:1 98:1 100:4 103:1 107:1 118:2 137:1 169:1 172:3 186:3 215:1 299:1 304:1 313:1 323:1 336:1 364:1 375:1 434:1 503:2 519:1 520:2 521:1 522:2 561:1 584:1 655:1 766:1 790:1 818:1 1024:2 1158:1 1222:1 1230:1 1294:3 1445:2 1612:1 2018:1 2303:1 2427:2 2428:1 2429:1 2430:1 2431:1 2432:1 2433:1 2434:1 2435:1 2436:1 2437:1 2438:1 2439:1 2440:1 2441:1 2442:1 2443:1 2444:1 2445:1 2446:3 2447:1 2448:1 2449:1 2450:1 2451:1 2452:1 2453:1 2454:1 2455:1 2456:1 2457:1 2458:1 2459:1 2460:1 2461:1 2462:1 2463:1 2464:1 2465:1 2466:1 2467:1 2468:1 2469:1 2470:1 2471:1 2472:1 2473:1 2474:1 2475:1 2476:1 2477:1 100001:1 100002:1 #
0.011707806964580921502139254641861 7:5 13:2 38:1 172:1 186:1 298:1 343:1 504:1 505:1 858:1 1119:1 1226:1 1445:1 5032:1 7147:1 8323:1 8324:1 100002:1 100004:1 #
0.0068917678871182200608935808361366 2:1 7:4 13:4 32:1 34:1 39:2 42:1 43:1 54:1 65:2 75:4 94:1 100:1 103:2 118:2 323:3 364:1 397:1 645:1 721:1 775:1 780:1 783:1 912:1 999:1 1043:1 1253:1 1294:2 1302:1 1463:1 1587:1 1805:1 2106:2 2363:1 2480:1 3014:1 3342:1 3628:2 5077:1 5177:1 5198:1 6931:1 6997:1 8532:1 8942:1 10570:1 10571:1 10572:1 10573:1 10574:1 10575:1 10576:1 10577:1 10578:1 10579:1 10580:1 10581:1 10582:1 10583:1 10584:1 100001:1 100002:1 100004:1 #
0.0033319249064643844532307426220541 2:1 7:5 13:5 29:2 42:5 65:3 75:2 94:4 97:1 100:7 103:1 107:1 172:1 186:1 304:1 313:2 323:1 387:1 448:1 544:1 573:1 683:1 695:1 769:1 777:1 796:1 966:1 1328:5 1435:1 1508:1 1548:1 1862:2 1924:1 2034:1 2068:1 2330:1 2363:1 2821:1 2831:1 3014:1 3356:1 3843:1 4081:1 5493:1 5836:1 5837:1 5838:2 5839:1 5840:1 5841:1 5842:1 5843:2 5844:1 5845:1 5846:1 5847:1 5848:1 5849:1 5850:1 5851:1 5852:1 5853:1 5854:1 5855:1 5856:1 5857:1 5858:1 100001:1 100002:1 100004:1 #
-0.011707806964580921502139254641861 7:1 13:1 16:2 18:1 60:1 65:1 97:2 247:1 503:1 2419:1 2420:1 2421:1 2444:1 2603:1 5411:1 8603:1 8604:1 8605:1 100001:1 #
-0.011707806964580921502139254641861 7:2 10:2 13:1 98:1 774:1 2731:1 2732:1 4153:1 4297:1 100001:1 100002:1 100003:1 #
-0.011707806964580921502139254641861 7:8 10:1 13:1 28:2 46:1 75:2 172:1 186:1 202:1 298:1 323:1 521:1 698:1 874:1 954:1 1470:1 1471:1 1501:1 2512:1 2621:1 3953:1 3956:1 3990:1 6527:1 6528:1 6529:1 6530:1 100001:1 100002:1 100003:1 100006:1 #
-0.011707806964580921502139254641861 5:1 7:7 10:1 13:5 16:6 18:5 32:4 34:4 71:1 97:2 143:1 146:1 215:2 218:1 381:2 407:2 411:2 592:1 912:1 925:2 961:1 1063:1 1143:1 1469:1 1516:1 1757:1 1854:2 1855:2 3720:1 4145:1 4161:2 4610:1 4788:1 4885:1 5218:1 5305:2 5306:2 5312:1 5318:1 5972:1 5989:1 6568:1 6953:1 6954:1 6972:1 7592:2 8823:1 11129:1 11130:1 11131:1 11132:1 11133:1 11134:1 11135:1 11136:1 11137:1 11138:1 11139:1 11140:3 11141:2 11142:1 11143:1 11144:1 11145:1 100001:1 100002:1 100003:1 100006:1 #
-0.011707806964580921502139254641861 7:11 10:1 13:3 28:1 29:1 32:1 34:1 37:2 39:1 65:2 75:1 94:1 97:2 98:1 100:1 172:2 186:2 205:1 364:1 497:1 571:1 633:1 666:1 720:1 721:1 837:2 1314:1 2334:1 2534:1 2919:1 3059:1 3222:1 3806:3 4491:1 5185:1 5186:1 5187:1 5188:1 5189:1 5190:3 5191:1 5192:1 5193:1 5194:1 5195:1 5196:1 5197:1 5198:1 5199:1 100001:1 100002:1 100003:1 100006:1 #
0.0013324261923933320046764539057449 7:6 13:4 28:1 29:1 32:1 34:1 37:1 42:1 43:2 94:2 209:1 497:1 498:1 499:1 500:1 501:1 502:1 503:1 504:1 505:1 506:1 507:1 508:1 509:1 510:1 511:1 512:1 100002:1 100004:1 #
0.011707806964580921502139254641861 2:1 7:1 13:1 29:2 32:1 34:1 75:1 94:1 100:1 231:1 313:1 323:1 788:1 909:1 1587:1 2119:1 2332:1 3375:1 3376:1 3377:1 3378:1 3379:1 3380:1 3381:1 3382:1 3383:1 100001:1 #
0.011707806964580921502139254641861 1078:1 100001:1 100005:1 #
-0.011707806964580921502139254641861 13:1 29:1 46:1 75:1 3689:1 4874:1 4875:1 4876:1 100001:1 #
-0.0029576466390405526524221002659942 2:1 13:1 24:1 29:1 37:1 65:1 75:2 82:1 375:1 2475:1 5242:1 5243:1 5244:1 5245:1 5246:1 100002:1 #
-0.011707806964580921502139254641861 7:3 10:1 13:2 60:1 75:2 98:1 323:1 665:1 1130:1 1688:1 2174:1 2502:1 2766:1 2767:1 2768:1 2769:1 2770:1 2771:1 2772:1 100001:1 100002:1 100003:1 #
-0.011707806964580921502139254641861 7:2 13:2 20:1 28:1 32:1 34:1 43:1 54:1 60:1 65:1 97:1 98:1 214:1 367:1 375:2 921:1 922:1 923:1 924:1 925:1 926:1 927:1 928:1 929:1 930:1 931:1 932:1 933:1 934:1 935:1 1341:1 1379:1 1880:1 3437:1 3781:1 4298:1 4299:1 100001:1 100002:1 #
-0.0030615331901065476541412557764943 7:6 13:3 28:1 29:6 32:3 34:3 42:1 43:1 75:8 78:1 231:1 323:5 364:1 530:1 548:2 682:4 692:1 695:1 981:1 1022:4 1219:1 1367:1 1423:1 2322:1 2350:1 2385:4 2386:1 2387:1 2388:1 2389:1 2390:1 2391:1 2392:2 2393:2 2394:1 2395:1 2396:1 2397:1 2398:1 2399:1 2400:1 2401:1 2402:1 2403:1 2404:1 2405:1 2406:1 2407:1 2408:1 2409:1 2410:1 2411:1 2412:1 2413:1 2414:1 2415:1 2416:1 100002:1 #
-0.0053708357544977793768259388684783 7:9 10:1 13:2 28:1 29:2 32:6 34:6 39:1 42:2 75:7 94:2 100:1 200:1 222:1 262:1 307:2 323:3 362:2 375:1 391:1 517:1 584:1 725:1 769:1 790:1 1033:1 2034:1 2191:1 2199:1 2489:1 2779:1 3222:2 3405:1 3459:1 3752:1 4715:1 4874:1 4929:3 4994:1 5201:1 6148:1 6704:1 7246:1 10115:1 10598:1 10599:1 10600:1 10601:1 10602:1 10603:1 10604:1 10605:1 10606:1 10607:1 10608:1 10609:1 10610:1 10611:1 10612:1 10613:1 100002:1 100003:1 100006:1 #
-0.00096130142641480929594638427104769 7:8 13:2 28:1 29:7 42:3 43:1 75:8 90:1 93:1 94:3 97:2 98:1 100:1 103:2 107:1 179:1 332:2 364:1 375:1 518:1 544:1 573:1 721:1 918:1 971:1 981:1 1043:1 1107:1 1333:2 1339:2 1785:1 1875:1 1893:1 2108:1 2119:1 2430:1 2519:1 2975:2 3047:1 3137:1 3549:1 3607:1 3665:2 4015:1 4697:1 4731:1 5148:2 5157:1 5286:1 5294:1 6586:1 7147:1 7744:1 9155:1 9175:1 10119:1 10667:1 10668:2 10669:1 10670:1 10671:1 10672:1 10673:1 10674:1 10675:1 10676:1 10677:1 10678:1 10679:1 10680:1 10681:1 10682:1 10683:1 10684:1 #
0.00087026306515215897611353890184205 5:1 7:5 10:1 13:2 16:6 18:5 32:1 34:1 48:1 97:1 143:1 146:1 175:1 220:2 262:1 407:2 411:2 416:1 417:1 431:1 433:1 522:1 925:1 929:1 961:1 1143:1 1222:1 1485:1 1855:1 3127:1 3144:1 3562:1 3972:1 4161:1 4780:1 4785:1 5299:2 5300:1 5301:1 5302:1 5303:1 5304:1 5305:1 5306:1 5307:2 5308:1 5309:1 5310:1 5311:1 5312:1 5313:1 5314:1 5315:1 5316:1 5317:1 5318:1 5319:1 5320:1 5321:1 5322:1 5323:1 5324:1 5325:1 100001:1 100002:1 100003:1 100004:1 #
0.011707806964580921502139254641861 7:2 10:1 13:2 65:2 172:1 186:1 4821:1 10277:1 10480:1 10481:1 10482:1 100002:1 100003:1 100004:1 #
0.0032355097971420937810749229868179 7:8 13:3 28:1 37:2 65:1 75:2 204:2 205:1 248:1 323:1 375:1 473:1 504:2 505:2 686:1 707:1 837:1 1302:1 1960:2 3582:1 3706:1 7969:3 100002:1 100004:1 #
0.0036589913887627350044806640028128 2:2 7:15 13:4 28:2 29:8 32:1 34:6 39:4 43:5 54:1 65:1 75:13 94:3 97:2 98:2 100:3 103:2 143:2 146:2 152:1 173:1 204:1 231:4 313:2 315:2 364:2 375:2 376:1 517:1 544:2 548:2 571:1 590:1 666:1 721:1 746:1 780:2 785:1 788:2 996:1 1324:1 1339:2 1501:1 1807:1 1962:1 2036:1 2043:1 2106:1 2299:1 2307:1 2826:1 3464:1 3797:1 4019:3 4031:1 4209:1 4863:1 4897:1 5087:1 5148:1 5449:1 5660:2 5821:1 6033:1 6329:1 6405:1 6415:2 6661:2 6888:1 7490:1 7541:1 7657:1 7658:1 7659:1 7660:2 7661:1 7662:1 7663:1 7664:1 7665:1 7666:1 7667:1 7668:1 7669:3 7670:2 7671:1 7672:1 7673:1 7674:1 7675:1 7676:1 7677:1 7678:1 7679:1 7680:1 7681:1 7682:1 7683:1 7684:1 7685:3 7686:3 7687:1 7688:1 7689:1 7690:1 7691:1 7692:1 7693:1 7694:1 7695:1 100001:1 100002:1 100003:1 100004:1 100006:1 #
-0.010206256245628620230037064686712 7:9 13:4 29:1 32:1 34:1 39:1 43:1 54:2 65:1 70:1 75:4 98:1 103:3 172:1 186:1 307:3 310:1 313:2 332:1 364:2 366:1 458:1 579:1 581:1 604:2 640:1 643:1 644:1 654:1 655:1 663:2 664:1 1156:1 1294:1 1991:1 2860:1 3072:1 3452:1 4994:1 5160:1 5704:1 8628:1 9200:1 9695:1 11247:1 11248:1 11249:1 11250:1 11251:1 11252:1 11253:1 11254:1 11255:1 11256:1 11257:1 11258:1 11259:1 11260:1 11261:1 100001:1 100002:1 100006:1 #
0.0063067771466090265242154799807395 7:4 13:1 65:1 214:1 244:1 327:1 343:1 390:1 391:2 393:1 2283:1 3405:1 4114:1 4549:1 5910:1 8369:1 100001:1 100002:1 100004:1 #
-0.010448632008696105699652179055192 7:14 13:4 28:1 29:4 32:4 34:4 39:2 65:1 75:3 90:1 93:1 94:3 98:1 103:6 107:1 119:2 231:1 315:1 395:2 496:1 544:1 591:1 765:1 786:1 856:1 961:1 1143:1 1246:1 1303:1 1452:1 1501:1 1597:1 1869:1 1991:1 2009:1 2168:1 2577:1 2923:1 3311:1 3730:1 4072:1 4169:1 4420:1 4426:1 5277:1 9456:1 9457:1 9458:1 9459:1 9460:1 9461:2 9462:1 9463:1 9464:1 9465:1 9466:1 9467:1 9468:1 9469:1 9470:1 100001:1 100002:1 100006:1 #
0.011707806964580921502139254641861 7:5 13:2 29:1 32:1 46:1 65:2 75:1 103:2 172:2 186:2 299:1 364:1 373:1 407:1 411:1 501:1 502:1 520:1 604:1 766:1 1000:1 1294:2 1318:1 1391:1 1785:2 1959:1 2363:1 3258:1 3260:1 3990:1 4800:1 4801:1 4802:1 4803:1 4804:1 100002:1 100004:1 #
-0.011707806964580921502139254641861 13:1 32:1 34:1 65:1 75:1 100:1 2470:1 2474:1 3260:1 3582:1 5828:1 5829:1 100001:1 100002:1 100005:1 #
-0.011707806964580921502139254641861 7:2 13:2 100:1 171:1 620:1 699:1 952:1 1644:1 3221:1 8409:1 8410:1 100001:1 100002:1 #
0.011707806964580921502139254641861 7:1 13:1 143:1 146:1 152:1 218:1 1143:2 4778:1 4779:1 4780:1 4781:1 4782:1 4783:1 4784:1 4785:1 4786:1 4787:1 4788:1 4789:1 100003:1 100004:1 100006:1 #
0.001961871985589275571570944123323 7:4 13:1 62:1 160:1 281:1 394:1 2767:1 6870:1 11417:1 11418:1 100001:1 100002:1 100004:1 100005:1 #
0.0094435321024745350754203698784295 7:3 13:2 75:1 122:1 137:1 851:1 1043:1 1768:1 1809:1 1810:1 1811:1 1812:1 1813:1 100001:1 100004:1 #
0.011707806964580921502139254641861 13:1 39:3 41:1 103:1 244:1 298:1 699:1 775:1 3259:1 5020:1 8854:1 8855:1 100002:1 100004:1 100006:1 #
-0.011707806964580921502139254641861 13:2 299:1 504:1 774:1 1398:1 1399:1 1474:1 5873:1 5874:2 5875:1 5876:1 5877:1 5878:1 5879:1 100001:1 100002:1 #
0.0081596173813460477070025334001002 7:6 13:1 39:1 42:1 43:1 75:1 94:1 172:1 186:1 202:1 298:1 521:1 698:1 874:1 954:1 1470:1 1471:1 2512:1 3953:1 3954:1 3955:1 3956:1 3957:1 100001:1 100002:1 100004:1 100005:1 #
-0.0019236320962107379337058254975545 7:4 13:1 32:1 34:1 2756:1 4570:1 4586:1 5619:1 5621:3 5648:1 6388:1 7815:1 7818:1 8553:1 8680:1 8681:2 8682:1 8683:2 8684:1 8685:1 8686:1 8687:1 8688:1 8689:1 8690:1 8691:1 8692:1 8693:1 8694:1 8695:1 8696:1 8697:1 8698:1 8699:1 8700:1 8701:1 8702:1 8703:1 8704:1 8705:1 8706:1 8707:1 8708:1 8709:1 8710:1 8711:1 8712:1 8713:1 8714:1 8715:1 8716:1 8717:1 8718:1 100006:1 #
0.0074010182695867076513307480922776 7:2 13:2 75:1 103:1 124:1 147:1 323:1 1459:1 1793:1 3525:1 3526:1 3527:1 3528:1 3529:1 100001:1 100004:1 #
0.0052575169590316963436071873161382 2:2 7:7 13:1 32:1 34:1 37:1 65:1 75:1 100:1 107:1 262:1 323:1 381:1 912:1 1246:1 1318:1 1320:1 1995:2 2655:1 2794:2 3464:1 3582:1 5469:1 6320:1 6566:1 6567:1 6568:1 6569:1 100001:1 100002:1 100004:1 100005:1 100006:1 #
0.0060685364185281472776400946145259 7:5 8:1 13:1 28:1 29:1 65:1 75:2 97:1 298:1 323:1 517:1 584:1 645:1 762:1 777:1 786:1 788:2 799:2 820:1 966:1 1152:1 1770:1 1896:1 2677:1 4335:1 10408:1 10413:1 10414:1 10415:1 10416:1 10417:1 10418:1 10419:1 100001:1 100002:1 100004:1 #
-0.011707806964580921502139254641861 7:4 13:1 28:1 179:2 1044:1 1081:1 1177:1 2383:1 6195:1 6196:2 6197:1 100002:1 100006:1 #
-0.0011228462168623833464242700586055 1:1 2:1 7:11 10:3 13:5 28:4 29:3 32:3 34:3 39:2 42:2 43:2 50:1 75:4 91:1 92:2 93:1 98:3 100:2 103:2 107:2 172:1 179:1 186:1 310:1 313:1 315:1 323:2 343:2 358:3 395:1 484:1 526:1 537:1 555:1 724:1 746:1 765:1 769:1 856:1 864:1 887:1 893:1 900:1 903:1 983:1 1318:1 1445:1 1608:1 1655:1 1738:1 1776:1 1893:1 2143:1 2240:1 2533:1 2754:1 2923:1 3006:1 3249:1 4136:1 4169:1 4279:1 5153:2 5177:1 5677:1 5945:1 6196:1 6387:1 6388:2 6389:1 6390:1 6391:1 6392:1 6393:1 6394:1 6395:1 6396:1 6397:1 6398:1 6399:1 6400:1 6401:1 6402:1 6403:1 6404:1 6405:1 6406:1 6407:1 6408:1 6409:1 6410:1 100001:1 100002:1 100003:1 100006:1 #
0.0081638989438805181775293817736383 7:1 13:1 146:1 152:1 1143:2 4778:1 4779:1 4780:1 4781:1 4782:1 4783:1 4784:1 4785:1 4786:1 4787:1 4788:1 6867:1 100003:1 100004:1 100006:1 #
-0.011707806964580921502139254641861 7:3 13:3 39:1 75:1 97:1 112:1 298:1 300:1 1056:1 1072:1 1230:1 1416:1 2363:1 3539:1 8510:1 9103:1 9104:1 100002:1 #
-0.011707806964580921502139254641861 7:2 29:1 41:1 42:1 65:1 75:3 94:1 97:1 364:1 381:1 579:1 873:1 920:1 1071:1 1309:1 1610:1 3725:1 5282:2 8873:1 100002:1 #
-0.011707806964580921502139254641861 7:6 13:4 48:1 50:1 75:1 283:1 407:1 411:1 1353:1 1354:1 1355:1 1356:1 1357:1 1358:1 1359:1 1360:1 1361:1 1362:1 1363:1 1364:1 1365:1 1366:1 1367:1 1368:1 1369:1 1370:1 1371:1 1372:1 1373:1 1374:1 1375:1 100001:1 #
-0.011707806964580921502139254641861 7:9 13:4 18:1 28:1 29:5 32:1 34:1 42:1 60:1 65:1 75:2 98:1 100:2 105:1 152:1 161:1 172:4 186:4 231:1 279:1 283:1 315:1 323:2 336:1 375:1 448:1 486:1 544:1 755:1 801:1 926:1 966:1 1407:1 1469:1 1890:1 1926:1 2155:1 2827:1 3221:1 3322:1 3941:1 5169:1 5240:4 5438:1 5439:1 6963:1 7323:2 7344:1 8021:1 8022:1 8023:1 8024:1 8025:1 8026:1 8027:1 8028:1 8029:1 8030:1 8031:1 8032:1 8033:1 8034:1 8035:1 8036:1 8037:1 8038:1 8039:1 100001:1 100002:1 100003:1 100006:1 #
-0.0024460904892716983996536761480911 7:8 13:3 29:2 39:1 59:1 65:2 75:3 94:1 98:1 99:1 103:1 172:1 186:1 200:1 231:1 307:1 369:1 370:1 503:1 522:1 604:2 692:1 757:1 799:1 940:2 941:1 1446:1 1552:1 2303:1 2469:1 3222:1 3540:1 3712:1 4691:1 4929:1 4994:1 7974:1 8250:1 8251:1 8252:1 8253:1 8254:1 100002:1 #
-0.011707806964580921502139254641861 7:4 13:3 75:1 299:1 394:1 1040:1 1142:1 3336:1 3337:1 3338:1 100001:1 100002:1 #
0.00062953058594886830874604033425612 7:14 13:4 28:4 29:2 32:2 34:1 42:2 65:2 70:1 75:8 94:4 97:1 98:1 107:1 122:1 172:5 186:4 202:1 229:1 231:1 283:1 313:1 315:1 323:1 368:1 428:1 517:1 524:1 527:1 544:1 604:1 625:1 696:1 715:1 757:1 762:1 859:3 1279:1 1336:1 1339:1 1445:1 1501:1 1552:1 1733:1 1738:1 2022:1 2106:1 2144:1 2201:1 2519:1 2534:1 2876:1 2878:1 3098:2 3238:1 3519:1 3806:1 3923:2 3982:1 4055:2 4070:1 4518:1 6268:1 6292:1 6731:1 6982:1 7007:1 8531:1 8532:1 8533:1 8534:1 8535:1 8536:1 8537:1 8538:1 8539:1 8540:2 8541:1 8542:1 8543:1 8544:1 8545:1 8546:1 8547:1 8548:1 8549:1 8550:1 8551:1 8552:1 100001:1 100002:1 100004:1 100006:1 #
0.011707806964580921502139254641861 7:4 10:1 13:2 20:1 32:1 34:1 54:1 60:1 84:1 97:1 172:1 186:1 214:1 220:1 920:1 921:1 922:1 923:1 924:1 925:1 926:1 927:1 928:1 929:1 930:1 931:1 932:1 933:2 934:1 935:1 100002:1 100003:1 100004:1 #
-0.0076157280425071874341291788823582 6:1 7:8 10:1 13:1 28:1 29:2 39:1 54:1 75:3 83:1 90:1 94:1 97:1 98:2 100:2 103:1 107:2 143:1 146:1 172:1 186:1 224:1 304:1 313:1 364:1 407:1 411:1 577:1 679:2 723:1 788:2 795:1 983:1 996:1 1291:1 1324:1 1587:1 1738:1 1959:1 2227:1 2332:1 2654:1 2790:1 3426:1 4234:1 4470:1 4852:1 7574:1 7684:1 8752:1 8945:1 8946:1 8947:1 8948:1 8949:1 8950:1 8951:1 8952:1 8953:1 8954:1 8955:1 8956:1 8957:1 8958:1 8959:1 8960:1 100001:1 100002:1 100003:1 #
-0.011707806964580921502139254641861 7:4 10:1 13:3 28:1 29:1 32:1 34:1 39:1 42:1 65:1 75:1 94:3 97:1 100:1 112:1 375:1 774:1 796:1 1054:1 1072:1 1152:1 1222:1 1324:2 1415:1 2535:1 2815:1 4404:1 4412:1 5717:1 6681:1 6733:1 8298:1 8299:1 8300:1 8301:1 8302:1 8303:1 8304:1 8305:1 8306:1 100001:1 100002:1 #
0.0030050781172712148769932127834181 7:5 13:1 28:1 75:1 83:1 100:1 161:1 172:1 186:1 200:1 201:1 534:1 1665:1 1929:1 2900:1 3540:1 3923:1 6797:1 7621:1 7622:1 7623:1 100001:1 100002:1 100004:1 100005:1 #
-0.0001176908979022688603657820216597 2:2 7:5 13:2 28:3 29:2 32:1 34:1 52:1 54:1 65:1 75:6 94:4 100:4 103:1 107:1 313:1 323:2 364:1 366:1 368:1 373:1 375:1 391:1 492:1 518:2 604:1 692:1 785:1 854:1 984:1 1305:1 1324:1 1558:1 1893:1 2033:1 2063:1 2439:1 2467:1 2623:1 3271:1 3612:1 3968:1 4118:1 4675:1 4676:1 4677:1 4678:1 4679:1 4680:1 4681:1 4682:1 4683:1 4684:1 4685:1 4686:1 4687:1 4688:1 4689:1 4690:1 4691:1 4692:1 4693:1 4694:1 4695:1 4696:1 100001:1 100002:1 #
-0.011707806964580921502139254641861 2:1 7:2 13:3 48:1 65:1 75:3 97:1 100:1 323:1 768:1 777:1 1072:1 1548:1 3107:1 3233:1 3504:1 3915:1 6037:1 8510:1 10827:1 10828:1 10829:1 100001:1 100002:1 #
0.0060421272790742476532788174381494 2:2 7:5 8:1 13:2 28:1 29:5 32:2 34:2 65:3 75:4 94:1 98:1 100:2 172:3 186:3 227:1 313:1 323:2 364:1 486:1 517:1 518:1 653:1 692:2 757:1 897:1 1045:1 1158:1 1464:1 1878:1 2259:1 2478:2 2479:1 2781:1 2974:1 3118:3 3221:1 3260:1 5942:2 6495:1 7021:1 7339:1 8519:1 10052:1 10359:1 10360:1 10361:1 10362:1 10363:1 10364:1 10365:1 10366:1 10367:1 10368:1 10369:1 10370:1 10371:1 10372:1 10373:1 10374:1 10375:1 10376:1 100001:1 100002:1 100004:1 #
0.011707806964580921502139254641861 7:4 13:1 28:1 42:1 75:3 98:1 100:1 172:1 186:1 227:1 310:1 323:1 367:1 381:1 517:1 526:1 721:1 748:1 1125:1 1445:1 1854:1 2077:1 2763:1 3219:1 3978:1 4697:1 4708:1 5087:2 6330:1 7246:1 7712:1 7713:1 10015:1 10016:1 10017:1 10018:1 100001:1 100002:1 100004:1 #
0.006332434922803825173842628970533 7:2 10:1 13:1 32:1 34:1 107:1 136:1 172:1 186:1 229:1 313:1 364:1 604:1 818:1 912:1 2050:1 2084:1 2089:1 4078:1 5061:1 5095:1 9071:1 100001:1 100002:1 100003:1 100004:1 #
0.011707806964580921502139254641861 13:1 1141:1 100001:1 100004:1 #
0.011707806964580921502139254641861 7:1 13:1 32:1 34:1 220:1 526:1 699:1 1078:1 100001:1 100002:1 100004:1 #
-0.011707806964580921502139254641861 7:1 13:1 18:1 172:1 186:1 247:1 4606:1 6868:1 6869:1 6870:1 100008:1 #
0.0024666767377909209167652360150669 2:1 7:11 8:1 10:1 13:8 28:4 29:9 37:1 39:5 42:1 43:1 65:6 75:7 90:4 92:1 94:2 97:5 98:4 100:2 103:1 112:1 113:1 299:1 300:1 304:3 323:3 358:1 375:1 448:1 481:1 517:1 584:2 604:1 715:1 744:1 764:1 765:1 766:1 769:1 777:2 778:1 794:1 796:1 826:1 832:1 940:1 950:4 964:1 966:2 981:1 1043:1 1044:1 1045:2 1144:1 1146:1 1157:1 1413:1 1510:1 1548:3 1549:2 1556:1 1562:1 1634:1 1862:1 1896:1 2016:1 2227:1 2265:1 2313:3 2342:1 2468:1 2772:1 3047:1 3259:1 3754:1 4132:1 4226:1 4997:1 5095:1 5783:1 5838:2 6148:1 6155:1 6172:1 6423:1 8152:1 8153:1 8154:1 8155:1 8156:1 8157:1 8158:1 8159:1 8160:1 8161:1 8162:1 8163:1 8164:1 8165:1 8166:1 100001:1 100002:1 100003:1 100004:1 #
-0.0032433670724941665239327015513027 2:2 7:7 10:1 13:2 28:2 29:7 32:3 34:3 65:4 75:8 94:1 98:2 100:1 103:1 107:1 172:3 186:3 298:2 323:3 358:2 367:2 375:1 517:1 520:1 522:1 526:1 559:1 696:1 721:1 864:1 950:3 989:1 1033:1 1063:1 1152:1 1341:1 1345:1 1548:1 2055:1 2160:1 2317:1 2325:1 2519:1 2777:1 2972:1 3136:1 3165:1 3222:1 3319:1 3357:1 3415:1 3423:1 4013:1 4263:1 4478:1 5124:1 6172:1 6173:1 6570:1 9490:1 9491:1 9492:1 9493:2 9494:2 9495:1 9496:1 9497:1 9498:1 9499:1 9500:1 9501:1 9502:1 100001:1 100002:1 100006:1 #
-0.0086680987305477533166886416893249 2:1 7:7 13:3 29:2 39:1 65:2 75:1 90:1 107:1 172:5 186:5 231:2 313:2 315:1 503:1 517:2 544:1 721:1 755:2 788:1 1113:1 1246:1 1339:1 1910:1 2586:1 3846:2 4321:1 4819:1 5463:1 5812:1 6715:1 6835:1 7029:1 8127:2 8128:3 8129:1 8130:1 8131:2 8132:2 8133:1 8134:1 8135:1 8136:1 8137:1 8138:1 8139:1 100001:1 #
0.007741499176317082238363287416405 7:1 13:4 28:2 32:4 34:4 39:1 71:2 75:1 94:5 97:2 327:1 539:1 686:1 702:2 1028:1 1041:1 1304:2 2316:1 3214:2 4051:2 4417:1 4553:1 8080:1 9786:2 9787:1 9788:2 9789:1 9790:1 9791:1 100002:1 100004:1 #
0.0024822240462364815460905020927385 7:3 13:1 28:1 65:1 94:3 299:1 520:1 787:1 1413:1 3555:1 3606:1 3708:1 3709:1 3710:1 100001:1 100002:1 100004:1 #
-0.0027302363297846878736896414352486 7:1 13:1 28:1 29:3 30:1 65:1 75:1 313:1 448:1 616:1 696:1 721:1 835:1 1501:1 2534:1 2770:1 3385:1 3885:1 5034:1 7671:1 9794:1 10969:1 10970:1 10971:1 10972:1 10973:1 10974:1 10975:1 10976:1 #
0.011707806964580921502139254641861 13:1 5170:1 100001:1 100004:1 #
-0.011707806964580921502139254641861 7:2 13:2 75:1 526:1 715:1 790:1 1143:1 4010:1 100001:1 100002:1 #
-0.011707806964580921502139254641861 2:1 7:4 13:1 28:2 37:1 343:1 2667:1 2668:1 5106:1 5107:1 5108:1 5109:1 5110:1 5111:1 100002:1 #
0.0011418066111062727743807876379378 3:2 7:12 13:7 16:3 18:3 28:3 29:3 39:1 43:1 46:3 54:1 60:2 65:2 70:1 71:1 75:8 97:1 103:2 105:1 107:1 172:5 186:5 271:2 275:2 298:2 304:1 315:1 323:2 364:1 375:1 530:1 544:1 554:1 579:1 587:1 694:1 821:1 912:1 966:1 1099:1 1156:3 1379:1 1445:1 1587:1 1658:1 1736:1 1800:2 1875:1 1879:2 1886:1 1904:1 1932:1 1983:1 2006:1 2523:1 2702:1 3074:1 3411:1 3562:1 3663:1 3664:1 3665:1 3666:1 3667:2 3668:1 3669:1 3670:1 3671:1 3672:1 3673:1 3674:1 3675:1 3676:1 3677:1 3678:1 3679:1 3680:1 3681:1 3682:1 3683:1 3684:1 3685:1 3686:1 3687:1 3688:1 3689:1 3690:1 3691:1 3692:1 3693:1 3694:1 3695:1 3696:1 3697:1 3698:1 3699:1 3700:1 100001:1 100002:1 100004:1 #
0.00079850556478042828897900839990598 7:10 10:1 13:4 28:3 29:5 32:4 34:3 39:3 42:3 60:1 65:2 75:7 93:1 94:3 98:2 100:1 103:1 118:1 152:1 172:1 186:1 209:1 251:1 307:1 313:1 323:5 364:1 448:1 484:1 512:1 517:1 560:1 577:1 580:1 598:1 602:1 604:1 623:1 633:1 776:1 824:1 981:1 1028:1 1289:1 1316:1 1501:1 1504:1 1713:1 1823:1 1875:2 1898:1 1912:1 1962:1 2677:1 2744:1 2876:2 3230:1 3450:1 3451:1 3534:1 3646:1 3820:1 4719:1 4795:1 4860:1 5518:2 6653:1 7283:1 7295:1 7372:2 7527:1 8177:1 8628:1 9310:1 10059:1 10236:1 10237:1 10238:1 10239:1 10240:1 10241:1 10242:1 10243:1 10244:1 10245:1 10246:1 10247:1 10248:1 10249:1 10250:1 10251:1 10252:1 10253:1 10254:1 10255:1 10256:1 10257:1 10258:1 10259:1 10260:1 10261:1 100001:1 100002:1 100003:1 100004:1 100006:1 #
0.0020676976755146184855371771504906 7:3 10:1 13:1 16:2 18:1 143:1 146:1 268:1 274:1 279:1 925:1 1063:1 1137:1 1233:1 1234:1 1235:1 1635:1 100001:1 100002:1 100003:1 100004:1 #
-0.011707806964580921502139254641861 5:1 7:3 10:1 13:3 28:3 39:1 75:1 94:1 97:1 98:1 124:1 147:1 172:1 186:1 225:2 465:1 513:1 604:1 680:1 696:1 725:1 1111:1 1587:1 2118:1 2652:1 5866:1 6927:1 7001:1 7953:1 8607:1 8608:1 8609:1 8610:1 8611:1 8612:1 100001:1 100002:1 100003:1 100005:1 #
0.00030781650111170620262579511461354 7:17 10:1 13:5 28:3 29:2 32:1 34:1 39:1 42:1 43:1 46:1 65:6 75:4 94:1 97:1 98:2 100:1 107:1 152:1 172:2 186:2 231:2 298:1 299:1 323:1 496:1 579:1 581:1 584:1 631:1 643:1 644:1 654:1 699:1 721:2 765:1 786:3 787:2 911:1 1080:2 1094:1 1230:1 1286:1 1289:1 1391:1 1504:1 1862:1 1863:1 2744:1 2866:1 3085:1 3222:1 3426:1 3427:1 3428:1 3429:1 3430:1 3431:1 3432:1 3433:1 3434:2 3435:1 3436:1 3437:2 3438:1 3439:1 3440:1 3441:1 3442:1 3443:1 3444:1 3445:1 3446:1 3447:1 3448:1 3449:1 3450:1 3451:1 3452:1 3453:1 3454:1 3455:1 3456:1 3457:1 3458:1 3459:1 3460:1 100001:1 100002:1 100003:1 100004:1 100006:1 #
0.0046900207331434101698519612000382 2:2 7:8 13:4 24:1 29:3 60:1 65:3 75:1 94:4 97:1 98:2 118:1 172:2 186:2 215:2 231:1 246:1 313:1 323:3 480:1 517:1 548:2 604:1 707:1 708:1 741:1 746:1 1153:1 1189:2 1501:2 1862:1 2015:2 2058:1 2220:1 2252:1 2552:1 2556:2 2675:1 2676:1 2677:1 2681:1 2701:1 2702:1 2703:1 2727:1 3731:2 3732:1 3733:2 3734:1 3735:1 3736:1 3737:1 3738:1 3739:1 3740:1 3741:1 3742:1 3743:1 3744:1 3745:1 3746:1 3747:1 3748:1 3749:2 3750:1 3751:1 3752:1 3753:1 3754:1 3755:1 3756:1 3757:1 3758:1 3759:1 100002:1 100004:1 100006:1 #
-0.0055230148085273064392786146470371 7:2 13:1 29:2 32:1 34:1 43:2 94:1 103:1 172:1 186:1 323:1 364:2 366:2 696:1 2023:1 2833:1 2899:1 2926:1 3541:1 4700:1 4701:1 5294:1 6912:1 7555:1 10483:1 10484:1 #
0.011707806964580921502139254641861 13:1 1141:1 100001:1 100004:1 #
-0.0065824438525608651093246059815556 7:1 13:2 29:2 39:1 46:1 65:1 75:1 97:1 100:1 323:1 364:1 1318:1 1619:1 2297:1 3253:1 3258:1 3259:1 3260:1 3704:1 4691:1 9520:1 9521:1 9522:1 9523:1 9524:1 9525:1 100002:1 100008:1 #
-0.00010017287339313278907680648810441 2:1 7:6 13:3 29:2 39:2 42:1 54:2 65:3 90:1 91:2 94:3 97:1 98:1 172:2 186:2 313:1 323:1 375:1 390:1 391:2 481:1 484:1 517:1 522:1 548:1 692:1 695:1 757:1 780:1 818:1 819:1 988:1 990:1 1041:1 1218:1 2106:1 2307:1 2489:1 2525:1 2641:2 3272:1 3980:1 4280:1 4628:1 4651:1 4821:1 5276:1 5722:1 5804:1 5950:1 5951:1 5952:1 5953:1 5954:1 5955:1 5956:1 5957:1 5958:1 5959:1 5960:1 5961:1 5962:1 5963:1 #
-0.0032202321131964226769150982931933 2:2 7:3 13:3 28:1 29:1 39:1 43:2 65:1 75:2 98:1 100:1 103:1 107:2 231:2 313:2 323:1 342:1 375:1 458:1 555:1 769:1 1156:1 1319:1 1324:1 1339:3 1341:1 1395:1 1408:1 1904:1 2068:1 2405:1 2406:1 3342:1 3607:1 3608:1 3609:1 3610:1 3611:1 3612:1 3613:1 3614:1 3615:1 3616:1 3617:1 3618:1 3619:1 3620:1 3621:1 3622:1 3623:1 3624:1 3625:1 3626:1 3627:1 3628:1 3629:1 3630:1 3631:1 100001:1 100002:1 #
-0.0034776625339374553011473345520699 7:1 13:1 28:3 29:9 39:1 42:1 43:1 54:1 65:1 75:2 94:2 97:2 100:3 107:1 172:1 186:1 298:1 323:2 336:1 364:1 407:1 411:2 464:1 775:1 788:1 1033:2 1044:1 1459:1 1508:3 1612:1 1801:1 2015:1 2052:1 2092:1 2715:1 2831:3 3695:1 5020:1 5198:1 5282:1 6205:1 6206:1 6207:1 6208:3 6209:1 6210:2 6211:2 6212:2 6213:1 6214:1 100002:1 100006:1 #
-0.00046601849924314141162401403661875 7:7 13:2 28:2 29:2 30:1 32:2 34:2 39:1 42:3 65:1 75:4 94:2 97:1 100:2 103:2 107:1 172:2 186:2 313:2 323:1 364:1 375:1 460:1 666:1 695:2 729:1 780:2 922:1 1024:1 1045:1 1156:1 1279:1 1302:1 1319:1 1339:1 1445:1 1468:1 1501:2 1755:1 2074:1 2077:1 2106:2 2175:1 2307:1 2455:2 2519:1 2744:1 2989:1 3068:2 3136:1 3804:1 3858:1 4193:1 5083:1 5818:1 6700:1 7007:1 9582:1 10246:1 10636:1 10637:2 10638:1 10639:1 10640:1 10641:1 10642:1 10643:1 10644:1 10645:1 10646:1 10647:1 10648:1 10649:1 10650:1 10651:1 10652:1 10653:1 10654:1 10655:1 10656:1 10657:1 10658:1 100002:1 100006:1 #
-0.003211244328988424861365258422552 2:1 7:3 13:1 28:1 84:4 97:1 172:1 186:1 205:1 310:1 313:1 323:2 475:1 548:1 554:1 555:1 818:1 2032:1 2462:1 3117:1 3404:1 3985:1 4413:1 4894:2 7450:1 9623:1 9624:1 9625:1 9626:1 9627:1 9628:2 #
0.011057197370521805457332931155179 6:1 7:4 13:3 29:1 32:1 34:1 39:2 65:2 75:4 82:1 83:2 90:1 94:1 100:1 103:1 107:1 323:1 434:1 513:1 690:1 692:1 864:1 1222:1 1499:1 1501:1 2582:1 2654:2 2754:1 2923:1 3062:1 3251:1 3689:1 3965:1 3966:1 3967:1 3968:1 3969:1 3970:1 3971:1 3972:1 3973:1 3974:1 3975:1 100001:1 100002:1 100004:1 100005:1 #
0.0010800113321455455210606810823037 7:5 13:1 28:2 46:1 70:1 75:2 81:1 94:1 97:1 103:1 172:1 186:1 214:1 298:1 323:1 364:1 518:1 559:2 715:1 1793:2 2227:1 2316:1 3529:1 5673:1 11238:1 11239:1 11240:1 11241:1 11242:1 11243:1 11244:1 11245:1 11246:1 100001:1 100002:1 100004:1 100006:1 #
-0.011707806964580921502139254641861 3:1 7:4 13:1 48:1 127:1 200:1 394:1 11466:1 11467:1 11468:1 11469:1 11470:1 100005:1 #
0.010539920169218820744649889320499 7:5 13:3 29:1 37:1 75:3 94:1 98:1 107:1 205:1 551:1 1727:1 1854:1 2534:1 2654:1 2918:1 3059:1 3212:1 4878:1 4879:1 4904:1 5196:1 5574:1 5575:1 5576:1 5577:1 100001:1 100002:1 100004:1 #
0.011170902578890072945339007048915 7:3 13:2 32:1 34:1 37:1 75:4 94:1 640:1 702:1 856:1 1024:1 2632:1 4335:1 4422:1 4423:1 5199:1 7379:1 8069:1 10295:1 100001:1 100002:1 100004:1 #
-0.0024479696124990349241634657317945 7:5 13:2 28:2 29:2 32:1 34:1 39:1 65:1 75:9 90:1 94:1 97:1 98:1 103:2 231:1 313:1 323:2 375:1 473:1 484:1 584:2 626:1 630:1 685:1 686:1 690:1 725:1 984:1 989:1 1446:1 1484:1 1501:1 1589:1 2036:1 2211:1 2271:1 2952:1 3056:1 4846:1 4924:1 5235:1 5325:1 7724:1 9873:1 10382:1 10383:1 10384:1 10385:1 10386:1 10387:1 10388:1 10389:1 10390:1 10391:1 10392:1 10393:1 100001:1 100002:1 #
-0.0027976500847972131380547722301344 7:4 13:4 29:3 39:1 75:6 90:1 94:1 97:1 100:1 103:2 112:1 113:1 211:1 231:1 304:1 560:1 715:1 780:1 792:1 796:1 797:1 831:1 832:1 950:1 1012:1 1339:1 2046:1 2143:2 2289:1 2455:1 2857:1 3606:1 3674:1 3708:1 4869:1 5278:1 8722:1 10867:1 10868:1 10869:1 10870:1 10871:1 100002:1 #
-0.0050045458019981146208232658523229 7:2 13:3 65:2 75:1 94:1 97:1 112:1 113:1 114:1 116:1 220:1 299:1 375:1 1596:1 1610:1 2471:1 3014:1 3283:1 3502:2 3503:1 100002:1 #
-0.006140589703412894020950751894361 13:1 54:1 65:1 75:1 100:1 1733:1 2773:1 2774:1 2775:1 2776:1 2777:1 100002:1 #
-0.011707806964580921502139254641861 7:3 13:1 29:1 46:1 70:1 75:3 98:1 100:2 1504:1 2430:2 2754:1 3781:1 4290:1 4422:1 4423:2 4433:1 100001:1 100002:1 #
0.0041464532000213914081365729202844 5:1 7:4 13:2 28:2 29:2 32:1 34:1 75:1 94:1 97:2 100:2 103:1 169:1 172:2 186:2 215:1 364:1 522:1 715:1 818:1 1302:2 1339:1 1347:1 1612:1 2203:2 2428:1 2429:1 2430:1 2433:1 2457:1 2603:1 4926:1 4927:1 4928:1 4929:2 4930:1 4931:1 4932:1 100001:1 100002:1 100004:1 #
0.011707806964580921502139254641861 7:2 28:1 42:1 97:1 172:1 186:1 323:1 873:1 933:1 1904:1 2409:1 2414:1 3283:1 3611:1 6580:1 7714:1 10691:1 10692:1 100002:1 100004:1 #
0.0023591708271616545523896579794609 7:6 13:2 29:2 75:2 97:2 98:2 323:2 690:2 777:2 1078:1 1289:4 2246:2 2303:2 2383:2 3426:2 3781:2 5853:2 9171:1 9434:1 9435:1 9436:1 100001:1 100002:1 100004:1 #
0.011707806964580921502139254641861 7:5 13:4 25:1 28:3 29:1 39:1 60:1 91:1 112:1 122:1 137:1 172:1 179:1 186:1 1072:1 1454:1 1752:1 1753:1 4080:1 4649:1 5811:1 5812:1 5813:1 5814:1 100002:1 100004:1 #
0.00023319647017505966066219791343883 7:5 13:2 28:2 75:2 78:2 94:1 97:1 98:1 100:1 124:1 147:1 172:2 179:1 186:2 323:1 520:1 521:1 1339:1 1464:1 1929:1 2638:1 2639:1 2641:1 3194:1 4689:1 5089:1 6797:1 9970:1 9971:1 9972:1 9973:1 9974:1 9975:1 9976:1 9977:1 9978:1 9979:1 100001:1 100004:1 #
-0.011707806964580921502139254641861 7:5 13:4 50:1 121:1 122:1 124:1 127:1 404:1 434:1 1081:1 1223:1 6001:1 7649:1 7650:1 7651:1 100002:1 100006:1 #
-0.011707806964580921502139254641861 2:2 7:3 13:3 28:3 32:2 34:2 65:1 71:1 75:1 97:1 103:2 161:1 169:2 172:2 186:2 448:1 522:1 818:1 1081:1 1105:1 1445:1 1446:1 1854:2 2227:1 2429:2 2439:1 2457:1 2472:1 2945:1 6105:1 6106:2 6107:1 6108:1 100001:1 100002:1 #
-0.011707806964580921502139254641861 7:6 13:2 28:1 46:1 69:1 103:1 200:1 202:1 298:1 323:1 343:1 527:1 1470:1 1471:1 1933:1 3086:1 3711:1 3712:1 3713:1 3714:1 3715:1 100001:1 100002:1 100006:1 #
0.0048277487705526015218659985350769 7:3 13:2 28:1 29:2 32:1 34:1 42:2 65:2 75:5 90:1 97:1 100:3 103:1 107:1 172:2 186:2 231:1 292:2 323:1 367:1 407:1 411:1 486:1 518:1 604:1 616:1 666:1 721:1 754:1 788:2 799:1 818:1 917:1 952:1 1019:1 1174:1 1379:1 1587:2 1959:1 2050:1 2108:1 2111:1 2130:1 2145:1 2147:1 2148:1 2332:1 2432:1 3742:1 3853:1 3911:2 4329:2 4518:1 6737:1 7090:1 7091:2 7092:1 7093:1 7094:1 7095:1 7096:1 7097:1 7098:1 7099:1 7100:1 100001:1 100002:1 100004:1 #
-0.0061682029577242065976339091548653 2:1 7:6 10:1 13:2 29:4 32:3 34:3 39:1 65:1 75:5 98:1 100:1 103:1 172:2 179:1 186:2 220:1 268:2 272:1 323:1 336:1 364:2 604:1 757:1 785:1 885:1 895:1 1018:2 1266:1 1379:1 1648:2 1875:1 1896:1 2106:1 2119:1 3283:1 3990:2 4646:1 4922:1 5092:1 5945:1 6102:1 6309:1 6563:1 6742:1 6824:1 7029:1 7031:2 7237:1 7449:1 7523:1 9072:1 9156:1 9242:1 9540:1 9541:1 9542:3 9543:1 9544:1 9545:1 9546:1 9547:1 9548:1 100001:1 100002:1 100003:1 #
0.011707806964580921502139254641861 13:1 5170:1 100001:1 100004:1 #
-0.0069618905228841536023121072673803 7:1 13:1 28:1 32:2 34:2 39:1 46:2 75:1 167:1 345:1 452:1 512:1 526:1 1612:1 4923:1 4924:1 4925:1 100002:1 100006:1 #
-0.011707806964580921502139254641861 7:3 10:1 13:4 28:2 29:2 32:1 34:1 43:1 65:2 71:1 75:2 93:1 94:2 97:4 98:2 100:1 105:1 118:1 169:1 172:3 179:2 186:3 298:1 304:1 343:1 520:1 541:1 561:1 612:1 699:1 790:1 1166:1 1222:1 1294:1 2429:1 2431:1 2440:1 2441:1 2445:1 2464:1 2923:1 3582:1 3930:1 5118:1 5119:1 5120:1 5121:1 5122:1 5123:1 5124:1 5125:1 5126:1 5127:1 5128:1 100001:1 100002:1 100003:1 100005:1 #
0.00095013678653507749067436138901144 2:1 7:11 8:2 10:2 13:5 28:5 29:2 32:2 34:2 39:5 43:1 75:4 103:1 119:1 168:1 231:2 248:1 299:1 313:1 323:2 364:1 381:1 530:3 620:1 669:1 670:1 671:1 672:1 673:1 674:1 675:4 676:1 677:1 678:1 679:1 680:1 681:2 682:2 683:2 684:1 685:1 686:1 687:2 688:1 689:1 690:3 691:1 692:1 693:1 694:1 695:1 696:1 697:1 698:1 699:1 700:1 701:1 702:1 703:1 704:1 705:1 706:1 707:1 708:1 709:1 710:1 711:1 712:1 713:1 100001:1 100002:1 100003:1 100004:1 #
-0.011707806964580921502139254641861 4:1 5:1 6:1 7:6 10:1 13:4 29:1 39:1 46:1 75:1 94:1 98:1 103:1 224:1 323:1 336:2 375:1 395:1 517:1 518:1 520:1 549:1 780:1 795:1 940:1 1156:1 1587:1 1644:1 1727:1 1893:1 2106:1 2316:1 2654:1 3212:1 3426:1 3846:1 4878:1 4879:1 5149:1 5888:1 8661:1 8752:1 9720:1 9721:1 9722:1 9723:1 9724:1 9725:1 100001:1 100002:1 100003:1 100006:1 #
0.011707806964580921502139254641861 7:1 13:1 39:1 75:1 766:1 790:1 1341:1 1610:1 3140:1 3701:1 3702:1 100001:1 100002:1 100004:1 #
-0.011707806964580921502139254641861 5:1 7:3 16:1 18:1 118:1 165:1 238:1 933:1 1435:1 2552:1 2657:1 2703:1 3582:1 4169:1 6186:1 6187:1 6188:1 6189:1 100002:1 100005:1 #
-0.011707806964580921502139254641861 7:3 13:2 16:3 20:1 60:2 165:2 192:1 504:1 1438:1 1474:1 1491:1 4255:1 5879:1 6113:1 8255:1 8256:1 8257:1 8258:1 8259:1 8260:1 8261:1 8262:1 8263:1 100001:1 #
0.011707806964580921502139254641861 7:2 13:1 28:2 46:1 65:1 75:2 94:2 137:1 172:1 186:1 366:1 873:1 1066:1 1257:1 1273:1 1274:1 1665:1 2177:1 2241:1 2242:1 2243:1 2244:1 2245:1 2246:1 100002:1 100004:1 #
-0.011707806964580921502139254641861 #
0.001804252047288634058785916636225 3:1 5:1 7:4 13:4 32:3 34:3 47:1 60:1 71:1 75:2 97:3 103:1 133:1 152:1 172:1 179:1 186:1 222:1 283:1 327:1 343:1 395:2 628:1 4051:1 4928:1 4972:1 6435:1 8293:1 9073:1 9074:1 9075:1 9076:1 9077:1 9078:1 9079:1 9080:1 9081:1 9082:1 9083:1 9084:1 9085:1 9086:1 9087:1 9088:2 9089:1 9090:1 9091:1 9092:1 9093:1 9094:1 100002:1 100003:1 100004:1 100006:1 #
0.011707806964580921502139254641861 7:2 13:1 28:1 29:1 32:1 34:1 75:1 97:1 103:1 172:1 186:1 323:1 460:1 898:1 1294:1 1308:1 3242:1 3296:1 6325:1 6326:1 6327:1 6328:1 6329:1 100002:1 100004:1 #
0.011707806964580921502139254641861 7:2 13:1 32:1 34:1 75:1 97:1 172:1 186:1 222:1 432:1 845:1 1767:1 4836:1 6436:1 9957:1 9958:1 100002:1 100004:1 100006:1 #
0.011707806964580921502139254641861 7:3 10:1 13:3 32:1 34:1 97:1 105:1 218:1 395:1 774:1 1856:1 1931:1 3707:1 6371:1 6805:1 100002:1 100003:1 100004:1 #
0.011707806964580921502139254641861 7:4 13:2 65:1 75:5 98:1 137:1 172:1 186:1 851:1 938:1 950:1 1644:1 1645:1 5332:1 5333:1 5334:1 5335:1 5336:1 100001:1 100004:1 #
0.011707806964580921502139254641861 7:3 13:1 39:1 69:1 75:1 103:2 179:1 244:1 298:1 375:1 1066:1 1230:1 1324:1 1379:1 2363:1 2531:1 2958:1 4302:2 4547:1 5099:1 10531:1 10532:1 10533:1 10534:1 10535:1 10536:1 10537:1 100001:1 100002:1 100004:1 #
-0.011707806964580921502139254641861 13:1 39:1 172:1 186:1 2223:1 2224:1 2225:1 #
0.0026633590865194900487722406978719 7:6 13:3 28:1 29:3 32:1 34:1 39:1 43:1 46:1 54:2 75:5 97:1 98:2 100:1 103:2 112:1 118:2 152:1 172:2 186:2 298:1 307:2 323:1 364:2 381:1 391:1 501:1 517:1 520:1 567:1 582:1 706:1 715:1 744:1 799:1 807:1 990:1 1024:1 1041:1 1044:1 1072:1 1081:1 1249:1 1284:1 1558:1 2854:2 3014:1 3023:1 6170:1 6171:1 6179:1 6320:1 6376:1 6377:1 6378:1 6379:1 6380:1 6381:1 6382:1 6383:1 6384:1 6385:1 6386:1 100001:1 100002:1 100003:1 100004:1 100006:1 #
0.00022902783553643645377342896729544 7:7 13:2 28:4 32:2 34:2 65:1 75:3 94:2 97:1 98:1 152:1 202:1 378:1 702:1 1324:1 1509:1 3158:1 3458:1 3505:1 3911:1 4013:1 4194:1 4195:2 4199:1 4200:1 4201:1 4202:1 4203:1 4204:1 4205:1 4206:1 4207:1 4208:1 4209:1 4210:1 5794:1 6081:1 9643:1 9644:1 9645:1 9646:1 100001:1 100003:1 100004:1 100006:1 #
0.011707806964580921502139254641861 7:1 13:1 65:1 774:1 1733:1 3283:1 3555:1 3556:1 100001:1 100002:1 100004:1 #
0.0021826052072827341679617241254618 2:1 5:1 7:7 13:2 16:1 28:1 43:1 46:1 65:1 160:1 244:1 245:1 246:1 247:1 343:1 1246:1 2201:1 2548:1 3097:1 3651:1 6322:1 10477:1 10999:1 11000:1 11001:1 100001:1 100002:1 100004:1 100006:1 #
0.0092688797938194414371970708543813 5:1 7:4 13:4 28:2 32:1 34:1 42:1 43:1 54:1 65:1 71:1 75:5 90:1 94:1 97:3 98:2 126:1 172:1 186:1 222:2 283:1 307:3 323:2 327:2 371:1 448:2 458:1 478:1 518:2 520:1 626:1 628:2 666:1 721:1 724:1 780:1 881:1 1158:1 1339:2 1863:1 2106:1 2470:1 2474:1 2942:1 3170:1 3236:1 4344:1 6434:1 6435:1 6436:1 6437:1 6438:1 6439:1 6440:1 6441:1 6442:1 6443:1 6444:1 6445:1 6446:1 6447:1 6448:1 6449:1 6450:1 100002:1 100004:1 100006:1 #
0.011707806964580921502139254641861 7:1 13:2 105:1 434:1 2766:1 100001:1 100002:1 100004:1 #
0.0017022185738896013391940886805287 7:2 13:2 60:1 124:1 147:1 1348:1 1349:1 1350:1 1351:1 1352:1 100001:1 100004:1 #
0.011707806964580921502139254641861 7:5 13:3 16:1 24:1 39:1 53:1 54:2 69:1 165:1 172:1 185:1 186:1 214:1 307:2 513:1 921:1 922:1 2043:1 3720:1 3806:1 8141:1 8142:1 8143:1 8144:1 8145:1 8146:1 8147:1 8148:1 8149:1 8150:1 8151:1 100002:1 100004:1 100006:1 #
0.0015858571333372114761650628622647 5:1 7:3 10:1 13:1 16:3 18:2 154:1 279:2 298:1 305:1 306:1 344:1 407:1 411:1 522:1 525:2 1234:1 2316:1 2626:1 2645:1 4646:1 6241:1 6242:1 6243:1 6244:1 6245:1 100001:1 100002:1 100003:1 100004:1 100006:1 #
0.0097845028290531321779610607336508 7:2 13:2 28:1 32:1 34:1 39:1 65:1 94:1 172:1 186:1 323:1 364:1 375:1 442:1 512:1 1575:1 2316:1 2662:1 2807:1 3222:1 3498:1 3781:1 4288:1 4289:1 4290:1 4291:1 4292:1 4293:1 4294:1 4295:1 4296:1 100001:1 100002:1 100004:1 #
0.0054762642116674663250730503705199 7:5 10:1 13:1 28:1 29:4 32:1 34:1 37:1 75:5 94:1 103:1 127:2 313:1 364:1 375:1 604:1 779:1 950:1 1170:1 1200:1 1201:1 1309:1 1409:1 2004:1 2205:1 2645:1 3320:1 3321:1 3322:1 3323:1 3324:1 3325:1 3326:1 3327:1 100001:1 100002:1 100003:1 100004:1 100005:1 #
0.011707806964580921502139254641861 7:8 10:1 13:6 32:2 34:2 50:1 105:1 121:1 122:1 123:1 124:1 125:1 127:1 179:1 299:1 395:1 1177:1 1856:1 3588:1 6041:1 6371:1 6805:1 7328:1 7329:1 100002:1 100003:1 100004:1 100006:1 #
-0.00087770372008118215014643714866338 7:1 13:2 16:1 54:2 165:1 1394:1 1395:1 1396:2 1397:1 1398:1 1399:1 1400:1 1401:1 1402:1 1403:1 1404:1 1405:1 1406:1 1407:1 #
0.011707806964580921502139254641861 5:1 7:3 13:1 16:1 18:2 29:1 42:1 60:1 70:1 97:1 165:1 172:1 186:1 774:1 1099:1 1619:1 1683:1 1757:1 2250:1 2251:1 2252:1 2253:2 2254:1 2255:1 2256:1 2257:1 2258:1 2259:1 2260:1 2261:1 2330:1 3720:1 4662:1 4874:1 7108:1 7109:1 7110:1 7111:1 100002:1 100004:1 100006:1 #
-0.0033643879322274501154910186784264 13:1 28:1 39:1 10109:1 10110:1 #
0.011707806964580921502139254641861 13:1 5170:1 100001:1 100004:1 #
0.0062107850764774345450613957098085 7:11 13:6 28:2 29:2 39:1 65:2 75:5 90:2 91:2 92:2 94:3 97:3 98:1 100:4 103:7 112:1 113:1 119:2 125:1 220:1 299:4 304:1 323:1 375:1 434:1 520:1 774:1 787:1 792:1 831:1 832:1 833:1 859:1 897:1 1055:1 1157:1 1341:1 1563:1 1610:1 2392:1 2941:1 3014:1 3099:1 3140:1 3555:1 3606:1 3655:1 3708:1 3709:1 3710:1 4315:2 6030:1 6031:1 6032:1 6033:1 6034:1 6035:1 6036:1 6037:1 6038:1 6039:1 6040:1 6041:1 6042:1 6043:1 6044:1 6045:1 100001:1 100002:1 100004:1 #
0.0024131223201331788302814729263446 7:9 13:6 28:2 29:2 32:1 34:1 39:2 42:1 65:1 75:2 90:1 93:1 94:4 97:1 100:3 103:2 107:2 112:1 152:1 231:1 298:1 323:2 375:1 517:1 520:1 571:1 630:1 741:1 757:1 761:1 796:1 797:1 818:1 897:1 950:1 989:1 1072:1 1105:1 1156:1 1341:1 1528:1 1529:1 1547:1 1610:1 1893:2 2160:1 2233:1 2455:1 2961:1 3132:1 3361:1 3709:1 3906:1 4641:2 5049:2 5446:1 5950:1 7120:1 7290:1 8157:2 8306:2 8544:1 9005:1 9910:1 10394:1 10395:1 10396:1 10397:1 10398:1 10399:1 10400:1 10401:1 10402:1 10403:1 10404:1 10405:1 10406:1 10407:1 10408:1 10409:1 10410:1 10411:1 10412:1 100001:1 100002:1 100003:1 100004:1 100006:1 #
0.0069339380026599110873330999993414 7:6 13:3 25:1 29:1 32:1 39:1 46:2 54:1 60:1 93:1 98:1 100:1 179:1 222:1 273:1 275:1 323:2 336:1 519:1 538:1 680:1 1222:1 1435:1 1482:1 1753:1 1933:1 2407:1 2502:1 3014:1 3333:1 4116:1 4140:1 4141:1 4142:1 4143:1 4144:1 4145:1 4146:1 4147:1 4148:1 4149:1 4150:1 4151:1 4152:1 4153:1 4154:1 100001:1 100002:1 100004:1 #
0.011707806964580921502139254641861 5:1 7:5 13:1 18:1 24:1 56:1 59:1 60:1 65:1 244:1 247:2 2727:1 5483:1 6870:1 7843:1 7844:1 7845:1 7846:1 7847:1 7848:1 7849:1 100002:1 100004:1 #
0.00036167228065150935911731266969582 7:4 10:1 13:3 28:3 29:4 32:2 34:1 39:3 43:1 48:1 71:1 75:3 94:1 97:1 103:1 231:1 323:1 336:1 364:1 375:1 486:2 503:1 551:1 553:1 587:1 604:1 799:1 1022:1 1156:1 1284:1 1302:1 1570:1 1959:1 2246:1 2254:1 2303:1 2522:1 2923:1 3086:1 3704:1 3789:1 3906:1 3992:2 4553:1 5071:1 6449:1 6729:1 9616:1 9617:1 9618:1 9619:1 9620:1 9621:1 100001:1 100002:1 100003:1 100004:1 #
0.0092947466497689500142254104275708 2:1 7:4 13:1 28:1 29:2 32:1 34:1 39:1 54:1 75:3 94:1 103:1 908:1 1831:1 1832:1 1835:1 2921:1 3242:1 3245:1 3246:1 3247:1 3248:1 3249:1 3250:1 3251:1 3252:1 100001:1 100002:1 100004:1 #
-0.0088861839999733113759639024920034 2:2 7:2 13:2 16:1 24:1 39:1 42:1 46:1 65:1 75:3 94:1 103:1 107:1 275:1 299:1 364:1 448:1 522:1 604:1 818:1 1246:2 1350:1 1413:1 1959:1 2332:1 2519:1 3259:1 3283:1 4293:1 5817:1 5942:1 7280:1 7292:1 7293:1 7294:1 7295:1 7296:1 7297:1 7298:1 7299:1 7300:1 7301:1 100001:1 100002:1 100008:1 #
-0.0036163280291425297860441467889814 7:1 13:4 29:1 32:1 34:1 43:1 54:1 65:1 69:1 75:3 84:1 100:1 103:1 231:1 307:1 315:1 373:1 432:1 448:1 486:1 517:1 518:1 604:1 645:1 933:1 1158:1 1303:1 1501:1 1865:1 1875:1 1886:1 2583:1 3667:1 3816:1 4163:1 5178:1 5420:1 5421:1 5422:1 5423:1 5424:1 5425:1 5426:1 5427:1 5428:1 100002:1 #
-0.011707806964580921502139254641861 2:1 7:2 10:1 13:1 32:1 34:1 43:1 54:1 122:1 306:1 391:1 584:1 679:1 690:1 724:1 1459:1 4098:1 6011:1 9259:1 9260:1 9261:1 9262:1 9263:1 9264:1 9265:1 100001:1 100002:1 100003:1 #
-0.0048648827755358925103990053173675 7:1 13:5 28:1 29:2 75:2 78:1 97:2 98:2 103:1 172:3 186:3 306:1 307:1 323:2 481:1 484:1 554:2 582:1 584:1 755:1 769:1 787:1 920:1 933:1 1064:1 2023:1 3005:1 3218:1 3361:1 3781:1 6079:1 7403:1 8408:1 9255:1 10283:1 10380:1 11397:1 11398:1 11399:1 11400:1 100002:1 #
-0.011707806964580921502139254641861 7:2 10:1 13:1 75:1 2566:1 2567:1 2568:1 2569:1 100002:1 100003:1 #
0.0080106516658987689943893784061402 2:1 6:1 7:6 10:1 13:1 28:1 94:1 98:1 103:1 107:1 172:1 186:1 200:1 699:1 1110:1 1246:1 1407:1 1801:1 4865:1 4866:1 4867:1 4868:1 4869:1 4870:1 100001:1 100002:1 100003:1 100004:1 100006:1 #
-0.0086258597743985032657576539349975 6:1 13:1 18:1 29:4 43:1 60:1 65:2 75:4 78:1 97:1 98:1 107:1 172:3 186:3 231:1 306:1 323:1 327:1 368:1 517:1 692:1 1379:1 2106:1 2444:2 2834:1 4005:1 4469:1 6733:1 7403:1 7739:1 7740:1 7741:1 7742:2 7743:1 7744:1 7745:1 7746:1 7747:1 7748:1 100001:1 #
-0.0049724630470683213456783988704046 13:3 28:1 29:2 32:1 34:1 39:2 46:1 75:1 94:1 97:1 118:2 323:1 579:1 612:1 640:1 684:1 911:1 1230:1 1294:1 1499:1 2205:1 2582:1 3923:1 4917:1 4918:1 4919:1 4920:1 4921:1 4922:1 100002:1 100008:1 #
0.0071312412884541589649933790440173 7:3 13:3 105:2 152:2 179:1 2647:1 2648:1 2649:1 2650:1 2651:1 100003:1 100004:1 100006:1 #
0.011707806964580921502139254641861 5:1 7:3 13:3 28:1 32:1 34:1 97:2 107:1 143:1 146:1 172:1 186:1 512:1 1441:1 1442:1 3760:1 4928:1 6246:1 6247:1 6248:1 6249:1 6250:1 6251:1 6252:1 6253:1 100002:1 100004:1 #
-0.0011524098808064521526350887370427 7:6 13:3 4565:1 4567:3 4570:2 4576:3 4579:1 4581:1 4584:1 4595:1 5618:1 5619:1 5621:4 5631:1 5636:4 5648:2 5652:1 5731:1 5733:1 5736:1 5740:4 5742:1 5745:1 7776:1 7777:1 7778:1 7779:3 7780:1 7781:1 7782:1 7783:1 7784:1 7785:1 7786:1 7787:1 7788:2 7789:1 7790:2 7791:1 7792:2 7793:1 7794:1 7795:1 7796:1 7797:1 7798:1 7799:1 7800:1 7801:1 7802:1 7803:2 7804:1 7805:1 7806:1 7807:1 7808:1 7809:1 7810:1 7811:1 7812:1 7813:1 7814:1 7815:2 7816:1 7817:1 7818:1 7819:1 7820:1 7821:1 7822:1 7823:1 7824:1 7825:1 7826:1 7827:1 7828:1 7829:1 7830:1 #
-0.011707806964580921502139254641861 7:7 13:1 28:1 32:2 34:2 75:1 103:1 179:2 205:1 320:1 323:1 364:1 901:1 1421:1 3188:1 6328:1 10226:2 10958:1 10959:1 10960:1 10961:2 10962:1 10963:1 10964:1 10965:1 10966:1 10967:1 10968:1 100001:1 100002:1 #
0.011707806964580921502139254641861 7:2 13:1 29:3 75:3 94:1 100:2 315:1 358:1 696:1 723:1 890:1 897:1 1028:1 1924:1 1925:1 1926:1 1927:1 1928:1 1929:1 1930:1 1931:1 100001:1 100002:1 100004:1 #
0.0055057677329598368742846759005261 2:1 7:3 10:1 13:2 28:1 29:1 39:3 65:4 75:4 97:1 107:2 172:1 186:1 299:1 323:1 375:1 486:2 517:1 518:1 741:1 777:1 787:1 950:1 1024:1 1055:1 1149:1 1249:1 1413:1 1415:1 1494:1 1619:1 1893:1 2106:1 2357:1 2971:1 2972:1 3502:1 3520:1 4020:1 4132:1 5476:1 5484:1 5485:1 5486:3 5487:1 5488:1 5489:1 5490:1 5491:1 5492:1 5493:1 5494:1 5495:1 100001:1 100002:1 100003:1 100004:1 #
-0.011707806964580921502139254641861 5:1 7:3 13:1 18:1 75:1 172:1 186:1 666:1 1063:1 1294:1 2259:2 2704:1 3501:1 7911:1 8092:1 100002:1 #
0.011707806964580921502139254641861 13:1 1141:1 100001:1 100004:1 #
-0.011707806964580921502139254641861 7:4 13:3 28:1 42:1 54:1 65:1 75:1 91:1 107:1 172:1 179:1 186:1 220:1 313:1 323:1 391:1 702:1 926:1 1274:1 1753:1 2527:1 2662:1 3540:2 5369:1 7310:1 10614:1 10620:1 10621:1 10622:1 11241:1 11485:1 11486:1 11487:1 11488:1 100001:1 100002:1 #
-0.011707806964580921502139254641861 7:2 13:1 28:1 75:1 94:1 100:1 103:1 107:1 518:1 996:1 1321:1 1322:1 1323:1 1324:1 1325:1 1326:1 1327:1 1328:1 1329:1 1330:1 1331:1 100001:1 100002:1 #
-0.011707806964580921502139254641861 7:2 13:1 75:1 98:1 323:1 720:1 721:1 722:1 723:1 724:1 725:1 726:1 727:1 728:1 100001:1 100002:1 #
-0.011707806964580921502139254641861 2:1 7:3 13:1 1143:1 1150:1 1246:1 1796:1 100002:1 100006:1 #
-0.0057829315711087608126161896393569 7:4 13:2 18:1 32:1 50:1 122:1 124:1 127:1 175:1 220:1 299:1 404:1 407:1 408:1 411:1 640:1 1485:1 1669:1 1670:1 1671:1 1672:1 1673:1 1674:1 1675:1 1676:1 1677:1 1678:1 100002:1 #
-0.0025315835634567656307891692080148 7:4 13:2 16:1 18:1 54:5 60:2 97:1 165:1 220:1 275:1 407:1 411:1 504:1 832:3 925:1 927:1 1398:1 1400:1 1402:1 1474:1 1475:1 1476:1 1477:2 1478:2 1479:1 1480:1 1481:1 1482:1 1483:1 1484:1 1485:1 1486:1 1487:1 1488:1 1489:1 1490:1 1491:1 1492:1 1493:1 1494:1 1495:1 1496:1 1497:1 1498:1 1499:1 1500:1 1501:1 1502:1 1503:1 100002:1 100006:1 #
-0.011707806964580921502139254641861 10:1 13:2 790:1 100002:1 100003:1 #
-0.011707806964580921502139254641861 7:4 13:2 50:1 122:1 124:1 127:1 220:1 1678:1 3124:1 8961:1 8962:1 8963:1 100002:1 100006:1 #
0.00047743409454363984045083268981102 7:13 10:2 28:2 32:2 34:2 39:2 65:1 75:4 82:1 97:1 98:1 107:1 172:1 179:1 186:1 680:1 911:1 960:1 1144:1 1324:1 1391:1 1587:1 1933:1 2582:1 3068:1 3250:1 4422:2 4423:2 6129:1 6156:1 7368:1 7983:1 10991:1 11023:1 11024:1 11025:1 11026:1 11027:1 11028:1 11029:1 11030:1 11031:1 11032:1 11033:1 11034:1 100001:1 100002:1 100003:1 100004:1 100006:1 #
0.0090295772694521363871400509992782 7:3 13:1 28:1 29:2 75:2 78:1 103:2 366:1 503:1 513:1 525:1 2303:1 3931:1 4819:1 5479:1 5480:1 5481:1 5482:1 5483:1 100001:1 100002:1 100004:1 #
0.011707806964580921502139254641861 7:2 10:2 13:2 137:1 765:1 2731:1 2732:1 4080:1 100002:1 100003:1 100004:1 #
-0.011707806964580921502139254641861 7:1 13:2 1465:1 1612:1 100002:1 #
-0.011707806964580921502139254641861 7:1 13:1 29:1 42:1 46:1 75:2 107:1 137:1 172:1 186:1 484:1 501:1 502:1 1912:1 3990:1 4800:1 4801:1 8331:1 8332:1 #
0.011707806964580921502139254641861 7:8 10:2 13:2 32:2 34:2 50:1 71:1 122:1 124:1 127:1 299:1 404:1 407:1 408:1 411:1 417:1 961:1 1120:1 1485:1 1516:1 1669:1 1670:1 1674:1 2316:1 3122:1 3123:1 3124:1 3125:1 3126:1 3127:1 3128:1 3129:1 100002:1 100003:1 100004:1 100006:1 #
-0.0099464620963283668225729527989643 7:4 13:2 32:1 34:1 50:1 122:1 124:1 127:1 175:1 299:1 404:1 407:1 408:1 411:1 1452:1 1485:1 1669:1 1670:1 1674:1 1678:1 1814:1 1815:1 1816:1 1817:1 1818:1 1819:1 1820:1 100002:1 #
-0.011707806964580921502139254641861 7:5 13:4 65:1 75:2 936:1 976:2 1152:1 1575:1 4263:1 4618:1 11412:1 11413:1 11414:1 11415:1 11416:1 #
0.0099876348239070628087787895310612 7:2 10:1 13:2 28:1 29:1 39:1 98:1 147:1 179:3 320:1 323:1 1121:1 1455:1 2190:1 5006:1 6418:1 10443:1 10444:1 10445:1 10446:1 10447:1 100001:1 100003:1 100004:1 100006:1 #
-0.011707806964580921502139254641861 7:2 13:1 28:1 29:1 32:1 34:1 65:1 75:1 103:1 244:1 343:1 503:1 633:1 766:1 2303:1 2800:1 2811:1 5144:1 6233:1 10303:1 10304:1 10305:1 10306:1 10307:1 100001:1 100002:1 #
-0.011707806964580921502139254641861 13:1 39:1 786:1 787:1 1294:1 1309:1 100002:1 #
-0.011707806964580921502139254641861 7:2 13:1 1177:1 2316:1 10472:1 100002:1 100006:1 #
-0.00024421706576739209831883314905099 7:5 13:10 28:5 29:3 32:2 34:2 37:1 39:4 42:1 43:1 65:4 75:7 94:5 98:2 100:4 103:2 107:4 136:1 172:2 186:2 209:1 231:1 236:1 313:1 323:2 375:1 460:1 484:1 496:1 513:1 517:1 519:1 529:2 530:1 541:1 548:2 549:1 604:2 622:1 625:1 696:1 722:1 760:1 788:1 799:1 818:1 854:1 855:3 856:1 858:1 983:1 1028:1 1035:2 1156:3 1284:2 1657:6 1665:1 1803:1 1893:1 1929:1 2168:1 2221:2 2455:1 2519:1 2754:1 2763:1 3119:1 3511:2 3979:1 4330:1 4374:1 4467:1 4509:1 4874:1 4961:1 5543:1 5659:1 6425:1 6443:1 6797:1 6801:1 7265:2 7266:1 7267:1 7268:1 7269:1 7270:1 7271:1 7272:1 7273:1 7274:1 7275:3 7276:1 7277:1 7278:1 7279:1 7280:1 7281:1 7282:1 7283:1 7284:1 7285:1 7286:1 7287:1 7288:1 7289:1 7290:1 7291:1 100001:1 100002:1 #
0.0034659966935380280561584953602505 7:4 13:2 28:1 29:1 32:1 34:1 75:1 98:1 100:1 323:1 952:1 1284:1 2679:1 3571:1 3968:1 4423:1 4929:1 5425:1 6125:1 6126:1 6127:1 6128:1 6129:1 6130:1 6131:1 6132:1 100001:1 100002:1 100004:1 #
-0.00043685343950115043893181465683995 32:1 34:1 42:1 65:1 442:1 1912:1 2582:1 3757:1 4792:1 10774:1 #
0.0026275500479023840803838307778051 7:5 13:1 28:2 75:2 78:1 97:1 103:1 172:1 186:1 298:1 448:1 520:1 521:1 552:1 1339:1 1801:1 1931:1 2764:1 2769:1 3154:1 5126:1 9610:1 10946:1 10947:1 10948:1 10949:1 10950:1 10951:1 10952:1 100001:1 100002:1 100004:1 #
0.00083007466683719416822989645154962 7:5 13:2 16:1 18:1 39:1 42:1 43:1 46:1 60:2 65:1 75:2 97:1 169:1 172:1 185:1 186:1 264:1 296:1 298:1 364:1 434:1 766:1 911:2 912:1 933:1 990:1 1063:1 1797:1 1886:1 1913:1 2005:1 2239:1 2589:1 2901:1 3673:1 3682:1 3698:1 9316:1 9982:1 9983:1 9984:1 100001:1 100002:1 100004:1 #
-0.011707806964580921502139254641861 2:2 7:3 103:1 327:1 375:1 762:1 873:1 2036:1 3866:1 5087:1 10378:1 10379:1 10380:1 10381:1 100001:1 #
-0.011707806964580921502139254641861 7:3 10:1 13:2 75:1 98:1 306:1 1931:1 4946:1 5967:1 8274:1 8275:1 8276:1 100002:1 100003:1 #
0.011707806964580921502139254641861 7:2 13:2 29:1 32:1 34:1 70:1 75:1 97:1 172:1 185:1 186:1 920:1 923:1 932:1 935:1 2589:1 2703:1 3781:1 8399:1 8748:1 100002:1 100004:1 #
0.011707806964580921502139254641861 7:5 13:1 172:1 186:1 236:1 706:1 1292:1 1455:1 7620:1 10713:1 100002:1 100004:1 #
-0.011707806964580921502139254641861 7:3 13:1 75:1 94:2 100:1 118:2 172:1 186:1 440:1 1045:1 1222:1 1341:1 1599:1 1600:1 1601:1 1602:1 1603:1 1604:1 1605:1 1606:1 1607:1 1608:1 1609:1 1610:1 1611:1 1612:1 100002:1 100006:1 #
0.011707806964580921502139254641861 7:2 13:2 28:1 29:1 41:1 54:1 75:1 98:1 323:2 557:1 604:1 1504:1 1601:1 2022:1 3002:1 3280:1 7448:1 7560:1 7561:1 7562:1 7563:1 100001:1 100002:1 100004:1 #
-0.011707806964580921502139254641861 7:2 39:1 65:1 75:1 97:1 214:1 323:1 459:1 560:1 778:1 779:1 912:1 1316:1 2205:1 3725:1 3726:1 3727:1 100002:1 100006:1 #
0.011707806964580921502139254641861 7:2 13:1 179:1 419:1 893:1 4788:1 8058:1 8059:1 100001:1 100004:1 100006:1 #
-0.011707806964580921502139254641861 7:1 13:2 1294:1 1504:1 3002:1 100002:1 #
0.00082769465579194323109901709756286 3:1 7:12 10:1 13:3 28:2 29:5 32:3 34:2 39:1 41:1 43:2 65:3 75:5 90:1 94:1 98:2 100:2 103:1 172:1 186:1 210:1 299:1 313:1 323:2 391:2 458:1 486:1 517:1 519:1 589:1 668:1 790:1 859:1 886:1 900:2 1113:1 1379:1 1893:2 1904:1 1971:1 2533:1 2535:1 2648:1 4059:1 4104:1 4630:1 4681:1 5028:1 5034:1 5430:1 5431:1 5432:1 5433:1 5434:1 5435:1 5436:1 5437:1 5438:1 5439:1 5440:1 5441:1 5442:1 5443:1 5444:1 5445:1 5446:1 5447:1 5448:1 5449:1 5450:1 5451:1 5452:1 5453:1 5454:1 5455:1 5456:1 5457:1 5458:1 5459:1 5460:1 5461:1 5462:1 5463:1 5464:1 5465:1 5466:1 5467:1 5468:1 100001:1 100002:1 100003:1 100004:1 100006:1 #
0.0031319512076816969324555284259759 2:1 7:4 10:1 13:3 28:1 43:1 75:2 84:1 97:1 98:1 100:1 103:2 107:1 234:1 323:1 364:1 765:1 766:1 774:1 922:1 933:1 1253:1 1341:1 1718:1 1785:1 1807:1 1865:1 1875:1 2582:1 3667:1 3748:1 5422:1 5423:1 8325:1 8326:1 8327:1 8328:1 8329:1 8330:1 100001:1 100002:1 100003:1 100004:1 100008:1 #
0.011707806964580921502139254641861 13:1 1141:1 100001:1 100004:1 #
-0.0023669616706089233182375153319299 13:2 28:1 75:2 94:1 103:1 202:1 315:1 323:1 548:1 721:1 753:1 835:1 1253:1 1302:1 2881:1 3214:2 3215:1 3216:1 3217:1 3218:1 #
-0.011707806964580921502139254641861 13:2 46:1 1501:1 3311:1 #
0.011707806964580921502139254641861 2:1 7:3 10:1 13:2 29:1 30:1 32:1 34:1 48:1 94:1 98:1 231:1 248:1 319:1 364:1 1294:1 1339:1 1797:1 2454:1 3578:1 4664:3 4665:1 4666:1 4667:1 4668:1 4669:1 100002:1 100003:1 100004:1 #
-0.011707806964580921502139254641861 7:1 13:1 29:1 75:1 323:1 775:1 909:1 1156:1 2246:1 4078:1 11279:1 100002:1 #
-0.0091432918778119928043812691953462 2:1 7:1 13:1 32:1 34:1 39:1 75:1 94:1 97:2 300:1 319:1 786:1 873:1 1049:1 1077:1 1771:1 2110:1 2363:1 5112:1 5113:1 5114:1 5115:1 5116:1 5117:1 100002:1 100006:1 #
-0.0098287634315652339794810998796493 7:1 13:1 28:2 29:2 39:1 42:1 94:3 343:1 535:1 911:1 1309:1 1601:1 2040:1 2572:1 3283:1 6823:1 6824:1 6825:1 100002:1 #
0.011707806964580921502139254641861 13:1 46:1 1222:1 3689:1 5578:1 100001:1 100002:1 100004:1 #
0.011707806964580921502139254641861 7:4 13:1 152:1 407:1 411:1 527:2 926:1 1849:1 1855:1 4773:1 4774:1 4775:2 4776:1 4777:1 100002:1 100003:1 100004:1 100006:1 #
-0.011707806964580921502139254641861 7:2 13:3 32:3 34:3 36:1 103:1 7598:1 7599:1 7600:1 7601:1 #
0.0099070040793053700672876615840323 7:3 13:1 16:1 298:1 1438:1 1612:1 2702:1 2703:1 7212:1 7213:1 7214:1 7215:1 7216:1 100001:1 100002:1 100004:1 #
0.011707806964580921502139254641861 7:2 13:1 18:1 32:1 34:1 60:1 70:1 97:2 169:1 172:1 186:1 299:1 1081:1 1948:1 3191:1 5514:1 5515:1 5516:1 5517:1 5518:1 5519:1 5520:1 5521:1 5522:1 5523:1 5524:1 5525:1 100002:1 100004:1 100006:1 #
0.011707806964580921502139254641861 5:1 7:4 10:1 13:2 29:1 32:1 34:1 75:1 97:1 172:1 186:1 1294:1 2471:1 2731:1 3760:1 6106:1 6840:1 6881:1 6882:1 6903:1 6904:1 6905:1 6906:1 6907:1 6908:1 100002:1 100003:1 100004:1 #
0.011707806964580921502139254641861 7:2 13:1 46:1 65:1 75:1 1132:1 1221:1 1222:1 1932:1 1933:1 1934:1 1935:1 100001:1 100002:1 100004:1 100006:1 #
-0.011111184299719323656518987775144 7:4 13:3 28:1 112:1 298:3 1072:1 1230:2 8334:1 8335:1 8336:1 8337:1 8338:1 100002:1 #
-0.011707806964580921502139254641861 7:3 13:3 112:1 298:1 299:1 654:1 1072:1 2425:1 2426:1 100002:1 #
-0.011707806964580921502139254641861 7:5 13:1 28:1 94:1 98:1 100:1 103:1 327:1 332:1 375:2 517:1 1216:1 1880:1 2106:1 2175:1 3426:1 4132:1 4133:1 4134:1 4135:1 4136:1 4137:1 4138:1 4139:1 100001:1 #
-0.0056547498986179505972571313066055 7:5 13:1 25:1 28:4 29:1 32:3 34:2 39:1 43:2 46:1 65:2 75:5 94:1 107:1 179:1 364:2 391:1 519:1 689:1 770:1 846:1 915:1 1324:1 1339:1 1710:1 1717:1 2834:1 3068:1 3187:1 3973:1 4139:1 4515:1 5290:1 5297:1 5420:1 6968:1 10115:1 10226:1 10608:1 11496:1 11497:1 11498:1 11499:1 11500:1 11501:1 11502:1 11503:1 11504:1 11505:1 11506:1 11507:1 11508:1 11509:1 100001:1 100002:1 #
-0.0080450929742133855254726526595732 2:1 7:8 13:2 28:1 29:1 65:2 75:1 90:1 94:1 98:1 100:2 172:3 179:1 186:3 220:1 231:1 313:1 375:1 486:1 517:1 620:1 690:1 699:1 780:1 1454:1 1655:1 1896:1 2106:1 2989:1 3270:1 3754:1 3889:1 3890:1 3891:1 3892:1 3893:1 3894:3 3895:1 3896:1 3897:1 3898:2 3899:1 3900:1 3901:1 3902:1 3903:1 100001:1 100002:1 #
0.011707806964580921502139254641861 13:1 1141:1 100001:1 100004:1 #
-0.011707806964580921502139254641861 7:3 13:1 29:1 32:1 34:1 39:1 65:1 75:2 82:1 97:1 323:1 336:1 366:1 372:1 484:1 520:1 522:1 2106:1 2469:1 3574:1 3982:1 4454:1 6649:1 6650:1 6651:1 6652:1 6653:1 6654:1 100001:1 #
0.011707806964580921502139254641861 7:1 13:1 512:1 786:1 1045:1 2226:1 100001:1 100002:1 100004:1 #
-0.011707806964580921502139254641861 2:1 7:1 13:1 28:1 32:1 34:1 75:1 93:1 103:1 323:1 463:1 524:1 725:1 1407:1 1893:1 1979:1 2110:1 3152:1 3153:1 3154:1 3155:1 3156:1 3157:1 3158:1 3159:2 3160:1 100001:1 100002:1 #
-0.0070979054988311550411506090085823 7:5 13:2 28:2 29:2 39:1 65:4 68:1 75:5 97:2 98:1 100:1 103:2 172:2 186:2 298:2 315:1 375:1 448:1 497:3 498:3 533:1 571:1 774:1 1156:1 1222:1 1421:1 3582:1 4289:2 4729:1 4903:2 7905:2 8119:1 8723:1 8724:1 8725:2 8726:1 8727:1 8728:1 100001:1 100002:1 100006:1 #
-0.011707806964580921502139254641861 7:5 10:1 13:1 28:1 29:2 39:1 65:2 75:2 90:1 97:1 98:2 100:1 172:1 179:1 186:1 231:1 624:1 655:1 971:1 1152:1 1805:1 1854:1 2036:1 2445:1 3047:1 3603:1 3990:1 6656:1 6657:1 6658:1 6659:1 6660:1 6661:1 6662:1 6663:1 6664:1 6665:1 6666:1 100001:1 100003:1 #
0.011707806964580921502139254641861 7:2 13:1 152:1 1044:1 1221:1 1222:1 1824:1 8126:1 100002:1 100003:1 100004:1 100006:1 #
-0.0057863203687418618761939548278406 7:2 13:1 28:1 323:3 494:1 607:1 616:1 653:1 746:1 1970:1 2566:1 2898:1 3985:1 4342:1 6423:1 6424:1 6425:1 6426:1 #
-0.011707806964580921502139254641861 7:2 13:3 112:1 298:1 1072:1 5413:1 5414:1 100002:1 #
0.0095331779384620861372834355051964 2:1 7:4 13:1 28:1 29:1 30:1 65:1 75:1 94:1 143:1 146:1 172:1 186:1 298:1 2214:1 3047:1 3280:1 3319:1 5945:1 9888:1 10522:1 10742:1 10743:1 10744:1 10745:1 100001:1 100002:1 100004:1 100006:1 #
0.0070825393414864845978429208628313 7:1 13:2 28:1 124:1 147:1 1273:1 1274:1 4550:1 4551:1 100001:1 100004:1 #
0.011707806964580921502139254641861 7:1 13:2 124:1 147:1 3495:1 100001:1 100004:1 #
0.011707806964580921502139254641861 7:1 13:2 124:1 147:1 6525:1 6526:1 100001:1 100004:1 #
-0.0072054491754804670181067116629947 2:2 7:2 13:1 28:1 75:2 94:2 103:2 107:1 172:1 186:1 343:1 358:1 364:1 517:2 554:1 645:1 775:1 856:1 1445:1 1587:1 1616:1 1617:1 2605:1 3117:1 4263:1 5089:1 5200:1 5694:1 5815:1 5816:1 5817:1 5818:1 5819:1 5820:1 5821:1 5822:1 5823:1 5824:1 5825:1 5826:1 100001:1 100002:1 #
-0.011140386865524732132315399724121 5:1 7:4 13:2 16:1 29:1 39:1 75:1 94:1 97:1 98:1 100:1 143:2 146:2 172:1 186:1 283:1 323:1 364:1 517:1 522:2 526:1 715:1 864:1 933:1 1152:1 1931:1 2201:1 2430:1 2469:1 2754:1 3151:1 3260:1 4467:1 6571:2 6572:1 6573:1 6574:1 6575:1 6576:1 6577:1 100001:1 100002:1 #
-0.0068994442415731748949325741193661 2:1 7:4 9:2 28:2 29:2 30:1 32:2 34:2 37:2 39:3 65:1 75:2 78:2 94:1 179:1 220:1 299:1 517:1 522:1 591:1 725:1 1325:2 1896:1 2455:1 2834:1 3212:2 3884:1 4058:1 5977:1 7438:2 8679:2 11102:1 11103:1 11104:1 11105:1 11106:1 100001:1 100002:1 #
-0.0099084528586793028936963168007424 7:5 13:3 29:1 65:1 75:2 112:1 220:1 654:1 673:1 1043:1 1045:1 1050:1 1051:1 1052:1 1053:1 1054:1 1072:1 1073:1 1074:1 100002:1 #
0.011707806964580921502139254641861 7:3 13:2 28:1 29:1 37:1 65:1 75:1 504:1 505:1 1276:1 1445:1 1465:1 2575:1 3260:1 3582:1 3817:1 4903:1 7256:1 7257:1 100002:1 100004:1 #
-0.011707806964580921502139254641861 7:4 13:2 50:1 121:1 122:1 123:1 124:1 125:1 127:1 2227:1 4777:1 100002:1 #
0.003492607202222349979670035224899 7:4 13:1 16:1 32:2 34:2 41:1 160:1 305:1 306:1 1231:1 1350:1 10321:1 10473:1 10474:1 10475:1 10476:1 10477:1 10478:1 10479:1 100001:1 100002:1 100004:1 #
-0.0010447804354906382699741396180571 7:6 13:3 24:1 28:2 29:3 37:1 43:1 54:2 65:2 75:2 94:3 98:1 100:1 103:2 107:2 231:1 358:2 548:1 555:1 559:1 630:1 835:1 895:1 1118:1 1156:1 1341:2 1528:1 2056:1 2068:1 3342:1 3613:2 3614:1 3629:1 4163:1 5382:1 6581:1 6929:2 7287:1 7898:1 8014:1 8576:1 9792:1 9793:1 9794:1 9795:1 9796:1 9797:1 9798:1 9799:1 9800:1 9801:1 100002:1 #
-0.011707806964580921502139254641861 7:1 13:2 343:1 1465:1 100002:1 #
-0.011707806964580921502139254641861 7:1 13:3 97:1 100:1 323:1 380:1 517:1 604:2 1552:1 2923:1 3260:1 5547:1 5548:1 5549:1 5550:1 100002:1 #
-0.011707806964580921502139254641861 5:1 7:1 13:2 160:1 343:1 100002:1 #
-0.011232887322240496866254666485929 13:2 65:1 172:1 186:1 799:1 2168:1 2415:1 3867:1 4821:1 5028:1 5029:1 #
0.0086482973369746939107383099099025 7:4 13:1 28:1 29:1 39:1 75:1 220:1 519:1 544:1 856:1 1216:1 3513:1 7369:1 8072:1 8628:1 10714:1 10715:1 10716:1 10717:1 10718:1 100001:1 100002:1 100004:1 #
0.0049938820325177114486936424953001 7:3 13:2 29:1 32:2 34:2 37:1 75:2 161:1 224:1 368:1 460:1 2279:1 3193:1 3294:1 4763:1 4764:1 100001:1 100002:1 100004:1 #
-0.0020199862196090736382592112363454 7:1 13:1 32:1 34:1 75:1 100:1 118:2 200:1 1032:1 1156:1 1294:1 3014:1 4078:1 4804:1 8114:1 8115:1 8116:1 100002:1 #
0.0039857809883324987060282396100774 7:1 13:3 28:1 124:1 147:1 2201:1 2659:1 2778:1 100001:1 100004:1 #
-0.011707806964580921502139254641861 7:5 13:1 28:1 119:1 179:1 258:1 395:1 911:1 1597:1 4512:1 6421:1 6422:1 100002:1 100006:1 #
0.0067918751797277103141037279954162 5:3 7:4 13:2 16:1 54:1 97:1 124:1 147:1 152:1 172:1 186:1 215:1 925:1 1194:1 2155:1 2381:1 2504:1 5014:1 5015:1 5705:1 6811:1 6963:1 6964:1 7413:1 11164:1 11165:1 11166:1 11167:1 100003:1 100004:1 100006:1 #
-0.006251389703344475967661253434926 7:6 13:2 28:1 29:2 39:1 50:1 75:2 90:1 94:1 97:1 98:1 100:4 172:1 186:1 323:1 391:1 419:1 604:1 692:1 1018:1 1788:1 1893:1 2099:1 2230:1 2307:1 2334:1 2680:1 3426:1 3954:1 4163:1 4461:1 4462:1 4463:1 4464:1 4465:1 4466:1 4467:1 4468:1 4469:1 4470:1 4471:1 4472:2 4473:1 4474:1 4475:1 4476:1 4477:1 4478:1 4479:1 100001:1 #
0.011707806964580921502139254641861 7:2 13:2 172:1 186:1 4873:1 11043:1 11044:1 100001:1 100004:1 #
0.0068575154814957788029783358751956 5:1 7:1 13:2 16:5 18:3 146:1 152:1 162:1 407:1 411:1 925:1 1143:2 1192:1 1484:1 1485:1 1758:1 3759:1 4778:1 4779:1 4780:1 4781:1 4782:1 4783:1 4784:1 4785:1 4786:1 4787:1 4788:1 5321:1 5975:1 6050:1 6701:1 9414:1 9415:1 100003:1 100004:1 100006:1 #
-0.002846957411988215030929083582123 7:3 13:1 32:1 34:1 304:1 407:1 411:1 786:1 1143:1 1459:1 4564:1 4565:1 4566:1 4567:2 4568:1 4569:1 4570:1 4571:1 4572:1 4573:1 4574:2 4575:1 4576:1 4577:1 4578:1 4579:1 4580:1 4581:1 4582:1 4583:1 4584:2 4585:1 4586:1 4587:1 4588:1 4589:1 4590:1 4591:1 4592:1 4593:1 4594:1 4595:1 4596:1 4597:1 4598:1 100002:1 #
0.0028442056476968885676825937736112 7:6 13:1 39:1 65:1 75:2 299:1 313:1 358:1 518:1 674:1 1507:1 2018:1 2632:1 3157:1 3565:1 3566:1 3567:1 3568:1 3569:1 3570:1 3571:1 3572:1 3573:1 3574:1 3575:1 3576:1 3577:1 3578:1 100001:1 100002:1 100004:1 #
0.0075604998796717087783392230448953 7:3 13:1 29:2 75:2 100:1 172:1 186:1 298:1 313:1 381:1 517:1 766:1 950:1 1548:1 1594:1 1738:1 2092:1 2229:1 2230:1 2231:1 2232:1 2233:1 100001:1 100002:1 100004:1 #
-0.004647908211986351290079255704768 7:2 13:1 28:1 29:2 39:1 43:2 65:1 75:3 97:1 117:1 168:1 172:1 186:1 241:1 530:1 607:1 1156:1 1158:1 1278:1 1933:2 1970:1 2677:1 3655:1 3820:1 4017:1 4728:1 6808:1 6809:1 6810:1 6811:1 6812:1 6813:1 6814:1 6815:1 6816:1 6817:1 100002:1 100006:1 #
0.0046466893059548923516910434727833 5:1 7:7 13:3 16:1 18:2 28:2 29:2 42:1 46:1 56:1 65:3 70:1 75:2 80:1 98:1 100:2 103:1 172:1 186:1 246:1 292:1 323:6 517:2 548:4 630:1 676:1 835:1 926:1 1066:1 1113:1 1189:2 1395:1 1435:1 1501:4 1862:1 2054:1 2090:1 2212:2 2669:2 2670:1 2671:1 2672:3 2673:1 2674:1 2675:1 2676:1 2677:1 2678:1 2679:1 2680:2 2681:1 2682:1 2683:1 2684:1 2685:1 2686:1 2687:1 2688:1 2689:1 2690:1 2691:1 2692:1 2693:1 2694:1 2695:1 2696:1 2697:1 2698:1 2699:1 2700:1 2701:1 2702:1 2703:1 2704:1 2705:1 100002:1 100004:1 #
0.011707806964580921502139254641861 7:4 13:2 29:3 32:1 34:1 36:1 41:1 42:1 43:1 48:2 65:1 75:2 97:1 100:1 118:4 172:1 186:1 617:1 738:1 778:1 873:1 1020:1 1021:1 1022:1 1023:1 1024:1 1045:1 2046:1 2363:1 5867:1 5868:1 5869:1 5870:1 5871:1 100002:1 100004:1 #
0.00518516080109406463788390695413 7:1 13:5 46:1 100:1 124:1 147:1 283:1 306:1 604:1 653:1 1691:1 1913:1 1914:1 2470:1 10865:1 10866:1 100001:1 100004:1 100006:1 #
-0.0045036503739768855847369621869802 7:6 13:1 28:1 75:1 287:1 307:1 313:1 323:2 484:1 696:1 1933:1 1971:1 2053:1 3646:1 4994:1 4995:1 4996:1 4997:1 4998:1 4999:1 5000:1 5001:1 5002:1 5003:1 5004:1 5005:1 5006:1 5007:1 #
-0.0046433258266951856277349186541414 2:2 7:5 10:1 13:1 28:1 29:2 42:1 65:1 75:1 90:1 94:1 100:1 231:1 313:1 323:2 517:1 604:1 721:1 996:1 1222:1 1294:1 1331:1 1959:1 2332:1 2407:1 3071:1 3399:1 4715:1 6789:1 7573:1 9255:1 9870:1 10471:1 10634:1 10775:1 10776:1 10777:1 10778:1 10779:1 10780:1 10781:1 10782:1 100002:1 100003:1 #
0.011707806964580921502139254641861 13:2 1141:1 100001:1 100004:1 #
-0.0097028210362845642572571236428303 2:1 13:1 28:1 29:1 32:1 42:1 46:1 75:1 103:1 227:1 313:1 323:3 555:1 640:1 690:1 1276:1 1528:1 1559:1 2211:1 3216:1 3217:1 5210:1 6067:1 6068:1 6069:1 6070:1 6071:1 6072:1 6073:1 6074:1 6075:1 100001:1 100008:1 #
-0.011456082776041686885348802604767 7:1 13:1 39:1 46:1 75:4 98:1 305:1 364:1 518:1 1144:1 1324:1 1647:1 2061:1 2635:1 3404:1 3689:1 10223:1 10224:1 10225:1 10226:1 10227:1 100001:1 #
-0.011707806964580921502139254641861 7:4 13:2 50:1 121:1 122:1 123:1 124:1 125:1 127:1 1678:1 6041:1 8656:1 100002:1 100006:1 #
0.0027938403390363494675774358455556 2:1 7:5 13:1 28:1 75:1 94:1 172:1 186:1 298:1 371:1 845:1 1246:1 1517:1 1854:1 2245:1 2641:1 2642:1 6797:1 8019:1 10518:1 10519:1 10520:1 10521:1 10522:1 100001:1 100002:1 100004:1 #
0.0078015518316817463601031690245691 7:5 10:1 13:3 28:1 39:1 46:1 75:1 87:1 94:1 98:1 100:1 103:1 105:1 118:1 122:1 172:1 186:1 298:1 299:1 304:1 323:1 327:1 364:1 541:1 561:1 604:1 1278:1 1294:1 1959:1 2205:1 2440:1 2441:1 2445:1 5124:1 5227:1 5585:1 11262:1 11263:1 100001:1 100002:1 100003:1 100004:1 #
-0.0019910557736207840084929898694099 13:2 16:2 18:1 32:1 34:1 53:2 165:1 640:1 821:1 912:1 1063:2 1208:1 1398:1 1531:1 1532:1 1533:2 1534:1 1535:1 1536:1 1537:1 1538:1 1539:1 1540:1 100002:1 #
-0.0086708201511024544233530164660806 3:1 7:1 13:1 32:1 34:1 65:1 75:1 172:1 186:1 315:1 544:1 933:1 1174:1 2307:1 5101:1 5102:1 5103:1 100002:1 #
0.0020738316181766985706047545789943 2:1 7:7 13:4 28:2 29:5 30:5 32:1 34:1 42:1 43:2 75:2 82:1 94:2 97:2 98:1 100:1 103:2 172:1 186:1 231:4 310:1 313:1 315:2 323:1 364:1 375:1 448:1 486:1 492:1 495:1 517:1 522:1 584:1 620:1 636:1 721:1 760:1 788:1 845:1 1113:1 1130:1 1339:1 1867:1 1924:1 1960:1 1963:1 2144:1 2340:1 2767:1 2768:1 3028:1 3033:1 3073:1 3074:1 3221:1 3739:1 4731:1 4853:1 4995:1 5208:1 5958:2 6295:3 6296:2 6297:3 6298:1 6299:1 6300:1 6301:1 6302:1 6303:1 6304:1 6305:1 6306:1 6307:1 6308:1 6309:1 6310:1 6311:1 6312:1 6313:1 6314:1 6315:1 6316:1 100001:1 100002:1 100004:1 #
-0.0076363452393347795374434205939451 7:2 13:1 32:1 34:1 43:1 54:1 75:1 103:2 107:1 172:1 186:1 320:1 1305:1 5173:1 5174:1 5175:1 5176:1 5177:1 5178:1 5179:1 5180:1 5181:1 100002:1 #
-0.011707806964580921502139254641861 13:2 2077:1 5441:1 #
-0.011707806964580921502139254641861 7:3 13:1 75:1 1343:1 5066:1 6760:1 10406:1 10420:1 #
-0.0031671038302512229123397702323928 13:1 28:1 32:2 34:2 75:1 82:1 98:1 100:1 200:1 315:2 364:1 818:1 1388:1 1586:1 1587:1 3221:2 8964:1 8965:1 8966:1 8967:1 8968:1 8969:1 8970:1 8971:1 8972:1 8973:1 8974:1 100001:1 #
0.011185429177672389158826327104634 7:3 13:1 375:1 1133:1 2199:1 2933:1 3319:1 3928:1 8849:1 100001:1 100002:1 100004:1 100005:1 #
-0.0038224305950026308577316402903534 7:3 13:2 28:1 29:1 65:1 75:1 231:1 315:1 327:1 544:1 746:1 1125:1 1582:1 2234:1 4289:1 4493:1 5821:1 6322:1 6912:1 9217:1 10659:1 10660:1 10661:1 10662:1 10663:1 10664:1 10665:1 10666:1 #
0.0065245267839383440378053791164348 7:1 13:1 262:1 1221:1 1222:1 1299:1 3090:1 3091:1 3092:1 3093:1 100001:1 100002:1 100004:1 #
0.011707806964580921502139254641861 13:1 1221:1 1222:1 1283:1 100001:1 100002:1 100004:1 #
0.0043124025751399763448090673989554 7:2 13:2 28:1 29:1 65:1 75:1 97:1 98:1 100:1 124:1 147:1 172:1 186:1 323:1 530:1 547:1 1339:1 2268:1 2269:1 2272:1 2273:1 3118:1 3501:1 4379:1 4380:1 100001:1 100004:1 #
0.0064246951586794309382866252633448 7:2 13:2 16:1 32:1 34:1 46:1 60:1 97:1 281:1 283:1 285:1 1229:1 2234:1 2498:1 3719:1 4187:1 4813:1 7048:1 7049:1 9455:1 100001:1 100002:1 100004:1 #
-0.0060640762867144636441563143591793 7:2 13:1 28:1 39:1 43:1 75:1 94:1 434:1 548:1 682:2 696:1 1283:1 1854:1 2832:1 3119:1 3439:1 3858:1 4132:1 6703:1 6704:1 6705:1 6706:1 100002:1 #
-0.0039025962081378727519531679490683 7:1 13:1 29:1 30:1 67:1 75:1 100:1 518:1 762:1 1279:1 1504:1 2077:1 2666:1 4354:1 8951:1 9453:1 9454:1 #
0.0069488794984160929396610484332086 7:2 13:1 1221:1 1222:1 1452:1 1679:1 2032:1 2743:1 100001:1 100002:1 100004:1 #
0.00083562279663615965721867873128303 3:1 7:6 13:2 16:3 18:2 39:1 54:1 97:1 143:1 146:1 152:1 172:2 185:2 186:2 522:1 526:1 775:1 881:1 923:2 925:1 1294:1 1807:1 2043:1 2589:2 3222:1 3699:1 5425:1 6601:1 6611:1 9368:1 9811:1 11176:1 11177:1 11178:1 11179:1 100002:1 100003:1 100004:1 100006:1 #
0.011707806964580921502139254641861 7:1 13:2 124:1 147:1 7017:1 7018:1 100001:1 100004:1 #
0.0015914600051120560142425830463253 7:4 13:3 29:4 39:3 43:1 65:2 75:2 90:1 91:1 94:1 97:1 98:1 100:1 137:1 172:1 186:1 366:1 391:1 458:1 517:1 518:1 757:1 762:1 807:1 851:1 975:1 981:1 1012:1 1041:1 1081:1 1152:1 1459:1 2062:1 2744:1 2745:1 2746:1 3211:1 4628:1 6018:1 7123:1 7124:1 7125:1 7126:1 7127:1 7128:1 7129:1 7130:1 7131:1 7132:1 100001:1 100002:1 100004:1 #
0.0043337657902112634508706712210824 7:3 13:1 16:1 32:1 34:1 54:1 78:1 97:1 103:1 160:1 238:1 246:1 247:1 248:1 306:1 1294:1 2603:1 2796:1 2797:1 2798:1 2799:1 2800:1 2801:1 100001:1 100002:1 100004:1 #
-0.0098946694526588774287745309266029 4:1 7:2 13:1 54:1 358:1 692:1 1644:1 10352:1 10353:1 #
-0.0014414918093131408489970812780712 7:6 13:2 29:2 32:1 34:1 54:1 75:2 118:4 343:2 358:1 373:1 519:1 620:1 854:2 1156:2 1501:1 1629:1 2193:1 2363:1 4016:1 4078:2 4268:1 4349:1 4463:1 9114:1 9640:1 9653:1 9952:1 9953:1 9954:1 9955:1 9956:1 100002:1 #
0.0016662550465705550876288620898436 7:3 13:1 29:2 32:1 34:1 37:1 39:1 97:1 103:1 323:1 343:1 1504:1 1505:1 1506:1 1507:1 1508:1 1509:1 1510:1 1511:1 1512:1 100001:1 100002:1 100004:1 #
-0.0020504918967018904638055509792594 13:1 28:1 29:1 75:1 172:2 186:1 620:1 801:1 2106:1 4903:1 5100:1 #
0.0025814326815828828390331217690346 7:7 13:5 16:3 18:1 28:1 29:5 32:1 34:1 39:3 42:1 43:1 46:1 54:1 65:2 75:8 97:1 98:1 100:3 105:1 122:1 172:3 185:1 186:3 231:1 275:1 298:1 299:1 343:1 486:1 697:1 923:1 1018:1 1063:1 1089:1 1435:1 1797:1 1896:1 2570:1 2571:2 2572:1 2573:1 2574:1 2575:1 2576:1 2577:1 2578:3 2579:1 2580:2 2581:1 2582:2 2583:2 2584:1 2585:1 2586:1 2587:1 2588:1 2589:1 2590:1 2591:1 2592:1 2593:1 2594:1 2595:1 2596:1 100001:1 100002:1 100004:1 #
0.0064754630886732318303944389015214 7:3 13:2 28:1 29:3 75:3 94:1 100:2 103:1 172:1 186:1 323:1 364:1 855:1 1012:1 2034:1 3498:1 4013:1 4039:1 4209:1 4499:1 4752:1 5155:1 5425:1 6754:1 6853:1 7488:1 7541:1 8657:1 8658:1 8659:1 8660:1 8661:1 8662:1 8663:1 8664:1 100001:1 100004:1 100006:1 #
0.0045429922339852686977157425474161 7:7 13:3 28:1 29:1 37:1 42:1 43:2 75:2 94:2 97:1 497:1 498:1 499:1 500:1 501:1 502:1 503:1 504:1 505:1 506:1 507:1 508:1 509:1 510:1 511:1 512:1 645:1 721:1 1587:1 2303:1 2619:1 4945:1 4946:1 4947:1 4948:1 100002:1 100004:1 #
0.0034909227055305597914314219565313 7:6 13:1 65:1 75:1 168:1 244:1 323:1 407:1 411:1 460:1 725:1 1230:2 1339:1 1854:1 3944:1 3945:1 3946:1 3947:1 3948:1 3949:1 3950:1 3951:1 3952:1 100001:1 100002:1 100004:1 #
-0.0041110669213670764099433085903001 7:1 13:1 39:1 75:1 94:1 103:1 323:1 2641:1 2779:1 2780:1 2781:2 2782:1 2783:1 2784:1 2785:1 2786:1 #
0.0086446284408724666931123081781152 7:1 13:2 124:1 147:1 2268:1 2269:1 100001:1 100004:1 #
0.0042138634363072195038180112192094 2:2 7:7 10:1 13:1 28:1 29:1 37:1 46:1 65:1 75:4 78:1 97:1 100:1 103:1 364:1 369:1 496:1 518:1 721:1 1246:1 1319:1 1854:1 2262:1 2919:1 3086:1 3196:1 3432:1 3485:1 4499:1 4770:1 5763:1 5783:1 5784:1 5785:1 5786:2 5787:1 5788:1 5789:1 5790:1 5791:1 5792:1 5793:1 100001:1 100002:1 100003:1 100004:1 #
0.0062662909609892212398074562429429 7:3 13:3 16:1 18:1 32:1 34:1 60:1 71:1 105:1 152:1 262:1 404:1 405:1 406:1 407:1 408:1 409:1 410:1 411:1 412:1 413:1 414:1 415:1 416:1 417:1 418:1 419:1 420:1 100002:1 100003:1 100004:1 #
0.0017930717850943877524072522788856 7:4 13:1 24:1 28:1 75:1 220:1 319:1 407:1 411:1 1230:1 2246:1 3057:1 4541:2 4542:1 4543:1 4544:1 4545:1 4546:1 4547:1 4548:1 4549:2 100001:1 100002:1 100004:1 #
0.011707806964580921502139254641861 7:4 10:1 13:2 28:1 137:1 172:1 186:1 950:1 4080:1 5415:1 5416:1 5417:1 5418:1 5419:1 100002:1 100003:1 100004:1 #
0.011707806964580921502139254641861 7:1 13:1 65:1 774:1 775:1 1733:1 3555:1 3556:1 100001:1 100002:1 100004:1 #
0.0035804350933243108204284688156349 7:4 13:2 29:2 75:2 94:2 97:1 137:1 152:1 172:1 186:1 323:1 448:1 544:1 807:2 989:1 1970:1 3385:1 4080:1 5880:1 5881:1 5882:2 5886:1 7513:1 9780:1 9781:1 9782:1 9783:1 9784:1 100003:1 100004:1 100006:1 #
-0.0047418109229097000004160555874932 7:3 13:2 29:2 39:2 98:1 172:1 186:1 307:1 313:1 315:1 571:1 579:1 922:1 1066:1 1379:2 1501:1 2350:1 2768:1 2961:1 5426:1 6617:1 7508:1 7509:1 7510:1 7511:1 7512:1 #
0.011707806964580921502139254641861 13:3 1141:1 1142:1 1143:1 100001:1 100004:1 #
-0.0024256080316958396336790571012898 7:1 13:3 29:2 39:2 42:1 69:2 97:1 100:1 112:1 113:1 136:1 299:1 300:1 375:1 786:1 831:1 832:1 1044:1 1158:1 1413:1 3241:1 4670:1 4671:1 4672:1 4673:1 4674:1 100002:1 #
0.0071885091051971800046871408085281 7:1 13:1 512:1 1499:1 2478:1 4290:1 4308:1 100001:1 100002:1 100004:1 #
-0.0072982357426853786130926948771958 7:3 13:3 65:1 112:1 113:1 375:1 768:1 777:1 832:1 1043:1 1150:1 2004:1 3881:1 3882:1 100002:1 100006:1 #
0.0065032659667215771820414360604445 7:1 13:2 122:1 124:1 147:1 513:1 514:1 100001:1 100004:1 100005:1 #
-0.011707806964580921502139254641861 13:1 9622:1 #
0.003709703220182389640791065232861 7:1 13:1 262:1 1221:1 1222:1 1513:1 1514:1 1515:1 1516:1 1517:1 100001:1 100002:1 100004:1 #
-0.011707806964580921502139254641861 #
-0.00040462873957342846168924732630501 32:1 34:1 42:1 2579:1 2629:1 2630:1 2631:1 #
-0.0048691941231819154886628631118128 7:2 13:1 118:2 262:1 343:1 786:1 1156:1 4078:1 4348:1 4349:1 4350:1 4351:1 100002:1 #
-0.0020717850729612408144930668640882 2:1 13:2 29:1 103:1 323:1 448:1 979:1 1412:1 2641:1 2887:1 6764:1 6765:1 6766:1 6767:1 100006:1 #
0.0039708410386339338532524223523978 7:2 13:1 29:1 32:1 34:1 94:1 172:1 186:1 1081:1 1415:1 2226:1 2626:1 2781:1 3260:1 7021:1 8421:1 8422:1 8423:1 8424:1 100001:1 100002:1 100004:1 #
0.002523107773771771176335443342964 2:1 7:6 10:1 13:5 28:1 29:3 39:1 50:2 65:1 71:1 72:1 73:2 74:1 75:6 76:1 77:1 78:1 79:2 80:1 94:1 98:1 124:1 147:1 310:1 313:1 323:2 364:1 517:1 522:1 1156:1 1339:1 1484:2 2271:1 2434:1 2526:1 2603:1 2956:1 3605:1 4033:1 4320:1 4829:1 4845:1 4880:1 4967:1 5070:1 5377:1 6728:1 9553:1 9554:1 9555:1 9556:1 9557:1 9558:1 9559:1 9560:1 9561:1 9562:1 100001:1 100002:1 100003:1 100004:1 #
-0.0084872745976586998206681045076039 7:1 13:3 112:1 113:1 304:1 831:1 832:1 8249:1 100002:1 #
0.0025195305027670843352194385289522 7:7 13:1 16:2 18:1 26:1 28:1 32:2 34:2 46:1 47:1 65:1 103:1 160:1 165:1 172:1 186:1 192:1 222:1 246:1 278:1 299:1 364:1 381:1 433:1 484:1 790:1 2018:1 2292:3 3078:1 3079:1 3080:1 3081:1 3082:1 3083:2 3084:1 3085:1 3086:1 3087:1 3088:1 3089:1 100001:1 100002:1 100004:1 100007:1 #
0.0055187270660041389674921319397072 7:4 13:1 28:1 29:2 32:1 34:1 37:1 46:1 75:1 364:1 933:1 1324:1 5916:1 6884:1 10253:1 10495:1 10496:1 10497:1 10498:1 10499:1 100001:1 100002:1 100004:1 100006:1 #
0.0043614275729420230037769456998831 7:3 10:1 13:5 32:1 34:1 105:1 119:1 299:1 395:1 1856:1 3588:1 6371:1 6805:1 7329:1 100002:1 100003:1 100004:1 #
0.0059259625843209587023330264798915 7:3 13:2 28:2 32:1 34:1 43:1 50:1 75:1 97:1 211:1 323:1 1668:1 1929:1 2199:1 2786:1 2921:1 11479:1 11480:1 11481:1 11482:1 11483:1 11484:1 100001:1 100002:1 100004:1 #
0.00049558204076236586719389487498688 2:2 7:11 13:5 28:2 29:7 32:1 34:1 37:1 39:3 46:1 48:2 65:4 68:1 75:9 92:1 97:2 100:1 112:1 118:1 152:1 172:1 186:1 313:2 323:2 358:1 364:2 418:1 519:1 579:1 764:1 780:1 788:1 790:1 794:1 796:2 797:1 885:1 920:1 950:2 1072:1 1150:1 1230:1 1309:2 1324:1 1339:1 1341:2 1379:1 1415:1 1610:1 2106:1 3098:1 3140:1 3259:2 3283:1 3634:1 3990:1 6561:1 7358:1 8157:1 8158:1 8327:1 8536:1 8544:1 8998:1 8999:1 9000:1 9001:1 9002:1 9003:1 9004:1 9005:1 9006:1 9007:1 9008:1 9009:1 9010:1 9011:1 9012:1 9013:1 9014:1 9015:1 9016:1 9017:1 100001:1 100002:1 100003:1 100004:1 100006:1 #
0.0029124457933705702461502085043321 7:6 10:1 13:3 28:2 29:1 32:2 34:2 39:2 75:2 98:2 343:1 518:1 1284:1 1336:1 2383:1 2632:1 2635:1 3196:1 3200:1 3540:2 3578:1 3853:1 4016:1 4750:1 5482:1 5908:1 5910:1 7671:1 9770:1 9771:1 9772:1 9773:1 9774:1 9775:1 9776:1 9777:1 9778:1 9779:1 100001:1 100002:1 100003:1 100004:1 #
0.0046724085775321031605011867782196 7:3 13:3 97:1 105:1 152:1 218:1 1266:1 2647:1 7564:1 7565:1 7566:1 100002:1 100003:1 100004:1 100006:1 #
0.0050775012602863670019281983059045 7:4 10:1 13:1 29:1 30:1 75:3 98:1 100:2 103:1 172:1 186:1 364:1 378:1 697:1 1080:2 1636:1 1637:1 1638:1 1639:1 1642:1 1650:1 2414:1 3106:1 3107:1 7502:1 7503:1 100001:1 100002:1 100003:1 100004:1 #
0.0015769562624350346585755389128281 3:1 7:4 10:1 13:2 25:1 28:1 32:1 34:1 42:1 46:1 50:1 75:1 94:2 98:1 133:1 172:1 186:1 323:1 364:1 530:1 698:1 1501:1 1753:2 3968:1 6504:1 9479:1 9755:1 9756:1 9757:1 9758:1 9759:1 9760:1 9761:1 9762:1 9763:1 9764:1 9765:1 9766:1 9767:1 9768:1 9769:1 100001:1 100002:1 100003:1 100004:1 100006:1 #
0.0074406452262345424558676043602645 7:4 13:1 37:1 39:1 65:1 75:1 364:1 1790:1 2004:1 4381:1 4382:1 4383:1 4384:1 4385:1 4386:1 100001:1 100002:1 100004:1 #
0.0062482721308845254673536295797476 3:1 7:4 13:1 32:1 34:1 37:1 46:1 65:1 97:1 103:1 283:1 1610:1 1766:1 4989:1 5337:1 5338:1 5339:1 5340:1 5341:1 5342:1 100001:1 100002:1 100004:1 #
0.0019558235787417842937996326213579 5:1 7:4 10:1 13:1 16:2 18:2 143:1 146:1 279:2 428:1 926:1 1063:2 1197:1 1229:1 1233:1 1234:1 1235:1 3728:1 3729:1 3730:1 100001:1 100002:1 100003:1 100004:1 #
0.0037525604341528025209573371512306 7:4 13:1 28:2 94:1 97:1 200:1 220:1 299:1 394:1 1345:1 1931:1 3536:1 3537:1 4033:1 5588:1 5589:1 5590:1 100001:1 100002:1 100004:1 100005:1 #
0.0057428768735689247199038831581674 7:4 13:1 28:1 75:1 172:1 186:1 298:1 323:1 686:1 790:1 2245:1 2641:1 2670:1 2781:1 6797:1 8932:1 8933:1 100001:1 100002:1 100004:1 #
0.00092251527568353074507112587809843 7:4 13:4 16:2 18:2 32:2 34:2 105:1 152:1 407:1 411:1 416:1 417:1 1460:1 1485:1 1756:1 2289:1 2632:1 2647:1 4807:1 7428:1 7458:1 7735:1 10788:1 10789:1 10790:1 10791:1 10792:1 10793:1 100002:1 100003:1 100004:1 100006:1 #
0.0012968431416948964819690903738092 7:4 13:1 16:3 18:4 32:1 34:1 46:1 60:1 152:1 154:1 165:1 522:1 715:1 966:1 1208:1 1209:1 1218:1 1229:1 1230:1 1524:1 1662:1 1681:1 2317:1 3309:1 5166:1 6969:1 8738:1 10855:1 10856:1 10857:1 100001:1 100002:1 100003:1 100004:1 100006:1 #
0.0023656928063648325136214545239 7:6 13:1 18:1 20:1 46:1 65:1 70:1 75:1 93:1 160:1 231:1 246:1 276:1 294:1 1428:1 5087:1 6257:1 7414:1 7415:1 9517:1 9518:1 9519:1 100001:1 100002:1 100004:1 #
0.0036258557071858670342590080792888 7:5 13:1 28:2 75:1 78:1 172:1 186:1 264:1 298:1 520:1 521:1 1446:1 2638:1 2639:1 2645:1 2779:1 3541:1 10946:1 10947:1 10948:1 11372:1 100001:1 100002:1 100004:1 #
0.0039658627230700514362804476320434 7:3 13:2 28:1 85:1 86:1 3270:1 3534:1 6139:1 11339:1 11340:1 11341:1 11342:1 100001:1 100002:1 100004:1 #
0.0026154391486707339285755491431473 7:4 13:1 29:2 30:1 37:1 42:1 48:1 65:1 75:2 100:1 111:1 364:1 486:1 579:1 873:1 1793:1 2001:1 3466:1 3646:1 4218:1 4219:1 4220:1 100001:1 100002:1 100004:1 #
-0.0009368072524256345441281967900693 2:1 5:2 7:12 13:2 18:2 28:1 29:4 32:2 34:2 43:1 48:1 65:1 75:4 94:2 97:2 98:2 100:1 103:3 127:2 160:1 172:1 186:1 200:1 283:1 313:3 323:4 364:1 398:2 494:1 517:1 544:3 676:1 702:1 721:1 769:1 898:2 1339:1 1587:1 1948:2 2040:1 2155:1 2512:1 2552:1 2698:1 3047:1 3214:1 3361:1 3673:1 4453:2 4492:1 4968:1 5240:4 6072:2 6309:1 6653:1 6963:1 7709:1 7726:1 8025:1 8117:1 10056:1 10674:1 10834:1 10835:1 10836:1 10837:1 10838:1 10839:1 10840:1 10841:1 10842:1 10843:1 10844:1 10845:1 10846:1 10847:1 10848:1 10849:1 10850:1 10851:1 10852:1 10853:1 10854:1 100001:1 100002:1 #
0.00097934625068671755758475949704689 7:13 13:3 24:1 28:3 29:2 32:1 34:1 39:2 42:2 46:1 75:7 87:1 93:1 94:2 97:2 98:1 100:1 224:1 231:1 303:1 323:3 343:1 549:2 699:1 706:1 721:1 725:1 769:1 788:1 864:1 1044:1 1063:1 1156:1 1308:1 1504:1 2635:1 2754:1 2762:1 2851:1 2933:1 3250:1 3656:1 3689:1 4153:1 4290:1 4413:1 4414:1 4415:1 4416:1 4417:1 4418:2 4419:3 4420:1 4421:1 4422:1 4423:1 4424:1 4425:1 4426:1 4427:1 4428:1 4429:1 4430:1 4431:1 4432:1 4433:1 4434:1 4435:1 4436:1 100001:1 100002:1 100003:1 100004:1 100006:1 #
0.0012187363373929935295159054930991 7:8 13:1 29:1 38:1 39:3 75:3 94:2 97:2 98:1 100:1 103:1 315:1 323:2 397:1 448:2 539:1 544:1 803:1 807:1 947:1 950:1 1007:1 1253:1 1297:1 1984:1 1985:1 1986:2 1987:1 1988:1 1989:2 1990:2 1991:1 1992:1 1993:1 1994:1 1995:1 1996:1 1997:1 1998:1 1999:1 100001:1 100002:1 100004:1 #
0.0027627144940621894790566681621158 7:4 13:2 28:1 29:1 37:1 65:1 343:1 375:1 1339:1 1837:1 1854:1 2659:1 3928:1 4283:1 6047:1 8751:1 10752:1 10753:1 10754:1 10755:1 100001:1 100002:1 100004:1 #
0.00061024509717007551640177709373347 5:1 7:5 10:1 13:3 29:1 32:1 34:1 75:1 91:1 97:2 172:1 186:1 1294:2 1745:2 3146:1 6106:1 6871:1 6872:1 6873:1 6874:1 6875:1 6876:1 6877:1 6878:1 6879:1 6880:1 6881:1 6882:1 100002:1 100003:1 100004:1 #
-0.0040357444812448885207434301491958 7:3 13:2 28:1 29:1 50:1 54:1 103:2 358:1 459:1 519:1 604:1 616:1 996:1 1415:1 1501:1 2077:1 2183:1 2185:1 2455:1 2680:1 4463:1 4466:1 6268:1 6269:1 6270:1 6271:1 6272:1 6273:1 6274:1 100002:1 100005:1 #
-0.0030107686502778255484280567344513 7:2 13:1 28:1 54:1 65:1 75:1 94:1 103:2 448:1 517:1 1065:1 1960:1 3904:1 4039:1 5155:1 6846:1 6847:1 6848:1 6849:1 6850:1 6851:1 100002:1 #
-0.00045039039236056602330190989924574 2:1 7:3 13:5 28:1 29:3 32:1 34:1 39:2 42:2 43:3 65:4 75:3 90:1 94:2 97:1 100:1 172:5 186:5 303:1 323:1 364:1 375:2 407:1 411:1 518:2 544:2 699:1 721:1 729:2 743:1 754:1 762:1 764:2 788:1 971:1 1162:1 1246:1 1339:2 1341:2 1379:2 1459:1 1601:1 1610:3 1797:1 1861:1 2052:1 2082:2 2106:2 2301:2 2456:1 2519:1 3742:1 3876:1 4716:1 5263:1 5277:1 5438:1 5694:1 6019:1 6681:1 7309:1 7310:1 7311:1 7312:1 7313:1 7314:1 7315:1 7316:2 7317:1 7318:1 7319:1 7320:1 7321:1 7322:1 7323:1 7324:1 7325:1 7326:1 7327:1 100002:1 #
-0.0061155633900315739537312254014978 13:1 28:1 29:1 75:2 94:1 374:1 452:1 3259:1 4924:1 6887:1 7947:1 8574:1 10330:1 100002:1 #
-0.0055793583143799721155153825691286 7:1 13:1 29:1 42:1 75:1 90:1 94:1 691:1 970:1 971:1 972:1 973:1 974:1 #
-0.002881515523257579484278645409745 1:1 13:2 29:1 94:1 231:1 518:1 738:1 762:1 769:2 1216:1 4339:1 4641:1 5263:1 5264:1 5265:1 5266:1 #
-0.0033446696317034120028710564298535 2:1 13:1 28:1 29:1 39:1 75:2 94:1 100:1 307:1 313:1 323:3 375:1 591:1 604:2 607:1 630:1 753:1 817:1 1345:1 1924:1 2023:1 2334:1 3426:1 4438:1 4470:1 4820:1 5493:1 6808:1 7453:1 8339:1 8340:1 100001:1 #
0.0029176188694660940350922295749569 7:3 13:2 28:1 41:1 65:2 94:1 1308:1 3109:1 3110:1 3111:1 3112:1 3113:1 3114:1 3115:1 100001:1 100002:1 100004:1 #
-0.0022186963438152323968566292933247 2:1 7:3 13:4 39:1 65:1 69:1 112:1 298:1 323:1 518:1 584:1 774:1 1072:1 1896:1 2317:1 2813:1 3120:1 3654:1 6694:1 6912:1 9658:1 10861:1 10862:1 10863:1 100002:1 #
-0.002374391138773718212817698258732 7:5 13:2 32:1 34:1 65:1 75:3 98:1 358:1 458:1 484:1 640:1 666:1 696:1 940:1 941:1 953:1 1103:1 1339:1 1927:1 1933:1 2015:1 4691:1 5147:1 5148:1 5149:1 5150:1 5151:1 5152:1 5153:1 100002:1 #
-0.005132644930888468313978645340967 7:3 13:3 39:1 65:1 69:1 94:1 112:1 113:1 114:1 116:1 220:1 299:1 375:1 778:1 1043:1 1610:1 2383:1 3502:1 6240:1 8417:1 100002:1 #
0.0018055488431698101491063024326422 7:6 10:1 13:2 24:1 28:1 29:1 39:1 75:3 81:1 97:1 100:4 103:2 172:1 186:1 215:1 227:1 228:1 298:1 323:1 343:1 364:1 388:1 389:1 565:1 584:1 706:1 787:1 933:1 1318:1 1460:1 2036:1 2183:1 2614:1 2644:1 3011:1 3012:1 3013:1 3468:1 3930:1 4196:1 4290:1 4397:1 9419:1 9688:1 9689:1 9690:1 9691:1 100001:1 100002:1 100003:1 100004:1 #
0.0018795764370495729542881457874159 7:4 13:2 29:3 30:1 39:1 46:1 75:6 94:1 98:1 100:2 152:1 172:2 186:1 323:1 343:1 520:1 551:1 559:1 604:1 698:1 881:1 1552:1 2062:1 2195:1 2535:1 3481:1 6252:1 7488:1 7489:1 7490:1 7491:1 7492:1 7493:1 7494:1 7495:1 100001:1 100002:1 100003:1 100004:1 100006:1 #
0.0040455110498299074600625502284856 7:4 13:1 16:2 18:1 20:1 21:1 60:1 97:1 160:1 1319:1 1407:1 1751:1 2154:1 2155:1 2156:1 2157:1 2158:1 2159:1 100001:1 100002:1 100004:1 #
-0.0012106117157819997528361843919242 2:1 7:7 13:4 28:1 29:7 39:1 42:1 43:1 75:7 78:1 82:1 87:1 94:1 100:2 103:2 231:2 309:1 310:1 323:1 380:1 398:1 399:1 478:1 517:1 548:2 677:1 682:1 897:1 1022:3 1152:1 1156:2 1770:1 2392:1 2393:1 2409:1 2413:1 2642:1 2866:2 2902:1 3086:1 3736:1 4082:1 4266:1 4267:1 4268:1 4269:1 4270:1 4271:1 4272:1 4273:1 4274:1 4275:1 4276:1 4277:1 4278:1 4279:1 4280:1 4281:1 4282:1 4283:1 4284:1 4285:1 4286:1 4287:1 100002:1 100006:1 #
0.0062550121366201638650750282977242 2:1 7:3 13:2 29:2 497:1 498:1 959:1 1446:1 4744:1 5030:1 100001:1 100002:1 100004:1 #
-0.0021233877982696075514823519370111 2:1 7:1 13:1 29:2 42:1 43:1 65:1 98:1 172:1 186:1 231:1 788:1 873:1 1018:1 1019:1 1020:1 1021:1 1022:1 1023:1 1024:1 #
-0.00080304943383266089163008416562661 7:8 13:2 29:2 32:1 34:1 39:2 75:1 94:2 103:2 136:1 231:1 375:1 448:1 517:1 607:1 618:1 669:1 671:1 682:4 699:1 708:1 780:1 790:2 1022:1 1081:1 1216:1 1494:1 1619:1 2167:1 2411:1 2532:1 2628:1 3689:1 3906:1 3992:1 4690:1 4853:1 4979:1 4980:1 4981:1 4982:1 4983:1 4984:1 4985:1 4986:1 100002:1 100006:1 #
0.00015833256066893875400880542514415 7:10 10:2 13:4 28:3 29:3 39:6 42:1 43:1 65:3 75:5 94:1 97:2 98:3 103:1 107:2 114:1 152:1 172:3 186:3 313:1 315:2 323:3 375:2 448:1 519:1 604:1 645:1 769:1 783:1 886:1 950:3 1014:2 1017:1 1045:2 1309:1 1341:3 1416:1 1604:1 1610:3 1619:1 1734:1 1896:1 2004:2 2036:1 2308:1 3066:1 3132:1 3138:1 3140:3 3141:2 3199:1 3661:2 3701:1 3742:1 4034:1 4337:1 4395:2 4641:1 4706:1 4824:1 5075:1 5286:2 5381:1 6101:1 6929:1 7080:1 7160:1 8166:2 8613:1 9595:1 9596:1 9597:1 9598:1 9599:1 9600:1 9601:1 9602:1 9603:1 9604:1 100001:1 100002:1 100003:1 100004:1 100006:1 #
-0.001262428165690799089504459118416 7:1 28:1 29:1 32:2 34:2 39:1 65:1 75:2 364:1 375:2 774:1 920:1 932:1 935:1 1294:2 1341:1 1886:1 2317:1 3437:1 3781:1 3992:1 4299:1 5500:1 6922:1 100002:1 #
-0.0044643188785050630720818709562536 13:2 65:1 75:2 100:1 5177:1 8757:1 8758:1 8759:1 8760:1 8761:1 100002:1 #
-0.0027733544119431315262691573053644 7:2 13:1 29:1 39:1 46:1 65:1 75:1 94:1 100:1 1318:1 1619:1 3253:2 3254:1 3255:1 3256:1 3257:1 3258:1 3259:1 3260:1 100002:1 100008:1 #
0.0022459051116160465635940290951567 7:4 13:2 29:1 32:1 34:1 39:1 75:1 100:1 375:1 391:2 952:1 1041:1 1198:1 1284:1 4423:1 4739:1 4929:1 5425:1 6130:1 6131:1 6132:1 6388:1 7204:1 7205:1 7206:1 7207:1 100001:1 100002:1 100004:1 #
0.0020419595552768681975819298202168 5:1 7:5 13:1 16:2 18:1 119:1 303:1 343:1 925:1 1063:1 1523:1 2258:1 2551:1 3941:1 9338:1 9532:1 10311:1 10312:1 10313:1 100001:1 100002:1 100003:1 100004:1 #
0.0016622001823048764522494646911355 7:1 13:1 512:1 1318:1 2316:1 2478:1 2479:1 100001:1 100002:1 100004:1 #
-0.0016032473544724747289980104625329 13:1 32:2 34:2 75:1 118:3 220:1 272:1 298:1 1667:1 1734:1 2046:1 5290:1 10489:1 10490:1 10491:1 10492:1 10493:1 10494:1 100002:1 100006:1 #
-0.0022937820523684189152890944285446 13:1 28:1 29:1 32:1 34:1 65:1 75:2 530:1 555:1 1118:1 2403:1 2632:1 2633:1 2634:1 2635:1 2636:1 2637:1 100002:1 #
-4.9104509707990668006261092415343e-05 7:4 13:1 28:3 29:1 39:3 75:7 78:1 94:3 98:2 103:4 107:2 172:2 186:2 313:1 323:1 515:1 516:1 517:1 518:1 519:2 520:1 521:1 522:1 523:1 524:1 525:1 526:2 527:1 528:1 529:1 530:2 531:2 532:2 533:2 534:1 535:1 536:1 537:1 538:1 539:1 540:2 541:1 542:1 543:1 544:1 545:1 546:1 547:1 548:1 549:1 550:1 551:1 552:1 553:1 554:2 100001:1 100002:1 #
0.00047109418038496540066459306039803 2:1 6:1 7:9 10:2 13:1 28:2 29:3 32:1 39:1 75:4 86:1 94:2 100:1 117:1 172:2 179:1 186:2 307:2 313:1 517:1 1156:1 1788:1 1893:1 2160:1 2652:1 2656:1 2714:1 3588:1 4072:1 4234:1 4427:1 4504:1 4505:2 4506:1 4507:1 4508:1 4509:1 4510:1 4511:1 4512:1 4513:1 4514:1 4515:1 4516:1 4517:1 4518:1 100001:1 100002:1 100003:1 100004:1 100005:1 100006:1 #
0.0016937189119190084948818331156417 7:4 13:2 65:1 94:1 330:1 1010:1 1144:1 2940:1 3705:1 8473:1 8474:1 8475:1 8476:1 8477:1 8478:1 100001:1 100002:1 100004:1 #
-0.0068652200985458936705052579441144 #
0.000828011880111507460842934502665 7:1 13:1 512:1 766:1 1499:1 8333:1 100001:1 100002:1 100004:1 #
0.00084948815593979614627789809233605 2:1 7:5 10:1 13:1 28:1 29:1 65:1 75:1 82:1 93:1 94:1 97:1 100:1 107:1 313:1 323:2 381:1 797:1 850:1 950:1 1063:1 1246:1 1378:1 1379:1 1380:1 1381:1 1382:1 1383:1 1384:1 1385:1 1386:1 1387:1 1388:1 1389:1 1390:1 1391:1 1392:1 1393:1 100001:1 100002:1 100003:1 100004:1 #
0.0014137330515997816558770860950744 7:4 10:1 29:1 75:2 100:1 215:1 901:1 911:1 1770:1 2598:1 3466:1 4028:1 4082:1 8585:1 8586:1 8587:1 100001:1 100002:1 100003:1 100004:1 #
0.0010064826064921867168622249266718 7:3 13:1 16:1 18:2 32:1 34:1 41:1 97:1 197:1 2631:1 7197:1 7198:1 7199:1 7200:1 7201:1 7202:1 7203:1 100001:1 100002:1 100004:1 #
0.00068298400727876459187504210035513 2:1 6:1 7:6 10:1 13:1 28:1 39:1 50:1 94:1 103:2 172:1 186:1 205:1 1024:1 1246:1 2717:1 3120:1 3432:1 3582:1 3586:1 6096:1 9513:1 9514:1 9515:1 9516:1 100001:1 100002:1 100003:1 100004:1 100005:1 100006:1 #
0.00099207062106027553427534115826347 7:4 13:1 20:1 54:1 172:1 186:1 237:1 298:1 381:1 1318:1 1613:1 1616:1 1617:1 6043:1 9412:1 9413:1 100001:1 100002:1 100004:1 100006:1 #
0.00046627487605967383489657951400886 5:1 7:4 10:1 13:1 16:2 18:2 32:1 34:1 60:1 97:1 268:1 278:1 281:1 282:1 284:1 285:1 522:1 786:1 972:1 2348:1 4463:1 4807:1 6583:1 8410:1 8485:1 8486:1 8487:1 8488:1 100001:1 100002:1 100003:1 100004:1 100007:1 #
0.00096022920913091153356788698403079 7:1 13:1 28:3 29:1 32:1 34:1 75:1 94:1 97:1 98:1 152:1 200:1 520:1 1783:1 2876:1 3709:1 3904:1 3905:1 3906:1 3907:1 3908:1 3909:1 100001:1 100002:1 100003:1 100004:1 100006:1 #
0.00065428809680683310597698598698457 7:6 10:1 13:1 28:1 32:1 34:1 75:1 98:1 100:1 298:1 1570:1 1612:1 2917:1 3646:1 4122:1 4752:1 5155:1 8048:1 8049:1 8050:1 8051:1 8052:1 8053:1 8054:1 8055:1 8056:1 100001:1 100002:1 100003:1 100004:1 100006:1 #
0.0012492240514317344730887970882804 7:1 13:2 124:1 147:1 2250:1 2251:1 100001:1 100004:1 #
0.00099068739055312160513011576767894 7:3 13:2 32:1 34:1 75:1 94:1 100:1 209:1 248:1 857:1 954:1 1028:1 1344:1 1345:1 1346:1 1347:1 100001:1 100002:1 100004:1 100005:1 #
-0.00063680180662813081621242972119035 7:1 13:2 28:1 29:1 54:1 65:1 75:1 94:2 100:1 375:1 779:1 795:1 1379:1 1388:1 2303:1 3259:1 3557:1 3709:1 3906:1 3907:1 4132:1 5062:1 5280:1 5281:1 5282:1 100002:1 #
0.000290693995126606893972948109095 7:7 13:2 29:1 32:3 34:3 37:1 39:3 75:4 94:1 100:1 179:1 519:1 940:1 952:2 1033:1 1131:1 1284:1 1391:1 1854:1 2779:1 3481:1 4422:1 4929:1 5425:1 6130:1 6131:1 6132:2 6184:1 6663:1 6783:1 7714:1 8069:1 8076:1 8080:1 9156:1 9158:1 9159:1 9160:1 9161:1 9162:1 100001:1 100002:1 100004:1 #
0.00037124882259955782701915660837244 7:4 13:2 28:1 29:1 65:1 75:2 94:1 230:1 366:1 381:1 530:1 873:1 2205:1 2670:1 3790:1 6022:1 6023:1 6024:1 7966:1 7967:1 8871:1 8927:1 8928:1 100001:1 100002:1 100004:1 100005:1 #
-0.011707806964580921502139254641861 #
9.7156979900267118966175616812109e-05 7:5 13:1 24:1 29:1 37:1 50:1 73:1 75:1 118:1 172:1 186:1 231:1 364:1 872:1 1275:1 1276:1 2279:1 3813:1 4352:1 4353:1 4354:1 4355:1 100001:1 100002:1 100004:1 #
0.00066360145649829727076962626597378 7:4 13:1 28:1 29:1 48:1 75:2 788:1 1806:1 2000:1 2001:1 2002:1 2003:1 2004:1 100001:1 100002:1 100004:1 100005:1 #
0.0003416079524741111490826472874005 7:5 10:1 13:1 65:1 75:1 97:1 137:1 172:1 186:1 202:2 207:1 298:1 323:1 375:1 517:1 604:1 630:1 874:1 2470:1 3711:1 4062:1 4821:1 8923:1 8924:1 8925:1 8926:1 100001:1 100003:1 100004:1 100005:1 100006:1 #
0.00033561529320178472811375680606716 7:4 13:1 32:1 34:1 60:1 75:1 160:1 215:1 281:1 513:1 927:1 969:1 10285:1 10286:1 10287:1 10288:1 10289:1 10290:1 10291:1 10292:1 100001:1 100002:1 100004:1 100005:1 #
