SVM-light Version V6.02
0 # kernel type
3 # kernel parameter -d 
1 # kernel parameter -g 
1 # kernel parameter -s 
1 # kernel parameter -r 
empty# kernel parameter -u 
100043 # highest feature index 
1555 # number of training documents 
485 # number of support vectors plus 1 
0.68633618 # threshold b, each following line is a SV (starting with alpha*y)
-0.0018386854538558774184442423660357 1:1 2:1 3:1 4:1 5:1 6:1 7:1 8:1 9:1 10:1 11:1 12:1 100002:1 100042:1 #
-0.011964731304456145341563733097701 4:1 12:1 13:2 14:1 15:1 100002:1 100041:1 100042:1 100043:1 #
-0.010269229681108282131729581010404 2:2 12:2 13:1 16:1 17:1 18:1 19:1 20:1 21:1 22:1 23:1 24:1 25:1 26:1 27:2 28:1 29:1 30:1 100002:1 100043:1 #
-0.0019040986954461849162134612356567 2:2 4:4 9:2 11:2 12:2 16:3 27:3 31:2 32:1 35:1 40:2 52:1 56:1 66:1 86:1 144:1 156:1 260:1 287:1 292:2 629:3 905:1 1225:1 1688:1 3179:1 4438:1 6776:2 7841:1 9962:1 11820:1 11821:2 11822:1 11823:1 11824:1 11825:1 11826:1 11827:1 100002:1 100042:1 100043:1 #
-0.011964731304456145341563733097701 12:1 15:1 37:1 59:1 60:1 100002:1 100041:1 100042:1 100043:1 #
0.011964731304456145341563733097701 12:1 27:1 1090:1 1906:1 1955:1 2049:1 2320:1 2326:1 2327:1 2328:1 100002:1 100009:1 #
-0.011964731304456145341563733097701 12:1 17:1 19:1 25:1 27:1 37:1 42:1 95:1 203:2 205:3 317:1 409:1 437:1 748:1 1007:1 3208:1 5646:1 5968:1 5975:1 5976:1 5977:1 6009:1 6010:1 100002:1 100010:1 100043:1 #
-0.011964731304456145341563733097701 2:1 4:2 12:3 25:1 27:3 401:1 635:1 2197:1 3377:1 3420:1 4168:1 6887:1 6888:1 8262:1 9911:1 9912:1 9913:1 9914:1 9915:1 9916:1 100002:1 100043:1 #
0.011964731304456145341563733097701 12:5 27:3 95:1 333:1 1028:1 1499:1 4607:1 5084:1 5108:1 5132:1 5133:1 100002:1 100010:1 100043:1 #
0.011964731304456145341563733097701 9:1 11:1 12:1 27:2 964:1 1090:1 1420:2 1648:1 1906:1 2116:1 2136:1 2137:1 100002:1 100009:1 100043:1 #
-0.011964731304456145341563733097701 4:2 7:1 9:1 11:1 12:1 25:1 27:15 32:1 56:1 61:2 190:1 265:1 601:1 961:1 1048:1 2417:1 2489:1 4548:1 7923:1 12313:1 12314:1 12315:1 12316:1 12317:1 12318:1 12319:1 12320:1 12321:1 12322:1 12323:1 12324:1 12325:1 12326:1 12327:1 12328:1 12329:1 12330:1 12331:1 12332:1 12333:1 12334:1 12335:1 12336:1 12337:1 12338:1 12339:1 12340:1 100002:1 100043:1 #
-0.0020464504052715680459950675640357 2:1 4:8 7:1 12:3 14:4 16:2 17:3 25:2 27:15 37:1 42:2 56:6 72:1 84:1 112:2 130:1 138:2 144:6 212:1 292:1 416:1 428:1 530:2 629:1 931:1 942:1 949:1 971:4 1073:1 1145:1 1148:1 1310:1 1322:1 1460:1 2353:1 2702:1 2764:1 3437:1 7857:1 8058:1 8319:1 8340:2 8793:1 10549:1 10561:2 10562:1 10563:1 10564:1 10565:1 10566:2 10567:1 10568:2 10569:1 10570:1 10571:1 10572:1 10573:1 10574:1 10575:1 10576:1 10577:1 10578:1 10579:1 10580:1 10581:1 10582:1 10583:1 10584:1 10585:1 10586:1 10587:1 10588:1 10589:1 10590:1 10591:1 10592:1 10593:1 10594:1 100002:1 100042:1 100043:1 #
-0.011832853679838523097700431208068 4:2 9:5 11:5 12:2 27:14 32:1 56:1 59:1 61:1 85:1 112:1 153:1 190:2 258:1 265:1 346:1 401:5 530:1 629:1 1388:5 2761:1 4052:1 4115:1 4548:1 7034:1 12313:1 12314:1 12316:1 12318:1 12319:1 12321:1 12324:1 12325:1 12327:1 12331:1 12332:1 12333:1 12336:1 12337:1 12338:1 12361:1 12362:1 12363:1 12364:1 12365:1 12366:1 12367:1 12368:1 12369:1 12370:1 12371:1 12372:1 12373:1 12374:1 100002:1 100042:1 100043:1 #
0.011964731304456145341563733097701 2:1 1132:1 2677:1 100002:1 100040:1 100042:1 100043:1 #
0.011964731304456145341563733097701 42:1 45:1 317:1 1358:1 2708:1 2709:1 2710:1 100002:1 100040:1 100042:1 100043:1 #
-0.011964731304456145341563733097701 12:5 78:1 81:1 115:1 291:1 1774:1 10677:1 10678:1 10679:1 10680:1 10681:1 100002:1 100042:1 100043:1 #
-0.0082466895188833683194573609398503 2:1 12:4 27:1 66:1 85:1 113:1 133:1 144:1 441:1 635:1 1174:1 1209:1 1462:1 2287:1 3140:1 3193:1 4505:1 6887:1 6888:1 9596:1 10397:1 10398:1 10399:1 10400:1 10401:1 100002:1 100043:1 #
-0.011964731304456145341563733097701 12:3 27:1 31:1 40:1 42:1 51:1 56:2 78:1 85:1 94:1 97:1 112:1 208:1 287:1 317:1 592:1 717:1 835:1 1140:1 6788:1 8470:1 8507:1 8508:1 8509:1 8510:1 8511:1 100002:1 100043:1 #
0.0028991683382988578214500829943745 2:2 4:9 7:4 9:2 12:4 14:5 16:1 25:6 27:18 37:2 42:2 45:1 47:4 51:2 56:3 65:1 72:1 85:1 95:2 101:2 112:2 124:1 133:1 184:2 212:2 282:1 293:1 320:1 374:1 387:1 408:1 437:1 441:1 534:2 570:1 606:1 916:2 965:2 979:1 1047:1 1048:1 1145:1 1151:1 1388:2 1471:1 1570:1 1588:1 1636:2 2194:1 2304:1 2635:1 3121:1 3625:1 3978:1 4517:1 6263:1 6414:1 6744:1 6748:1 6759:1 6779:1 6844:1 6849:1 6885:1 6914:1 6989:1 7184:1 7185:1 7186:1 7187:1 7188:1 7189:2 7190:1 7191:2 7192:2 7193:1 7194:1 7195:1 7196:1 7197:1 7198:1 7199:1 7200:1 7201:1 7202:1 7203:1 7204:1 7205:1 7206:1 7207:1 100002:1 100009:1 100010:1 100043:1 #
0.011964731304456145341563733097701 12:3 27:1 78:1 7292:1 7293:1 100002:1 100042:1 #
-0.011964731304456145341563733097701 4:5 12:12 20:1 27:6 45:1 51:1 56:3 85:1 144:1 169:1 208:1 212:1 248:1 311:3 333:1 401:1 469:1 541:1 606:1 618:1 619:1 620:1 621:1 622:1 623:1 624:1 625:1 626:1 627:1 628:1 629:1 630:1 631:1 632:1 633:1 634:1 635:1 636:1 637:1 638:1 639:1 640:1 641:1 642:1 643:1 644:1 100002:1 100010:1 #
-0.011964731304456145341563733097701 2:4 4:2 12:4 14:2 25:8 27:12 31:1 40:1 42:1 44:1 45:1 56:3 59:1 66:1 85:1 100:1 109:1 144:1 156:1 212:2 386:1 428:1 437:1 964:1 979:1 1256:1 1258:1 1318:1 1492:1 1733:1 1771:1 1782:1 3220:1 3221:1 3222:1 3223:1 3224:1 3225:1 3226:1 3227:1 3228:1 3229:1 3230:1 3231:1 3232:1 3233:1 3234:1 3235:1 3236:1 3237:1 3238:1 3239:1 3240:1 3241:1 3242:1 3243:1 3244:1 3245:1 3246:1 3247:1 3248:1 3249:1 3250:1 100002:1 100042:1 100043:1 #
0.011964731304456145341563733097701 2:2 4:2 9:2 11:1 12:2 25:3 27:2 37:1 56:5 80:1 144:3 169:1 311:1 428:1 720:1 1300:1 1325:1 2407:1 2637:1 3258:1 3259:1 3420:1 3434:1 3435:1 3436:2 3437:1 3438:1 3439:1 3440:1 3441:1 100002:1 100042:1 100043:1 #
0.011964731304456145341563733097701 4:3 9:1 11:1 12:2 20:1 25:3 27:1 31:1 40:1 66:1 169:1 570:1 720:1 757:1 906:1 1540:1 3251:1 3258:1 3259:1 3345:1 3424:1 3543:1 3544:1 100002:1 100042:1 100043:1 #
-0.011964731304456145341563733097701 570:1 100002:1 100040:1 100042:1 100043:1 #
-0.010445360930891992717883809405066 2:2 12:2 19:1 167:1 7373:1 7374:1 7375:1 100002:1 100042:1 100043:1 #
-0.011964731304456145341563733097701 2:1 4:1 12:2 20:1 27:3 81:1 393:1 1931:1 3377:1 6887:1 8262:1 8497:1 9618:1 9619:1 9620:1 9621:1 100002:1 100043:1 #
0.011964731304456145341563733097701 4:1 16:1 27:3 31:1 40:1 42:1 112:1 530:1 748:1 1194:1 1414:1 1461:1 2704:1 2705:1 2706:1 2707:1 100002:1 100043:1 #
-0.0081322985757556719155214608463211 2:1 4:15 7:3 9:4 11:4 12:8 14:2 17:1 25:4 27:13 31:1 32:1 38:1 42:2 45:1 51:4 56:2 59:1 66:1 75:1 78:1 94:1 95:3 102:1 105:2 112:5 144:3 167:2 203:3 205:3 208:1 212:2 215:1 224:1 255:1 263:1 317:2 343:1 428:1 429:1 441:1 443:1 530:1 567:1 570:1 635:1 652:1 669:3 718:1 820:2 915:1 1089:1 1145:1 1266:1 1287:1 1356:1 1409:1 1442:1 1468:1 1582:1 1633:3 1686:1 1751:1 1758:1 2260:1 2385:1 2559:1 2701:1 2805:2 2937:1 2942:1 2945:1 3014:1 3040:1 3436:2 3499:1 3507:1 3689:1 3735:1 4186:2 4468:1 4659:1 5435:1 5660:1 5743:1 6116:1 6117:1 6503:2 7134:1 7751:2 7802:1 7844:1 8259:1 8624:1 8668:1 8760:1 8761:1 8762:1 8763:1 8764:1 8765:1 8766:1 8767:1 8768:1 8769:1 8770:1 8771:1 8772:1 8773:1 8774:4 8775:1 8776:1 8777:1 8778:1 8779:1 8780:1 8781:1 8782:1 8783:1 8784:1 8785:1 8786:1 8787:1 8788:1 8789:1 8790:1 8791:1 8792:1 8793:1 8794:1 8795:1 8796:1 100002:1 100010:1 100043:1 #
-0.002099200538895902145436478392071 2:1 4:6 7:2 9:7 11:8 12:2 14:3 16:1 19:1 25:2 27:16 42:2 56:1 57:1 66:3 85:3 112:6 144:2 150:1 167:1 293:1 416:4 430:1 457:1 530:1 737:1 753:1 1228:1 1253:1 1287:1 1318:1 1385:1 2618:3 3200:1 3666:1 3753:1 3755:1 3836:1 4104:1 4148:1 4526:1 5433:1 5466:1 6032:1 7985:1 8319:1 8459:1 10279:1 11487:1 11549:1 11724:1 11727:1 11728:3 11729:4 11730:1 11731:1 11732:2 11733:2 11734:1 11735:1 11736:1 11737:1 11738:1 11739:1 11740:1 11741:1 11742:1 11743:1 11744:1 11745:1 11746:1 11747:1 11748:1 11749:1 11750:2 11751:1 11752:1 11753:1 11754:1 11755:1 11756:1 11757:1 11758:1 100002:1 100042:1 100043:1 #
-0.011964731304456145341563733097701 9:3 11:1 12:6 27:5 45:1 51:1 95:1 203:6 205:5 208:1 242:2 245:1 408:2 484:2 543:1 550:1 710:1 916:1 1057:2 1058:2 1063:1 1069:1 1511:1 1702:2 1955:1 1962:1 2065:1 2236:1 2547:1 3094:1 3276:1 4341:1 4606:2 4627:1 4638:1 4650:2 4655:1 4675:1 4712:1 4751:1 4753:2 4754:2 4771:1 5021:2 5071:1 5284:1 5285:1 5286:1 5287:1 5288:1 5289:1 5290:1 5291:1 5292:1 5293:1 5294:1 5295:2 5296:1 5297:1 5298:1 5299:1 5300:1 5301:1 5302:2 5303:1 100002:1 100010:1 #
-0.011964731304456145341563733097701 4:5 12:1 16:2 17:1 20:1 25:3 27:9 51:1 56:2 85:3 95:2 105:1 144:1 263:1 401:1 437:1 629:1 753:1 943:1 1082:1 1348:1 2672:1 2707:1 3013:1 4285:1 4560:1 6266:1 6422:1 6625:1 7165:1 7391:1 7918:2 8580:1 8581:1 8582:1 8587:1 8588:1 8589:1 8590:1 8591:1 8592:1 8593:1 8594:1 8595:1 8596:1 8597:1 8598:1 100002:1 100010:1 100043:1 #
0.011964731304456145341563733097701 2:2 4:4 7:1 9:1 11:1 12:4 13:1 14:1 25:1 27:4 28:1 32:1 85:2 97:1 112:1 130:2 144:1 186:1 293:1 358:1 629:1 960:1 961:1 973:2 974:1 977:1 1075:1 1076:1 1077:1 1078:1 1079:1 1080:1 1081:1 1082:1 1083:1 1084:1 1085:1 1086:1 1087:1 1088:1 1089:1 1090:1 1091:1 100002:1 100043:1 #
0.011964731304456145341563733097701 2:1 4:5 12:4 17:1 25:2 27:4 37:1 42:1 45:1 56:1 66:1 112:1 144:1 167:1 302:1 346:1 409:1 437:1 469:2 852:1 933:1 936:1 975:1 1305:2 1378:1 1505:1 1518:1 1524:1 2274:1 3134:1 4561:1 8178:1 8420:1 8448:2 8454:1 8533:1 8534:1 8535:1 8536:1 8537:1 8538:1 8539:1 8540:1 8541:1 8542:1 8543:1 100002:1 100042:1 100043:1 #
0.011964731304456145341563733097701 9:1 11:1 12:1 27:1 248:1 6838:1 8399:1 100002:1 100042:1 #
0.011964731304456145341563733097701 12:1 27:1 245:1 8492:1 100002:1 100042:1 100043:1 #
0.011964731304456145341563733097701 12:1 2102:1 100002:1 100009:1 100041:1 100042:1 100043:1 #
-0.0060677797684899961727644779330149 4:2 7:1 12:1 14:1 25:2 27:2 530:1 2432:1 3522:1 8040:3 8195:3 8518:1 8519:1 8520:1 8521:1 100002:1 100042:1 100043:1 #
-0.0029742677041804384090173396515411 2:7 4:3 12:4 19:2 20:2 25:1 27:3 31:8 32:1 37:3 40:8 42:2 56:1 66:1 68:1 72:1 85:2 112:2 144:2 150:1 346:1 358:1 419:1 420:1 430:2 530:1 583:1 621:1 878:1 906:1 926:2 965:1 1159:1 1229:1 1242:1 1359:1 1388:1 1535:2 1945:1 2575:1 2618:2 2753:1 2769:2 3003:1 3422:1 3480:1 4057:1 4526:1 4548:1 5894:1 7332:2 7985:1 8112:1 8396:1 9814:1 11611:6 11804:1 11815:1 12006:1 12013:1 12014:1 12015:1 12016:1 12017:1 12018:1 12019:2 12020:1 12021:1 100002:1 100043:1 #
-0.011964731304456145341563733097701 4:1 12:2 27:2 51:1 85:1 133:1 635:1 1411:1 3375:1 6887:1 6888:1 9196:1 9454:1 9917:1 9918:1 9919:1 9920:1 100002:1 100043:1 #
-0.0030827870054889704165557162696132 2:3 3:1 4:8 9:3 11:3 12:5 14:4 17:1 25:6 27:8 31:2 32:1 40:2 42:1 56:2 66:3 94:1 95:1 97:1 101:2 111:1 112:1 144:1 166:1 209:1 213:2 224:1 291:1 292:1 320:1 343:1 437:1 582:1 598:1 617:1 629:1 760:1 839:1 1105:1 1171:1 1172:1 1318:1 1327:1 1331:1 1387:1 1578:1 2218:1 2340:1 2915:1 3003:1 3014:1 3214:2 3322:1 3426:1 3472:2 3789:1 3908:1 3913:1 3914:1 3915:1 3916:1 3917:1 3918:1 3919:1 3920:1 3921:1 3922:1 3923:1 3924:1 3925:1 3926:1 3927:1 3928:1 3929:1 3930:1 3931:2 3932:1 3933:1 3934:1 3935:1 3936:1 3937:1 3938:1 100002:1 100010:1 100043:1 #
0.011964731304456145341563733097701 12:2 27:1 95:1 203:5 205:3 208:1 242:1 495:1 550:1 773:1 1057:1 1058:1 1069:1 1305:1 2568:1 4592:1 4628:1 4629:1 4630:1 4631:1 4632:1 4633:1 4634:1 4635:1 4637:1 4638:1 4639:1 4640:1 4641:1 4642:1 4643:1 4810:1 4831:1 4879:1 4880:1 100002:1 100010:1 100043:1 #
0.011964731304456145341563733097701 2:1 4:1 27:1 31:1 40:1 51:1 56:1 75:1 85:2 144:1 167:1 203:2 205:1 208:1 428:1 430:1 441:1 580:1 629:1 964:1 1061:1 1082:1 1362:1 2589:1 2622:1 2623:1 2624:1 2625:1 2626:1 2627:1 2628:1 2629:1 2630:1 2631:1 2632:1 2633:1 100002:1 100042:1 100043:1 #
0.011964731304456145341563733097701 9:1 11:1 12:3 27:3 51:1 95:1 333:1 1028:1 1462:1 2265:1 4607:1 4627:1 5084:1 5108:1 5268:1 100002:1 100010:1 100043:1 #
0.011964731304456145341563733097701 12:1 1090:1 1906:1 2392:1 100002:1 100009:1 100041:1 100043:1 #
-0.011964731304456145341563733097701 100002:1 100040:1 100042:1 100043:1 #
0.011964731304456145341563733097701 2:1 4:1 12:1 27:2 570:1 655:1 1090:1 1168:1 1768:1 1906:1 2514:1 2515:1 100002:1 100009:1 100043:1 #
0.011964731304456145341563733097701 2:2 4:2 7:1 12:3 25:4 27:4 31:1 32:1 37:1 40:1 42:1 51:1 61:1 85:3 105:1 112:1 153:1 263:1 421:1 441:1 443:1 530:1 595:1 611:1 878:1 1258:1 1322:1 1441:1 2262:1 2439:1 2918:1 3753:1 4089:1 6685:1 7356:1 8549:1 9131:1 9151:1 9268:1 10239:1 10240:1 10241:1 10242:1 10243:1 10244:1 10245:1 10246:1 10247:1 10248:1 100002:1 100009:1 100043:1 #
-0.011964731304456145341563733097701 12:1 27:2 42:1 95:2 427:1 1462:1 2859:1 6709:1 6736:1 100002:1 100010:1 100043:1 #
0.011964731304456145341563733097701 12:1 14:1 85:3 133:1 605:1 1040:1 2410:1 2865:1 5308:1 5786:1 5787:1 5788:1 100002:1 100041:1 100043:1 #
0.011964731304456145341563733097701 27:1 2696:1 2697:1 100002:1 100041:1 100042:1 100043:1 #
0.011964731304456145341563733097701 27:1 2782:1 2783:1 100002:1 100041:1 100042:1 100043:1 #
0.011964731304456145341563733097701 27:1 171:1 8390:1 100002:1 100041:1 100042:1 100043:1 #
-0.011964731304456145341563733097701 27:3 56:2 482:1 1618:1 2206:1 6451:1 6452:1 6453:1 6454:1 6455:1 100002:1 100043:1 #
-0.011964731304456145341563733097701 100002:1 100040:1 100042:1 100043:1 #
-0.011964731304456145341563733097701 12:2 27:1 167:1 317:1 346:1 437:1 652:1 757:1 4581:1 7784:1 11711:1 100002:1 100043:1 #
-0.011964731304456145341563733097701 12:1 27:1 437:1 550:1 5784:1 11512:1 11519:1 11524:1 11525:1 100002:1 100042:1 100043:1 #
-0.011964731304456145341563733097701 12:2 95:1 332:1 100002:1 100010:1 100043:1 #
0.011964731304456145341563733097701 4:1 9:4 11:4 12:6 27:1 45:2 51:2 56:2 65:1 85:1 112:5 236:2 263:1 312:2 1031:1 1599:1 2218:1 2772:1 2997:2 3732:2 3733:1 3734:1 3735:1 3736:1 3737:2 3738:2 3739:1 3740:1 3741:1 100002:1 100043:1 #
0.011964731304456145341563733097701 2:3 4:2 7:2 12:3 13:4 14:1 16:1 25:2 27:7 31:1 37:2 40:1 42:1 56:2 144:6 199:1 203:1 205:2 208:1 428:4 477:1 570:1 653:1 669:1 1229:2 1242:1 1394:1 1431:1 1432:1 1708:1 1743:1 1782:1 2226:1 3007:1 3097:1 3436:1 3489:1 3574:1 3606:1 3667:1 4238:1 4509:1 5420:1 5433:1 6104:2 7205:1 7722:1 7763:1 7764:1 7817:1 7825:1 7827:2 7828:1 7829:1 7830:3 7831:1 7832:1 7833:2 7834:1 7835:1 7836:1 7837:1 7838:1 7839:1 7840:1 7841:1 7842:1 7843:1 7844:1 7845:1 7846:1 7847:1 7848:1 7849:1 7850:1 100002:1 100043:1 #
0.0076899195445452898575733335917448 2:3 4:2 7:7 12:5 14:1 16:5 17:2 25:2 27:5 31:1 40:1 51:1 66:1 72:1 90:1 91:1 93:1 112:4 144:1 150:1 352:1 477:1 482:1 535:1 629:1 1004:1 1202:1 1251:1 1350:1 1387:1 1392:1 1411:1 1460:1 2304:1 2526:1 3007:2 3582:1 3937:1 4073:1 4306:1 4332:1 5028:2 6450:1 7921:1 9153:1 9290:1 9416:2 9457:1 9606:1 10058:5 10310:1 10311:1 10312:1 10313:1 10314:1 10315:1 10316:1 10317:1 10318:1 10319:1 10320:1 10321:1 10322:1 10323:1 10324:1 10325:1 10326:1 10327:1 10328:1 10329:1 100002:1 100009:1 100043:1 #
0.011964731304456145341563733097701 2:1 3:1 4:5 6:1 9:1 11:1 12:7 16:1 27:4 31:1 32:1 40:1 42:2 45:2 51:3 56:2 65:2 111:1 112:1 144:2 150:2 208:1 386:1 409:2 441:2 446:1 530:1 635:2 649:1 718:1 894:1 931:1 941:1 1159:1 1250:3 1342:1 1717:1 2575:1 2635:1 2636:1 2726:1 2953:1 3742:1 3743:1 3744:1 3745:2 3746:1 3747:1 3748:1 3749:1 3750:1 3751:1 3752:1 3753:1 3754:1 3755:1 3756:1 3757:1 3758:1 3759:1 3760:1 3761:1 3762:1 100002:1 100043:1 #
-0.011964731304456145341563733097701 12:1 570:1 5529:1 100002:1 100018:1 100041:1 100042:1 100043:1 #
-0.011964731304456145341563733097701 12:2 13:1 570:1 6207:1 100002:1 100042:1 100043:1 #
-0.011964731304456145341563733097701 12:2 1235:1 6640:1 100002:1 100042:1 100043:1 #
-0.011964731304456145341563733097701 2:1 12:3 51:2 124:1 203:2 205:1 224:1 245:1 291:1 1505:1 1570:1 1972:1 5347:1 5381:1 5382:1 5395:1 5396:1 5397:1 100002:1 100042:1 100043:1 #
-0.011964731304456145341563733097701 1:1 2:2 4:2 7:1 9:1 11:1 12:5 25:2 27:2 28:1 31:3 40:3 42:2 45:1 51:4 56:2 59:1 95:1 111:1 112:2 133:1 212:2 332:1 333:1 414:1 530:1 757:1 1040:1 1090:1 1098:1 1354:1 1675:1 2741:1 2774:1 3351:1 4040:1 4275:1 4323:1 4416:1 4433:1 4463:1 4491:1 4492:1 4493:1 4550:1 4551:1 4552:1 4553:1 4554:1 4555:1 4556:1 4557:1 4558:1 4559:1 100002:1 100010:1 #
-0.011964731304456145341563733097701 9:1 12:5 27:3 203:1 205:1 224:1 245:1 487:1 550:1 643:1 1057:1 1058:1 1083:1 1461:1 1618:1 1876:1 1894:1 3330:1 4589:1 4594:1 4609:1 4622:1 5242:1 5243:1 5244:1 5245:1 5246:1 5247:1 5248:1 5249:1 5250:1 5251:1 5252:1 5253:1 100002:1 100043:1 #
-0.0034297453132486983504167987746314 4:1 9:1 12:2 25:2 38:1 51:1 56:1 85:2 112:1 144:1 469:1 570:1 635:1 1079:1 3504:1 3551:1 4097:1 4275:1 4276:1 4277:1 4278:1 4279:1 4280:1 4281:1 4282:1 100002:1 100018:1 100042:1 100043:1 #
0.011964731304456145341563733097701 4:1 27:1 66:1 570:1 906:1 1675:1 8392:1 8393:1 100002:1 100042:1 100043:1 #
0.011964731304456145341563733097701 12:1 27:1 78:1 3858:1 100002:1 100042:1 100043:1 #
-0.011964731304456145341563733097701 4:1 9:1 11:1 12:1 27:1 51:2 66:1 67:1 85:1 112:1 1356:1 1411:1 1875:1 2642:1 3375:1 7375:1 9954:1 10360:1 10361:1 10362:1 10363:1 10364:1 10365:1 10366:1 100002:1 100043:1 #
-0.011964731304456145341563733097701 12:1 85:2 1065:1 3424:1 4025:1 5578:1 100002:1 100041:1 100042:1 100043:1 #
-0.007858540066326243772598658665629 12:2 203:4 205:1 208:2 215:1 224:1 228:1 726:1 788:1 1063:1 1069:1 1675:1 1738:1 1901:1 2044:1 2065:1 3704:1 4680:1 4730:1 11288:1 11289:2 11290:1 11291:1 11292:1 11293:1 11294:1 11295:1 11296:1 11297:1 11298:1 11299:1 11300:1 11301:1 11302:1 11303:1 11304:1 11305:1 11306:1 100002:1 100042:1 100043:1 #
-0.009877624746656118656651379694722 9:1 11:1 12:2 203:2 205:1 228:1 374:1 496:1 710:2 1669:2 2044:1 2155:1 2299:1 4276:1 11315:1 11316:2 11317:1 11318:1 11319:1 11320:1 11321:1 11322:1 11323:1 100002:1 100043:1 #
0.0045834377713085266980996834718098 12:2 27:1 95:1 136:1 675:1 100002:1 100009:1 100010:1 100043:1 #
0.0045834377713085232286527315181957 12:2 27:1 95:1 136:1 5134:1 100002:1 100009:1 100010:1 100043:1 #
0.011964731304456145341563733097701 4:2 12:3 24:1 25:1 27:2 31:1 40:1 56:1 78:1 343:1 530:1 1140:1 1480:1 1675:1 8359:1 8360:1 8361:1 8362:1 8363:1 100002:1 100042:1 100043:1 #
0.011964731304456145341563733097701 12:1 27:1 291:1 8391:1 100002:1 100042:1 100043:1 #
-0.011964731304456145341563733097701 12:2 27:1 81:1 482:1 6887:1 9618:1 9667:1 10098:1 100002:1 100043:1 #
0.011964731304456145341563733097701 1:1 2:1 4:2 7:1 9:1 12:1 14:1 19:1 25:2 27:2 42:1 56:1 85:1 95:1 117:1 144:1 167:1 964:1 1090:2 1281:1 1420:1 1648:1 1655:1 1873:1 1906:1 1928:1 2173:1 2174:1 2332:1 2333:1 2409:1 2410:1 2411:1 2412:1 2413:1 2414:1 2415:1 2416:1 2417:1 2418:1 100002:1 100009:1 100010:1 #
-0.011964731304456145341563733097701 12:1 27:1 45:1 979:1 1024:1 1025:1 1082:1 1602:1 1603:1 100002:1 100042:1 100043:1 #
-0.0051087018781571348971515256209841 27:1 1057:1 1058:1 2439:1 6123:2 6125:1 6148:1 6150:1 6160:2 6161:1 6168:1 6181:1 6301:1 6550:2 6598:1 6599:1 6600:1 6601:1 6602:1 6603:1 6604:1 6605:1 6606:1 6607:1 6608:1 6609:1 6610:1 6611:1 6612:1 6613:1 6614:1 6615:1 6616:1 6617:1 6618:1 6619:1 6620:1 6621:1 6622:1 6623:1 6624:1 100002:1 100042:1 100043:1 #
-0.011964731304456145341563733097701 12:1 27:1 5099:1 6092:1 6424:1 100002:1 100043:1 #
0.011964731304456145341563733097701 4:2 14:1 25:2 27:1 31:1 40:1 51:1 56:1 102:1 111:1 112:2 322:1 530:1 537:1 2594:1 2616:1 2617:1 2618:1 2619:1 2620:1 2621:1 100002:1 100042:1 100043:1 #
0.011964731304456145341563733097701 4:1 20:1 27:1 31:1 40:1 51:1 112:1 1179:1 2618:1 2638:1 2639:1 2640:1 2641:1 2642:1 2643:1 100002:1 100042:1 100043:1 #
0.011964731304456145341563733097701 12:1 27:1 291:1 8403:1 100002:1 100042:1 100043:1 #
0.011964731304456145341563733097701 12:1 27:1 291:1 8489:1 100002:1 100042:1 100043:1 #
0.011964731304456145341563733097701 12:3 16:1 27:2 42:1 78:1 85:1 112:1 172:1 322:1 570:1 1643:1 3499:1 6347:1 8522:1 8523:1 8524:1 8525:1 100002:1 100042:1 100043:1 #
-0.011964731304456145341563733097701 2:2 4:1 12:3 17:2 19:2 25:2 27:7 31:5 32:1 37:2 40:5 47:1 66:1 72:1 75:1 85:1 124:1 363:1 386:1 409:1 518:1 629:1 906:1 951:1 1023:2 1279:2 1471:1 1689:1 3411:1 4509:1 7110:2 7294:1 7296:3 7297:1 7298:1 7299:1 7300:2 7301:2 7302:1 7303:1 7304:1 7305:1 7306:1 7307:1 7308:1 7309:1 100002:1 100042:1 100043:1 #
-0.0076223884666605330392985528931149 2:4 4:3 7:1 9:1 12:4 16:2 20:2 25:3 27:3 31:5 32:1 40:5 47:1 51:1 56:1 61:1 66:1 72:2 85:2 86:2 112:2 144:1 167:1 386:1 409:2 441:2 514:2 530:3 765:1 894:2 906:1 1057:1 1058:1 1302:1 1348:1 1360:1 1695:1 1832:3 2354:1 2412:2 2439:1 2682:1 2804:1 3450:1 3535:1 4548:1 5451:1 5578:1 5743:1 6584:1 7032:1 7398:1 7559:1 7756:1 7813:1 7870:2 8128:1 8550:1 10433:2 11715:1 11803:2 12260:1 12261:1 12262:1 12263:1 12264:1 12265:1 12266:1 12267:2 12268:1 12269:1 12270:1 12271:1 12272:1 12273:1 12274:1 12275:1 12276:1 100002:1 100042:1 100043:1 #
-0.011964731304456145341563733097701 9:1 11:1 12:2 27:1 45:1 437:1 647:1 757:1 1675:2 2012:1 2775:1 3875:1 5784:1 8299:1 11435:1 11447:1 11448:1 11449:1 11450:1 11451:1 100002:1 100042:1 100043:1 #
-0.011964731304456145341563733097701 4:1 12:1 13:1 17:1 27:3 34:1 56:1 167:1 629:1 839:1 895:1 919:1 920:1 921:1 922:1 923:1 924:1 925:1 926:1 927:1 928:1 100002:1 100042:1 100043:1 #
-0.011964731304456145341563733097701 2:1 4:2 7:2 9:1 11:1 12:4 16:1 19:1 20:1 25:5 27:7 31:4 40:4 42:1 56:1 72:1 75:1 144:2 150:1 205:1 224:1 282:1 333:1 352:1 362:1 430:1 643:1 689:1 764:1 783:1 921:1 949:1 1129:1 1137:1 1279:1 1717:1 1776:1 1782:1 2168:1 2293:1 2354:1 2658:1 4499:1 5536:1 5578:2 6435:1 8012:1 8013:1 8014:1 8015:4 8016:1 8017:1 8018:1 8019:1 8020:1 8021:1 8022:1 8023:1 8024:1 8025:1 8026:1 8027:1 8028:1 8029:1 8030:1 8031:1 8032:1 100002:1 100043:1 #
0.011964731304456145341563733097701 9:1 11:1 12:4 27:3 203:1 205:1 224:1 333:1 487:1 550:1 643:1 1057:1 1058:1 1461:1 1618:1 3330:1 4589:1 4594:1 4622:1 4819:1 4820:1 5242:1 5243:1 5244:1 5245:1 5246:1 5250:1 5254:1 100002:1 100010:1 #
0.011964731304456145341563733097701 12:2 27:2 36:1 95:2 611:1 2417:1 2859:1 6736:1 100002:1 100010:1 100043:1 #
0.011964731304456145341563733097701 12:1 27:2 95:1 291:1 8489:1 8544:1 100002:1 100010:1 100042:1 100043:1 #
-0.011964731304456145341563733097701 4:3 7:2 12:1 14:1 17:1 25:2 27:7 31:1 32:1 40:1 42:2 45:1 47:2 51:1 56:1 85:1 95:1 112:1 130:1 167:1 274:1 287:1 320:1 463:1 482:1 629:2 899:1 926:1 965:1 973:1 974:1 1030:1 1032:1 1042:1 1043:1 1044:1 1045:1 1046:1 1047:2 1048:1 1049:1 1050:1 1051:1 1052:1 1053:1 1054:1 1055:1 1056:1 1057:1 1058:1 1059:1 1060:1 1061:1 1062:1 1063:1 1064:1 1065:1 1066:1 1067:1 1068:1 1069:1 1070:1 1071:1 1072:1 1073:1 1074:1 100002:1 100010:1 100043:1 #
-0.0024064495603713228696896031522101 1:1 2:4 4:5 7:1 12:2 14:2 20:1 25:2 27:5 31:2 40:2 42:1 51:2 56:2 75:1 85:1 120:1 133:2 150:1 437:1 1090:1 1144:1 1462:1 1553:2 2423:2 2767:1 3435:1 4076:2 6975:1 7852:1 8692:3 10536:3 10554:1 10555:1 10556:2 10557:1 10558:1 10559:1 100002:1 #
-0.010919146294348159795251085313339 2:2 4:5 12:4 14:1 16:2 20:1 25:1 27:12 31:2 32:1 37:2 40:2 42:2 47:1 56:3 59:1 64:1 72:1 81:1 85:1 112:1 142:1 144:5 401:2 429:1 482:2 514:1 954:1 1040:1 1043:1 1181:1 1360:1 1875:1 1931:1 1945:1 2340:2 2432:1 3193:1 3210:2 3378:1 3582:1 5254:1 5446:1 5457:1 6887:1 8952:1 9138:1 9153:1 9154:1 9242:1 9351:1 9470:1 9542:1 9618:1 9621:1 9639:1 9667:1 9712:1 9781:1 9782:1 9783:1 9784:1 9785:1 9786:1 9787:1 9788:1 9789:1 9790:1 9791:1 9792:1 9793:1 9794:1 9795:1 9796:1 9797:1 100002:1 100043:1 #
-0.011964731304456145341563733097701 27:3 56:2 66:1 304:1 305:1 601:1 2497:1 5607:1 5608:1 5609:1 5610:1 5611:1 5612:1 100002:1 100042:1 100043:1 #
0.011964731304456145341563733097701 2:1 4:1 27:2 31:1 40:1 46:1 66:1 112:1 748:1 1063:1 1069:1 2683:1 2684:1 2685:1 2686:1 2687:1 2688:1 100002:1 100042:1 100043:1 #
0.011964731304456145341563733097701 4:2 25:1 27:2 31:1 40:1 112:1 144:1 208:1 537:1 738:1 949:1 2262:1 2678:1 2679:1 2680:1 2681:1 2682:1 100002:1 100042:1 100043:1 #
0.011964731304456145341563733097701 2:2 4:1 9:1 10:1 12:2 14:2 25:1 27:5 31:2 40:2 111:1 117:1 167:1 317:1 570:1 757:2 912:1 1057:1 1061:1 1145:1 1361:1 1411:1 1420:1 2340:1 2716:1 2886:1 3986:1 5429:1 6014:1 6015:1 6016:1 6017:1 6018:1 6019:1 6020:1 100002:1 100043:1 #
0.011964731304456145341563733097701 4:1 16:1 27:1 31:1 37:1 40:1 42:1 68:2 144:1 319:1 386:1 933:1 964:1 1235:1 1263:1 2427:1 2693:1 3426:1 6513:1 8433:1 8434:1 8435:1 100002:1 100042:1 100043:1 #
-0.011964731304456145341563733097701 12:1 27:1 208:1 255:1 5612:1 100002:1 100042:1 100043:1 #
-0.011964731304456145341563733097701 12:1 27:1 75:1 113:1 144:1 921:1 4349:1 6990:1 100002:1 100042:1 100043:1 #
-0.011964731304456145341563733097701 12:1 27:1 2878:1 7019:1 10539:1 100002:1 100042:1 100043:1 #
-0.011964731304456145341563733097701 12:1 27:1 380:1 10540:1 100002:1 100042:1 100043:1 #
-0.011964731304456145341563733097701 12:2 27:1 45:2 203:1 228:1 349:1 705:1 1129:1 2002:1 2044:1 3667:1 11307:1 11308:2 11309:1 11310:1 11311:1 11312:1 11313:1 11314:1 100002:1 100042:1 100043:1 #
0.011964731304456145341563733097701 4:1 9:1 11:1 12:1 14:1 25:1 27:2 31:1 40:1 51:1 56:1 57:1 144:1 182:1 368:1 757:1 1147:1 3075:1 4229:1 6980:1 7453:1 7454:1 7455:1 100002:1 100043:1 #
0.011964731304456145341563733097701 2:1 4:1 12:1 27:2 31:1 40:1 51:1 56:1 112:1 291:1 416:1 458:1 580:2 753:1 4099:1 7819:1 8489:1 8558:1 100002:1 100042:1 100043:1 #
0.011964731304456145341563733097701 2:1 4:1 20:1 27:2 31:1 37:1 40:1 51:1 144:1 317:1 1394:1 1501:1 2644:1 7310:1 8320:1 8321:1 8322:1 8323:1 8324:1 100002:1 100042:1 #
-0.011964731304456145341563733097701 100002:1 100040:1 100042:1 100043:1 #
-0.011964731304456145341563733097701 12:1 27:1 245:1 1420:1 6470:1 100002:1 100043:1 #
0.011964731304456145341563733097701 4:1 27:1 31:1 40:1 144:1 537:1 738:1 2588:1 100002:1 100042:1 100043:1 #
-0.011964731304456145341563733097701 12:1 31:1 100002:1 100042:1 100043:1 #
-0.011964731304456145341563733097701 100002:1 100040:1 100042:1 100043:1 #
-0.011964731304456145341563733097701 12:1 27:1 380:1 5612:1 100002:1 100042:1 100043:1 #
-0.011964731304456145341563733097701 1:1 27:3 80:1 203:1 205:1 208:1 228:1 477:1 672:1 784:1 861:1 891:1 1636:1 1675:1 2226:1 11451:1 11621:1 11622:1 100002:1 #
0.011964731304456145341563733097701 1:1 4:2 9:1 12:3 14:2 17:1 25:4 27:8 31:1 37:1 40:1 45:1 56:1 64:1 66:1 85:2 105:2 144:1 263:1 292:1 319:1 514:1 530:2 591:1 629:1 939:1 976:1 979:1 980:1 981:1 982:1 983:1 984:1 985:1 986:1 987:1 988:1 989:1 990:1 991:1 992:1 993:1 994:1 995:1 996:1 997:1 998:1 999:1 1000:1 1001:1 1002:1 1003:1 1004:1 1005:1 1006:1 1007:1 1008:1 1009:1 1010:1 1011:1 1012:1 1013:1 1014:1 1015:1 100002:1 #
0.011964731304456145341563733097701 27:1 56:1 2599:1 2600:1 2601:1 2602:1 100002:1 100041:1 100042:1 100043:1 #
0.011964731304456145341563733097701 27:1 56:1 2601:1 2602:1 2689:1 2690:1 100002:1 100041:1 100042:1 100043:1 #
-0.011964731304456145341563733097701 12:2 1235:1 6640:1 100002:1 100042:1 100043:1 #
-0.011964731304456145341563733097701 12:1 500:1 100002:1 100041:1 100042:1 100043:1 #
-0.0077215963333296527837390499371395 9:1 27:4 37:1 42:1 44:1 47:1 72:2 112:3 245:1 437:2 629:1 931:1 945:1 1082:1 1171:1 1258:1 1547:1 3050:1 3908:1 4551:1 6378:1 6485:1 6486:1 6487:1 6488:1 6489:1 6490:1 6491:1 6492:1 6493:1 100002:1 100042:1 100043:1 #
0.011964731304456145341563733097701 4:1 12:4 25:1 27:4 31:1 40:1 72:1 78:1 85:1 172:1 319:1 469:1 1378:1 1643:1 2613:1 3535:1 7859:1 7990:1 8467:1 8512:1 8513:1 8514:1 8515:1 8516:1 100002:1 100042:1 100043:1 #
-0.011964731304456145341563733097701 7:1 12:1 17:1 31:1 37:1 40:1 144:1 346:1 555:1 939:1 957:1 1394:1 1503:1 1655:1 2988:1 2989:1 2990:1 2991:1 2992:1 2993:1 2994:1 2995:1 2996:1 2997:1 100002:1 100042:1 #
0.011964731304456145341563733097701 2:1 4:4 7:1 12:1 13:1 14:2 25:2 27:3 31:3 40:3 42:2 56:2 65:1 72:3 102:2 112:1 144:2 147:3 386:1 406:1 513:3 516:1 598:1 679:1 894:1 931:1 993:1 1391:1 1655:2 2576:2 2617:1 2619:2 2620:2 2650:1 2651:1 2652:1 2653:1 2654:1 2655:1 2656:1 2657:1 2658:1 2659:2 2660:1 2661:1 2662:1 2663:1 2664:1 2665:1 100002:1 100042:1 100043:1 #
0.011964731304456145341563733097701 12:1 27:1 1774:1 8517:1 100002:1 100042:1 100043:1 #
0.011964731304456145341563733097701 12:1 27:1 1751:1 8334:1 100002:1 100042:1 100043:1 #
0.011964731304456145341563733097701 12:1 27:1 81:1 8465:1 100002:1 100042:1 100043:1 #
0.011964731304456145341563733097701 12:1 27:1 81:1 10676:1 100002:1 100042:1 100043:1 #
0.011964731304456145341563733097701 12:1 27:1 635:1 4203:1 100002:1 100042:1 100043:1 #
0.0038657231441715303454920160675101 2:2 4:3 7:6 9:4 11:3 12:6 13:2 14:1 17:1 19:1 24:2 25:9 27:12 31:1 40:1 47:1 56:4 66:1 81:1 85:3 90:1 91:1 93:1 112:3 124:1 144:2 156:1 167:1 169:1 212:1 224:1 232:1 311:1 317:1 325:3 358:1 409:3 441:1 530:4 629:1 698:1 710:1 766:1 821:1 839:1 900:1 985:1 999:1 1057:2 1058:2 1159:1 1174:1 1183:1 1380:1 1564:2 1593:1 1797:1 1931:1 1992:1 2658:1 2805:1 2989:1 3007:1 3200:1 3225:1 3226:1 3373:1 3374:1 3375:2 3376:1 3377:5 3378:3 3379:2 3380:2 3381:2 3382:3 3383:1 3384:1 3385:1 3386:1 3387:1 3388:1 3389:1 3390:1 3391:1 3392:2 3393:1 3394:1 3395:1 3396:1 3397:1 3398:1 3399:1 3400:1 3401:1 3402:1 3403:1 3404:1 3405:1 3406:1 3407:1 3408:1 3409:1 3410:1 3411:1 3412:1 3413:1 3414:2 3415:2 3416:1 3417:1 3418:1 3419:1 3420:1 3421:1 100002:1 100009:1 #
0.011964731304456145341563733097701 4:1 12:2 17:1 20:1 25:2 27:6 31:1 32:1 37:1 40:1 47:1 51:1 56:1 64:2 66:2 76:1 112:1 142:1 144:1 150:1 172:1 320:1 408:1 587:1 611:1 629:1 851:1 951:1 965:2 1376:1 1624:1 1687:1 2429:1 3046:1 3901:1 8338:1 8339:1 8340:3 8341:1 8342:1 8343:1 8344:1 8345:1 8346:1 8347:1 8348:1 8349:1 8350:1 8351:1 8352:1 8353:1 8354:1 100002:1 100042:1 100043:1 #
0.011964731304456145341563733097701 12:2 27:1 56:1 469:1 1751:1 2597:1 2598:1 100002:1 100042:1 100043:1 #
0.011964731304456145341563733097701 4:1 12:1 19:1 27:1 469:1 8448:1 8449:1 8450:1 100002:1 100042:1 100043:1 #
0.011964731304456145341563733097701 12:2 27:1 81:1 7003:1 8442:1 100002:1 100042:1 100043:1 #
-0.011964731304456145341563733097701 100002:1 100040:1 100042:1 100043:1 #
0.0058847097546379147775530427111335 2:1 4:9 7:1 9:2 11:1 12:6 14:1 16:2 19:1 20:1 25:6 27:5 31:3 32:1 37:2 40:3 42:3 51:1 56:4 95:2 112:3 136:1 144:5 167:1 169:1 332:1 428:2 570:1 580:1 720:2 757:2 893:1 927:1 949:1 1170:1 1241:1 1263:1 1280:1 1376:1 1540:1 2644:1 2959:1 3215:1 3251:2 3258:1 3259:1 3294:1 3345:1 3424:1 3451:1 3462:1 3543:1 3544:1 3604:2 3703:1 3704:1 3705:1 3706:1 3707:1 3708:1 3709:1 3710:1 3711:1 3712:1 3713:1 3714:1 3715:1 3716:1 3717:1 3718:1 3719:1 3720:1 3721:1 3722:1 3723:2 3724:1 3725:1 3726:1 3727:1 100002:1 100009:1 100010:1 100043:1 #
0.011964731304456145341563733097701 12:1 27:1 343:1 462:1 100002:1 100042:1 100043:1 #
-0.011964731304456145341563733097701 12:1 85:1 757:1 1007:1 1875:1 1931:1 100002:1 100041:1 100043:1 #
-0.011964731304456145341563733097701 12:1 56:1 85:1 7417:1 7418:1 100002:1 100041:1 100042:1 100043:1 #
-0.011964731304456145341563733097701 4:2 12:2 27:2 51:1 56:1 85:1 112:1 133:1 482:1 635:1 2302:1 3375:1 6001:1 6821:1 6887:1 6888:1 9183:1 9340:1 9918:1 9920:1 10249:1 10250:1 10251:1 100002:1 100043:1 #
0.011964731304456145341563733097701 2:1 12:1 27:1 90:1 91:1 93:1 352:1 482:1 2865:1 9626:1 9962:1 100002:1 100009:1 100043:1 #
0.011964731304456145341563733097701 2:2 4:5 7:3 9:1 11:1 12:2 14:1 16:2 19:1 25:2 27:2 31:2 32:1 40:2 44:1 47:2 51:1 56:1 77:1 90:1 91:1 93:1 144:1 287:2 292:1 317:1 386:1 430:1 441:1 514:1 629:1 649:1 1057:1 1061:1 1062:1 1230:1 1551:1 2941:2 2959:1 3426:1 3583:2 4100:1 4560:1 5433:2 6099:1 6421:1 6516:2 7398:1 7813:1 8986:1 11653:1 11908:1 11946:1 11975:1 11988:1 11998:1 12086:1 12087:1 12088:1 12089:1 12090:1 12091:1 12092:1 12093:1 12094:1 12095:1 12096:1 100002:1 100009:1 100043:1 #
0.011964731304456145341563733097701 27:1 171:1 8402:1 100002:1 100041:1 100042:1 100043:1 #
0.011964731304456145341563733097701 27:1 570:1 2153:1 2154:1 100002:1 100041:1 100042:1 100043:1 #
0.00062445122046758379328462718049764 2:2 4:7 7:1 9:4 11:3 12:4 13:1 14:1 16:3 17:1 25:5 27:10 31:1 37:1 40:1 42:2 56:3 59:1 85:3 90:1 91:1 93:1 95:1 112:3 115:1 144:5 150:1 167:1 224:1 248:1 268:1 311:1 317:1 643:1 863:1 1067:1 1250:1 1258:1 1318:1 1593:2 1675:1 1720:1 1918:1 2218:1 2262:1 2878:1 2887:1 3016:1 3066:1 3212:1 3400:1 3777:1 3819:1 3891:2 3904:1 3907:1 3941:1 3974:2 3975:2 3987:1 4026:1 4190:1 4191:1 4234:1 4235:1 4236:1 4237:1 4238:1 4239:1 4240:1 4241:1 4242:1 4243:1 4244:1 4245:1 4246:1 4247:1 4248:1 4249:1 4250:1 4251:1 4252:1 4253:1 4254:1 4255:1 4256:1 4257:1 4258:1 4259:1 4260:1 4261:1 4262:1 4263:1 4264:1 4265:1 4266:1 4267:1 4268:1 4269:1 4270:1 4271:1 4272:1 4273:1 4274:1 100002:1 100009:1 100010:1 100043:1 #
0.005660979607816611289261565787001 2:3 4:1 12:6 13:2 17:1 19:1 25:3 27:8 31:2 37:1 40:2 42:2 51:1 66:2 112:4 144:3 224:1 317:1 325:1 428:2 471:1 606:2 669:1 672:1 990:1 1675:1 2226:1 2570:1 2805:1 3007:1 3009:1 3097:1 3461:1 3521:1 3836:1 4238:1 4495:1 4640:1 5594:1 5648:2 5681:1 6104:2 6524:1 7311:1 7332:1 7734:1 7763:1 7764:1 7801:2 7802:2 7803:1 7804:1 7805:1 7806:1 7807:1 7808:1 7809:1 7810:1 7811:1 7812:1 7813:1 7814:1 7815:1 7816:1 7817:1 7818:2 7819:2 7820:1 7821:1 7822:1 7823:1 7824:1 7825:1 7826:1 100002:1 100043:1 #
-0.011964731304456145341563733097701 12:1 66:1 1034:1 1035:1 1036:1 1037:1 100002:1 100041:1 100042:1 100043:1 #
-0.011964731304456145341563733097701 12:1 5579:1 100002:1 100018:1 100041:1 100042:1 100043:1 #
0.011964731304456145341563733097701 12:1 27:1 7401:1 7402:1 100002:1 100042:1 100043:1 #
0.011964731304456145341563733097701 2:1 4:2 12:3 16:1 25:1 27:4 31:1 40:1 42:1 45:1 51:1 56:1 66:1 72:1 85:2 150:1 169:1 172:1 319:1 409:1 437:1 530:1 629:1 1228:1 1378:1 3581:1 3753:1 5486:1 7097:1 7859:1 7985:1 8194:1 8467:1 8474:1 8545:1 8546:1 8547:1 8548:1 8549:1 8550:1 8551:1 8552:1 8553:1 8554:1 8555:1 8556:1 8557:1 100002:1 100042:1 100043:1 #
0.011964731304456145341563733097701 12:2 20:2 27:3 31:1 40:1 56:1 67:2 291:1 968:1 1396:1 4267:1 8446:1 8447:1 100002:1 100042:1 100043:1 #
0.011964731304456145341563733097701 4:1 7:1 12:1 27:2 31:1 40:1 56:1 516:2 2610:1 2611:1 2612:1 2613:1 2614:1 2615:1 100002:1 100042:1 100043:1 #
-0.011964731304456145341563733097701 100002:1 100040:1 100042:1 100043:1 #
0.011964731304456145341563733097701 4:1 12:1 25:1 27:1 31:1 40:1 42:1 45:1 51:1 1042:1 1118:1 3577:1 7210:1 8317:1 100002:1 100042:1 100043:1 #
-0.011964731304456145341563733097701 12:2 27:1 81:1 482:1 6887:1 9618:1 9667:1 9712:1 100002:1 100043:1 #
-0.011964731304456145341563733097701 100002:1 100040:1 100042:1 100043:1 #
0.011964731304456145341563733097701 12:1 27:1 343:1 462:1 100002:1 100042:1 100043:1 #
0.011964731304456145341563733097701 12:1 27:1 469:1 8473:1 100002:1 100042:1 100043:1 #
-0.011964731304456145341563733097701 100002:1 100040:1 100042:1 100043:1 #
0.011964731304456145341563733097701 2:1 4:6 12:2 25:2 27:3 37:1 42:3 55:1 56:1 72:1 85:1 90:1 91:1 93:1 112:2 144:2 156:1 645:1 959:1 1046:1 1117:2 1209:1 1220:1 1258:1 1321:1 1394:1 2197:1 2304:1 2585:1 2887:1 5448:1 6837:2 7414:1 10133:1 10976:1 10978:1 10979:1 10980:1 10981:1 10982:1 10983:1 10984:1 10985:1 10986:1 10987:1 100002:1 100009:1 100043:1 #
0.011964731304456145341563733097701 4:1 9:1 11:1 12:5 16:1 27:3 45:1 112:1 144:1 153:1 167:1 248:1 592:1 1098:1 1140:1 1322:1 1599:1 8470:1 8502:1 8503:1 8504:1 8505:1 8506:1 100002:1 100043:1 #
-0.011964731304456145341563733097701 100002:1 100040:1 100042:1 100043:1 #
0.011964731304456145341563733097701 14:1 27:2 31:1 40:1 55:1 2742:1 7410:1 7617:1 11682:1 11694:1 100002:1 100042:1 100043:1 #
0.011964731304456145341563733097701 4:1 12:1 25:1 27:2 31:1 40:1 81:1 629:1 4390:1 8326:1 8364:1 8365:1 8366:1 100002:1 100042:1 100043:1 #
-0.011139112398861080940881684853139 100002:1 100040:1 100042:1 100043:1 #
0.011964731304456145341563733097701 9:1 11:1 12:1 27:1 95:1 248:1 10692:1 100002:1 100010:1 100042:1 100043:1 #
0.011964731304456145341563733097701 27:1 171:1 8390:1 100002:1 100041:1 100042:1 100043:1 #
0.011964731304456145341563733097701 12:1 27:1 469:1 8532:1 100002:1 100042:1 100043:1 #
-0.011964731304456145341563733097701 100002:1 100040:1 100042:1 100043:1 #
0.011964731304456145341563733097701 1948:1 100002:1 100009:1 100040:1 100042:1 #
-0.0087730624129512321113244510684126 2:2 4:1 12:2 20:1 27:2 51:1 81:1 482:1 1411:1 1945:1 1982:1 5483:1 6887:1 9076:1 9316:1 9618:1 9621:1 9630:1 100002:1 100043:1 #
-0.011964731304456145341563733097701 100002:1 100040:1 100042:1 100043:1 #
-0.011964731304456145341563733097701 100002:1 100040:1 100042:1 100043:1 #
0.011964731304456145341563733097701 12:1 27:1 172:1 5459:1 6446:1 100002:1 100042:1 100043:1 #
-0.011964731304456145341563733097701 100002:1 100040:1 100042:1 100043:1 #
-0.011964731304456145341563733097701 100002:1 100040:1 100042:1 100043:1 #
0.011964731304456145341563733097701 27:1 570:1 2601:1 2602:1 100002:1 100041:1 100042:1 100043:1 #
0.011964731304456145341563733097701 20:1 27:1 31:1 40:1 51:1 72:1 322:1 516:1 2605:1 2606:1 2607:1 2608:1 2609:1 100002:1 100042:1 100043:1 #
-0.011964731304456145341563733097701 100002:1 100040:1 100042:1 100043:1 #
0.011964731304456145341563733097701 2:2 4:2 12:2 13:1 14:1 16:2 17:1 20:1 25:2 27:4 31:1 40:1 51:1 56:2 67:1 85:2 144:2 643:1 895:1 1144:1 1289:1 1320:1 1376:1 1460:1 1832:1 2412:1 2702:1 2735:1 5441:1 6888:1 7171:1 7311:1 8619:1 9174:1 9196:1 9470:1 9572:1 9621:1 9695:1 9710:1 9798:1 9799:1 9800:1 9801:1 9802:1 9803:1 9804:1 9805:1 9806:1 100002:1 100009:1 100010:1 100043:1 #
0.011964731304456145341563733097701 2:1 4:2 7:1 9:1 11:1 12:4 16:1 25:3 27:4 31:1 40:1 51:1 67:1 81:2 102:1 530:1 605:1 1411:1 1470:1 1675:4 2197:1 3184:1 3378:1 3455:1 4055:1 4361:1 4396:1 9945:1 11610:1 11611:1 11612:1 11613:1 11614:1 11615:1 100002:1 100043:1 #
0.011964731304456145341563733097701 4:1 14:1 25:2 27:2 31:1 40:1 51:1 56:1 130:1 516:1 1109:1 2729:1 2731:1 2732:1 2733:1 2734:1 2735:1 100002:1 100042:1 100043:1 #
-0.011964731304456145341563733097701 100002:1 100040:1 100042:1 100043:1 #
0.011964731304456145341563733097701 12:1 27:1 172:1 8524:1 100002:1 100042:1 100043:1 #
0.011964731304456145341563733097701 27:2 208:1 544:1 561:1 1063:1 1069:1 1648:1 1784:1 2151:1 2152:1 100002:1 100042:1 100043:1 #
-0.011693364088139398052068607114506 100002:1 100040:1 100042:1 100043:1 #
-0.011964731304456145341563733097701 100002:1 100040:1 100042:1 100043:1 #
0.011964731304456145341563733097701 12:1 2102:1 100002:1 100009:1 100041:1 100042:1 100043:1 #
0.011964731304456145341563733097701 27:1 95:1 8490:1 100002:1 100010:1 100041:1 100042:1 100043:1 #
0.011964731304456145341563733097701 27:1 95:1 8526:1 100002:1 100010:1 100041:1 100042:1 100043:1 #
-0.011964731304456145341563733097701 100002:1 100040:1 100042:1 100043:1 #
0.011964731304456145341563733097701 12:1 27:1 469:1 8448:1 100002:1 100042:1 100043:1 #
-0.003869078658247711299811300023066 100002:1 100040:1 100042:1 100043:1 #
0.011964731304456145341563733097701 27:2 45:1 205:2 520:1 1472:1 1648:1 1655:1 1669:1 1958:1 1959:2 1960:1 1961:1 1965:1 2155:1 100002:1 100043:1 #
-0.0041425267564451683302562123856205 4:1 9:1 11:1 311:1 737:1 1079:1 11608:1 11609:1 100002:1 100042:1 100043:1 #
0.011964731304456145341563733097701 27:2 31:1 40:1 56:2 1925:1 2586:1 2616:1 2617:1 2736:1 2737:1 2738:1 100002:1 100042:1 100043:1 #
0.011964731304456145341563733097701 4:1 16:1 27:2 31:1 40:1 85:1 112:1 530:1 1625:1 2760:1 4482:1 6838:1 8321:1 8407:1 8427:1 8428:1 100002:1 100042:1 #
-0.010574462065225493159759118100283 2:2 12:2 19:1 936:1 7365:2 7366:1 100002:1 100042:1 100043:1 #
-0.011964731304456145341563733097701 2:1 12:2 66:1 428:1 1318:1 1389:1 1391:1 6027:1 7310:1 100002:1 100042:1 100043:1 #
0.010823754500301855166477515979295 2:1 12:1 27:1 90:1 91:1 93:1 199:1 1144:1 3193:1 5901:1 9899:1 100002:1 100009:1 100043:1 #
-0.0041122175991359496624588665270039 4:1 9:3 11:3 14:2 16:1 24:1 27:4 42:1 56:1 66:1 72:2 112:1 144:1 150:1 167:1 199:1 457:1 570:1 617:1 1228:1 2565:1 2618:1 2957:1 3200:1 3422:1 4103:2 4148:1 11759:1 11760:1 11761:2 11762:1 11763:1 11764:1 11765:1 11766:1 11767:1 11768:1 100002:1 100043:1 #
-0.011964731304456145341563733097701 12:2 13:1 25:2 26:1 27:2 31:1 40:1 42:1 75:1 85:2 120:1 514:2 653:1 1250:1 2966:1 3003:1 3227:1 3340:1 3503:1 3504:1 3505:1 3506:1 3507:1 3508:1 3509:1 3510:1 100002:1 100042:1 100043:1 #
0.011964731304456145341563733097701 12:1 27:1 95:1 757:1 7493:1 7494:1 100002:1 100010:1 100043:1 #
0.011964731304456145341563733097701 4:1 7:1 9:1 11:1 12:1 17:1 19:1 25:2 27:1 47:1 66:1 90:1 91:1 93:1 112:1 144:1 287:1 429:1 1062:1 5485:1 5486:1 5487:1 5488:1 5489:1 5490:1 5491:1 5492:1 5493:1 5494:1 100002:1 100009:1 100042:1 100043:1 #
0.0070398565673401337916548214934664 2:4 4:4 12:2 20:1 25:1 27:3 31:1 37:1 40:1 51:1 56:1 66:1 85:3 90:1 91:1 93:1 95:1 102:1 144:1 430:2 441:1 552:1 629:2 648:1 839:1 893:1 894:1 895:1 1387:1 1420:1 1931:1 2110:3 2169:1 2170:1 2206:1 2409:1 2526:1 3136:1 6524:1 6808:1 9138:1 9316:1 9634:1 9665:1 9693:1 9714:1 10173:1 10187:1 10188:1 10189:1 10190:1 10191:1 10192:1 10193:1 10194:1 10195:1 100002:1 100009:1 100010:1 100043:1 #
0.011964731304456145341563733097701 2:1 4:2 12:1 27:2 31:1 40:1 56:2 67:1 112:2 570:1 611:1 653:1 738:1 1179:1 1322:1 1364:1 1766:1 2601:1 2602:1 2662:1 2689:1 2690:1 2784:1 2785:1 100002:1 100043:1 #
-0.011964731304456145341563733097701 4:1 12:4 27:5 469:1 998:1 1057:1 1058:1 1717:1 3677:1 4769:1 6706:1 6713:1 6714:1 6715:1 6716:1 6717:1 6718:1 6719:1 6720:1 6721:1 6722:1 6723:1 6724:1 6725:1 6726:1 6727:1 6728:1 6729:1 6730:1 6731:1 6732:1 100002:1 100042:1 100043:1 #
-0.011964731304456145341563733097701 12:3 27:4 358:1 878:1 1488:1 3475:1 4589:1 4598:1 4601:1 4826:1 5014:1 5087:1 5088:1 5089:1 5090:1 100002:1 #
-0.007808173128308070615188896113068 12:3 27:6 6120:1 6121:1 6122:1 6123:3 6124:2 6125:3 6126:3 6127:1 6128:1 6129:1 6130:1 6131:1 6132:1 6133:1 6134:1 6135:1 6136:2 6137:1 6138:2 6139:1 6140:2 6141:4 6142:4 6143:1 6144:1 6145:1 6146:1 6147:1 6148:1 6149:1 6150:1 6151:1 6152:1 6153:1 6154:1 6155:1 6156:4 6157:1 6158:2 6159:1 6160:1 6161:1 6162:1 6163:1 6164:1 6165:1 6166:1 6167:1 6168:1 6169:1 6170:1 6171:1 6172:1 6173:1 6174:2 6175:1 6176:1 6177:1 6178:1 6179:1 6180:1 6181:2 6182:1 6183:1 6184:1 6185:1 6186:1 6187:1 6188:1 6189:1 6190:1 6191:1 6192:1 6193:1 6194:1 6195:1 100002:1 100042:1 100043:1 #
-0.011964731304456145341563733097701 2:3 12:3 16:1 17:1 20:1 25:2 27:6 31:2 32:1 37:1 40:2 42:1 45:2 51:1 66:1 73:1 85:2 105:2 112:3 144:1 153:2 263:1 272:1 292:1 346:1 428:1 440:1 537:2 554:1 894:1 931:1 1082:1 1207:1 1287:1 1318:1 1441:1 1460:1 1854:1 2668:1 3299:1 3708:1 3780:1 3830:1 6533:1 6770:1 7310:1 7342:1 7343:1 7344:1 7345:1 7346:1 7347:1 7348:1 7349:1 7350:1 7351:1 7352:1 7353:1 7354:1 7355:1 7356:1 7357:1 7358:1 100002:1 100042:1 100043:1 #
0.011964731304456145341563733097701 12:1 27:1 469:1 8448:1 100002:1 100042:1 100043:1 #
0.011964731304456145341563733097701 12:2 27:1 172:1 7097:1 8474:1 100002:1 100042:1 100043:1 #
-0.011964731304456145341563733097701 12:1 25:2 561:1 562:1 563:1 564:1 100002:1 100041:1 100042:1 100043:1 #
-0.011964731304456145341563733097701 4:1 27:3 31:1 40:1 205:1 208:1 622:1 710:1 757:1 2435:1 7850:1 10916:2 10960:1 10961:1 100002:1 100043:1 #
-0.011964731304456145341563733097701 4:1 12:1 27:1 95:1 2171:1 6033:1 6064:1 6667:1 100002:1 100010:1 100043:1 #
0.0033927981607200915700750520898055 2:4 4:9 7:1 9:1 11:1 12:6 17:2 25:7 27:10 31:1 40:1 47:1 51:2 56:2 66:2 81:2 85:3 86:1 90:1 91:1 93:1 101:1 118:1 144:2 167:2 332:1 409:1 514:1 521:1 534:1 562:1 570:1 635:1 643:1 648:1 720:1 894:1 931:1 965:1 979:1 1007:2 1144:1 1675:1 1832:1 1945:1 2054:1 2340:1 2346:1 2410:2 2412:2 2471:1 3504:1 3520:1 3959:1 5254:1 5977:1 6887:1 6888:1 9138:2 9153:2 9154:1 9572:1 9573:1 9574:1 9575:1 9576:1 9577:1 9578:1 9579:1 9580:1 9581:1 9582:1 9583:1 9584:1 9585:1 9586:1 9587:1 9588:1 9589:1 9590:1 9591:1 9592:1 9593:1 9594:1 9595:1 9596:1 100002:1 100009:1 100010:1 100043:1 #
0.01132179542500477351096854761181 12:1 27:1 95:1 1090:1 1906:1 1988:1 2370:1 100002:1 100009:1 100010:1 100043:1 #
0.011964731304456145341563733097701 2:1 4:4 9:2 11:2 12:3 14:1 20:1 27:1 42:1 51:1 65:1 85:1 90:1 91:1 93:1 144:1 199:1 248:1 263:1 394:1 530:1 650:1 1017:1 1322:1 3181:1 3471:1 3669:1 3736:1 4226:1 6099:1 7440:1 7441:1 7442:1 7443:1 7444:1 7445:1 7446:1 7447:1 7448:1 7449:1 100002:1 100009:1 100043:1 #
-0.0046932284986301742862879748940941 4:7 7:1 9:1 11:1 12:2 13:1 14:1 17:1 19:1 25:7 26:1 27:2 31:2 40:3 51:2 56:4 95:1 112:1 144:1 414:1 441:1 530:1 629:1 839:1 1082:1 1250:1 1356:1 1458:1 1505:1 1521:1 1578:2 2216:1 2965:1 3193:1 5865:2 5952:1 6490:1 8232:1 9026:1 10601:1 10641:1 10668:1 10830:1 10831:1 10832:2 10833:1 10834:1 10835:1 10836:1 10837:1 10838:1 10839:1 10840:1 10841:1 10842:1 10843:1 100002:1 100010:1 100043:1 #
-0.011964731304456145341563733097701 2:1 12:2 20:1 27:3 85:1 112:1 401:1 680:1 1420:1 1832:1 3193:1 3377:1 3378:1 5235:1 6887:1 9316:1 9368:1 9618:1 10379:1 10380:1 100002:1 100043:1 #
0.011964731304456145341563733097701 2:1 12:2 27:2 31:1 40:1 42:1 51:1 78:1 85:1 394:1 1455:1 4202:1 4267:1 8436:1 100002:1 100042:1 100043:1 #
0.011964731304456145341563733097701 2:2 12:2 27:2 31:1 40:1 95:1 6392:1 7310:1 7315:1 7316:1 7317:1 100002:1 100010:1 100043:1 #
-0.011964731304456145341563733097701 12:2 27:2 66:1 78:1 95:1 208:1 393:1 974:1 1025:1 1139:1 1160:1 1385:1 1386:1 100002:1 100010:1 100043:1 #
-0.011964731304456145341563733097701 12:1 27:4 1488:1 3475:1 3750:1 4598:1 4601:1 5014:1 5015:1 5016:1 5017:1 100002:1 100043:1 #
-0.011964731304456145341563733097701 9:1 11:1 12:2 27:4 174:1 207:1 1057:1 1058:1 1420:1 1488:1 1588:1 4587:1 4588:1 4589:1 4590:1 4591:1 4592:1 4593:1 4594:1 4595:1 4596:1 4597:1 4598:1 4599:1 4600:1 4601:1 4602:1 100002:1 #
-0.011964731304456145341563733097701 4:1 9:2 11:1 14:1 27:7 56:1 144:1 167:1 212:2 1105:1 4517:1 6348:1 6757:2 6975:1 6976:1 6977:1 6978:1 6979:1 6980:1 6981:1 6982:1 6983:1 6984:1 6985:1 6986:1 6987:1 6988:1 6989:1 100002:1 100043:1 #
-0.011964731304456145341563733097701 12:1 17:1 27:3 31:1 40:1 51:1 56:1 66:1 138:1 144:2 292:1 323:1 428:1 449:1 933:1 1105:1 1351:1 2672:1 2733:2 3200:1 3251:4 3286:2 3470:1 5448:1 6536:1 8560:1 11248:1 11249:1 11250:1 11251:1 11252:1 100002:1 100042:1 100043:1 #
-0.011964731304456145341563733097701 2:1 4:2 12:4 27:4 443:1 2030:1 4029:1 5441:1 5542:1 7367:2 7368:1 7369:1 7370:1 7371:1 7372:1 100002:1 100042:1 100043:1 #
-0.011964731304456145341563733097701 4:2 9:1 11:1 12:4 20:1 25:1 51:1 56:1 78:1 112:1 144:1 343:1 437:1 491:1 570:1 757:1 1675:2 2602:1 3424:1 3627:1 6019:1 6372:1 11381:1 11483:1 11484:1 11485:1 11486:1 100002:1 100042:1 #
-0.011964731304456145341563733097701 4:1 12:2 27:2 42:1 95:1 1565:1 1574:1 3793:1 6401:1 7383:1 7384:1 7385:1 100002:1 100010:1 100043:1 #
0.011964731304456145341563733097701 12:4 25:1 27:4 31:1 36:1 40:1 56:3 85:1 153:1 172:1 194:1 212:1 224:1 518:1 611:1 1476:1 6688:1 6766:1 6792:1 6875:1 6887:1 6888:1 6889:1 6890:1 100002:1 100043:1 #
0.011964731304456145341563733097701 4:1 27:3 31:1 40:1 56:1 66:1 112:1 537:1 906:1 2619:1 2688:1 2724:1 2725:1 2726:1 2727:1 2728:1 2729:1 2730:1 100002:1 100042:1 100043:1 #
0.011964731304456145341563733097701 2:1 12:1 27:5 205:1 208:1 224:1 325:1 1972:2 2570:1 3905:1 5308:1 5319:1 5420:1 5498:1 5714:1 5715:1 5716:1 5717:1 5718:1 5719:1 5720:1 100002:1 100043:1 #
0.011964731304456145341563733097701 4:1 12:1 14:1 20:1 25:1 27:5 56:1 101:1 105:1 263:1 629:1 906:1 3436:1 6375:1 6468:1 6625:1 7391:1 8580:1 8581:1 8582:1 8583:1 8584:1 8585:1 8586:1 100002:1 100009:1 100043:1 #
-0.011964731304456145341563733097701 2:2 4:1 7:2 12:2 17:1 19:1 20:1 25:1 27:8 31:3 32:1 37:1 40:3 42:1 56:1 66:1 112:1 194:1 212:1 401:1 430:1 894:1 931:1 961:1 1040:1 1174:1 1205:1 1220:1 5646:1 6259:1 7318:1 7319:1 7320:1 7321:1 7322:1 7323:3 7324:1 7325:1 7326:1 7327:2 7328:1 7329:1 7330:1 7331:1 7332:1 7333:1 100002:1 100043:1 #
-0.011964731304456145341563733097701 4:1 12:1 17:1 27:6 56:1 144:2 835:1 1168:1 1250:1 1318:1 1720:1 3846:1 3847:1 3848:1 3849:1 3850:1 3851:1 3852:1 3853:1 3854:1 3855:1 3856:1 3857:1 3858:1 3859:1 3860:1 3861:1 3862:1 100002:1 100042:1 100043:1 #
0.011964731304456145341563733097701 12:3 136:1 550:1 6898:1 100002:1 100009:1 100042:1 100043:1 #
0.011964731304456145341563733097701 12:2 95:1 136:1 1122:1 100002:1 100009:1 100043:1 #
0.011964731304456145341563733097701 12:2 136:1 100002:1 100009:1 100042:1 100043:1 #
0.011964731304456145341563733097701 12:1 27:2 95:1 401:1 1648:1 1654:1 1928:1 1945:1 1946:1 100002:1 100010:1 100043:1 #
-0.011964731304456145341563733097701 4:1 12:1 25:1 31:2 40:1 56:1 894:1 921:1 1220:1 1553:1 7279:1 100002:1 100042:1 100043:1 #
-0.011964731304456145341563733097701 2:1 12:2 31:1 40:1 44:1 1171:1 6635:1 7310:1 7339:1 7340:1 7341:1 100002:1 100042:1 100043:1 #
-0.00063229236954855929861429864047295 4:4 7:2 9:2 11:1 12:5 14:2 16:2 17:1 25:3 27:8 28:1 31:1 40:1 42:3 56:4 59:1 66:1 75:1 85:2 95:3 144:2 153:1 184:1 212:1 319:1 323:1 414:2 469:1 521:2 530:2 569:1 629:2 650:1 748:1 839:1 877:1 901:1 912:1 926:1 933:1 950:1 964:1 979:3 1028:1 1046:1 1078:1 1086:1 1284:1 1318:1 1342:1 1350:1 1385:1 1636:1 2429:1 2805:1 2994:1 4478:1 4518:1 6058:1 6065:1 6114:1 6259:1 6310:1 6311:1 6312:1 6313:1 6314:1 6315:1 6316:1 6317:1 6318:1 6319:1 6320:1 6321:1 6322:1 6323:1 6324:1 6325:2 6326:1 6327:1 6328:1 6329:1 6330:1 6331:1 6332:1 6333:1 6334:1 6335:1 6336:1 6337:1 6338:1 6339:1 6340:1 100002:1 100010:1 100043:1 #
0.011964731304456145341563733097701 4:1 12:1 27:1 85:1 90:1 91:1 93:1 117:1 332:1 1832:1 2412:1 9184:1 9317:1 9572:1 100002:1 100009:1 100043:1 #
-0.0064647808270702150981734668278023 2:1 4:4 7:1 9:2 11:1 12:4 14:3 17:3 25:4 27:11 31:1 37:1 40:1 42:2 51:2 56:1 66:1 72:3 112:2 144:4 167:1 205:2 208:2 255:1 287:1 291:1 312:1 386:1 409:1 438:1 530:1 672:1 689:1 849:1 927:2 1147:2 1350:1 1480:2 1688:1 1717:1 1774:1 2168:1 2275:1 2685:1 2802:1 2997:1 3574:1 3606:1 3620:1 3677:1 3704:2 4272:1 4601:1 5328:1 6032:1 7721:1 7778:1 8015:4 8016:1 8033:1 8034:1 8035:1 8036:1 8037:1 8038:1 8039:1 8040:2 8041:1 8042:1 8043:1 8044:1 8045:1 8046:1 8047:1 8048:1 8049:1 8050:1 8051:1 8052:1 8053:1 8054:1 8055:1 8056:1 8057:1 100002:1 100042:1 100043:1 #
0.011964731304456145341563733097701 9:1 11:1 12:1 27:2 248:1 570:1 2601:1 2602:1 2691:1 2692:1 100002:1 100042:1 100043:1 #
-0.011964731304456145341563733097701 9:1 11:1 12:2 27:1 45:1 66:1 95:1 105:1 113:1 172:1 530:1 961:1 1047:1 1342:1 1574:1 2439:1 2839:1 6851:1 7011:1 7012:1 7013:1 7014:1 7015:1 7016:1 7017:1 100002:1 100010:1 100043:1 #
-0.011964731304456145341563733097701 12:1 27:1 31:1 40:1 205:1 1972:1 5319:1 5534:1 5571:1 5721:1 100002:1 100018:1 100042:1 100043:1 #
-0.00080861636742933994895926597124003 2:1 4:3 7:1 12:3 27:1 51:1 66:1 81:1 144:1 2526:1 4610:1 6888:1 9174:1 9176:1 9306:1 9457:1 9621:1 9918:1 10235:1 10258:1 10259:1 10260:1 100002:1 100043:1 #
-0.011964731304456145341563733097701 2:2 4:3 12:4 14:1 19:1 25:2 27:5 31:1 40:1 42:1 44:1 85:1 112:1 124:1 291:1 317:2 346:1 1017:2 1082:1 1250:1 1441:1 1442:1 2712:1 3181:1 3471:1 3846:1 3962:1 4074:1 4226:1 4581:1 5320:1 5498:1 8504:1 10601:1 10816:1 10817:1 10818:1 10819:1 10820:1 10821:1 10822:1 10823:1 100002:1 100042:1 100043:1 #
-0.011964731304456145341563733097701 4:2 7:4 12:3 25:2 27:5 31:1 32:1 40:1 42:1 51:1 56:1 73:1 85:1 105:1 112:1 144:1 193:1 317:1 419:1 469:1 839:1 899:1 1052:1 1082:1 1157:1 1211:1 1229:1 1233:1 1549:1 1586:1 1611:1 1612:1 1613:1 1614:1 1615:1 1616:1 1617:1 1618:1 1619:1 1620:2 1621:1 1622:1 1623:1 1624:1 1625:1 1626:1 1627:1 1628:1 1629:1 100002:1 100042:1 100043:1 #
0.011964731304456145341563733097701 12:1 27:2 95:1 635:1 8463:1 8464:1 100002:1 100010:1 100042:1 100043:1 #
0.011964731304456145341563733097701 9:1 11:1 12:3 27:3 95:1 248:1 606:1 1751:1 10673:1 10674:1 10675:1 100002:1 100010:1 100042:1 100043:1 #
0.0032948382238472779734439477294927 12:2 27:4 31:1 36:1 40:1 56:1 95:1 611:1 9138:1 9883:1 9884:1 9885:1 10231:1 10232:1 100002:1 100010:1 100043:1 #
-0.011964731304456145341563733097701 4:1 12:1 25:1 570:1 1090:1 2328:1 2330:1 100002:1 100041:1 100043:1 #
0.011964731304456145341563733097701 4:1 14:1 27:3 31:1 40:1 51:1 56:2 150:1 160:1 409:1 1130:1 2732:1 2736:1 2737:1 2738:1 2739:1 2740:1 2741:1 2742:1 2743:1 2744:1 2745:1 100002:1 100042:1 100043:1 #
0.011964731304456145341563733097701 12:1 27:4 45:1 66:1 611:1 8335:1 8336:1 8357:1 8358:1 100002:1 100042:1 100043:1 #
0.011964731304456145341563733097701 4:1 9:1 11:1 12:2 27:2 31:1 40:1 51:1 635:1 1015:1 2444:1 2637:1 3744:1 3825:1 3826:1 3827:1 100002:1 100043:1 #
0.011964731304456145341563733097701 4:1 12:2 20:1 27:2 31:1 40:1 45:2 56:1 65:1 144:1 1518:1 8317:1 8318:1 8319:1 8320:1 100002:1 100042:1 100043:1 #
0.011964731304456145341563733097701 12:2 14:1 27:2 31:1 40:1 78:1 3504:1 7095:1 8400:1 8401:1 100002:1 100042:1 100043:1 #
0.011964731304456145341563733097701 4:1 12:2 25:1 27:2 31:1 40:1 172:1 938:1 8040:1 8493:1 8494:1 8495:1 100002:1 100042:1 100043:1 #
0.0085820757843365329947671327204262 4:2 9:2 11:2 12:3 25:1 27:5 31:1 40:1 56:1 85:1 112:1 167:1 174:1 175:1 208:1 312:1 325:1 643:1 1147:1 1391:1 2379:1 3535:1 3606:1 7639:1 7640:1 7642:1 7643:1 7645:1 7648:1 7650:1 7651:1 7665:1 7671:1 7675:1 7676:1 7677:1 7678:1 8084:1 8085:1 100002:1 100010:1 100043:1 #
0.011964731304456145341563733097701 4:2 12:3 25:1 27:2 31:1 40:1 56:1 112:1 172:1 408:1 961:1 3436:1 4461:1 7097:1 7335:1 8474:1 8475:1 100002:1 100042:1 100043:1 #
0.011964731304456145341563733097701 9:1 12:2 19:1 25:1 27:3 42:1 66:1 81:1 92:1 95:1 112:1 167:1 409:1 757:1 1356:1 2643:1 3535:1 4523:1 7495:3 7496:1 7497:1 7498:1 7499:1 7500:1 7501:1 100002:1 100010:1 100043:1 #
-0.011964731304456145341563733097701 2:1 4:1 9:2 11:2 12:6 14:2 27:3 31:2 40:2 45:1 51:1 56:3 66:2 105:2 150:1 292:1 319:1 346:1 408:2 692:1 878:1 1074:1 1137:1 1283:1 4411:1 4412:1 4413:1 4414:1 4415:2 4416:2 4417:1 4418:1 4419:1 100002:1 100043:1 #
-0.011964731304456145341563733097701 12:2 27:3 56:1 133:3 635:2 6887:1 6888:1 10344:1 10345:1 10346:1 10347:1 10348:1 100002:1 100043:1 #
-0.011964731304456145341563733097701 4:1 12:3 27:2 115:1 3776:1 4173:1 7359:1 7360:1 7361:1 7362:1 100002:1 100042:1 100043:1 #
-0.0046017965812025843352905951633147 2:4 4:3 9:6 11:6 12:5 17:1 27:7 31:1 37:1 40:1 51:1 56:6 66:1 78:1 81:1 85:1 101:1 144:1 293:1 416:1 437:1 441:1 443:1 469:1 757:1 835:1 933:1 1109:1 1250:1 1931:1 2056:1 2716:1 2856:1 3121:1 3471:2 3846:1 3951:1 4231:1 4326:1 4442:1 4663:1 4834:1 5313:1 5320:1 5519:1 5646:1 6063:1 9292:1 10459:1 10467:1 10601:1 10664:1 10670:1 10784:1 10785:2 10786:2 10787:1 10788:1 10789:1 10790:1 10791:1 10792:1 10793:1 10794:1 10795:1 10796:1 10797:1 10798:1 10799:1 100002:1 100043:1 #
-0.011964731304456145341563733097701 2:3 12:2 20:1 27:5 56:1 81:2 85:1 1122:1 1202:1 3375:2 3378:1 6887:1 9542:1 9618:1 9621:2 9622:1 9623:1 9624:1 9625:1 9626:1 100002:1 100043:1 #
-0.011964731304456145341563733097701 4:1 12:4 14:1 20:1 25:1 27:5 37:1 42:1 85:1 95:1 111:1 112:1 144:1 208:1 287:1 320:1 437:1 441:1 570:1 839:1 894:1 899:1 931:1 949:2 968:1 969:1 970:1 971:1 973:1 974:1 1016:1 1017:1 1018:1 1019:1 1020:1 1021:1 1022:1 1023:1 1024:1 1025:1 1026:1 1027:1 1028:1 1029:1 1030:1 1031:1 1032:1 1033:1 100002:1 100010:1 #
0.011964731304456145341563733097701 12:1 1090:1 1906:1 2134:1 100002:1 100009:1 100041:1 100043:1 #
-0.011964731304456145341563733097701 12:1 31:1 40:1 85:1 10842:1 11352:1 11353:1 100002:1 100042:1 100043:1 #
-0.011964731304456145341563733097701 4:2 12:1 16:1 25:1 27:1 31:1 40:1 311:1 570:1 611:1 629:1 1318:1 2340:1 3986:1 5429:1 6014:1 6015:1 6025:1 6026:1 100002:1 100042:1 100043:1 #
0.011964731304456145341563733097701 12:3 27:3 51:1 333:1 643:1 1869:1 4627:1 4889:1 5200:1 5201:1 5202:1 100002:1 100010:1 #
-0.011964731304456145341563733097701 12:1 25:1 31:1 40:1 167:1 570:1 869:1 5571:1 5572:1 5573:1 100002:1 100018:1 100042:1 100043:1 #
-0.011964731304456145341563733097701 12:1 27:1 401:1 1168:1 2157:1 2158:1 100002:1 100043:1 #
-0.0076121797614924690753013258870396 4:1 7:2 12:3 27:3 31:1 37:1 40:1 56:3 72:1 85:3 144:2 150:4 428:1 1572:1 1774:2 2011:1 2340:1 2439:1 2626:1 4040:1 4190:1 4471:1 6259:1 8827:1 9627:1 9743:1 10411:1 11329:1 11572:2 11637:1 11638:1 11639:1 11640:1 11641:1 11642:1 11643:1 11644:1 11645:1 11646:1 11647:1 11648:1 11649:1 11650:1 11651:1 100002:1 100043:1 #
-0.011964731304456145341563733097701 12:3 13:1 14:2 25:1 27:3 45:1 56:1 317:1 469:1 534:1 648:1 979:1 1043:1 1186:1 1189:1 1225:1 1226:1 1227:1 1228:1 1229:1 1230:1 1231:1 1232:1 1233:1 1234:1 1235:1 1236:1 1237:1 1238:1 100002:1 100043:1 #
0.011964731304456145341563733097701 16:1 27:2 31:1 40:1 51:1 56:1 67:1 80:1 144:1 169:1 1945:1 5334:1 9172:1 9340:1 11355:1 11553:1 11623:1 11652:1 100002:1 100043:1 #
0.011964731304456145341563733097701 27:2 31:1 40:1 56:2 738:1 2586:1 2599:1 2600:1 2601:1 2602:1 2603:1 2604:1 100002:1 100042:1 100043:1 #
0.011964731304456145341563733097701 12:1 27:3 31:1 40:1 81:1 142:1 429:1 629:1 1378:1 1396:1 8367:1 8368:1 100002:1 100042:1 100043:1 #
-0.011964731304456145341563733097701 9:1 11:1 12:1 14:1 25:2 27:2 31:1 40:1 112:1 144:1 167:2 530:2 835:1 1322:2 1388:1 2735:1 4475:1 4479:1 4505:1 7424:1 8386:1 8394:1 8395:1 8396:1 8397:1 8398:1 100002:1 100042:1 100043:1 #
-0.011964731304456145341563733097701 2:1 12:1 16:1 19:1 25:2 27:1 31:1 40:1 42:1 47:1 66:1 67:1 102:1 419:1 530:1 4055:1 9945:1 11610:1 11611:1 11653:1 100002:1 100042:1 100043:1 #
0.011964731304456145341563733097701 4:1 9:1 11:1 12:3 27:3 31:1 40:1 42:1 56:2 81:1 248:1 291:1 1105:1 1501:1 1682:1 2644:1 8391:1 8424:1 8425:1 8426:1 100002:1 100042:1 #
-0.0018578594434490178569086005211375 2:1 4:12 7:7 9:3 10:1 11:3 12:7 14:3 16:4 19:2 20:2 21:1 25:9 27:22 31:5 40:5 42:4 45:2 51:1 52:2 56:9 57:1 61:4 66:3 72:2 73:1 75:2 85:1 92:1 95:3 112:8 141:1 142:1 144:5 153:1 212:1 287:2 317:1 346:2 349:1 381:1 414:1 416:1 420:1 428:2 521:1 530:3 566:2 588:1 598:1 629:2 756:1 835:1 839:2 878:1 894:2 921:1 931:2 951:1 965:1 994:1 1129:1 1226:2 1247:1 1263:1 1350:1 1359:1 1362:1 1442:1 1518:1 1577:1 1616:1 1682:1 1717:1 2262:4 2345:1 2417:1 2432:2 2437:1 2615:1 2745:1 2804:3 2916:1 2943:1 3003:1 3179:1 3438:1 3472:1 3529:1 3581:1 3810:2 3814:4 3818:2 4265:1 4349:1 4509:2 6063:1 6395:1 6631:1 6753:1 6832:3 6925:1 7299:1 7342:3 7346:4 7398:1 8117:2 8543:1 9046:1 9353:1 9744:1 10542:1 10575:1 10986:1 11169:1 11193:1 11365:3 11679:1 11763:2 11821:1 11822:1 11887:7 11888:1 11889:1 11890:1 11891:1 11892:2 11893:2 11894:1 11895:1 11896:1 11897:1 11898:1 11899:1 11900:1 11901:1 11902:1 11903:1 11904:1 11905:1 11906:1 11907:1 11908:1 11909:1 11910:1 11911:1 11912:1 11913:1 11914:1 11915:1 11916:1 11917:1 11918:1 11919:1 11920:1 11921:1 11922:1 11923:1 11924:1 11925:1 11926:1 11927:1 11928:1 100002:1 100010:1 100043:1 #
-0.011964731304456145341563733097701 4:2 12:2 27:3 42:1 95:1 144:1 160:1 224:1 249:1 337:1 1187:1 1889:1 2966:1 4384:1 4966:1 5156:1 7550:1 7551:1 7552:1 100002:1 100043:1 #
-0.011964731304456145341563733097701 4:2 9:1 12:1 27:4 38:1 42:1 47:1 97:1 101:1 144:2 167:1 187:1 315:1 337:1 428:1 1318:1 6033:1 6066:1 6092:1 6430:1 6431:1 6432:1 100002:1 100042:1 100043:1 #
-0.011964731304456145341563733097701 12:1 27:3 56:1 212:1 721:1 1028:1 1543:1 6465:1 6466:1 6467:1 6468:1 6469:1 100002:1 100043:1 #
0.011964731304456145341563733097701 12:2 25:1 27:1 31:1 40:1 45:1 51:1 112:2 144:1 434:1 537:1 1109:1 2576:1 2588:1 2593:1 2594:1 2595:1 2596:1 100002:1 100043:1 #
0.011964731304456145341563733097701 4:1 12:1 25:1 27:3 31:1 40:1 85:1 95:1 144:1 208:1 368:1 1007:1 1774:1 1927:1 2471:1 3193:1 8461:1 8462:1 100002:1 100010:1 100043:1 #
0.011964731304456145341563733097701 12:2 27:2 45:1 469:1 8448:1 8454:1 100002:1 100042:1 100043:1 #
-0.011964731304456145341563733097701 7:1 12:2 16:1 19:1 27:2 31:2 32:1 40:2 85:2 112:1 144:1 149:1 164:1 317:1 419:1 420:1 437:1 583:1 584:1 585:1 586:1 587:1 588:1 589:1 590:1 591:1 592:1 593:1 594:1 595:1 596:1 597:1 598:1 599:1 600:1 100002:1 100043:1 #
-0.011964731304456145341563733097701 4:1 7:1 12:1 27:2 31:1 40:1 112:2 621:1 950:1 1090:1 1675:2 1832:1 2197:1 2412:1 3121:1 4466:1 7559:1 9862:1 11729:1 12228:1 12254:1 12255:1 12256:1 12257:1 12258:1 12259:1 100002:1 100043:1 #
-0.011964731304456145341563733097701 2:1 4:2 9:1 11:1 12:1 25:1 27:1 31:2 40:2 42:1 85:1 167:1 334:1 1322:2 3669:1 3753:1 3769:1 3939:1 8048:1 11769:1 11770:1 100002:1 100042:1 100043:1 #
-0.011964731304456145341563733097701 4:1 12:1 14:1 27:1 85:1 112:1 144:1 537:1 2576:1 2586:1 2587:1 2588:2 2589:1 2590:1 2591:1 2592:1 100002:1 100042:1 100043:1 #
-0.011964731304456145341563733097701 2:1 4:1 9:1 11:1 12:2 27:1 31:1 40:1 72:1 73:1 74:1 75:1 76:1 77:1 78:1 79:1 80:1 100002:1 100042:1 100043:1 #
0.011964731304456145341563733097701 2:2 12:1 25:1 27:3 42:1 47:1 56:1 169:1 1057:1 1058:1 1471:1 1987:1 3209:1 5308:1 5621:1 5622:1 5623:1 5624:1 5625:1 5626:1 5627:1 5628:1 100002:1 100009:1 #
0.011964731304456145341563733097701 4:1 12:1 27:4 56:1 325:1 401:1 635:1 1057:1 1058:1 1356:1 1766:1 5621:2 5696:1 5697:1 5698:1 5699:1 5700:1 5701:1 5702:2 5703:1 5704:1 100002:1 100009:1 100043:1 #
-0.011964731304456145341563733097701 2:2 4:2 7:1 12:1 19:1 25:2 27:5 31:1 32:1 40:1 42:2 51:1 56:1 64:1 85:1 95:1 212:1 408:1 443:1 958:1 1516:1 1656:1 2340:1 2685:1 3048:1 4302:1 4364:1 4433:1 4540:1 4541:1 4542:1 4543:1 4544:1 4545:1 4546:1 4547:1 4548:1 4549:1 100002:1 100010:1 100042:1 100043:1 #
-0.011964731304456145341563733097701 12:1 27:4 1488:1 3475:1 4598:1 4601:1 4602:1 5014:1 5015:1 5016:1 5140:1 5199:1 100002:1 100043:1 #
-0.011964731304456145341563733097701 12:1 27:4 1074:1 1488:1 1896:1 3475:1 4598:1 4601:1 5014:1 5015:1 5016:1 100002:1 100043:1 #
-0.011964731304456145341563733097701 4:2 9:1 11:1 12:3 13:1 25:2 27:5 45:1 343:2 414:1 437:2 534:1 979:1 1145:1 1220:1 1225:1 1675:2 3157:1 4035:1 5479:1 5784:2 7283:1 11381:1 11382:1 11398:1 11518:1 11519:1 11520:1 11521:1 11522:1 11523:1 100002:1 100043:1 #
-0.011964731304456145341563733097701 12:1 27:4 401:1 1488:1 3475:1 4598:1 4601:1 4602:1 5098:1 5136:1 5137:1 5138:1 100002:1 100043:1 #
-0.011964731304456145341563733097701 4:1 12:2 27:2 332:1 550:1 964:1 1362:1 7416:1 100002:1 100043:1 #
-0.011964731304456145341563733097701 12:1 27:2 56:1 144:3 1230:1 1391:1 2672:1 2805:1 3460:1 3472:1 6027:1 6028:1 6029:1 6030:1 6031:1 6032:1 6033:1 6034:1 100002:1 100042:1 100043:1 #
-0.011964731304456145341563733097701 9:1 12:1 27:2 51:1 203:1 208:1 224:1 401:1 709:1 964:1 1797:1 1802:1 1882:1 1883:1 1884:1 1885:1 1886:1 1887:1 1888:1 1889:1 1890:1 1891:1 100002:1 100043:1 #
-0.011964731304456145341563733097701 12:1 27:2 66:1 550:1 906:1 6433:1 6434:1 100002:1 100043:1 #
-0.011964731304456145341563733097701 4:1 12:1 27:2 7773:1 9782:1 11764:1 11927:1 12234:1 100002:1 100042:1 100043:1 #
0.011964731304456145341563733097701 12:1 27:2 643:1 1090:1 1906:1 1919:1 1988:1 2074:1 100002:1 100010:1 100043:1 #
-0.011677380058368307808036590245138 2:1 7:1 12:1 14:1 19:1 25:1 27:3 31:1 37:1 40:1 42:1 56:1 66:1 67:1 81:1 120:1 150:1 167:1 318:1 409:1 567:1 594:1 1000:1 1226:1 1405:1 2767:1 3461:1 4475:1 6395:1 7390:1 8294:1 8367:1 8373:1 8394:1 8437:1 8438:1 8439:1 8440:1 8441:1 100002:1 100042:1 100043:1 #
0.011964731304456145341563733097701 12:1 27:2 95:1 635:1 8463:1 8464:1 100002:1 100010:1 100042:1 100043:1 #
-0.011964731304456145341563733097701 7:1 12:1 27:2 202:1 282:1 1024:1 1220:1 1876:1 6099:1 7363:1 7364:1 100002:1 100042:1 100043:1 #
-0.011964731304456145341563733097701 2:1 9:1 11:1 12:1 20:2 27:2 42:1 45:1 51:1 56:1 80:1 213:1 224:1 242:1 514:1 530:1 555:1 888:1 900:1 1782:1 2238:1 2407:1 2412:1 3227:1 3252:1 3253:1 3254:1 3255:1 3256:1 3257:1 3258:1 3422:1 3423:1 3424:1 3425:1 3426:1 3427:1 100002:1 100042:1 #
-0.011964731304456145341563733097701 12:3 27:1 133:1 635:1 1420:1 4168:1 6887:1 6888:1 10438:1 10439:1 100002:1 100043:1 #
-0.0082566267647967064163827544120977 9:1 27:3 6114:1 6124:1 6132:1 6156:3 6174:1 6178:1 6181:1 6254:1 6269:1 6270:2 6271:1 6272:2 6273:1 6274:1 6275:1 6276:1 6277:1 6278:1 6279:1 6280:1 6281:1 6282:1 6283:1 6284:1 6285:1 6286:1 6287:1 6288:1 6289:1 6290:1 6291:1 6292:1 6293:1 6294:1 6295:1 6296:1 6297:1 6298:1 6299:1 6300:1 6301:1 6302:1 6303:1 6304:1 6305:1 6306:1 6307:1 6308:1 6309:1 100002:1 100042:1 100043:1 #
0.011964731304456145341563733097701 12:1 2102:1 100002:1 100009:1 100041:1 100042:1 100043:1 #
0.011964731304456145341563733097701 9:1 11:1 12:3 27:3 31:1 40:1 51:2 56:1 190:1 208:1 629:1 1063:1 1069:1 2887:1 3833:1 7479:1 7480:1 7521:1 7522:1 7523:1 7524:1 7525:1 7526:1 7527:1 7528:1 100002:1 100043:1 #
0.011964731304456145341563733097701 9:1 11:1 12:3 27:2 31:1 40:1 51:2 105:1 199:1 205:1 224:1 829:1 878:1 927:1 1084:1 1420:1 3887:1 3888:1 3889:1 3890:1 3891:1 3892:1 3893:1 3894:1 3895:1 3896:1 3897:1 100002:1 100043:1 #
0.011964731304456145341563733097701 12:1 27:3 31:1 40:1 172:1 530:1 8527:1 8528:1 8529:1 8530:1 8531:1 100002:1 100042:1 100043:1 #
0.011964731304456145341563733097701 4:1 12:2 20:1 25:1 27:2 105:1 263:1 611:1 878:1 1422:1 2056:1 8095:1 9268:1 9325:1 9326:1 100002:1 100009:1 100043:1 #
0.011964731304456145341563733097701 2:1 27:3 31:2 40:2 42:1 56:1 112:3 144:1 147:1 167:1 441:1 537:1 570:1 1362:1 1535:1 2644:1 2645:1 2646:1 2647:1 2648:1 2649:1 100002:1 100042:1 100043:1 #
0.011964731304456145341563733097701 12:1 136:1 100002:1 100009:1 100041:1 100042:1 100043:1 #
0.011964731304456145341563733097701 12:1 27:5 31:1 40:1 1633:1 2719:1 2720:1 2721:1 2722:1 2723:1 100002:1 100043:1 #
0.011964731304456145341563733097701 12:1 27:4 31:1 40:1 580:1 1038:1 1774:1 8485:1 8486:1 100002:1 100042:1 100043:1 #
0.011964731304456145341563733097701 12:4 27:3 45:1 78:1 491:1 570:1 635:1 8335:1 8336:1 8337:1 100002:1 100042:1 100043:1 #
0.011964731304456145341563733097701 4:1 9:1 11:1 12:2 25:1 27:2 31:1 40:1 51:1 199:1 219:1 688:1 720:1 2226:1 3253:1 3258:1 3259:1 3424:1 3428:1 3429:1 100002:1 100042:1 100043:1 #
0.011964731304456145341563733097701 12:3 27:2 31:1 40:1 42:1 51:1 56:1 78:1 112:1 144:1 167:1 469:1 513:1 629:1 1284:1 1734:1 7003:1 7972:1 8386:1 8443:1 8444:1 8445:1 100002:1 100042:1 100043:1 #
0.011964731304456145341563733097701 12:2 27:4 643:1 1057:1 1058:1 1083:1 1782:1 1896:1 4606:1 4695:1 4696:1 4702:1 4703:1 4704:2 5130:1 100002:1 100010:1 100043:1 #
0.011964731304456145341563733097701 4:1 7:1 12:1 25:2 27:5 42:1 56:1 85:1 94:1 101:1 112:1 727:1 756:1 1086:1 1745:1 2256:1 3436:1 3736:1 7803:1 8583:1 8624:1 8803:1 8963:1 9120:1 9121:1 9122:1 100002:1 100009:1 100043:1 #
0.011964731304456145341563733097701 12:2 27:1 203:5 205:3 208:1 242:1 495:1 550:2 643:1 773:1 1057:1 1058:1 1069:1 1305:1 2385:1 2568:1 4592:1 4628:1 4629:1 4630:1 4631:1 4632:1 4633:1 4634:1 4635:1 4636:1 4637:1 4638:1 4639:1 4640:1 4641:1 4642:1 4643:1 4648:1 100002:1 100010:1 100043:1 #
0.011964731304456145341563733097701 2:2 4:4 7:1 9:1 11:1 12:4 14:2 16:1 27:4 45:1 66:1 85:2 90:1 91:1 93:1 112:1 142:1 144:3 167:1 287:1 374:1 386:1 458:1 530:1 645:1 757:2 894:2 931:1 954:1 1202:1 1411:1 1604:1 1675:2 1771:1 2432:1 2865:1 3377:1 4518:1 4547:1 7457:1 7902:1 8556:1 9322:1 9429:1 11273:1 11366:2 11400:1 11401:1 11402:1 11403:1 11404:1 11405:1 11406:1 11407:1 11408:1 11409:1 11410:1 11411:1 11412:1 11413:1 11414:1 11415:1 11416:1 100002:1 100009:1 100043:1 #
0.0035555785063673328236233395216459 2:2 4:5 7:4 12:5 14:7 20:1 25:2 27:11 32:2 42:1 51:3 56:2 81:1 85:1 90:1 91:1 93:1 111:1 112:3 144:1 153:2 336:2 358:1 401:1 482:1 521:2 721:2 856:1 1202:1 1320:1 1420:4 1462:1 1519:1 1832:1 1922:1 1931:1 2103:1 2146:1 2412:1 2702:1 3067:1 5016:1 5140:1 5782:1 6414:1 6808:1 6887:1 9306:1 9468:1 9471:1 9572:1 9618:1 9627:1 9628:1 9629:1 9667:1 9712:1 10017:1 10148:1 10149:1 10150:1 10151:1 10152:1 10153:1 10154:1 10155:1 10156:1 10157:1 10158:1 10159:1 100002:1 100009:1 100043:1 #
-0.011964731304456145341563733097701 7:1 9:1 11:1 12:2 20:1 27:1 31:1 37:1 40:1 95:1 112:1 144:1 401:1 530:1 931:1 1057:1 1058:1 1593:1 2439:1 2804:1 3392:1 3445:1 3484:1 3485:1 3486:1 3487:1 3488:1 3489:1 3490:1 3491:1 100002:1 100010:1 100043:1 #
-0.011964731304456145341563733097701 2:1 4:1 7:1 9:1 12:3 16:1 20:1 25:1 27:2 51:1 56:1 85:1 95:1 112:3 443:1 635:1 648:1 652:1 965:2 1090:1 1462:1 1577:1 3485:1 6528:1 6887:1 6888:1 8128:1 9153:1 9701:1 9915:1 10162:1 10163:1 10164:1 10165:1 10166:1 10167:1 10168:1 10169:1 10170:1 10171:1 100002:1 #
-0.011964731304456145341563733097701 14:1 20:1 27:3 61:1 62:1 63:1 64:1 65:1 66:2 67:1 68:1 69:1 70:1 71:1 100002:1 100042:1 100043:1 #
-0.011964731304456145341563733097701 2:1 12:2 20:1 27:3 81:1 2471:1 2526:1 3377:1 6887:1 9238:1 9618:1 9621:1 9622:1 9906:1 100002:1 100043:1 #
-0.011964731304456145341563733097701 4:2 12:5 14:1 25:2 27:1 31:3 40:3 42:2 51:2 56:1 70:1 80:1 113:1 138:2 144:2 322:1 720:1 849:1 1250:1 1279:1 1287:1 1318:1 1350:1 1388:1 1571:1 1574:1 1931:1 3146:1 3424:1 3492:1 3493:1 3494:1 3495:1 3496:1 3497:1 3498:1 3499:1 3500:1 3501:1 3502:1 100002:1 100043:1 #
-0.0050102030110123103867625360408056 2:2 4:2 7:1 12:3 14:2 19:1 25:3 27:6 42:1 45:2 56:2 101:1 112:3 323:1 325:1 428:1 437:1 530:1 629:2 939:1 979:2 1242:1 1394:1 1609:1 1619:1 2356:1 2412:2 3934:1 4306:1 4322:1 4386:1 5865:1 9429:1 9611:1 9696:2 9868:2 11325:1 11357:1 11367:1 11456:1 11472:1 11473:1 11474:1 11475:1 11476:1 11477:1 11478:1 11479:1 11480:1 11481:1 11482:1 100002:1 100043:1 #
-0.011964731304456145341563733097701 2:1 4:3 16:1 25:1 27:2 51:1 67:1 112:1 167:1 484:1 605:1 720:1 1007:1 1832:1 3504:1 10440:1 11582:2 11616:1 11620:1 100002:1 100043:1 #
-0.011964731304456145341563733097701 4:1 9:1 11:1 12:1 14:2 27:2 31:1 40:1 45:1 460:1 515:1 530:1 629:1 1560:1 3700:1 4517:1 4518:1 6810:1 8481:1 8482:1 8483:1 8484:1 100002:1 100043:1 #
0.011964731304456145341563733097701 12:1 27:1 550:2 643:1 1063:1 1069:1 4627:1 4628:1 4629:1 4630:1 4631:1 4632:1 4633:1 4634:1 4635:1 4636:1 4637:1 4638:1 4862:1 100002:1 100010:1 100043:1 #
0.011964731304456145341563733097701 12:1 27:1 550:2 643:1 1069:1 4628:1 4629:1 4630:1 4631:1 4632:1 4633:1 4634:1 4635:1 4636:1 4637:1 4638:1 4863:1 100002:1 100010:1 100043:1 #
0.011964731304456145341563733097701 12:1 136:1 100002:1 100009:1 100041:1 100042:1 100043:1 #
-0.011964731304456145341563733097701 9:3 11:3 12:3 14:1 27:2 3184:1 11284:1 11285:1 11286:1 11287:1 100002:1 100042:1 100043:1 #
-0.010882735669112221510435034588227 4:2 12:2 14:1 56:1 75:1 112:1 144:1 386:1 428:1 458:1 645:1 752:1 1001:1 1242:1 1396:1 2644:1 2997:2 3496:1 8853:1 10546:1 100002:1 100042:1 100043:1 #
-0.011964731304456145341563733097701 4:1 7:1 10:1 12:2 25:1 27:3 31:1 37:1 40:1 42:1 51:1 80:1 85:1 112:1 144:1 167:1 193:1 203:1 208:1 346:2 443:1 735:1 964:1 1063:2 1069:2 1078:1 1086:1 1362:1 1717:1 4538:1 4581:1 7385:1 10375:1 11704:2 11705:1 11706:1 11707:1 11708:1 11709:1 11710:1 100002:1 100043:1 #
-0.011964731304456145341563733097701 7:1 12:1 14:1 20:2 27:5 34:1 37:1 42:1 56:1 65:1 112:1 156:1 894:1 895:1 896:1 897:1 898:1 899:1 900:1 901:1 902:1 903:1 904:1 905:1 100002:1 100042:1 100043:1 #
0.011964731304456145341563733097701 12:1 570:1 1089:1 1090:1 2233:1 100002:1 100009:1 100041:1 100043:1 #
0.011964731304456145341563733097701 4:1 7:1 27:4 31:2 40:2 42:1 51:1 56:2 112:1 144:1 212:1 322:1 409:1 516:1 537:1 2616:1 2617:1 2628:1 2729:1 2731:1 2746:1 2747:1 2748:1 2749:1 2750:1 2751:1 2752:1 2753:1 2754:1 2755:1 2756:1 2757:1 100002:1 100042:1 100043:1 #
0.011964731304456145341563733097701 2:1 9:1 11:1 12:2 20:1 21:1 27:2 31:1 40:1 56:1 85:1 112:1 144:1 167:1 737:1 1031:1 1109:1 1118:1 1857:1 2712:1 2887:1 3424:1 4029:1 4076:1 4461:1 6508:1 8266:1 8267:1 8268:1 8269:1 8270:1 100002:1 100009:1 100043:1 #
-0.011964731304456145341563733097701 12:1 27:2 56:1 59:1 144:1 482:1 570:1 721:1 893:1 1168:1 1420:1 2138:1 100002:1 100043:1 #
-0.011964731304456145341563733097701 4:1 12:1 25:1 570:1 1089:1 2216:1 8699:1 8700:1 100002:1 100041:1 100042:1 100043:1 #
-0.011964731304456145341563733097701 2:1 4:1 12:2 16:1 17:1 27:3 31:1 40:1 45:1 56:1 105:1 144:1 153:1 212:1 312:1 401:1 629:1 1118:1 1782:1 2602:1 3962:1 4472:1 6688:1 6904:1 6909:1 6910:1 7028:1 7029:1 7030:1 7031:1 7032:1 7033:1 7034:1 7035:1 7036:1 100002:1 100043:1 #
0.011964731304456145341563733097701 4:1 9:1 11:1 12:2 25:1 27:4 31:1 40:1 51:1 95:1 190:1 208:1 757:1 2859:1 4415:1 4582:1 7484:1 7485:1 7486:1 7487:1 7488:1 7489:1 7490:1 7491:1 7492:1 100002:1 100010:1 100043:1 #
-0.011964731304456145341563733097701 4:2 7:1 9:1 11:1 12:1 13:1 25:1 27:3 31:1 33:1 40:1 56:2 75:2 92:1 95:1 112:1 292:2 591:1 595:1 621:1 629:2 701:1 839:1 923:1 1405:1 1480:1 7799:1 7809:1 11357:1 11878:1 11879:1 11880:1 11881:1 11882:1 11883:1 11884:1 11885:1 11886:1 100002:1 100010:1 100043:1 #
0.011964731304456145341563733097701 3:1 7:1 12:5 27:1 174:1 317:1 570:1 698:1 1574:1 1717:1 1797:1 3022:1 3413:1 3472:1 3473:1 3474:1 100002:1 100009:1 100043:1 #
-0.011964731304456145341563733097701 2:1 4:1 27:2 51:1 85:1 144:1 268:1 374:1 555:1 1228:1 3378:1 4097:1 4249:1 9235:1 11616:1 11618:1 11619:1 100002:1 #
-0.011964731304456145341563733097701 4:1 12:2 42:1 172:1 317:1 570:1 2340:1 3838:1 10632:1 100002:1 100042:1 100043:1 #
-0.011964731304456145341563733097701 2:2 4:2 9:1 11:1 12:1 16:1 25:1 27:1 31:3 40:3 56:1 85:2 112:1 144:1 414:1 416:2 1007:1 1300:1 1988:1 2769:1 3375:1 3422:1 4103:1 4265:1 5466:1 6844:1 9860:1 12006:1 12007:1 12008:2 12009:1 12010:1 100002:1 100043:1 #
-0.011964731304456145341563733097701 4:4 12:1 17:1 27:3 31:1 40:1 51:1 56:2 66:1 530:1 921:1 1350:2 4460:1 6048:1 7451:1 8560:1 11170:1 11264:1 11265:1 11266:1 11267:1 11268:1 11269:1 11270:1 11271:1 11272:1 100002:1 100042:1 100043:1 #
0.011964731304456145341563733097701 12:2 27:2 31:1 40:1 51:1 85:1 112:1 144:1 172:1 319:1 1783:1 2642:1 7097:1 7687:1 8467:1 8474:1 8475:1 8476:1 8491:1 100002:1 100042:1 100043:1 #
-0.011964731304456145341563733097701 2:1 4:1 7:1 12:1 16:1 17:1 19:1 25:2 27:4 32:1 37:1 56:1 66:2 95:1 112:1 144:2 196:1 317:1 386:1 1043:1 1061:1 1062:1 1090:1 1472:1 2437:1 3497:1 4508:1 6677:1 7603:1 7604:1 7605:1 7606:1 7607:1 7608:1 7609:1 7610:1 7611:1 7612:1 7613:1 7614:1 7615:1 7616:1 100002:1 100010:1 100043:1 #
-0.011421778321339413897472780945463 4:1 9:1 11:1 12:2 14:2 19:1 20:1 25:2 27:5 37:1 85:2 112:2 150:1 156:1 332:1 931:1 1089:1 1122:1 1170:1 1391:1 1555:1 2585:1 2974:1 4362:1 5855:1 6905:1 7812:1 7916:1 8117:1 9743:1 9945:1 10931:1 11572:1 11591:1 11592:1 11593:1 11594:1 11595:1 11596:1 11597:1 11598:1 11599:1 11600:1 100002:1 100043:1 #
0.011964731304456145341563733097701 2:1 4:2 12:3 27:2 42:1 95:2 142:1 174:1 482:1 1570:1 2340:1 2859:1 3022:1 6700:1 6701:1 6736:1 100002:1 100009:1 100010:1 100043:1 #
0.0066212141593168065412111644718607 9:1 11:1 12:2 14:1 27:4 51:1 56:1 85:1 2887:1 3015:1 5308:1 5312:1 5313:1 5467:1 5952:1 5958:1 5959:1 5960:1 5961:1 5962:1 5963:1 5964:1 100002:1 100009:1 100043:1 #
-0.011964731304456145341563733097701 2:1 4:3 9:1 11:1 12:2 27:5 42:1 409:1 649:1 801:1 835:1 979:1 1017:1 1022:1 1168:1 1318:1 3050:1 3753:1 4226:1 4276:1 6325:1 6837:1 7819:1 8226:1 10819:1 11343:1 11344:1 11345:1 11346:1 100002:1 100043:1 #
0.011964731304456145341563733097701 12:3 27:1 95:1 333:1 401:1 1911:1 4908:1 100002:1 100009:1 100010:1 100043:1 #
-0.011964731304456145341563733097701 1:1 7:1 10:1 12:2 27:1 37:1 51:1 144:1 317:2 1442:1 2392:1 11719:1 11720:1 11721:1 11722:1 100002:1 100043:1 #
0.011964731304456145341563733097701 1:1 2:1 4:1 10:1 12:2 25:1 27:3 56:1 90:1 93:1 101:1 319:1 380:1 1553:1 3529:1 10528:1 10542:1 10543:1 10544:1 10545:1 100002:1 #
0.011964731304456145341563733097701 4:1 14:1 25:1 27:4 31:1 33:1 40:1 51:1 65:1 102:1 112:1 428:1 438:1 537:2 623:1 846:1 1318:1 1578:1 2427:1 2575:1 2576:1 2659:1 2662:1 2666:1 2667:1 2668:1 2669:1 2670:1 2671:1 2672:1 2673:1 2674:1 2675:1 2676:1 100002:1 100042:1 100043:1 #
-0.011964731304456145341563733097701 2:1 4:1 7:1 10:1 12:1 25:1 27:2 85:1 112:1 570:1 912:1 2206:1 2410:1 4025:2 6020:1 11090:1 11091:1 11092:1 11093:1 100002:1 100043:1 #
-0.011964731304456145341563733097701 12:1 16:1 25:2 27:1 56:2 85:1 112:3 414:1 438:1 1007:1 1685:1 1945:1 2358:1 2769:1 3487:1 7559:1 12011:1 12012:1 100002:1 100043:1 #
-0.011964731304456145341563733097701 2:1 4:1 12:2 19:1 25:1 27:3 56:1 65:1 72:1 75:1 694:1 942:1 2056:1 2805:1 2806:1 3040:1 3802:1 4076:1 4505:1 5374:1 10790:1 12282:1 12283:1 12284:1 12285:1 12286:1 12287:1 12288:1 100002:1 100042:1 100043:1 #
-0.0086580684546178256905113457264633 2:1 4:1 7:1 10:1 12:2 25:2 27:1 51:1 85:1 144:1 167:1 171:1 570:1 912:1 2206:1 2410:1 3917:1 4025:1 6020:1 10819:1 11109:1 11110:1 11111:1 11112:1 11113:1 11114:1 100002:1 100018:1 100043:1 #
-0.011964731304456145341563733097701 12:1 27:4 66:1 72:1 212:2 245:1 482:1 906:1 1028:2 1122:2 1420:1 1498:1 4173:1 5099:1 6568:1 100002:1 100043:1 #
-0.011964731304456145341563733097701 27:3 56:1 212:2 878:1 1988:1 6092:1 6425:1 6426:1 6427:1 6428:1 6429:1 100002:1 100043:1 #
0.011964731304456145341563733097701 14:1 27:1 31:1 40:1 51:1 56:1 102:1 112:3 537:1 2576:1 2594:1 2606:1 2634:1 2635:2 2636:1 2637:1 100002:1 100042:1 100043:1 #
0.0080831255286510951540979164064993 2:3 4:4 7:2 9:2 10:1 11:2 12:2 17:1 25:5 27:5 31:3 37:1 40:3 42:1 56:1 66:2 90:1 91:1 93:1 112:1 144:2 167:1 282:1 393:1 430:1 441:1 446:1 1082:2 1263:1 1441:1 2173:1 2197:1 2588:1 2756:1 2989:1 3302:2 3472:1 3943:1 6414:1 6489:1 8286:1 8421:1 10909:3 10916:1 10976:2 10987:1 10992:1 11000:1 11001:1 11002:1 11003:1 11004:1 11005:1 11006:1 11007:1 11008:1 11009:1 11010:1 11011:1 11012:1 11013:1 11014:1 11015:1 11016:1 11017:1 100002:1 100009:1 100043:1 #
0.010159677552753158119580589868747 12:4 27:5 31:1 40:1 45:2 85:1 97:1 203:1 219:1 228:1 325:1 555:1 1250:2 1535:1 1669:1 2236:1 2957:1 3193:1 3227:1 3252:1 3263:1 3264:1 3265:1 3266:1 3267:1 3268:1 3269:1 3270:1 3271:1 3272:1 3273:1 100002:1 #
0.011964731304456145341563733097701 2:1 4:4 7:1 9:1 11:1 12:4 16:1 25:3 27:4 31:2 40:2 42:1 47:2 51:1 56:2 144:1 146:1 167:1 291:2 325:1 386:1 570:1 1061:1 1062:1 1078:1 1931:1 2637:1 4237:1 5849:1 8321:2 8326:3 8362:2 8419:1 8429:2 8430:1 8431:1 100002:1 100043:1 #
0.011964731304456145341563733097701 12:1 27:2 449:1 1090:1 1588:1 1840:1 1906:1 2159:1 100002:1 100009:1 100043:1 #
-0.0086377864967257314554593961020146 2:2 4:2 12:2 19:1 25:1 27:1 31:2 40:2 42:1 72:1 112:1 138:1 144:1 169:2 437:1 964:1 1023:1 2672:1 3251:1 3582:1 4573:1 8827:1 9406:1 9556:1 11253:1 11254:2 11255:1 11256:1 100002:1 100042:1 100043:1 #
0.0097643245226484154386525915469974 9:1 11:2 12:3 27:6 45:1 95:2 174:1 245:1 1057:1 1058:1 1488:1 1796:1 2065:1 4173:1 4587:1 4588:1 4589:1 4592:1 4594:1 4598:1 4601:1 4820:1 4907:1 5018:1 5029:1 5055:1 5097:1 5098:1 5099:1 5100:1 5101:1 5102:1 100002:1 100010:1 #
0.0094751708569015061223161922043801 9:2 11:2 12:3 27:4 103:1 203:2 205:2 333:1 642:1 643:1 987:1 1057:1 1058:1 1664:1 1666:1 2045:1 4592:1 4794:1 4819:1 4820:1 4882:1 4883:1 4884:1 4885:1 4886:1 4887:1 4888:1 4889:1 100002:1 100010:1 #
0.010928995667758093987553813519753 12:1 27:4 51:1 203:2 205:1 213:1 224:1 255:1 381:1 1129:1 1674:1 2168:1 6796:1 8086:1 8087:1 8088:1 8089:1 8090:1 100002:1 100009:1 100043:1 #
0.0094072417977891561319259139395399 4:5 7:1 9:1 12:2 14:2 25:3 27:5 31:2 37:1 40:2 42:2 44:1 45:2 50:1 51:1 56:1 85:1 102:1 105:1 111:1 133:1 144:1 167:2 263:1 484:1 530:1 552:1 570:1 591:1 643:1 878:1 913:1 1250:2 1281:1 1362:1 1633:1 1988:1 3299:1 3493:1 3978:1 4328:1 5429:1 6355:1 6887:1 6888:1 7646:1 8858:1 9123:1 9124:1 9131:1 9564:1 9903:2 9991:1 10284:1 10285:1 10286:1 10287:1 10288:1 10289:1 100002:1 100009:1 100010:1 100043:1 #
0.00561993216914648784088281985305 12:1 16:1 25:1 27:3 31:1 40:1 51:1 90:1 91:1 93:1 199:1 203:1 205:2 208:1 224:1 228:1 481:1 628:1 785:1 1462:1 2206:1 2216:1 2236:1 2547:1 3564:1 3599:1 7824:1 8060:1 9290:1 9477:1 10911:1 10912:1 10913:2 10914:1 10915:1 10916:1 10917:1 10918:1 10919:1 10920:1 10921:1 100002:1 100043:1 #
0.0045834774031979991573693133943834 4:2 7:1 9:1 11:1 12:4 14:2 16:1 17:1 19:4 20:1 25:5 27:7 31:1 37:1 40:1 42:1 47:1 51:2 56:2 66:1 75:2 90:1 91:1 92:5 93:1 112:2 113:1 144:1 150:1 167:1 282:1 293:1 337:1 346:1 386:1 409:1 430:1 530:2 933:1 1015:1 1220:1 1253:1 1392:1 1688:1 2153:1 2656:1 2966:1 3376:1 3438:1 3616:1 3847:1 4006:1 4369:1 4509:1 4966:1 6197:1 7351:2 7652:1 7657:1 7689:1 7808:1 7937:3 7985:1 8100:3 8101:2 8102:1 8103:1 8104:1 8105:1 8106:1 8107:1 8108:1 8109:1 8110:1 8111:1 8112:1 8113:1 8114:1 8115:1 8116:1 8117:1 8118:1 8119:1 8120:1 8121:1 8122:1 100002:1 100009:1 100043:1 #
-0.011964731304456145341563733097701 12:2 14:1 25:1 66:1 144:1 150:1 537:1 1376:1 3901:1 5093:1 7906:1 10597:1 10598:1 10599:1 100002:1 100043:1 #
-0.011964731304456145341563733097701 12:2 14:1 20:1 25:1 27:1 31:1 40:1 42:1 45:1 51:1 66:1 414:1 635:1 722:1 965:1 979:1 1256:1 1505:1 1578:1 2216:1 2710:1 2712:1 3193:1 3347:1 5320:1 10601:1 10670:1 10829:1 100002:1 100043:1 #
-0.011964731304456145341563733097701 4:3 16:1 20:1 27:1 31:1 40:1 51:1 69:1 757:1 1007:1 3504:1 3669:1 4436:1 7901:1 9945:1 11582:1 11616:1 11617:1 100002:1 100043:1 #
0.011964731304456145341563733097701 9:1 11:1 12:2 27:4 31:1 40:1 45:1 51:1 80:2 95:1 213:1 224:1 242:1 401:1 555:1 720:1 888:1 1782:1 2238:1 2407:1 3227:1 3251:1 3252:1 3253:1 3254:1 3255:1 3256:1 3257:1 3258:1 3259:1 100002:1 100010:1 #
-0.011964731304456145341563733097701 12:1 27:4 205:1 207:1 401:1 1057:1 1058:1 1420:1 1488:1 3475:1 4276:1 4587:1 4588:1 4589:1 4592:1 4594:1 4598:1 4601:1 4602:1 4907:1 5036:1 5037:1 5038:1 5039:1 5040:1 5041:1 100002:1 100043:1 #
-0.011964731304456145341563733097701 7:1 12:2 27:1 37:1 432:1 441:1 530:1 1047:1 1247:1 1555:1 2893:1 3849:1 6207:1 6363:1 7283:1 7284:1 7285:1 7286:1 100002:1 100042:1 100043:1 #
-0.0050814563894120545056720672505435 2:1 4:3 12:1 25:2 27:2 31:1 40:1 51:1 56:1 85:1 437:1 446:1 530:2 573:1 617:1 831:1 1168:2 1390:1 1391:1 1402:1 2506:1 2702:1 3158:1 3199:1 3434:1 3460:1 3777:1 4238:1 5582:1 7622:1 7623:1 7624:1 7625:1 7626:1 7627:1 7628:1 100002:1 100043:1 #
-0.011964731304456145341563733097701 4:1 7:1 12:1 14:1 27:2 56:1 112:1 441:1 629:1 962:1 965:1 1043:1 7613:1 9626:1 9944:1 9998:1 10055:1 10056:1 10057:1 10058:1 10059:1 100002:1 100043:1 #
0.011964731304456145341563733097701 2:1 4:1 12:1 14:1 27:1 66:1 85:2 90:1 91:1 93:1 325:1 570:1 645:1 906:1 1462:1 1931:1 2048:1 5521:1 5551:1 5552:1 5553:1 5554:1 100002:1 100009:1 100043:1 #
0.0096315579177114890585542639200867 4:1 12:1 14:2 20:1 27:3 85:1 90:1 91:1 93:1 133:1 212:1 514:1 635:1 653:1 965:1 1411:1 2000:2 3193:1 5308:1 5628:1 5701:1 5889:1 5890:1 5891:1 5892:1 5893:1 5894:1 5895:1 5896:1 5897:1 100002:1 100009:1 100043:1 #
0.011964731304456145341563733097701 4:1 9:1 11:1 12:3 14:2 19:1 20:1 51:1 56:1 66:1 90:1 91:1 93:1 112:2 124:1 317:1 409:1 415:1 441:1 514:1 535:1 536:1 605:1 649:1 1570:2 2636:1 3426:1 3920:2 6439:1 7629:1 12297:1 12315:1 12375:1 12376:1 12377:1 12378:1 12379:1 100002:1 100009:1 100043:1 #
0.011964731304456145341563733097701 12:4 27:2 343:1 1028:1 3022:1 3475:1 4856:1 6858:1 6862:1 100002:1 100009:1 100042:1 #
0.011964731304456145341563733097701 12:3 27:3 212:1 333:2 643:2 4889:1 5238:1 5239:1 5240:1 5241:1 100002:1 100010:1 100043:1 #
0.0091814472996190350101430865947805 4:1 7:1 9:1 11:1 12:4 20:1 25:1 27:4 85:1 105:3 263:1 469:1 1751:1 1910:1 2919:1 3471:1 3978:1 4113:1 6099:1 6114:1 6625:1 7502:1 8566:1 8672:1 8693:1 8694:1 8695:1 100002:1 100009:1 100043:1 #
-0.0022112194267696122160216098961882 2:2 4:1 12:2 20:1 27:2 51:1 112:1 401:1 1202:1 1420:1 1832:1 1945:1 4582:1 5235:1 6887:1 9316:2 9368:1 9618:1 9764:1 10267:1 100002:1 100043:1 #
-0.011964731304456145341563733097701 4:1 27:2 42:1 144:1 386:1 592:1 1042:1 1342:1 1719:1 7188:1 8355:1 8356:1 100002:1 100043:1 #
-0.011964731304456145341563733097701 2:1 4:1 12:1 14:2 27:2 37:1 45:1 56:1 112:1 150:1 528:1 2153:1 2803:1 2818:1 2819:1 2820:1 2821:1 2822:1 2823:1 2824:1 2825:1 100002:1 100043:1 #
-0.011964731304456145341563733097701 4:1 12:1 27:2 56:1 85:1 112:1 358:1 408:1 428:1 530:1 835:1 895:1 1005:1 2134:1 2585:2 3936:1 4178:1 7632:1 7929:1 7930:1 7931:1 7932:1 100002:1 100043:1 #
-0.011964731304456145341563733097701 12:2 27:1 133:1 635:1 6887:1 6888:1 10358:1 10359:1 100002:1 100043:1 #
-0.011964731304456145341563733097701 12:2 27:1 133:1 635:1 6887:1 6888:1 10436:1 10437:1 100002:1 100043:1 #
-0.011964731304456145341563733097701 4:3 7:2 12:1 25:1 27:3 42:1 199:1 570:1 1078:1 1857:1 2878:1 3424:1 4538:2 8565:1 8566:2 8575:1 100002:1 100043:1 #
-0.0016246715086415453900559047184515 4:1 9:1 11:1 56:1 737:1 1079:1 11603:1 11605:1 11606:1 11607:1 100002:1 100042:1 100043:1 #
0.011964731304456145341563733097701 12:1 27:1 643:1 4604:1 4605:1 5145:1 100002:1 100009:1 100010:1 100043:1 #
0.011964731304456145341563733097701 12:1 27:1 643:1 4604:1 4605:1 5237:1 100002:1 100009:1 100010:1 100043:1 #
-0.011964731304456145341563733097701 2:1 4:2 12:1 16:1 25:1 27:2 31:1 32:1 40:1 42:1 45:1 56:1 85:1 979:1 1078:1 1570:1 2707:1 2882:1 2913:1 3019:1 3020:1 3021:1 100002:1 100042:1 100043:1 #
-0.0050465844207662705761530119730196 4:2 12:1 14:2 27:2 31:1 37:2 40:1 56:1 66:2 112:2 138:1 142:1 167:1 287:1 319:1 414:1 432:1 569:1 584:1 629:1 979:1 2753:1 2865:1 3040:1 5330:1 5404:1 5439:1 5440:1 5441:1 5442:1 5443:1 5444:1 5445:1 5446:1 5447:1 5448:1 5449:1 5450:1 5451:1 5452:1 100002:1 #
0.011964731304456145341563733097701 12:1 27:1 203:1 643:1 1057:1 1058:1 4350:1 4592:1 4640:1 4675:1 4871:1 4872:1 4878:1 100002:1 100009:1 100010:1 100043:1 #
0.011964731304456145341563733097701 4:2 12:1 25:1 27:5 51:1 56:1 101:1 112:1 621:1 3202:1 5968:2 5969:1 5992:1 5993:1 5994:1 5995:1 5996:1 5997:1 100002:1 100009:1 100043:1 #
0.011964731304456145341563733097701 9:1 11:1 12:1 27:1 90:1 91:1 93:1 401:1 964:1 1040:1 1948:1 100002:1 100009:1 #
0.011096149107998016375420391455009 2:1 4:1 12:1 19:1 27:6 59:1 68:1 199:1 205:1 213:1 255:1 570:1 669:1 881:1 1650:1 2028:1 2029:1 5414:1 5435:1 5886:1 5887:1 5888:1 100002:1 100009:1 100043:1 #
-0.011964731304456145341563733097701 4:1 9:2 11:2 12:1 27:1 56:1 85:1 416:1 570:2 621:1 964:1 2626:1 2887:1 5996:1 6937:1 12144:1 12145:1 100002:1 100043:1 #
-0.011964731304456145341563733097701 4:1 12:1 16:1 25:1 27:1 32:1 112:1 1874:1 3824:1 4548:1 7687:1 7775:1 7776:1 100002:1 100042:1 100043:1 #
-0.011964731304456145341563733097701 12:2 14:1 25:1 42:1 112:1 144:1 323:1 409:1 1181:1 4490:1 6032:1 6202:1 8057:1 8194:1 8455:1 8456:1 8457:1 8458:1 8459:1 8460:1 100002:1 100043:1 #
-0.011964731304456145341563733097701 2:1 4:1 9:1 12:1 14:1 25:1 27:2 56:1 117:1 124:1 414:1 3008:1 4067:1 4074:1 4244:1 5555:1 5556:1 5557:1 5558:1 5559:1 5560:1 5561:1 5562:1 100002:1 100043:1 #
0.0048289373722990450513159466083835 2:1 4:2 7:3 9:1 12:5 14:2 16:1 19:1 20:1 25:2 27:7 32:1 37:1 51:1 56:2 59:1 85:2 90:1 91:1 93:1 111:1 112:4 120:1 133:1 144:2 292:1 437:1 629:2 635:1 643:1 839:2 849:1 1162:1 1226:1 1283:1 1394:1 1441:1 1832:1 2412:1 2945:1 2960:1 3003:1 3453:2 3708:1 3930:1 5267:1 6202:1 6414:1 6524:1 6887:1 6888:1 9138:1 9153:1 9154:1 9403:1 9560:2 9578:1 9580:2 9582:1 9611:1 9612:1 9628:1 9697:1 9743:1 9782:1 9798:1 9876:1 10170:2 10436:1 10437:1 10444:1 10445:1 10446:1 10447:1 10448:1 10449:1 10450:1 10451:1 10452:1 10453:1 10454:1 10455:1 10456:1 10457:1 10458:1 10459:1 100002:1 100009:1 100010:1 100043:1 #
0.0059833474965127250028151806304777 4:1 7:1 12:4 20:1 25:4 27:5 35:1 56:4 66:1 85:2 95:1 101:1 144:1 167:1 332:1 356:1 648:2 733:1 1000:1 1007:2 1420:2 1476:1 1908:2 1942:1 2218:1 2409:2 3375:1 3648:1 3901:1 5972:1 6975:1 7865:1 8183:1 9138:1 9196:1 9538:1 9539:1 9540:1 9541:1 100002:1 100009:1 100010:1 100043:1 #
0.0076489335580543918804985459303225 2:1 4:8 7:1 9:1 11:1 12:6 25:2 27:4 42:1 47:1 51:1 56:1 78:1 90:1 91:1 93:1 105:2 124:1 386:1 570:1 650:1 849:1 941:1 966:1 1017:1 1318:1 1420:1 2048:1 2682:1 3375:1 3471:1 3944:1 4025:1 4074:1 4226:1 5961:1 6642:1 8421:1 10716:1 11201:2 11202:2 11203:1 11204:2 11205:1 11206:1 11207:1 11208:1 11209:1 11210:1 100002:1 100009:1 100043:1 #
0.0048889479446297219242256737459229 1:1 2:1 4:5 7:1 12:3 13:1 14:1 17:1 19:1 25:1 27:9 31:1 40:1 72:2 75:1 85:1 112:3 144:2 161:1 167:1 393:1 414:1 428:1 438:1 530:1 570:1 907:1 1082:1 1086:1 1117:1 1220:1 1247:1 1318:1 2287:1 2435:1 3408:1 3606:1 3622:1 4006:1 4122:2 4218:1 6513:1 6636:1 7022:1 7648:1 7656:1 7673:1 7898:1 7899:1 7900:1 7901:1 7902:2 7903:2 7904:1 7905:1 7906:1 7907:1 7908:1 7909:1 7910:1 7911:1 7912:1 7913:1 7914:1 7915:1 100002:1 100009:1 #
0.0077904256943504487931129176558898 12:2 27:4 56:1 72:1 101:1 112:1 194:1 1356:1 1774:1 2439:1 2719:1 4886:1 6348:1 6778:1 7158:1 7159:1 7160:1 7161:1 100002:1 100009:1 100043:1 #
0.011837308628056226328384425983131 4:3 9:1 11:1 12:1 14:1 25:2 27:4 45:1 56:1 66:1 85:1 90:1 91:1 93:1 112:1 121:1 177:1 178:1 179:1 180:1 181:1 182:1 183:1 184:1 185:1 186:1 187:1 188:1 189:1 100002:1 100009:1 100043:1 #
-0.0013176121722904834358131020977112 2:1 4:3 9:4 11:2 12:3 13:1 14:6 19:1 25:4 27:9 28:1 32:1 42:1 56:1 59:1 72:1 75:1 85:2 112:3 195:1 245:1 345:1 459:1 550:1 569:1 629:1 721:1 753:1 906:1 1028:2 1171:1 1331:1 1393:1 1636:1 1788:1 3379:1 3531:1 6207:1 6569:1 6570:1 6571:1 6572:1 6573:1 6574:2 6575:1 6576:1 6577:1 6578:1 6579:1 6580:1 6581:1 6582:1 6583:1 6584:1 6585:1 6586:1 6587:1 6588:1 6589:1 6590:1 6591:1 100002:1 100043:1 #
0.011657196381070461521645142966008 12:3 27:1 333:1 401:1 643:1 4908:1 5131:1 100002:1 100009:1 100010:1 100043:1 #
0.010884606160201214936078528694452 2:1 12:1 27:4 65:1 105:2 262:1 414:1 554:1 555:1 556:1 638:1 1843:1 3979:1 5308:1 5702:1 5780:1 100002:1 100009:1 #
-0.0057285090808992522593001694986015 4:1 7:1 12:2 14:1 17:1 27:2 32:1 45:1 51:1 56:2 59:1 73:1 102:1 150:1 530:1 1258:2 2439:1 6351:1 8015:1 9323:1 10520:1 10521:1 10522:1 10523:1 10524:1 10525:1 100002:1 100042:1 100043:1 #
0.0056911042434706175796588212278948 2:1 12:1 27:1 90:1 91:1 93:1 505:1 1462:1 2865:1 9468:1 9469:1 100002:1 100009:1 100043:1 #
-0.011964731304456145341563733097701 4:1 12:1 25:1 27:1 144:1 437:1 1766:1 2865:1 5488:1 5784:1 5785:1 100002:1 100043:1 #
0.0033231818049961475702858137992735 7:1 9:1 12:4 25:1 27:6 42:1 45:1 59:1 85:1 94:1 144:2 212:1 224:1 249:1 427:1 477:1 534:1 570:2 635:1 691:1 824:1 949:1 1090:1 1168:1 1202:1 1472:1 1476:1 1655:1 1936:1 1962:1 2092:1 2771:1 2858:1 6687:1 6688:1 6689:1 6690:1 6691:1 6692:1 6693:1 6694:1 6695:1 6696:1 6697:1 6698:1 6699:1 100002:1 100009:1 100043:1 #
0.0080280297203508162173779538761664 4:2 12:2 25:2 27:4 31:1 36:1 40:1 51:1 72:1 99:1 112:2 144:1 150:1 611:1 643:1 3460:1 6507:1 8709:1 9130:1 9131:2 9132:2 9136:1 9403:1 9480:1 9481:1 9482:1 9483:1 9484:1 100002:1 100010:1 100043:1 #
0.0097980951951711515307552602394026 12:2 27:1 95:1 136:1 5043:1 100002:1 100009:1 100010:1 100042:1 100043:1 #
0.0044352017083697601457226156185243 12:2 27:1 95:1 136:1 2480:1 100002:1 100009:1 100010:1 100043:1 #
0.0048654975919099003114909329781312 12:2 27:1 95:1 136:1 4864:1 100002:1 100009:1 100010:1 100043:1 #
0.0038740915515639126782965195872066 12:2 27:1 95:1 136:1 4967:1 100002:1 100009:1 100010:1 100043:1 #
0.003869583525663123496629580699846 12:2 27:1 95:1 136:1 2369:1 100002:1 100009:1 100010:1 100043:1 #
-0.01045492453861721071639578894974 12:2 19:1 25:1 61:1 112:1 156:1 441:1 679:1 1350:2 1385:1 3450:1 3451:1 3452:1 3453:1 3454:1 3455:1 100002:1 100042:1 100043:1 #
-0.011964731304456145341563733097701 4:1 7:1 12:1 25:1 27:1 61:1 92:1 441:1 1059:1 1235:1 1534:1 1987:1 2878:1 4057:1 5899:1 5900:1 5901:1 100002:1 100042:1 100043:1 #
0.0043609065731484014660779280347924 12:2 27:1 95:1 136:1 5044:1 100002:1 100009:1 100010:1 100043:1 #
0.0038695835256640116750492808250783 12:2 27:1 95:1 136:1 5059:1 100002:1 100009:1 100010:1 100043:1 #
0.0043609065731483598327145045914222 12:2 27:1 95:1 136:1 5096:1 100002:1 100009:1 100010:1 100043:1 #
0.0018410881176884053012088315881556 12:1 27:2 56:1 95:1 401:1 1090:1 1660:1 1663:1 1906:1 1947:1 100002:1 100009:1 100010:1 100043:1 #
0.001841088117689404501930994229042 12:1 27:2 56:1 95:1 401:1 1090:1 1660:1 1663:1 1906:1 1990:1 100002:1 100009:1 100010:1 100043:1 #
0.0025666766766018994476439285534752 12:1 27:2 56:1 95:1 401:1 1090:1 1660:1 1663:1 1906:1 2073:1 100002:1 100009:1 100010:1 100043:1 #
-0.011964731304456145341563733097701 9:1 11:1 16:1 3533:1 5593:1 8799:1 11601:1 100002:1 100042:1 100043:1 #
-0.011964731304456145341563733097701 12:1 14:1 25:1 66:1 386:1 534:1 652:1 1987:1 5398:1 5399:1 5400:1 5401:1 100002:1 100041:1 100043:1 #
0.011964731304456145341563733097701 2:1 12:1 27:1 90:1 91:1 93:1 505:1 1462:1 1945:1 9468:1 9469:1 100002:1 100009:1 100043:1 #
-0.011964731304456145341563733097701 4:1 7:1 12:1 52:1 56:1 360:1 361:1 362:1 363:1 100002:1 100041:1 100042:1 100043:1 #
-0.0034097058354512392933099995673274 2:1 4:3 12:1 19:1 27:2 66:1 112:1 906:1 3054:1 8112:1 12235:1 12236:1 12237:1 12238:1 12239:1 12240:1 12241:1 12242:1 12243:1 100002:1 100042:1 100043:1 #
0.0039591133717088583532373036177887 1:1 2:1 4:1 7:1 9:1 11:1 12:2 27:7 66:2 101:1 144:1 374:1 484:1 550:1 629:1 906:1 907:1 908:1 909:2 910:2 911:1 912:1 913:1 914:1 915:1 916:1 917:1 918:1 100002:1 100009:1 #
-0.008871341418606286388648385354827 4:2 12:1 25:1 56:1 112:1 416:1 1156:1 1605:1 2410:1 4519:1 5996:1 8487:1 8488:1 100002:1 100041:1 100043:1 #
0.0043609065731483459549266967769654 12:2 27:1 95:1 136:1 7094:1 100002:1 100009:1 100010:1 100043:1 #
-0.0096990316373441673447608479818882 4:1 7:1 9:1 11:1 12:2 27:1 291:1 437:1 757:1 1202:1 1675:2 3769:1 5784:1 6019:1 11430:1 11431:1 11432:1 100002:1 100042:1 100043:1 #
0.0016994062641881031282958813832806 12:1 27:1 42:1 51:1 90:1 91:1 93:1 482:1 570:1 3193:1 3936:1 3937:1 4221:1 5457:1 10067:1 100002:1 100009:1 100043:1 #
-0.0014015372395419665660365460269077 2:3 4:2 7:1 12:1 14:1 16:2 17:3 27:8 31:1 37:1 40:1 44:1 51:1 56:2 77:2 150:1 153:1 428:2 521:1 530:2 835:1 894:1 1284:1 1320:1 1350:3 1460:2 1921:1 2346:1 2924:1 3771:1 4078:1 5863:1 6132:1 6142:1 6152:1 6156:1 6160:3 6166:1 6182:1 6183:1 6191:1 6524:1 6525:1 6526:1 6527:1 6528:1 6529:1 6530:1 6531:1 6532:1 6533:1 6534:1 6535:1 6536:1 6537:2 6538:1 6539:1 6540:1 6541:1 6542:1 6543:1 6544:1 6545:1 6546:2 6547:1 6548:1 6549:1 6550:1 6551:1 6552:1 6553:1 6554:1 6555:1 100002:1 100042:1 100043:1 #
0.0028873113117511596537045903687613 4:2 7:1 12:1 17:1 25:2 27:3 31:1 37:1 40:1 90:1 91:1 93:1 117:1 133:1 484:1 1046:1 1616:1 7472:1 7588:1 9138:1 9219:1 9457:1 9853:1 9875:1 9876:1 100002:1 100009:1 100043:1 #
-0.0042884199866503576806242570285121 2:1 4:2 12:2 17:1 25:2 27:4 45:1 47:1 56:1 75:2 85:1 142:1 167:1 530:1 921:1 1043:1 1212:1 1226:1 1321:1 1362:1 2355:1 2412:1 2425:1 4560:1 4810:1 6380:1 7172:1 7772:1 7871:1 7872:2 7873:1 7874:1 7875:1 7876:1 100002:1 100042:1 100043:1 #
-0.0037955061093904100648355193214911 4:1 9:1 12:1 13:2 17:3 27:3 31:1 32:1 37:1 40:1 45:1 51:1 56:1 144:1 153:1 346:2 757:1 878:1 912:1 1023:1 1057:1 1058:1 1250:1 1300:1 1460:2 2439:1 3378:1 4057:1 6207:1 6362:2 6943:1 8018:1 11155:1 11889:1 12022:1 12023:1 12024:1 12025:1 12026:1 12027:1 100002:1 100043:1 #
-0.0052829011695004514381768245812054 2:1 4:1 12:2 20:1 27:4 32:1 42:1 81:1 292:1 721:1 931:1 1242:1 1281:1 2526:1 3377:1 3460:1 4269:1 6887:1 9238:1 9618:1 9621:1 9622:1 9652:1 9906:1 10230:1 100002:1 100043:1 #
-0.0019717843070569127453262048277338 4:7 7:1 9:6 11:6 12:3 16:2 20:1 25:2 27:8 37:1 56:1 85:1 95:1 105:1 112:2 113:1 144:3 332:1 334:1 535:1 592:1 635:1 638:1 1124:1 1195:1 1250:2 1350:1 1955:1 2216:1 2586:1 2712:2 3014:1 3461:1 3471:3 4197:1 4508:1 4663:1 6710:1 7208:1 7245:1 7347:1 7929:1 8690:1 10636:2 10657:1 10658:1 10659:1 10660:1 10661:1 10662:1 10663:1 10664:1 10665:1 10666:1 10667:1 10668:1 10669:1 10670:1 10671:1 10672:1 100002:1 100043:1 #
-0.0079487901721515437369891543539779 2:1 4:1 7:1 12:1 45:1 501:1 502:1 503:1 504:1 505:1 506:1 100002:1 100041:1 100043:1 #
0.0041339766750999734634675064626208 2:1 4:1 12:1 27:6 57:1 144:1 408:1 409:1 592:1 617:1 635:2 1057:1 1058:1 3948:1 5308:1 5613:1 5614:1 5615:1 5616:1 5617:1 5618:1 5619:1 5620:1 100002:1 100009:1 100043:1 #
0.0024076061517157645863740356162452 12:1 27:4 51:1 203:1 205:1 208:1 224:2 255:1 472:1 669:1 1766:1 2566:1 4658:1 5648:1 5649:1 5650:1 5651:1 5652:1 5653:1 5654:1 5655:1 5656:1 5657:1 100002:1 100009:1 100043:1 #
-0.0035344674735016609612436866427743 2:1 4:2 12:2 14:1 25:1 27:1 42:1 47:1 66:1 85:1 325:1 469:1 530:1 933:1 1001:1 1235:1 2693:1 2919:1 2957:1 3061:1 6332:1 6753:1 8448:1 8451:1 8452:1 8453:1 100002:1 100043:1 #
-0.0030308739385304073708782279794605 2:1 4:2 9:1 11:1 12:1 25:1 27:2 33:1 51:1 85:1 111:1 144:1 293:1 346:1 894:1 1318:1 1322:1 1366:1 4046:1 4272:1 4581:1 8619:1 10800:1 10801:1 10802:1 10803:1 10804:1 10805:1 100002:1 100042:1 100043:1 #
0.00043585413533902438902936649078868 2:6 4:7 7:2 12:7 14:1 16:1 20:1 25:9 27:10 32:4 37:1 42:4 51:5 56:4 66:1 81:1 85:5 86:1 90:3 91:3 93:3 95:1 101:1 112:2 113:2 117:1 144:3 150:1 317:1 352:2 393:1 482:3 521:1 530:1 724:1 895:1 979:1 1017:1 1074:1 1174:1 1258:1 1269:1 1281:1 1287:1 1320:1 1350:1 1362:1 1420:1 1562:1 1988:1 2197:2 2409:1 2410:1 2417:1 2526:2 2685:1 3007:1 3375:1 3377:1 3378:1 3816:1 3851:1 4580:1 5028:2 5483:1 6028:1 6844:1 6887:1 7208:1 7332:1 7552:1 7894:1 9076:1 9138:4 9153:1 9191:1 9363:1 9396:1 9457:3 9458:2 9580:1 9584:1 9586:1 9609:1 9618:1 9653:1 9768:1 9814:1 10016:1 10297:1 10381:3 10382:1 10383:1 10384:1 10385:1 10386:1 10387:1 10388:1 10389:1 10390:1 10391:1 10392:1 10393:1 100002:1 100009:1 100010:1 100043:1 #
-0.0043517942471225602371620588826318 4:1 10:1 12:1 20:1 27:1 42:1 56:1 2324:1 3375:1 3463:1 4365:1 7904:1 11255:1 11257:1 11258:1 11259:1 11260:1 11261:1 11262:1 11263:1 100002:1 100043:1 #
-0.0033309001432815085394500975723986 2:1 12:1 14:1 25:1 42:1 56:1 102:1 144:1 1256:1 1378:1 1503:1 5521:1 5854:1 5855:1 5856:1 5857:1 5858:1 100002:1 100041:1 100042:1 100043:1 #
-0.0035147463643057006398018327075761 4:1 7:1 12:1 27:1 56:1 85:1 144:1 629:1 1181:1 1226:1 3500:1 6028:1 8827:1 9584:1 10001:1 10069:1 10070:1 10071:1 100002:1 100042:1 100043:1 #
0.0032347727337702866269586454706086 9:3 11:2 12:3 27:5 51:1 205:1 219:1 333:1 482:1 643:1 698:1 1057:1 1058:1 1420:1 4595:1 4607:1 4669:1 4718:1 5079:1 5080:1 5081:1 5082:1 5083:1 5084:1 5085:1 5086:1 100002:1 100010:1 100043:1 #
0.0034321313184642052510064935688661 4:1 12:5 27:4 31:1 40:1 51:1 56:1 78:1 85:1 172:1 208:1 441:1 550:1 2775:1 3532:1 4202:1 4322:1 7097:1 8467:1 8474:1 8496:1 8497:1 8498:1 8499:1 8500:1 8501:1 100002:1 100042:1 100043:1 #
0.0040818694618417802194576537999637 4:3 7:2 9:1 11:1 12:2 25:3 27:4 56:1 90:1 91:1 93:1 592:1 959:1 2000:1 2271:1 9138:2 9219:1 9261:1 9849:1 10196:1 10197:1 10198:1 10199:1 10200:1 10201:1 10202:1 100002:1 100009:1 100043:1 #
0.0015441816074508903089412825693216 7:1 12:1 25:1 27:5 56:1 101:1 112:1 325:1 402:1 409:1 1048:1 2779:1 5603:2 5604:1 5605:1 5606:1 100002:1 100009:1 100043:1 #
0.00040183325118040079219905447160954 4:2 9:1 11:1 12:4 14:1 16:1 25:1 27:2 28:1 31:1 37:1 40:1 51:1 56:2 85:1 90:1 91:1 93:1 135:1 167:1 401:1 441:1 621:1 831:1 894:1 931:1 1057:1 1058:1 1235:1 1258:1 1362:1 1414:1 1535:1 1717:1 2432:1 3535:1 3830:1 4349:1 6322:2 7397:1 8449:1 10375:3 11699:1 11700:1 11701:1 11702:1 11703:1 100002:1 100009:1 100043:1 #
