SVM-light Version V6.02
0 # kernel type
3 # kernel parameter -d 
1 # kernel parameter -g 
1 # kernel parameter -s 
1 # kernel parameter -r 
empty# kernel parameter -u 
100021 # highest feature index 
1377 # number of training documents 
474 # number of support vectors plus 1 
0.65172275 # threshold b, each following line is a SV (starting with alpha*y)
-0.01161680583016772190518839380502 1:1 2:1 3:1 4:1 5:1 6:1 7:3 8:1 9:1 10:1 11:1 12:1 13:1 100007:1 100008:1 100010:1 #
-0.01161680583016772190518839380502 7:3 8:1 13:3 65:1 75:1 112:1 113:1 375:1 768:1 787:1 832:1 1043:1 1050:1 6908:1 6909:1 6910:1 100008:1 100021:1 #
-0.01161680583016772190518839380502 7:4 13:2 50:1 121:1 122:1 123:1 124:1 125:1 126:1 127:1 128:1 100008:1 #
-0.01161680583016772190518839380502 13:1 46:1 356:1 100008:1 100017:1 100019:1 100020:1 100021:1 #
-0.0048804192721890495010317323476556 7:2 13:1 29:2 43:1 75:2 100:1 103:1 234:1 397:1 398:3 399:3 400:1 401:1 402:1 403:1 100008:1 100020:1 100021:1 #
0.0029681045831510166795041971710134 7:4 13:1 14:1 15:1 16:1 17:1 18:1 19:1 20:1 21:1 22:1 23:1 24:1 100007:1 100008:1 100021:1 #
0.01161680583016772190518839380502 7:4 13:1 37:1 39:1 65:1 75:1 364:1 1790:1 2004:1 4380:1 4381:1 4382:1 4383:1 4384:1 4385:1 100007:1 100008:1 100021:1 #
0.0024794030282961525626928001031501 7:5 13:1 18:2 42:1 43:1 44:1 45:1 46:1 47:1 48:1 49:1 50:1 51:1 52:1 53:1 54:1 55:1 56:2 57:2 58:1 59:1 60:1 61:1 62:1 63:1 64:1 100007:1 100008:1 #
0.01161680583016772190518839380502 7:1 13:1 65:1 66:1 67:1 68:1 69:1 70:1 100007:1 100008:1 100021:1 #
0.01161680583016772190518839380502 7:2 10:1 13:1 39:1 75:1 1341:1 1610:1 3107:1 3131:1 3140:1 8620:1 100007:1 100008:1 100010:1 100021:1 #
-0.01161680583016772190518839380502 7:15 13:1 28:1 29:1 32:1 34:1 75:2 90:1 100:1 687:1 690:1 762:2 765:1 971:1 3760:1 4234:1 5109:1 5342:1 5343:1 5344:1 5345:1 5346:1 5347:1 5348:1 5349:1 5352:1 5353:1 5354:1 5358:1 5359:1 5360:1 5361:1 5362:1 6473:1 8917:1 9371:1 9372:1 9373:1 9374:1 9375:1 9376:1 9377:1 9378:1 9379:1 9380:1 9381:1 9382:1 100008:1 100021:1 #
-0.0096926577834538403533048978033548 7:14 13:2 28:1 32:5 34:5 39:1 43:1 75:2 90:1 91:1 93:1 94:1 107:1 220:5 522:1 523:1 652:1 762:1 971:1 2023:5 3760:2 5342:1 5343:1 5344:1 5345:1 5346:1 5347:1 5348:1 5349:1 5350:1 5351:1 5352:1 5353:1 5354:1 5355:1 5356:1 5357:1 5358:1 5359:1 5360:1 5361:1 5362:1 5363:1 5364:1 5365:1 5366:1 5367:1 5368:1 5369:1 5370:1 5371:1 5372:1 5373:1 5374:1 100008:1 100021:1 #
-0.01161680583016772190518839380502 13:2 65:1 172:1 186:1 799:1 2168:1 2415:1 3867:1 4820:1 5027:1 5028:1 100008:1 100020:1 100021:1 #
-0.01161680583016772190518839380502 7:11 10:1 13:3 28:1 29:1 32:1 34:1 37:2 39:1 65:2 75:1 94:1 97:2 98:1 100:1 172:2 186:2 205:1 364:1 497:1 571:1 633:1 666:1 720:1 721:1 837:2 1314:1 2334:1 2534:1 2919:1 3059:1 3222:1 3806:3 4490:1 5184:1 5185:1 5186:1 5187:1 5188:1 5189:3 5190:1 5191:1 5192:1 5193:1 5194:1 5195:1 5196:1 5197:1 5198:1 100007:1 100008:1 100010:1 100014:1 100021:1 #
0.01161680583016772190518839380502 2:1 13:3 28:1 32:1 34:1 41:1 75:1 94:2 97:1 103:2 231:1 367:1 375:1 503:1 518:1 604:1 666:1 855:1 1339:1 1379:1 2034:1 2427:2 2444:2 2458:1 3170:1 6323:1 8914:1 8915:1 8916:1 8917:1 8918:1 8919:1 8920:1 8921:1 100007:1 100008:1 100021:1 #
0.0071919324376450806043936658795701 7:6 10:1 12:1 13:15 28:3 29:1 32:2 34:4 42:2 65:3 75:7 90:4 91:1 94:2 97:1 98:2 100:5 103:1 107:5 143:4 146:4 172:1 186:1 227:1 307:9 315:2 323:1 375:2 407:1 411:1 448:1 481:1 492:1 518:1 519:3 537:1 544:1 548:2 604:1 667:1 668:1 744:1 755:1 762:2 780:1 835:3 981:1 1066:1 1105:1 1246:1 1253:1 1379:1 1484:1 1494:1 1582:1 1738:5 1893:2 2052:1 2106:3 2119:1 2166:1 2299:1 2316:1 2394:2 2410:1 2817:1 2834:1 2841:1 2853:1 3385:1 3651:1 3971:1 3972:1 4072:1 4132:1 4414:1 5285:1 5839:3 6171:1 6277:1 6717:1 7448:1 7451:1 9565:1 10075:1 10899:1 10900:1 10901:1 10902:1 10903:1 10904:1 10905:1 10906:1 10907:1 10908:1 10909:1 10910:1 10911:1 10912:1 10913:1 10914:1 10915:1 10916:1 10917:1 10918:1 10919:1 10920:1 10921:1 10922:1 10923:1 10924:1 10925:1 10926:1 10927:1 10928:1 10929:1 10930:1 10931:1 10932:1 10933:1 10934:1 10935:1 10936:1 10937:1 10938:1 10939:1 10940:1 10941:2 10942:1 10943:1 10944:1 100007:1 100008:1 100010:1 100014:1 100021:1 #
0.01161680583016772190518839380502 7:1 13:3 32:2 34:2 39:1 43:1 65:1 70:1 75:4 97:1 98:1 103:1 209:1 323:1 327:1 365:1 366:1 375:1 551:1 940:1 941:1 952:1 1041:1 2533:1 4416:1 4928:1 7973:1 8934:1 8939:1 9105:1 9106:1 9107:1 9108:1 9109:1 9110:1 9111:1 9112:1 100007:1 100008:1 100021:1 #
0.01161680583016772190518839380502 2:1 7:1 13:2 29:3 32:1 34:1 46:1 75:3 84:1 172:1 186:1 375:1 920:1 932:1 935:1 1246:1 1294:1 1904:1 2521:1 2583:1 3781:1 4508:1 5428:1 100008:1 100021:1 #
0.01161680583016772190518839380502 3:1 7:4 13:3 28:1 29:2 32:1 34:1 46:1 65:1 75:8 97:1 98:1 100:1 169:2 211:1 248:1 299:1 300:1 484:1 503:1 721:1 788:1 940:1 941:1 984:1 2303:1 2456:1 2533:1 3253:1 3358:1 3361:1 4928:1 5442:1 6442:1 7839:1 8513:2 8514:2 8515:1 8516:2 8517:1 8518:1 8519:1 8520:1 8521:1 8522:1 8523:1 100007:1 100008:1 100012:1 #
-0.01161680583016772190518839380502 5:2 13:4 16:1 32:2 34:1 60:3 143:6 146:6 195:2 504:1 1403:1 1427:1 1474:1 1485:1 3432:2 3971:1 3972:1 4128:1 5661:1 5878:1 8262:1 8801:1 10810:2 10811:1 10812:1 10813:1 10814:1 10815:1 100007:1 100008:1 100020:1 100021:1 #
-0.01161680583016772190518839380502 13:2 16:2 18:1 32:1 34:1 53:2 165:1 640:1 821:1 912:1 1063:2 1208:1 1398:1 1531:1 1532:1 1533:2 1534:1 1535:1 1536:1 1537:1 1538:1 1539:1 1540:1 100008:1 100021:1 #
-0.01161680583016772190518839380502 13:1 32:1 34:1 65:1 75:1 100:1 2470:1 2474:1 3260:1 3582:1 5827:1 5828:1 100007:1 100008:1 100012:1 #
0.01161680583016772190518839380502 7:4 13:2 29:2 75:2 94:2 97:1 137:1 152:1 172:1 186:1 323:1 448:1 544:1 807:2 989:1 1970:1 3385:1 4080:1 5879:1 5880:1 5881:2 5885:1 7512:1 9779:1 9780:1 9781:1 9782:1 9783:1 100008:1 100010:1 100014:1 100021:1 #
0.0098096464104171360309791793952172 7:11 13:6 28:2 29:2 39:1 65:2 75:5 90:2 91:2 92:2 94:3 97:3 98:1 100:4 103:7 112:1 113:1 119:2 125:1 220:1 299:4 304:1 323:1 375:1 434:1 520:1 774:1 787:1 792:1 831:1 832:1 833:1 859:1 897:1 1055:1 1157:1 1341:1 1563:1 1610:1 2392:1 2941:1 3014:1 3099:1 3140:1 3555:1 3606:1 3655:1 3708:1 3709:1 3710:1 4314:2 6029:1 6030:1 6031:1 6032:1 6033:1 6034:1 6035:1 6036:1 6037:1 6038:1 6039:1 6040:1 6041:1 6042:1 6043:1 6044:1 100007:1 100008:1 100021:1 #
0.002246608672377512806728194760808 2:1 7:13 13:5 17:1 24:3 28:4 29:9 32:4 34:3 39:3 43:4 44:2 48:1 60:1 65:2 75:3 94:3 100:6 103:1 107:1 172:1 179:1 186:1 197:1 231:1 272:1 300:2 313:1 323:2 364:1 407:2 411:2 434:1 475:1 503:1 518:1 604:1 673:1 746:1 778:3 787:1 788:1 1007:1 1043:5 1063:1 1216:1 1339:3 1501:2 1570:2 1691:1 1862:1 1863:1 1864:1 1865:1 1866:1 1867:1 1868:1 1869:2 1870:2 1871:2 1872:3 1873:1 1874:1 1875:1 1876:1 1877:1 1878:1 1879:1 1880:1 1881:1 1882:1 1883:1 1884:1 1885:1 1886:2 1887:1 1888:1 1889:1 1890:1 1891:1 1892:1 1893:1 1894:1 1895:1 1896:1 1897:1 1898:1 1899:1 1900:1 1901:1 1902:1 1903:1 1904:1 1905:1 1906:1 1907:1 1908:1 1909:1 1910:1 1911:1 1912:1 1913:1 1914:1 1915:2 1916:2 1917:1 1918:1 1919:1 1920:1 1921:1 1922:1 1923:1 100007:1 100008:1 #
-0.01161680583016772190518839380502 7:3 13:1 32:1 34:1 304:1 407:1 411:1 786:1 1143:1 1459:1 4563:1 4564:1 4565:1 4566:2 4567:1 4568:1 4569:1 4570:1 4571:1 4572:1 4573:2 4574:1 4575:1 4576:1 4577:1 4578:1 4579:1 4580:1 4581:1 4582:1 4583:2 4584:1 4585:1 4586:1 4587:1 4588:1 4589:1 4590:1 4591:1 4592:1 4593:1 4594:1 4595:1 4596:1 4597:1 100008:1 100021:1 #
0.007330278685393569991501916405241 7:4 13:1 29:1 75:1 100:1 866:1 1110:1 1292:2 2679:1 6126:1 9813:1 10697:1 10698:1 100007:1 100008:1 100021:1 #
-0.0071828117448214899576353076326996 2:2 7:8 13:5 28:7 29:9 32:4 34:4 39:2 46:1 65:3 69:1 75:5 94:3 97:1 98:1 100:4 103:1 107:1 118:2 137:1 169:1 172:3 186:3 215:1 299:1 304:1 313:1 323:1 336:1 364:1 375:1 434:1 503:2 519:1 520:2 521:1 522:2 561:1 584:1 655:1 766:1 790:1 818:1 1024:2 1158:1 1222:1 1230:1 1294:3 1445:2 1612:1 2018:1 2303:1 2427:2 2428:1 2429:1 2430:1 2431:1 2432:1 2433:1 2434:1 2435:1 2436:1 2437:1 2438:1 2439:1 2440:1 2441:1 2442:1 2443:1 2444:1 2445:1 2446:3 2447:1 2448:1 2449:1 2450:1 2451:1 2452:1 2453:1 2454:1 2455:1 2456:1 2457:1 2458:1 2459:1 2460:1 2461:1 2462:1 2463:1 2464:1 2465:1 2466:1 2467:1 2468:1 2469:1 2470:1 2471:1 2472:1 2473:1 2474:1 2475:1 2476:1 2477:1 100007:1 100008:1 #
0.01161680583016772190518839380502 7:2 10:1 13:1 220:1 268:1 3283:1 3958:1 4645:1 4646:1 100008:1 100010:1 100021:1 #
0.01161680583016772190518839380502 13:1 39:3 41:1 103:1 244:1 298:1 699:1 775:1 3259:1 5019:1 8853:1 8854:1 100008:1 100014:1 100019:1 100021:1 #
0.01161680583016772190518839380502 7:2 13:1 152:1 1044:1 1221:1 1222:1 1824:1 8125:1 100008:1 100010:1 100014:1 100021:1 #
-0.01161680583016772190518839380502 13:2 299:1 504:1 774:1 1398:1 1399:1 1474:1 5872:1 5873:2 5874:1 5875:1 5876:1 5877:1 5878:1 100007:1 100008:1 100021:1 #
0.0023011244879633293430876150864606 7:5 13:3 28:2 29:2 39:2 42:2 65:2 68:1 75:2 97:1 103:1 152:1 172:1 186:1 313:1 323:2 375:1 695:1 768:1 873:1 979:1 1014:1 1072:1 1157:1 1341:1 1416:1 1501:1 1610:1 2899:1 3132:1 3140:1 3574:1 3655:1 3660:1 3745:1 3915:1 4132:1 4263:1 4394:1 5282:1 5283:1 5284:1 5285:1 5286:1 5287:1 5288:1 5289:1 5290:1 5291:1 100007:1 100008:1 100010:1 100014:1 100021:1 #
-0.01161680583016772190518839380502 7:3 13:3 39:1 65:1 69:1 94:1 112:1 113:1 114:1 116:1 220:1 299:1 375:1 778:1 1043:1 1610:1 2383:1 3502:1 6239:1 8416:1 100008:1 100021:1 #
-0.0075836002708239121442024277541805 7:1 13:1 28:1 29:3 30:1 65:1 75:1 313:1 448:1 616:1 696:1 721:1 835:1 1501:1 2534:1 2770:1 3385:1 3885:1 5033:1 7670:1 9793:1 10968:1 10969:1 10970:1 10971:1 10972:1 10973:1 10974:1 10975:1 100008:1 100020:1 100021:1 #
-0.01161680583016772190518839380502 5:1 7:7 10:1 13:5 16:6 18:5 32:4 34:4 71:1 97:2 143:1 146:1 215:2 218:1 381:2 407:2 411:2 592:1 912:1 925:2 961:1 1063:1 1143:1 1469:1 1516:1 1757:1 1854:2 1855:2 3720:1 4145:1 4161:2 4609:1 4787:1 4884:1 5217:1 5304:2 5305:2 5311:1 5317:1 5971:1 5988:1 6567:1 6952:1 6953:1 6971:1 7591:2 8822:1 11128:1 11129:1 11130:1 11131:1 11132:1 11133:1 11134:1 11135:1 11136:1 11137:1 11138:1 11139:3 11140:2 11141:1 11142:1 11143:1 11144:1 100007:1 100008:1 100010:1 #
0.01161680583016772190518839380502 7:1 13:4 28:2 32:4 34:4 39:1 71:2 75:1 94:5 97:2 327:1 539:1 686:1 702:2 1028:1 1041:1 1304:2 2316:1 3214:2 4051:2 4416:1 4552:1 8079:1 9785:2 9786:1 9787:2 9788:1 9789:1 9790:1 100008:1 #
0.01161680583016772190518839380502 13:1 1141:1 100007:1 100008:1 100019:1 100020:1 100021:1 #
-0.01161680583016772190518839380502 13:1 29:1 46:1 75:1 3689:1 4873:1 4874:1 4875:1 100007:1 100008:1 100019:1 100020:1 100021:1 #
0.01161680583016772190518839380502 5:1 7:3 13:3 28:1 32:1 34:1 97:2 107:1 143:1 146:1 172:1 186:1 512:1 1441:1 1442:1 3760:1 4927:1 6245:1 6246:1 6247:1 6248:1 6249:1 6250:1 6251:1 6252:1 100008:1 100021:1 #
-0.01161680583016772190518839380502 7:1 13:1 28:1 32:2 34:2 39:1 46:2 75:1 167:1 345:1 452:1 512:1 526:1 1612:1 4922:1 4923:1 4924:1 100008:1 100014:1 100021:1 #
-0.01161680583016772190518839380502 7:9 10:1 13:2 28:1 29:2 32:6 34:6 39:1 42:2 75:7 94:2 100:1 200:1 222:1 262:1 307:2 323:3 362:2 375:1 391:1 517:1 584:1 725:1 769:1 790:1 1033:1 2034:1 2191:1 2199:1 2489:1 2779:1 3222:2 3405:1 3459:1 3752:1 4714:1 4873:1 4928:3 4993:1 5200:1 6147:1 6703:1 7245:1 10114:1 10597:1 10598:1 10599:1 10600:1 10601:1 10602:1 10603:1 10604:1 10605:1 10606:1 10607:1 10608:1 10609:1 10610:1 10611:1 10612:1 100008:1 100010:1 100014:1 #
0.0068304363578337986759314581775016 7:4 13:1 28:1 29:1 48:1 75:2 788:1 1806:1 2000:1 2001:1 2002:1 2003:1 2004:1 100007:1 100008:1 100012:1 #
-0.01161680583016772190518839380502 7:14 13:4 28:1 29:4 32:4 34:4 39:2 65:1 75:3 90:1 93:1 94:3 98:1 103:6 107:1 119:2 231:1 315:1 395:2 496:1 544:1 591:1 765:1 786:1 856:1 961:1 1143:1 1246:1 1303:1 1452:1 1501:1 1597:1 1869:1 1991:1 2009:1 2168:1 2577:1 2923:1 3311:1 3730:1 4072:1 4169:1 4419:1 4425:1 5276:1 9455:1 9456:1 9457:1 9458:1 9459:1 9460:2 9461:1 9462:1 9463:1 9464:1 9465:1 9466:1 9467:1 9468:1 9469:1 100007:1 100008:1 100014:1 100021:1 #
-0.01161680583016772190518839380502 7:3 13:2 28:1 29:1 65:1 75:1 231:1 315:1 327:1 544:1 746:1 1125:1 1582:1 2234:1 4289:1 4492:1 5820:1 6321:1 6911:1 9216:1 10658:1 10659:1 10660:1 10661:1 10662:1 10663:1 10664:1 10665:1 100008:1 100020:1 100021:1 #
0.01161680583016772190518839380502 7:1 13:1 512:1 1318:1 2316:1 2478:1 2479:1 100007:1 100008:1 100021:1 #
0.0095739262282389381297775798884686 2:1 7:5 13:5 29:2 42:5 65:3 75:2 94:4 97:1 100:7 103:1 107:1 172:1 186:1 304:1 313:2 323:1 387:1 448:1 544:1 573:1 683:1 695:1 769:1 777:1 796:1 966:1 1328:5 1435:1 1508:1 1548:1 1862:2 1924:1 2034:1 2068:1 2330:1 2363:1 2821:1 2831:1 3014:1 3356:1 3843:1 4081:1 5492:1 5835:1 5836:1 5837:2 5838:1 5839:1 5840:1 5841:1 5842:2 5843:1 5844:1 5845:1 5846:1 5847:1 5848:1 5849:1 5850:1 5851:1 5852:1 5853:1 5854:1 5855:1 5856:1 5857:1 100007:1 100008:1 100021:1 #
0.01161680583016772190518839380502 7:3 13:2 28:1 29:2 32:1 34:1 42:2 65:2 75:5 90:1 97:1 100:3 103:1 107:1 172:2 186:2 231:1 292:2 323:1 367:1 407:1 411:1 486:1 518:1 604:1 616:1 666:1 721:1 754:1 788:2 799:1 818:1 917:1 952:1 1019:1 1174:1 1379:1 1587:2 1959:1 2050:1 2108:1 2111:1 2130:1 2145:1 2147:1 2148:1 2332:1 2432:1 3742:1 3853:1 3911:2 4328:2 4517:1 6736:1 7089:1 7090:2 7091:1 7092:1 7093:1 7094:1 7095:1 7096:1 7097:1 7098:1 7099:1 100007:1 100008:1 100021:1 #
-0.01161680583016772190518839380502 7:1 13:1 16:2 18:1 60:1 65:1 97:2 247:1 503:1 2419:1 2420:1 2421:1 2444:1 2603:1 5410:1 8602:1 8603:1 8604:1 100007:1 100008:1 100020:1 #
-0.0036107979483305826899630641690919 7:8 13:2 28:1 29:7 42:3 43:1 75:8 90:1 93:1 94:3 97:2 98:1 100:1 103:2 107:1 179:1 332:2 364:1 375:1 518:1 544:1 573:1 721:1 918:1 971:1 981:1 1043:1 1107:1 1333:2 1339:2 1785:1 1875:1 1893:1 2108:1 2119:1 2430:1 2519:1 2975:2 3047:1 3137:1 3549:1 3607:1 3665:2 4015:1 4696:1 4730:1 5147:2 5156:1 5285:1 5293:1 6585:1 7146:1 7743:1 9154:1 9174:1 10118:1 10666:1 10667:2 10668:1 10669:1 10670:1 10671:1 10672:1 10673:1 10674:1 10675:1 10676:1 10677:1 10678:1 10679:1 10680:1 10681:1 10682:1 10683:1 100008:1 100020:1 100021:1 #
-0.010908058603922710441680443693713 13:2 65:2 231:1 5069:1 6137:2 6138:1 100008:1 100020:1 100021:1 #
-0.01161680583016772190518839380502 7:9 13:4 18:1 28:1 29:5 32:1 34:1 42:1 60:1 65:1 75:2 98:1 100:2 105:1 152:1 161:1 172:4 186:4 231:1 279:1 283:1 315:1 323:2 336:1 375:1 448:1 486:1 544:1 755:1 801:1 926:1 966:1 1407:1 1469:1 1890:1 1926:1 2155:1 2827:1 3221:1 3322:1 3941:1 5168:1 5239:4 5437:1 5438:1 6962:1 7322:2 7343:1 8020:1 8021:1 8022:1 8023:1 8024:1 8025:1 8026:1 8027:1 8028:1 8029:1 8030:1 8031:1 8032:1 8033:1 8034:1 8035:1 8036:1 8037:1 8038:1 100007:1 100008:1 100010:1 100014:1 100021:1 #
-0.01161680583016772190518839380502 7:3 13:2 29:2 39:2 98:1 172:1 186:1 307:1 313:1 315:1 571:1 579:1 922:1 1066:1 1379:2 1501:1 2350:1 2768:1 2961:1 5425:1 6616:1 7507:1 7508:1 7509:1 7510:1 7511:1 100008:1 100020:1 100021:1 #
0.00082118684720386631373245656106974 7:5 13:1 24:1 29:1 37:1 50:1 73:1 75:1 118:1 172:1 186:1 231:1 364:1 872:1 1275:1 1276:1 2279:1 3813:1 4351:1 4352:1 4353:1 4354:1 100007:1 100008:1 #
0.0054056481515282099950536753851793 7:5 13:3 18:1 32:3 34:3 97:1 105:1 152:1 185:1 299:1 304:1 407:1 411:1 969:1 1674:1 1795:1 1856:1 1913:1 2886:1 6370:1 6801:1 6802:1 6803:1 6804:1 6805:1 6806:1 100008:1 100010:1 100021:1 #
-0.011403228926315130131730057883033 13:3 28:1 29:2 32:1 34:1 39:2 46:1 75:1 94:1 97:1 118:2 323:1 579:1 612:1 640:1 684:1 911:1 1230:1 1294:1 1499:1 2205:1 2582:1 3923:1 4916:1 4917:1 4918:1 4919:1 4920:1 4921:1 100008:1 100017:1 100021:1 #
0.01161680583016772190518839380502 7:1 13:1 28:3 29:1 32:1 34:1 75:1 94:1 97:1 98:1 152:1 200:1 520:1 1783:1 2876:1 3709:1 3904:1 3905:1 3906:1 3907:1 3908:1 3909:1 100007:1 100008:1 100010:1 100014:1 #
0.010727613938168286539243112542863 2:2 7:15 13:4 28:2 29:8 32:1 34:6 39:4 43:5 54:1 65:1 75:13 94:3 97:2 98:2 100:3 103:2 143:2 146:2 152:1 173:1 204:1 231:4 313:2 315:2 364:2 375:2 376:1 517:1 544:2 548:2 571:1 590:1 666:1 721:1 746:1 780:2 785:1 788:2 996:1 1324:1 1339:2 1501:1 1807:1 1962:1 2036:1 2043:1 2106:1 2299:1 2307:1 2826:1 3464:1 3797:1 4019:3 4031:1 4209:1 4862:1 4896:1 5086:1 5147:1 5448:1 5659:2 5820:1 6032:1 6328:1 6404:1 6414:2 6660:2 6887:1 7489:1 7540:1 7656:1 7657:1 7658:1 7659:2 7660:1 7661:1 7662:1 7663:1 7664:1 7665:1 7666:1 7667:1 7668:3 7669:2 7670:1 7671:1 7672:1 7673:1 7674:1 7675:1 7676:1 7677:1 7678:1 7679:1 7680:1 7681:1 7682:1 7683:1 7684:3 7685:3 7686:1 7687:1 7688:1 7689:1 7690:1 7691:1 7692:1 7693:1 7694:1 100007:1 100008:1 100010:1 100014:1 100021:1 #
0.01161680583016772190518839380502 13:1 5169:1 100007:1 100008:1 100019:1 100020:1 100021:1 #
-0.01161680583016772190518839380502 7:3 13:1 29:1 46:1 70:1 75:3 98:1 100:2 1504:1 2430:2 2754:1 3781:1 4290:1 4421:1 4422:2 4432:1 100007:1 100008:1 100021:1 #
-0.01161680583016772190518839380502 7:6 13:4 48:1 50:1 75:1 283:1 407:1 411:1 1353:1 1354:1 1355:1 1356:1 1357:1 1358:1 1359:1 1360:1 1361:1 1362:1 1363:1 1364:1 1365:1 1366:1 1367:1 1368:1 1369:1 1370:1 1371:1 1372:1 1373:1 1374:1 1375:1 100007:1 100008:1 100020:1 #
-0.01161680583016772190518839380502 7:2 13:1 28:1 39:1 43:1 75:1 94:1 434:1 548:1 682:2 696:1 1283:1 1854:1 2832:1 3119:1 3439:1 3858:1 4132:1 6702:1 6703:1 6704:1 6705:1 100008:1 100021:1 #
-0.01161680583016772190518839380502 7:2 39:1 65:1 75:1 97:1 214:1 323:1 459:1 560:1 778:1 779:1 912:1 1316:1 2205:1 3725:1 3726:1 3727:1 100008:1 100014:1 100021:1 #
0.001470566815238898714449100602053 2:1 7:14 10:1 13:2 28:4 29:4 32:2 34:2 65:1 75:6 79:1 94:4 103:3 107:1 172:1 186:1 222:2 231:1 313:1 323:2 364:2 375:1 419:1 432:1 544:1 668:1 721:2 746:1 757:1 780:1 900:4 904:1 1007:1 1152:1 1156:1 1246:1 1333:1 1655:1 1847:1 1893:1 2068:1 2084:1 2106:2 2129:1 2413:1 2623:1 3264:1 3361:1 3588:1 3732:1 3832:1 3982:1 4072:1 4114:1 4279:1 4638:1 4714:1 5147:1 5429:1 5499:1 5697:1 7027:1 7367:1 7975:2 8614:1 9116:1 9634:1 9725:2 9726:1 9727:1 9728:1 9729:1 9730:1 9731:2 9732:1 9733:1 9734:1 9735:1 9736:1 9737:1 9738:1 9739:1 9740:1 9741:1 100007:1 100008:1 100010:1 100014:1 #
0.01161680583016772190518839380502 1078:1 100007:1 100012:1 100018:1 100020:1 #
-0.01161680583016772190518839380502 7:2 13:2 20:1 28:1 32:1 34:1 43:1 54:1 60:1 65:1 97:1 98:1 214:1 367:1 375:2 921:1 922:1 923:1 924:1 925:1 926:1 927:1 928:1 929:1 930:1 931:1 932:1 933:1 934:1 935:1 1341:1 1379:1 1880:1 3437:1 3781:1 4298:1 4299:1 100007:1 100008:1 100021:1 #
-0.01161680583016772190518839380502 7:4 13:3 75:1 299:1 394:1 1040:1 1142:1 3336:1 3337:1 3338:1 100007:1 100008:1 #
0.0017184624618687509550046810247181 7:9 13:6 28:2 29:2 32:1 34:1 39:2 42:1 65:1 75:2 90:1 93:1 94:4 97:1 100:3 103:2 107:2 112:1 152:1 231:1 298:1 323:2 375:1 517:1 520:1 571:1 630:1 741:1 757:1 761:1 796:1 797:1 818:1 897:1 950:1 989:1 1072:1 1105:1 1156:1 1341:1 1528:1 1529:1 1547:1 1610:1 1893:2 2160:1 2233:1 2455:1 2961:1 3132:1 3361:1 3709:1 3906:1 4640:2 5048:2 5445:1 5949:1 7119:1 7289:1 8156:2 8305:2 8543:1 9004:1 9909:1 10393:1 10394:1 10395:1 10396:1 10397:1 10398:1 10399:1 10400:1 10401:1 10402:1 10403:1 10404:1 10405:1 10406:1 10407:1 10408:1 10409:1 10410:1 10411:1 100007:1 100008:1 100010:1 100014:1 #
0.01161680583016772190518839380502 7:2 13:2 28:5 29:3 32:2 34:1 65:2 75:2 323:3 432:1 517:1 548:1 673:1 920:1 932:1 933:1 934:1 935:1 1904:1 1912:1 2410:1 2679:2 4726:1 4727:1 4728:1 4729:1 4730:1 4731:1 4732:1 4733:1 100008:1 100021:1 #
-0.01161680583016772190518839380502 7:2 10:2 13:1 98:1 774:1 2731:1 2732:1 4153:1 4297:1 100007:1 100008:1 100010:1 100021:1 #
0.01161680583016772190518839380502 2:1 7:4 13:4 32:1 34:1 39:2 42:1 43:1 54:1 65:2 75:4 94:1 100:1 103:2 118:2 323:3 364:1 397:1 645:1 721:1 775:1 780:1 783:1 912:1 999:1 1043:1 1253:1 1294:2 1302:1 1463:1 1587:1 1805:1 2106:2 2363:1 2480:1 3014:1 3342:1 3628:2 5076:1 5176:1 5197:1 6930:1 6996:1 8531:1 8941:1 10569:1 10570:1 10571:1 10572:1 10573:1 10574:1 10575:1 10576:1 10577:1 10578:1 10579:1 10580:1 10581:1 10582:1 10583:1 100007:1 100008:1 100021:1 #
-0.01161680583016772190518839380502 7:4 13:1 28:1 179:2 1044:1 1081:1 1177:1 2383:1 6194:1 6195:2 6196:1 100008:1 100014:1 100021:1 #
-0.01161680583016772190518839380502 7:6 13:2 28:1 46:1 69:1 103:1 200:1 202:1 298:1 323:1 343:1 527:1 1470:1 1471:1 1933:1 3086:1 3711:1 3712:1 3713:1 3714:1 3715:1 100007:1 100008:1 100014:1 #
-0.01161680583016772190518839380502 7:2 13:2 100:1 171:1 620:1 699:1 952:1 1644:1 3221:1 8408:1 8409:1 100007:1 100008:1 100021:1 #
-0.01161680583016772190518839380502 7:3 13:3 39:1 75:1 97:1 112:1 298:1 300:1 1056:1 1072:1 1230:1 1416:1 2363:1 3539:1 8509:1 9102:1 9103:1 100008:1 100021:1 #
0.01161680583016772190518839380502 13:1 1141:1 100007:1 100008:1 100019:1 100020:1 100021:1 #
-0.01161680583016772190518839380502 7:2 13:2 75:1 526:1 715:1 790:1 1143:1 4010:1 100007:1 100008:1 100021:1 #
0.01161680583016772190518839380502 7:2 13:2 28:1 32:1 34:1 39:1 65:1 94:1 172:1 186:1 323:1 364:1 375:1 442:1 512:1 1575:1 2316:1 2662:1 2807:1 3222:1 3498:1 3781:1 4288:1 4289:1 4290:1 4291:1 4292:1 4293:1 4294:1 4295:1 4296:1 100007:1 100008:1 100021:1 #
-0.01161680583016772190518839380502 10:1 13:2 790:1 100008:1 100010:1 100021:1 #
0.01161680583016772190518839380502 7:2 13:1 28:1 29:1 32:1 34:1 75:1 97:1 103:1 172:1 186:1 323:1 460:1 898:1 1294:1 1308:1 3242:1 3296:1 6324:1 6325:1 6326:1 6327:1 6328:1 100008:1 100021:1 #
0.01161680583016772190518839380502 7:2 13:1 32:1 34:1 75:1 97:1 172:1 186:1 222:1 432:1 845:1 1767:1 4835:1 6435:1 9956:1 9957:1 100008:1 100014:1 #
-0.0081292015390815371839172698287257 13:1 28:1 29:1 32:1 34:1 65:1 75:2 530:1 555:1 1118:1 2403:1 2632:1 2633:1 2634:1 2635:1 2636:1 2637:1 100008:1 100021:1 #
0.01161680583016772190518839380502 13:3 1141:1 1142:1 1143:1 100007:1 100008:1 100020:1 100021:1 #
-0.01161680583016772190518839380502 5:1 7:3 10:1 13:3 28:3 39:1 75:1 94:1 97:1 98:1 124:1 147:1 172:1 186:1 225:2 465:1 513:1 604:1 680:1 696:1 725:1 1111:1 1587:1 2118:1 2652:1 5865:1 6926:1 7000:1 7952:1 8606:1 8607:1 8608:1 8609:1 8610:1 8611:1 100007:1 100008:1 100010:1 100012:1 #
-0.0076612815171803435101982593380399 7:1 13:1 28:3 29:9 39:1 42:1 43:1 54:1 65:1 75:2 94:2 97:2 100:3 107:1 172:1 186:1 298:1 323:2 336:1 364:1 407:1 411:2 464:1 775:1 788:1 1033:2 1044:1 1459:1 1508:3 1612:1 1801:1 2015:1 2052:1 2092:1 2715:1 2831:3 3695:1 5019:1 5197:1 5281:1 6204:1 6205:1 6206:1 6207:3 6208:1 6209:2 6210:2 6211:2 6212:1 6213:1 100008:1 100014:1 100021:1 #
0.01161680583016772190518839380502 7:1 13:1 32:1 34:1 220:1 526:1 699:1 1078:1 100007:1 100008:1 #
-0.0098587958589968650163770647054662 7:1 42:1 75:3 97:1 172:1 186:1 365:1 375:1 579:1 915:1 1022:1 1294:1 1309:1 3725:1 5281:1 10378:1 10739:1 10740:1 100008:1 100021:1 #
-0.01161680583016772190518839380502 7:2 29:1 41:1 42:1 65:1 75:3 94:1 97:1 364:1 381:1 579:1 873:1 920:1 1071:1 1309:1 1610:1 3725:1 5281:2 8872:1 100008:1 100021:1 #
-0.01161680583016772190518839380502 6:1 13:1 18:1 29:4 43:1 60:1 65:2 75:4 78:1 97:1 98:1 107:1 172:3 186:3 231:1 306:1 323:1 327:1 368:1 517:1 692:1 1379:1 2106:1 2444:2 2834:1 4005:1 4468:1 6732:1 7402:1 7738:1 7739:1 7740:1 7741:2 7742:1 7743:1 7744:1 7745:1 7746:1 7747:1 100007:1 100008:1 100020:1 100021:1 #
0.00075847192762586949227321397870583 7:3 10:2 13:1 28:1 65:1 75:1 94:1 220:1 787:1 966:1 2407:1 3283:1 6005:1 6006:1 6007:1 6008:1 6009:1 6010:1 6011:1 100007:1 100008:1 100010:1 100014:1 100021:1 #
-0.01161680583016772190518839380502 7:1 13:1 39:1 46:1 75:4 98:1 305:1 364:1 518:1 1144:1 1324:1 1647:1 2061:1 2635:1 3404:1 3689:1 10222:1 10223:1 10224:1 10225:1 10226:1 100007:1 100008:1 100020:1 100021:1 #
0.01161680583016772190518839380502 7:3 10:1 13:5 32:1 34:1 105:1 119:1 299:1 395:1 1856:1 3588:1 6370:1 6804:1 7328:1 100008:1 100010:1 100021:1 #
0.01161680583016772190518839380502 2:1 7:1 13:1 29:2 32:1 34:1 75:1 94:1 100:1 231:1 313:1 323:1 788:1 909:1 1587:1 2119:1 2332:1 3375:1 3376:1 3377:1 3378:1 3379:1 3380:1 3381:1 3382:1 3383:1 100007:1 100008:1 100020:1 100021:1 #
0.01161680583016772190518839380502 13:1 5169:1 100007:1 100008:1 100019:1 100020:1 100021:1 #
-0.01161680583016772190518839380502 2:1 7:2 13:3 48:1 65:1 75:3 97:1 100:1 323:1 768:1 777:1 1072:1 1548:1 3107:1 3233:1 3504:1 3915:1 6036:1 8509:1 10826:1 10827:1 10828:1 100007:1 100008:1 #
-0.01161680583016772190518839380502 13:2 2077:1 5440:1 100008:1 100020:1 100021:1 #
-0.01161680583016772190518839380502 2:2 7:2 13:1 28:1 75:2 94:2 103:2 107:1 172:1 186:1 343:1 358:1 364:1 517:2 554:1 645:1 775:1 856:1 1445:1 1587:1 1616:1 1617:1 2605:1 3117:1 4263:1 5088:1 5199:1 5693:1 5814:1 5815:1 5816:1 5817:1 5818:1 5819:1 5820:1 5821:1 5822:1 5823:1 5824:1 5825:1 100007:1 100008:1 #
0.01161680583016772190518839380502 7:1 13:2 122:1 124:1 147:1 513:1 514:1 100007:1 100008:1 100012:1 100020:1 #
0.01161680583016772190518839380502 13:1 1221:1 1222:1 1283:1 100007:1 100008:1 100019:1 100021:1 #
-0.002534045340657416298807413923555 13:2 28:1 75:2 94:1 103:1 202:1 315:1 323:1 548:1 721:1 753:1 835:1 1253:1 1302:1 2881:1 3214:2 3215:1 3216:1 3217:1 3218:1 100008:1 100020:1 100021:1 #
0.0017799336335890263323389337557501 7:1 10:1 13:2 18:1 32:1 34:1 41:1 48:1 50:2 53:1 54:1 97:1 143:1 146:1 169:1 407:2 411:1 421:1 422:2 423:2 424:1 425:1 426:1 427:1 428:1 429:1 430:1 431:1 432:1 433:1 434:1 435:1 100007:1 100008:1 100010:1 #
-0.011602421345174071531936021983711 100018:1 100020:1 100021:1 #
0.01161680583016772190518839380502 7:1 13:1 143:1 146:1 152:1 218:1 1143:2 4777:1 4778:1 4779:1 4780:1 4781:1 4782:1 4783:1 4784:1 4785:1 4786:1 4787:1 4788:1 100008:1 100010:1 100021:1 #
0.01161680583016772190518839380502 7:1 13:1 146:1 152:1 1143:2 4777:1 4778:1 4779:1 4780:1 4781:1 4782:1 4783:1 4784:1 4785:1 4786:1 4787:1 6866:1 100008:1 100010:1 100021:1 #
-0.01161680583016772190518839380502 13:1 9621:1 100008:1 100019:1 100020:1 100021:1 #
0.01161680583016772190518839380502 13:2 1141:1 100007:1 100008:1 100020:1 100021:1 #
-0.01161680583016772190518839380502 13:2 46:1 1501:1 3311:1 100008:1 100020:1 100021:1 #
0.01161680583016772190518839380502 13:1 5169:1 100007:1 100008:1 100019:1 100020:1 100021:1 #
-0.01161680583016772190518839380502 13:1 29:1 46:1 75:1 1222:1 1299:1 7189:1 100008:1 100019:1 100021:1 #
0.01161680583016772190518839380502 7:3 13:2 29:1 32:2 34:2 37:1 75:2 161:1 224:1 368:1 460:1 2279:1 3193:1 3294:1 4762:1 4763:1 100007:1 100008:1 100021:1 #
-0.01161680583016772190518839380502 7:4 13:2 18:1 32:1 50:1 122:1 124:1 127:1 175:1 220:1 299:1 404:1 407:1 408:1 411:1 640:1 1485:1 1669:1 1670:1 1671:1 1672:1 1673:1 1674:1 1675:1 1676:1 1677:1 1678:1 100008:1 #
-0.0071264099652021111602762104553221 100018:1 100020:1 100021:1 #
0.0007465310932221453201276806233011 7:3 13:2 32:1 34:1 37:1 141:1 142:1 323:1 418:1 7340:1 10270:1 10748:1 10749:1 10750:1 100007:1 100008:1 #
0.01161680583016772190518839380502 13:1 1141:1 100007:1 100008:1 100019:1 100020:1 100021:1 #
-0.01161680583016772190518839380502 2:1 13:1 24:1 29:1 37:1 65:1 75:2 82:1 375:1 2475:1 5241:1 5242:1 5243:1 5244:1 5245:1 100008:1 100019:1 100021:1 #
0.01161680583016772190518839380502 13:1 1141:1 100007:1 100008:1 100019:1 100020:1 100021:1 #
0.01161680583016772190518839380502 13:1 1141:1 100007:1 100008:1 100019:1 100020:1 100021:1 #
0.01161680583016772190518839380502 7:2 13:1 32:1 34:1 268:1 299:2 526:1 698:1 1221:1 1222:1 1376:1 1377:1 100007:1 100008:1 100021:1 #
-0.01161680583016772190518839380502 100018:1 100020:1 100021:1 #
-0.0091823391339135567584817110287077 7:4 13:2 16:1 18:1 54:5 60:2 97:1 165:1 220:1 275:1 407:1 411:1 504:1 832:3 925:1 927:1 1398:1 1400:1 1402:1 1474:1 1475:1 1476:1 1477:2 1478:2 1479:1 1480:1 1481:1 1482:1 1483:1 1484:1 1485:1 1486:1 1487:1 1488:1 1489:1 1490:1 1491:1 1492:1 1493:1 1494:1 1495:1 1496:1 1497:1 1498:1 1499:1 1500:1 1501:1 1502:1 1503:1 100008:1 100014:1 #
-0.01161680583016772190518839380502 13:1 28:1 29:1 75:1 172:2 186:1 620:1 801:1 2106:1 4902:1 5099:1 100008:1 100020:1 100021:1 #
-0.01161680583016772190518839380502 13:1 54:1 65:1 75:1 100:1 1733:1 2773:1 2774:1 2775:1 2776:1 2777:1 100008:1 100019:1 100021:1 #
0.01161680583016772190518839380502 7:4 13:1 16:1 32:2 34:2 41:1 160:1 305:1 306:1 1231:1 1350:1 10320:1 10472:1 10473:1 10474:1 10475:1 10476:1 10477:1 10478:1 100007:1 100008:1 100014:1 100021:1 #
-0.01161680583016772190518839380502 100018:1 100020:1 100021:1 #
0.0039366069192443044200135915389183 7:2 13:2 94:2 137:1 251:1 851:1 1527:1 1528:1 1529:1 2004:1 100007:1 100008:1 100021:1 #
0.0073887260115547293698456954302856 3:1 5:1 7:4 13:4 32:3 34:3 47:1 60:1 71:1 75:2 97:3 103:1 133:1 152:1 172:1 179:1 186:1 222:1 283:1 327:1 343:1 395:2 628:1 4051:1 4927:1 4971:1 6434:1 8292:1 9072:1 9073:1 9074:1 9075:1 9076:1 9077:1 9078:1 9079:1 9080:1 9081:1 9082:1 9083:1 9084:1 9085:1 9086:1 9087:2 9088:1 9089:1 9090:1 9091:1 9092:1 9093:1 100008:1 100010:1 100014:1 #
0.01161680583016772190518839380502 7:3 10:1 13:3 32:1 34:1 97:1 105:1 218:1 395:1 774:1 1856:1 1931:1 3707:1 6370:1 6804:1 100008:1 100010:1 100021:1 #
0.0061879314843412327323823873825859 5:1 7:5 10:1 13:3 29:1 32:1 34:1 75:1 91:1 97:2 172:1 186:1 1294:2 1745:2 3146:1 6105:1 6870:1 6871:1 6872:1 6873:1 6874:1 6875:1 6876:1 6877:1 6878:1 6879:1 6880:1 6881:1 100008:1 100010:1 100021:1 #
-0.01152652892102977444377387428176 100018:1 100020:1 100021:1 #
0.01161680583016772190518839380502 7:2 10:1 13:1 32:1 34:1 107:1 136:1 172:1 186:1 229:1 313:1 364:1 604:1 818:1 912:1 2050:1 2084:1 2089:1 4078:1 5060:1 5094:1 9070:1 100007:1 100008:1 100010:1 100021:1 #
-0.01161680583016772190518839380502 7:1 13:1 315:1 323:1 584:1 601:1 801:1 10045:1 100008:1 100020:1 100021:1 #
-0.01161680583016772190518839380502 1:1 2:1 7:11 10:3 13:5 28:4 29:3 32:3 34:3 39:2 42:2 43:2 50:1 75:4 91:1 92:2 93:1 98:3 100:2 103:2 107:2 172:1 179:1 186:1 310:1 313:1 315:1 323:2 343:2 358:3 395:1 484:1 526:1 537:1 555:1 724:1 746:1 765:1 769:1 856:1 864:1 887:1 893:1 900:1 903:1 983:1 1318:1 1445:1 1608:1 1655:1 1738:1 1776:1 1893:1 2143:1 2240:1 2533:1 2754:1 2923:1 3006:1 3249:1 4136:1 4169:1 4279:1 5152:2 5176:1 5676:1 5944:1 6195:1 6386:1 6387:2 6388:1 6389:1 6390:1 6391:1 6392:1 6393:1 6394:1 6395:1 6396:1 6397:1 6398:1 6399:1 6400:1 6401:1 6402:1 6403:1 6404:1 6405:1 6406:1 6407:1 6408:1 6409:1 100007:1 100008:1 100010:1 100014:1 #
0.01161680583016772190518839380502 7:1 13:2 124:1 147:1 2250:1 2251:1 100007:1 100008:1 100020:1 100021:1 #
-0.01161680583016772190518839380502 7:7 13:1 28:1 32:2 34:2 75:1 103:1 179:2 205:1 320:1 323:1 364:1 901:1 1421:1 3188:1 6327:1 10225:2 10957:1 10958:1 10959:1 10960:2 10961:1 10962:1 10963:1 10964:1 10965:1 10966:1 10967:1 100007:1 100008:1 100021:1 #
-0.01161680583016772190518839380502 4:1 5:1 6:1 7:6 10:1 13:4 29:1 39:1 46:1 75:1 94:1 98:1 103:1 224:1 323:1 336:2 375:1 395:1 517:1 518:1 520:1 549:1 780:1 795:1 940:1 1156:1 1587:1 1644:1 1727:1 1893:1 2106:1 2316:1 2654:1 3212:1 3426:1 3846:1 4877:1 4878:1 5148:1 5887:1 8660:1 8751:1 9719:1 9720:1 9721:1 9722:1 9723:1 9724:1 100007:1 100008:1 100010:1 100014:1 100021:1 #
-0.01161680583016772190518839380502 7:2 13:3 32:3 34:3 36:1 103:1 7597:1 7598:1 7599:1 7600:1 100008:1 100020:1 100021:1 #
0.0012008172155496101354832383378834 3:2 7:12 13:7 16:3 18:3 28:3 29:3 39:1 43:1 46:3 54:1 60:2 65:2 70:1 71:1 75:8 97:1 103:2 105:1 107:1 172:5 186:5 271:2 275:2 298:2 304:1 315:1 323:2 364:1 375:1 530:1 544:1 554:1 579:1 587:1 694:1 821:1 912:1 966:1 1099:1 1156:3 1379:1 1445:1 1587:1 1658:1 1736:1 1800:2 1875:1 1879:2 1886:1 1904:1 1932:1 1983:1 2006:1 2523:1 2702:1 3074:1 3411:1 3562:1 3663:1 3664:1 3665:1 3666:1 3667:2 3668:1 3669:1 3670:1 3671:1 3672:1 3673:1 3674:1 3675:1 3676:1 3677:1 3678:1 3679:1 3680:1 3681:1 3682:1 3683:1 3684:1 3685:1 3686:1 3687:1 3688:1 3689:1 3690:1 3691:1 3692:1 3693:1 3694:1 3695:1 3696:1 3697:1 3698:1 3699:1 3700:1 100007:1 100008:1 #
0.01161680583016772190518839380502 7:2 13:1 28:2 46:1 65:1 75:2 94:2 137:1 172:1 186:1 366:1 873:1 1066:1 1257:1 1273:1 1274:1 1665:1 2177:1 2241:1 2242:1 2243:1 2244:1 2245:1 2246:1 100008:1 100021:1 #
0.0065738249793283534683219215821737 7:7 13:5 16:3 18:1 28:1 29:5 32:1 34:1 39:3 42:1 43:1 46:1 54:1 65:2 75:8 97:1 98:1 100:3 105:1 122:1 172:3 185:1 186:3 231:1 275:1 298:1 299:1 343:1 486:1 697:1 923:1 1018:1 1063:1 1089:1 1435:1 1797:1 1896:1 2570:1 2571:2 2572:1 2573:1 2574:1 2575:1 2576:1 2577:1 2578:3 2579:1 2580:2 2581:1 2582:2 2583:2 2584:1 2585:1 2586:1 2587:1 2588:1 2589:1 2590:1 2591:1 2592:1 2593:1 2594:1 2595:1 2596:1 100007:1 100008:1 #
0.01161680583016772190518839380502 5:1 7:7 13:3 16:1 18:2 28:2 29:2 42:1 46:1 56:1 65:3 70:1 75:2 80:1 98:1 100:2 103:1 172:1 186:1 246:1 292:1 323:6 517:2 548:4 630:1 676:1 835:1 926:1 1066:1 1113:1 1189:2 1395:1 1435:1 1501:4 1862:1 2054:1 2090:1 2212:2 2669:2 2670:1 2671:1 2672:3 2673:1 2674:1 2675:1 2676:1 2677:1 2678:1 2679:1 2680:2 2681:1 2682:1 2683:1 2684:1 2685:1 2686:1 2687:1 2688:1 2689:1 2690:1 2691:1 2692:1 2693:1 2694:1 2695:1 2696:1 2697:1 2698:1 2699:1 2700:1 2701:1 2702:1 2703:1 2704:1 2705:1 100008:1 100021:1 #
0.01161680583016772190518839380502 2:1 7:3 10:1 13:2 28:1 29:1 39:3 65:4 75:4 97:1 107:2 172:1 186:1 299:1 323:1 375:1 486:2 517:1 518:1 741:1 777:1 787:1 950:1 1024:1 1055:1 1149:1 1249:1 1413:1 1415:1 1494:1 1619:1 1893:1 2106:1 2357:1 2971:1 2972:1 3502:1 3520:1 4020:1 4132:1 5475:1 5483:1 5484:1 5485:3 5486:1 5487:1 5488:1 5489:1 5490:1 5491:1 5492:1 5493:1 5494:1 100007:1 100008:1 100010:1 100021:1 #
-0.01161680583016772190518839380502 2:1 7:7 13:3 29:2 39:1 65:2 75:1 90:1 107:1 172:5 186:5 231:2 313:2 315:1 503:1 517:2 544:1 721:1 755:2 788:1 1113:1 1246:1 1339:1 1910:1 2586:1 3846:2 4320:1 4818:1 5462:1 5811:1 6714:1 6834:1 7028:1 8126:2 8127:3 8128:1 8129:1 8130:2 8131:2 8132:1 8133:1 8134:1 8135:1 8136:1 8137:1 8138:1 100007:1 100008:1 100020:1 100021:1 #
-0.0079947087263729180867111168140582 2:1 7:10 13:3 24:1 28:1 29:4 32:2 34:2 43:1 46:1 65:4 75:4 90:3 93:1 98:1 100:4 103:1 152:1 168:1 172:1 179:2 186:1 231:1 307:1 313:1 364:1 407:1 411:1 503:2 517:3 519:1 533:1 604:2 645:1 754:1 755:1 780:1 788:1 818:1 824:1 873:1 917:1 996:2 1459:1 1587:2 1893:1 1896:1 2143:1 2168:1 2307:1 2489:1 2686:1 2803:1 2961:2 3159:1 3742:1 3843:1 3844:2 3845:1 3846:1 3847:1 3848:1 3849:1 3850:1 3851:1 3852:1 3853:2 3854:1 3855:1 3856:1 3857:1 3858:1 3859:1 3860:1 3861:1 3862:1 3863:1 3864:1 3865:1 3866:1 3867:1 3868:1 3869:1 3870:1 3871:1 3872:1 3873:1 3874:1 3875:1 3876:1 3877:1 3878:1 3879:1 3880:1 100007:1 100008:1 100010:1 100014:1 100021:1 #
-0.01161680583016772190518839380502 2:1 7:6 10:1 13:2 29:4 32:3 34:3 39:1 65:1 75:5 98:1 100:1 103:1 172:2 179:1 186:2 220:1 268:2 272:1 323:1 336:1 364:2 604:1 757:1 785:1 885:1 895:1 1018:2 1266:1 1379:1 1648:2 1875:1 1896:1 2106:1 2119:1 3283:1 3990:2 4645:1 4921:1 5091:1 5944:1 6101:1 6308:1 6562:1 6741:1 6823:1 7028:1 7030:2 7236:1 7448:1 7522:1 9071:1 9155:1 9241:1 9539:1 9540:1 9541:3 9542:1 9543:1 9544:1 9545:1 9546:1 9547:1 100007:1 100008:1 100010:1 #
0.01161680583016772190518839380502 5:1 7:5 13:1 18:1 24:1 56:1 59:1 60:1 65:1 244:1 247:2 2727:1 5482:1 6869:1 7842:1 7843:1 7844:1 7845:1 7846:1 7847:1 7848:1 100008:1 100021:1 #
0.01161680583016772190518839380502 7:3 13:2 28:1 29:1 37:1 65:1 75:1 504:1 505:1 1276:1 1445:1 1465:1 2575:1 3260:1 3582:1 3817:1 4902:1 7255:1 7256:1 100008:1 #
0.01161680583016772190518839380502 7:1 13:1 39:1 75:1 766:1 790:1 1341:1 1610:1 3140:1 3701:1 3702:1 100007:1 100008:1 100021:1 #
0.01161680583016772190518839380502 5:1 7:3 13:1 16:1 18:2 29:1 42:1 60:1 70:1 97:1 165:1 172:1 186:1 774:1 1099:1 1619:1 1683:1 1757:1 2250:1 2251:1 2252:1 2253:2 2254:1 2255:1 2256:1 2257:1 2258:1 2259:1 2260:1 2261:1 2330:1 3720:1 4661:1 4873:1 7107:1 7108:1 7109:1 7110:1 100008:1 100021:1 #
-0.01161680583016772190518839380502 7:1 13:3 97:1 100:1 323:1 380:1 517:1 604:2 1552:1 2923:1 3260:1 5546:1 5547:1 5548:1 5549:1 100008:1 100021:1 #
-0.01161680583016772190518839380502 7:2 13:1 28:1 75:1 94:1 100:1 103:1 107:1 518:1 996:1 1321:1 1322:1 1323:1 1324:1 1325:1 1326:1 1327:1 1328:1 1329:1 1330:1 1331:1 100007:1 100008:1 100021:1 #
-0.01161680583016772190518839380502 7:3 10:1 13:2 60:1 75:2 98:1 323:1 665:1 1130:1 1688:1 2174:1 2502:1 2766:1 2767:1 2768:1 2769:1 2770:1 2771:1 2772:1 100007:1 100008:1 100010:1 100021:1 #
0.0036783642139183413133363131919396 7:5 13:2 28:2 75:2 78:2 94:1 97:1 98:1 100:1 124:1 147:1 172:2 179:1 186:2 323:1 520:1 521:1 1339:1 1464:1 1929:1 2638:1 2639:1 2641:1 3194:1 4688:1 5088:1 6796:1 9969:1 9970:1 9971:1 9972:1 9973:1 9974:1 9975:1 9976:1 9977:1 9978:1 100007:1 100008:1 100020:1 100021:1 #
-0.01161680583016772190518839380502 2:1 7:3 13:4 39:1 65:1 69:1 112:1 298:1 323:1 518:1 584:1 774:1 1072:1 1896:1 2317:1 2813:1 3120:1 3654:1 6693:1 6911:1 9657:1 10860:1 10861:1 10862:1 100008:1 #
-0.01161680583016772190518839380502 7:4 10:1 13:3 28:1 29:1 32:1 34:1 39:1 42:1 65:1 75:1 94:3 97:1 100:1 112:1 375:1 774:1 796:1 1054:1 1072:1 1152:1 1222:1 1324:2 1415:1 2535:1 2815:1 4403:1 4411:1 5716:1 6680:1 6732:1 8297:1 8298:1 8299:1 8300:1 8301:1 8302:1 8303:1 8304:1 8305:1 100007:1 100008:1 #
-0.01161680583016772190518839380502 7:8 10:1 13:1 28:2 46:1 75:2 172:1 186:1 202:1 298:1 323:1 521:1 698:1 874:1 954:1 1470:1 1471:1 1501:1 2512:1 2621:1 3953:1 3956:1 3990:1 6526:1 6527:1 6528:1 6529:1 100007:1 100008:1 100010:1 100014:1 #
-0.01161680583016772190518839380502 7:4 13:3 28:1 42:1 54:1 65:1 75:1 91:1 107:1 172:1 179:1 186:1 220:1 313:1 323:1 391:1 702:1 926:1 1274:1 1753:1 2527:1 2662:1 3540:2 5368:1 7309:1 10613:1 10619:1 10620:1 10621:1 11240:1 11484:1 11485:1 11486:1 11487:1 100007:1 100008:1 100021:1 #
-0.004997490782836506821584787729762 7:6 13:3 4564:1 4566:3 4569:2 4575:3 4578:1 4580:1 4583:1 4594:1 5617:1 5618:1 5620:4 5630:1 5635:4 5647:2 5651:1 5730:1 5732:1 5735:1 5739:4 5741:1 5744:1 7775:1 7776:1 7777:1 7778:3 7779:1 7780:1 7781:1 7782:1 7783:1 7784:1 7785:1 7786:1 7787:2 7788:1 7789:2 7790:1 7791:2 7792:1 7793:1 7794:1 7795:1 7796:1 7797:1 7798:1 7799:1 7800:1 7801:1 7802:2 7803:1 7804:1 7805:1 7806:1 7807:1 7808:1 7809:1 7810:1 7811:1 7812:1 7813:1 7814:2 7815:1 7816:1 7817:1 7818:1 7819:1 7820:1 7821:1 7822:1 7823:1 7824:1 7825:1 7826:1 7827:1 7828:1 7829:1 100008:1 100020:1 100021:1 #
-0.01161680583016772190518839380502 7:5 13:4 65:1 75:2 936:1 976:2 1152:1 1575:1 4263:1 4617:1 11411:1 11412:1 11413:1 11414:1 11415:1 100008:1 100020:1 100021:1 #
0.01161680583016772190518839380502 2:2 7:5 8:1 13:2 28:1 29:5 32:2 34:2 65:3 75:4 94:1 98:1 100:2 172:3 186:3 227:1 313:1 323:2 364:1 486:1 517:1 518:1 653:1 692:2 757:1 897:1 1045:1 1158:1 1464:1 1878:1 2259:1 2478:2 2479:1 2781:1 2974:1 3118:3 3221:1 3260:1 5941:2 6494:1 7020:1 7338:1 8518:1 10051:1 10358:1 10359:1 10360:1 10361:1 10362:1 10363:1 10364:1 10365:1 10366:1 10367:1 10368:1 10369:1 10370:1 10371:1 10372:1 10373:1 10374:1 10375:1 100007:1 100008:1 100021:1 #
0.01161680583016772190518839380502 7:5 13:2 29:1 32:1 46:1 65:2 75:1 103:2 172:2 186:2 299:1 364:1 373:1 407:1 411:1 501:1 502:1 520:1 604:1 766:1 1000:1 1294:2 1318:1 1391:1 1785:2 1959:1 2363:1 3258:1 3260:1 3990:1 4799:1 4800:1 4801:1 4802:1 4803:1 100008:1 100021:1 #
0.01161680583016772190518839380502 7:2 13:1 29:3 75:3 94:1 100:2 315:1 358:1 696:1 723:1 890:1 897:1 1028:1 1924:1 1925:1 1926:1 1927:1 1928:1 1929:1 1930:1 1931:1 100007:1 100008:1 100021:1 #
0.01161680583016772190518839380502 7:4 13:1 28:1 42:1 75:3 98:1 100:1 172:1 186:1 227:1 310:1 323:1 367:1 381:1 517:1 526:1 721:1 748:1 1125:1 1445:1 1854:1 2077:1 2763:1 3219:1 3978:1 4696:1 4707:1 5086:2 6329:1 7245:1 7711:1 7712:1 10014:1 10015:1 10016:1 10017:1 100007:1 100008:1 100021:1 #
0.01161680583016772190518839380502 7:4 13:2 29:3 32:1 34:1 36:1 41:1 42:1 43:1 48:2 65:1 75:2 97:1 100:1 118:4 172:1 186:1 617:1 738:1 778:1 873:1 1020:1 1021:1 1022:1 1023:1 1024:1 1045:1 2046:1 2363:1 5866:1 5867:1 5868:1 5869:1 5870:1 100008:1 #
-0.01161680583016772190518839380502 7:2 13:1 28:1 29:1 32:1 34:1 65:1 75:1 103:1 244:1 343:1 503:1 633:1 766:1 2303:1 2800:1 2811:1 5143:1 6232:1 10302:1 10303:1 10304:1 10305:1 10306:1 100007:1 100008:1 100021:1 #
-0.01161680583016772190518839380502 5:1 7:4 13:2 16:1 29:1 39:1 75:1 94:1 97:1 98:1 100:1 143:2 146:2 172:1 186:1 283:1 323:1 364:1 517:1 522:2 526:1 715:1 864:1 933:1 1152:1 1931:1 2201:1 2430:1 2469:1 2754:1 3151:1 3260:1 4466:1 6570:2 6571:1 6572:1 6573:1 6574:1 6575:1 6576:1 100007:1 100008:1 100021:1 #
-0.01161680583016772190518839380502 7:1 13:2 43:1 100:1 517:1 518:1 669:1 679:1 730:1 1971:1 2266:1 2299:1 3311:1 5199:1 9113:1 9114:1 9115:1 9116:1 100008:1 100020:1 100021:1 #
0.0086364384724144614702279199036639 7:3 13:2 28:1 29:2 32:1 34:1 37:1 39:1 94:1 320:1 323:1 375:1 1041:1 1455:1 1612:1 1659:1 2190:1 5005:1 6417:1 8041:1 9220:1 9221:1 9222:1 100007:1 100008:1 100021:1 #
0.01161680583016772190518839380502 6:1 7:4 13:3 29:1 32:1 34:1 39:2 65:2 75:4 82:1 83:2 90:1 94:1 100:1 103:1 107:1 323:1 434:1 513:1 690:1 692:1 864:1 1222:1 1499:1 1501:1 2582:1 2654:2 2754:1 2923:1 3062:1 3251:1 3689:1 3965:1 3966:1 3967:1 3968:1 3969:1 3970:1 3971:1 3972:1 3973:1 3974:1 3975:1 100007:1 100008:1 100012:1 #
0.01161680583016772190518839380502 7:3 13:1 28:1 65:1 94:3 299:1 520:1 787:1 1413:1 3555:1 3606:1 3708:1 3709:1 3710:1 100007:1 100008:1 100021:1 #
-0.01161680583016772190518839380502 2:2 7:3 13:3 28:3 32:2 34:2 65:1 71:1 75:1 97:1 103:2 161:1 169:2 172:2 186:2 448:1 522:1 818:1 1081:1 1105:1 1445:1 1446:1 1854:2 2227:1 2429:2 2439:1 2457:1 2472:1 2945:1 6104:1 6105:2 6106:1 6107:1 100007:1 100008:1 #
0.0063246790763284181299819231014681 2:1 7:11 8:1 10:1 13:8 28:4 29:9 37:1 39:5 42:1 43:1 65:6 75:7 90:4 92:1 94:2 97:5 98:4 100:2 103:1 112:1 113:1 299:1 300:1 304:3 323:3 358:1 375:1 448:1 481:1 517:1 584:2 604:1 715:1 744:1 764:1 765:1 766:1 769:1 777:2 778:1 794:1 796:1 826:1 832:1 940:1 950:4 964:1 966:2 981:1 1043:1 1044:1 1045:2 1144:1 1146:1 1157:1 1413:1 1510:1 1548:3 1549:2 1556:1 1562:1 1634:1 1862:1 1896:1 2016:1 2227:1 2265:1 2313:3 2342:1 2468:1 2772:1 3047:1 3259:1 3754:1 4132:1 4226:1 4996:1 5094:1 5782:1 5837:2 6147:1 6154:1 6171:1 6422:1 8151:1 8152:1 8153:1 8154:1 8155:1 8156:1 8157:1 8158:1 8159:1 8160:1 8161:1 8162:1 8163:1 8164:1 8165:1 100007:1 100008:1 100010:1 100021:1 #
0.01161680583016772190518839380502 5:1 7:4 13:4 28:2 32:1 34:1 42:1 43:1 54:1 65:1 71:1 75:5 90:1 94:1 97:3 98:2 126:1 172:1 186:1 222:2 283:1 307:3 323:2 327:2 371:1 448:2 458:1 478:1 518:2 520:1 626:1 628:2 666:1 721:1 724:1 780:1 881:1 1158:1 1339:2 1863:1 2106:1 2470:1 2474:1 2942:1 3170:1 3236:1 4343:1 6433:1 6434:1 6435:1 6436:1 6437:1 6438:1 6439:1 6440:1 6441:1 6442:1 6443:1 6444:1 6445:1 6446:1 6447:1 6448:1 6449:1 100008:1 100014:1 #
-0.01161680583016772190518839380502 2:1 7:2 10:1 13:1 32:1 34:1 43:1 54:1 122:1 306:1 391:1 584:1 679:1 690:1 724:1 1459:1 4098:1 6010:1 9258:1 9259:1 9260:1 9261:1 9262:1 9263:1 9264:1 100007:1 100008:1 100010:1 #
-0.01161680583016772190518839380502 7:2 10:1 13:1 75:1 2566:1 2567:1 2568:1 2569:1 100008:1 100010:1 100021:1 #
0.001275119229360122162855728511488 7:7 10:1 13:5 28:2 29:4 32:1 34:1 65:4 75:7 90:1 94:1 97:1 98:1 172:1 186:1 231:2 315:1 366:1 418:1 521:1 527:1 555:1 722:1 856:1 858:1 912:1 942:1 1512:1 1657:1 1665:1 1959:1 3119:1 3196:1 3505:1 3517:1 3781:1 4131:1 5101:1 6738:1 6795:2 6796:1 6797:1 6798:1 6799:1 6800:1 100007:1 100008:1 100010:1 #
0.01161680583016772190518839380502 7:2 28:1 42:1 97:1 172:1 186:1 323:1 873:1 933:1 1904:1 2409:1 2414:1 3283:1 3611:1 6579:1 7713:1 10690:1 10691:1 100008:1 100021:1 #
-0.01161680583016772190518839380502 7:3 10:1 13:2 75:1 98:1 306:1 1931:1 4945:1 5966:1 8273:1 8274:1 8275:1 100008:1 100010:1 100021:1 #
0.01161680583016772190518839380502 2:2 7:8 13:4 24:1 29:3 60:1 65:3 75:1 94:4 97:1 98:2 118:1 172:2 186:2 215:2 231:1 246:1 313:1 323:3 480:1 517:1 548:2 604:1 707:1 708:1 741:1 746:1 1153:1 1189:2 1501:2 1862:1 2015:2 2058:1 2220:1 2252:1 2552:1 2556:2 2675:1 2676:1 2677:1 2681:1 2701:1 2702:1 2703:1 2727:1 3731:2 3732:1 3733:2 3734:1 3735:1 3736:1 3737:1 3738:1 3739:1 3740:1 3741:1 3742:1 3743:1 3744:1 3745:1 3746:1 3747:1 3748:1 3749:2 3750:1 3751:1 3752:1 3753:1 3754:1 3755:1 3756:1 3757:1 3758:1 3759:1 100008:1 100014:1 #
0.010991628841050416626190511237837 7:4 13:3 29:4 39:3 43:1 65:2 75:2 90:1 91:1 94:1 97:1 98:1 100:1 137:1 172:1 186:1 366:1 391:1 458:1 517:1 518:1 757:1 762:1 807:1 851:1 975:1 981:1 1012:1 1041:1 1081:1 1152:1 1459:1 2062:1 2744:1 2745:1 2746:1 3211:1 4627:1 6017:1 7122:1 7123:1 7124:1 7125:1 7126:1 7127:1 7128:1 7129:1 7130:1 7131:1 100007:1 100008:1 100021:1 #
-0.01161680583016772190518839380502 2:1 5:2 7:12 13:2 18:2 28:1 29:4 32:2 34:2 43:1 48:1 65:1 75:4 94:2 97:2 98:2 100:1 103:3 127:2 160:1 172:1 186:1 200:1 283:1 313:3 323:4 364:1 398:2 494:1 517:1 544:3 676:1 702:1 721:1 769:1 898:2 1339:1 1587:1 1948:2 2040:1 2155:1 2512:1 2552:1 2698:1 3047:1 3214:1 3361:1 3673:1 4452:2 4491:1 4967:1 5239:4 6071:2 6308:1 6652:1 6962:1 7708:1 7725:1 8024:1 8116:1 10055:1 10673:1 10833:1 10834:1 10835:1 10836:1 10837:1 10838:1 10839:1 10840:1 10841:1 10842:1 10843:1 10844:1 10845:1 10846:1 10847:1 10848:1 10849:1 10850:1 10851:1 10852:1 10853:1 100007:1 100008:1 #
0.01161680583016772190518839380502 7:1 10:1 13:2 1141:1 4644:1 100007:1 100008:1 100010:1 100020:1 100021:1 #
-0.01161680583016772190518839380502 2:1 7:3 13:1 1143:1 1150:1 1246:1 1796:1 100008:1 100014:1 100021:1 #
-0.01161680583016772190518839380502 6:1 7:8 10:1 13:1 28:1 29:2 39:1 54:1 75:3 83:1 90:1 94:1 97:1 98:2 100:2 103:1 107:2 143:1 146:1 172:1 186:1 224:1 304:1 313:1 364:1 407:1 411:1 577:1 679:2 723:1 788:2 795:1 983:1 996:1 1291:1 1324:1 1587:1 1738:1 1959:1 2227:1 2332:1 2654:1 2790:1 3426:1 4234:1 4469:1 4851:1 7573:1 7683:1 8751:1 8944:1 8945:1 8946:1 8947:1 8948:1 8949:1 8950:1 8951:1 8952:1 8953:1 8954:1 8955:1 8956:1 8957:1 8958:1 8959:1 100007:1 100008:1 100010:1 100021:1 #
0.01161680583016772190518839380502 7:3 13:1 29:2 75:2 100:1 172:1 186:1 298:1 313:1 381:1 517:1 766:1 950:1 1548:1 1594:1 1738:1 2092:1 2229:1 2230:1 2231:1 2232:1 2233:1 100007:1 100008:1 100021:1 #
0.01161680583016772190518839380502 7:4 13:2 29:1 48:1 75:3 98:1 103:1 137:1 172:1 186:1 851:1 938:1 950:2 1644:1 1645:1 8594:1 8595:1 8596:1 100007:1 100008:1 100012:1 100020:1 #
-0.01161680583016772190518839380502 2:1 7:4 9:2 28:2 29:2 30:1 32:2 34:2 37:2 39:3 65:1 75:2 78:2 94:1 179:1 220:1 299:1 517:1 522:1 591:1 725:1 1325:2 1896:1 2455:1 2834:1 3212:2 3884:1 4058:1 5976:1 7437:2 8678:2 11101:1 11102:1 11103:1 11104:1 11105:1 100007:1 100008:1 100021:1 #
0.01161680583016772190518839380502 7:3 13:2 28:1 29:3 75:3 94:1 100:2 103:1 172:1 186:1 323:1 364:1 855:1 1012:1 2034:1 3498:1 4013:1 4039:1 4209:1 4498:1 4751:1 5154:1 5424:1 6753:1 6852:1 7487:1 7540:1 8656:1 8657:1 8658:1 8659:1 8660:1 8661:1 8662:1 8663:1 100007:1 100008:1 100014:1 100021:1 #
-0.01161680583016772190518839380502 7:3 13:3 112:1 298:1 299:1 654:1 1072:1 2425:1 2426:1 100008:1 #
-0.01161680583016772190518839380502 7:9 13:4 29:1 32:1 34:1 39:1 43:1 54:2 65:1 70:1 75:4 98:1 103:3 172:1 186:1 307:3 310:1 313:2 332:1 364:2 366:1 458:1 579:1 581:1 604:2 640:1 643:1 644:1 654:1 655:1 663:2 664:1 1156:1 1294:1 1991:1 2860:1 3072:1 3452:1 4993:1 5159:1 5703:1 8627:1 9199:1 9694:1 11246:1 11247:1 11248:1 11249:1 11250:1 11251:1 11252:1 11253:1 11254:1 11255:1 11256:1 11257:1 11258:1 11259:1 11260:1 100007:1 100008:1 100021:1 #
0.01161680583016772190518839380502 7:2 13:2 28:1 39:1 44:1 75:2 97:1 124:1 147:1 172:1 186:1 1484:1 2262:1 2268:1 2269:1 2270:1 2271:1 2272:1 2273:1 2274:1 100007:1 100008:1 100020:1 100021:1 #
0.01161680583016772190518839380502 7:3 13:1 28:2 75:2 94:2 366:1 873:1 1257:1 1273:1 1274:1 1665:1 2177:1 2241:1 2242:1 2243:1 2244:1 2245:1 2246:1 100007:1 100008:1 100021:1 #
0.0062624537779206708790202817738191 7:3 13:1 28:2 65:1 94:3 299:2 520:1 775:1 787:1 1413:2 3555:1 3606:1 3708:1 3709:1 3710:1 100007:1 100008:1 100021:1 #
-0.01161680583016772190518839380502 7:1 13:2 1294:1 1504:1 3002:1 100008:1 100021:1 #
-0.01161680583016772190518839380502 7:1 13:2 343:1 1465:1 100008:1 100021:1 #
-0.01161680583016772190518839380502 13:1 28:1 32:2 34:2 75:1 82:1 98:1 100:1 200:1 315:2 364:1 818:1 1388:1 1586:1 1587:1 3221:2 8963:1 8964:1 8965:1 8966:1 8967:1 8968:1 8969:1 8970:1 8971:1 8972:1 8973:1 100007:1 100008:1 100020:1 #
0.011345286267564435450649895642528 2:1 7:2 10:2 13:1 28:1 29:1 32:1 34:1 119:1 179:1 950:1 1045:1 1246:1 2356:1 3910:1 6277:1 6560:1 6561:1 6562:1 6563:1 6564:1 100007:1 100008:1 100010:1 100021:1 #
0.01161680583016772190518839380502 7:1 13:3 29:1 65:1 75:1 124:1 147:1 172:1 186:1 1445:1 2575:1 3582:1 3817:1 4902:1 7255:1 100007:1 100008:1 100020:1 #
-0.01161680583016772190518839380502 7:5 13:4 50:1 121:1 122:1 124:1 127:1 404:1 434:1 1081:1 1223:1 6000:1 7648:1 7649:1 7650:1 100008:1 #
0.01161680583016772190518839380502 7:2 13:2 60:1 124:1 147:1 1348:1 1349:1 1350:1 1351:1 1352:1 100007:1 100008:1 100020:1 100021:1 #
-0.01161680583016772190518839380502 7:4 13:2 32:1 34:1 50:1 122:1 124:1 127:1 175:1 299:1 404:1 407:1 408:1 411:1 1452:1 1485:1 1669:1 1670:1 1674:1 1678:1 1814:1 1815:1 1816:1 1817:1 1818:1 1819:1 1820:1 100008:1 #
0.01161680583016772190518839380502 7:2 13:2 28:1 29:1 65:1 75:1 97:1 98:1 100:1 124:1 147:1 172:1 186:1 323:1 530:1 547:1 1339:1 2268:1 2269:1 2272:1 2273:1 3118:1 3501:1 4378:1 4379:1 100007:1 100008:1 100020:1 100021:1 #
-0.007140313699663937592465590142865 2:2 7:3 13:3 28:1 29:1 39:1 43:2 65:1 75:2 98:1 100:1 103:1 107:2 231:2 313:2 323:1 342:1 375:1 458:1 555:1 769:1 1156:1 1319:1 1324:1 1339:3 1341:1 1395:1 1408:1 1904:1 2068:1 2405:1 2406:1 3342:1 3607:1 3608:1 3609:1 3610:1 3611:1 3612:1 3613:1 3614:1 3615:1 3616:1 3617:1 3618:1 3619:1 3620:1 3621:1 3622:1 3623:1 3624:1 3625:1 3626:1 3627:1 3628:1 3629:1 3630:1 3631:1 100007:1 100008:1 100021:1 #
-0.01161680583016772190518839380502 2:1 7:1 13:1 28:1 32:1 34:1 75:1 93:1 103:1 323:1 463:1 524:1 725:1 1407:1 1893:1 1979:1 2110:1 3152:1 3153:1 3154:1 3155:1 3156:1 3157:1 3158:1 3159:2 3160:1 100007:1 100008:1 100021:1 #
-0.01161680583016772190518839380502 2:2 7:5 10:1 13:1 28:1 29:2 42:1 65:1 75:1 90:1 94:1 100:1 231:1 313:1 323:2 517:1 604:1 721:1 996:1 1222:1 1294:1 1331:1 1959:1 2332:1 2407:1 3071:1 3399:1 4714:1 6788:1 7572:1 9254:1 9869:1 10470:1 10633:1 10774:1 10775:1 10776:1 10777:1 10778:1 10779:1 10780:1 10781:1 100008:1 100010:1 100021:1 #
-0.01161680583016772190518839380502 1:1 13:2 29:1 94:1 231:1 518:1 738:1 762:1 769:2 1216:1 4338:1 4640:1 5262:1 5263:1 5264:1 5265:1 100008:1 100020:1 100021:1 #
0.01161680583016772190518839380502 7:4 13:2 65:1 75:5 98:1 137:1 172:1 186:1 851:1 938:1 950:1 1644:1 1645:1 5331:1 5332:1 5333:1 5334:1 5335:1 100007:1 100008:1 100020:1 100021:1 #
-0.00025689795671642381980070979352604 5:2 13:2 16:4 18:1 60:1 118:1 143:1 146:1 165:1 181:1 1087:1 1398:1 1478:1 1516:1 3304:1 3389:1 6003:1 6071:1 7057:1 8787:1 8788:2 8789:1 8790:1 8791:1 8792:1 8793:1 8794:1 8795:1 8796:1 8797:1 8798:1 8799:1 8800:1 8801:1 8802:1 8803:1 8804:1 8805:1 100008:1 100020:1 100021:1 #
-0.01161680583016772190518839380502 7:3 13:3 65:1 112:1 113:1 375:1 768:1 777:1 832:1 1043:1 1150:1 2004:1 3881:1 3882:1 100008:1 100021:1 #
0.0097219932947663640493418668597769 7:4 13:2 29:3 30:1 39:1 46:1 75:6 94:1 98:1 100:2 152:1 172:2 186:1 323:1 343:1 520:1 551:1 559:1 604:1 698:1 881:1 1552:1 2062:1 2195:1 2535:1 3481:1 6251:1 7487:1 7488:1 7489:1 7490:1 7491:1 7492:1 7493:1 7494:1 100007:1 100008:1 100010:1 100014:1 100021:1 #
0.0015189203533835914788907572869903 2:2 7:11 13:5 28:2 29:7 32:1 34:1 37:1 39:3 46:1 48:2 65:4 68:1 75:9 92:1 97:2 100:1 112:1 118:1 152:1 172:1 186:1 313:2 323:2 358:1 364:2 418:1 519:1 579:1 764:1 780:1 788:1 790:1 794:1 796:2 797:1 885:1 920:1 950:2 1072:1 1150:1 1230:1 1309:2 1324:1 1339:1 1341:2 1379:1 1415:1 1610:1 2106:1 3098:1 3140:1 3259:2 3283:1 3634:1 3990:1 6560:1 7357:1 8156:1 8157:1 8326:1 8535:1 8543:1 8997:1 8998:1 8999:1 9000:1 9001:1 9002:1 9003:1 9004:1 9005:1 9006:1 9007:1 9008:1 9009:1 9010:1 9011:1 9012:1 9013:1 9014:1 9015:1 9016:1 100007:1 100008:1 100010:1 100014:1 #
-0.01161680583016772190518839380502 7:4 13:1 32:1 34:1 2756:1 4569:1 4585:1 5618:1 5620:3 5647:1 6387:1 7814:1 7817:1 8552:1 8679:1 8680:2 8681:1 8682:2 8683:1 8684:1 8685:1 8686:1 8687:1 8688:1 8689:1 8690:1 8691:1 8692:1 8693:1 8694:1 8695:1 8696:1 8697:1 8698:1 8699:1 8700:1 8701:1 8702:1 8703:1 8704:1 8705:1 8706:1 8707:1 8708:1 8709:1 8710:1 8711:1 8712:1 8713:1 8714:1 8715:1 8716:1 8717:1 100008:1 100014:1 100021:1 #
-0.01161680583016772190518839380502 2:2 7:3 103:1 327:1 375:1 762:1 873:1 2036:1 3866:1 5086:1 10377:1 10378:1 10379:1 10380:1 100007:1 100008:1 100020:1 100021:1 #
0.00083061358662954182935367342111022 2:1 7:11 8:2 10:2 13:5 28:5 29:2 32:2 34:2 39:5 43:1 75:4 103:1 119:1 168:1 231:2 248:1 299:1 313:1 323:2 364:1 381:1 530:3 620:1 669:1 670:1 671:1 672:1 673:1 674:1 675:4 676:1 677:1 678:1 679:1 680:1 681:2 682:2 683:2 684:1 685:1 686:1 687:2 688:1 689:1 690:3 691:1 692:1 693:1 694:1 695:1 696:1 697:1 698:1 699:1 700:1 701:1 702:1 703:1 704:1 705:1 706:1 707:1 708:1 709:1 710:1 711:1 712:1 713:1 100007:1 100008:1 100010:1 100021:1 #
0.00077579197383223995852785659366191 5:2 7:4 13:1 16:2 18:1 32:1 34:1 54:1 65:1 97:1 160:1 237:2 238:1 239:1 240:1 241:1 242:1 243:1 244:1 245:1 246:1 247:1 248:1 100007:1 100008:1 100014:1 100021:1 #
-0.0084046359927108255788441582012638 7:1 13:2 16:1 54:2 165:1 1394:1 1395:1 1396:2 1397:1 1398:1 1399:1 1400:1 1401:1 1402:1 1403:1 1404:1 1405:1 1406:1 1407:1 100008:1 100020:1 100021:1 #
0.011335983874631300541424572259075 7:4 13:1 24:1 28:1 75:1 220:1 319:1 407:1 411:1 1230:1 2246:1 3057:1 4540:2 4541:1 4542:1 4543:1 4544:1 4545:1 4546:1 4547:1 4548:2 100007:1 100008:1 100021:1 #
0.01161680583016772190518839380502 7:3 13:1 39:1 69:1 75:1 103:2 179:1 244:1 298:1 375:1 1066:1 1230:1 1324:1 1379:1 2363:1 2531:1 2958:1 4301:2 4546:1 5098:1 10530:1 10531:1 10532:1 10533:1 10534:1 10535:1 10536:1 100007:1 100008:1 100021:1 #
0.01161680583016772190518839380502 2:2 7:9 13:4 24:1 28:1 29:3 94:1 103:1 343:1 364:1 504:2 505:2 544:1 912:1 959:1 1246:1 1446:1 1465:1 1612:1 1761:1 2961:1 3790:1 4225:1 4743:1 4902:1 5029:1 5030:1 5031:1 5032:1 100008:1 100021:1 #
0.01161680583016772190518839380502 2:1 7:10 13:2 28:1 29:4 32:1 39:2 43:2 54:1 75:2 103:2 107:1 169:1 172:1 186:1 313:1 323:1 358:1 391:1 517:1 616:1 818:1 845:1 895:1 1041:1 1152:1 1309:1 1333:1 1367:1 1379:1 1445:1 1508:1 1558:1 1756:1 1865:1 1887:1 1994:1 2036:1 2180:1 2832:1 2952:1 3136:1 3217:1 3582:1 3732:1 3790:1 4523:1 4880:1 9565:1 9932:1 10654:1 11179:1 11180:1 11181:1 11182:1 11183:1 11184:1 11185:1 11186:1 11187:1 11188:1 11189:1 11190:1 11191:1 11192:1 100008:1 #
-0.01161680583016772190518839380502 7:3 10:1 13:4 28:2 29:2 32:1 34:1 43:1 65:2 71:1 75:2 93:1 94:2 97:4 98:2 100:1 105:1 118:1 169:1 172:3 179:2 186:3 298:1 304:1 343:1 520:1 541:1 561:1 612:1 699:1 790:1 1166:1 1222:1 1294:1 2429:1 2431:1 2440:1 2441:1 2445:1 2464:1 2923:1 3582:1 3930:1 5117:1 5118:1 5119:1 5120:1 5121:1 5122:1 5123:1 5124:1 5125:1 5126:1 5127:1 100007:1 100008:1 100010:1 100012:1 #
-0.01161680583016772190518839380502 7:5 13:2 28:2 29:2 39:1 65:4 68:1 75:5 97:2 98:1 100:1 103:2 172:2 186:2 298:2 315:1 375:1 448:1 497:3 498:3 533:1 571:1 774:1 1156:1 1222:1 1421:1 3582:1 4289:2 4728:1 4902:2 7904:2 8118:1 8722:1 8723:1 8724:2 8725:1 8726:1 8727:1 100007:1 100008:1 100014:1 #
-0.01161680583016772190518839380502 7:3 13:1 29:1 32:1 34:1 39:1 65:1 75:2 82:1 97:1 323:1 336:1 366:1 372:1 484:1 520:1 522:1 2106:1 2469:1 3574:1 3982:1 4453:1 6648:1 6649:1 6650:1 6651:1 6652:1 6653:1 100007:1 100008:1 100020:1 100021:1 #
-0.01161680583016772190518839380502 5:1 7:3 13:1 18:1 75:1 172:1 186:1 666:1 1063:1 1294:1 2259:2 2704:1 3501:1 7910:1 8091:1 100008:1 100021:1 #
0.01161680583016772190518839380502 7:5 13:4 25:1 28:3 29:1 39:1 60:1 91:1 112:1 122:1 137:1 172:1 179:1 186:1 1072:1 1454:1 1752:1 1753:1 4080:1 4648:1 5810:1 5811:1 5812:1 5813:1 100008:1 #
0.0094554730819953348303075202352375 7:6 13:3 25:1 29:1 32:1 39:1 46:2 54:1 60:1 93:1 98:1 100:1 179:1 222:1 273:1 275:1 323:2 336:1 519:1 538:1 680:1 1222:1 1435:1 1482:1 1753:1 1933:1 2407:1 2502:1 3014:1 3333:1 4116:1 4140:1 4141:1 4142:1 4143:1 4144:1 4145:1 4146:1 4147:1 4148:1 4149:1 4150:1 4151:1 4152:1 4153:1 4154:1 100007:1 100008:1 #
-0.01161680583016772190518839380502 5:1 7:3 16:1 18:1 118:1 165:1 238:1 933:1 1435:1 2552:1 2657:1 2703:1 3582:1 4169:1 6185:1 6186:1 6187:1 6188:1 100008:1 100012:1 #
-0.01161680583016772190518839380502 7:3 13:2 16:3 20:1 60:2 165:2 192:1 504:1 1438:1 1474:1 1491:1 4255:1 5878:1 6112:1 8254:1 8255:1 8256:1 8257:1 8258:1 8259:1 8260:1 8261:1 8262:1 100007:1 100008:1 100020:1 100021:1 #
0.01161680583016772190518839380502 2:1 7:3 10:1 13:2 29:1 30:1 32:1 34:1 48:1 94:1 98:1 231:1 248:1 319:1 364:1 1294:1 1339:1 1797:1 2454:1 3578:1 4663:3 4664:1 4665:1 4666:1 4667:1 4668:1 100008:1 100010:1 #
0.01161680583016772190518839380502 7:5 13:3 16:1 24:1 39:1 53:1 54:2 69:1 165:1 172:1 185:1 186:1 214:1 307:2 513:1 921:1 922:1 2043:1 3720:1 3806:1 8140:1 8141:1 8142:1 8143:1 8144:1 8145:1 8146:1 8147:1 8148:1 8149:1 8150:1 100008:1 100014:1 #
-0.0021047488858899118108203296628744 7:6 13:3 28:1 29:6 32:3 34:3 42:1 43:1 75:8 78:1 231:1 323:5 364:1 530:1 548:2 682:4 692:1 695:1 981:1 1022:4 1219:1 1367:1 1423:1 2322:1 2350:1 2385:4 2386:1 2387:1 2388:1 2389:1 2390:1 2391:1 2392:2 2393:2 2394:1 2395:1 2396:1 2397:1 2398:1 2399:1 2400:1 2401:1 2402:1 2403:1 2404:1 2405:1 2406:1 2407:1 2408:1 2409:1 2410:1 2411:1 2412:1 2413:1 2414:1 2415:1 2416:1 100008:1 100021:1 #
-0.01161680583016772190518839380502 2:1 7:1 13:1 32:1 34:1 39:1 75:1 94:1 97:2 300:1 319:1 786:1 873:1 1049:1 1077:1 1771:1 2110:1 2363:1 5111:1 5112:1 5113:1 5114:1 5115:1 5116:1 100008:1 100021:1 #
-0.01161680583016772190518839380502 7:2 13:1 75:1 98:1 323:1 720:1 721:1 722:1 723:1 724:1 725:1 726:1 727:1 728:1 100007:1 100008:1 100021:1 #
-0.01161680583016772190518839380502 2:2 7:2 13:2 16:1 24:1 39:1 42:1 46:1 65:1 75:3 94:1 103:1 107:1 275:1 299:1 364:1 448:1 522:1 604:1 818:1 1246:2 1350:1 1413:1 1959:1 2332:1 2519:1 3259:1 3283:1 4293:1 5816:1 5941:1 7279:1 7291:1 7292:1 7293:1 7294:1 7295:1 7296:1 7297:1 7298:1 7299:1 7300:1 100007:1 100008:1 100017:1 #
-0.01161680583016772190518839380502 7:2 13:3 65:2 75:1 94:1 97:1 112:1 113:1 114:1 116:1 220:1 299:1 375:1 1596:1 1610:1 2471:1 3014:1 3283:1 3502:2 3503:1 100008:1 100021:1 #
-0.01161680583016772190518839380502 7:6 13:2 28:1 29:2 39:1 50:1 75:2 90:1 94:1 97:1 98:1 100:4 172:1 186:1 323:1 391:1 419:1 604:1 692:1 1018:1 1788:1 1893:1 2099:1 2230:1 2307:1 2334:1 2680:1 3426:1 3954:1 4163:1 4460:1 4461:1 4462:1 4463:1 4464:1 4465:1 4466:1 4467:1 4468:1 4469:1 4470:1 4471:2 4472:1 4473:1 4474:1 4475:1 4476:1 4477:1 4478:1 100007:1 100008:1 100020:1 #
0.0073085960950207582917381721188121 2:1 7:7 13:4 28:2 29:5 30:5 32:1 34:1 42:1 43:2 75:2 82:1 94:2 97:2 98:1 100:1 103:2 172:1 186:1 231:4 310:1 313:1 315:2 323:1 364:1 375:1 448:1 486:1 492:1 495:1 517:1 522:1 584:1 620:1 636:1 721:1 760:1 788:1 845:1 1113:1 1130:1 1339:1 1867:1 1924:1 1960:1 1963:1 2144:1 2340:1 2767:1 2768:1 3028:1 3033:1 3073:1 3074:1 3221:1 3739:1 4730:1 4852:1 4994:1 5207:1 5957:2 6294:3 6295:2 6296:3 6297:1 6298:1 6299:1 6300:1 6301:1 6302:1 6303:1 6304:1 6305:1 6306:1 6307:1 6308:1 6309:1 6310:1 6311:1 6312:1 6313:1 6314:1 6315:1 100007:1 100008:1 100021:1 #
-0.01161680583016772190518839380502 2:1 7:8 13:2 28:1 29:1 65:2 75:1 90:1 94:1 98:1 100:2 172:3 179:1 186:3 220:1 231:1 313:1 375:1 486:1 517:1 620:1 690:1 699:1 780:1 1454:1 1655:1 1896:1 2106:1 2989:1 3270:1 3754:1 3889:1 3890:1 3891:1 3892:1 3893:1 3894:3 3895:1 3896:1 3897:1 3898:2 3899:1 3900:1 3901:1 3902:1 3903:1 100007:1 100008:1 100021:1 #
-0.00064860020575051497739027528410816 7:7 13:2 28:2 29:2 30:1 32:2 34:2 39:1 42:3 65:1 75:4 94:2 97:1 100:2 103:2 107:1 172:2 186:2 313:2 323:1 364:1 375:1 460:1 666:1 695:2 729:1 780:2 922:1 1024:1 1045:1 1156:1 1279:1 1302:1 1319:1 1339:1 1445:1 1468:1 1501:2 1755:1 2074:1 2077:1 2106:2 2175:1 2307:1 2455:2 2519:1 2744:1 2989:1 3068:2 3136:1 3804:1 3858:1 4193:1 5082:1 5817:1 6699:1 7006:1 9581:1 10245:1 10635:1 10636:2 10637:1 10638:1 10639:1 10640:1 10641:1 10642:1 10643:1 10644:1 10645:1 10646:1 10647:1 10648:1 10649:1 10650:1 10651:1 10652:1 10653:1 10654:1 10655:1 10656:1 10657:1 100008:1 100021:1 #
0.0038947065800820426795247897189256 7:1 10:1 13:1 1141:1 6923:1 100007:1 100008:1 100010:1 100021:1 #
-0.0063814748898720049033461698684278 7:4 13:2 28:1 32:1 34:1 54:1 75:1 90:1 91:1 97:1 172:1 186:1 307:1 313:3 323:1 351:1 407:1 411:1 517:1 522:2 695:2 778:1 1081:1 1279:1 1294:1 1318:1 1459:1 1501:2 2084:2 2410:1 3311:1 3322:1 3846:1 5082:1 6709:1 7005:1 7006:1 7007:1 7008:1 7009:1 7010:1 100008:1 100021:1 #
-0.0083966487827096328300235938968399 2:2 7:7 10:1 13:2 28:2 29:7 32:3 34:3 65:4 75:8 94:1 98:2 100:1 103:1 107:1 172:3 186:3 298:2 323:3 358:2 367:2 375:1 517:1 520:1 522:1 526:1 559:1 696:1 721:1 864:1 950:3 989:1 1033:1 1063:1 1152:1 1341:1 1345:1 1548:1 2055:1 2160:1 2317:1 2325:1 2519:1 2777:1 2972:1 3136:1 3165:1 3222:1 3319:1 3357:1 3415:1 3423:1 4013:1 4263:1 4477:1 5123:1 6171:1 6172:1 6569:1 9489:1 9490:1 9491:1 9492:2 9493:2 9494:1 9495:1 9496:1 9497:1 9498:1 9499:1 9500:1 9501:1 100007:1 100008:1 100014:1 #
0.0061666754211081500208768702009365 7:8 10:2 13:2 32:2 34:2 50:1 71:1 122:1 124:1 127:1 299:1 404:1 407:1 408:1 411:1 417:1 961:1 1120:1 1485:1 1516:1 1669:1 1670:1 1674:1 2316:1 3122:1 3123:1 3124:1 3125:1 3126:1 3127:1 3128:1 3129:1 100008:1 100010:1 #
0.0047217077814574806571279452782619 7:4 13:2 28:1 29:3 32:1 34:1 75:3 100:2 725:1 950:2 1594:1 1768:1 2394:1 3360:1 4301:1 8475:1 11488:1 11489:1 11490:1 11491:1 11492:1 11493:1 11494:1 100007:1 100008:1 100014:1 100021:1 #
0.00086117055327766117711618676366925 7:4 13:2 28:2 29:1 39:1 42:2 43:1 44:1 46:1 75:4 97:2 100:1 172:1 186:1 211:1 310:1 364:1 512:1 518:1 715:1 1324:1 1339:1 1484:1 1587:1 2077:1 2093:1 2262:1 2268:2 2269:2 2270:1 2271:1 2272:1 2273:1 2274:1 2317:1 2407:1 3481:1 4769:1 4873:1 5200:1 5762:1 6406:1 7509:1 7872:1 7873:1 7874:1 7875:1 7876:1 7877:1 100007:1 100008:1 100014:1 100021:1 #
-0.01161680583016772190518839380502 7:2 13:5 112:2 113:1 118:2 136:1 179:1 304:1 831:1 832:1 1072:1 10426:1 10427:1 100008:1 100021:1 #
-0.01161680583016772190518839380502 7:5 13:1 28:1 119:1 179:1 258:1 395:1 911:1 1597:1 4511:1 6420:1 6421:1 100008:1 100014:1 100021:1 #
-0.01161680583016772190518839380502 7:4 13:2 50:1 121:1 122:1 123:1 124:1 125:1 127:1 2227:1 4776:1 100008:1 #
-0.01161680583016772190518839380502 7:8 13:2 29:2 32:1 34:1 39:2 75:1 94:2 103:2 136:1 231:1 375:1 448:1 517:1 607:1 618:1 669:1 671:1 682:4 699:1 708:1 780:1 790:2 1022:1 1081:1 1216:1 1494:1 1619:1 2167:1 2411:1 2532:1 2628:1 3689:1 3906:1 3992:1 4689:1 4852:1 4978:1 4979:1 4980:1 4981:1 4982:1 4983:1 4984:1 4985:1 100008:1 100014:1 100021:1 #
0.010885280608679796451876420348981 7:6 13:4 28:1 29:1 32:1 34:1 37:1 42:1 43:2 94:2 209:1 497:1 498:1 499:1 500:1 501:1 502:1 503:1 504:1 505:1 506:1 507:1 508:1 509:1 510:1 511:1 512:1 100008:1 100021:1 #
-0.01161680583016772190518839380502 7:2 13:3 112:1 298:1 1072:1 5412:1 5413:1 100008:1 #
-0.01161680583016772190518839380502 7:4 13:2 50:1 121:1 122:1 123:1 124:1 125:1 127:1 1678:1 6040:1 8655:1 100008:1 #
-0.010927486849109825997605760505849 7:4 13:4 29:3 39:1 75:6 90:1 94:1 97:1 100:1 103:2 112:1 113:1 211:1 231:1 304:1 560:1 715:1 780:1 792:1 796:1 797:1 831:1 832:1 950:1 1012:1 1339:1 2046:1 2143:2 2289:1 2455:1 2857:1 3606:1 3674:1 3708:1 4868:1 5277:1 8721:1 10866:1 10867:1 10868:1 10869:1 10870:1 100008:1 100021:1 #
-0.01161680583016772190518839380502 7:4 13:2 50:1 122:1 124:1 127:1 220:1 1678:1 3124:1 8960:1 8961:1 8962:1 100008:1 #
0.0010328177290035945798396532779861 7:2 8:1 10:1 13:1 39:1 75:1 1045:1 1341:1 1416:1 1610:1 3140:1 3661:1 8612:1 100007:1 100008:1 100010:1 100021:1 #
-0.010148986023683994467381452864174 7:6 13:2 29:2 32:1 34:1 54:1 75:2 118:4 343:2 358:1 373:1 519:1 620:1 854:2 1156:2 1501:1 1629:1 2193:1 2363:1 4016:1 4078:2 4268:1 4348:1 4462:1 9113:1 9639:1 9652:1 9951:1 9952:1 9953:1 9954:1 9955:1 100008:1 #
0.01161680583016772190518839380502 7:6 13:1 39:1 65:1 75:2 299:1 313:1 358:1 518:1 674:1 1507:1 2018:1 2632:1 3157:1 3565:1 3566:1 3567:1 3568:1 3569:1 3570:1 3571:1 3572:1 3573:1 3574:1 3575:1 3576:1 3577:1 3578:1 100007:1 100008:1 100021:1 #
0.01161680583016772190518839380502 7:5 13:1 172:1 186:1 236:1 706:1 1292:1 1455:1 7619:1 10712:1 100008:1 100021:1 #
0.01161680583016772190518839380502 7:2 10:1 13:2 65:2 172:1 186:1 4820:1 10276:1 10479:1 10480:1 10481:1 100008:1 100010:1 100021:1 #
0.01161680583016772190518839380502 7:2 13:2 28:1 29:1 41:1 54:1 75:1 98:1 323:2 557:1 604:1 1504:1 1601:1 2022:1 3002:1 3280:1 7447:1 7559:1 7560:1 7561:1 7562:1 100007:1 100008:1 100021:1 #
0.01161680583016772190518839380502 2:1 7:4 13:1 28:1 29:2 32:1 34:1 39:1 54:1 75:3 94:1 103:1 908:1 1831:1 1832:1 1835:1 2921:1 3242:1 3245:1 3246:1 3247:1 3248:1 3249:1 3250:1 3251:1 3252:1 100007:1 100008:1 100021:1 #
0.01161680583016772190518839380502 7:1 13:1 65:1 774:1 1733:1 3283:1 3555:1 3556:1 100007:1 100008:1 100021:1 #
-0.01161680583016772190518839380502 7:1 13:5 28:1 29:2 75:2 78:1 97:2 98:2 103:1 172:3 186:3 306:1 307:1 323:2 481:1 484:1 554:2 582:1 584:1 755:1 769:1 787:1 920:1 933:1 1064:1 2023:1 3005:1 3218:1 3361:1 3781:1 6078:1 7402:1 8407:1 9254:1 10282:1 10379:1 11396:1 11397:1 11398:1 11399:1 100008:1 100021:1 #
-0.01161680583016772190518839380502 7:2 13:1 1177:1 2316:1 10471:1 100008:1 100014:1 100021:1 #
-0.01161680583016772190518839380502 7:1 13:2 29:2 39:1 46:1 65:1 75:1 97:1 100:1 323:1 364:1 1318:1 1619:1 2297:1 3253:1 3258:1 3259:1 3260:1 3704:1 4690:1 9519:1 9520:1 9521:1 9522:1 9523:1 9524:1 100008:1 100017:1 100021:1 #
0.01161680583016772190518839380502 7:3 13:2 32:1 34:1 37:1 75:4 94:1 640:1 702:1 856:1 1024:1 2632:1 4334:1 4421:1 4422:1 5198:1 7378:1 8068:1 10294:1 100007:1 100008:1 100021:1 #
0.01161680583016772190518839380502 7:4 10:1 13:2 20:1 32:1 34:1 54:1 60:1 84:1 97:1 172:1 186:1 214:1 220:1 920:1 921:1 922:1 923:1 924:1 925:1 926:1 927:1 928:1 929:1 930:1 931:1 932:1 933:2 934:1 935:1 100008:1 100010:1 100021:1 #
0.01161680583016772190518839380502 7:2 13:2 29:1 32:1 34:1 70:1 75:1 97:1 172:1 185:1 186:1 920:1 923:1 932:1 935:1 2589:1 2703:1 3781:1 8398:1 8747:1 100008:1 100021:1 #
0.01161680583016772190518839380502 7:3 13:1 16:1 32:1 34:1 54:1 78:1 97:1 103:1 160:1 238:1 246:1 247:1 248:1 306:1 1294:1 2603:1 2796:1 2797:1 2798:1 2799:1 2800:1 2801:1 100007:1 100008:1 100021:1 #
0.01161680583016772190518839380502 5:1 7:4 10:1 13:2 29:1 32:1 34:1 75:1 97:1 172:1 186:1 1294:1 2471:1 2731:1 3760:1 6105:1 6839:1 6880:1 6881:1 6902:1 6903:1 6904:1 6905:1 6906:1 6907:1 100008:1 100010:1 100021:1 #
-0.01161680583016772190518839380502 7:5 13:3 29:1 65:1 75:2 112:1 220:1 654:1 673:1 1043:1 1045:1 1050:1 1051:1 1052:1 1053:1 1054:1 1072:1 1073:1 1074:1 100008:1 #
-0.01161680583016772190518839380502 2:1 7:4 13:1 28:2 37:1 343:1 2667:1 2668:1 5105:1 5106:1 5107:1 5108:1 5109:1 5110:1 100008:1 100021:1 #
-0.0036890223056915312505044113322583 7:1 13:4 29:1 32:1 34:1 43:1 54:1 65:1 69:1 75:3 84:1 100:1 103:1 231:1 307:1 315:1 373:1 432:1 448:1 486:1 517:1 518:1 604:1 645:1 933:1 1158:1 1303:1 1501:1 1865:1 1875:1 1886:1 2583:1 3667:1 3816:1 4163:1 5177:1 5419:1 5420:1 5421:1 5422:1 5423:1 5424:1 5425:1 5426:1 5427:1 100008:1 100021:1 #
-0.01161680583016772190518839380502 7:5 13:1 25:1 28:4 29:1 32:3 34:2 39:1 43:2 46:1 65:2 75:5 94:1 107:1 179:1 364:2 391:1 519:1 689:1 770:1 846:1 915:1 1324:1 1339:1 1710:1 1717:1 2834:1 3068:1 3187:1 3973:1 4139:1 4514:1 5289:1 5296:1 5419:1 6967:1 10114:1 10225:1 10607:1 11495:1 11496:1 11497:1 11498:1 11499:1 11500:1 11501:1 11502:1 11503:1 11504:1 11505:1 11506:1 11507:1 11508:1 100007:1 100008:1 100021:1 #
0.0068440383733439254243524629828244 7:2 10:1 13:2 28:1 29:1 39:1 98:1 147:1 179:3 320:1 323:1 1121:1 1455:1 2190:1 5005:1 6417:1 10442:1 10443:1 10444:1 10445:1 10446:1 100007:1 100008:1 100010:1 100014:1 #
0.01161680583016772190518839380502 7:2 13:1 179:1 419:1 893:1 4787:1 8057:1 8058:1 100007:1 100008:1 100014:1 100021:1 #
0.01161680583016772190518839380502 7:1 13:1 65:1 774:1 775:1 1733:1 3555:1 3556:1 100007:1 100008:1 100021:1 #
-0.0039262736265460833340323887341583 7:5 10:1 13:1 28:1 30:1 32:1 34:1 39:2 43:4 70:1 75:3 90:2 91:2 94:1 98:2 172:1 186:1 313:1 323:2 364:2 407:1 411:1 577:2 744:2 755:1 780:1 801:1 1153:1 1459:1 1464:1 1606:1 1893:2 2106:2 2468:1 4627:2 4628:1 4629:2 4630:1 4631:2 4632:1 4633:1 4634:1 4635:1 100008:1 100010:1 100021:1 #
-0.01161680583016772190518839380502 7:5 10:1 13:1 28:1 29:2 39:1 65:2 75:2 90:1 97:1 98:2 100:1 172:1 179:1 186:1 231:1 624:1 655:1 971:1 1152:1 1805:1 1854:1 2036:1 2445:1 3047:1 3603:1 3990:1 6655:1 6656:1 6657:1 6658:1 6659:1 6660:1 6661:1 6662:1 6663:1 6664:1 6665:1 100007:1 100008:1 100010:1 100020:1 100021:1 #
0.01161680583016772190518839380502 7:2 13:1 18:1 32:1 34:1 60:1 70:1 97:2 169:1 172:1 186:1 299:1 1081:1 1948:1 3191:1 5513:1 5514:1 5515:1 5516:1 5517:1 5518:1 5519:1 5520:1 5521:1 5522:1 5523:1 5524:1 100008:1 100014:1 #
0.01161680583016772190518839380502 7:3 13:1 28:1 29:2 75:2 78:1 103:2 366:1 503:1 513:1 525:1 2303:1 3931:1 4818:1 5478:1 5479:1 5480:1 5481:1 5482:1 100007:1 100008:1 #
0.01161680583016772190518839380502 7:5 8:1 13:1 28:1 29:1 65:1 75:2 97:1 298:1 323:1 517:1 584:1 645:1 762:1 777:1 786:1 788:2 799:2 820:1 966:1 1152:1 1770:1 1896:1 2677:1 4334:1 10407:1 10412:1 10413:1 10414:1 10415:1 10416:1 10417:1 10418:1 100007:1 100008:1 100021:1 #
0.01161680583016772190518839380502 7:2 13:2 75:1 103:1 124:1 147:1 323:1 1459:1 1793:1 3525:1 3526:1 3527:1 3528:1 3529:1 100007:1 100008:1 100020:1 100021:1 #
-0.01161680583016772190518839380502 7:3 13:2 28:1 29:1 50:1 54:1 103:2 358:1 459:1 519:1 604:1 616:1 996:1 1415:1 1501:1 2077:1 2183:1 2185:1 2455:1 2680:1 4462:1 4465:1 6267:1 6268:1 6269:1 6270:1 6271:1 6272:1 6273:1 100008:1 100012:1 #
0.01161680583016772190518839380502 7:6 13:3 28:1 29:3 32:1 34:1 39:1 43:1 46:1 54:2 75:5 97:1 98:2 100:1 103:2 112:1 118:2 152:1 172:2 186:2 298:1 307:2 323:1 364:2 381:1 391:1 501:1 517:1 520:1 567:1 582:1 706:1 715:1 744:1 799:1 807:1 990:1 1024:1 1041:1 1044:1 1072:1 1081:1 1249:1 1284:1 1558:1 2854:2 3014:1 3023:1 6169:1 6170:1 6178:1 6319:1 6375:1 6376:1 6377:1 6378:1 6379:1 6380:1 6381:1 6382:1 6383:1 6384:1 6385:1 100007:1 100008:1 100010:1 100014:1 100021:1 #
-0.01161680583016772190518839380502 7:1 13:2 28:1 29:1 54:1 65:1 75:1 94:2 100:1 375:1 779:1 795:1 1379:1 1388:1 2303:1 3259:1 3557:1 3709:1 3906:1 3907:1 4132:1 5061:1 5279:1 5280:1 5281:1 100008:1 100021:1 #
0.01161680583016772190518839380502 7:5 13:2 38:1 172:1 186:1 298:1 343:1 504:1 505:1 858:1 1119:1 1226:1 1445:1 5031:1 7146:1 8322:1 8323:1 100008:1 100021:1 #
-0.01161680583016772190518839380502 7:3 13:1 75:1 94:2 100:1 118:2 172:1 186:1 440:1 1045:1 1222:1 1341:1 1599:1 1600:1 1601:1 1602:1 1603:1 1604:1 1605:1 1606:1 1607:1 1608:1 1609:1 1610:1 1611:1 1612:1 100008:1 100021:1 #
-0.01161680583016772190518839380502 13:1 39:1 786:1 787:1 1294:1 1309:1 100008:1 100019:1 100021:1 #
-0.01161680583016772190518839380502 7:4 13:3 28:1 112:1 298:3 1072:1 1230:2 8333:1 8334:1 8335:1 8336:1 8337:1 100008:1 100021:1 #
-0.01161680583016772190518839380502 7:1 13:1 18:1 172:1 186:1 247:1 4605:1 6867:1 6868:1 6869:1 100008:1 100017:1 100020:1 100021:1 #
0.01161680583016772190518839380502 7:5 10:1 13:1 28:1 29:4 32:1 34:1 37:1 75:5 94:1 103:1 127:2 313:1 364:1 375:1 604:1 779:1 950:1 1170:1 1200:1 1201:1 1309:1 1409:1 2004:1 2205:1 2645:1 3320:1 3321:1 3322:1 3323:1 3324:1 3325:1 3326:1 3327:1 100007:1 100008:1 100010:1 100012:1 #
0.0039949382680514958915418688434329 7:7 13:2 29:1 32:3 34:3 37:1 39:3 75:4 94:1 100:1 179:1 519:1 940:1 952:2 1033:1 1131:1 1284:1 1391:1 1854:1 2779:1 3481:1 4421:1 4928:1 5424:1 6129:1 6130:1 6131:2 6183:1 6662:1 6782:1 7713:1 8068:1 8075:1 8079:1 9155:1 9157:1 9158:1 9159:1 9160:1 9161:1 100007:1 100008:1 #
0.01161680583016772190518839380502 7:4 13:1 28:1 29:2 32:1 34:1 37:1 46:1 75:1 364:1 933:1 1324:1 5915:1 6883:1 10252:1 10494:1 10495:1 10496:1 10497:1 10498:1 100007:1 100008:1 100014:1 100021:1 #
0.0024269624036892690349676016126068 2:2 7:7 10:1 13:1 28:1 29:1 37:1 46:1 65:1 75:4 78:1 97:1 100:1 103:1 364:1 369:1 496:1 518:1 721:1 1246:1 1319:1 1854:1 2262:1 2919:1 3086:1 3196:1 3432:1 3485:1 4498:1 4769:1 5762:1 5782:1 5783:1 5784:1 5785:2 5786:1 5787:1 5788:1 5789:1 5790:1 5791:1 5792:1 100007:1 100008:1 100010:1 100021:1 #
0.0044991818786781793623741343424172 7:8 13:3 28:1 37:2 65:1 75:2 204:2 205:1 248:1 323:1 375:1 473:1 504:2 505:2 686:1 707:1 837:1 1302:1 1960:2 3582:1 3706:1 7968:3 100008:1 #
0.01161680583016772190518839380502 13:1 46:1 1222:1 3689:1 5577:1 100007:1 100008:1 100019:1 100021:1 #
0.01161680583016772190518839380502 7:1 13:1 512:1 786:1 1045:1 2226:1 100007:1 100008:1 100021:1 #
0.01161680583016772190518839380502 7:1 13:1 304:1 526:1 1078:1 100007:1 100008:1 #
-0.01161680583016772190518839380502 7:1 13:1 29:1 75:1 323:1 775:1 909:1 1156:1 2246:1 4078:1 11278:1 100008:1 100021:1 #
0.0039298191229882742728229949591423 7:6 13:1 65:1 75:1 168:1 244:1 323:1 407:1 411:1 460:1 725:1 1230:2 1339:1 1854:1 3944:1 3945:1 3946:1 3947:1 3948:1 3949:1 3950:1 3951:1 3952:1 100007:1 100008:1 100021:1 #
0.01161680583016772190518839380502 7:4 13:1 28:1 29:1 39:1 75:1 220:1 519:1 544:1 856:1 1216:1 3513:1 7368:1 8071:1 8627:1 10713:1 10714:1 10715:1 10716:1 10717:1 100007:1 100008:1 100021:1 #
0.0055722571211391461881712316994708 5:1 7:4 13:2 28:2 29:2 32:1 34:1 75:1 94:1 97:2 100:2 103:1 169:1 172:2 186:2 215:1 364:1 522:1 715:1 818:1 1302:2 1339:1 1347:1 1612:1 2203:2 2428:1 2429:1 2430:1 2433:1 2457:1 2603:1 4925:1 4926:1 4927:1 4928:2 4929:1 4930:1 4931:1 100007:1 100008:1 #
-0.01161680583016772190518839380502 7:5 13:1 28:1 94:1 98:1 100:1 103:1 327:1 332:1 375:2 517:1 1216:1 1880:1 2106:1 2175:1 3426:1 4132:1 4133:1 4134:1 4135:1 4136:1 4137:1 4138:1 4139:1 100007:1 100008:1 100020:1 100021:1 #
-0.010297207157559702325744233064597 7:5 13:2 28:2 29:2 32:1 34:1 39:1 65:1 75:9 90:1 94:1 97:1 98:1 103:2 231:1 313:1 323:2 375:1 473:1 484:1 584:2 626:1 630:1 685:1 686:1 690:1 725:1 984:1 989:1 1446:1 1484:1 1501:1 1589:1 2036:1 2211:1 2271:1 2952:1 3056:1 4845:1 4923:1 5234:1 5324:1 7723:1 9872:1 10381:1 10382:1 10383:1 10384:1 10385:1 10386:1 10387:1 10388:1 10389:1 10390:1 10391:1 10392:1 100007:1 100008:1 100021:1 #
0.01161680583016772190518839380502 7:2 10:2 13:2 137:1 765:1 2731:1 2732:1 4080:1 100008:1 100010:1 100021:1 #
0.01161680583016772190518839380502 7:2 10:1 13:1 39:2 98:1 298:1 407:1 411:1 775:1 790:1 966:1 1415:1 1499:1 2458:1 2512:2 5019:1 5020:1 5021:1 5022:1 5023:1 5024:1 5025:1 100007:1 100008:1 100010:1 #
0.01161680583016772190518839380502 7:1 13:1 512:1 766:1 2226:1 2227:1 100007:1 100008:1 100021:1 #
-0.01161680583016772190518839380502 7:2 13:1 29:1 39:1 46:1 65:1 75:1 94:1 100:1 1318:1 1619:1 3253:2 3254:1 3255:1 3256:1 3257:1 3258:1 3259:1 3260:1 100008:1 100017:1 100021:1 #
-0.01161680583016772190518839380502 7:3 13:3 28:1 39:1 75:2 94:1 97:1 112:1 298:1 300:1 304:1 1056:1 1072:1 1215:1 1230:1 2414:1 3066:1 8507:1 8508:1 8509:1 8510:1 8511:1 8512:1 100008:1 100021:1 #
-0.011057380234858563486377569518027 7:2 13:1 28:1 29:2 39:1 43:2 65:1 75:3 97:1 117:1 168:1 172:1 186:1 241:1 530:1 607:1 1156:1 1158:1 1278:1 1933:2 1970:1 2677:1 3655:1 3820:1 4017:1 4727:1 6807:1 6808:1 6809:1 6810:1 6811:1 6812:1 6813:1 6814:1 6815:1 6816:1 100008:1 100021:1 #
0.0094678034296049179419085817244195 7:5 13:3 29:1 37:1 75:3 94:1 98:1 107:1 205:1 551:1 1727:1 1854:1 2534:1 2654:1 2918:1 3059:1 3212:1 4877:1 4878:1 4903:1 5195:1 5573:1 5574:1 5575:1 5576:1 100007:1 100008:1 100021:1 #
-0.010443770517600885552877976181207 2:1 7:3 13:1 28:1 84:4 97:1 172:1 186:1 205:1 310:1 313:1 323:2 475:1 548:1 554:1 555:1 818:1 2032:1 2462:1 3117:1 3404:1 3985:1 4412:1 4893:2 7449:1 9622:1 9623:1 9624:1 9625:1 9626:1 9627:2 100008:1 100020:1 100021:1 #
0.01161680583016772190518839380502 2:1 7:4 13:1 28:1 29:1 30:1 65:1 75:1 94:1 143:1 146:1 172:1 186:1 298:1 2214:1 3047:1 3280:1 3319:1 5944:1 9887:1 10521:1 10741:1 10742:1 10743:1 10744:1 100007:1 100008:1 100014:1 100021:1 #
-0.01161680583016772190518839380502 7:5 13:1 32:1 34:1 94:3 98:1 107:1 304:1 517:1 544:2 692:1 780:1 788:1 799:1 961:1 981:1 1156:2 1589:1 2033:1 2168:1 4514:1 5147:1 7284:1 7667:1 8614:1 10047:1 10048:1 10049:1 10050:1 10051:1 10052:1 10053:1 100008:1 100014:1 100021:1 #
0.01161680583016772190518839380502 7:1 13:2 28:1 124:1 147:1 1273:1 1274:1 4549:1 4550:1 100007:1 100008:1 100020:1 100021:1 #
0.01161680583016772190518839380502 7:1 13:1 512:1 1499:1 2478:1 4290:1 4307:1 100007:1 100008:1 100021:1 #
-0.01161680583016772190518839380502 7:1 13:1 29:1 42:1 46:1 75:2 107:1 137:1 172:1 186:1 484:1 501:1 502:1 1912:1 3990:1 4799:1 4800:1 8330:1 8331:1 100008:1 100020:1 100021:1 #
0.01161680583016772190518839380502 7:2 13:1 46:1 65:1 75:1 1132:1 1221:1 1222:1 1932:1 1933:1 1934:1 1935:1 100007:1 100008:1 100014:1 100021:1 #
0.01161680583016772190518839380502 7:4 13:1 152:1 407:1 411:1 527:2 926:1 1849:1 1855:1 4772:1 4773:1 4774:2 4775:1 4776:1 100008:1 100010:1 #
-0.01161680583016772190518839380502 13:1 39:1 172:1 186:1 2223:1 2224:1 2225:1 100008:1 100020:1 100021:1 #
-0.01161680583016772190518839380502 7:1 13:1 29:1 30:1 67:1 75:1 100:1 518:1 762:1 1279:1 1504:1 2077:1 2666:1 4353:1 8950:1 9452:1 9453:1 100008:1 100020:1 100021:1 #
-0.01161680583016772190518839380502 3:1 7:1 13:1 32:1 34:1 65:1 75:1 172:1 186:1 315:1 544:1 933:1 1174:1 2307:1 5100:1 5101:1 5102:1 100008:1 #
0.01161680583016772190518839380502 2:1 7:4 10:1 13:3 28:1 43:1 75:2 84:1 97:1 98:1 100:1 103:2 107:1 234:1 323:1 364:1 765:1 766:1 774:1 922:1 933:1 1253:1 1341:1 1718:1 1785:1 1807:1 1865:1 1875:1 2582:1 3667:1 3748:1 5421:1 5422:1 8324:1 8325:1 8326:1 8327:1 8328:1 8329:1 100007:1 100008:1 100010:1 100017:1 100021:1 #
0.0067322196900218497783718873961334 2:1 7:5 10:1 13:1 28:1 29:1 65:1 75:1 82:1 93:1 94:1 97:1 100:1 107:1 313:1 323:2 381:1 797:1 850:1 950:1 1063:1 1246:1 1378:1 1379:1 1380:1 1381:1 1382:1 1383:1 1384:1 1385:1 1386:1 1387:1 1388:1 1389:1 1390:1 1391:1 1392:1 1393:1 100007:1 100008:1 100010:1 100021:1 #
0.01161680583016772190518839380502 7:3 13:2 28:2 32:1 34:1 43:1 50:1 75:1 97:1 211:1 323:1 1668:1 1929:1 2199:1 2786:1 2921:1 11478:1 11479:1 11480:1 11481:1 11482:1 11483:1 100007:1 100008:1 100014:1 #
0.01161680583016772190518839380502 7:1 13:2 124:1 147:1 3495:1 100007:1 100008:1 100020:1 100021:1 #
0.01161680583016772190518839380502 7:1 13:2 124:1 147:1 6524:1 6525:1 100007:1 100008:1 100020:1 100021:1 #
0.01161680583016772190518839380502 7:1 13:2 124:1 147:1 7016:1 7017:1 100007:1 100008:1 100020:1 100021:1 #
-0.01161680583016772190518839380502 7:5 13:2 32:1 34:1 65:1 75:3 98:1 358:1 458:1 484:1 640:1 666:1 696:1 940:1 941:1 953:1 1103:1 1339:1 1927:1 1933:1 2015:1 4690:1 5146:1 5147:1 5148:1 5149:1 5150:1 5151:1 5152:1 100008:1 100021:1 #
0.01161680583016772190518839380502 7:2 13:2 172:1 186:1 4872:1 11042:1 11043:1 100007:1 100008:1 100020:1 100021:1 #
-0.01161680583016772190518839380502 13:1 28:1 29:1 75:2 94:1 374:1 452:1 3259:1 4923:1 6886:1 7946:1 8573:1 10329:1 100008:1 100019:1 100021:1 #
0.01161680583016772190518839380502 7:3 13:1 29:1 39:1 65:1 244:2 407:1 411:1 1319:1 2918:1 4263:1 8672:1 8673:1 8674:1 8675:1 8676:1 100007:1 100008:1 100021:1 #
-0.01161680583016772190518839380502 13:2 65:1 75:2 100:1 5176:1 8756:1 8757:1 8758:1 8759:1 8760:1 100008:1 100021:1 #
0.01161680583016772190518839380502 7:4 13:1 28:1 75:1 172:1 186:1 298:1 323:1 686:1 790:1 2245:1 2641:1 2670:1 2781:1 6796:1 8931:1 8932:1 100007:1 100008:1 100021:1 #
-0.01161680583016772190518839380502 7:2 13:3 65:2 75:1 97:1 112:1 113:1 304:1 375:1 768:1 832:1 1080:1 1634:1 2363:1 3283:1 3502:1 8165:1 11125:1 100008:1 100021:1 #
0.01161680583016772190518839380502 7:2 13:1 29:1 32:1 34:1 94:1 172:1 186:1 1081:1 1415:1 2226:1 2626:1 2781:1 3260:1 7020:1 8420:1 8421:1 8422:1 8423:1 100007:1 100008:1 100021:1 #
0.01161680583016772190518839380502 7:3 13:1 16:1 298:1 1438:1 1612:1 2702:1 2703:1 7211:1 7212:1 7213:1 7214:1 7215:1 100007:1 100008:1 100021:1 #
-0.01161680583016772190518839380502 3:1 7:4 13:1 48:1 127:1 200:1 394:1 11465:1 11466:1 11467:1 11468:1 11469:1 100008:1 100012:1 100020:1 #
-0.01161680583016772190518839380502 7:1 13:2 1465:1 1612:1 100008:1 100021:1 #
-0.01161680583016772190518839380502 7:8 13:3 29:2 39:1 59:1 65:2 75:3 94:1 98:1 99:1 103:1 172:1 186:1 200:1 231:1 307:1 369:1 370:1 503:1 522:1 604:2 692:1 757:1 799:1 940:2 941:1 1446:1 1552:1 2303:1 2469:1 3222:1 3540:1 3712:1 4690:1 4928:1 4993:1 7973:1 8249:1 8250:1 8251:1 8252:1 8253:1 100008:1 #
0.01161680583016772190518839380502 7:1 13:1 262:1 1221:1 1222:1 1299:1 3090:1 3091:1 3092:1 3093:1 100007:1 100008:1 #
0.01161680583016772190518839380502 7:1 13:2 105:1 434:1 2766:1 100007:1 100008:1 100021:1 #
-0.01161680583016772190518839380502 5:1 7:1 13:2 160:1 343:1 100008:1 100021:1 #
-0.01161680583016772190518839380502 7:1 13:1 28:2 29:2 39:1 42:1 94:3 343:1 535:1 911:1 1309:1 1601:1 2040:1 2572:1 3283:1 6822:1 6823:1 6824:1 100008:1 100021:1 #
-0.01161680583016772190518839380502 7:1 13:3 29:2 39:2 42:1 69:2 97:1 100:1 112:1 113:1 136:1 299:1 300:1 375:1 786:1 831:1 832:1 1044:1 1158:1 1413:1 3241:1 4669:1 4670:1 4671:1 4672:1 4673:1 100008:1 100021:1 #
-0.0015440656565484200783699986203601 2:3 7:22 10:3 13:7 28:9 29:9 30:1 32:3 34:3 39:1 42:4 43:3 54:2 65:1 75:12 91:1 92:1 94:8 97:1 98:4 100:7 103:3 107:2 172:5 179:1 186:5 204:1 227:1 231:2 283:1 315:2 323:5 325:1 343:1 375:2 397:2 452:1 460:1 522:2 544:2 548:2 601:1 604:1 621:2 645:1 653:1 696:1 715:1 754:1 762:4 765:1 769:1 780:2 801:1 824:1 1081:1 1113:2 1319:1 1324:1 1336:1 1399:1 1407:1 1552:1 1587:2 1647:1 1893:2 2087:2 2095:1 2106:2 2129:4 2135:1 2230:1 2299:1 2307:1 2402:1 2403:1 2455:2 2519:3 2523:1 2525:4 2575:1 2744:4 2764:1 2803:1 2807:1 2817:1 2961:1 3204:3 3260:1 3399:1 3605:1 3627:3 3790:1 3817:1 4211:1 4537:1 4630:2 4697:1 4730:1 4852:2 5091:1 5430:1 5462:1 5803:3 6015:1 6152:1 6706:7 6707:2 6708:1 6709:1 6710:1 6711:1 6712:2 6713:1 6714:1 6715:1 6716:1 6717:2 6718:1 6719:1 6720:1 6721:1 6722:1 6723:1 6724:1 6725:1 6726:1 6727:1 6728:2 6729:1 6730:1 6731:1 6732:1 6733:1 6734:1 6735:1 6736:1 6737:1 6738:1 6739:1 6740:1 6741:1 6742:1 6743:1 6744:1 6745:1 6746:1 6747:1 6748:1 6749:1 6750:1 6751:1 6752:1 6753:1 6754:1 6755:1 6756:1 6757:1 6758:1 6759:1 6760:1 6761:1 6762:1 100007:1 100008:1 100010:1 100021:1 #
0.01161680583016772190518839380502 7:1 13:1 262:1 1221:1 1222:1 1513:1 1514:1 1515:1 1516:1 1517:1 100007:1 100008:1 #
0.01161680583016772190518839380502 7:1 13:1 512:1 766:1 1499:1 8332:1 100007:1 100008:1 100021:1 #
-0.01161680583016772190518839380502 7:3 13:1 28:1 46:1 93:1 119:1 299:1 304:1 323:1 790:1 1494:1 1933:1 100008:1 100021:1 #
-0.01161680583016772190518839380502 2:1 13:2 29:1 103:1 323:1 448:1 979:1 1412:1 2641:1 2887:1 6763:1 6764:1 6765:1 6766:1 100008:1 100014:1 100021:1 #
-0.01161680583016772190518839380502 2:1 13:1 28:1 29:1 32:1 42:1 46:1 75:1 103:1 227:1 313:1 323:3 555:1 640:1 690:1 1276:1 1528:1 1559:1 2211:1 3216:1 3217:1 5209:1 6066:1 6067:1 6068:1 6069:1 6070:1 6071:1 6072:1 6073:1 6074:1 100007:1 100008:1 100017:1 100020:1 100021:1 #
0.01161680583016772190518839380502 7:3 13:1 375:1 1133:1 2199:1 2933:1 3319:1 3928:1 8848:1 100007:1 100008:1 100012:1 #
0.01161680583016772190518839380502 7:4 39:1 473:1 959:1 1300:1 1301:1 1302:1 1303:1 1304:1 1305:1 100007:1 100008:1 100021:1 #
-0.01161680583016772190518839380502 7:3 13:1 75:1 1343:1 5065:1 6759:1 10405:1 10419:1 100008:1 100020:1 100021:1 #
-0.01161680583016772190518839380502 7:6 13:1 28:1 75:1 287:1 307:1 313:1 323:2 484:1 696:1 1933:1 1971:1 2053:1 3646:1 4993:1 4994:1 4995:1 4996:1 4997:1 4998:1 4999:1 5000:1 5001:1 5002:1 5003:1 5004:1 5005:1 5006:1 100008:1 100020:1 100021:1 #
0.01161680583016772190518839380502 7:2 13:1 1221:1 1222:1 1452:1 1679:1 2032:1 2743:1 100007:1 100008:1 100021:1 #
-0.01161680583016772190518839380502 7:1 13:3 112:1 113:1 304:1 831:1 832:1 8248:1 100008:1 100021:1 #
0.01161680583016772190518839380502 5:1 7:1 13:2 16:5 18:3 146:1 152:1 162:1 407:1 411:1 925:1 1143:2 1192:1 1484:1 1485:1 1758:1 3759:1 4777:1 4778:1 4779:1 4780:1 4781:1 4782:1 4783:1 4784:1 4785:1 4786:1 4787:1 5320:1 5974:1 6049:1 6700:1 9413:1 9414:1 100008:1 100010:1 100021:1 #
0.01161680583016772190518839380502 7:2 13:2 29:1 137:1 851:1 1768:1 6430:1 6557:1 100007:1 100008:1 100020:1 100021:1 #
0.01161680583016772190518839380502 7:3 13:3 105:2 152:2 179:1 2647:1 2648:1 2649:1 2650:1 2651:1 100008:1 100010:1 100021:1 #
0.01161680583016772190518839380502 7:4 10:1 13:2 28:1 137:1 172:1 186:1 950:1 4080:1 5414:1 5415:1 5416:1 5417:1 5418:1 100008:1 100010:1 100021:1 #
-0.01161680583016772190518839380502 7:1 13:3 112:1 113:1 304:1 831:1 832:1 833:1 100008:1 100021:1 #
-0.01161680583016772190518839380502 7:2 13:1 118:2 262:1 343:1 786:1 1156:1 4078:1 4347:1 4348:1 4349:1 4350:1 100008:1 #
0.01161680583016772190518839380502 7:1 13:3 28:1 124:1 147:1 2201:1 2659:1 2778:1 100007:1 100008:1 100020:1 100021:1 #
-0.01161680583016772190518839380502 4:1 7:2 13:1 54:1 358:1 692:1 1644:1 10351:1 10352:1 100008:1 100020:1 100021:1 #
-0.010781498982486242138589815908745 7:2 13:1 29:2 32:1 34:1 43:2 94:1 103:1 172:1 186:1 323:1 364:2 366:2 696:1 2023:1 2833:1 2899:1 2926:1 3541:1 4699:1 4700:1 5293:1 6911:1 7554:1 10482:1 10483:1 100008:1 100020:1 100021:1 #
-0.01161680583016772190518839380502 7:1 13:1 39:1 75:1 94:1 103:1 323:1 2641:1 2779:1 2780:1 2781:2 2782:1 2783:1 2784:1 2785:1 2786:1 100008:1 100020:1 100021:1 #
0.01161680583016772190518839380502 7:1 13:2 124:1 147:1 2268:1 2269:1 100007:1 100008:1 100020:1 100021:1 #
-0.01161680583016772190518839380502 7:2 13:1 28:1 323:3 494:1 607:1 616:1 653:1 746:1 1970:1 2566:1 2898:1 3985:1 4341:1 6422:1 6423:1 6424:1 6425:1 100008:1 100020:1 100021:1 #
0.0057932389452900970999715823950282 7:10 10:1 13:4 28:3 29:5 32:4 34:3 39:3 42:3 60:1 65:2 75:7 93:1 94:3 98:2 100:1 103:1 118:1 152:1 172:1 186:1 209:1 251:1 307:1 313:1 323:5 364:1 448:1 484:1 512:1 517:1 560:1 577:1 580:1 598:1 602:1 604:1 623:1 633:1 776:1 824:1 981:1 1028:1 1289:1 1316:1 1501:1 1504:1 1713:1 1823:1 1875:2 1898:1 1912:1 1962:1 2677:1 2744:1 2876:2 3230:1 3450:1 3451:1 3534:1 3646:1 3820:1 4718:1 4794:1 4859:1 5517:2 6652:1 7282:1 7294:1 7371:2 7526:1 8176:1 8627:1 9309:1 10058:1 10235:1 10236:1 10237:1 10238:1 10239:1 10240:1 10241:1 10242:1 10243:1 10244:1 10245:1 10246:1 10247:1 10248:1 10249:1 10250:1 10251:1 10252:1 10253:1 10254:1 10255:1 10256:1 10257:1 10258:1 10259:1 10260:1 100007:1 100008:1 100010:1 100014:1 100021:1 #
0.0079943751965388422375813348708107 7:4 10:1 13:3 28:3 29:4 32:2 34:1 39:3 43:1 48:1 71:1 75:3 94:1 97:1 103:1 231:1 323:1 336:1 364:1 375:1 486:2 503:1 551:1 553:1 587:1 604:1 799:1 1022:1 1156:1 1284:1 1302:1 1570:1 1959:1 2246:1 2254:1 2303:1 2522:1 2923:1 3086:1 3704:1 3789:1 3906:1 3992:2 4552:1 5070:1 6448:1 6728:1 9615:1 9616:1 9617:1 9618:1 9619:1 9620:1 100007:1 100008:1 100010:1 #
0.01161680583016772190518839380502 7:3 13:2 28:1 41:1 65:2 94:1 1308:1 3109:1 3110:1 3111:1 3112:1 3113:1 3114:1 3115:1 100007:1 100008:1 100021:1 #
0.01161680583016772190518839380502 7:3 13:3 16:1 18:1 32:1 34:1 60:1 71:1 105:1 152:1 262:1 404:1 405:1 406:1 407:1 408:1 409:1 410:1 411:1 412:1 413:1 414:1 415:1 416:1 417:1 418:1 419:1 420:1 100008:1 100010:1 #
0.01161680583016772190518839380502 7:3 13:1 29:2 32:1 34:1 37:1 39:1 97:1 103:1 323:1 343:1 1504:1 1505:1 1506:1 1507:1 1508:1 1509:1 1510:1 1511:1 1512:1 100007:1 100008:1 100021:1 #
0.01161680583016772190518839380502 7:3 13:2 75:1 122:1 137:1 851:1 1043:1 1768:1 1809:1 1810:1 1811:1 1812:1 1813:1 100007:1 100008:1 100020:1 #
0.011349616237908496593767004867459 7:4 13:1 65:1 214:1 244:1 327:1 343:1 390:1 391:2 393:1 2283:1 3405:1 4114:1 4548:1 5909:1 8368:1 100007:1 100008:1 100021:1 #
0.01161680583016772190518839380502 2:1 7:3 13:2 29:2 497:1 498:1 959:1 1446:1 4743:1 5029:1 100007:1 100008:1 100021:1 #
0.01161680583016772190518839380502 7:2 13:2 16:1 32:1 34:1 46:1 60:1 97:1 281:1 283:1 285:1 1229:1 2234:1 2498:1 3719:1 4187:1 4812:1 7047:1 7048:1 9454:1 100007:1 100008:1 100021:1 #
0.01161680583016772190518839380502 7:2 13:2 29:1 75:1 137:1 375:1 391:1 851:1 1041:1 1081:1 1125:1 1770:1 3883:1 3884:1 3885:1 100007:1 100008:1 100021:1 #
0.01161680583016772190518839380502 7:3 13:1 29:1 32:1 34:1 37:1 75:1 323:1 666:1 1308:1 5005:1 6417:1 6418:1 9399:1 9400:1 100007:1 100008:1 100014:1 100021:1 #
0.01161680583016772190518839380502 7:4 10:1 13:1 29:1 30:1 75:3 98:1 100:2 103:1 172:1 186:1 364:1 378:1 697:1 1080:2 1636:1 1637:1 1638:1 1639:1 1642:1 1650:1 2414:1 3106:1 3107:1 7501:1 7502:1 100007:1 100008:1 100010:1 100021:1 #
-0.01161680583016772190518839380502 7:2 13:1 28:1 54:1 65:1 75:1 94:1 103:2 448:1 517:1 1065:1 1960:1 3904:1 4039:1 5154:1 6845:1 6846:1 6847:1 6848:1 6849:1 6850:1 100008:1 100021:1 #
-0.0047092697448972561588553809031055 2:1 7:1 13:3 28:2 29:3 39:2 43:1 54:1 65:2 75:4 79:1 94:2 97:1 100:4 107:2 172:1 186:1 315:1 364:1 544:2 552:2 577:1 604:1 738:1 818:1 1718:1 1854:2 1863:1 2821:1 2907:1 2923:1 3253:1 5164:1 5229:1 5531:1 5532:1 5533:1 5534:1 5535:1 5536:1 5537:1 5538:1 5539:1 5540:1 5541:1 5542:1 5543:1 5544:1 5545:1 100007:1 100008:1 100017:1 100021:1 #
-0.0048701175825606969269077062278939 2:2 7:5 13:2 28:3 29:2 32:1 34:1 52:1 54:1 65:1 75:6 94:4 100:4 103:1 107:1 313:1 323:2 364:1 366:1 368:1 373:1 375:1 391:1 492:1 518:2 604:1 692:1 785:1 854:1 984:1 1305:1 1324:1 1558:1 1893:1 2033:1 2063:1 2439:1 2467:1 2623:1 3271:1 3612:1 3968:1 4118:1 4674:1 4675:1 4676:1 4677:1 4678:1 4679:1 4680:1 4681:1 4682:1 4683:1 4684:1 4685:1 4686:1 4687:1 4688:1 4689:1 4690:1 4691:1 4692:1 4693:1 4694:1 4695:1 100007:1 100008:1 #
-0.0019816268305187720311089094593626 2:1 7:6 13:3 29:2 39:2 42:1 54:2 65:3 90:1 91:2 94:3 97:1 98:1 172:2 186:2 313:1 323:1 375:1 390:1 391:2 481:1 484:1 517:1 522:1 548:1 692:1 695:1 757:1 780:1 818:1 819:1 988:1 990:1 1041:1 1218:1 2106:1 2307:1 2489:1 2525:1 2641:2 3272:1 3980:1 4280:1 4627:1 4650:1 4820:1 5275:1 5721:1 5803:1 5949:1 5950:1 5951:1 5952:1 5953:1 5954:1 5955:1 5956:1 5957:1 5958:1 5959:1 5960:1 5961:1 5962:1 100008:1 100020:1 100021:1 #
-0.0059981224083855630424544358447747 2:1 7:7 13:4 28:1 29:7 39:1 42:1 43:1 75:7 78:1 82:1 87:1 94:1 100:2 103:2 231:2 309:1 310:1 323:1 380:1 398:1 399:1 478:1 517:1 548:2 677:1 682:1 897:1 1022:3 1152:1 1156:2 1770:1 2392:1 2393:1 2409:1 2413:1 2642:1 2866:2 2902:1 3086:1 3736:1 4082:1 4266:1 4267:1 4268:1 4269:1 4270:1 4271:1 4272:1 4273:1 4274:1 4275:1 4276:1 4277:1 4278:1 4279:1 4280:1 4281:1 4282:1 4283:1 4284:1 4285:1 4286:1 4287:1 100008:1 100021:1 #
-0.01161680583016772190518839380502 7:2 13:1 32:1 34:1 43:1 54:1 75:1 103:2 107:1 172:1 186:1 320:1 1305:1 5172:1 5173:1 5174:1 5175:1 5176:1 5177:1 5178:1 5179:1 5180:1 100008:1 100021:1 #
-0.01161680583016772190518839380502 7:1 13:1 29:1 42:1 75:1 90:1 94:1 691:1 970:1 971:1 972:1 973:1 974:1 100008:1 100020:1 100021:1 #
-0.0050255853800758795713043980413204 2:1 7:8 13:5 28:2 29:4 39:1 65:2 75:4 92:2 94:1 97:1 98:2 100:1 112:1 118:1 272:1 323:2 364:1 375:1 517:2 518:1 604:1 645:1 778:1 806:1 920:1 950:1 1043:1 1072:1 1114:1 1230:1 1324:1 1559:1 1992:1 2454:1 3056:1 3283:1 3613:1 4403:1 4474:1 4477:1 5283:1 5483:1 7171:1 7904:1 8156:1 9292:1 9325:1 9754:1 10407:1 10991:1 10992:1 10993:1 10994:1 10995:1 10996:1 10997:1 100008:1 100021:1 #
-0.0026101726820357364945712763670826 7:4 13:1 28:3 39:3 75:1 100:2 127:2 167:1 172:1 186:1 323:2 448:4 517:1 544:1 548:1 1166:1 1459:1 1655:1 1799:1 2326:1 3450:1 3652:1 3708:1 3906:1 3990:1 3991:1 3992:2 3993:1 3994:1 3995:1 3996:1 3997:1 3998:1 3999:1 4000:1 4001:1 4002:1 4003:1 4004:1 4005:1 4006:1 4007:1 4008:1 4009:1 100008:1 100014:1 #
0.01161680583016772190518839380502 7:2 13:2 29:1 46:1 100:1 124:1 147:1 540:1 1273:1 1274:1 1929:1 2900:1 100007:1 100008:1 100020:1 100021:1 #
0.01161680583016772190518839380502 7:3 13:2 28:1 85:1 86:1 3270:1 3534:1 6138:1 11338:1 11339:1 11340:1 11341:1 100007:1 100008:1 100021:1 #
-0.0056305307162168444223837582285341 7:6 13:3 24:1 28:2 29:3 37:1 43:1 54:2 65:2 75:2 94:3 98:1 100:1 103:2 107:2 231:1 358:2 548:1 555:1 559:1 630:1 835:1 895:1 1118:1 1156:1 1341:2 1528:1 2056:1 2068:1 3342:1 3613:2 3614:1 3629:1 4163:1 5381:1 6580:1 6928:2 7286:1 7897:1 8013:1 8575:1 9791:1 9792:1 9793:1 9794:1 9795:1 9796:1 9797:1 9798:1 9799:1 9800:1 100008:1 100021:1 #
0.0081504225707542711509834276739639 7:4 13:2 28:1 29:1 37:1 65:1 343:1 375:1 1339:1 1837:1 1854:1 2659:1 3928:1 4283:1 6046:1 8750:1 10751:1 10752:1 10753:1 10754:1 100007:1 100008:1 100021:1 #
-0.01161680583016772190518839380502 13:1 28:1 39:1 10108:1 10109:1 100008:1 100019:1 100020:1 100021:1 #
-0.010913003252082447910864537732323 2:1 7:2 13:1 32:1 34:1 39:2 44:1 46:1 75:1 161:1 179:1 323:1 364:1 518:1 549:1 1246:1 1610:1 1931:1 2805:1 3437:1 10227:1 10228:1 10229:1 100008:1 100021:1 #
-0.010169935986029729826918277524328 7:1 13:1 28:1 75:1 98:1 300:1 375:1 629:1 1486:1 3260:1 3468:1 3469:1 3470:1 3471:1 3472:1 3473:1 3474:1 3475:1 3476:1 3477:1 100008:1 100021:1 #
-0.01161680583016772190518839380502 7:4 13:3 65:1 75:1 90:1 98:1 112:1 113:1 119:1 375:1 744:1 768:1 776:1 777:1 780:1 818:1 832:1 835:1 1043:1 1059:1 1970:1 2004:1 3881:1 3882:1 8587:1 100008:1 100021:1 #
-0.005079499170535644106405648301461 7:5 13:3 28:1 39:1 65:3 112:1 113:1 136:1 300:2 375:1 768:2 778:1 789:1 832:2 1326:1 3014:1 3142:1 3881:1 6167:1 6168:1 100008:1 100021:1 #
0.00021403720692957095561581581932842 7:1 10:1 13:1 1078:1 6410:1 100007:1 100008:1 100010:1 #
-0.01161680583016772190518839380502 13:1 5182:1 100008:1 100017:1 100019:1 100020:1 100021:1 #
0.01161680583016772190518839380502 7:2 13:2 29:1 75:1 83:1 124:1 147:1 854:1 1860:1 1861:1 100007:1 100008:1 100012:1 100020:1 #
0.0051086962601932413285954481807494 5:3 7:4 13:2 16:1 54:1 97:1 124:1 147:1 152:1 172:1 186:1 215:1 925:1 1194:1 2155:1 2381:1 2504:1 5013:1 5014:1 5704:1 6810:1 6962:1 6963:1 7412:1 11163:1 11164:1 11165:1 11166:1 100008:1 100010:1 100014:1 #
0.01161680583016772190518839380502 7:3 13:3 97:1 105:1 152:1 218:1 1266:1 2647:1 7563:1 7564:1 7565:1 100008:1 100010:1 #
0.0080345448082357068947390033031297 7:5 13:1 28:2 75:2 78:1 97:1 103:1 172:1 186:1 298:1 448:1 520:1 521:1 552:1 1339:1 1801:1 1931:1 2764:1 2769:1 3154:1 5125:1 9609:1 10945:1 10946:1 10947:1 10948:1 10949:1 10950:1 10951:1 100007:1 100008:1 100021:1 #
-0.0087801316135077446534129563815441 7:1 13:1 32:1 34:1 75:1 100:1 118:2 200:1 1032:1 1156:1 1294:1 3014:1 4078:1 4803:1 8113:1 8114:1 8115:1 100008:1 #
0.0040373697266059410670990814651304 2:1 7:6 10:1 13:5 28:1 29:3 39:1 50:2 65:1 71:1 72:1 73:2 74:1 75:6 76:1 77:1 78:1 79:2 80:1 94:1 98:1 124:1 147:1 310:1 313:1 323:2 364:1 517:1 522:1 1156:1 1339:1 1484:2 2271:1 2434:1 2526:1 2603:1 2956:1 3605:1 4033:1 4319:1 4828:1 4844:1 4879:1 4966:1 5069:1 5376:1 6727:1 9552:1 9553:1 9554:1 9555:1 9556:1 9557:1 9558:1 9559:1 9560:1 9561:1 100007:1 100008:1 100010:1 #
0.006521020457657403061879630712383 7:7 13:3 28:1 29:1 37:1 42:1 43:2 75:2 94:2 97:1 497:1 498:1 499:1 500:1 501:1 502:1 503:1 504:1 505:1 506:1 507:1 508:1 509:1 510:1 511:1 512:1 645:1 721:1 1587:1 2303:1 2619:1 4944:1 4945:1 4946:1 4947:1 100008:1 100021:1 #
0.0036553970843445932753512650492667 7:4 10:1 13:4 28:1 29:1 39:2 54:1 75:3 90:1 91:1 94:2 103:2 172:1 186:1 323:2 324:1 448:1 554:1 645:1 1141:1 1216:1 2817:1 3179:1 3432:1 4761:1 5583:2 7580:1 7753:1 8973:1 10154:1 10155:1 10156:1 10157:1 10158:1 10159:1 10160:1 100007:1 100008:1 100010:1 100021:1 #
0.01161680583016772190518839380502 7:3 13:2 32:1 34:1 75:1 94:1 100:1 209:1 248:1 857:1 954:1 1028:1 1344:1 1345:1 1346:1 1347:1 100007:1 100008:1 100012:1 #
0.004537832801905533619546417867241 2:2 7:7 13:1 32:1 34:1 37:1 65:1 75:1 100:1 107:1 262:1 323:1 381:1 912:1 1246:1 1318:1 1320:1 1995:2 2655:1 2794:2 3464:1 3582:1 5468:1 6319:1 6565:1 6566:1 6567:1 6568:1 100007:1 100008:1 100012:1 100014:1 #
0.0089038328137402682899148587125637 7:3 13:1 16:1 18:2 32:1 34:1 41:1 97:1 197:1 2631:1 7196:1 7197:1 7198:1 7199:1 7200:1 7201:1 7202:1 100007:1 100008:1 100021:1 #
0.008733117322156633277607795662334 2:1 7:5 13:1 28:1 75:1 94:1 172:1 186:1 298:1 371:1 845:1 1246:1 1517:1 1854:1 2245:1 2641:1 2642:1 6796:1 8018:1 10517:1 10518:1 10519:1 10520:1 10521:1 100007:1 100008:1 100021:1 #
-0.0073302549605763376791567331736132 7:3 13:1 28:1 75:1 107:1 313:1 364:1 801:1 983:1 1501:1 1893:1 1948:1 4132:1 4135:1 6317:1 6342:1 6343:1 6344:1 6345:1 6346:1 6347:1 100008:1 100020:1 100021:1 #
0.0086130370624006389462801180911811 7:2 10:1 13:1 65:1 69:1 94:1 111:1 966:1 1548:1 2183:1 100007:1 100008:1 100010:1 100021:1 #
0.0033537956655172538461551212662926 7:4 13:1 28:1 37:1 48:1 65:2 1904:1 2707:1 3968:1 8677:1 8678:1 100007:1 100008:1 100012:1 #
-0.0083277011777016605315049346813794 2:1 13:1 4436:1 4437:1 4438:1 4439:1 100008:1 100019:1 100020:1 100021:1 #
0.0044469282483301430727862246783388 7:5 13:1 28:2 46:1 70:1 75:2 81:1 94:1 97:1 103:1 172:1 186:1 214:1 298:1 323:1 364:1 518:1 559:2 715:1 1793:2 2227:1 2316:1 3529:1 5672:1 11237:1 11238:1 11239:1 11240:1 11241:1 11242:1 11243:1 11244:1 11245:1 100007:1 100008:1 100014:1 100021:1 #
0.0055409712084575997101398847632936 7:4 13:1 29:2 30:1 37:1 42:1 48:1 65:1 75:2 100:1 111:1 364:1 486:1 579:1 873:1 1793:1 2001:1 3466:1 3646:1 4218:1 4219:1 4220:1 100007:1 100008:1 #
0.010593866293716929644075364080891 3:1 7:4 13:1 32:1 34:1 37:1 46:1 65:1 97:1 103:1 283:1 1610:1 1766:1 4988:1 5336:1 5337:1 5338:1 5339:1 5340:1 5341:1 100007:1 100008:1 #
0.0035463686716608682457374523977478 7:4 13:1 29:1 42:1 65:1 75:2 83:1 97:1 323:1 422:1 721:1 940:1 941:1 1317:1 2104:1 2881:1 3319:1 3704:1 4746:1 4928:1 9420:1 10420:1 10421:1 10422:1 100007:1 100008:1 100012:1 #
0.0042520371125522246624761635303003 7:4 13:1 32:1 34:1 60:1 75:1 160:1 215:1 281:1 513:1 927:1 969:1 10284:1 10285:1 10286:1 10287:1 10288:1 10289:1 10290:1 10291:1 100007:1 100008:1 100012:1 #
0.0069197733139403326541039263020139 7:2 10:1 13:1 39:2 713:1 1341:1 1416:1 1610:1 3133:1 3140:1 100007:1 100008:1 100010:1 100021:1 #
0.0061447931393322080539931562270795 7:4 13:1 20:1 54:1 172:1 186:1 237:1 298:1 381:1 1318:1 1613:1 1616:1 1617:1 6042:1 9411:1 9412:1 100007:1 100008:1 100014:1 #
-0.01161680583016772190518839380502 13:1 93:1 517:1 667:1 668:1 100008:1 100019:1 100020:1 100021:1 #
0.0029236172041547849737019859617249 7:4 13:2 29:1 32:1 34:1 39:1 75:1 100:1 375:1 391:2 952:1 1041:1 1198:1 1284:1 4422:1 4738:1 4928:1 5424:1 6129:1 6130:1 6131:1 6387:1 7203:1 7204:1 7205:1 7206:1 100007:1 100008:1 #
0.0090153710278179938902853862714437 7:4 13:2 28:1 29:1 32:1 34:1 75:1 98:1 100:1 323:1 952:1 1284:1 2679:1 3571:1 3968:1 4422:1 4928:1 5424:1 6124:1 6125:1 6126:1 6127:1 6128:1 6129:1 6130:1 6131:1 100007:1 100008:1 #
0.0044033816216419129074832738979239 7:2 10:1 13:1 39:2 1341:1 1610:1 3129:1 3140:1 3142:1 6075:1 100007:1 100008:1 100010:1 100021:1 #
0.0027576017862778676170698588521191 7:2 10:1 13:1 65:1 94:1 966:1 1548:1 2758:1 3283:1 6654:1 100007:1 100008:1 100010:1 100021:1 #
0.001724618013333164461345359264044 7:4 13:2 28:1 29:1 65:1 75:2 94:1 230:1 366:1 381:1 530:1 873:1 2205:1 2670:1 3790:1 6021:1 6022:1 6023:1 7965:1 7966:1 8870:1 8926:1 8927:1 100007:1 100008:1 100012:1 #
0.0034016001521160726256409745360543 7:5 13:1 28:2 75:1 78:1 172:1 186:1 264:1 298:1 520:1 521:1 1446:1 2638:1 2639:1 2645:1 2779:1 3541:1 10945:1 10946:1 10947:1 11371:1 100007:1 100008:1 100021:1 #
0.0032874230594050566495178955506162 7:4 13:2 65:1 94:1 330:1 1010:1 1144:1 2940:1 3705:1 8472:1 8473:1 8474:1 8475:1 8476:1 8477:1 100007:1 100008:1 100021:1 #
