SVM-light Version V6.02
0 # kernel type
3 # kernel parameter -d 
1 # kernel parameter -g 
1 # kernel parameter -s 
1 # kernel parameter -r 
empty# kernel parameter -u 
100008 # highest feature index 
1406 # number of training documents 
431 # number of support vectors plus 1 
0.99904 # threshold b, each following line is a SV (starting with alpha*y)
-0.011753957660902392481916400868158 11:3 15:1 23:1 41:1 163:1 225:1 591:1 592:1 593:1 594:1 595:1 596:1 597:1 100002:1 100005:1 100007:1 #
-0.0063286959933323786581249592586573 11:1 41:2 50:1 102:1 114:2 151:1 227:1 614:1 620:1 660:1 895:1 1811:1 2093:1 2755:1 3693:1 3698:1 3699:1 3700:1 4135:1 5115:1 9896:1 9897:1 9898:1 9899:1 9900:1 9901:1 100002:1 100004:1 #
-0.011753957660902392481916400868158 11:4 41:2 322:1 395:1 679:1 680:1 681:1 682:1 683:1 684:1 685:1 100002:1 100003:1 #
0.0017699959254325028836646316321435 11:4 28:1 30:1 41:2 54:2 102:1 114:1 614:1 660:1 906:1 1458:1 1545:1 1700:1 1779:1 4847:1 5163:1 5352:1 5847:1 6546:1 6547:1 6548:1 6802:1 7606:1 7607:1 7608:1 7609:1 100001:1 100002:1 100007:1 #
-0.0011677815531401793906068897754835 11:2 41:1 102:2 114:2 617:1 660:1 663:1 777:1 926:1 927:3 928:3 929:1 930:1 931:1 932:1 #
0.0066468630992392533501922358141201 11:4 41:1 102:1 227:1 232:1 724:1 735:1 835:1 1201:1 1300:1 2706:1 3090:1 3119:1 3228:1 7207:1 9311:1 9312:1 100001:1 100002:1 100007:1 #
0.011753957660902392481916400868158 11:2 41:2 225:2 408:1 691:1 3178:1 3179:1 4511:1 100001:1 100002:1 100005:1 #
0.0036556083162031056607577106376539 5:1 8:1 11:2 19:2 28:1 30:1 33:3 41:1 43:1 70:1 79:1 80:2 81:2 82:1 83:1 84:1 85:1 86:1 87:1 88:1 89:1 90:1 91:1 92:1 100001:1 100002:1 100003:1 #
0.0046922732699195019573368270471292 1:1 2:1 8:1 11:2 19:2 23:1 28:2 30:2 41:1 48:1 77:1 81:1 93:1 94:1 95:1 96:1 97:1 98:1 99:1 100:1 101:1 102:1 103:1 104:1 105:1 106:1 107:1 108:1 109:1 100001:1 100002:1 100003:1 100004:1 #
0.00059524400615824392662273067955425 2:1 5:2 8:1 11:3 14:1 19:2 23:2 28:3 30:3 33:1 41:2 43:1 52:1 54:2 110:1 111:1 112:1 113:1 114:1 115:1 116:1 117:1 118:2 119:1 120:1 121:1 122:1 123:1 124:1 125:1 126:1 127:1 128:1 129:1 130:1 131:1 132:1 133:1 134:1 135:1 136:1 137:1 138:1 139:1 140:1 141:1 142:1 100001:1 100002:1 100003:1 #
-0.011753957660902392481916400868158 1:2 5:5 8:1 11:7 23:1 28:4 30:4 33:6 41:5 48:2 61:1 105:1 136:2 151:2 225:1 241:2 243:2 277:1 516:1 697:1 700:1 1109:1 1567:1 1645:1 1992:1 2226:1 2321:2 2322:2 4151:1 4573:1 4588:2 5034:1 5212:1 5308:1 5640:1 5727:2 5728:2 5734:1 5740:1 6390:1 6407:1 6981:1 7360:1 7361:1 7378:1 7992:2 9203:1 11487:1 11488:1 11489:1 11490:1 11491:1 11492:1 11493:1 11494:1 11495:1 11496:1 11497:1 11498:3 11499:2 11500:1 11501:1 11502:1 11503:1 100002:1 100003:1 100005:1 100007:1 #
-0.0054376041898263512142097653168094 11:2 28:1 30:1 41:1 114:2 227:1 401:1 617:2 663:1 724:1 735:1 895:2 897:2 1211:1 2486:1 3279:1 3345:1 3370:1 3976:1 5124:1 5125:1 5716:1 7320:1 7956:1 10851:1 10852:1 #
-0.011753957660902392481916400868158 41:1 614:1 724:1 735:1 2685:1 2686:1 2687:1 #
-0.0065870147811585332345285515032174 11:9 28:6 30:6 35:1 41:2 54:1 66:1 102:7 114:2 219:1 225:1 227:3 232:1 401:2 614:1 616:2 660:1 748:1 805:1 841:2 893:2 906:1 1039:1 1101:1 1237:1 1279:1 1300:1 1537:1 2497:1 2654:1 2943:1 3226:1 3662:2 3842:1 3894:1 4183:1 5139:1 5352:3 5417:1 5623:1 6564:1 7115:1 7648:1 10488:1 10966:1 10967:1 10968:1 10969:1 10970:1 10971:1 10972:1 10973:1 10974:1 10975:1 10976:1 10977:1 10978:1 10979:1 10980:1 10981:1 100002:1 100003:1 100005:1 #
0.011753957660902392481916400868158 11:2 41:1 102:3 114:3 233:1 401:1 660:2 849:1 889:1 1211:1 1235:1 1400:1 1407:1 2389:1 2390:1 2391:1 2392:1 2393:1 2394:1 2395:1 2396:1 100001:1 100002:1 100007:1 #
0.0019196280528910925934626963140772 11:4 41:2 102:6 114:3 227:1 401:1 529:1 608:1 614:1 620:1 658:1 660:2 706:1 724:2 735:1 875:1 1042:1 1068:1 1076:1 1121:1 1391:1 2026:1 2525:1 2658:1 2989:1 3916:1 6667:1 7889:1 7890:1 7891:1 7892:1 7893:1 7894:1 7895:1 7896:1 100001:1 100002:1 100003:1 100005:1 100007:1 #
0.011753957660902392481916400868158 41:3 1643:1 1644:1 1645:1 100001:1 100007:1 #
-0.0031758852850940952859681853936991 11:1 41:1 102:1 227:1 401:1 614:1 663:1 3090:1 3226:1 3227:1 3228:2 3229:1 3230:1 3231:1 3232:1 3233:1 #
-0.006879203068710541997543561620887 5:1 14:1 41:1 50:2 102:4 114:4 151:1 227:1 594:1 617:1 640:1 658:1 667:1 724:3 735:3 774:1 840:1 860:1 899:1 1039:1 1207:1 1871:1 2569:1 2899:2 3280:1 4436:1 4893:1 7144:1 7804:1 8138:1 8139:1 8140:1 8141:2 8142:1 8143:1 8144:1 8145:1 8146:1 8147:1 100007:1 #
0.0013368045139115665442819391728335 11:3 41:1 50:1 232:1 401:3 406:1 1042:1 1297:1 1900:1 3990:1 4039:1 4139:1 4140:1 4141:1 100001:1 100002:1 100007:1 #
-0.0087204467748898499557252961267295 2:1 41:1 50:1 102:1 660:1 2204:1 3220:1 3221:1 3222:1 3223:1 3224:1 100002:1 #
0.0025363239321833149636509219249092 2:1 5:1 11:7 28:1 30:1 33:3 41:5 50:2 102:8 114:5 141:1 151:1 232:1 389:1 395:1 406:1 464:1 614:3 616:1 617:1 620:1 658:1 660:3 665:1 724:3 734:1 735:3 774:1 817:1 835:1 875:1 1009:1 1212:1 1432:1 1523:1 1567:1 1593:1 2265:1 2361:1 3022:1 3023:2 3024:1 3025:1 3026:1 3027:1 3028:3 3029:1 3030:2 3031:1 3032:2 3033:2 3034:1 3035:1 3036:1 3037:1 3038:1 3039:1 3040:1 3041:1 3042:1 3043:1 3044:1 3045:1 3046:1 100001:1 100002:1 100007:1 #
0.0032547696688375415789706845970386 1:1 2:2 5:3 11:8 14:1 23:2 28:1 30:1 33:7 41:3 199:1 209:1 212:3 262:1 273:2 319:1 349:1 382:1 406:3 407:4 408:1 409:1 410:1 411:2 412:1 413:1 414:1 415:1 416:1 417:1 418:2 419:1 420:1 421:1 422:1 423:1 424:1 425:1 426:1 427:1 428:1 429:1 430:1 431:1 432:1 433:1 434:1 100001:1 100002:1 #
0.0028201225944098550976746331286904 11:4 28:1 30:1 41:2 102:1 114:1 227:1 232:1 658:1 660:1 1458:1 1779:1 3128:1 4006:1 4399:1 4847:1 5352:1 5847:1 6541:1 6542:1 6543:1 6544:1 6545:1 6546:1 6547:1 6548:1 100001:1 100002:1 100007:1 #
-0.0029973054434270806657691910146468 11:8 28:4 29:3 30:4 41:5 43:2 48:1 50:3 102:5 114:9 151:1 227:1 232:7 249:1 358:1 362:1 401:3 406:1 407:2 458:1 537:1 592:2 614:2 620:1 634:1 658:1 660:4 663:1 667:1 691:1 724:3 735:3 847:1 868:1 895:1 906:1 1026:2 1041:1 1042:2 1043:1 1078:1 1101:1 1171:1 1276:1 1300:1 1328:1 1529:2 1660:1 1728:1 1930:2 2086:1 2481:1 2761:1 2882:2 2883:1 2884:1 2885:1 2886:1 2887:1 2888:1 2889:1 2890:1 2891:1 2892:1 2893:1 2894:1 2895:1 2896:1 2897:1 2898:1 2899:1 2900:1 2901:3 2902:1 2903:1 2904:1 2905:1 2906:1 2907:1 2908:1 2909:1 2910:1 2911:1 2912:1 2913:1 2914:1 2915:1 2916:1 2917:1 2918:1 2919:1 2920:1 2921:1 2922:1 2923:1 2924:1 2925:1 2926:1 2927:1 2928:1 2929:1 2930:1 2931:1 100002:1 100007:1 #
-0.0097554463311881212811416119734531 11:1 41:1 102:2 114:1 616:1 620:1 667:1 691:1 724:1 735:1 1007:1 1024:1 1025:1 2377:1 4421:1 5224:1 5225:1 8728:1 8729:1 #
-0.011753957660902392481916400868158 5:1 11:9 14:1 28:1 30:1 41:4 50:1 102:2 114:5 150:1 227:2 232:1 277:1 375:1 377:1 616:1 658:1 660:2 665:1 706:1 715:1 724:4 735:4 774:1 823:1 849:1 868:1 906:1 971:1 1009:1 1061:1 1266:1 1311:1 1434:1 1471:1 2355:1 2391:1 2618:1 3273:1 3661:1 3759:1 4372:1 5591:1 5662:4 5860:1 5861:1 7725:2 7746:1 8420:1 8421:1 8422:1 8423:1 8424:1 8425:1 8426:1 8427:1 8428:1 8429:1 8430:1 8431:1 8432:1 8433:1 8434:1 8435:1 8436:1 8437:1 8438:1 100002:1 100003:1 100005:1 100007:1 #
0.0016649085148157062238882808458129 11:13 28:1 30:1 40:1 41:3 102:7 114:2 151:2 168:1 227:3 232:3 401:2 456:1 614:2 616:2 620:1 649:1 655:1 658:1 660:1 767:1 774:1 875:1 1066:2 1219:1 1233:1 1237:1 1279:1 1298:1 1374:1 1548:1 1567:1 1658:1 1802:1 1981:1 3084:1 3201:1 3209:1 3297:1 3377:1 3690:1 4088:1 4120:1 4580:1 4715:1 4837:1 4838:1 4839:1 4840:1 4841:1 4842:2 4843:3 4844:1 4845:1 4846:1 4847:1 4848:1 4849:1 4850:1 4851:1 4852:1 4853:1 4854:1 4855:1 4856:1 4857:1 4858:1 4859:1 4860:1 100001:1 100002:1 100003:1 100005:1 100007:1 #
0.0027714868463331768060065041225926 11:6 28:2 30:4 41:15 50:3 102:7 114:1 151:1 225:1 227:1 232:3 241:1 243:1 256:1 267:1 401:2 461:1 597:1 616:2 652:4 653:1 658:2 660:5 663:1 667:5 697:4 700:4 724:1 735:1 770:1 841:9 849:2 906:2 971:1 1004:1 1015:1 1040:1 1041:3 1055:1 1061:1 1065:2 1121:1 1183:1 1184:1 1255:1 1266:1 1273:2 1290:1 1345:3 1486:1 1570:1 1608:1 1742:1 1749:1 1871:1 1965:1 2056:1 2209:5 2358:2 2515:1 2569:3 2582:1 2629:1 2757:1 2850:2 3263:1 3280:1 3287:1 3299:1 3822:1 4083:1 4402:1 4403:1 4503:1 4560:1 4839:1 5708:1 6261:3 6588:1 6692:1 7129:1 7850:1 7853:1 9941:1 10449:1 11262:1 11263:1 11264:1 11265:1 11266:1 11267:1 11268:1 11269:1 11270:1 11271:1 11272:1 11273:1 11274:1 11275:1 11276:1 11277:1 11278:1 11279:1 11280:1 11281:1 11282:1 11283:1 11284:1 11285:1 11286:1 11287:1 11288:1 11289:1 11290:1 11291:1 11292:1 11293:1 11294:1 11295:1 11296:1 11297:1 11298:1 11299:1 11300:1 11301:1 11302:1 11303:1 11304:2 11305:1 11306:1 11307:1 100001:1 100002:1 100003:1 100005:1 100007:1 #
-0.011753957660902392481916400868158 #
0.010191639091243162931754717703825 28:1 30:1 41:3 102:1 151:1 232:1 401:2 505:1 592:1 663:2 774:1 898:1 906:1 1026:1 1040:1 1121:1 1182:1 1365:1 1831:1 1871:1 2497:1 2882:2 2899:2 2913:1 3611:1 6738:1 9294:1 9295:1 9296:1 9297:1 9298:1 9299:1 9300:1 9301:1 100001:1 100002:1 100007:1 #
-0.00063261669744448965554961539226042 5:2 11:12 23:2 28:2 30:2 41:2 50:1 102:4 112:1 114:4 151:2 227:4 232:1 377:1 401:2 592:1 617:1 658:2 660:1 663:3 684:2 714:1 724:1 735:1 748:1 823:1 847:3 895:1 927:2 1017:1 1039:1 1061:3 1192:1 1215:1 1233:1 1279:1 1408:2 1831:1 2061:1 2413:2 2503:1 2618:1 2966:1 3005:1 3146:1 3490:1 3654:1 3798:1 4105:1 4877:2 4916:1 5391:1 5662:4 6490:2 6723:1 7064:1 8109:1 8126:1 8424:1 8516:1 10429:1 11042:1 11198:1 11199:1 11200:1 11201:1 11202:1 11203:1 11204:1 11205:1 11206:1 11207:1 11208:1 11209:1 11210:1 11211:1 11212:1 11213:1 11214:1 11215:1 11216:1 11217:1 11218:1 100002:1 100007:1 #
-0.0021480702898693205746272205658443 11:1 41:1 50:1 102:1 114:3 232:1 608:1 847:1 971:1 1133:1 1211:1 1233:1 1345:1 1978:1 2988:1 3217:1 3822:1 4316:1 5457:1 8071:1 10168:1 11329:1 11330:1 11331:1 11332:1 11333:1 11334:1 11335:1 11336:1 #
-0.0076678467535401017077245633402072 14:3 23:2 28:2 30:1 33:1 41:4 140:2 273:1 435:1 444:1 445:1 697:6 700:6 743:2 1027:1 1914:1 1957:1 1966:1 3867:2 4402:1 4403:1 4556:1 6299:1 8661:1 11177:1 11178:1 11179:1 11180:1 100007:1 #
-0.0035487022930584984081736621419623 1:1 2:5 5:1 11:4 14:2 33:1 36:2 41:2 63:1 91:1 151:1 212:1 241:1 243:1 267:1 341:1 370:1 434:1 439:2 535:1 541:1 817:1 1027:1 1342:3 1890:1 1957:1 1958:1 1959:1 1960:1 1961:1 1962:1 1963:1 1964:1 1965:1 1966:1 1967:1 1968:1 1969:1 1970:1 1971:1 1972:1 1973:1 1974:1 1975:1 1976:1 1977:1 1978:1 1979:1 1980:1 100002:1 100003:1 #
-0.0023039808047882509751957957888635 2:2 11:1 33:1 41:2 212:1 273:1 341:1 375:1 417:1 541:1 1886:1 1887:1 1888:2 1889:1 1890:1 1891:1 1892:1 1893:1 1894:1 #
0.011753957660902392481916400868158 5:1 11:5 14:1 23:1 41:1 50:1 456:1 625:1 628:1 787:1 790:2 3174:1 5905:1 7280:1 8242:1 8243:1 8244:1 8245:1 8246:1 8247:1 8248:1 100001:1 100002:1 #
0.00069644420900732083822004536699524 11:11 28:1 30:1 41:5 50:4 102:9 112:2 114:7 151:2 227:2 232:2 244:1 407:1 592:2 612:1 614:3 620:1 654:1 660:1 672:1 706:1 724:1 735:1 847:2 889:1 895:2 943:1 1041:1 1096:1 1275:1 1290:1 1298:1 1300:1 1304:1 1306:2 1307:1 1395:1 1429:1 1456:2 1576:1 1652:1 1728:1 1803:2 1816:1 1831:1 1833:2 1871:1 1902:1 2084:1 2569:1 3540:1 3582:1 3699:2 3723:1 4066:1 4421:1 6974:1 7760:1 8556:1 8557:1 8724:1 8928:1 8936:1 9377:1 9378:1 9379:1 9380:1 9381:1 9382:1 9383:1 9384:1 9385:1 9386:1 9387:1 9388:1 9389:1 9390:1 9391:1 9392:1 9393:1 9394:1 9395:1 9396:1 100001:1 100002:1 100003:1 100005:1 100007:1 #
0.011753957660902392481916400868158 11:2 41:2 724:1 735:1 5297:1 11402:1 11403:1 100001:1 100007:1 #
0.0076479850470623361724520350435341 11:1 41:2 681:1 701:1 2710:1 2711:1 100001:1 100007:1 #
-0.011753957660902392481916400868158 11:3 41:2 102:1 225:1 658:1 840:1 2396:1 5369:1 6385:1 8671:1 8672:1 8673:1 100002:1 100005:1 #
0.011753957660902392481916400868158 11:1 28:1 30:1 41:1 102:1 114:2 227:1 401:1 592:1 660:1 774:1 847:1 1298:1 1419:1 2061:1 2582:1 2789:1 3812:1 3813:1 3814:1 3815:1 3816:1 3817:1 3818:1 3819:1 3820:1 100007:1 #
0.0055528042028526675491506559012578 11:5 28:2 30:2 41:2 50:3 102:4 114:5 163:1 227:2 232:1 401:1 592:2 658:1 660:2 724:3 735:3 770:1 847:1 895:1 1009:1 1039:1 1040:1 1169:1 1207:2 1268:1 1407:1 1549:1 1660:1 1948:1 2343:1 2719:1 2932:2 2933:1 3228:1 3418:1 3560:3 3661:1 3700:1 6360:2 6908:1 7426:1 7741:1 8911:1 10425:1 10728:1 10729:1 10730:1 10731:1 10732:1 10733:1 10734:1 10735:1 10736:1 10737:1 10738:1 10739:1 10740:1 10741:1 10742:1 10743:1 10744:1 10745:1 100001:1 100002:1 100007:1 #
0.011753957660902392481916400868158 11:2 97:1 151:1 227:1 232:1 616:1 724:1 735:1 1383:1 2369:1 2865:1 2869:1 3723:1 4043:1 6993:1 8114:1 11059:1 11060:1 100001:1 100002:1 #
0.0036721599240340948265559628538313 11:4 23:1 28:1 30:1 41:2 43:1 48:1 102:1 114:2 151:2 232:2 401:1 458:1 660:2 663:1 724:2 735:2 895:1 1227:1 1328:1 1796:2 1831:1 1839:1 2086:1 2665:2 2883:1 2884:1 2885:1 2888:1 2912:1 3053:1 5349:1 5350:1 5351:1 5352:2 5353:1 5354:1 5355:1 100001:1 100002:1 100007:1 #
-0.009726542374200567581121745774908 11:15 28:1 30:1 41:1 102:2 114:1 232:1 408:1 652:1 660:1 1202:1 1205:1 1273:2 1476:1 4191:1 4659:1 5533:1 5765:1 5766:1 5767:1 5768:1 5769:1 5770:1 5771:1 5772:1 5775:1 5776:1 5777:1 5781:1 5782:1 5783:1 5784:1 5785:1 6888:1 9297:1 9748:1 9749:1 9750:1 9751:1 9752:1 9753:1 9754:1 9755:1 9756:1 9757:1 9758:1 9759:1 100002:1 #
0.0006436065230188046069892404688062 11:11 28:2 30:2 41:5 102:4 114:2 124:1 136:1 163:2 168:1 200:1 225:2 227:2 232:5 406:1 529:1 561:1 592:1 614:5 617:1 663:1 721:1 774:2 791:1 847:1 895:1 1048:3 1137:1 1185:1 1186:1 1187:1 1188:1 1189:1 1190:1 1191:4 1192:1 1193:1 1194:1 1195:1 1196:2 1197:2 1198:2 1199:1 1200:1 1201:1 1202:2 1203:1 1204:1 1205:3 1206:1 1207:1 1208:1 1209:1 1210:1 1211:1 1212:1 1213:1 1214:1 1215:1 1216:1 1217:1 1218:1 1219:1 1220:1 1221:1 1222:1 1223:1 1224:1 1225:1 100001:1 100002:1 100005:1 100007:1 #
-0.010927868886546671448045664476467 11:14 28:4 30:4 41:4 50:1 102:3 114:4 124:2 232:1 246:1 401:3 408:1 516:1 614:2 652:1 655:1 658:1 663:6 667:1 774:1 849:1 924:2 1019:1 1061:1 1108:1 1296:1 1366:1 1645:1 1742:1 1797:1 1936:1 1978:1 2071:1 2335:1 2454:1 2472:1 2631:1 3027:1 3749:1 4161:1 4503:1 4596:1 4844:1 4850:1 5699:1 9832:1 9833:1 9834:1 9835:1 9836:1 9837:2 9838:1 9839:1 9840:1 9841:1 9842:1 9843:1 9844:1 9845:1 9846:1 100002:1 100003:1 100007:1 #
0.011753957660902392481916400868158 1582:1 100006:1 100007:1 #
0.0035296260795534759036051752900676 11:5 41:5 50:3 86:1 102:2 114:2 151:1 227:1 249:1 389:1 401:4 592:1 616:5 660:7 663:1 667:1 724:1 735:1 847:2 917:1 971:1 1061:1 1090:1 1198:1 1210:1 1279:1 1287:1 1306:1 1471:1 1820:5 1985:1 2022:1 2328:2 2389:1 2497:1 2531:1 2787:1 2820:1 3267:1 3277:1 3457:1 3793:1 4274:1 4512:1 5915:1 6257:1 6258:1 6259:2 6260:1 6261:1 6262:1 6263:1 6264:2 6265:1 6266:1 6267:1 6268:1 6269:1 6270:1 6271:1 6272:1 6273:1 6274:1 6275:1 6276:1 6277:1 6278:1 100001:1 100002:1 100007:1 #
0.011753957660902392481916400868158 11:2 28:2 30:1 41:2 50:2 97:1 102:2 114:3 227:3 232:5 461:1 956:1 1039:1 1065:1 1189:1 1429:1 1439:1 1440:1 1441:1 2369:1 2377:1 3128:2 5151:1 5152:1 5153:1 5154:1 5155:1 5156:1 5157:1 5158:1 100001:1 100002:1 #
-0.00062202376731008773239756104445064 5:1 14:1 23:2 33:4 36:1 39:1 41:2 84:1 208:1 212:1 363:1 407:1 441:1 444:1 541:1 697:1 700:1 1591:1 1992:1 3826:1 6422:1 6490:1 7462:1 9173:1 9174:2 9175:1 9176:1 9177:1 9178:1 9179:1 9180:1 9181:1 9182:1 9183:1 9184:1 9185:1 9186:1 9187:1 #
6.9579408871429070104763781046131e-05 11:4 41:2 44:1 50:1 401:1 1515:1 1646:1 3384:1 4136:1 8866:1 8867:1 8868:1 8869:1 8870:1 8871:1 100001:1 100002:1 100007:1 #
0.0097214592453437661395687641174845 2:1 11:10 28:1 41:2 54:1 102:2 114:4 227:1 232:1 427:1 458:1 592:1 614:2 617:2 663:2 667:1 724:1 735:1 847:1 889:1 1039:1 1133:1 1328:1 1355:1 1405:1 1545:1 1654:1 1803:1 1825:1 1859:1 1871:1 1930:1 1985:1 2032:1 2225:1 2331:1 2352:1 2457:1 2499:1 2643:1 3278:1 3396:1 3578:1 3657:1 4163:1 4221:1 4948:1 5304:1 9941:1 10306:1 11023:1 11538:1 11539:1 11540:1 11541:1 11542:1 11543:1 11544:1 11545:1 11546:1 11547:1 11548:1 11549:1 11550:1 11551:1 100001:1 100002:1 #
-0.011753957660902392481916400868158 11:4 15:1 41:1 112:1 684:1 748:1 923:1 11823:1 11824:1 11825:1 11826:1 11827:1 100006:1 #
-0.0039736222005970515611106286257836 11:7 28:3 30:3 41:2 43:1 50:4 87:1 102:8 114:7 190:1 225:1 227:3 232:2 401:1 592:2 658:2 660:1 663:1 667:1 724:3 735:3 835:2 889:2 898:2 906:1 1039:1 1042:1 1076:1 1211:1 1233:1 1374:1 1456:3 1494:1 1537:1 1567:1 1654:1 1833:1 1837:1 2022:1 2518:1 2623:1 2774:1 2782:1 2973:1 3224:1 3416:1 3578:1 3606:1 3662:1 3794:1 3852:1 3859:1 4444:1 4688:1 4902:1 5547:1 6588:1 6589:1 6983:1 9866:1 9867:1 9868:1 9869:2 9870:2 9871:1 9872:1 9873:1 9874:1 9875:1 9876:1 9877:1 9878:1 100002:1 100003:1 100007:1 #
-0.011753957660902392481916400868158 11:3 28:1 29:1 30:1 41:4 50:2 102:2 105:1 114:2 151:4 168:1 225:1 232:2 245:2 246:1 249:1 358:1 401:2 407:1 427:1 458:1 617:1 655:1 658:2 660:1 665:1 724:3 735:3 835:1 875:1 1042:1 1058:1 1078:1 1129:1 1300:1 1668:1 2884:1 2886:1 2895:1 2896:1 2900:1 2919:1 4361:1 5541:1 5542:1 5543:1 5544:1 5545:1 5546:1 5547:1 5548:1 5549:1 5550:1 5551:1 100002:1 100005:1 100006:1 100007:1 #
0.011753957660902392481916400868158 41:1 168:1 505:1 614:3 663:1 787:1 835:1 1285:1 3699:1 5443:1 9233:1 9234:1 100001:1 100002:1 100003:1 #
0.011753957660902392481916400868158 11:1 41:1 700:1 706:1 1645:2 5202:1 5203:1 5204:1 5205:1 5206:1 5207:1 5208:1 5209:1 5210:1 5211:1 5212:1 7277:1 100001:1 100003:1 100005:1 #
-0.011753957660902392481916400868158 11:3 41:1 124:1 227:1 232:1 249:1 267:1 406:1 620:1 655:1 1300:1 2398:1 100002:1 #
0.0037603449318332456477453895615781 2:1 11:15 28:1 30:6 41:4 50:1 94:1 102:13 114:8 151:2 232:2 263:1 401:3 592:2 614:4 617:5 658:2 660:3 663:2 697:2 700:2 706:1 752:1 774:4 847:2 849:2 895:2 906:2 907:1 1039:1 1061:2 1065:2 1088:1 1107:1 1182:1 1233:1 1257:1 1290:2 1295:1 1298:2 1501:1 1816:1 1831:2 1978:1 2426:1 2499:1 2506:1 2569:1 2757:1 2765:1 3272:1 3899:1 4228:1 4450:3 4462:1 4635:1 5287:1 5320:1 5510:1 5571:1 5871:1 6082:2 6242:1 6451:1 6743:1 6819:1 6829:2 7072:2 7298:1 7891:1 7942:1 8057:1 8058:1 8059:1 8060:2 8061:1 8062:1 8063:1 8064:1 8065:1 8066:1 8067:1 8068:1 8069:3 8070:2 8071:1 8072:1 8073:1 8074:1 8075:1 8076:1 8077:1 8078:1 8079:1 8080:1 8081:1 8082:1 8083:1 8084:1 8085:3 8086:3 8087:1 8088:1 8089:1 8090:1 8091:1 8092:1 8093:1 8094:1 8095:1 100001:1 100002:1 100003:1 100005:1 100007:1 #
-0.011753957660902392481916400868158 28:1 30:1 41:1 50:1 102:1 427:1 660:1 2925:1 2928:1 3700:1 6249:1 6250:1 100002:1 100006:1 100007:1 #
0.011753957660902392481916400868158 11:5 41:1 724:1 735:1 779:1 1219:1 1787:1 1939:1 8020:1 11081:1 100001:1 100002:1 #
0.011393102591788367011771399006648 11:3 19:2 28:1 30:1 41:1 97:1 395:1 401:1 522:1 523:1 524:1 525:1 526:1 527:1 528:1 529:1 530:1 100001:1 100002:1 100003:1 100006:1 #
0.0038332361881394240270271023263149 11:5 41:1 102:1 232:1 401:1 555:1 592:1 724:1 735:1 835:1 902:1 1355:1 1742:1 2321:1 2706:1 3090:1 3091:1 7207:1 8418:1 10886:1 10887:1 10888:1 10889:1 10890:1 100001:1 100002:1 100007:1 #
0.0023453246485568403703614315247705 11:8 41:1 102:3 114:1 125:1 151:2 227:2 401:2 613:1 614:3 658:1 660:1 663:1 849:1 926:1 971:2 1061:1 1313:1 1317:1 1453:1 1456:1 1512:1 1749:1 1791:1 2447:1 2448:1 2449:2 2450:1 2451:1 2452:2 2453:2 2454:1 2455:1 2456:1 2457:1 2458:1 2459:1 2460:1 2461:1 2462:1 100001:1 100002:1 100007:1 #
0.00050455510118829782241489656513522 11:17 28:1 30:1 41:5 50:6 102:4 114:2 151:1 168:1 225:1 227:1 228:1 232:3 401:1 406:1 408:1 614:1 616:1 617:1 620:1 658:2 660:1 667:1 706:1 724:2 735:2 774:2 835:1 1019:1 1096:1 1098:1 1101:1 1148:1 1159:1 1160:1 1170:1 1233:2 1296:3 1297:2 1421:1 1584:2 1598:1 1728:1 1781:1 1784:1 1883:1 1981:1 2328:1 2329:1 3191:1 3312:1 3528:1 3662:1 3862:1 3863:1 3864:1 3865:1 3866:1 3867:1 3868:1 3869:2 3870:1 3871:1 3872:2 3873:1 3874:1 3875:1 3876:1 3877:1 3878:1 3879:1 3880:1 3881:1 3882:1 3883:1 3884:1 3885:1 3886:1 3887:1 3888:1 3889:1 3890:1 3891:1 3892:1 3893:1 3894:1 3895:1 100001:1 100002:1 100003:1 100005:1 100007:1 #
0.0073106707814795147959419097105638 11:6 41:1 168:1 225:1 232:1 375:1 401:1 592:1 594:1 658:1 663:1 667:1 724:1 735:1 748:1 1613:1 1742:1 2269:1 5289:1 5290:1 5291:1 5292:1 5293:1 5294:1 100001:1 100002:1 100003:1 100005:1 100007:1 #
0.0068876575904847281081599952301531 11:3 41:1 102:2 114:2 136:1 660:1 724:1 735:1 835:1 847:1 1039:1 1276:1 1456:1 2022:1 2068:1 2209:1 2555:1 2690:1 2691:1 2692:1 2693:1 2694:1 100001:1 100002:1 100007:1 #
-0.011753957660902392481916400868158 11:3 41:1 77:1 102:3 114:1 620:1 658:1 660:2 1981:1 2885:2 3201:1 4212:1 4715:1 4846:1 4847:2 4857:1 100002:1 100007:1 #
0.0069693948761390383389580094330995 11:11 41:6 50:2 102:5 114:2 124:2 151:3 227:1 232:2 249:1 401:3 406:4 434:1 537:1 614:1 652:2 653:2 654:2 658:1 660:4 663:7 672:1 673:1 682:1 906:1 1042:1 1284:1 1297:1 1302:1 1341:1 1342:1 1343:1 1369:1 1407:1 1559:1 1659:1 1833:1 2037:1 2084:1 2848:1 3385:1 3457:1 3541:1 3582:1 3990:1 4039:1 4087:1 4139:1 4140:1 4141:1 4739:2 6448:1 6449:1 6450:1 6451:1 6452:1 6453:1 6454:1 6455:1 6456:1 6457:1 6458:1 6459:1 6460:1 6461:1 6462:1 6463:1 100001:1 100002:1 100007:1 #
-0.011753957660902392481916400868158 11:11 28:1 30:1 41:3 50:2 102:1 114:1 151:2 225:1 232:1 401:1 612:2 614:1 658:1 660:1 724:2 735:2 753:1 895:1 1020:1 1088:1 1150:1 1182:1 1232:1 1233:1 1347:2 1807:1 2791:1 2988:1 3365:1 3502:1 3662:1 4237:3 4915:1 5607:1 5608:1 5609:1 5610:1 5611:1 5612:3 5613:1 5614:1 5615:1 5616:1 5617:1 5618:1 5619:1 5620:1 5621:1 100002:1 100003:1 100005:1 100007:1 #
-0.011753957660902392481916400868158 11:6 41:4 102:1 112:1 241:1 243:1 322:1 823:1 1845:1 1846:1 1847:1 1848:1 1849:1 1850:1 1851:1 1852:1 1853:1 1854:1 1855:1 1856:1 1857:1 1858:1 1859:1 1860:1 1861:1 1862:1 1863:1 1864:1 1865:1 1866:1 1867:1 100007:1 #
-0.011753957660902392481916400868158 11:5 41:4 76:1 322:1 395:1 537:1 679:1 681:1 684:1 933:1 1585:1 6419:1 8049:1 8050:1 8051:1 100002:1 100003:1 #
-0.0049474658011434751933577125271313 11:1 28:1 29:1 30:1 41:1 102:1 407:2 660:1 748:1 1536:1 1658:1 3457:1 4509:1 5228:1 8513:1 8514:1 8515:1 100002:1 #
0.0013943694755700084073751776614358 2:1 5:3 11:12 14:2 15:2 33:3 41:7 50:2 61:1 77:1 102:8 105:1 114:3 151:1 227:2 232:3 249:1 271:1 449:1 584:1 614:1 617:1 620:3 663:2 665:1 667:1 724:5 735:5 813:2 817:2 835:2 849:1 895:1 906:1 1048:1 1061:1 1071:1 1096:1 1104:1 1209:1 1331:1 1471:1 1658:3 1871:1 1930:1 2061:1 2132:1 2207:1 2268:2 2344:2 2351:1 2369:1 2397:1 2446:1 2469:1 2977:1 3150:1 3517:1 3848:1 3997:1 4095:1 4096:1 4097:1 4098:1 4099:2 4100:1 4101:1 4102:1 4103:1 4104:1 4105:1 4106:1 4107:1 4108:1 4109:1 4110:1 4111:1 4112:1 4113:1 4114:1 4115:1 4116:1 4117:1 4118:1 4119:1 4120:1 4121:1 4122:1 4123:1 4124:1 4125:1 4126:1 4127:1 4128:1 4129:1 4130:1 4131:1 100001:1 100002:1 100007:1 #
0.0061984741811928045079893578872543 11:1 41:1 146:1 358:1 805:1 1722:1 1793:1 3533:1 3534:1 3535:1 100001:1 100002:1 100007:1 #
-0.0087051277214709159996131049297219 2:1 11:2 28:1 30:1 41:1 102:1 617:1 663:2 667:1 724:1 735:1 854:1 1799:1 5595:1 5596:1 5597:1 5598:1 5599:1 5600:1 5601:1 5602:1 5603:1 100002:1 #
-0.011753957660902392481916400868158 11:8 41:1 102:2 225:1 227:1 232:2 529:1 620:1 724:1 735:1 750:1 835:1 1043:1 1384:1 1460:1 1953:1 1954:1 1978:1 2966:1 3071:1 4384:1 4387:1 4421:1 6940:1 6941:1 6942:1 6943:1 100002:1 100003:1 100005:1 100007:1 #
0.011753957660902392481916400868158 11:1 41:1 50:1 77:1 244:1 632:1 633:1 634:1 100001:1 100002:1 100007:1 #
-0.0049439566558232249382509593260693 11:6 41:2 54:1 102:2 114:2 151:1 227:1 228:1 232:1 322:1 401:1 614:1 652:1 658:1 660:4 724:1 735:1 944:1 1121:1 1207:1 1523:1 2256:1 2358:1 2562:1 2691:1 2765:1 2791:1 3129:1 4385:1 4590:1 4885:1 4886:1 4887:1 4888:1 4889:1 4890:1 4891:1 4892:1 4893:1 4894:1 4895:1 4896:2 4897:1 4898:1 4899:1 4900:1 4901:1 4902:1 4903:1 100007:1 #
-0.0064994861556974103250494678718496 2:1 11:8 41:1 102:3 114:2 151:1 193:1 225:1 228:1 232:1 241:1 243:1 249:1 401:1 594:1 614:1 645:1 652:1 658:2 660:2 663:1 667:2 697:1 700:1 724:1 735:1 767:1 847:1 895:1 1094:1 1195:2 1235:1 1298:2 1305:1 1488:1 1501:1 1786:1 1816:1 2061:1 2209:1 2423:1 2789:1 3103:1 3237:1 4659:1 4894:1 5276:1 7975:1 8084:1 9138:1 9324:1 9325:1 9326:1 9327:1 9328:1 9329:1 9330:1 9331:1 9332:1 9333:1 9334:1 9335:1 9336:1 9337:1 9338:1 9339:1 100002:1 100005:1 100007:1 #
-0.001538168626008645876318547962569 11:7 41:4 102:7 114:7 227:1 232:1 401:1 592:1 614:1 616:1 617:1 640:1 644:1 649:1 660:2 663:2 774:2 843:1 844:1 911:1 927:1 928:1 1001:1 1039:1 1065:2 1193:1 1197:1 1407:1 1527:3 1654:1 1658:2 2238:1 2848:1 2849:1 2865:1 2868:1 3091:1 3312:2 3348:1 3529:1 4167:1 4513:1 4691:1 4692:1 4693:1 4694:1 4695:1 4696:1 4697:1 4698:1 4699:1 4700:1 4701:1 4702:1 4703:1 4704:1 4705:1 4706:1 4707:1 4708:1 4709:1 4710:1 4711:1 4712:1 100002:1 100003:1 #
-0.011753957660902392481916400868158 11:6 23:1 41:4 102:1 114:1 225:1 227:1 228:1 256:1 401:1 593:1 594:1 614:1 620:1 658:1 663:1 767:1 868:2 906:1 924:1 1039:1 1040:1 1042:1 1066:1 1290:1 1305:1 1446:1 1658:1 2061:1 2118:1 2198:1 2358:1 2569:1 3103:1 3652:1 4277:1 5301:1 5302:1 5572:1 6308:1 9049:1 9138:1 10094:1 10095:1 10096:1 10097:1 10098:1 10099:1 100002:1 100003:1 100005:1 100007:1 #
0.011753957660902392481916400868158 11:5 41:2 182:1 613:1 724:1 735:1 835:1 875:1 1027:1 1028:1 1368:1 1622:1 1930:1 5455:1 7549:1 8720:1 8721:1 100001:1 100002:1 #
-0.011753957660902392481916400868158 11:4 41:3 102:1 406:1 923:1 1544:1 1644:1 3773:1 3774:1 3775:1 100002:1 100007:1 #
-0.011753957660902392481916400868158 11:6 41:2 227:1 232:1 349:1 620:1 634:1 663:1 748:1 750:1 835:1 875:1 1953:1 1954:1 2398:1 3529:1 4142:1 4143:1 4144:1 4145:1 4146:1 100002:1 100003:1 100007:1 #
-0.0014391256618067401352317746798803 11:11 28:3 30:3 41:5 102:4 114:3 190:1 225:3 227:2 232:4 245:1 246:1 322:1 408:1 591:1 592:1 614:2 616:2 617:2 653:1 654:2 655:1 658:3 660:2 663:2 667:2 724:1 735:1 844:1 847:1 849:1 875:2 889:3 924:1 1007:1 1055:1 1072:1 1236:1 1257:1 1279:1 1366:1 1374:1 1397:1 1403:1 1410:1 1413:1 1488:1 1811:1 1930:1 2082:1 2129:1 2209:1 2244:1 2358:1 2606:1 2701:1 2987:1 3201:1 3449:1 3689:1 4564:1 4596:1 4704:1 5576:2 5599:1 6098:1 6363:1 6612:1 6801:1 6802:2 6803:1 6804:1 6805:1 6806:1 6807:1 6808:1 6809:1 6810:1 6811:1 6812:1 6813:1 6814:1 6815:1 6816:1 6817:1 6818:1 6819:1 6820:1 6821:1 6822:1 6823:1 6824:1 100002:1 100003:1 100005:1 100007:1 #
-0.010653424134296438433033848980358 11:3 41:3 102:1 151:1 614:1 672:1 835:1 836:1 1560:1 1576:1 1728:1 1903:1 2820:1 3974:1 8902:1 9481:1 9482:1 100002:1 #
-0.011753957660902392481916400868158 11:2 41:1 119:1 225:2 658:1 1284:1 3178:1 3179:1 4580:1 100002:1 100005:1 100007:1 #
-0.011753957660902392481916400868158 11:2 41:2 168:1 660:1 723:1 1137:1 1458:1 2118:1 3661:1 8803:1 8804:1 100002:1 100007:1 #
0.0043603958758507855436592492992531 11:8 14:1 41:4 48:2 50:3 102:1 114:3 151:1 227:3 401:4 407:1 456:1 592:2 658:2 724:2 735:2 774:1 789:1 847:1 1003:1 1039:1 1065:2 1121:1 1220:1 1221:1 1253:1 1257:1 1655:1 1691:2 1978:2 2328:1 2478:2 2521:1 2682:1 2712:1 3005:1 3009:2 3124:1 3125:1 3126:1 3130:1 3149:1 3150:1 3151:1 3174:1 4162:2 4163:1 4164:2 4165:1 4166:1 4167:1 4168:1 4169:1 4170:1 4171:1 4172:1 4173:1 4174:1 4175:1 4176:1 4177:1 4178:1 4179:1 4180:2 4181:1 4182:1 4183:1 4184:1 4185:1 4186:1 4187:1 4188:1 4189:1 4190:1 100001:1 100002:1 100003:1 #
6.4093073743949190851365571575116e-05 11:7 28:1 30:1 41:5 50:4 61:1 102:7 114:4 151:1 225:1 232:2 349:1 401:1 652:1 658:1 724:1 735:1 774:2 849:1 897:1 943:1 1043:1 1072:1 1234:1 1366:1 1368:1 1448:1 1988:1 2131:1 2139:1 2423:1 3561:1 3636:1 3940:1 3952:1 4212:1 4559:1 5525:1 7150:1 7206:2 7207:1 7208:1 7209:1 7210:1 7211:1 100001:1 100002:1 100005:1 100007:1 #
0.0066938851298091028158010473703143 2:1 11:4 28:1 29:2 30:1 41:4 50:2 61:1 102:4 227:3 401:1 407:2 592:1 614:2 616:1 617:1 660:1 663:2 895:1 926:1 1161:1 1233:1 1285:1 1290:1 1293:1 1504:1 1547:1 1749:1 1796:1 1947:1 2061:1 2273:1 2569:2 2820:1 2934:1 3457:1 3779:1 4060:2 5500:1 5599:1 5620:1 7338:1 7402:1 8924:1 9321:1 10938:1 10939:1 10940:1 10941:1 10942:1 10943:1 10944:1 10945:1 10946:1 10947:1 10948:1 10949:1 10950:1 10951:1 10952:1 100001:1 100002:1 100007:1 #
0.003833567642279750182360276156146 5:2 11:7 23:1 33:1 41:3 50:3 77:1 102:2 114:2 227:6 232:2 305:1 389:1 616:1 620:1 625:1 642:1 658:1 660:2 663:1 724:1 735:1 789:1 830:1 1039:2 1065:4 1147:1 1192:1 1345:1 1434:1 1570:1 1616:1 1691:2 1887:1 1978:4 2328:1 2517:1 2553:1 2674:2 3118:2 3119:1 3120:1 3121:3 3122:1 3123:1 3124:1 3125:1 3126:1 3127:1 3128:1 3129:2 3130:1 3131:1 3132:1 3133:1 3134:1 3135:1 3136:1 3137:1 3138:1 3139:1 3140:1 3141:1 3142:1 3143:1 3144:1 3145:1 3146:1 3147:1 3148:1 3149:1 3150:1 3151:1 3152:1 3153:1 100001:1 100002:1 #
0.011753957660902392481916400868158 41:1 5592:1 100001:1 100007:1 #
-0.0085039017470385797753396062148568 11:2 33:1 41:2 43:1 50:1 102:3 401:1 406:1 456:1 592:2 614:1 616:1 620:1 663:1 667:1 817:1 895:1 971:1 1121:1 1328:1 1742:2 1842:1 1900:1 2423:1 2789:1 2973:1 3699:1 3723:1 4718:1 6238:1 6360:1 7682:1 7694:1 7695:1 7696:1 7697:1 7698:1 7699:1 7700:1 7701:1 7702:1 7703:1 100002:1 100004:1 100007:1 #
-0.011753957660902392481916400868158 11:2 41:3 50:1 102:3 112:1 151:1 227:1 592:1 660:1 1278:1 1287:1 1576:1 2022:1 3549:1 3673:1 3939:1 4346:1 6455:1 8902:1 11191:1 11192:1 11193:1 100002:1 100007:1 #
0.0027572531775569360419642084281122 11:11 41:8 50:6 102:7 114:9 151:5 163:1 193:1 225:1 227:3 232:4 249:3 401:2 406:1 408:1 580:1 592:1 612:1 614:5 616:1 617:1 652:4 654:1 658:4 660:2 663:1 672:1 673:1 836:1 889:1 906:1 971:1 1004:1 1039:1 1101:2 1121:1 1227:1 1255:1 1275:1 1276:1 1279:1 1287:2 1288:1 1304:1 1306:1 1336:1 1342:1 1446:1 1456:4 1469:1 1471:2 1486:1 1547:1 1548:1 1549:2 1646:1 1648:1 1659:1 1900:1 2022:3 2023:2 2030:1 2036:1 2108:1 2328:1 2361:1 2479:1 2725:1 2771:3 2799:1 2923:1 3219:1 3490:1 3699:1 4185:1 4560:1 4651:1 5420:1 5518:1 6204:1 6259:2 6564:1 6571:1 6588:1 6837:1 8551:1 8552:1 8553:1 8554:1 8555:1 8556:1 8557:1 8558:1 8559:1 8560:1 8561:1 8562:1 8563:1 8564:1 8565:1 100001:1 100002:1 100005:1 100007:1 #
0.006014504918479341571968532775827 11:2 41:1 358:1 1722:1 1936:1 2153:1 2495:1 3190:1 100001:1 100002:1 100007:1 #
-0.0063166002220405711650719204897086 11:6 28:3 30:3 41:2 50:1 102:5 114:4 225:1 227:1 245:1 271:1 434:1 592:1 614:1 658:1 660:1 663:1 724:2 735:2 811:2 814:1 868:1 895:2 1121:1 1268:1 1295:1 1395:1 1405:1 1523:2 1762:1 1871:1 2122:2 2361:1 2569:1 2582:1 3723:1 4421:2 5070:1 5345:1 5515:1 6363:1 6519:1 6723:1 6976:1 7153:1 7234:1 7434:1 7436:2 7639:1 7850:1 7924:1 9450:1 9534:1 9619:1 9915:1 9916:1 9917:3 9918:1 9919:1 9920:1 9921:1 9922:1 9923:1 100002:1 100005:1 100007:1 #
-0.0081116909257513847980591847885989 28:1 41:1 100:1 102:1 114:1 227:3 232:1 592:1 616:1 620:1 663:1 770:1 847:1 1072:1 1205:1 1772:1 2003:1 2033:1 2673:1 3656:1 3657:1 5632:1 6485:1 6486:1 6487:1 6488:1 6489:1 6490:1 6491:1 6492:1 6493:1 100004:1 100007:1 #
-0.01104201448304015578671943842437 11:4 23:1 33:1 41:2 43:2 97:1 102:1 114:1 151:1 190:1 227:1 401:1 614:1 658:1 660:1 697:2 700:2 724:1 735:1 823:1 895:1 1039:1 1227:1 1374:1 1654:1 2396:1 2663:1 2885:1 2924:1 3201:1 3593:1 3700:1 4891:1 6984:2 6985:1 6986:1 6987:1 6988:1 6989:1 6990:1 100002:1 100007:1 #
0.002404991591541294233130843238655 11:5 41:1 50:1 102:1 114:1 136:1 151:1 225:1 227:2 232:1 401:1 592:1 644:1 655:1 660:1 667:1 847:1 1307:1 1360:1 1456:1 1567:1 1742:1 1870:1 1871:1 1872:1 1873:1 1874:1 1875:1 1876:1 1877:1 1878:1 1879:1 1880:1 1881:1 1882:1 1883:1 1884:1 1885:1 100001:1 100002:1 100005:1 100007:1 #
0.011753957660902392481916400868158 11:4 28:1 30:1 41:2 50:1 102:2 112:2 114:3 151:1 407:4 505:1 611:1 616:1 617:1 660:1 724:1 735:1 1134:1 1250:1 1288:1 1383:1 1525:1 1526:1 1527:1 1528:1 1529:1 1549:1 2509:1 2820:1 6287:1 6288:1 6289:1 6290:1 6291:1 100001:1 100002:1 #
0.00071023845073701138020522138916135 11:7 28:2 30:2 41:2 50:1 102:3 151:1 232:4 401:2 658:1 706:1 750:1 909:1 1215:1 1816:1 1986:1 3599:1 3893:1 3940:1 4342:1 4444:1 4620:1 4621:2 4625:1 4626:1 4627:1 4628:1 4629:1 4630:1 4631:1 4632:1 4633:1 4634:1 4635:1 4636:1 6215:1 6499:1 10018:1 10019:1 10020:1 10021:1 100001:1 100003:1 100005:1 100007:1 #
0.011753957660902392481916400868158 11:1 28:1 29:1 30:1 41:2 102:3 114:3 592:1 620:1 646:1 724:1 735:1 906:1 1429:1 1439:1 1441:1 1742:1 2369:1 2975:1 3033:1 4212:1 4933:1 5851:1 100001:1 100002:1 #
-0.011753957660902392481916400868158 5:1 11:1 14:1 33:2 41:1 50:1 151:2 790:1 1026:1 2874:1 2875:1 2876:1 2899:1 3053:1 5833:1 8993:1 8994:1 8995:1 100007:1 #
-0.011753957660902392481916400868158 5:1 11:3 23:1 33:1 97:1 212:1 389:1 407:1 427:1 781:1 3005:1 3106:1 3151:1 4596:1 6602:1 6603:1 6604:1 6605:1 100002:1 100006:1 #
-0.011753957660902392481916400868158 11:3 14:2 33:3 41:2 71:1 91:1 145:1 212:2 313:1 1027:1 1957:1 4680:1 6299:1 6529:1 8653:1 8654:1 8655:1 8656:1 8657:1 8658:1 8659:1 8660:1 8661:1 100007:1 #
-0.011753957660902392481916400868158 11:2 28:3 30:3 41:3 611:1 663:1 7998:1 7999:1 8000:1 8001:1 #
0.0023916236527477120581142155941734 11:6 41:5 43:1 50:1 102:6 105:1 114:3 225:1 227:2 232:1 322:2 401:1 592:1 614:1 635:1 636:2 637:1 638:1 639:1 640:1 641:2 642:1 658:1 681:1 701:1 844:1 847:1 895:1 1039:1 1658:1 1831:1 1965:2 2731:1 2889:1 2980:1 3053:1 3400:1 4038:1 4464:1 4744:1 5253:1 5269:1 5303:1 5390:1 5493:1 5799:1 7139:1 9928:1 9929:1 9930:1 9931:1 9932:1 9933:1 9934:1 9935:1 9936:1 9937:1 100001:1 100002:1 100005:1 100007:1 #
-9.1292320633843903839900468799584e-05 11:8 41:2 102:8 114:7 151:2 232:1 245:1 271:1 401:3 616:3 617:1 652:1 655:1 658:1 660:1 663:2 667:1 864:2 895:1 906:1 1040:1 1061:1 1090:1 1233:1 1427:1 1476:1 1486:1 1547:1 1610:1 1825:2 1831:2 2253:1 2358:1 2571:1 2582:1 2885:1 2973:1 3419:2 3490:1 3579:1 3984:1 4040:1 4097:2 4446:1 5121:1 5155:1 5571:2 5580:1 5708:1 5716:1 6999:1 7549:1 8143:1 9533:1 9553:1 10492:1 11035:1 11036:2 11037:1 11038:1 11039:1 11040:1 11041:1 11042:1 11043:1 11044:1 11045:1 11046:1 11047:1 11048:1 11049:1 11050:1 11051:1 11052:1 #
0.011753957660902392481916400868158 41:1 1643:1 100001:1 100007:1 #
-0.011753957660902392481916400868158 11:3 23:1 41:3 102:1 151:1 200:1 217:1 225:1 232:3 401:1 614:1 658:1 681:1 701:1 724:1 735:1 768:2 988:1 1121:1 1211:1 1237:1 1614:1 2061:1 2581:1 3101:1 6286:1 7334:1 7406:1 8352:1 8997:1 8998:1 8999:1 9000:1 9001:1 9002:1 100002:1 100005:1 100006:1 100007:1 #
-0.0053879052363903761485586230151057 28:1 29:1 30:1 41:3 100:1 102:1 114:2 151:1 227:1 232:1 401:1 407:2 535:1 614:2 620:1 1096:1 1129:1 1199:1 1421:1 1728:1 2667:1 3032:1 4354:1 5340:1 5341:1 5342:1 5343:1 5344:1 5345:1 100002:1 100004:1 #
0.00042722265659950718359044730121354 11:10 41:4 50:3 102:5 114:3 151:2 225:2 227:3 232:3 401:1 614:6 616:1 617:1 658:3 663:1 667:2 674:1 706:1 724:3 735:3 847:1 849:2 906:2 971:1 1041:1 1121:1 1161:1 1279:1 1293:1 1396:1 1456:3 1519:2 1522:1 1549:2 1803:1 1833:3 1903:1 2078:1 2084:3 2093:1 2205:1 2361:1 2467:2 2499:1 2766:1 3509:1 3574:1 3580:1 3582:3 3583:2 3639:1 4093:2 4132:1 4173:1 4465:1 4761:1 4819:2 5065:1 5130:1 5248:1 5498:1 5708:2 5803:1 6518:1 7336:1 7484:1 7562:1 8565:2 9003:1 9970:1 9971:1 9972:1 9973:1 9974:1 9975:1 9976:1 9977:1 9978:1 9979:1 100001:1 100002:1 100003:1 100005:1 100007:1 #
0.00082586203018726557154027823060005 11:14 28:2 30:1 41:4 50:2 77:1 102:8 114:2 151:1 227:1 232:4 349:1 352:1 395:1 401:4 616:2 658:1 667:1 724:5 735:4 750:1 772:1 774:1 823:1 847:1 849:1 899:1 1039:1 1045:1 1061:1 1121:1 1142:1 1211:1 1227:1 1268:1 1273:1 1369:3 1775:1 1828:1 1831:1 1930:1 1978:1 2026:1 2204:1 2209:1 2485:1 2569:1 2607:1 2663:1 2973:1 2988:1 3322:1 3324:1 3540:2 3678:1 3954:1 4237:1 4354:2 4413:1 4486:2 4501:1 4942:1 6682:1 6706:1 7142:1 7387:1 7412:1 8923:1 8924:1 8925:1 8926:1 8927:1 8928:1 8929:1 8930:1 8931:1 8932:2 8933:1 8934:1 8935:1 8936:1 8937:1 8938:1 8939:1 8940:1 8941:1 8942:1 8943:1 8944:1 100001:1 100002:1 100003:1 100007:1 #
0.011753957660902392481916400868158 41:1 5592:1 100001:1 100007:1 #
-0.00019581523955427372401735808260526 11:5 28:1 30:1 41:1 77:1 102:3 225:1 227:2 232:1 241:1 243:1 401:1 608:1 614:2 617:4 652:2 653:2 658:2 724:1 735:1 847:1 895:2 1094:2 1255:2 1266:1 1290:1 1311:1 1655:1 1943:1 1948:1 2080:1 2358:2 2569:2 2923:1 5052:2 5053:1 5054:2 5055:1 5056:2 5057:1 5058:1 5059:1 5060:1 100002:1 100005:1 #
-0.0035384536798243387475948473763765 11:5 28:1 30:1 41:2 50:1 100:1 102:3 658:1 889:1 981:1 1007:1 1182:1 1211:1 1446:1 1447:1 1459:1 1606:1 1831:1 2392:1 2398:1 2478:1 5115:1 5570:1 5571:1 5572:1 5573:1 5574:1 5575:1 5576:1 100002:1 #
0.005481389126820541621287752320768 11:5 28:1 30:1 41:1 102:5 114:4 225:1 232:1 401:1 612:1 663:1 684:2 847:1 895:1 906:1 1121:1 1289:1 1456:1 1672:1 1702:1 1703:1 1803:1 1896:1 2467:1 2667:1 3094:1 3757:1 3758:1 3759:1 3760:1 3761:1 3762:1 3763:1 3764:1 100001:1 100002:1 100005:1 100006:1 100007:1 #
0.0056567084672888984231420295145654 11:4 15:1 28:1 30:1 41:3 50:1 102:8 114:2 151:1 232:1 406:1 458:2 620:1 658:1 660:1 759:1 791:1 836:1 1007:1 1026:1 1233:1 1298:1 1446:1 1447:1 1489:1 2761:1 2911:1 2987:1 3693:1 3795:1 3798:1 5352:1 5865:1 6857:1 8239:1 8906:2 8907:2 8908:1 8909:2 8910:1 8911:1 8912:1 8913:1 8914:1 8915:1 8916:1 100001:1 100002:1 100006:1 100007:1 #
-0.011753957660902392481916400868158 11:3 14:1 41:2 102:2 178:1 225:1 227:1 658:1 1181:1 1633:1 2637:1 2956:1 3213:1 3214:1 3215:1 3216:1 3217:1 3218:1 3219:1 100002:1 100005:1 100007:1 #
0.0089072901462693022250904917314074 11:2 28:1 30:1 41:2 50:1 227:1 232:1 256:1 401:1 614:1 724:1 735:1 895:1 906:1 965:1 1035:1 2049:1 3111:1 3253:1 3662:1 3933:1 4212:1 4713:1 4714:1 4715:1 4716:1 4717:1 4718:1 4719:1 4720:1 4721:1 100001:1 100002:1 100007:1 #
0.011753957660902392481916400868158 11:1 28:1 30:1 41:1 168:1 190:1 434:1 1582:1 100001:1 100002:1 100007:1 #
-0.0023789623422004950274721846170678 41:2 102:2 227:1 232:1 401:1 663:1 750:1 849:1 1065:1 1233:1 1264:1 1345:1 1749:1 1796:1 3327:1 3654:2 3655:1 3656:1 3657:1 3658:1 #
-0.011753957660902392481916400868158 35:1 41:1 102:1 114:1 620:1 4120:1 5298:1 5299:1 100007:1 #
0.011753957660902392481916400868158 11:2 41:1 50:1 102:1 358:1 620:1 1635:1 1722:1 2397:1 2398:1 2399:1 2400:1 100001:1 100002:1 100003:1 100007:1 #
0.0074026625045859892684796399464631 11:6 41:1 102:1 401:1 529:1 614:1 616:1 617:1 724:1 735:1 750:1 835:1 1043:1 1384:1 1460:1 1953:1 1954:1 2966:1 4384:1 4385:1 4386:1 4387:1 4388:1 100001:1 100002:1 100006:1 100007:1 #
0.0042988052228601818585684846141248 11:3 28:1 30:1 41:2 50:2 102:5 114:2 151:1 227:1 232:1 241:1 243:1 616:2 652:1 660:3 663:1 667:1 724:2 735:2 774:1 830:2 898:1 1009:1 1040:1 1121:1 1133:1 1182:1 1233:1 1265:1 1298:2 1309:1 1328:1 1426:1 1458:1 1524:1 1676:1 1871:1 2061:2 2423:1 2513:1 2571:1 2574:1 2593:1 2608:1 2610:1 2611:1 2789:1 2887:1 4173:1 4284:1 4342:2 4753:2 4942:1 7148:1 7494:1 7495:2 7496:1 7497:1 7498:1 7499:1 7500:1 7501:1 7502:1 7503:1 7504:1 100001:1 100002:1 100007:1 #
-0.0033654500982368126468791125205371 2:1 11:1 41:1 50:1 102:2 114:9 151:2 227:2 232:3 241:1 243:2 401:2 614:1 616:1 617:1 660:3 667:1 724:1 735:1 835:1 868:1 895:1 987:1 1285:1 1298:1 1537:2 1548:1 1943:1 1985:3 2086:1 2269:1 2478:1 2515:1 2555:1 3163:1 3277:3 4126:1 5443:1 5620:1 5704:1 6621:1 6622:1 6623:1 6624:3 6625:1 6626:2 6627:2 6628:2 6629:1 6630:1 100002:1 100003:1 #
-0.0074864485662093378098846940815747 11:7 41:3 50:2 102:1 114:2 592:1 614:1 652:1 667:1 724:5 735:5 774:2 847:2 849:1 1026:1 1039:2 1061:1 1233:1 1266:2 1298:1 1616:1 1742:1 1831:1 2375:1 3036:1 4277:2 4745:1 5243:1 5885:1 6233:1 7126:1 7245:1 7434:1 8526:2 8527:3 8528:1 8529:1 8530:2 8531:2 8532:1 8533:1 8534:1 8535:1 8536:1 8537:1 8538:1 100007:1 #
0.0085904380840340320568682130897287 11:5 29:1 41:3 102:1 225:1 227:1 232:1 249:1 395:1 401:1 406:1 407:1 614:1 620:1 649:1 658:1 660:1 663:1 665:1 724:1 735:1 835:1 860:1 895:1 1058:1 1078:1 1121:1 1774:1 2423:1 2667:1 2895:1 2896:1 2900:1 5547:1 5649:1 6007:1 11619:1 11620:1 100001:1 100002:1 100005:1 100007:1 #
-0.0049992183852866130949754719381417 11:1 41:5 97:1 102:2 114:2 151:2 227:2 232:1 640:1 658:2 663:1 724:3 735:3 840:1 841:1 1004:1 1007:1 1071:2 1099:1 1101:1 1266:1 1279:1 1297:1 1429:1 1568:1 2486:1 3448:1 3658:1 3798:1 4212:1 6497:1 7804:1 8802:1 9632:1 10654:1 10749:1 11754:1 11755:1 11756:1 11757:1 100002:1 #
-0.011753957660902392481916400868158 5:1 11:1 41:1 724:1 735:1 790:1 5030:1 7278:1 7279:1 7280:1 100004:1 #
0.0028936126422170896713148557921613 11:8 41:3 50:1 102:2 227:1 232:1 427:1 612:2 752:2 753:1 791:1 906:1 996:1 1027:2 1028:2 1201:1 1220:1 1347:1 1796:1 2424:2 4137:1 8368:3 100001:1 100002:1 #
0.011753957660902392481916400868158 11:5 14:1 41:4 114:1 232:3 245:1 395:1 605:1 614:1 653:1 672:1 691:1 724:1 735:1 1576:1 1938:1 2221:1 2222:1 4511:1 5073:1 6232:1 6233:1 6234:1 6235:1 100001:1 100002:1 #
-0.0053688130280030782123801280647513 5:1 11:4 28:1 41:2 100:1 241:1 243:1 322:1 395:1 406:1 434:1 681:1 684:1 726:1 933:1 936:1 1966:1 2143:1 2144:1 2145:1 2146:1 2147:1 2148:1 2149:1 2150:1 2151:1 2152:1 100002:1 #
-0.010837708410703601052960109996093 11:4 41:3 232:1 672:1 835:3 1576:1 1728:2 8731:1 8732:1 8733:1 8734:1 8735:1 100002:1 #
-0.0022379446411639695307949082803134 11:4 41:4 102:6 114:3 151:1 249:1 401:1 614:1 652:1 660:1 663:2 672:1 673:1 759:1 774:1 1077:1 1227:1 1290:1 1302:1 1306:1 1307:1 1341:1 1342:1 1456:1 1517:1 1831:1 2509:1 2606:2 2748:1 2910:1 3303:1 4039:1 4106:1 4139:1 5293:1 5700:1 9110:1 11231:1 11232:1 11233:1 11234:1 11235:1 100002:1 #
0.011753957660902392481916400868158 11:2 41:1 50:1 102:2 232:2 356:1 401:2 620:1 691:1 724:1 735:1 897:1 1383:1 1570:1 1753:1 1769:1 1770:1 2139:1 2640:1 2702:1 2703:1 2704:1 2705:1 2706:1 100001:1 100002:1 #
-0.011753957660902392481916400868158 2:1 11:4 41:3 50:1 54:1 102:1 227:1 232:1 245:1 434:1 616:1 653:1 667:1 724:1 735:1 847:1 1215:1 1434:1 1770:1 2222:1 2981:1 3111:1 3975:2 5791:1 7712:1 10982:1 10988:1 10989:1 10990:1 11598:1 11842:1 11843:1 11844:1 11845:1 100002:1 100007:1 #
-0.0054717066441657986192170781691857 11:5 41:2 50:4 102:5 114:2 151:2 232:2 244:1 358:1 427:1 614:1 658:1 660:1 663:2 724:2 735:2 835:2 849:1 906:1 971:1 1020:3 1021:3 1051:1 1088:1 1284:1 1658:1 1908:1 4714:2 5153:1 5326:2 8304:2 8518:1 9111:1 9112:1 9113:2 9114:1 9115:1 9116:1 100002:1 100003:1 100007:1 #
0.0094482554487216059008192203805265 11:4 41:1 102:1 114:1 232:1 434:1 614:1 1041:1 1061:1 1366:1 1718:1 3948:1 7770:1 8471:1 9018:1 11082:1 11083:1 11084:1 11085:1 11086:1 100001:1 100002:1 100007:1 #
-0.0050308662217779182360133383156153 11:5 28:3 30:2 41:1 50:2 54:1 102:5 114:1 232:4 245:1 401:1 605:1 614:1 617:2 620:1 667:1 895:2 1041:1 1204:1 1280:1 1356:1 1424:1 1816:1 1831:1 2181:1 2188:1 3280:1 3511:1 3628:1 4404:1 4567:1 4939:1 5712:1 5719:1 5842:1 7374:1 10488:1 10598:1 10976:1 11853:1 11854:1 11855:1 11856:1 11857:1 11858:1 11859:1 11860:1 11861:1 11862:1 11863:1 11864:1 11865:1 11866:1 100002:1 100007:1 #
0.011753957660902392481916400868158 11:3 23:1 28:1 30:1 41:3 151:2 232:1 667:1 697:1 700:1 724:1 735:1 1035:1 1926:1 1927:1 4191:1 5351:1 6661:1 6662:1 6663:1 6664:1 6665:1 6666:1 6667:1 6668:1 100001:1 100002:1 #
0.011753957660902392481916400868158 8:1 11:1 28:2 30:2 41:3 114:1 166:1 236:1 237:1 238:1 239:1 240:1 241:1 242:1 243:1 244:1 245:1 246:1 247:1 248:1 249:1 250:1 100001:1 100002:1 #
0.011753957660902392481916400868158 11:2 41:1 225:1 434:1 811:1 3723:1 4389:1 5070:1 5071:1 100001:1 100002:1 100005:1 #
-0.011753957660902392481916400868158 2:1 11:2 28:1 30:1 41:1 54:1 225:1 395:1 592:1 617:1 840:1 1101:1 1195:1 1205:1 1236:1 1943:1 4528:1 6429:1 9636:1 9637:1 9638:1 9639:1 9640:1 9641:1 9642:1 100002:1 100005:1 100007:1 #
-0.011753957660902392481916400868158 41:2 225:1 1300:1 100002:1 100005:1 #
-0.0029968255006266142186077683362555 11:2 41:1 407:2 805:1 875:1 1296:1 1658:1 4509:1 4772:1 4773:1 4774:1 4775:1 100002:1 #
0.0036590050511426421009364418068799 11:6 41:1 50:1 102:1 227:1 241:1 243:1 721:1 787:1 983:1 1237:1 1728:2 1831:1 2321:1 4375:1 4376:1 4377:1 4378:1 4379:1 4380:1 4381:1 4382:1 4383:1 100001:1 100002:1 100007:1 #
0.0017530632100787885835346813223623 11:7 28:1 30:1 41:4 43:1 102:2 114:5 151:2 227:1 232:2 401:2 592:1 608:5 616:1 617:2 644:1 658:1 660:1 663:2 724:1 735:1 774:4 844:1 847:1 849:2 895:1 906:1 971:1 1009:1 1015:1 1018:1 1039:1 1101:1 1137:1 1153:1 1233:1 1271:1 1298:1 1355:1 1616:1 1633:1 1831:1 2333:1 2389:1 2424:1 2427:1 2607:1 2797:1 3214:1 3215:1 3471:1 3476:1 3516:1 3517:1 3661:1 4170:1 5155:1 5277:1 5418:1 5630:1 6376:2 6709:3 6710:2 6711:3 6712:1 6713:1 6714:1 6715:1 6716:1 6717:1 6718:1 6719:1 6720:1 6721:1 6722:1 6723:1 6724:1 6725:1 6726:1 6727:1 6728:1 6729:1 6730:1 100001:1 100002:1 100007:1 #
-0.011753957660902392481916400868158 11:4 28:1 30:1 41:3 50:1 102:1 114:1 151:1 225:1 232:1 358:1 401:3 614:1 616:1 660:1 672:1 906:1 1284:1 1306:1 1558:1 1576:1 1654:1 1816:2 1902:1 2989:1 3261:1 4828:1 4836:1 6138:1 7092:1 7144:1 8695:1 8696:1 8697:1 8698:1 8699:1 8700:1 8701:1 8702:1 8703:1 100002:1 100007:1 #
-0.011753957660902392481916400868158 11:3 28:2 30:2 41:3 43:1 50:1 102:1 105:1 151:1 193:1 232:3 331:1 458:2 592:2 663:2 715:1 724:2 735:2 971:1 1328:1 1585:1 1608:1 1930:1 2321:2 2884:2 2894:1 2912:1 2926:1 3389:1 6521:1 6522:2 6523:1 6524:1 100002:1 100007:1 #
-0.011753957660902392481916400868158 1:1 2:1 11:2 14:1 28:1 30:1 41:2 50:1 63:1 71:1 97:1 151:1 165:1 232:1 617:1 658:1 898:1 906:2 1430:1 1431:1 1432:1 1433:1 1434:1 1435:1 1436:1 1437:1 1438:1 1439:1 1440:1 1441:1 1833:1 1871:1 2345:1 3872:1 4212:1 4722:1 4723:1 100002:1 100007:1 #
0.011753957660902392481916400868158 11:3 41:1 102:1 245:1 614:1 634:1 663:2 787:1 835:1 906:1 1570:1 1728:1 1816:1 1871:1 2820:1 2985:1 3402:1 4726:2 4971:1 5522:1 10899:1 10900:1 10901:1 10902:1 10903:1 10904:1 10905:1 100001:1 100002:1 100007:1 #
0.007799038955658909103019205133478 11:3 41:1 102:2 114:2 217:1 232:1 536:1 640:1 663:2 897:1 1026:1 2761:1 4362:1 5243:1 5901:1 5902:1 5903:1 5904:1 5905:1 100001:1 100002:1 100007:1 #
-0.00056004287994741676001697605613572 2:1 11:6 28:1 30:1 41:2 102:2 114:2 407:4 875:2 889:1 904:1 1041:1 1137:1 1364:2 1658:2 1978:1 2103:1 2656:1 2820:1 4447:1 4509:2 4693:1 4773:1 4887:1 9492:1 10015:1 10028:1 10325:1 10326:1 10327:1 10328:1 10329:1 100002:1 #
-0.011753957660902392481916400868158 11:2 41:1 102:1 225:1 562:1 3019:1 3020:1 3021:1 100002:1 100005:1 #
-0.011753957660902392481916400868158 11:1 41:1 102:1 114:1 227:1 356:1 1285:1 1419:1 1658:1 4509:1 11636:1 100002:1 #
0.0022233297783370931446911278328571 11:9 28:1 30:1 41:6 50:1 102:2 114:2 151:1 227:2 232:2 401:4 614:2 616:1 652:1 655:1 660:3 663:2 667:2 672:1 706:1 774:1 835:1 906:1 1039:1 1042:1 1088:1 1147:1 1253:1 1268:1 1272:1 1306:1 1307:1 1328:1 1407:1 1456:1 1494:1 1576:1 1608:1 1658:1 1833:1 2003:1 2004:1 2021:1 2084:1 2358:2 2623:1 2694:1 2910:1 3405:1 3574:1 3798:1 4140:1 4337:1 5065:2 5472:2 5868:1 6368:1 7524:1 7692:1 8556:2 8703:2 8936:1 9384:1 10283:1 10763:1 10764:1 10765:1 10766:1 10767:1 10768:1 10769:1 10770:1 10771:1 10772:1 10773:1 10774:1 10775:1 10776:1 10777:1 10778:1 10779:1 10780:1 10781:1 100001:1 100002:1 100003:1 100005:1 100007:1 #
0.011753957660902392481916400868158 41:1 1643:1 100001:1 100007:1 #
0.011753957660902392481916400868158 41:1 5592:1 100001:1 100007:1 #
-0.0091036396163462242336894547634074 11:1 41:1 114:2 232:2 401:3 614:1 616:1 875:1 1053:1 1421:1 1803:1 2075:1 2503:1 3024:1 3723:1 7233:1 7234:1 7235:1 100002:1 #
0.0026424537494788157172831422059289 11:5 16:1 41:1 102:1 232:2 331:1 640:1 724:1 735:1 807:1 835:1 1042:1 1043:1 3087:1 3088:1 3094:1 3226:1 3976:1 11308:1 11309:1 11729:1 100001:1 100002:1 100007:1 #
0.010604295852807215164159693188139 11:5 41:3 102:3 114:1 401:1 612:1 658:1 667:1 753:1 1068:1 2198:1 2321:1 2988:1 3103:1 3364:1 3502:1 3652:1 5301:1 5302:1 5327:1 5618:1 5996:1 5997:1 5998:1 5999:1 100001:1 100002:1 100007:1 #
0.011753957660902392481916400868158 11:4 41:2 50:1 102:5 658:1 691:1 724:1 735:1 1361:1 1444:1 1456:1 2118:1 2119:1 5754:1 5755:1 5756:1 5757:1 5758:1 100001:1 100007:1 #
-0.0031432800626681146535790212226402 11:3 41:2 50:1 102:1 114:1 232:1 774:1 849:1 860:1 1061:1 1257:1 1628:1 2056:1 2695:1 4714:1 4917:1 6242:1 6736:1 7320:1 9595:1 11027:1 11028:1 11029:1 11030:1 11031:1 11032:1 11033:1 11034:1 #
0.00584687690502729440905627100733 11:7 41:1 50:1 102:4 114:1 151:1 223:1 225:1 232:1 592:2 612:1 620:1 640:1 660:1 663:1 895:1 900:1 1019:1 1040:1 1233:1 1742:1 2321:1 2722:1 3365:1 3529:1 3636:1 3867:1 3920:1 4923:1 5194:1 6184:1 6204:1 6205:1 6206:1 6207:2 6208:1 6209:1 6210:1 6211:1 6212:1 6213:1 6214:1 100001:1 100002:1 100005:1 100007:1 #
-0.009769045991187278593637088874857 2:2 11:9 28:1 29:1 30:1 41:4 50:1 77:1 100:1 102:4 114:1 614:1 617:1 658:1 663:3 724:1 735:1 841:3 844:1 847:2 864:1 895:2 897:1 981:1 1096:1 1098:1 1121:2 1159:1 1160:1 1170:1 1171:1 1179:2 1180:1 1658:1 2454:1 3306:1 3515:1 3887:1 5417:1 5583:1 6125:1 9018:1 9578:1 10069:1 11604:1 11605:1 11606:1 11607:1 11608:1 11609:1 11610:1 11611:1 11612:1 11613:1 11614:1 11615:1 11616:1 11617:1 11618:1 100002:1 100003:1 100007:1 #
0.011753957660902392481916400868158 11:2 28:1 29:1 30:1 41:1 102:1 114:1 151:1 227:1 232:1 663:1 724:1 735:1 983:1 1408:1 1802:1 3682:1 3736:1 6739:1 6740:1 6741:1 6742:1 6743:1 100001:1 100002:1 #
-0.011753957660902392481916400868158 11:2 41:2 102:1 190:1 1227:1 1300:1 1645:1 4441:1 100002:1 100007:1 #
-0.011753957660902392481916400868158 11:2 41:1 102:1 232:1 401:1 660:1 663:1 667:1 1040:1 1501:1 1813:1 1814:1 1815:1 1816:1 1817:1 1818:1 1819:1 1820:1 1821:1 1822:1 1823:1 100002:1 100007:1 #
-0.011753957660902392481916400868158 5:1 11:3 23:1 29:1 41:1 102:1 724:1 735:1 1182:1 1567:1 2719:2 3152:1 3936:1 8310:1 8491:1 100002:1 #
0.011753957660902392481916400868158 41:1 358:1 620:1 4120:1 6000:1 100001:1 100002:1 100007:1 #
0.0032942555594366114586624139093374 11:1 41:1 358:1 555:1 805:1 1722:1 1989:1 1990:1 1991:1 1992:1 100001:1 100002:1 100007:1 #
-0.010553119862349731247763706676324 11:4 28:1 30:1 41:2 241:1 243:1 322:1 395:1 406:1 681:1 684:1 726:1 933:1 936:1 1936:1 1966:1 2143:1 2144:1 2148:1 2152:1 2281:1 2282:1 2283:1 2284:1 2285:1 2286:1 2287:1 100002:1 #
0.011753957660902392481916400868158 11:2 41:1 245:1 944:1 1403:1 5212:1 8457:1 8458:1 100001:1 100003:1 100007:1 #
-0.011753957660902392481916400868158 11:7 28:2 30:2 41:1 102:1 144:2 227:1 232:1 245:2 663:1 753:1 854:1 895:1 1411:1 1908:1 3629:1 6742:1 10598:2 11319:1 11320:1 11321:1 11322:1 11323:1 11324:1 11325:1 11326:1 11327:1 11328:1 100002:1 100007:1 #
-0.0068036813057066464205391298492032 11:8 41:2 50:2 102:1 114:1 168:1 232:1 245:1 401:1 409:1 434:1 592:1 652:1 658:1 660:2 724:3 735:3 774:1 847:1 906:1 1009:1 1039:1 1137:1 1205:1 1290:1 1938:1 2129:1 2361:1 2569:1 3710:1 4185:1 4320:1 4321:1 4322:1 4323:1 4324:1 4325:3 4326:1 4327:1 4328:1 4329:2 4330:1 4331:1 4332:1 4333:1 4334:1 100002:1 100007:1 #
-0.011753957660902392481916400868158 11:5 41:4 50:1 102:2 1442:1 1481:2 1654:1 2049:1 4688:1 5042:1 11769:1 11770:1 11771:1 11772:1 11773:1 #
-0.011753957660902392481916400868158 11:2 41:1 102:1 227:1 658:1 1232:1 1233:1 1234:1 1235:1 1236:1 1237:1 1238:1 1239:1 1240:1 100002:1 100007:1 #
-0.0060160398167874891417472582588744 11:2 41:1 227:3 232:1 1017:1 1124:1 1133:1 1169:1 1257:1 2434:1 3019:1 3344:1 4416:1 4766:1 6837:1 6838:1 6839:1 6840:1 #
0.0058072142784601583562209548006194 2:1 5:1 11:3 23:3 28:3 30:3 39:1 40:1 41:3 65:1 158:1 167:1 168:1 169:1 170:1 171:1 172:1 173:1 174:1 175:1 176:1 177:1 178:2 179:1 180:1 181:1 182:1 183:1 184:1 185:1 186:1 187:1 188:1 189:1 190:1 100001:1 100002:1 100003:1 #
0.011753957660902392481916400868158 11:2 41:2 50:2 225:1 724:1 735:1 5245:1 10649:1 10848:1 10849:1 10850:1 100001:1 100002:1 100005:1 #
0.0044590869595687986776111344511264 11:2 28:1 30:1 41:1 61:1 158:1 225:1 667:1 724:1 735:1 772:1 847:1 895:1 1121:1 1328:1 2513:1 2547:1 2552:1 4509:1 5484:1 5518:1 9449:1 100001:1 100002:1 100005:1 100007:1 #
0.011753957660902392481916400868158 8:1 11:3 14:1 28:1 30:1 33:1 41:2 43:1 319:1 320:1 321:1 322:1 323:1 324:1 325:1 326:1 327:1 328:1 329:1 330:1 331:1 332:1 333:1 334:1 335:1 100001:1 100002:1 100003:1 #
0.0041830289117626186234932816887522 2:1 11:3 28:1 29:1 30:1 33:1 41:1 151:1 640:1 663:1 714:1 781:1 789:1 790:1 791:1 840:1 3053:1 3242:1 3243:1 3244:1 3245:1 3246:1 3247:1 100001:1 100002:1 100007:1 #
0.011753957660902392481916400868158 2:1 11:2 41:2 102:1 114:1 227:2 232:1 505:1 658:1 1074:1 1121:1 1981:1 2075:1 2485:1 3445:1 3720:1 7849:1 7961:1 7962:1 7963:1 7964:1 100001:1 100002:1 100007:1 #
0.011753957660902392481916400868158 11:4 41:1 102:3 136:1 190:1 227:1 232:1 616:1 658:1 660:1 724:1 735:1 770:1 844:1 898:1 1039:1 1233:1 1259:1 1628:1 1930:1 2321:1 2540:1 3210:1 3659:1 4409:1 5121:1 5132:1 5510:2 6744:1 7648:1 8112:1 8113:1 10388:1 10389:1 10390:1 10391:1 100001:1 100002:1 100007:1 #
0.011753957660902392481916400868158 11:1 41:1 102:1 614:1 1276:1 1300:1 1833:1 2084:1 3582:1 4132:1 4133:1 100001:1 100002:1 100007:1 #
0.011753957660902392481916400868158 5:1 11:1 23:1 28:1 30:1 41:1 217:1 259:1 260:1 261:1 262:1 263:1 264:1 265:1 100001:1 100002:1 100003:1 100006:1 #
-0.004853006626055311745204789986019 5:1 28:1 30:1 33:2 41:2 61:1 100:1 194:2 204:1 212:1 541:1 1331:1 1567:2 1710:1 2006:1 2007:2 2008:1 2009:1 2010:1 2011:1 2012:1 2013:1 2014:1 100002:1 #
0.0026377061773081161843990116722125 11:3 41:2 114:2 331:1 592:1 1020:1 1021:1 1465:1 5168:1 5453:1 100001:1 100002:1 100007:1 #
0.0088040519006794600714860266066353 11:1 28:2 30:2 41:3 50:1 77:1 102:4 151:1 227:1 614:1 617:1 658:1 663:1 757:1 860:1 896:1 897:1 906:1 1068:1 1446:1 1447:1 1458:1 1545:1 2987:1 4841:1 5352:1 8373:1 9314:1 9319:1 9484:1 9485:1 9486:1 9487:1 9488:1 9489:1 9490:1 9491:1 100001:1 100002:1 100007:1 #
-0.011753957660902392481916400868158 11:3 28:1 30:1 41:1 43:1 50:1 102:2 114:1 151:1 227:1 614:1 644:1 868:1 897:1 903:1 1007:1 1042:1 2569:1 2924:1 4008:1 4413:1 4878:1 7060:1 7061:1 7062:1 7063:1 7064:1 7065:1 100007:1 #
0.0089336650015607813740681208969363 11:3 28:1 30:1 41:2 81:1 100:1 102:4 401:1 612:1 1215:1 1366:1 1529:1 4759:1 4846:1 4847:1 5621:1 7780:1 8468:1 10665:1 100001:1 100002:1 100007:1 #
0.00075232154133186303866798194661669 11:3 28:2 30:2 41:2 102:2 114:1 612:1 715:1 767:1 899:1 983:1 2739:1 3633:1 3734:1 5187:1 5188:1 100001:1 100002:1 100007:1 #
0.011753957660902392481916400868158 11:1 41:1 50:1 1284:1 2204:1 3723:1 3990:1 3991:1 100001:1 100002:1 100007:1 #
0.011753957660902392481916400868158 11:1 28:1 30:1 33:1 41:1 505:1 509:1 510:1 511:1 512:1 513:1 514:1 100001:1 100002:1 100003:1 100006:1 #
0.0085665834834282722498599582650058 11:2 41:2 102:1 227:1 663:1 681:1 701:1 1943:1 2261:1 3960:1 3961:1 3962:1 3963:1 3964:1 100001:1 100007:1 #
-0.011753957660902392481916400868158 11:2 28:1 30:1 41:1 50:1 102:1 114:1 232:1 663:1 787:1 875:1 1026:1 1150:1 1276:1 2761:1 3246:1 3257:1 5567:1 6649:1 10672:1 10673:1 10674:1 10675:1 10676:1 100002:1 100007:1 #
-0.011397963558596390168387024743879 11:1 28:1 30:1 41:1 102:1 151:2 401:1 592:1 614:1 836:1 853:1 1296:1 1383:1 1553:1 1581:1 2239:1 2573:1 2820:1 5535:1 5536:1 5537:1 5538:1 5539:1 5540:1 100002:1 100003:1 #
-0.011753957660902392481916400868158 11:2 41:1 256:1 1679:1 10840:1 100002:1 100003:1 #
0.0069874846059781482721096068644329 11:2 41:2 114:1 225:1 227:1 232:1 245:3 614:1 658:1 701:1 854:1 1624:1 1939:1 2653:1 5429:1 6832:1 10812:1 10813:1 10814:1 10815:1 10816:1 100001:1 100003:1 100005:1 100007:1 #
-0.0071307334828803548357201158580665 11:4 28:2 30:2 43:1 50:1 102:2 114:2 232:2 245:1 401:1 406:1 434:1 452:1 592:1 595:2 608:1 612:2 614:3 640:2 1039:1 1108:1 1237:1 1817:2 2361:1 2910:1 3280:1 3652:2 4315:1 4489:1 6395:1 7839:2 9067:2 11461:1 11462:1 11463:1 11464:1 100002:1 100007:1 #
0.011753957660902392481916400868158 41:1 1643:1 100001:1 100007:1 #
-0.011753957660902392481916400868158 29:1 41:1 614:1 1296:1 1297:1 1803:1 100002:1 #
0.011753957660902392481916400868158 41:1 1643:1 100001:1 100007:1 #
-0.011753957660902392481916400868158 41:2 406:1 417:1 541:1 1027:1 1284:1 1957:1 6293:1 6294:2 6295:1 6296:1 6297:1 6298:1 6299:1 100002:1 100007:1 #
-0.011753957660902392481916400868158 11:1 23:1 41:2 714:1 875:1 100002:1 #
-0.011753957660902392481916400868158 11:1 29:1 41:2 1981:1 3445:1 100002:1 #
-0.011753957660902392481916400868158 11:1 41:2 1949:1 2086:1 100002:1 #
0.0083751599708031046476186531890562 2:2 11:5 33:1 41:3 165:1 194:1 212:1 217:1 456:1 614:1 634:1 724:1 734:1 735:1 841:2 1430:1 1431:1 2506:1 4151:1 4237:1 8540:1 8541:1 8542:1 8543:1 8544:1 8545:1 8546:1 8547:1 8548:1 8549:1 8550:1 100001:1 100002:1 100003:1 #
0.011194127279416240042242414176599 1:1 2:1 11:4 14:1 28:1 30:1 41:2 63:1 71:1 97:2 151:1 165:1 225:1 434:1 646:1 724:1 735:1 1429:1 1430:1 1431:1 1432:1 1433:1 1434:1 1435:1 1436:1 1437:1 1438:1 1439:1 1440:1 1441:1 100001:1 100002:1 100005:1 #
0.011753957660902392481916400868158 11:5 28:1 29:2 41:2 50:2 102:1 114:1 241:1 243:1 406:1 620:1 663:2 724:2 735:2 895:1 904:1 1024:1 1025:1 1042:1 1121:1 1276:1 1505:1 1811:1 1883:1 2253:2 2423:1 2820:1 3698:1 3700:1 4421:1 5224:1 5225:1 5226:1 5227:1 5228:1 100001:1 100002:1 #
0.011753957660902392481916400868158 41:1 42:1 358:1 1722:1 100001:1 100002:1 100007:1 #
-0.011753957660902392481916400868158 11:2 50:1 61:1 102:1 151:1 165:1 227:1 614:1 982:1 1077:1 1288:1 1289:1 1809:1 2667:1 4156:1 4157:1 4158:1 100002:1 100003:1 #
-0.011753957660902392481916400868158 11:3 592:2 663:1 860:1 906:1 1273:1 1383:1 2499:1 4297:1 5510:1 10747:1 10748:1 10749:1 10750:1 100007:1 #
-0.011753957660902392481916400868158 11:1 41:2 875:1 1949:1 100002:1 #
-0.011753957660902392481916400868158 11:3 41:1 592:1 1645:1 1652:1 1742:1 2264:1 100002:1 100003:1 #
0.011753957660902392481916400868158 41:1 1643:1 100001:1 100007:1 #
0.011753957660902392481916400868158 11:1 41:1 50:1 1284:1 1285:1 2204:1 3990:1 3991:1 100001:1 100002:1 100007:1 #
0.011753957660902392481916400868158 11:1 41:1 190:1 249:1 1582:1 100001:1 100002:1 100007:1 #
-0.011753957660902392481916400868158 11:1 41:3 151:1 227:1 246:1 660:1 911:1 1039:1 1121:2 2026:1 3700:1 5969:1 5970:1 5971:1 5972:1 100002:1 #
-0.011091264303928483059280551970005 11:2 50:1 102:3 114:1 136:1 151:1 401:1 505:1 616:1 895:1 1096:1 1383:1 1429:1 1575:1 1803:1 2084:1 4156:1 5704:2 9252:1 100002:1 #
-0.011753957660902392481916400868158 41:1 102:1 114:1 358:1 620:1 1793:1 7592:1 100002:1 #
0.011753957660902392481916400868158 11:1 41:2 537:1 665:1 3213:1 100001:1 100002:1 100007:1 #
0.011753957660902392481916400868158 11:1 41:2 681:1 701:1 3930:1 100001:1 100007:1 #
-0.0038613076859771236493124035860092 11:1 41:1 102:1 114:1 608:1 633:1 660:1 1040:1 1273:1 1775:1 1981:1 2540:1 3115:1 4778:1 9330:1 9829:1 9830:1 #
0.011753957660902392481916400868158 11:1 41:2 681:1 701:1 6938:1 6939:1 100001:1 100007:1 #
-0.010350441110785275206085387367239 11:5 41:1 50:2 102:2 114:2 151:1 225:1 232:1 245:1 614:1 652:1 658:2 660:1 724:1 735:1 774:1 1141:1 1171:1 1476:1 1654:1 2273:1 2321:1 2499:1 2900:1 3490:1 4036:1 4421:1 7067:1 7068:1 7069:1 7070:1 7071:1 7072:1 7073:1 7074:1 7075:1 7076:1 7077:1 100005:1 100007:1 #
-0.011753957660902392481916400868158 11:3 41:3 406:1 672:1 835:1 1170:1 1576:1 2880:1 2881:1 100002:1 #
0.0058458549721647490304832217589137 11:2 41:2 50:1 102:1 114:1 151:1 227:1 232:1 658:1 660:1 681:1 701:1 724:1 735:1 1048:1 1064:1 1831:1 2728:1 2729:1 2732:1 2733:1 3560:1 3936:1 4803:1 4804:1 100001:1 100007:1 #
0.0048441488883532628564876354460011 11:3 41:1 87:1 219:1 906:1 1636:1 3377:1 4359:1 9228:1 100001:1 100002:1 100006:1 100007:1 #
-0.0034628922418334607755130427619861 28:2 30:2 41:1 102:1 232:1 644:1 658:1 660:1 748:1 849:2 895:1 1328:1 1880:1 2060:1 2061:1 3661:2 9343:1 9344:1 9345:1 9346:1 9347:1 9348:1 9349:1 9350:1 9351:1 9352:1 9353:1 100007:1 #
-0.0053783387395517226817198697119693 2:1 11:1 28:1 30:1 41:4 50:1 97:1 102:3 114:1 271:1 617:1 634:1 646:1 660:1 663:1 774:1 841:1 849:1 904:1 956:1 971:1 1009:1 1039:1 1040:1 1121:1 1161:1 1660:1 1797:1 1978:1 2331:1 2351:1 3033:1 4099:1 4247:1 4590:1 5600:1 5842:1 5843:1 5844:1 5845:1 5846:1 5847:1 5848:1 5849:1 5850:1 100002:1 #
0.0020786980789961099179430359384924 11:4 41:3 50:2 54:1 102:2 114:4 151:1 401:1 614:3 617:1 652:1 653:1 658:1 660:1 691:1 724:1 735:1 897:1 981:1 1039:1 1040:1 1268:1 1273:1 1317:1 1361:1 1480:1 1486:1 1517:1 1545:1 1585:1 1654:1 1943:1 2525:1 3191:1 3192:1 3193:1 3651:1 5052:1 6436:1 7527:1 7528:1 7529:1 7530:1 7531:1 7532:1 7533:1 7534:1 7535:1 7536:1 100001:1 100002:1 100007:1 #
-0.0033742589119606699460396370682247 11:3 41:3 50:1 102:2 114:1 223:1 227:1 232:1 483:1 592:2 614:1 617:2 658:1 660:1 663:1 667:2 774:2 847:2 874:1 906:1 981:1 1072:1 1279:1 1658:1 1816:1 1831:3 1833:1 1887:1 1895:1 2369:1 2531:1 2861:1 2862:1 3779:1 4040:1 4041:1 4042:1 4043:1 4044:1 4045:1 4046:1 4047:1 4048:1 4049:1 4050:1 4051:1 4052:1 4053:1 4054:1 4055:1 4056:1 4057:1 4058:1 4059:1 4060:1 4061:1 4062:1 4063:1 100002:1 100007:1 #
0.011753957660902392481916400868158 41:2 1643:1 100001:1 100007:1 #
0.011753957660902392481916400868158 11:1 41:2 681:1 701:1 7422:1 7423:1 100001:1 100007:1 #
-0.011753957660902392481916400868158 11:2 41:3 672:1 835:1 1576:1 5835:1 5836:1 100002:1 #
-0.006825711770687561442960689106485 11:1 41:1 102:4 614:1 620:1 658:1 839:1 895:1 1040:1 1646:1 1816:1 2121:1 2524:1 3084:1 3841:1 4120:1 10595:1 10596:1 10597:1 10598:1 10599:1 100007:1 #
-0.011753957660902392481916400868158 11:1 41:3 249:1 672:1 673:1 1341:1 1342:1 8647:1 100002:1 #
-0.011753957660902392481916400868158 11:1 28:1 30:1 41:1 102:1 227:1 232:1 375:1 382:1 592:1 655:1 663:1 986:1 1045:1 1237:1 2358:1 2442:1 2573:1 3594:1 3595:1 3596:1 3597:1 3598:1 3599:1 3600:2 3601:1 100002:1 100007:1 #
-0.011753957660902392481916400868158 11:5 41:1 124:1 232:1 245:1 801:1 924:1 1421:1 2071:1 4936:1 6835:1 6836:1 100002:1 100003:1 #
0.0088067085969426844166418888448788 11:1 41:2 232:1 681:1 701:1 1769:1 1770:1 4974:1 4975:1 100001:1 100007:1 #
-0.011753957660902392481916400868158 11:1 41:3 249:1 672:1 673:1 1341:1 1342:1 1343:1 100002:1 #
-0.0024931415204260268594915750384189 11:4 28:1 30:1 41:1 3203:1 4994:1 5010:1 6041:1 6043:3 6070:1 6802:1 8214:1 8217:1 8945:1 9068:1 9069:2 9070:1 9071:2 9072:1 9073:1 9074:1 9075:1 9076:1 9077:1 9078:1 9079:1 9080:1 9081:1 9082:1 9083:1 9084:1 9085:1 9086:1 9087:1 9088:1 9089:1 9090:1 9091:1 9092:1 9093:1 9094:1 9095:1 9096:1 9097:1 9098:1 9099:1 9100:1 9101:1 9102:1 9103:1 9104:1 9105:1 9106:1 100003:1 #
0.0084327228644901185139470811691353 2:1 11:4 23:1 28:1 30:1 41:4 50:1 66:2 102:5 105:1 151:3 227:2 232:2 401:1 616:1 617:1 652:1 658:2 683:1 724:1 735:1 823:1 841:3 860:2 902:1 971:2 981:1 1001:1 1040:2 1042:1 1143:1 1145:2 1182:1 1233:1 1236:1 1290:1 1391:1 1660:1 1831:2 2329:1 2569:1 2925:1 2928:1 3386:1 3611:1 3676:1 4768:1 6848:1 6849:1 6850:1 6851:1 6852:1 6853:1 6854:1 6855:1 6856:1 6857:1 6858:1 6859:1 6860:1 6861:1 6862:1 6863:1 6864:1 100001:1 100002:1 100003:1 #
0.0082814795320767589648092155130144 5:2 11:3 14:1 23:1 33:1 35:1 41:1 77:1 114:1 151:1 212:1 449:1 616:1 724:1 735:1 1284:1 2093:1 2156:1 2226:1 2710:1 2711:1 2712:1 2713:2 2714:1 2715:1 2716:1 2717:1 2718:1 2719:1 2720:1 2721:1 2787:1 4151:1 5086:1 7512:1 7513:1 7514:1 7515:1 100001:1 100002:1 100003:1 #
0.0082428098943767534600990387616548 11:9 41:4 61:1 114:3 232:1 331:1 401:1 456:1 592:2 663:1 875:1 895:1 1027:2 1028:2 1061:1 1465:1 1742:1 1949:1 2086:1 2229:1 3405:1 4221:1 4650:1 5168:1 5326:1 5453:1 5454:1 5455:1 5456:1 100001:1 100002:1 #
-0.0025126562429315002673846368708155 2:1 11:2 41:1 50:1 102:1 232:1 401:1 663:2 971:1 1039:1 1569:1 2424:1 4335:1 4470:1 5578:1 7256:1 7257:1 7258:1 7259:1 7260:1 7261:1 100002:1 #
0.011753957660902392481916400868158 11:1 28:1 30:1 41:1 225:1 284:1 515:1 516:1 517:1 518:1 519:1 520:1 521:1 100001:1 100002:1 100003:1 100005:1 #
0.011753957660902392481916400868158 8:1 11:1 28:1 30:1 41:1 76:1 102:1 200:1 225:1 226:1 227:1 228:1 229:1 230:1 231:1 232:1 233:1 234:1 235:1 100001:1 100002:1 100005:1 #
0.011753957660902392481916400868158 11:2 28:1 30:1 41:1 66:1 102:1 151:1 724:1 735:1 956:1 1355:1 2235:1 5260:1 6850:1 10330:1 10331:1 100001:1 100002:1 100003:1 #
0.0016063065332160074254186366005115 11:6 41:2 86:2 102:2 114:2 151:2 227:2 228:2 356:2 455:2 658:2 1205:2 1287:2 1582:1 1784:4 2761:2 4212:2 9549:1 9810:1 9811:1 9812:1 100001:1 100002:1 100007:1 #
-0.011753957660902392481916400868158 11:3 41:1 102:1 1835:1 5489:1 7171:1 10775:1 10789:1 #
-0.0042338229731990473236891148189898 11:2 41:3 50:2 102:1 151:1 362:1 401:1 406:1 434:1 672:1 673:1 674:1 676:1 906:1 2070:1 2084:1 3457:1 3723:1 3937:2 3938:1 100002:1 #
0.011753957660902392481916400868158 11:3 28:1 29:1 30:1 41:2 112:1 114:1 225:1 401:1 592:1 608:1 658:1 774:1 791:1 853:1 895:1 1831:1 2265:1 2909:1 4012:1 5088:3 5089:1 5090:1 5091:1 5092:1 5093:1 100001:1 100002:1 100005:1 #
-0.011753957660902392481916400868158 11:1 28:2 30:2 41:1 102:1 190:1 232:1 614:1 620:2 720:1 877:1 975:1 1035:1 2086:1 5346:1 5347:1 5348:1 100002:1 100003:1 #
-0.011753957660902392481916400868158 11:3 41:1 102:1 358:1 401:2 407:2 660:1 724:1 735:1 963:1 1549:1 1833:1 2073:1 2074:1 2075:1 2076:1 2077:1 2078:1 2079:1 2080:1 2081:1 2082:1 2083:1 2084:1 2085:1 2086:1 100002:1 100003:1 #
-0.0072281508419568662321408325510674 28:1 30:1 41:1 50:1 81:1 102:2 114:1 232:1 1048:1 1072:1 1621:1 2859:1 3082:1 3083:1 3084:1 3085:1 3086:1 100002:1 #
-0.011753957660902392481916400868158 11:1 15:1 28:1 30:1 41:1 50:1 97:1 102:1 724:1 735:1 849:1 1061:1 1676:1 2765:1 5524:1 5525:1 5526:1 100002:1 #
0.0060210427927897981065230581521064 11:3 41:2 50:4 102:4 114:1 151:1 225:1 227:1 232:1 267:1 406:1 592:1 614:3 667:2 724:1 735:1 906:1 1009:2 1039:1 1040:1 1253:1 1287:1 1297:1 1456:1 1529:1 1559:1 1651:1 1745:1 1900:1 1902:1 2093:1 2358:1 2569:1 2814:1 3415:1 3416:1 3937:1 3955:1 4451:1 4560:1 5898:1 5906:1 5907:1 5908:3 5909:1 5910:1 5911:1 5912:1 5913:1 5914:1 5915:1 5916:1 5917:1 100001:1 100002:1 100005:1 100007:1 #
0.011753957660902392481916400868158 8:1 11:1 14:1 28:1 30:1 41:1 217:1 218:1 219:1 220:1 221:1 222:1 223:1 224:1 100001:1 100002:1 100003:1 #
0.005239706418266113809034667525566 11:1 28:4 30:4 41:4 102:1 105:2 125:1 151:2 232:2 233:1 256:1 401:5 614:1 860:1 1201:1 1215:2 1545:1 1798:2 3654:2 4482:2 4841:1 4977:1 8479:1 10160:2 10161:1 10162:2 10163:1 10164:1 10165:1 100001:1 100002:1 #
-0.0025136536425567376600020974564131 11:3 41:1 151:1 227:2 232:1 592:1 646:4 724:1 735:1 753:1 844:1 847:1 998:1 1065:1 1071:1 1072:1 1328:1 2495:1 2917:1 3559:1 3841:1 4416:1 4837:1 5317:2 7851:1 9998:1 9999:1 10000:1 10001:1 10002:1 10003:2 #
-0.011753957660902392481916400868158 41:2 2540:1 5863:1 #
0.0094290309465350271439509910464949 11:4 41:1 50:1 87:1 102:1 114:1 232:1 401:1 592:1 608:1 697:1 700:1 724:1 735:1 835:1 2676:1 3490:1 3720:1 6363:1 10261:1 10890:1 11110:1 11111:1 11112:1 11113:1 100001:1 100002:1 100003:1 100007:1 #
-0.010258410972184968737441757014039 41:2 50:1 724:1 735:1 1309:1 2631:1 2870:1 4298:1 5245:1 5451:1 5452:1 #
-0.011753957660902392481916400868158 11:4 41:2 322:1 395:1 434:1 681:1 684:1 2152:1 3566:1 9340:1 9341:1 9342:1 100002:1 100003:1 #
0.011206975085803282110585854525198 11:8 28:2 30:2 41:2 105:1 225:2 241:1 243:1 256:1 322:1 395:1 406:1 516:1 681:1 684:1 933:1 936:1 942:1 1623:1 1966:1 1992:1 2143:1 2144:1 2148:1 3564:1 3565:1 3566:1 3567:1 3568:1 3569:1 3570:1 3571:1 100001:1 100002:1 100003:1 100005:1 #
0.0024796120785355933550941909260246 2:1 5:1 11:7 14:2 23:1 28:2 30:2 33:3 41:3 44:2 63:1 90:1 91:1 144:1 156:1 205:1 212:2 221:1 246:1 307:1 336:1 337:1 338:1 339:1 340:1 341:1 342:1 343:1 344:1 345:1 346:1 347:1 348:1 349:1 350:1 351:1 352:1 353:1 354:1 355:1 356:1 357:1 358:1 359:1 360:1 361:1 362:1 363:1 364:1 365:1 366:1 367:1 100001:1 100002:1 #
0.011753957660902392481916400868158 11:3 41:2 50:1 102:1 114:1 232:1 427:1 464:1 612:1 1027:1 1028:1 1772:1 1930:1 1949:1 3700:1 4248:1 5326:1 7658:1 7659:1 100001:1 100002:1 #
0.011753957660902392481916400868158 11:2 28:1 30:1 41:2 77:1 102:1 114:1 151:1 724:1 734:1 735:1 1429:1 1432:1 1439:1 1441:1 3039:1 3151:1 4212:1 8794:1 9134:1 100001:1 100002:1 #
-0.0068865504179299128623137349336503 41:2 50:1 102:2 660:1 5599:1 9143:1 9144:1 9145:1 9146:1 9147:1 100002:1 #
-0.0037437988210766255312011985267873 28:1 30:1 616:1 3029:1 3079:1 3080:1 3081:1 #
0.0044820204240185838873156143336018 8:1 11:3 28:1 30:1 41:3 151:1 225:1 665:1 924:1 1284:1 2323:1 2396:1 4138:1 6785:1 7215:1 100001:1 100002:1 100005:1 #
0.0059263172146994920821971852831211 5:1 11:3 23:1 28:1 30:1 33:4 39:1 41:3 43:1 44:1 81:1 90:1 111:2 180:1 191:1 192:1 193:1 194:1 195:1 196:1 197:2 198:1 199:1 200:1 201:1 202:1 203:1 204:1 205:2 206:1 207:1 208:1 209:1 210:1 211:1 212:1 213:1 214:1 215:1 216:1 100001:1 100002:1 100003:1 #
-0.0033736029258086878100664218749216 11:3 28:1 30:1 41:1 241:1 243:1 249:1 1296:1 1645:1 1943:1 4988:1 4989:1 4990:1 4991:2 4992:1 4993:1 4994:1 4995:1 4996:1 4997:1 4998:2 4999:1 5000:1 5001:1 5002:1 5003:1 5004:1 5005:1 5006:1 5007:1 5008:2 5009:1 5010:1 5011:1 5012:1 5013:1 5014:1 5015:1 5016:1 5017:1 5018:1 5019:1 5020:1 5021:1 5022:1 100002:1 #
0.011753957660902392481916400868158 11:2 19:2 28:1 30:1 41:1 251:1 252:1 253:1 254:1 255:1 256:1 257:1 258:1 100001:1 100002:1 100006:1 #
0.010347637813205433354735163220539 11:4 23:1 28:1 29:1 30:1 41:2 102:1 114:1 151:1 225:1 362:1 724:1 735:1 3178:1 4191:1 6522:1 7250:1 7291:1 7292:1 7312:1 7313:1 7314:1 7315:1 7316:1 7317:1 100001:1 100002:1 100005:1 #
-0.011753957660902392481916400868158 11:5 41:1 228:1 232:1 401:1 658:1 660:1 663:1 860:1 864:1 906:2 1039:1 1718:1 2345:1 2569:1 2638:1 4560:1 4561:1 4562:1 4563:1 4564:1 4565:1 4566:1 4567:1 100007:1 #
0.011753957660902392481916400868158 5:1 11:2 14:1 28:1 30:1 41:1 77:1 151:2 236:1 406:1 458:1 724:1 735:1 1585:1 2413:1 5936:1 5937:1 5938:1 5939:1 5940:1 5941:1 5942:1 5943:1 5944:1 5945:1 5946:1 5947:1 100001:1 100002:1 100003:1 #
0.011753957660902392481916400868158 11:4 41:1 241:1 243:1 349:2 706:1 1434:1 2316:1 2322:1 5197:1 5198:1 5199:2 5200:1 5201:1 100001:1 100002:1 100003:1 100005:1 #
0.002040904646639540159780423778102 1:1 5:3 11:1 23:1 33:5 41:2 241:1 243:1 476:1 700:1 706:1 716:1 1645:2 1694:1 1965:1 1966:1 4190:1 5202:1 5203:1 5204:1 5205:1 5206:1 5207:1 5208:1 5209:1 5210:1 5211:1 5212:1 5743:1 6393:1 6468:1 7112:1 9790:1 9791:1 100001:1 100003:1 100005:1 #
-0.011753957660902392481916400868158 11:4 41:1 232:1 245:2 455:1 1548:1 1585:1 1679:1 6611:1 6612:2 6613:1 100002:1 100003:1 #
0.0054309287589347481767232395100109 2:1 11:6 14:1 28:1 41:3 66:1 114:1 200:1 227:2 245:1 333:1 358:1 389:1 605:1 614:1 620:2 655:1 658:1 660:1 815:1 817:1 868:1 1041:1 1056:1 1963:1 2222:1 2398:1 2863:1 2956:1 3457:1 3770:1 4546:1 4568:1 4569:1 4570:1 4571:1 4572:1 4573:1 4574:1 4575:1 4576:1 4577:1 4578:1 4579:1 4580:1 4581:1 100001:1 100002:1 100007:1 #
0.0084312440685588487671031643344577 11:4 28:1 30:1 41:3 50:2 102:4 114:1 217:1 227:1 246:1 358:1 401:1 535:1 537:1 594:1 614:2 644:1 645:2 652:1 660:1 663:1 667:1 1205:1 1207:1 1374:1 1978:1 3032:1 3103:2 3201:1 3505:1 3691:1 4120:1 4396:1 4397:1 4398:1 4399:1 4400:1 4401:1 4402:1 4403:1 4404:1 4405:1 4406:1 100001:1 100002:1 100006:1 100007:1 #
0.0023163939427548558766534192443487 11:6 41:2 48:1 97:1 102:3 114:1 151:1 225:1 227:1 232:1 456:1 614:1 643:1 660:4 663:2 724:1 735:1 770:1 771:1 835:1 875:1 895:1 918:1 919:1 1082:1 1101:1 1219:1 1297:1 1811:1 1944:1 2499:1 2646:1 3064:1 3093:1 3454:1 3455:1 3456:1 3903:1 4361:1 4622:1 4715:1 4821:1 9795:1 10062:1 10063:1 10064:1 10065:1 100001:1 100002:1 100005:1 100007:1 #
-0.0034766055551546455777700561640131 11:6 28:3 30:3 41:3 102:8 114:6 227:5 232:1 317:1 461:1 616:1 617:1 640:1 774:1 895:1 1048:1 1065:2 1197:4 1207:1 1210:1 1486:1 1527:4 1859:1 1910:1 2779:1 2807:1 2841:4 2842:1 2843:1 2844:1 2845:1 2846:1 2847:1 2848:2 2849:2 2850:1 2851:1 2852:1 2853:1 2854:1 2855:1 2856:1 2857:1 2858:1 2859:1 2860:1 2861:1 2862:1 2863:1 2864:1 2865:1 2866:1 2867:1 2868:1 2869:1 2870:1 2871:1 100002:1 #
0.00066246968425627853968573610643489 11:20 41:5 50:1 61:1 102:1 227:1 232:5 245:3 356:1 614:1 616:1 617:1 640:1 658:1 724:2 735:2 748:3 750:1 835:2 860:1 906:3 1042:1 1043:1 1230:1 1264:3 1383:3 2198:3 2396:2 2859:1 2909:1 3089:1 3226:1 3967:3 3968:3 3969:1 3970:1 3971:2 3972:2 3973:1 3974:1 3975:1 3976:1 3977:1 3978:1 3979:1 3980:1 3981:1 3982:1 100001:1 100002:1 100007:1 #
0.0086905872786163691767757910611181 8:1 11:1 41:1 697:1 700:1 706:1 1645:2 5202:1 5203:1 5204:1 5205:1 5206:1 5207:1 5208:1 5209:1 5210:1 5211:1 5212:1 5213:1 100001:1 100003:1 100005:1 #
0.011753957660902392481916400868158 11:1 41:1 1035:1 1296:1 1549:1 2688:1 100001:1 100002:1 100007:1 #
0.0064543029229438449168032576608312 11:4 41:1 50:1 54:2 165:1 787:1 860:1 875:1 920:1 922:1 2743:1 3842:1 4544:1 4973:1 6330:1 8765:1 100001:1 100002:1 100007:1 #
-0.010380696308972632221911958083638 11:3 41:3 50:1 672:1 673:1 906:1 1278:1 1287:1 1342:1 1547:1 1652:1 2467:1 4312:1 4313:1 100002:1 100003:1 #
0.0053205713726459658019507514836732 11:2 41:1 225:1 241:1 243:1 535:1 614:2 658:1 835:1 1285:1 1300:1 1471:1 1902:1 2913:1 2966:2 5443:1 5444:1 5445:1 5446:1 5447:1 5448:1 5449:1 100001:1 100002:1 100005:1 100007:1 #
0.0035641800719529831940890485242335 1:1 5:1 11:3 33:2 41:1 150:1 225:1 314:1 697:1 700:1 811:1 816:1 1567:1 1639:1 1730:1 1731:1 2109:1 100001:1 100002:1 100005:1 100007:1 #
0.009025168683721399021102627102664 11:3 33:1 41:1 145:1 835:1 2086:1 3150:1 3151:1 7614:1 7615:1 7616:1 7617:1 7618:1 100001:1 100002:1 100007:1 #
0.011753957660902392481916400868158 11:2 41:1 358:1 706:1 1548:1 1722:1 2291:1 8525:1 100001:1 100002:1 100003:1 100005:1 #
-0.011753957660902392481916400868158 41:1 9997:1 #
-0.0066507268961439568177862469156025 41:2 620:1 1978:1 3749:1 #
-0.00015676032296906049559592766229343 41:2 50:2 774:1 5493:1 6554:2 6555:1 #
0.0085414910709066260707800211093854 11:4 41:1 50:1 102:1 612:1 614:1 895:1 2258:1 2467:1 4805:1 4806:1 4807:1 4808:1 4809:1 4810:1 100001:1 100002:1 100007:1 #
-0.00085963392382980242586998365084128 2:1 11:1 41:2 50:1 102:1 114:1 232:1 401:2 660:1 906:1 1289:1 1305:1 1871:1 1880:1 2761:1 3699:1 3992:1 4140:1 4337:1 4338:1 4560:1 5485:1 5702:1 5703:1 5704:1 100002:1 #
-0.011753957660902392481916400868158 11:4 41:2 193:1 322:1 395:1 679:1 680:1 681:1 682:1 684:1 5201:1 100002:1 #
-0.0041769792819323263780018073987321 11:5 29:1 41:1 50:1 102:1 114:2 225:1 227:2 232:1 358:1 401:1 592:2 616:1 652:1 660:1 774:1 847:1 1039:1 1121:1 1233:1 1501:1 1823:1 2423:1 2789:1 2863:1 3514:1 3836:1 5139:1 7199:1 7974:1 9632:1 10243:1 10839:1 11002:1 11142:1 11143:1 11144:1 11145:1 11146:1 11147:1 11148:1 11149:1 100002:1 100005:1 #
-0.0036634396359896035343106657222734 11:3 41:2 114:2 614:2 658:1 724:1 735:1 841:1 847:1 849:1 1088:1 1096:1 1431:1 1570:1 1871:2 1978:1 2807:1 3215:1 3405:1 5848:1 7030:1 7909:1 7910:1 7911:1 7912:1 7913:1 #
-0.0052257258779005852020183020556487 11:2 41:1 102:2 232:1 401:2 592:2 663:2 667:1 724:1 735:1 875:1 889:1 895:1 1039:2 1071:1 1161:1 1285:1 1366:1 1930:1 2061:1 2090:1 2091:1 3055:1 3559:1 4688:1 5512:1 5622:1 6115:1 6236:1 6237:1 6238:1 6239:1 6240:1 6241:1 6242:1 6243:1 6244:1 6245:1 6246:1 6247:1 100002:1 100007:1 #
-0.002960996865916455753758862456948 11:1 28:2 29:2 30:2 50:1 102:2 114:1 232:1 614:1 895:1 906:2 1284:1 1429:1 1439:1 1441:1 1833:1 2351:1 2774:1 3872:1 4212:1 4423:1 4723:1 5922:1 7330:1 100002:1 #
-0.0021855075780416229752622925275318 11:2 41:1 50:1 102:1 114:1 401:1 614:1 620:1 660:1 1811:1 2093:1 3693:2 3694:1 3695:1 3696:1 3697:1 3698:1 3699:1 3700:1 100002:1 100004:1 #
-0.0042552122045236631664444360012567 11:2 41:1 50:1 102:3 114:2 151:1 232:1 614:1 617:2 677:1 721:1 724:1 735:1 784:1 1048:1 1124:1 1658:1 1660:1 1774:1 2398:2 2434:1 3126:1 4087:1 4251:1 4448:1 5152:1 7218:1 7219:1 7220:1 7221:1 7222:1 7223:1 7224:1 7225:1 7226:1 7227:1 100002:1 100003:1 #
0.011002362282282927841148278957917 11:1 41:1 193:1 1035:1 1276:1 2688:1 100001:1 100002:1 100007:1 #
-0.011753957660902392481916400868158 11:4 41:1 232:2 592:1 612:1 875:1 3116:1 3117:1 5529:1 5530:1 5531:1 5532:1 5533:1 5534:1 100002:1 #
-0.0052755896218413976181405011800507 11:2 41:1 42:1 102:1 232:1 401:1 537:1 614:1 617:1 1065:1 1197:2 1211:1 2321:1 3278:1 3561:1 3874:1 4289:1 4560:1 7114:1 7115:1 7116:1 7117:1 100002:1 #
-0.011753957660902392481916400868158 11:4 41:2 322:1 395:1 679:1 680:1 681:1 682:1 684:1 2152:1 6459:1 9044:1 100002:1 100003:1 #
0.00059835148317013715085765923618055 11:1 41:1 535:1 1035:1 1276:1 8730:1 100001:1 100002:1 100007:1 #
-0.0015544507187880370925603390475089 11:8 41:3 43:1 50:2 102:3 114:2 331:1 401:1 614:1 628:1 658:1 659:1 663:1 724:1 735:1 748:1 774:1 841:1 900:1 901:1 1026:1 1121:2 1207:1 1268:1 1309:1 1446:2 1447:1 2026:1 2761:1 2924:1 3662:1 3975:1 4143:1 5115:1 5352:1 5417:1 8373:1 8648:1 8649:1 8650:1 8651:1 8652:1 100002:1 #
-0.0090071901924944856171473261952087 11:5 41:3 50:1 102:2 114:1 434:1 672:1 1170:1 1189:1 1547:1 1549:1 1554:1 1555:1 1556:1 1557:1 1558:1 1576:1 1577:1 1578:1 100002:1 #
0.0072146359119974702231448127065505 11:1 41:1 535:1 1035:1 2932:1 4715:1 4732:1 100001:1 100002:1 100007:1 #
-0.0075620991293000724628448061537256 28:2 30:2 41:1 102:1 407:3 434:1 814:1 835:1 2141:1 2205:1 2509:1 5712:1 10857:1 10858:1 10859:1 10860:1 10861:1 10862:1 100002:1 100003:1 #
-0.011753957660902392481916400868158 #
0.0032245435644326888094401972750802 2:2 11:6 28:1 30:1 41:3 54:1 102:5 114:3 136:1 151:1 227:1 232:1 407:2 614:1 617:1 620:1 658:2 660:1 663:2 672:1 706:1 724:2 735:2 835:1 841:2 895:2 1024:1 1039:1 1042:1 1084:1 1099:1 1219:1 1227:1 1255:1 1309:1 1317:1 1495:1 1529:1 1545:1 1548:1 1576:1 1585:1 1745:1 1779:1 2032:1 3300:2 3457:1 3466:1 6586:1 6587:1 6595:1 6734:1 6790:1 6791:1 6792:1 6793:1 6794:1 6795:1 6796:1 6797:1 6798:1 6799:1 6800:1 100001:1 100002:1 100003:1 100005:1 100007:1 #
-0.0016009919477066654903280040755931 11:5 28:1 30:1 41:1 249:1 401:3 516:1 658:1 667:1 1039:1 1061:2 1207:1 1290:1 1298:1 1309:1 1486:1 1658:2 2063:1 2496:1 2631:1 4939:1 5571:1 7687:1 8068:1 9005:1 10421:1 10422:1 10423:1 10424:1 10425:1 10426:1 10427:1 100002:1 100003:1 #
0.005965882920340993128549555990503 11:7 41:3 102:2 114:1 151:1 232:1 401:2 612:1 616:1 617:2 1020:1 1021:1 1022:1 1023:1 1024:1 1025:1 1026:1 1027:1 1028:1 1029:1 1030:1 1031:1 1032:1 1033:1 1034:1 1035:1 1161:1 1233:1 2061:1 2761:1 3069:1 5368:1 5369:1 5370:1 5371:1 100001:1 100002:1 #
-0.0052454249226794608801371921913415 2:1 11:3 41:2 114:1 232:1 322:1 663:2 889:1 982:1 1041:1 1121:1 1133:1 1501:1 1902:1 1978:1 2540:1 2646:1 2648:1 2910:1 3129:1 4887:1 4890:1 6682:1 6683:1 6684:1 6685:1 6686:1 6687:1 6688:1 100002:1 100006:1 #
-0.0014170054962932660761604219956666 11:8 28:1 30:1 41:2 102:1 114:2 158:1 168:1 267:1 401:2 614:2 663:2 774:1 906:1 971:1 1039:1 1124:1 1135:1 1185:1 1187:1 1197:4 1221:1 1290:1 1300:2 1527:1 1585:1 1718:1 2093:1 2630:1 2866:1 2986:1 3078:1 4120:1 4337:1 4423:1 5114:1 5277:1 5402:1 5403:1 5404:1 5405:1 5406:1 5407:1 5408:1 5409:1 100002:1 100003:1 #
0.0081724165801151885807351860080416 11:8 28:2 30:2 41:6 225:1 245:1 322:1 395:1 406:1 665:1 679:1 680:1 681:1 682:1 684:1 924:1 1679:1 2323:1 4021:1 6459:1 6785:1 7215:1 7730:1 7731:1 100001:1 100002:1 100003:1 100005:1 #
0.0066489572021549182834210256487495 5:1 8:1 11:1 14:1 15:1 23:1 28:1 29:1 30:1 33:1 34:1 41:4 44:1 86:1 151:1 266:1 267:1 268:1 269:1 270:1 271:1 272:1 273:1 274:1 275:1 276:1 277:1 278:1 279:1 280:1 281:1 282:1 283:1 284:1 100001:1 100002:1 100003:1 #
0.0065086266836469367988438072814006 11:5 41:1 50:1 102:2 114:1 151:1 163:1 227:1 232:1 835:1 1039:1 1101:1 1161:1 1273:1 1287:1 1296:1 1298:2 1309:2 1330:1 1471:1 1654:1 2238:1 2361:1 3126:1 4759:1 10777:1 10782:1 10783:1 10784:1 10785:1 10786:1 10787:1 10788:1 100001:1 100002:1 100007:1 #
-0.0016639033924985874475510616576912 11:5 28:1 30:1 41:2 50:1 102:9 114:2 151:1 227:2 232:2 331:1 401:1 614:1 652:1 658:1 663:2 774:1 847:1 906:1 996:1 1007:1 1101:2 1143:1 1147:1 1200:1 1201:1 1205:1 1237:1 1489:1 1494:1 1965:1 1978:1 2063:1 2499:1 2673:1 2731:1 3396:1 3499:1 5270:1 5347:1 5657:1 5747:1 8124:1 10246:1 10751:1 10752:1 10753:1 10754:1 10755:1 10756:1 10757:1 10758:1 10759:1 10760:1 10761:1 10762:1 100002:1 100007:1 #
-0.00086263978448003562470719485233417 41:1 50:2 102:1 114:1 227:1 271:1 616:1 774:1 847:1 1076:1 1193:1 1207:1 1233:1 1664:1 2680:1 2820:1 2849:1 2864:1 3249:1 3872:1 4008:1 4337:1 4423:1 5857:1 6793:1 7298:1 7299:1 100002:1 #
-0.00038151227806017143449196504789711 11:2 41:2 50:4 102:3 535:1 654:1 667:2 836:1 847:1 1257:1 1297:1 1659:1 2813:1 2814:2 2815:1 2816:1 2817:1 2818:1 2819:1 2820:1 2821:1 2822:1 2823:1 2824:1 2825:1 2826:1 100002:1 #
0.005647881152874802655750041679994 11:3 41:2 102:3 114:3 227:1 232:1 401:1 660:2 663:1 724:1 735:1 895:1 1365:1 1517:1 2497:1 3933:1 4444:1 4470:1 4635:1 4923:1 5176:1 5578:1 5847:1 7165:1 7263:1 7889:1 7942:1 9045:1 9046:1 9047:1 9048:1 9049:1 9050:1 9051:1 9052:1 100001:1 100003:1 100007:1 #
0.0096497129448813168117737859574845 11:3 41:3 245:1 665:2 706:2 3096:1 3097:1 3098:1 3099:1 3100:1 100001:1 100003:1 100005:1 #
-0.00088380182651021815289082983468916 11:6 41:3 4989:1 4991:3 4994:2 5000:3 5003:1 5005:1 5008:1 5019:1 6040:1 6041:1 6043:4 6053:1 6058:4 6070:2 6074:1 6152:1 6154:1 6157:1 6161:4 6163:1 6166:1 8175:1 8176:1 8177:1 8178:3 8179:1 8180:1 8181:1 8182:1 8183:1 8184:1 8185:1 8186:1 8187:2 8188:1 8189:2 8190:1 8191:2 8192:1 8193:1 8194:1 8195:1 8196:1 8197:1 8198:1 8199:1 8200:1 8201:1 8202:2 8203:1 8204:1 8205:1 8206:1 8207:1 8208:1 8209:1 8210:1 8211:1 8212:1 8213:1 8214:2 8215:1 8216:1 8217:1 8218:1 8219:1 8220:1 8221:1 8222:1 8223:1 8224:1 8225:1 8226:1 8227:1 8228:1 8229:1 #
9.429267768328464943694555699949e-05 11:10 14:1 28:4 30:3 41:4 50:2 102:7 114:5 225:1 227:5 232:3 233:1 271:2 401:3 407:1 614:3 616:3 655:1 658:2 660:1 663:1 706:1 724:1 735:1 757:1 794:1 841:1 847:1 895:1 971:1 1007:1 1035:1 1039:1 1077:1 1094:1 1097:1 1115:1 1119:1 1121:1 1140:1 1150:1 1286:1 1334:1 1486:1 1784:1 1809:1 1978:1 1981:1 2184:1 2290:1 2363:1 2377:1 2426:1 3126:1 3191:1 3322:2 3670:1 3885:1 3886:1 3969:1 4078:1 4251:1 5143:1 5219:1 5284:1 5940:2 7064:1 7685:1 7697:1 7773:2 7928:1 8576:1 9018:1 9687:1 10432:1 10608:1 10609:1 10610:1 10611:1 10612:1 10613:1 10614:1 10615:1 10616:1 10617:1 10618:1 10619:1 10620:1 10621:1 10622:1 10623:1 10624:1 10625:1 10626:1 10627:1 10628:1 10629:1 10630:1 10631:1 10632:1 10633:1 100001:1 100002:1 100003:1 100005:1 100007:1 #
-0.0062539611665514485694394863912748 41:2 114:1 227:1 592:1 663:1 971:1 1484:1 1899:1 3090:1 3333:1 7175:1 7176:1 7177:1 7178:1 100003:1 #
-0.0079098596184165644723540466998202 2:1 11:2 41:1 593:1 889:1 1207:1 2118:1 10721:1 10722:1 #
0.003166764187687630491968571178063 5:1 11:3 14:1 28:1 30:1 33:1 41:3 65:1 69:1 105:1 241:1 243:1 665:1 706:1 805:1 933:1 934:1 935:1 936:1 937:1 938:1 939:1 940:1 941:1 942:1 943:1 944:1 945:1 100001:1 100002:1 100005:1 #
0.0090674537156525646108828908609212 11:4 41:2 225:1 232:1 691:1 724:1 735:1 1456:1 4511:1 5837:1 5838:1 5839:1 5840:1 5841:1 100001:1 100002:1 100005:1 #
-0.002050905845859870429981341999337 41:1 50:1 102:2 114:1 456:1 592:1 612:1 644:1 906:1 2929:1 5664:1 5665:1 5666:1 5667:1 5668:1 100002:1 #
-0.0011854328432467314911186173631563 11:1 41:3 114:2 151:1 158:1 406:1 614:2 616:1 634:2 660:1 672:1 673:1 836:1 906:1 1296:1 1341:1 1342:1 1548:1 1660:1 1900:1 3681:1 5094:1 5095:1 5096:1 5097:1 5098:1 100002:1 #
0.0082988512317684736546707924276234 2:1 11:4 28:1 30:1 41:1 102:3 114:2 232:1 240:1 401:1 592:1 614:1 663:1 1418:1 2298:1 2299:1 2302:1 3682:1 3685:1 3686:1 3687:1 3688:1 3689:1 3690:1 3691:1 3692:1 100001:1 100002:1 100007:1 #
-0.0063086456507912870572685193337747 41:1 102:2 114:1 232:1 401:1 905:1 975:1 3699:1 5347:1 7297:1 8346:1 8965:1 10699:1 100002:1 #
-0.0047982887016173531372076332957022 11:1 41:1 102:1 114:1 401:1 616:1 652:1 1206:1 1475:1 1476:1 1477:1 1478:1 1479:1 #
-0.002002040731442827816571883303709 41:1 102:2 114:1 227:3 228:1 232:1 401:1 592:1 614:1 660:1 841:1 847:1 906:1 1108:1 1121:2 1124:1 1147:1 1264:1 1327:1 1837:1 2389:1 2486:1 2791:1 4862:1 4894:1 5244:1 5915:1 7218:1 7854:1 8736:1 8737:1 100007:1 #
-0.00054986651544867764726531866870118 11:3 28:1 30:1 40:1 41:5 50:4 102:3 114:3 151:1 168:1 227:1 232:1 241:1 243:1 366:1 401:2 592:1 614:2 616:2 617:3 652:1 660:1 724:5 735:5 895:1 906:2 1040:2 1061:2 1233:1 1241:2 1265:1 1273:1 1275:2 1298:1 1476:1 1664:1 1742:1 1831:2 1833:2 1871:2 1943:1 2075:1 2084:3 2265:1 2327:1 2515:1 2545:2 2569:2 2759:2 2911:1 2973:1 4173:1 4307:1 5140:1 5685:1 5699:1 5860:1 6115:1 6437:1 7092:1 7711:1 7712:1 7713:1 7714:1 7715:1 7716:1 7717:1 7718:2 7719:1 7720:1 7721:1 7722:1 7723:1 7724:1 7725:1 7726:1 7727:1 7728:1 7729:1 100002:1 #
0.002172522780935850356121008530863 11:2 28:1 30:1 41:1 114:1 401:1 724:1 735:1 1585:1 1902:1 2688:1 3076:1 3228:1 3700:1 7426:1 8815:1 8816:1 8817:1 8818:1 100001:1 100002:1 100007:1 #
-0.0032106441840167509668702017222586 41:2 114:1 401:1 591:1 774:1 1040:1 1250:1 1273:1 1279:2 1718:1 4763:1 5065:1 5685:1 5686:1 5687:1 5688:1 #
0.00031165368468541953216044415597707 11:23 29:2 41:5 50:2 54:1 81:1 102:11 114:1 151:4 225:2 227:5 232:5 245:1 401:2 456:1 535:1 612:2 614:4 616:2 617:1 634:1 644:1 658:3 660:3 667:1 715:1 724:3 735:3 757:1 906:2 971:1 1051:1 1215:1 1276:1 1374:2 1387:1 1414:1 1545:1 1652:1 1658:1 1816:1 1883:1 1965:1 1978:1 1981:1 2061:1 2358:1 2774:1 2885:1 3201:2 3226:1 3236:1 3859:1 3920:1 4176:1 4387:1 4507:1 4688:1 4846:2 4847:2 4848:1 5171:1 5174:1 5177:1 5178:1 5567:1 6600:2 6802:1 6810:1 7969:1 8002:1 8461:1 8468:2 8479:1 9454:1 10311:4 10319:1 10320:2 10321:1 10322:1 10323:1 10333:1 10505:1 10506:1 10507:1 10508:3 10509:1 10510:1 10511:1 10512:1 10513:1 10514:1 10515:1 10516:1 10517:1 10518:1 10519:1 10520:1 10521:1 10522:1 10523:1 10524:1 10525:1 100001:1 100002:1 100003:1 100005:1 100007:1 #
-0.0032785768843258040507182560219235 11:6 41:1 102:1 227:2 232:1 827:1 841:1 847:1 1007:1 1211:1 2398:1 2435:1 2516:1 4078:1 5417:1 5418:1 5419:1 5420:1 5421:1 5422:1 5423:1 5424:1 5425:1 5426:1 5427:1 5428:1 5429:1 5430:1 #
-0.0008416471040526194401232285002834 11:1 41:1 50:1 114:2 592:1 616:1 617:1 658:1 724:1 735:1 774:1 1298:1 1383:1 1523:1 1524:1 1525:1 1526:1 1527:1 1528:1 1529:1 #
-0.0021256225278259988087370402354281 28:1 30:1 50:1 616:1 965:1 2377:1 3032:1 4188:1 5216:1 11141:1 #
0.0039513681962314983059370021578616 11:1 41:5 620:1 660:1 681:1 701:1 823:1 840:1 1121:1 1169:1 2163:1 2378:1 2379:1 2925:1 11229:1 11230:1 100001:1 100003:1 100007:1 #
-0.00091700065869878958670080582038509 11:7 28:2 30:2 41:2 50:1 102:4 114:2 151:1 223:1 227:1 232:2 401:2 409:1 608:1 614:1 616:3 660:2 663:2 667:1 724:2 735:2 847:2 895:1 906:1 983:1 1182:1 1210:2 1241:1 1290:2 1431:1 1529:1 1549:1 1658:1 1775:1 1796:1 1831:1 1930:1 1952:1 1978:2 2224:1 2537:1 2540:1 2569:2 2638:1 2765:1 2910:2 2973:1 3191:1 3511:2 3578:1 4235:1 4289:1 4619:1 5506:1 6239:1 7111:1 7412:1 9957:1 10618:1 11004:1 11005:2 11006:1 11007:1 11008:1 11009:1 11010:1 11011:1 11012:1 11013:1 11014:1 11015:1 11016:1 11017:1 11018:1 11019:1 11020:1 11021:1 11022:1 11023:1 11024:1 11025:1 11026:1 100002:1 100003:1 #
-0.00036971261571036053133337828668914 2:1 11:4 28:1 29:1 30:1 41:2 43:2 102:1 151:1 227:1 232:1 241:1 243:1 461:1 652:1 653:1 724:1 735:1 841:1 847:3 882:1 1039:1 1210:2 1288:1 1585:1 1775:1 1811:1 1943:1 1978:2 2547:2 3749:1 3759:1 4277:1 5506:1 7121:1 7411:1 7412:1 7413:1 7414:1 7415:1 7416:1 100002:1 #
-0.0050683124709089682341511817753599 11:3 41:3 50:1 401:1 406:1 434:1 455:1 614:1 634:1 672:1 673:1 674:1 676:1 906:1 1288:1 1547:1 2084:1 3937:1 6656:1 8811:1 100002:1 #
-0.011753957660902392481916400868158 #
0.0076321060430044086742018549784916 11:4 15:1 28:1 30:1 41:1 50:1 151:1 612:1 620:1 663:1 823:1 2084:1 2234:1 5412:1 5759:1 5760:1 5761:1 5762:1 5763:1 5764:1 100001:1 100002:1 100007:1 #
0.0014663679876345326377057309841234 5:1 11:7 28:2 30:2 33:2 41:1 50:1 66:1 127:1 136:1 155:3 212:1 232:1 313:1 406:1 606:1 620:1 663:1 714:1 724:1 735:1 789:1 820:1 895:1 957:1 1007:1 1300:1 2481:1 3521:1 3522:1 3523:1 3524:1 3525:1 3526:2 3527:1 3528:1 3529:1 3530:1 3531:1 3532:1 100001:1 100002:1 100007:1 100008:1 #
0.0097378341470796044715418915416194 11:3 41:2 102:1 395:1 691:1 1361:1 1547:1 2236:1 2276:1 2277:1 2278:1 2279:1 2280:1 100001:1 100007:1 #
0.0033243424635340385053794420855411 11:4 41:3 97:1 102:2 151:1 225:1 227:1 232:1 263:1 271:1 408:1 592:1 617:1 646:1 658:1 660:1 663:2 667:1 777:1 895:1 1276:1 1284:1 1431:1 1749:1 1833:1 2189:1 2253:1 2331:1 3032:1 4099:1 4179:1 5844:1 5845:1 8722:1 8723:1 8724:1 8725:1 8726:1 8727:1 100001:1 100002:1 100004:1 100005:1 100007:1 #
0.005288358029462059475833690669333 11:4 41:1 102:3 114:1 225:1 608:1 658:1 660:2 663:1 724:1 735:1 895:1 909:1 1212:1 1584:2 2110:1 2111:1 2112:1 2113:1 2116:1 2124:1 2869:1 3548:1 3549:1 7903:1 7904:1 100001:1 100002:1 100005:1 100007:1 #
0.0026287837862346606979113694535499 2:2 5:4 11:4 12:1 13:1 14:2 19:3 26:1 28:1 30:1 33:2 41:1 43:2 262:1 296:1 302:1 306:1 389:1 433:1 475:1 476:1 531:1 532:1 533:1 534:1 535:1 536:1 537:1 538:1 539:1 540:1 541:1 542:1 543:1 544:1 100001:1 100002:1 100006:1 #
0.0042541746487586087899224196462455 5:1 11:6 41:1 50:1 71:1 77:1 102:1 620:1 655:1 714:1 774:1 789:1 818:1 832:1 1915:1 5510:1 6672:1 7815:1 7816:1 9893:1 9894:1 9895:1 100001:1 100002:1 100007:1 #
0.001456024307561222357054742104765 11:6 28:2 30:2 41:3 81:1 102:2 114:1 225:1 232:2 455:1 614:2 658:2 875:1 1040:1 1779:1 1828:1 3084:1 3636:1 3640:1 3975:2 4012:1 4284:1 4447:1 5174:1 5904:1 6328:1 6330:1 8071:1 10144:1 10145:1 10146:1 10147:1 10148:1 10149:1 10150:1 10151:1 10152:1 10153:1 100001:1 100002:1 100005:1 100007:1 #
0.0042821006308595465153499226573786 11:5 16:1 41:1 102:2 151:1 232:2 640:1 663:1 724:1 735:1 835:1 971:1 1042:1 1043:1 1069:1 1831:1 2269:1 2396:1 3211:1 3216:1 3595:1 5549:1 9985:1 11308:1 11309:1 11310:1 11311:1 11312:1 11313:1 100001:1 100002:1 100007:1 #
0.0033464765087701450752000198463065 11:4 41:2 102:2 114:2 151:1 227:1 401:2 691:1 706:1 724:1 735:1 971:1 1061:1 1317:2 1494:1 2434:1 3822:1 4511:1 6300:1 6301:1 6302:2 6306:1 7914:1 10154:1 10155:1 10156:1 10157:1 10158:1 100001:1 100003:1 100005:1 #
0.0048698259107181262814179056874764 1:1 8:1 11:3 19:2 23:1 28:1 30:1 33:1 41:1 85:1 97:1 393:1 394:1 395:1 396:1 397:1 398:1 399:1 400:1 401:1 402:1 403:1 404:1 405:1 100001:1 100002:1 100003:1 #
0.00077544842046854082356910353723833 11:5 41:1 54:2 102:2 114:1 612:1 875:1 1545:1 3364:1 4846:1 4847:1 5163:1 5170:1 5345:1 6596:1 6597:1 6598:1 6599:1 6600:1 6601:1 100001:1 100002:1 100007:1 #
0.00059844629954349003782970717324474 11:7 41:2 50:1 54:3 77:1 102:1 114:2 142:1 151:5 227:1 232:3 352:1 401:1 406:1 614:2 616:2 617:1 620:1 658:1 660:1 667:2 724:1 735:1 906:1 922:1 971:1 1048:1 1275:1 1305:1 1448:1 1545:1 1548:1 1581:1 1585:2 1657:1 1742:1 1775:1 1779:1 1811:1 1812:1 1978:1 2630:1 2789:1 3201:1 4212:1 5113:1 5352:1 7775:1 8869:1 9548:1 9549:1 9550:1 9551:1 9552:1 9553:1 9554:1 9555:1 9556:1 9557:1 9558:1 9559:1 9560:1 100001:1 100002:1 100003:1 100007:1 #
0.0028822941655904515956265754539345 8:1 11:3 19:2 28:1 30:1 41:2 50:1 75:1 87:1 227:1 232:1 243:1 409:1 435:1 458:1 459:1 460:1 461:1 462:1 463:1 464:1 465:1 466:1 467:1 468:1 100001:1 100002:1 100003:1 #
0.0032917584845190027073580374405992 11:2 14:1 28:1 30:1 33:1 41:2 104:1 151:1 620:1 821:1 823:1 825:1 1727:1 2695:1 2952:1 4150:1 4613:1 5237:1 7453:1 9831:1 100001:1 100002:1 100007:1 #
0.0036260981066720209507747707533554 11:3 28:1 30:1 41:2 102:1 151:1 219:1 227:1 232:2 240:1 322:1 617:1 759:1 2142:1 2394:1 3233:1 11836:1 11837:1 11838:1 11839:1 11840:1 11841:1 100001:1 100002:1 100007:1 #
0.0028973041940674086960894051401283 11:7 28:1 30:1 41:1 50:1 61:1 102:1 136:1 227:1 427:1 592:2 612:1 660:1 667:1 805:1 1742:1 1811:1 1812:1 2458:2 3104:1 3240:2 3899:1 5891:1 6734:1 6979:1 6980:1 6981:1 6982:1 100001:1 100002:1 100003:1 100006:1 100007:1 #
0.0021561909429553848850658059888019 11:6 41:1 50:1 81:1 102:2 406:1 432:1 614:1 847:1 889:1 1040:1 1190:1 1984:1 2481:1 3598:1 4000:1 4001:1 4002:1 4003:1 4004:1 4005:1 4006:1 4007:1 4008:1 4009:1 4010:1 4011:1 4012:1 100001:1 100002:1 100007:1 #
0.0035097489674870349651847334371269 11:4 41:2 50:1 114:1 232:1 612:1 875:1 906:1 1831:1 2304:1 2321:1 3108:1 4359:1 4708:1 6465:1 9137:1 11120:1 11121:1 11122:1 11123:1 100001:1 100002:1 100007:1 #
0.0019885728313778286424629015982646 11:4 41:1 102:1 232:1 241:1 243:1 356:1 434:1 456:1 853:1 1728:1 3500:1 4965:2 4966:1 4967:1 4968:1 4969:1 4970:1 4971:1 4972:1 4973:2 100001:1 100002:1 100007:1 #
0.0031269248391963930418235850794417 11:4 41:1 50:1 102:2 112:1 114:2 608:1 612:1 616:1 660:1 671:1 895:1 1009:1 1096:1 1383:1 2261:1 2464:1 3901:1 4078:1 4643:1 4644:1 4645:1 100001:1 100002:1 100007:1 #
0.002571980777661690871493949117621 11:5 41:1 102:1 232:1 645:1 660:1 715:1 724:1 735:1 748:1 749:1 1052:1 2139:1 2394:1 3346:1 3975:1 4354:1 7207:1 8021:1 8022:1 8023:1 100001:1 100002:1 100006:1 100007:1 #
0.00028594332554254678693816948964468 5:1 11:5 14:2 33:1 41:2 50:1 61:1 97:1 102:2 151:1 179:1 458:1 537:1 614:1 616:1 617:1 620:1 724:1 734:1 735:1 807:1 835:1 895:1 1276:1 1421:2 1495:1 1567:1 2265:1 2351:1 2378:1 2468:1 2700:1 3039:1 3347:1 4105:1 4114:1 4129:1 9693:1 10355:1 10356:1 10357:1 100001:1 100002:1 100007:1 #
0.0069936356437090103563281040521815 11:4 614:1 996:1 1465:1 1794:1 1795:1 1796:1 1797:1 1798:1 1799:1 100001:1 100002:1 100007:1 #
-0.001629513562964775893332491918386 11:3 41:4 50:1 227:1 592:1 614:1 634:1 672:1 835:1 1040:1 1101:1 1284:1 1576:1 2361:1 2774:1 3259:1 3562:1 4086:1 7105:1 7320:1 10033:1 11225:1 11226:1 11227:1 100002:1 #
0.0033705115130912787456407553321469 11:3 41:2 232:1 647:1 648:1 3710:1 3969:1 6555:1 11696:1 11697:1 11698:1 11699:1 100001:1 100002:1 100007:1 #
0.0010064222488126871226515879342855 2:1 5:2 11:5 14:1 41:1 112:1 127:1 194:1 199:1 322:1 616:1 617:1 618:1 619:1 620:1 621:1 622:1 623:1 624:1 625:2 626:2 627:1 628:1 629:1 630:1 631:1 100001:1 100002:1 100007:1 #
0.0034285226811991559303649523826607 11:4 41:1 151:1 232:2 401:1 406:1 434:1 748:1 923:1 1837:1 2396:1 3971:1 3972:1 4464:1 6010:1 6011:1 6012:1 100001:1 100002:1 100006:1 100007:1 #
0.005475297296759946974464838831409 11:3 28:1 30:1 41:5 124:1 225:1 406:1 665:1 924:1 2323:1 4021:1 6785:1 7215:1 7731:1 100001:1 100002:1 100005:1 #
0.0061596124524568507049848697931793 11:1 41:3 232:1 681:1 701:1 2663:1 3108:1 3225:1 100001:1 100007:1 #
4.9108099351793141167099587818257e-05 11:7 23:1 33:1 41:2 50:1 232:1 354:1 592:1 617:1 620:1 714:1 787:1 788:1 789:1 790:1 875:1 1742:1 2663:1 3539:1 4083:1 6736:1 10845:1 11358:1 11359:1 11360:1 100001:1 100002:1 100003:1 100007:1 #
0.0010993735267209106543084828899737 11:5 41:2 102:2 151:1 227:1 232:2 245:1 401:1 640:2 658:1 660:1 681:1 701:1 724:2 735:2 1042:1 1043:1 1831:1 1948:1 2394:1 3087:1 3088:1 3090:1 3634:1 5113:1 5512:1 7207:1 10343:1 10344:1 10345:1 10346:1 10347:1 10348:1 10349:1 10350:1 10351:1 10352:1 100001:1 100007:1 #
0.00042855682428601359892569866438805 11:9 28:1 41:1 102:4 114:3 225:2 232:2 245:1 401:2 592:1 594:1 614:1 648:1 660:1 677:1 724:2 735:2 841:2 847:1 1039:1 1658:1 2256:1 2358:1 2623:1 3101:1 3105:1 3162:1 4021:1 4503:1 4659:1 4851:1 4928:1 4929:2 4930:1 4931:1 4932:1 4933:1 4934:1 4935:1 4936:1 4937:1 4938:1 4939:1 4940:1 4941:1 4942:1 100001:1 100002:1 100003:1 100005:1 100006:1 100007:1 #
0.00042659035474190470840077926695244 11:8 41:1 50:1 54:2 102:3 114:3 151:3 227:2 232:2 245:1 356:1 401:1 614:1 658:4 660:1 663:2 706:1 724:2 735:2 853:1 875:1 906:1 1024:2 1042:1 1456:2 1529:2 1545:2 1585:2 1811:1 2328:1 2885:1 2917:1 3201:1 3389:1 3933:1 4183:1 4262:1 5684:1 6442:1 6588:2 6589:2 6799:2 7201:1 10477:1 11700:1 11701:1 11702:1 11703:1 11704:1 11705:1 100001:1 100002:1 100003:1 100005:1 100007:1 #
0.00017633698244928886042677540491042 11:5 41:3 50:2 102:2 114:2 151:1 227:2 232:2 244:1 614:2 616:2 663:1 706:1 724:1 735:1 847:1 906:1 1210:1 1278:1 1383:1 1484:1 1519:1 1576:1 1659:1 1833:1 1903:1 1978:1 2084:1 3345:1 3574:1 3582:1 4008:1 4087:1 4092:1 4176:1 4346:1 4560:1 4688:1 4819:1 5705:1 5706:1 5707:1 5708:1 5709:1 5710:1 5711:1 5712:1 5713:1 5714:1 100001:1 100002:1 100003:1 100005:1 100007:1 #
-0.011753957660902392481916400868158 #
-0.00063698225647453054522328930175945 11:10 28:2 30:2 41:3 50:4 102:4 114:4 232:1 241:1 243:1 245:2 456:1 592:1 617:1 620:1 652:3 655:1 658:1 660:4 663:1 706:1 721:1 724:1 735:1 774:1 841:1 847:1 895:1 1026:2 1039:3 1041:1 1051:1 1121:2 1161:1 1265:1 1266:1 1290:1 1298:1 1328:1 1334:1 1383:1 1426:1 1501:2 1943:1 2061:2 2358:1 2361:1 2606:1 2631:1 2765:1 2943:1 3135:1 3249:1 3405:2 3600:1 4173:1 4274:1 4275:2 4276:1 4277:1 4278:1 4279:1 4280:1 4281:1 4282:1 4283:1 4284:2 4285:1 4286:1 4287:1 4288:1 4289:1 4290:1 4291:1 4292:1 4293:1 4294:1 4295:1 4296:1 4297:1 4298:1 4299:1 4300:1 4301:1 4302:1 4303:1 4304:1 4305:1 4306:1 4307:1 4308:1 4309:1 4310:1 4311:1 100002:1 100003:1 100005:1 100007:1 #
-0.00040850192816406792660835489705562 11:3 28:3 30:3 41:2 50:2 102:3 114:1 151:1 232:1 407:2 592:1 617:1 660:2 663:1 724:1 735:1 896:1 897:1 1048:1 1097:1 1098:1 1121:1 1145:1 1489:1 1536:1 1537:1 2540:1 3064:2 3066:1 3849:1 4379:2 5276:1 5352:1 6601:2 6908:1 7339:1 7340:1 7341:1 7342:1 7343:1 7344:1 7345:1 7346:1 7347:1 7348:1 7349:1 7350:1 7351:1 100002:1 100003:1 #
0.0015001294767192528342714119560242 1:1 2:1 11:4 23:3 33:1 41:2 48:1 151:1 377:1 681:1 701:1 706:1 724:1 735:1 1696:1 2618:1 2838:1 2958:1 5437:1 5438:1 6126:1 7221:1 7370:1 7814:1 11522:1 11523:1 11524:1 11525:1 100001:1 100003:1 100005:1 #
0.0028571419739706039285509486802539 11:4 48:1 102:2 114:1 225:1 660:1 1411:1 1421:1 2238:1 3048:1 3901:1 4459:1 4513:1 8975:1 8976:1 8977:1 100001:1 100002:1 100005:1 100007:1 #
0.00088954228366828189990267450326655 11:4 28:2 30:1 41:3 102:3 105:1 112:1 114:4 151:1 225:1 227:1 232:3 246:1 356:1 401:1 614:3 617:1 663:1 774:1 868:1 895:1 906:1 1009:2 1026:1 1068:1 1070:1 1104:1 1121:1 1309:1 1527:1 1658:1 1779:1 1796:1 2044:1 2423:1 2714:1 2761:1 2976:1 3529:1 4135:1 4220:1 4337:1 4423:2 4977:1 5494:1 6863:1 7140:1 9991:1 9992:1 9993:1 9994:1 9995:1 9996:1 100001:1 100002:1 100005:1 100007:1 #
-0.0035418474377861383813048679058966 41:1 232:1 614:1 10482:1 10483:1 #
0.0023245771197719609924003947298843 11:3 41:2 50:2 232:1 401:1 505:1 1802:1 3551:1 3552:1 3553:1 3554:1 3555:1 3556:1 3557:1 100001:1 100002:1 100007:1 #
-0.00023032847010188484994375190950677 11:5 28:2 30:2 35:1 41:10 50:4 102:7 114:3 158:1 217:1 227:2 232:5 233:1 401:5 612:1 614:4 616:1 617:1 658:2 660:4 663:2 667:4 724:2 735:2 757:1 774:1 779:1 847:1 906:1 983:1 1007:1 1019:1 1039:1 1041:1 1047:2 1048:1 1058:1 1065:2 1066:1 1121:2 1139:1 1142:1 1211:1 1234:1 1271:1 1298:1 1309:1 1328:1 1364:1 1365:3 1366:1 1368:1 1488:1 1539:2 1658:3 1779:2 2131:6 2139:1 2271:1 2358:1 2394:1 2631:1 2683:2 2910:1 2973:1 3201:1 3210:1 3561:1 3946:2 4410:1 4754:1 4798:1 4891:1 4933:1 5384:1 5965:1 6081:1 6839:1 6857:1 7207:1 7211:1 7667:2 7668:1 7669:1 7670:1 7671:1 7672:1 7673:1 7674:1 7675:1 7676:1 7677:3 7678:1 7679:1 7680:1 7681:1 7682:1 7683:1 7684:1 7685:1 7686:1 7687:1 7688:1 7689:1 7690:1 7691:1 7692:1 7693:1 100002:1 100007:1 #
0.0013659778588514292010924755516044 11:4 41:1 232:1 401:1 612:1 684:1 853:1 859:1 1061:1 1411:1 1937:1 1938:1 1939:1 1940:1 1941:1 1942:1 1943:1 1944:1 100001:1 100002:1 100006:1 100007:1 #
-0.0018858549478968278292206894874994 41:1 102:1 114:1 232:1 724:2 735:1 1137:1 1311:1 2569:1 5326:1 5523:1 #
-0.011753957660902392481916400868158 #
0.00048095576908632953943081855818775 11:5 41:1 77:1 102:2 151:1 165:1 193:1 227:1 232:2 256:1 401:1 620:1 643:1 663:1 724:1 735:1 835:1 895:1 1040:1 1076:2 1227:1 2261:2 3964:1 6094:1 11595:1 11596:1 11597:1 11598:1 11599:1 11600:1 11601:1 11602:1 11603:1 100001:1 100002:1 100003:1 100007:1 #
