SVM-light Version V6.02
0 # kernel type
3 # kernel parameter -d 
1 # kernel parameter -g 
1 # kernel parameter -s 
1 # kernel parameter -r 
empty# kernel parameter -u 
13553 # highest feature index 
7 # number of training documents 
8 # number of support vectors plus 1 
-1.0250158 # threshold b, each following line is a SV (starting with alpha*y)
-0.212634186019729970462677215437 1:1 25:1 13550:1 13552:1 13553:1 #
0.031269732208756347013878240659324 2:1 25:1 13550:1 13552:1 #
0.062539464417512832805634559463215 3:1 25:1 13550:1 13552:1 13553:1 #
0.012507892883502545050555809780235 4:1 25:1 13551:1 13552:1 13553:1 #
0.012507892883502534642214953919392 5:1 25:1 13551:1 13552:1 13553:1 #
0.031269732208756353952772144566552 6:1 25:1 13550:1 13553:1 #
0.062539464417512832805634559463215 7:1 25:1 13550:1 13552:1 13553:1 #
