SVM-light Version V6.02
0 # kernel type
3 # kernel parameter -d 
1 # kernel parameter -g 
1 # kernel parameter -s 
1 # kernel parameter -r 
empty# kernel parameter -u 
100025 # highest feature index 
1359 # number of training documents 
454 # number of support vectors plus 1 
0.53744017 # threshold b, each following line is a SV (starting with alpha*y)
-0.011373520508781395296771243863532 4:1 6:1 12:1 23:1 25:1 55:1 104:1 163:1 179:1 180:1 181:1 182:1 183:1 184:1 185:1 186:1 187:1 188:1 189:1 190:1 191:1 192:1 193:1 194:1 195:2 196:1 100001:1 100005:1 100025:1 #
-0.011373520508781395296771243863532 4:1 6:3 12:2 13:1 20:1 23:1 25:1 60:1 121:1 163:1 275:1 276:1 277:1 278:1 279:1 280:1 281:1 282:1 283:1 284:1 285:1 286:1 287:1 288:1 289:1 290:1 291:1 292:1 100001:1 100005:1 100024:1 100025:1 #
0.0013417391582445752085117618435106 4:4 6:2 122:1 123:1 205:1 3274:1 5876:1 5877:1 100001:1 100005:1 100016:1 100024:1 #
-0.011373520508781395296771243863532 4:1 6:3 12:3 13:1 23:1 25:1 55:2 60:1 64:1 68:1 112:1 121:1 163:3 182:1 221:1 239:1 322:1 323:1 324:1 325:1 326:1 327:1 328:1 329:1 330:1 331:1 332:1 333:1 334:2 335:1 336:1 337:1 338:1 339:1 340:1 341:1 342:1 343:1 344:1 345:1 346:1 347:1 348:1 349:1 350:1 351:1 352:1 353:1 100001:1 100005:1 100013:1 100025:1 #
-0.011373520508781395296771243863532 4:5 6:4 122:1 446:1 447:1 448:1 449:1 450:1 451:1 452:1 453:1 454:1 100005:1 100025:1 #
0.011373520508781395296771243863532 1:1 2:1 3:1 4:1 100001:1 100005:1 100022:1 100025:1 #
0.011373520508781395296771243863532 4:2 5:1 6:4 7:1 8:1 9:1 10:1 11:1 12:1 13:1 14:1 15:1 16:1 17:1 18:1 19:1 20:1 21:1 22:1 23:1 24:1 25:1 26:1 27:1 28:1 100005:1 100008:1 100025:1 #
0.011373520508781395296771243863532 4:2 6:3 12:1 29:1 30:1 31:1 32:1 33:1 34:1 35:1 36:1 37:1 38:1 100001:1 100005:1 100024:1 #
0.011373520508781395296771243863532 1:1 2:1 4:2 6:1 558:1 1005:1 4478:1 4479:1 4480:1 4481:1 100001:1 100005:1 100016:1 #
0.011373520508781395296771243863532 4:2 6:4 8:1 18:1 27:1 34:1 55:1 502:1 524:1 2565:1 2566:1 2567:1 2568:1 2569:1 100005:1 100008:1 100025:1 #
-0.0093170473285307288391354774148567 4:2 6:14 9:2 12:2 23:5 25:5 55:1 110:1 112:1 121:1 187:1 233:1 285:1 449:5 493:1 1077:1 1364:1 2065:1 2404:1 2927:1 3746:5 4234:1 4862:1 5092:1 5093:1 5097:1 5101:1 5102:1 7686:1 10751:1 10752:1 10753:1 10754:1 10755:1 10756:1 10757:1 10758:1 10759:1 10760:1 10761:1 10762:1 10763:1 10764:1 10765:1 10766:1 10767:1 10768:1 10769:1 10770:1 10771:1 10772:1 10773:1 10774:1 10775:1 100005:1 100025:1 #
-0.011373520508781395296771243863532 4:3 6:11 8:2 12:1 13:1 18:2 20:2 23:1 25:1 27:1 50:1 55:1 59:1 60:2 64:1 86:1 112:1 116:1 121:1 167:2 224:1 320:3 352:1 657:1 1482:1 1486:1 1487:1 1488:1 1649:1 1689:1 3497:2 4127:1 6237:1 7066:1 7480:1 7950:1 9318:1 9319:1 9320:1 9321:1 9322:1 9323:3 9324:1 9325:1 9326:1 9327:1 9328:1 9329:1 9330:1 100001:1 100005:1 100008:1 100013:1 100025:1 #
0.011373520508781395296771243863532 4:2 6:4 8:1 12:5 18:1 33:1 34:1 59:1 60:1 524:1 2731:1 2967:1 2968:1 9824:1 10646:1 10647:1 10648:1 10649:1 100001:1 100005:1 100024:1 100025:1 #
0.011373520508781395296771243863532 4:3 6:1 12:4 20:1 23:2 25:2 59:1 60:1 68:1 74:1 104:1 110:1 121:1 163:1 254:1 290:1 475:1 652:1 698:1 748:1 1019:1 1659:1 2378:1 2410:1 3739:1 3797:1 4319:1 10899:1 10900:1 10901:1 10902:1 10903:1 10904:1 10905:1 10906:1 10907:1 10908:1 100001:1 100005:1 100025:1 #
0.011373520508781395296771243863532 4:3 12:1 20:1 23:1 25:1 55:1 68:1 104:2 112:2 192:1 199:1 239:1 260:1 309:1 312:1 710:1 1021:1 1075:1 1656:1 2648:2 2652:1 2937:1 3689:1 4127:1 5348:1 7988:2 9599:1 9600:1 9601:1 9602:1 9603:1 9604:1 9605:1 9606:1 100001:1 100005:1 100025:1 #
0.011373520508781395296771243863532 4:2 6:3 12:6 13:2 55:1 59:3 60:1 61:1 112:2 121:1 163:2 207:1 268:2 343:1 350:1 497:1 690:1 779:1 1036:1 1271:1 1391:1 1831:1 1836:1 2180:1 2682:1 2720:1 3000:1 3485:1 3491:1 4878:1 5684:1 5685:1 5686:2 5687:1 5688:1 5689:1 5690:1 5691:1 5692:1 5693:1 5694:1 5695:1 100001:1 100005:1 100025:1 #
0.011373520508781395296771243863532 4:1 6:1 12:1 13:2 23:1 25:1 50:1 112:1 163:1 170:1 192:1 236:1 309:1 315:1 1045:1 2178:1 2356:1 6132:1 6252:1 6847:1 10873:1 10874:1 10875:1 10876:1 10877:1 10878:1 100001:1 100005:1 100024:1 100025:1 #
-0.0011578910939615176881045677248494 4:2 19:2 40:1 76:1 135:1 141:4 418:1 562:1 838:1 847:1 860:1 1005:1 1013:1 1055:1 1440:1 2224:1 2542:1 3229:1 3610:1 3990:1 3991:2 3992:1 3993:1 3994:1 3995:1 3996:1 3997:1 3998:1 3999:1 4000:1 4001:1 4002:1 4003:1 4004:1 4005:1 4006:1 4007:1 4008:1 4009:1 100005:1 100024:1 100025:1 #
-0.0013536349916166315159038457949237 4:1 12:1 37:1 59:1 130:1 312:1 413:1 3684:1 4171:1 100005:1 100022:1 100024:1 #
-0.011373520508781395296771243863532 2:1 4:1 12:1 13:1 130:1 1535:1 3302:1 100005:1 100022:1 100025:1 #
0.011373520508781395296771243863532 4:2 6:10 8:1 12:2 13:4 18:1 23:1 55:1 104:2 110:2 121:2 132:1 163:1 192:1 233:1 253:1 254:1 271:1 343:1 462:1 587:1 617:1 631:1 778:1 953:1 1045:1 1280:1 1286:1 1587:1 1619:1 2185:1 2312:1 2483:1 2652:1 3140:1 3177:1 3551:1 3761:1 3920:1 3978:1 3980:1 4299:1 4674:1 4888:1 5186:1 5373:1 5374:1 5375:1 5376:1 5377:1 5378:1 5379:1 5380:1 5381:1 5382:1 5383:1 5384:1 5385:1 5386:1 5387:1 5388:1 5389:1 5390:1 5391:1 5392:1 100005:1 #
0.011207659077162868133115125601762 4:5 6:8 23:2 25:2 27:2 44:1 82:1 122:1 371:1 391:1 392:1 395:1 414:1 446:1 447:1 450:1 452:1 563:1 1005:1 1758:1 2083:1 2100:1 2104:1 2972:1 5465:1 5882:1 6592:1 8292:1 8491:1 8492:1 8495:1 8755:1 8756:1 100005:1 100008:1 #
-0.011373520508781395296771243863532 4:2 6:3 12:2 27:1 59:1 135:1 163:1 751:1 1086:1 1439:1 1440:1 1441:1 1442:1 1443:1 1444:1 1445:1 1446:1 1447:1 1448:1 100001:1 100005:1 100008:1 100025:1 #
-0.0083411777780912771396160110271012 4:2 6:1 141:1 185:1 271:2 418:1 1011:1 1013:1 3402:1 3403:1 5792:1 5793:1 5794:2 5795:1 5796:1 5797:1 5798:1 5799:1 5800:1 100005:1 100024:1 100025:1 #
0.011373520508781395296771243863532 4:1 6:3 12:1 13:1 23:1 25:1 163:1 167:1 174:1 175:1 3807:1 4127:1 5250:1 5251:1 5252:1 100001:1 100005:1 100013:1 100025:1 #
-0.0047627656215483600565807620341729 2:1 4:5 6:8 8:3 11:1 12:5 13:9 18:3 20:1 23:4 25:4 26:3 34:1 50:4 55:7 59:1 60:3 64:1 68:1 76:2 104:1 112:3 121:2 127:1 130:1 132:1 151:1 154:1 163:1 192:2 206:2 233:1 239:2 277:2 285:2 286:1 287:1 327:1 413:1 414:1 419:1 423:1 462:2 465:1 590:1 593:1 594:1 595:1 596:1 597:1 609:1 728:1 766:1 793:1 1034:1 1045:1 1046:1 1194:1 1218:1 1286:1 1462:1 1678:1 1680:1 1931:1 2467:1 2648:1 2714:1 2937:1 3756:1 3825:1 4887:1 5890:3 6065:1 6220:1 6357:1 7988:2 8693:1 8763:1 8781:1 8844:1 8931:1 9736:1 9737:1 9738:1 9739:1 9740:1 9741:1 9742:1 9743:1 9744:1 9745:1 9746:1 9747:1 9748:1 9749:1 9750:1 9751:1 9752:1 9753:1 9754:1 9755:1 9756:1 9757:1 100001:1 100005:1 #
-0.011373520508781395296771243863532 4:2 6:12 8:1 12:4 13:4 18:1 19:2 20:2 23:2 25:2 40:2 50:1 55:1 59:2 60:1 64:1 84:1 86:1 104:3 110:1 112:2 128:1 163:4 170:1 192:1 257:1 284:1 324:1 343:1 412:1 473:1 536:1 635:2 690:3 775:1 794:1 824:1 1021:1 1045:3 1064:1 1489:2 1499:1 1500:1 1502:1 1506:4 1507:1 1657:1 2308:2 2317:1 2495:1 2707:2 2809:1 3294:2 3937:1 3999:2 4286:1 5791:1 6157:1 6663:1 6664:1 6665:1 6666:1 6667:1 6668:1 6669:1 6670:1 6671:1 6672:1 6673:1 6674:1 6675:1 6676:1 6677:1 6678:1 6679:1 6680:1 6681:1 6682:1 6683:1 6684:1 6685:1 6686:1 6687:1 100001:1 100005:1 #
0.011373520508781395296771243863532 4:2 1683:1 100001:1 100005:1 100023:1 100024:1 100025:1 #
0.011373520508781395296771243863532 4:3 558:1 1683:1 3194:1 100001:1 100005:1 100024:1 100025:1 #
-0.011373520508781395296771243863532 4:4 19:2 23:2 25:1 135:3 141:1 548:1 562:6 563:1 838:6 906:2 2201:1 2544:1 2552:2 3403:1 4005:1 4363:1 5728:1 6177:1 8831:1 9386:2 9387:1 9388:1 9389:2 9390:1 9391:1 100001:1 100005:1 100024:1 100025:1 #
0.0041986729107241780103998429751755 4:6 6:9 12:2 13:2 20:1 23:1 25:1 50:3 55:2 60:1 68:1 104:2 109:1 112:4 121:2 150:1 156:1 163:2 186:2 187:1 233:2 277:1 309:1 343:1 355:1 356:1 468:1 469:1 493:1 524:1 657:1 671:1 772:2 791:1 903:1 956:1 957:1 967:1 980:1 1034:1 1064:1 1074:1 1273:1 1286:1 1425:1 1734:1 1735:1 1782:1 2061:1 2241:1 2310:1 2311:1 2399:2 3058:1 3308:1 3485:1 3521:1 3539:1 3584:1 4598:1 4894:2 5995:1 6556:1 7454:1 7455:1 7456:1 7457:1 7458:1 7459:1 7460:1 7461:1 7462:1 7463:1 7464:2 7465:1 7466:1 7467:1 7468:1 7469:1 7470:1 7471:1 7472:1 7473:1 100001:1 100005:1 100008:1 100013:1 #
0.011373520508781395296771243863532 4:2 6:4 8:2 12:1 13:2 18:2 19:1 20:2 23:1 25:1 50:2 55:2 64:1 104:1 112:1 132:1 154:1 228:1 285:1 464:2 595:1 1021:1 1286:1 1390:1 1638:1 1659:2 3636:2 3825:1 4887:1 6220:1 9736:1 9749:1 9923:1 10311:1 10312:1 10313:1 10314:1 10315:1 100001:1 100005:1 #
0.011373520508781395296771243863532 4:1 1683:1 100001:1 100005:1 100022:1 100024:1 100025:1 #
-0.011373520508781395296771243863532 4:8 6:7 19:1 20:2 23:4 25:4 27:1 40:5 44:1 80:2 133:1 141:6 145:1 371:1 392:2 395:2 558:2 561:1 562:1 565:2 812:1 838:1 839:1 861:2 879:1 881:1 1001:2 1005:1 1481:2 1504:1 1601:1 2024:1 2086:2 2087:2 2088:2 2205:1 2222:2 2422:1 2516:1 2753:1 3102:1 4209:1 6516:1 7263:1 7434:1 7435:1 7436:1 7437:1 7438:1 7439:1 7440:1 7441:1 7442:1 7443:1 7444:1 7445:1 7446:1 7447:1 7448:3 7449:2 7450:1 7451:1 7452:1 7453:1 100001:1 100005:1 100008:1 #
-0.011373520508781395296771243863532 4:5 6:11 8:1 12:4 13:3 18:1 23:3 25:3 27:3 47:1 50:2 55:4 59:3 82:1 104:2 109:2 110:2 111:1 121:2 163:2 186:1 187:1 192:1 205:1 233:2 237:1 283:1 318:1 442:2 462:1 466:1 480:1 592:1 662:1 668:1 736:2 758:1 777:2 778:3 794:1 922:1 970:1 977:1 1045:1 1077:1 1271:1 1393:1 1400:1 1853:1 1871:1 1885:1 2035:1 2128:1 2176:1 2183:1 2327:1 2410:1 2878:1 2995:1 3217:1 3565:1 3960:1 4375:1 4376:1 4377:1 4378:1 4379:1 4380:1 4381:1 4382:1 4383:1 4384:1 4385:1 4386:1 4387:1 4388:2 4389:1 4390:1 4391:1 4392:1 4393:1 4394:1 4395:1 4396:1 4397:1 4398:1 4399:1 4400:1 4401:1 4402:1 4403:1 4404:1 100001:1 100005:1 100008:1 100013:1 #
0.011373520508781395296771243863532 4:3 6:3 43:2 82:1 156:2 1716:1 7275:1 7276:1 7277:1 7278:1 100005:1 100008:1 100025:1 #
0.011373520508781395296771243863532 4:1 6:1 23:1 25:1 449:1 591:1 1199:1 2327:1 100001:1 100005:1 100016:1 #
0.011373520508781395296771243863532 4:1 6:3 13:2 20:1 23:1 25:1 104:1 121:1 163:1 167:1 241:1 442:1 787:1 1587:1 4119:1 4315:1 6259:1 7645:1 8142:1 9219:1 100001:1 100005:1 100025:1 #
-0.0026912152032076107344149562550228 4:1 6:3 12:2 50:1 55:2 104:2 109:2 163:2 192:1 289:1 684:4 1210:1 1273:1 1437:2 1787:1 2009:1 2627:1 4156:1 4463:1 5159:1 5606:1 5765:1 5773:1 5774:1 8097:1 8098:1 8099:1 8100:1 8101:1 100005:1 100013:1 100025:1 #
-0.011373520508781395296771243863532 4:2 23:1 25:1 40:1 133:2 141:2 145:1 418:1 1006:2 1013:1 1171:1 1803:1 6451:1 8261:1 9181:1 9182:2 9183:1 9184:1 9185:1 9186:1 9187:1 9188:1 9189:1 100005:1 100025:1 #
-0.011373520508781395296771243863532 4:1 12:2 13:1 55:1 112:1 786:1 925:1 1437:1 2248:1 2249:1 2250:1 2251:1 2252:1 100005:1 100022:1 100025:1 #
0.0050659616913862979409310938194722 4:1 6:5 12:1 13:1 20:1 27:1 50:1 55:1 60:1 80:1 112:1 133:1 163:2 187:1 192:1 233:1 264:1 289:1 524:1 905:1 1045:1 1782:1 2491:1 2652:1 4535:1 4835:1 8085:1 8086:1 8087:1 8088:1 8089:1 8090:1 8091:1 8092:1 8093:1 8094:1 8095:1 8096:1 100001:1 100005:1 100008:1 100025:1 #
-0.011373520508781395296771243863532 4:1 6:2 12:1 55:1 110:1 112:1 121:1 126:1 151:1 350:2 798:1 896:1 1481:1 1668:1 1835:1 2319:1 2721:1 3975:1 5186:1 7592:1 9241:1 9242:1 9243:1 100005:1 100025:1 #
-0.011373520508781395296771243863532 4:1 6:7 44:1 82:2 192:1 205:2 267:2 391:1 414:2 465:1 690:1 754:1 2172:1 2491:1 100005:1 100025:1 #
-0.011373520508781395296771243863532 4:1 6:8 8:1 12:2 18:1 27:1 55:2 130:1 150:1 163:1 348:1 513:1 536:1 937:1 1212:1 1213:1 1216:1 1218:1 1219:1 1220:1 1221:1 4171:1 6037:1 6038:1 6039:1 6040:1 6041:1 100001:1 100005:1 100008:1 100013:1 #
-0.011373520508781395296771243863532 4:3 6:6 20:1 23:1 25:1 40:1 43:1 108:1 135:1 141:1 156:1 371:1 392:1 395:1 430:1 994:1 2099:1 2100:1 2101:1 2541:1 3251:1 4139:1 5882:1 8495:1 8899:1 8900:1 8901:1 8902:1 8903:1 8904:1 8905:1 8906:1 8907:1 8908:1 8909:1 100005:1 100008:1 #
-0.011373520508781395296771243863532 4:4 6:12 8:1 12:2 13:8 18:1 55:3 59:1 60:4 69:1 82:2 86:1 104:2 121:1 163:1 187:1 192:1 229:1 271:1 283:1 434:1 778:1 779:1 980:1 1616:1 1784:1 1975:1 2014:1 2112:1 2327:1 2669:1 2682:1 2721:1 3136:1 3137:1 3138:1 4548:1 6344:1 6490:1 6641:1 6731:1 7377:1 7705:1 9364:1 9365:1 9366:1 9367:1 9368:1 9369:1 9370:1 9371:1 9372:1 9373:1 9374:1 9375:1 9376:1 9377:1 9378:1 9379:1 9380:1 9381:1 9382:1 9383:1 100005:1 100024:1 100025:1 #
-0.0053647967369721723251974054846869 4:3 6:6 1087:1 1088:1 1089:1 1090:3 1091:2 1092:3 1093:3 1094:1 1095:1 1096:1 1097:1 1098:1 1099:1 1100:1 1101:1 1102:1 1103:2 1104:1 1105:2 1106:1 1107:2 1108:4 1109:4 1110:1 1111:1 1112:1 1113:1 1114:1 1115:1 1116:1 1117:1 1118:1 1119:1 1120:1 1121:1 1122:1 1123:4 1124:1 1125:2 1126:1 1127:1 1128:1 1129:1 1130:1 1131:1 1132:1 1133:1 1134:1 1135:1 1136:1 1137:1 1138:1 1139:1 1140:1 1141:2 1142:1 1143:1 1144:1 1145:1 1146:1 1147:1 1148:2 1149:1 1150:1 1151:1 1152:1 1153:1 1154:1 1155:1 1156:1 1157:1 1158:1 1159:1 1160:1 1161:1 1162:1 100005:1 100024:1 100025:1 #
0.0092608416122646475265867138659814 4:15 6:6 8:1 12:7 13:1 18:1 20:1 23:2 25:4 27:1 50:5 55:3 59:2 60:3 61:1 68:2 104:1 109:2 112:2 163:1 186:2 233:5 236:1 237:1 280:3 312:1 318:2 377:1 391:1 392:1 395:1 487:1 489:1 493:4 548:1 562:4 568:1 672:1 690:1 753:1 767:1 773:1 779:1 798:1 838:4 893:1 938:1 1074:1 1075:1 1077:1 1166:9 1271:5 1424:1 1429:1 1526:1 1847:1 1889:3 1931:3 1934:1 2013:1 2065:2 2491:1 2652:1 2669:1 2721:2 3318:1 3491:2 3528:1 3551:1 3679:1 3847:1 3955:1 4453:1 5728:1 5789:1 5930:1 6080:1 7045:1 7824:1 7825:1 7826:1 7827:1 7828:1 7829:1 7830:1 7831:1 7832:3 7833:1 7834:1 7835:1 7836:1 7837:1 7838:1 7839:1 7840:1 7841:1 7842:1 7843:1 7844:1 7845:1 7846:1 7847:1 7848:1 7849:1 7850:1 7851:1 7852:1 7853:1 7854:1 7855:1 7856:1 7857:1 7858:1 7859:1 7860:1 7861:1 7862:1 7863:1 7864:1 7865:1 7866:1 7867:1 7868:1 7869:1 7870:1 7871:2 7872:1 7873:1 7874:1 7875:1 7876:1 100001:1 100005:1 100008:1 100013:1 100025:1 #
0.010927991720643180292849017121171 4:3 6:15 12:13 13:8 20:2 23:1 25:6 50:3 55:2 59:2 60:1 64:2 68:2 86:1 104:2 105:1 110:5 112:3 121:4 156:1 192:2 271:1 280:1 309:4 315:2 316:1 318:2 343:1 348:1 406:1 487:2 562:2 657:1 677:1 690:2 714:1 838:2 977:1 1021:2 1040:1 1045:2 1080:1 1599:1 1776:1 1921:1 2013:1 2176:1 2352:1 2721:2 2936:1 3007:1 3018:1 3204:1 3542:1 3570:1 3691:1 3761:1 4046:1 4066:1 4116:1 4127:1 4278:1 4493:1 4666:2 4675:1 5181:1 5207:1 5996:1 6016:1 6032:1 6084:1 6098:1 6374:1 7196:1 7720:1 8033:1 8117:1 8543:3 9011:1 9012:1 9013:1 9014:2 9015:1 9016:1 9017:1 9018:1 9019:1 9020:2 9021:2 9022:1 9023:1 9024:1 9025:1 9026:2 9027:1 9028:1 9029:1 9030:3 9031:1 9032:1 9033:3 9034:3 9035:1 9036:1 9037:1 9038:1 9039:1 9040:1 9041:1 9042:1 100001:1 100005:1 100008:1 100013:1 100015:1 100025:1 #
0.0044902953502237233363025836752058 4:5 6:13 8:1 12:3 13:9 18:1 23:4 25:3 35:5 50:6 55:4 60:2 64:1 82:1 104:1 110:4 112:3 118:1 121:3 129:2 133:1 135:1 147:1 151:1 163:2 186:1 192:1 233:1 239:1 303:1 309:1 312:1 315:1 319:1 348:2 392:2 395:2 463:2 687:2 693:1 738:3 755:1 764:1 770:3 805:2 824:1 944:1 977:1 1021:3 1045:1 1075:1 1519:1 1619:1 1622:1 1721:1 1727:1 1733:1 1862:2 1946:1 2307:1 2682:1 2687:1 2975:1 2976:1 3123:1 3124:1 3125:1 3126:1 3127:2 3128:2 3129:3 3130:1 3131:1 3132:1 3133:1 3134:1 3135:1 3136:1 3137:1 3138:1 3139:1 3140:1 3141:1 3142:1 3143:1 3144:1 3145:1 3146:1 3147:1 3148:1 3149:1 3150:1 3151:1 3152:1 3153:1 3154:1 3155:1 3156:1 3157:1 3158:1 3159:1 3160:1 3161:2 3162:2 3163:1 3164:1 3165:1 3166:1 3167:1 3168:1 3169:1 3170:1 100001:1 100005:1 #
0.011373520508781395296771243863532 4:2 6:2 12:2 13:3 23:2 25:1 55:5 60:2 63:1 118:1 152:1 163:3 248:2 343:1 1688:1 2454:1 2687:1 2721:1 3169:1 3679:1 4298:1 4416:1 4418:1 4460:1 6056:1 7252:1 7993:1 8114:1 8115:1 8116:1 100005:1 100025:1 #
0.00056378880194614313520196091644721 4:6 6:6 8:1 12:5 13:2 18:1 27:1 34:1 50:3 55:1 60:1 64:1 68:1 86:1 109:2 121:1 122:1 123:1 163:5 182:1 192:1 290:2 309:1 312:1 344:1 348:1 371:1 493:1 605:1 670:1 690:1 756:1 798:1 1019:1 1021:1 1045:1 1219:1 1281:1 2241:1 2286:1 2404:1 2435:1 2500:1 2609:1 3499:1 3500:1 3515:3 3546:1 3987:1 4118:1 4127:1 4556:1 4710:1 5405:1 5759:1 5858:1 5925:1 6037:1 6125:1 6190:1 6786:1 10849:1 10850:1 10851:1 10852:1 10853:1 10854:1 10855:1 10856:1 10857:1 10858:1 10859:1 10860:1 100001:1 100005:1 100008:1 100016:1 #
-0.0020032601374797070689637301654784 4:7 6:22 8:5 12:12 13:9 18:5 20:1 23:3 25:3 27:3 50:7 55:9 59:4 60:1 68:2 82:1 96:4 104:3 109:4 110:3 112:8 121:1 163:5 170:2 185:1 186:2 192:3 228:1 233:2 243:1 271:2 280:2 285:2 309:2 312:1 313:1 316:1 318:2 442:1 487:2 639:3 644:1 672:1 685:2 690:2 712:1 758:1 777:1 794:1 896:1 1011:1 1022:1 1034:2 1039:1 1041:1 1077:1 1080:1 1284:2 1354:1 1437:1 1469:1 1473:1 1502:1 1682:1 1736:1 1806:1 1921:1 2013:1 2041:1 2065:4 2074:1 2241:1 2388:1 2414:1 2476:1 2503:1 2511:1 2721:2 2741:1 2977:1 3012:1 3528:1 3546:3 3721:2 3737:1 3910:2 4118:1 4298:1 4409:1 4411:1 4573:1 4597:1 4604:1 4671:1 4776:2 4888:1 4989:1 5031:4 5084:1 5160:1 5165:1 5292:1 5405:1 5551:2 5693:1 5925:4 5977:1 6284:1 6381:2 7181:1 7856:2 8477:1 8586:1 8587:1 8699:1 8745:3 8782:1 9077:1 9279:1 9808:1 10048:7 10049:1 10050:1 10051:1 10052:2 10053:2 10054:1 10055:1 10056:1 10057:1 10058:1 10059:1 10060:1 10061:3 10062:1 10063:1 10064:1 10065:1 10066:1 10067:1 10068:1 10069:1 10070:1 10071:1 10072:1 10073:1 10074:1 10075:1 10076:1 10077:1 10078:1 10079:1 10080:1 10081:1 10082:1 10083:1 10084:1 10085:1 10086:1 10087:1 10088:1 10089:1 10090:1 100001:1 100005:1 100008:1 100025:1 #
0.011373520508781395296771243863532 4:2 6:3 55:1 60:2 112:1 710:1 3807:1 7687:1 10167:1 10372:1 10373:1 10374:1 10375:1 10376:1 100001:1 100005:1 100025:1 #
0.0070177596989114895964512186310458 4:1 6:4 12:1 55:1 392:1 395:1 419:1 449:1 738:1 921:1 1211:1 1674:2 2709:1 4195:2 8501:1 10180:1 11338:1 11339:1 11340:1 11341:1 11342:1 100001:1 100005:1 100025:1 #
-0.011373520508781395296771243863532 4:1 8:1 18:1 121:1 10228:1 10243:1 10244:1 100005:1 100024:1 100025:1 #
0.011373520508781395296771243863532 4:1 6:3 13:1 60:1 102:2 121:1 392:1 395:1 1222:1 1348:1 1349:1 1350:1 1351:1 1352:1 1353:1 1354:1 100001:1 100005:1 100025:1 #
-0.011373520508781395296771243863532 4:1 6:7 12:1 23:2 25:2 55:1 64:1 82:2 104:1 163:1 176:1 1486:1 1699:1 1910:2 2448:1 6737:1 7100:1 7101:1 7102:1 7103:2 7104:1 7105:1 7106:1 7107:1 7108:1 7109:1 7110:1 7111:1 100001:1 100005:1 100025:1 #
-0.011373520508781395296771243863532 4:3 6:2 11:1 12:1 20:1 60:2 68:1 112:1 356:1 414:1 449:1 468:1 801:1 915:1 1024:1 1025:1 1026:2 1027:1 1028:1 1029:1 100005:1 100025:1 #
0.0059309814024688951167307848777455 4:8 6:11 12:7 13:9 20:5 27:1 35:1 50:2 55:4 59:4 60:6 68:1 104:1 109:1 110:1 112:2 121:5 127:1 159:1 163:3 167:1 192:1 207:2 228:1 312:1 343:1 375:2 414:1 465:3 468:1 489:1 493:4 524:4 638:1 740:3 741:1 742:2 743:2 744:1 745:1 746:1 747:1 748:1 749:1 750:1 751:1 752:1 753:1 754:1 755:1 756:1 757:1 758:1 759:1 760:3 761:1 762:1 763:1 764:1 765:1 766:2 767:1 768:1 769:2 770:1 771:1 772:1 773:1 774:1 775:1 776:1 777:1 778:1 779:1 780:1 781:1 782:1 783:1 784:1 785:1 786:1 787:1 788:1 789:1 790:1 791:1 792:1 793:1 794:1 795:1 796:1 797:1 798:1 799:1 800:1 801:1 802:1 803:1 804:1 805:1 100001:1 100005:1 100008:1 100025:1 #
-0.011373520508781395296771243863532 4:1 6:1 12:1 104:1 112:1 121:1 163:1 1667:1 1838:2 2991:1 4538:1 8759:1 10245:1 10246:1 10247:1 10248:1 100005:1 100023:1 100024:1 100025:1 #
0.011373520508781395296771243863532 4:1 1259:1 100001:1 100005:1 100022:1 100024:1 100025:1 #
-0.011373520508781395296771243863532 4:3 6:3 8:1 12:1 18:1 19:1 20:1 27:1 55:3 59:1 112:1 121:1 122:1 123:1 170:1 182:1 312:1 353:1 500:1 896:1 1536:1 2578:1 2579:1 2580:1 2581:1 2582:1 2583:1 2584:2 2585:1 2586:1 2587:1 2588:1 2589:1 2590:1 2591:1 100001:1 100005:1 100008:1 100016:1 #
-0.011373520508781395296771243863532 6:1 8:1 12:3 18:1 20:1 26:1 68:1 109:1 475:1 1198:1 1923:1 2312:1 2892:1 2894:1 3957:1 8815:1 8816:1 8817:1 100005:1 100025:1 #
0.00074961476069993187437701109843147 4:3 6:1 19:1 20:1 23:1 25:1 27:1 40:2 44:1 135:1 141:3 203:1 392:2 395:2 449:1 480:1 558:1 562:1 825:1 831:1 838:1 857:1 2532:1 2723:1 2944:1 3385:1 4013:1 6859:1 8509:1 8510:1 8511:1 8512:1 8513:2 8514:1 8515:1 8516:1 8517:1 8518:1 8519:1 8520:1 8521:1 8522:1 8523:1 8524:1 8525:1 8526:1 8527:1 8528:1 100001:1 100005:1 100008:1 #
0.0027281151099324677834767616246836 4:2 6:14 8:1 12:6 13:4 18:1 23:2 25:2 27:1 55:4 60:1 63:1 64:2 68:1 86:2 104:3 112:4 163:2 186:1 192:1 233:1 279:1 280:2 309:1 364:1 437:1 487:1 631:1 671:1 690:1 922:4 977:1 980:1 1035:1 1045:1 1049:2 1061:1 1064:1 1424:1 1642:1 1733:1 2183:1 2286:1 2491:1 2564:1 3360:1 4139:1 4221:1 4278:1 4299:1 4401:1 4624:1 4716:2 4892:1 4974:1 5345:1 5381:1 5590:1 5910:2 5911:1 5912:1 5913:1 5914:1 5915:1 5916:1 5917:1 5918:2 5919:1 5920:1 5921:1 5922:1 5923:1 5924:1 5925:1 5926:1 5927:1 5928:1 5929:1 5930:1 5931:1 5932:1 5933:1 5934:1 5935:1 100001:1 100005:1 100008:1 100013:1 #
-0.0017635986374154144062237348222766 4:2 6:10 12:11 13:2 23:4 25:4 26:1 50:1 60:2 129:2 151:1 267:1 350:5 414:1 674:1 758:1 878:1 1245:2 1727:1 1826:1 2335:1 2345:1 2652:1 2679:1 3240:1 3319:1 3792:1 4500:1 8841:1 8842:3 8843:3 8844:1 8845:1 8846:1 8847:1 8848:1 8849:1 100005:1 100025:1 #
0.011373520508781395296771243863532 4:2 6:2 12:1 13:2 29:1 33:1 34:1 1677:1 3257:1 9468:1 9469:1 100001:1 100005:1 100024:1 100025:1 #
-0.011373520508781395296771243863532 4:1 12:1 50:1 60:1 271:1 2069:1 2867:1 3112:1 3829:1 4169:1 4170:1 100005:1 100022:1 100025:1 #
-0.011373520508781395296771243863532 4:1 6:3 19:1 27:1 115:1 192:1 428:1 661:1 668:1 756:1 938:1 1408:1 6694:1 100001:1 100005:1 100008:1 #
-0.011373520508781395296771243863532 4:1 6:5 50:1 55:1 59:1 68:2 104:1 112:1 280:1 343:1 490:1 798:1 1019:1 1181:1 1871:1 1907:1 2682:1 2889:1 3135:1 3544:1 4880:1 4881:1 4882:1 4883:1 100001:1 100005:1 100024:1 100025:1 #
0.011373520508781395296771243863532 4:1 6:4 12:1 60:1 64:1 121:1 167:1 1722:1 8122:1 10104:1 10105:1 10106:1 10107:1 10108:1 10109:1 100001:1 100005:1 100025:1 #
0.0032683664211678150127160513704894 4:5 6:11 8:1 12:9 13:7 18:1 20:2 23:1 25:1 50:1 55:2 60:4 64:2 76:1 121:3 130:1 156:1 163:2 167:1 192:2 280:1 298:1 315:1 354:1 355:2 356:1 419:1 423:1 468:1 469:1 487:1 524:2 638:1 772:1 776:1 777:1 778:1 786:2 788:1 791:2 824:2 994:1 1021:1 1028:1 1045:2 1198:1 1623:1 1693:1 1782:1 1921:1 1931:1 2025:1 2051:1 2061:1 2107:1 2312:2 2395:1 2454:1 2652:1 2664:1 3062:1 4171:1 4268:1 6204:1 7454:1 8455:1 8456:1 8457:1 8458:1 8459:1 8460:1 8461:1 8462:1 8463:1 8464:1 8465:1 8466:1 8467:1 8468:1 8469:1 8470:1 8471:1 8472:1 100001:1 100005:1 100008:1 100013:1 #
0.011373520508781395296771243863532 4:3 6:5 8:1 12:1 13:1 18:1 19:1 20:2 21:1 22:1 23:1 24:1 25:1 26:2 27:1 1077:1 2637:1 2638:1 2639:1 2640:2 2641:1 2642:1 2643:1 2644:1 2645:1 2646:1 2647:1 4193:1 100005:1 100008:1 100025:1 #
-0.011373520508781395296771243863532 4:2 6:3 135:2 141:3 415:1 418:2 832:1 833:1 3944:1 3954:1 4363:1 6167:1 6168:1 6169:1 6170:1 6171:1 6172:1 6173:1 6174:1 6175:1 6176:1 6177:1 100001:1 100005:1 100024:1 100025:1 #
0.011164215251736478787258910472246 4:6 6:11 12:5 13:2 20:3 50:4 55:2 59:1 60:2 68:1 104:7 112:3 121:1 151:1 163:1 277:1 354:1 355:1 356:1 414:4 449:1 465:1 468:1 493:2 747:1 777:2 801:1 803:1 878:1 890:1 915:1 956:1 1077:2 1245:2 1396:1 1721:1 1734:1 1779:1 1812:1 1813:1 2132:1 2271:1 2913:1 2914:1 2960:1 3321:1 4041:1 4042:1 4043:1 4044:1 4045:1 4046:1 4047:1 4048:1 4049:1 4050:2 4051:1 4052:1 4053:1 4054:1 4055:1 4056:1 4057:1 4058:1 4059:1 4060:1 4061:1 100001:1 100005:1 100025:1 #
-0.011373520508781395296771243863532 4:3 6:2 150:1 468:1 469:1 2310:1 2311:1 100005:1 #
-0.011373520508781395296771243863532 4:1 6:1 12:1 13:1 109:1 112:1 459:1 493:1 2404:1 4530:1 4531:1 4532:1 4533:1 100005:1 100023:1 100024:1 100025:1 #
-0.011373520508781395296771243863532 4:3 6:3 35:1 60:1 68:1 112:1 121:1 356:1 414:1 449:1 468:1 728:1 770:1 801:1 1024:1 1025:1 1026:1 2609:1 3965:1 3966:1 100005:1 100025:1 #
0.011373520508781395296771243863532 4:2 6:1 19:1 27:1 40:3 141:5 392:1 395:1 550:1 551:1 552:1 553:1 554:1 555:1 556:1 557:1 558:1 560:1 561:1 562:1 563:1 564:1 565:1 566:1 567:1 568:1 569:1 570:1 572:1 573:1 574:1 1048:1 3952:1 3953:1 6045:1 100005:1 100008:1 100025:1 #
-0.011373520508781395296771243863532 4:3 6:4 12:1 367:1 414:1 3192:1 3193:1 3194:1 3195:1 3196:1 100001:1 100005:1 #
-0.011373520508781395296771243863532 4:4 6:6 12:1 392:1 395:1 480:1 824:1 1280:1 1502:1 1821:1 2842:1 2843:1 2844:1 2845:1 2846:1 2847:1 2848:1 2849:1 2850:1 2851:1 2852:1 2853:1 2854:1 2855:1 2856:1 2857:1 2858:1 2859:1 2860:1 2861:1 2862:1 100001:1 100005:1 100024:1 #
0.011373520508781395296771243863532 4:2 6:3 13:2 192:1 401:1 1689:1 1690:1 1826:1 4884:1 4885:1 100001:1 100005:1 100025:1 #
0.0089264754569159630859243037548367 4:4 6:10 8:1 12:7 13:5 18:1 23:4 25:3 27:1 50:1 55:3 59:2 60:2 64:1 74:1 76:1 96:1 104:1 109:3 112:3 121:3 135:1 156:1 163:5 187:1 241:1 283:1 284:1 312:1 343:1 348:1 489:1 779:1 1016:1 1045:1 1166:1 1186:1 1279:1 1391:1 1584:1 1622:2 1770:1 1806:1 1840:2 2136:1 2496:1 2687:1 3148:1 3274:1 3306:1 3392:1 3728:1 4185:1 4226:1 4228:1 4229:1 4236:1 4419:1 4493:1 4594:1 4855:1 4891:1 5456:1 5999:1 6217:2 6549:1 7420:1 7480:1 8040:1 8051:1 9154:1 9159:1 9559:1 9626:1 9627:1 9628:1 9629:1 9630:1 9631:1 9632:1 9633:1 9634:1 9635:1 9636:1 9637:1 9638:1 9639:1 9640:1 9641:1 9642:2 9643:1 9644:1 9645:1 9646:1 9647:1 9648:1 9649:1 9650:1 9651:1 9652:1 9653:1 100001:1 100005:1 100008:1 100013:1 100025:1 #
-0.011373520508781395296771243863532 4:1 6:2 23:1 25:1 26:1 76:2 371:1 980:1 981:1 2828:1 3190:1 3835:1 3836:1 3837:1 3838:1 3839:1 3840:1 3841:1 3842:1 3843:1 100005:1 #
0.011373520508781395296771243863532 4:1 6:1 60:1 579:1 878:1 890:1 891:1 2069:1 100001:1 100005:1 100023:1 100025:1 #
-0.011373520508781395296771243863532 4:1 6:3 19:1 20:1 23:1 25:1 135:1 141:1 449:1 1440:1 1876:1 2327:1 2620:1 2837:1 2976:1 3107:1 4016:1 4534:1 5236:1 8325:1 9885:1 9886:1 9887:1 100001:1 100005:1 100025:1 #
-0.011373520508781395296771243863532 4:1 6:2 12:1 50:1 55:1 104:1 112:1 233:1 580:1 1040:1 1075:1 1921:1 3380:1 6712:1 7295:1 7504:1 7505:1 7506:1 7507:1 7508:1 7509:1 100001:1 100005:1 100025:1 #
0.0034486738847348255218583368275631 4:7 6:12 8:5 12:8 13:3 18:5 20:1 40:3 43:1 55:3 60:2 64:1 68:1 104:2 110:1 118:1 121:1 128:1 129:1 130:3 135:2 139:1 141:3 145:1 148:1 150:2 163:2 170:1 230:1 233:1 271:1 318:1 365:1 371:1 374:1 375:1 428:2 462:1 465:1 690:1 698:1 712:1 980:3 986:2 1198:1 1592:2 1621:2 1622:1 1803:1 2652:1 2726:1 2756:1 2774:1 2875:2 3134:2 3214:1 3244:1 3826:1 4279:1 4505:1 4585:1 4767:1 4822:1 5066:1 5886:1 6353:1 6867:1 8128:1 8167:1 8191:1 8192:1 8215:1 8289:1 9253:1 9254:1 9255:1 9256:1 9257:1 9258:1 9259:1 9260:1 9261:1 9262:1 9263:1 9264:1 9265:1 9266:1 9267:1 9268:1 9269:1 9270:1 9271:1 9272:1 9273:1 9274:1 9275:1 9276:1 100001:1 100005:1 #
0.011373520508781395296771243863532 4:3 6:7 8:1 12:2 13:2 18:1 19:1 40:2 50:2 55:2 59:1 60:3 104:1 109:1 130:1 141:1 163:6 229:1 248:1 324:1 343:2 348:4 411:1 698:1 755:1 893:1 1007:1 1284:1 1834:1 1889:1 2721:4 2756:1 2908:1 3264:1 3485:1 3644:2 3959:1 4095:1 4415:1 4824:1 4891:1 5408:1 5605:2 5793:1 5802:1 6178:1 6180:1 6664:1 6864:1 6920:2 7297:1 7568:3 7616:2 7617:1 7618:1 7619:1 7620:1 7621:1 7622:1 7623:1 7624:1 7625:1 7626:1 7627:1 7628:1 7629:1 7630:1 7631:1 7632:1 7633:1 7634:1 7635:1 7636:1 7637:1 7638:1 100005:1 100025:1 #
-0.011373520508781395296771243863532 4:1 6:1 20:2 40:1 60:1 135:1 141:2 239:1 1374:1 1638:1 2648:1 6498:1 6615:1 6616:1 6617:1 6618:1 6619:1 6620:1 100001:1 100005:1 100023:1 100024:1 #
-0.011373520508781395296771243863532 4:1 6:9 12:5 13:3 20:1 27:2 55:2 68:1 109:2 116:1 121:3 163:1 233:1 253:1 254:1 269:1 449:1 633:1 980:1 1045:1 1046:1 1169:1 1909:1 1981:1 1982:1 1983:1 1984:1 1985:1 1986:1 1987:1 1988:1 1989:1 1990:1 1991:1 1992:1 1993:1 1994:1 1995:2 1996:1 1997:1 1998:1 1999:1 2000:1 2001:1 2002:1 2003:1 2004:1 100001:1 100005:1 100008:1 100013:1 100025:1 #
-0.011373520508781395296771243863532 4:3 6:1 465:1 468:1 801:1 803:1 1812:1 9884:1 100005:1 100025:1 #
0.011373520508781395296771243863532 6:1 127:1 377:1 1682:1 1956:1 100001:1 100005:1 100022:1 100025:1 #
-0.011373520508781395296771243863532 4:2 6:1 8:1 18:1 23:1 25:1 27:1 50:1 68:1 110:1 112:1 129:1 163:1 343:1 392:1 395:1 449:1 487:1 639:1 1582:1 1622:1 2315:1 2389:1 2904:1 2905:1 2906:1 2907:1 2908:1 2909:1 2910:1 100001:1 100005:1 100008:1 100025:1 #
-0.0047175344315472074810391411858745 4:1 6:1 8:1 12:2 13:9 18:1 20:2 50:3 55:3 60:1 64:1 109:1 110:1 112:2 121:1 150:1 163:2 233:1 271:1 287:1 315:1 392:1 395:2 478:2 579:1 761:1 1582:1 1587:3 1593:1 1726:1 2894:1 3736:1 3826:1 4094:1 4453:1 4887:1 5185:3 5666:1 5772:1 7066:1 8853:1 8854:1 8855:1 8856:3 8857:1 8858:2 8859:2 8860:2 8861:1 8862:1 100005:1 100013:1 100025:1 #
-0.0089755732668577777738638800997251 4:5 6:1 8:3 12:2 13:2 18:3 20:2 55:1 59:2 104:1 152:1 163:2 225:1 283:1 394:1 753:1 766:1 794:1 1064:1 1166:1 1526:1 1721:1 2454:1 2570:1 2649:1 3248:1 3483:1 3746:1 3771:1 3824:1 4659:1 4998:1 5066:2 6870:1 8452:1 8883:1 8884:1 8885:1 8886:1 8887:1 100005:1 100025:1 #
-0.011373520508781395296771243863532 4:2 12:2 50:1 60:1 2995:1 3286:1 6560:1 6561:1 6562:1 6563:1 100005:1 100023:1 100025:1 #
-0.0065907193190737388757693970831042 4:1 6:2 8:1 13:2 18:1 23:1 25:1 64:2 104:1 110:2 112:1 163:1 290:2 896:1 2486:1 3322:1 3746:1 4454:1 4457:1 4904:1 4915:1 4916:1 4917:1 4918:1 4919:1 4920:1 100005:1 100024:1 100025:1 #
-0.011373520508781395296771243863532 4:4 6:14 12:3 13:4 23:4 25:4 44:1 55:1 59:1 60:1 104:6 112:3 121:2 187:1 205:2 233:1 238:1 309:1 318:1 348:1 463:1 493:1 558:1 592:1 633:1 662:1 674:1 690:1 758:1 1195:1 1245:2 1282:1 1393:1 1424:1 1453:1 1766:1 2172:1 2268:1 2491:1 3545:1 3800:1 4636:1 4877:1 6636:1 7739:1 7742:1 7743:1 7744:1 7745:1 7746:1 7747:2 7748:1 7749:1 7750:1 7751:1 7752:1 7753:1 7754:1 7755:1 7756:1 100001:1 100005:1 100013:1 100025:1 #
-0.0061256129550915621589934900725893 4:1 12:2 13:1 23:1 25:1 55:1 60:1 223:1 230:1 1276:1 1473:1 1870:1 2035:1 8990:1 9435:1 9436:1 9437:1 100005:1 100025:1 #
0.011373520508781395296771243863532 4:1 1259:1 100001:1 100005:1 100022:1 100024:1 100025:1 #
0.011373520508781395296771243863532 4:1 6:2 12:3 13:3 50:2 112:1 318:1 670:1 778:1 896:1 956:1 1279:1 1529:1 3276:1 3515:1 5599:1 6579:1 6580:1 6581:1 6582:1 6583:1 100001:1 100005:1 100025:1 #
-0.011373520508781395296771243863532 4:1 12:1 13:1 23:1 55:1 104:1 109:1 130:1 163:3 192:1 258:1 632:1 672:1 957:1 958:1 1045:1 1171:1 1588:1 2009:1 2035:1 3643:1 3999:1 4674:1 6854:1 7255:1 8230:1 9043:1 9044:1 9045:1 9046:1 9047:1 100001:1 100005:1 100019:1 100023:1 100024:1 100025:1 #
-0.0066190705358121111612224041209629 4:5 6:8 12:4 13:4 20:1 35:1 50:1 55:2 59:2 60:2 64:1 68:1 76:1 112:1 121:1 163:2 192:1 312:1 343:2 419:1 468:1 469:1 524:1 632:1 770:1 772:1 777:2 903:1 959:1 1028:1 1039:1 1043:1 1075:1 1695:1 1727:1 1790:1 1837:1 1921:1 2396:1 2453:1 2454:1 2455:1 2456:1 2457:1 2458:1 2459:1 2460:1 2461:1 2462:1 2463:1 2464:1 2465:1 2466:1 2467:1 2468:1 2469:1 2470:1 100005:1 100025:1 #
-0.011373520508781395296771243863532 4:4 6:9 8:4 12:2 13:5 18:4 23:1 25:1 40:1 43:1 50:2 55:1 59:1 60:1 68:1 109:1 135:1 156:1 163:2 185:1 229:1 287:1 309:1 318:1 375:1 378:1 489:1 505:1 690:1 1041:1 1258:1 1263:1 1497:1 1498:1 1499:1 1500:1 1501:1 1502:1 1503:1 1504:1 1505:1 1506:4 1507:1 1508:1 1509:1 1510:1 1511:1 1512:1 1513:1 1514:1 1515:2 1516:1 1517:1 1518:1 1519:1 1520:1 1521:1 1522:1 1523:1 1524:1 1525:1 1526:1 1527:1 1528:1 1529:1 1530:1 1531:1 100001:1 100005:1 100008:1 100013:1 100025:1 #
-0.011373520508781395296771243863532 4:2 6:8 8:3 12:1 13:1 18:3 50:2 55:1 59:1 60:2 68:1 82:1 112:1 192:1 280:1 309:1 343:1 449:1 487:1 493:1 497:1 549:1 591:1 757:1 764:1 1045:1 1263:1 2009:1 2155:1 2183:1 5133:1 5134:1 5135:1 5136:1 5137:1 5138:3 5139:1 5140:1 5141:1 5142:2 5143:1 5144:1 5145:1 5146:1 5147:1 5148:1 100001:1 100005:1 100025:1 #
0.011373520508781395296771243863532 4:2 6:3 8:1 12:4 13:1 18:1 20:1 27:1 55:1 60:4 68:1 121:3 163:1 186:1 192:1 206:1 233:2 280:1 343:1 377:1 414:1 432:1 524:1 742:1 768:1 798:1 886:1 1026:1 1065:1 1075:1 1263:2 1721:1 2395:1 2464:1 3058:1 4059:1 6029:1 6989:1 6990:1 6991:3 6992:1 6993:1 6994:1 6995:1 6996:1 6997:1 6998:1 6999:1 7000:1 7001:1 7002:1 7003:1 7004:1 100001:1 100005:1 100008:1 100025:1 #
0.011373520508781395296771243863532 2:1 4:3 6:4 12:4 13:1 23:1 25:1 50:1 60:2 104:1 112:1 121:2 151:1 163:1 233:1 269:1 289:1 348:1 493:1 496:2 548:1 582:1 592:1 1230:1 1240:1 1400:1 1408:1 1480:2 1536:1 1887:1 1925:1 2009:1 2713:1 2774:1 3217:1 3218:1 3354:1 5728:1 7076:1 7730:1 7731:1 7732:1 7733:1 100001:1 100005:1 100016:1 #
0.011373520508781395296771243863532 4:3 6:4 12:8 13:2 20:1 23:1 25:1 50:1 55:1 59:1 60:1 86:1 130:1 132:2 221:1 239:1 283:1 315:1 327:1 362:1 414:1 428:1 748:1 805:1 1064:1 1079:1 1659:1 2410:1 2714:1 2881:1 4319:1 6544:1 7483:2 7484:2 7485:1 7486:2 7487:1 7488:1 7489:1 7490:1 7491:1 7492:1 7493:1 7494:1 7495:1 7496:1 100001:1 100005:1 100016:1 #
0.011373520508781395296771243863532 4:1 6:1 12:1 60:1 61:1 104:1 121:2 130:1 192:1 221:1 738:1 878:1 1721:1 2491:1 3361:1 3640:1 4589:1 6009:1 6010:1 100001:1 100005:1 100023:1 100025:1 #
-0.011373520508781395296771243863532 4:1 6:1 12:4 59:1 64:1 121:1 130:1 159:1 393:1 964:1 1075:1 1870:1 1910:1 1921:1 2774:1 3074:1 4671:1 8956:1 8957:1 8958:1 8959:1 100001:1 100005:1 100023:1 100024:1 100025:1 #
-0.006392616579213918417967654761469 4:2 6:4 12:2 13:2 55:1 60:1 64:1 110:1 121:1 228:1 271:1 315:1 318:2 355:1 482:1 1030:1 1031:1 1032:2 1033:1 1034:1 1035:1 1036:1 1037:1 1038:1 1039:1 1040:1 1041:1 1042:1 1043:1 1044:1 1045:1 1046:1 1047:1 1048:1 100005:1 100024:1 100025:1 #
-0.011373520508781395296771243863532 4:1 6:5 12:5 13:1 23:3 25:2 55:4 60:2 64:2 82:1 110:2 112:1 121:1 130:1 233:1 253:1 721:1 1021:1 1031:1 1420:1 1660:1 1665:1 1765:1 1905:1 1906:1 1907:1 1908:1 1909:1 1910:1 1911:1 1912:1 1913:1 1914:1 1915:1 1916:1 1917:1 1918:1 1919:1 1920:1 1921:1 1922:1 1923:1 1924:1 1925:1 1926:1 1927:1 1928:1 1929:1 1930:1 1931:1 1932:1 1933:1 1934:1 100001:1 100005:1 100025:1 #
-0.0071556734044876200290241641255307 4:1 6:3 8:1 18:1 20:1 55:1 163:2 192:1 693:1 970:1 987:2 1045:1 1286:1 1486:1 1620:4 1831:1 1991:1 2035:1 2721:1 3074:1 3758:1 3795:1 5066:1 5671:2 6357:1 7816:1 7817:1 7818:1 7819:1 7820:1 7821:1 100005:1 100024:1 100025:1 #
0.011373520508781395296771243863532 4:1 6:4 8:1 12:1 13:1 18:1 55:1 60:1 111:1 112:1 150:1 192:1 562:1 644:1 775:1 838:1 1708:1 2234:1 3646:1 3818:1 3819:1 3820:1 3821:1 3822:1 3823:1 100001:1 100005:1 100013:1 100025:1 #
0.0089751527687988094661442062260903 4:4 6:7 8:1 12:2 13:5 18:1 20:2 23:1 25:1 50:1 55:2 59:1 64:1 68:1 86:1 104:2 109:1 110:2 112:2 163:1 192:1 285:1 289:1 309:4 315:1 318:2 330:1 338:3 339:1 343:1 489:1 497:1 644:5 766:1 970:1 1021:1 1045:1 1263:1 1267:1 1284:1 1441:1 1442:1 1443:1 1508:1 1859:1 2185:1 2412:1 2577:1 2725:1 2726:1 3126:1 3384:1 3721:1 3759:1 4298:1 4494:1 5124:2 5247:1 5599:1 5789:1 6144:3 6145:2 6146:1 6147:1 6148:1 6149:1 6150:1 6151:1 6152:1 6153:1 6154:1 6155:1 6156:1 6157:1 6158:1 6159:1 6160:1 6161:1 6162:1 6163:1 6164:1 6165:1 6166:1 100001:1 100005:1 100025:1 #
0.011373520508781395296771243863532 1:1 2:1 4:1 6:2 12:1 60:1 130:1 2740:1 3244:1 4658:1 11125:1 11126:1 100001:1 100005:1 100013:1 100025:1 #
0.011373520508781395296771243863532 4:1 6:1 156:1 550:1 551:1 552:1 553:1 554:1 555:1 556:1 557:1 558:2 559:1 560:1 561:1 562:1 838:1 1601:1 5655:1 100005:1 100008:1 100025:1 #
0.011373520508781395296771243863532 4:1 6:1 156:1 550:1 551:1 552:1 553:1 554:1 555:1 556:1 557:1 558:2 559:1 560:1 561:1 562:1 2891:1 100005:1 100008:1 100025:1 #
-0.011373520508781395296771243863532 4:4 6:4 12:6 13:3 20:1 50:1 104:2 112:1 121:1 228:1 309:1 362:1 465:1 468:1 487:1 493:1 524:1 791:1 801:1 803:1 1021:1 1034:1 1054:1 1779:1 1782:1 1812:1 2960:1 3017:1 4041:1 4396:2 4475:1 4878:1 5999:1 6784:1 7155:1 9120:1 9261:1 11371:1 11372:1 11373:1 11374:1 11375:1 100005:1 100025:1 #
-0.011373520508781395296771243863532 4:2 6:2 8:2 12:7 13:7 18:3 20:2 23:1 25:1 27:1 50:1 55:4 104:1 110:1 112:1 163:1 186:1 233:1 269:1 309:1 348:1 442:1 728:1 877:1 921:1 1045:1 1075:1 1166:1 1276:2 1436:1 1638:1 1666:1 1952:1 2077:2 3204:1 3465:1 3504:1 3543:1 3626:1 3654:1 3697:1 5042:1 6289:1 10227:1 10228:1 10229:1 10230:2 10231:1 10232:1 10233:1 10234:1 10235:1 10236:1 10237:1 10238:1 10239:1 100001:1 100005:1 100008:1 100025:1 #
0.011373520508781395296771243863532 4:1 6:2 8:1 12:1 13:1 18:1 20:1 23:1 25:1 26:1 55:1 104:1 105:1 163:1 274:1 2707:1 3737:1 3807:1 6733:1 6734:1 6735:1 6736:1 6737:1 100005:1 100025:1 #
-0.011373520508781395296771243863532 4:1 6:3 12:3 13:1 50:2 59:1 130:1 241:1 242:1 698:1 3033:1 3034:2 3217:1 3801:1 3824:1 3825:2 100001:1 100005:1 100025:1 #
-0.0018827356527332213872311106328539 4:1 12:1 104:1 348:2 7862:1 100005:1 100022:1 100024:1 100025:1 #
0.011373520508781395296771243863532 4:2 6:4 8:1 18:1 20:1 23:1 25:1 27:1 140:1 146:2 151:1 698:2 2454:1 3119:1 4414:1 4415:1 4416:1 4417:1 4418:1 100005:1 100008:1 100025:1 #
-0.011373520508781395296771243863532 4:1 6:8 8:1 12:3 13:2 18:1 20:1 27:1 50:2 55:1 59:2 64:1 104:1 112:1 121:1 170:1 233:2 271:1 315:2 392:1 395:1 465:1 490:1 493:1 496:1 538:1 562:1 670:1 754:1 838:1 845:1 1040:1 1045:1 1271:1 1406:1 1408:1 1427:1 1480:1 1781:1 1921:1 2128:1 2136:1 2343:1 2344:1 2345:2 2346:1 2347:1 2348:1 2349:1 2350:1 2351:1 2352:1 2353:1 2354:1 2355:1 2356:1 2357:1 2358:1 2359:1 2360:1 2361:1 2362:1 2363:1 2364:1 2365:1 2366:1 100001:1 100005:1 100008:1 100025:1 #
-0.011373520508781395296771243863532 4:2 6:6 55:1 104:1 130:1 150:1 163:1 421:1 442:1 728:1 1219:1 1220:1 1221:1 1603:1 1657:1 4658:1 7350:1 7906:1 7907:1 7908:1 7909:1 100001:1 100005:1 100013:1 #
-0.008221058471998424557747320307044 4:2 6:4 20:1 40:1 135:2 141:1 271:5 348:1 377:1 392:1 395:1 418:1 449:1 563:1 565:1 568:1 803:3 847:2 1004:1 1013:1 1240:1 2096:1 2223:1 2875:1 3402:1 5493:1 5796:1 6168:1 6960:1 6961:1 6962:2 6963:1 6964:1 6965:1 6966:1 6967:1 6968:1 6969:1 6970:1 6971:1 6972:1 6973:1 6974:1 6975:1 6976:1 6977:1 6978:1 100005:1 100013:1 #
0.0047227447652328025454182558462435 4:2 6:7 12:4 13:1 23:3 25:3 50:1 82:1 94:1 112:1 121:3 167:1 227:1 251:1 264:1 478:1 707:1 748:1 1481:1 1659:1 1667:1 1931:1 2378:2 2602:1 2739:1 3019:1 3032:1 3033:1 3038:1 3040:1 3042:2 3117:1 6235:1 7555:1 7972:1 8005:1 8006:1 8007:1 8008:1 8009:1 100001:1 100005:1 #
-0.011373520508781395296771243863532 4:2 13:1 59:1 104:1 112:1 163:1 1021:1 1273:1 1837:1 2035:1 2627:1 4286:1 4555:1 5760:1 5791:1 6338:1 6339:1 6340:1 6341:1 6342:1 100005:1 100023:1 100025:1 #
0.011373520508781395296771243863532 4:1 6:1 20:1 59:1 130:1 465:1 728:1 4952:1 5175:1 5227:1 7592:1 7593:1 100001:1 100005:1 100023:1 100025:1 #
0.011373520508781395296771243863532 4:1 6:1 60:1 698:1 728:1 1693:1 4779:1 6274:1 100001:1 100005:1 100023:1 100025:1 #
0.011373520508781395296771243863532 4:1 6:1 60:1 375:1 465:1 578:1 579:1 580:1 100001:1 100005:1 100023:1 100025:1 #
0.011373520508781395296771243863532 4:1 6:1 26:1 27:1 10377:1 10381:1 100005:1 100008:1 100013:1 100023:1 100025:1 #
-0.011373520508781395296771243863532 4:2 414:2 878:1 1011:1 1013:1 6177:1 9717:1 9718:2 9719:1 9720:1 9721:1 9722:1 100001:1 100005:1 100023:1 100025:1 #
0.0072906101494607062837860489423747 4:5 6:7 8:3 12:8 13:5 18:3 20:1 23:1 25:1 37:1 40:1 43:1 50:3 55:1 59:1 60:2 109:1 110:1 121:3 124:1 130:1 133:1 140:1 141:3 146:1 150:1 271:1 309:1 414:1 442:1 582:2 764:1 1007:1 1263:1 2315:1 2500:1 2556:1 2875:1 2919:1 3231:1 4411:1 4414:1 5596:1 6068:2 6344:2 6351:1 6633:1 6634:1 6635:1 6636:1 6637:3 6638:1 6639:1 6640:2 6641:1 6642:1 6643:1 6644:1 6645:1 6646:1 6647:1 6648:1 6649:1 6650:1 100001:1 100005:1 #
-0.0046416552136034393630237282479811 3:1 4:4 6:7 12:7 13:7 50:2 55:1 104:2 109:1 110:1 112:1 121:1 163:1 192:1 225:1 289:1 309:2 325:1 343:1 350:1 421:1 631:1 635:1 727:1 956:1 970:1 980:2 1227:1 2014:2 2262:1 2324:1 2446:1 2450:1 2721:2 3957:3 4048:1 4214:1 4401:1 4463:1 4472:1 4609:1 4610:1 4611:1 4612:1 4613:1 4614:1 4615:1 4616:1 4617:1 4618:1 4619:1 4620:1 4621:1 4622:1 4623:1 4624:1 4625:1 4626:1 4627:1 4628:1 4629:1 4630:1 4631:1 4632:1 100005:1 100025:1 #
-0.0036910963087492879020068414774869 4:2 6:8 12:8 13:7 20:2 35:1 50:1 55:1 59:1 64:1 68:1 82:1 86:1 104:2 109:3 110:1 112:3 186:1 187:1 233:1 236:1 493:1 639:1 690:1 775:1 779:1 969:1 1021:2 1037:1 1075:1 1084:1 1181:2 1622:1 1986:1 2290:1 2338:1 2404:1 2486:1 2657:1 3282:1 3318:1 3825:1 3882:1 4023:1 4157:1 4276:1 4277:2 4278:2 4279:2 4280:1 4281:1 4282:1 4283:1 4284:1 4285:2 4286:1 4287:1 4288:1 4289:1 4290:1 4291:1 4292:1 4293:1 4294:1 4295:1 4296:1 4297:1 4298:1 4299:2 4300:1 4301:1 4302:1 4303:1 4304:1 100005:1 100024:1 100025:1 #
0.011373520508781395296771243863532 1199:1 100001:1 100016:1 100021:1 100024:1 #
-0.011373520508781395296771243863532 4:1 6:2 23:1 25:1 27:1 37:1 110:1 192:1 253:1 271:1 394:1 766:1 1582:1 2009:1 2345:1 4384:1 5525:1 6801:1 7361:1 10930:1 10931:1 10932:1 10933:1 10934:1 10935:1 100001:1 100005:1 100008:1 #
-0.011373520508781395296771243863532 4:1 6:2 55:1 163:3 799:1 977:1 1991:1 2679:1 2977:1 3701:1 3987:1 4500:1 5373:1 5791:1 6559:1 6889:1 10426:1 10427:1 100005:1 100024:1 100025:1 #
-0.011373520508781395296771243863532 6:3 19:1 40:1 76:1 141:1 152:1 418:1 504:1 587:1 662:1 1007:1 3843:1 3937:1 4415:1 6573:1 7418:1 10035:1 10036:1 100005:1 100016:1 #
-0.011373520508781395296771243863532 4:2 27:1 423:1 100005:1 100008:1 100023:1 100025:1 #
-0.011373520508781395296771243863532 4:1 13:2 986:1 2107:1 2108:1 2109:1 100001:1 100005:1 100022:1 100024:1 100025:1 #
0.011373520508781395296771243863532 4:2 6:2 13:1 50:1 122:1 123:1 130:1 1203:1 1204:1 3515:1 6249:1 10212:1 100001:1 100005:1 100024:1 100025:1 #
-0.011373520508781395296771243863532 4:2 6:3 8:1 13:2 18:1 59:1 121:2 318:1 348:1 657:1 893:1 1045:1 1166:1 1198:1 1443:1 1616:1 2241:1 2652:2 3504:1 3505:1 3506:1 3507:1 3508:1 3509:1 3510:1 3511:1 100005:1 100024:1 100025:1 #
0.010459460146037503555649372799508 4:5 6:5 8:1 12:2 13:2 18:1 20:1 50:7 60:3 104:1 109:5 112:4 163:1 192:1 233:1 375:1 465:1 489:1 526:1 690:1 742:1 743:2 755:2 760:1 791:1 794:1 883:1 915:1 963:1 1007:1 1045:2 1065:1 1587:1 1656:1 2720:1 2922:1 3067:1 3376:1 3882:1 3972:1 5175:1 5185:1 5224:1 5329:1 5393:1 5599:1 5917:1 7157:1 7507:5 7832:1 11376:1 11377:1 11378:1 11379:2 11380:1 11381:1 11382:1 11383:1 11384:1 11385:1 11386:1 11387:1 11388:1 11389:1 11390:1 11391:1 11392:1 100001:1 100005:1 100025:1 #
0.0034934628327398858579910800870039 4:5 6:7 8:1 12:7 13:4 18:1 20:1 23:1 25:1 27:1 55:2 59:1 60:4 112:1 145:1 290:1 309:2 318:1 493:1 654:1 845:1 994:1 1206:1 1218:1 1393:1 1395:1 1603:1 1835:1 1869:1 2035:1 3303:1 3568:1 3824:1 4034:1 4223:1 4315:1 4574:1 4599:1 4600:2 4601:1 4602:1 4603:1 4604:1 4605:1 4606:1 100001:1 100005:1 100008:1 #
0.011373520508781395296771243863532 4:1 6:1 60:1 878:1 890:1 891:1 1028:1 2069:1 100001:1 100005:1 100023:1 100025:1 #
-0.011373520508781395296771243863532 4:2 6:2 12:1 228:1 423:1 558:1 2327:1 6697:1 100001:1 100005:1 100025:1 #
-0.011373520508781395296771243863532 4:2 6:2 8:2 18:2 50:1 109:1 112:1 121:2 163:1 182:1 309:1 312:1 493:1 906:1 953:1 980:1 1473:1 1538:1 1892:1 2375:1 2499:1 2500:1 2501:1 2502:1 2503:1 2504:1 2505:1 2506:1 2507:1 2508:1 2509:1 2510:1 2511:1 2512:1 2513:1 100001:1 100005:1 100025:1 #
0.011373520508781395296771243863532 4:1 6:5 8:2 18:2 55:2 59:1 60:1 64:1 112:3 130:1 150:1 163:1 228:1 320:1 644:1 1016:1 1075:1 1211:1 1219:1 1924:1 2717:1 2991:1 4716:1 5354:1 8926:1 9495:1 9496:1 100001:1 100005:1 100025:1 #
-0.011373520508781395296771243863532 4:3 6:8 8:1 12:3 13:2 18:1 59:1 60:2 67:1 104:1 112:1 121:1 239:1 269:1 285:1 286:1 309:1 312:2 313:1 327:1 671:1 748:2 1166:1 1188:1 1355:1 1649:1 1657:1 1659:1 1784:1 1826:1 1952:1 3265:1 3739:1 4319:1 7388:1 7906:1 9896:1 10913:1 10914:1 10915:1 10916:1 10917:1 100005:1 #
0.011373520508781395296771243863532 4:1 1259:1 100001:1 100005:1 100022:1 100024:1 100025:1 #
-0.011373520508781395296771243863532 4:1 12:1 23:1 25:1 50:1 60:1 587:1 1678:1 1679:1 1680:1 1681:1 1682:1 100001:1 100005:1 100016:1 #
-0.011373520508781395296771243863532 4:1 6:3 23:1 25:1 392:1 395:1 465:1 558:1 1090:2 1092:1 1115:1 1117:1 1127:2 1128:1 1135:1 1148:1 1453:1 1555:1 1556:1 1557:1 1558:1 1559:1 1560:1 1561:1 1562:2 1563:1 1564:1 1565:1 1566:1 1567:1 1568:1 1569:1 1570:1 1571:1 1572:1 1573:1 1574:1 1575:1 1576:1 1577:1 1578:1 1579:1 1580:1 1581:1 1582:1 100005:1 100025:1 #
0.011373520508781395296771243863532 4:2 6:2 8:1 18:1 23:1 25:1 55:1 60:1 64:1 68:1 112:1 121:1 163:1 215:1 218:1 391:1 540:1 581:1 1391:1 1649:1 2152:1 3287:1 3801:1 3824:1 5165:1 7911:1 7912:1 7913:1 7914:1 7915:1 7916:1 100001:1 100005:1 100025:1 #
0.011373520508781395296771243863532 4:4 6:4 12:4 23:1 25:1 26:2 35:1 50:1 60:2 61:1 64:1 76:2 86:1 104:2 109:1 110:1 112:1 121:2 145:1 163:3 170:1 192:1 271:1 280:2 464:1 487:1 526:1 579:1 754:1 915:1 1039:1 1597:1 1774:1 1975:1 2046:1 2995:1 3446:1 3910:1 5849:1 6042:1 6804:1 7055:1 7056:1 7057:1 7058:1 7059:1 7060:1 7061:1 7062:1 7063:1 7064:1 7065:1 7066:1 7067:1 7068:2 7069:1 7070:1 7071:1 7072:1 7073:1 7074:1 100001:1 100005:1 100025:1 #
-0.00070628991941002264298710144885263 4:2 6:4 8:1 12:1 18:1 20:1 23:1 25:1 26:1 55:1 163:1 271:1 285:2 343:1 348:2 392:1 395:1 466:1 493:1 770:1 1045:3 1077:1 1166:1 1282:1 1511:1 1582:1 2053:1 2062:1 2286:2 2741:1 3067:2 3679:1 5395:1 5975:1 5976:1 5977:1 5978:1 5979:1 5980:1 5981:1 5982:1 100005:1 100025:1 #
-0.011373520508781395296771243863532 2:1 4:4 6:4 12:1 13:1 20:1 23:1 25:1 50:1 55:1 60:1 68:1 109:1 112:3 121:1 244:1 468:1 469:1 631:1 791:1 878:1 1636:1 1921:2 2384:1 2385:1 2386:1 2387:1 2388:1 2389:1 2390:1 2391:1 2392:1 2393:1 2394:1 2395:1 2396:1 2397:1 2398:1 2399:1 2400:1 100001:1 100005:1 #
-0.011373520508781395296771243863532 4:7 6:5 122:1 151:1 447:1 450:1 452:1 857:1 2741:1 2911:1 4063:1 5881:1 5882:1 5883:1 5884:1 100005:1 100025:1 #
0.011373520508781395296771243863532 4:3 6:4 12:3 13:4 20:1 23:2 25:1 27:1 55:3 64:1 68:1 104:1 110:1 112:1 121:3 163:1 239:1 287:1 309:1 312:1 327:1 371:1 421:1 464:1 495:1 592:1 652:1 687:1 707:1 824:1 845:1 869:1 980:1 1211:1 1263:2 1492:1 1735:1 1784:1 2958:1 3957:1 4173:2 4554:1 4766:1 4767:1 4768:1 4769:1 4770:1 4771:1 4772:1 4773:1 4774:1 4775:1 4776:1 100001:1 100005:1 100008:1 #
0.011373520508781395296771243863532 4:2 6:5 8:2 12:1 13:1 18:2 23:1 26:2 60:2 64:1 104:2 127:1 130:1 264:1 277:1 312:1 392:1 395:1 414:1 466:1 526:1 699:1 845:1 1084:2 1682:1 1959:1 2886:1 3690:1 3877:1 4171:1 4227:1 7358:1 7662:1 8717:1 8718:1 100005:1 100025:1 #
0.0061551299250618331931894644526437 4:1 6:5 12:5 13:4 23:1 25:1 27:1 55:1 64:1 68:1 104:1 112:1 167:1 312:1 379:1 524:1 1030:1 1045:1 1489:2 1511:1 1722:1 1771:1 2312:1 2383:1 2626:1 3648:1 4242:1 4514:1 5696:1 5697:1 5698:1 5699:1 5700:1 5701:1 100001:1 100005:1 100008:1 100016:1 #
-0.0046868532225546296124396583593352 4:3 6:7 8:3 12:8 13:7 18:3 23:3 25:3 50:1 55:2 59:2 60:4 68:1 86:1 104:1 112:1 133:1 150:2 163:3 192:2 233:1 277:1 285:1 343:1 355:1 478:1 524:3 606:1 631:1 639:1 760:1 767:1 778:2 863:1 896:1 926:1 979:1 1233:1 1249:1 1353:1 1400:1 1425:1 1649:1 1708:1 1737:1 2327:1 2397:1 2459:1 3008:1 3112:1 3270:1 3689:2 3980:1 4199:1 4589:1 4854:1 7001:1 7469:1 7610:1 8318:1 8973:1 9778:1 9779:1 9780:2 9781:2 9782:1 9783:1 9784:1 9785:1 9786:1 9787:1 9788:1 100001:1 100005:1 100013:1 100025:1 #
-0.0091061490768675045631708186988362 4:2 6:9 12:7 13:2 23:6 25:6 27:1 50:1 55:1 68:1 109:2 112:2 121:1 163:3 182:1 253:1 343:1 423:1 430:1 478:1 766:1 784:1 794:1 807:1 877:1 1049:1 1166:2 1188:1 1642:1 1643:1 1644:1 1645:1 1646:1 1647:1 1648:1 1649:2 1650:1 1651:1 1652:1 1653:1 1654:1 1655:1 1656:1 1657:1 1658:1 1659:3 1660:1 1661:1 1662:1 1663:1 1664:2 1665:1 1666:1 1667:1 1668:1 1669:1 1670:1 1671:1 1672:1 1673:1 100005:1 100008:1 100013:1 #
-0.011373520508781395296771243863532 4:2 6:6 8:2 12:5 13:4 18:2 23:3 25:3 27:1 41:2 50:1 59:1 60:1 64:2 82:1 104:1 111:1 121:1 163:1 192:1 227:1 236:1 280:1 287:1 312:1 388:1 449:1 450:1 671:1 764:1 927:1 1028:1 1622:1 1718:1 1727:1 1776:1 2316:1 2476:1 2483:1 2500:2 2511:1 2652:1 2667:1 2811:1 2949:2 3062:1 4171:2 4548:1 6067:1 6157:1 6329:3 6334:1 7045:1 8156:1 8157:2 8158:1 8159:1 8160:1 8161:1 8162:1 8163:1 8164:1 8165:1 100001:1 100005:1 100008:1 #
0.010691112131056607417733950171623 4:5 6:1 50:1 122:1 123:1 130:1 147:1 312:1 394:1 1502:1 1678:1 2975:1 2976:1 2977:1 2978:1 2979:1 100001:1 100005:1 100025:1 #
0.011373520508781395296771243863532 4:3 6:1 55:1 122:1 123:1 2076:1 2866:1 6320:1 100001:1 100005:1 100024:1 100025:1 #
0.011373520508781395296771243863532 4:2 6:1 122:1 123:1 865:1 866:1 100001:1 100005:1 100024:1 100025:1 #
0.011373520508781395296771243863532 4:2 6:1 122:1 123:1 4829:1 100001:1 100005:1 100024:1 100025:1 #
-0.011373520508781395296771243863532 6:3 68:1 104:1 192:2 512:1 1019:1 2065:1 3761:1 5413:1 7196:1 8816:1 8883:1 9063:1 9064:1 100001:1 100005:1 100024:1 100025:1 #
-0.011373520508781395296771243863532 4:1 6:4 367:1 428:1 824:1 1489:1 1657:1 8806:1 8807:1 8808:1 8809:1 8810:1 100005:1 100016:1 100024:1 #
0.011373520508781395296771243863532 4:1 6:2 27:1 41:1 388:1 449:1 1028:1 2043:1 2044:1 100005:1 100008:1 100025:1 #
-0.011373520508781395296771243863532 4:2 6:2 12:3 60:1 64:1 101:1 104:1 109:1 112:1 121:1 130:1 141:1 192:2 233:1 285:1 312:1 414:1 489:1 639:1 738:1 768:1 786:1 845:1 1028:1 1286:1 1371:1 2257:1 2356:1 2491:2 2875:1 3287:1 5452:1 5453:1 5454:1 5455:1 5456:1 5457:1 5458:1 5459:1 5460:1 5461:1 5462:1 100001:1 100005:1 100019:1 #
-0.011373520508781395296771243863532 4:2 6:2 13:1 60:2 68:1 109:1 309:1 348:1 381:1 592:1 687:1 1045:1 3504:1 5165:1 6060:1 6061:1 6062:1 6063:1 100001:1 100005:1 100025:1 #
-0.011373520508781395296771243863532 4:4 6:6 12:1 13:1 19:1 27:1 59:1 68:1 104:1 112:1 121:1 130:1 163:1 170:1 186:1 205:1 277:1 280:1 287:2 343:1 391:1 484:1 485:1 487:1 490:1 661:1 708:1 748:1 980:1 1075:1 1408:1 1434:1 1480:1 1781:1 2353:1 2366:1 2492:1 2731:1 3020:1 3110:1 3216:1 5395:1 7158:1 7159:1 7160:1 7161:1 7162:1 7163:1 100001:1 100005:1 100008:1 100013:1 100025:1 #
0.0043549828741794721631563902519702 4:3 6:6 8:2 12:1 13:2 18:2 23:3 25:3 50:2 55:1 60:1 109:1 112:3 121:1 130:1 150:1 156:1 163:2 182:1 192:1 233:1 248:1 318:1 324:2 343:1 398:1 489:1 519:1 633:1 738:1 1036:1 1039:1 1625:1 1642:1 1648:1 1834:1 2295:1 2296:1 2303:1 2715:2 2721:2 3284:1 3538:1 4069:1 4562:1 4891:1 5300:1 6864:1 7298:1 8972:1 9650:1 9996:1 9997:1 9998:1 9999:1 10000:1 10001:1 10002:1 10003:1 10004:1 10005:1 10006:1 10007:1 10008:1 10009:1 100001:1 100005:1 100008:1 100013:1 100025:1 #
-0.011373520508781395296771243863532 2:1 4:4 6:3 8:3 12:2 13:2 18:3 20:4 23:1 25:1 26:1 27:1 43:1 50:1 55:2 59:2 60:2 76:1 82:2 110:1 112:2 132:1 150:1 187:1 277:1 371:1 423:1 442:1 465:1 587:1 588:1 589:1 590:1 591:1 592:1 593:1 594:1 595:1 596:1 597:1 598:1 599:1 600:1 601:1 602:1 603:1 604:1 605:1 606:1 607:1 608:1 609:1 610:1 611:1 100001:1 100005:1 100008:1 100016:1 #
0.010191522167562441086863245232053 4:3 6:8 12:2 55:1 60:1 68:1 163:1 167:2 221:1 316:2 336:1 464:1 587:1 691:1 1486:1 1494:1 2111:3 2577:2 3496:1 3497:1 100005:1 #
0.011373520508781395296771243863532 4:1 6:4 8:1 12:3 18:1 46:1 50:1 55:1 59:1 80:1 86:1 92:1 93:1 109:1 163:1 301:1 343:1 462:1 672:1 970:1 1018:1 1481:1 1673:1 2290:1 2327:1 3689:1 4650:1 4670:1 5592:1 7196:2 7651:1 8888:1 8889:1 8890:1 8891:1 8892:1 100001:1 100005:1 100025:1 #
0.011373520508781395296771243863532 4:1 1683:1 100001:1 100005:1 100022:1 100024:1 100025:1 #
-0.0072707028339784257955913382431845 4:1 6:4 8:1 12:1 18:1 50:2 55:3 121:3 163:2 343:1 489:4 600:1 690:1 1489:2 1582:1 1591:1 1735:1 2183:1 2650:1 2721:1 2960:1 4159:1 4171:1 4172:1 4173:2 4174:1 4175:1 4176:1 4177:1 4178:1 4179:1 4180:1 4181:1 4182:1 4183:1 4184:1 4185:1 4186:1 4187:1 4188:1 4189:1 4190:1 4191:1 4192:1 100005:1 100013:1 #
-0.011373520508781395296771243863532 4:4 6:9 8:1 12:4 13:1 18:1 23:1 25:1 26:1 59:1 60:1 64:2 104:3 110:1 121:1 271:2 290:1 312:2 474:1 698:1 970:1 980:1 1045:2 1163:1 1164:1 1165:1 1166:3 1167:1 1168:1 1169:1 1170:1 1171:1 1172:1 1173:1 1174:1 1175:1 1176:1 1177:1 1178:1 1179:1 1180:1 1181:1 1182:1 1183:1 1184:1 1185:1 1186:1 1187:1 1188:1 1189:1 1190:1 1191:2 1192:1 1193:1 1194:1 1195:1 1196:1 1197:1 1198:1 100001:1 100005:1 100025:1 #
-0.0074617065392973466048109898451912 4:3 6:6 12:2 13:3 50:1 55:2 59:1 60:2 104:2 110:1 112:3 167:1 233:2 271:2 309:1 355:2 738:1 778:2 957:1 959:2 980:1 1276:1 1737:1 1889:1 2035:1 2483:1 2721:1 3485:1 4151:1 4524:1 5917:1 5968:2 6082:1 6553:1 6832:1 6839:1 7071:1 7235:1 7790:1 9856:1 9857:1 9858:1 9859:1 9860:1 9861:1 9862:1 9863:1 9864:1 9865:1 9866:1 9867:1 100005:1 100025:1 #
0.011373520508781395296771243863532 4:4 6:2 8:1 12:2 13:1 18:1 20:1 23:1 25:1 46:1 55:2 64:1 104:1 109:1 115:1 121:1 124:1 228:1 230:1 280:1 320:1 343:1 392:1 395:1 449:1 487:1 592:1 779:1 1075:1 1502:1 2115:1 2175:1 2986:1 3910:1 4385:2 4887:1 4984:1 4985:3 4986:1 4987:1 4988:1 4989:1 4990:1 4991:1 100001:1 100005:1 100025:1 #
0.011373520508781395296771243863532 4:1 6:2 8:1 13:1 18:1 23:1 25:1 112:1 385:1 1682:1 1704:1 1838:1 1956:1 2395:1 2741:1 9898:1 9899:1 9900:1 9901:1 100001:1 100005:1 100025:1 #
0.011373520508781395296771243863532 4:3 6:3 8:1 9:1 18:1 19:1 20:2 23:1 25:1 55:1 233:1 562:1 838:1 1380:1 1381:1 1382:1 1383:1 1384:1 1385:1 1386:1 1387:1 1388:1 1389:1 1390:1 1391:1 100005:1 100025:1 #
0.011373520508781395296771243863532 4:2 6:2 8:1 12:1 13:1 18:1 20:1 23:1 25:1 140:1 146:1 698:1 2454:1 3119:1 3824:1 4414:1 4415:1 4416:1 4417:1 4418:1 100005:1 100025:1 #
0.011373520508781395296771243863532 4:2 6:2 8:1 18:1 27:1 60:2 3989:1 8443:1 10032:1 10033:1 10034:1 100005:1 100008:1 100025:1 #
-0.011373520508781395296771243863532 2:1 4:2 6:5 8:2 12:5 13:2 18:2 20:2 50:1 55:2 59:1 60:4 68:1 104:2 121:1 150:2 318:1 489:1 540:2 587:1 657:1 878:1 980:1 1685:1 1686:2 1687:1 1688:1 1689:3 1690:3 1691:2 1692:1 1693:1 1694:1 1695:2 1696:1 1697:1 1698:1 1699:1 100001:1 100005:1 100013:1 #
-0.011373520508781395296771243863532 4:1 6:5 8:1 12:2 13:2 18:1 20:1 27:1 50:1 55:1 59:2 60:2 82:1 121:1 309:1 493:1 596:1 631:1 775:1 1194:1 1481:1 1597:1 2404:1 3761:1 4171:1 4422:1 6387:1 6589:1 6711:1 7972:1 8052:1 9026:1 9972:1 9973:1 9974:1 9975:1 9976:1 9977:1 100001:1 100005:1 100008:1 100024:1 100025:1 #
0.0018463695834574128575716889244518 4:3 6:5 12:1 55:2 64:1 70:1 121:2 130:1 145:1 163:3 257:1 289:1 371:1 434:2 441:1 1393:2 1879:1 1880:1 3627:1 4452:1 7856:2 9675:1 9934:1 9935:1 9936:1 9937:1 9938:1 9939:1 100001:1 100005:1 100013:1 #
0.011373520508781395296771243863532 4:3 6:5 8:1 18:1 121:1 140:1 141:1 271:2 320:1 418:1 436:1 677:1 728:1 738:1 881:1 1006:1 1166:2 1536:1 1616:1 6654:1 7951:1 8411:1 8412:1 8413:1 8414:1 8415:1 8416:1 8417:1 8418:1 8419:1 8420:1 100005:1 100013:1 #
0.011373520508781395296771243863532 4:1 6:3 12:1 68:1 82:1 102:1 104:2 121:1 150:1 299:2 419:1 526:1 728:1 893:1 1921:1 2242:1 2652:1 7659:1 8500:1 8501:1 8502:1 8503:1 8504:1 8505:1 8506:1 8507:1 8508:1 100001:1 100005:1 100025:1 #
0.011373520508781395296771243863532 4:1 6:3 12:2 13:2 55:1 104:2 225:1 239:1 290:1 327:1 381:1 1536:1 2269:1 3073:1 3263:1 4459:1 5540:1 6407:1 6408:1 100001:1 100005:1 #
0.011373520508781395296771243863532 4:2 6:3 12:3 13:4 64:1 104:1 109:1 161:1 480:1 696:1 883:1 1393:1 1437:2 1621:2 3736:1 6080:1 7661:1 7662:1 7663:1 7664:1 100001:1 100005:1 100016:1 #
0.011373520508781395296771243863532 4:2 6:2 12:1 13:1 55:1 59:1 163:2 241:1 271:1 312:1 710:1 971:1 2052:1 2228:1 2229:1 2230:1 2231:1 2232:1 2233:1 2234:1 2235:1 100001:1 100005:1 100025:1 #
-0.011373520508781395296771243863532 4:5 6:4 122:1 447:1 450:1 452:1 754:1 2911:1 2912:1 2913:1 5238:1 100005:1 100025:1 #
-0.011373520508781395296771243863532 4:1 6:2 12:1 59:1 86:1 163:1 182:1 670:1 3303:1 4384:1 5229:1 7950:1 8851:1 8852:1 100001:1 100005:1 100025:1 #
-0.011373520508781395296771243863532 4:1 6:2 12:1 27:1 919:1 3701:1 8536:1 8537:1 100005:1 100008:1 100025:1 #
0.0058038881855310463578345725466079 4:2 6:6 8:3 12:4 13:2 18:3 27:1 50:1 55:3 59:2 60:1 86:1 104:2 112:1 150:1 163:2 206:2 280:1 348:1 487:1 690:3 814:1 979:1 1019:1 1209:1 1473:1 1481:1 1519:1 1826:1 2412:1 2679:1 2875:2 3515:1 3602:1 3850:1 3980:1 4212:1 4214:2 4215:2 4538:2 4902:3 5999:1 7992:1 8923:1 8924:1 8925:1 8926:3 8927:1 8928:1 8929:1 8930:2 8931:1 8932:1 8933:1 8934:1 8935:1 8936:1 100001:1 100005:1 100008:1 100013:1 100025:1 #
0.0017248655391011967485948019884745 4:4 6:10 8:3 12:5 13:3 18:3 20:2 27:2 55:3 59:3 60:3 68:2 104:1 109:1 110:1 112:1 121:6 156:1 163:3 207:2 233:2 312:1 318:2 354:3 355:3 356:3 489:1 524:3 764:1 794:1 802:2 886:1 967:1 968:1 1024:1 1036:1 1039:1 1045:1 1069:2 1083:2 1236:2 1239:1 1432:1 1540:1 1722:2 1774:1 1931:1 2312:1 2473:1 2635:1 2717:1 3318:2 3675:1 3761:1 3772:1 4546:1 4592:2 4894:1 5047:1 5230:1 5955:1 5956:1 5957:1 5958:1 5959:1 5960:1 5961:1 5962:1 5963:1 5964:1 5965:1 5966:1 5967:1 5968:1 5969:1 5970:1 5971:1 5972:1 5973:1 100001:1 100005:1 100008:1 100013:1 100025:1 #
0.0055375323270441976705735775965422 4:1 6:2 27:1 59:1 121:2 150:1 375:1 392:1 395:1 423:1 536:2 579:1 1240:1 1241:1 1726:1 2395:1 2937:1 6417:1 6418:1 6419:1 6420:1 6421:1 100001:1 100005:1 100008:1 #
-0.011373520508781395296771243863532 4:1 6:2 12:1 13:1 23:1 25:1 55:1 60:1 102:1 104:1 127:1 239:1 327:1 442:1 2800:1 7226:1 7475:1 7476:1 7477:1 7478:1 7479:1 7480:1 7481:1 7482:1 100001:1 100005:1 100025:1 #
0.011373520508781395296771243863532 4:3 6:3 23:1 25:1 40:1 43:1 108:1 135:1 141:1 156:1 371:1 392:1 395:1 430:1 994:1 2099:1 2100:1 2541:1 3251:1 4139:1 5882:1 8495:1 8899:1 8900:1 8901:1 8902:1 8903:1 8906:1 100005:1 100008:1 #
0.011373520508781395296771243863532 4:4 6:6 13:1 23:1 25:1 55:1 74:1 109:1 110:2 112:2 167:1 239:1 699:1 1391:1 1689:1 1690:1 1957:1 1958:1 1959:1 1960:1 1961:1 1962:1 1963:1 1964:1 1965:1 100005:1 100025:1 #
-0.011373520508781395296771243863532 4:5 6:4 23:1 25:1 122:1 392:1 395:1 414:1 447:1 450:1 452:1 454:1 563:1 674:1 1060:1 5465:1 5748:1 5882:1 8491:1 8492:1 8493:1 8494:1 8495:1 8496:1 8497:1 8498:1 8499:1 100005:1 100025:1 #
-0.011373520508781395296771243863532 4:5 6:4 23:1 40:1 122:1 392:1 395:1 414:1 447:1 449:1 450:1 452:1 454:1 563:1 1060:1 1171:1 5465:1 5882:1 8491:1 8492:1 8495:1 8527:1 9062:1 9344:1 9345:1 9346:1 9347:1 100005:1 100025:1 #
-0.011373520508781395296771243863532 4:5 6:4 122:1 447:1 450:1 452:1 2911:1 2912:1 2913:1 4405:1 4406:1 100005:1 100025:1 #
-0.011373520508781395296771243863532 4:5 6:4 122:1 447:1 450:1 452:1 454:1 2911:1 2912:1 2913:1 2914:1 2915:1 100005:1 100025:1 #
0.011373520508781395296771243863532 4:1 6:2 8:1 12:2 18:1 34:1 55:2 60:1 112:2 130:1 290:1 512:1 893:1 1201:1 1202:1 1203:1 1204:1 1205:1 1206:1 1207:1 1208:1 1209:1 1210:1 1211:1 100005:1 100025:1 #
0.011373520508781395296771243863532 1:1 2:2 4:2 6:2 12:2 13:2 23:1 25:1 27:1 41:1 50:1 55:1 59:1 60:1 64:1 104:1 121:1 127:1 163:1 309:1 355:1 388:1 414:1 587:1 758:1 768:1 773:1 786:1 2025:1 2327:1 2875:1 4285:1 6329:1 6330:1 6331:1 6332:1 6333:1 6334:1 6335:1 6336:1 6337:1 100001:1 100005:1 100008:1 #
0.011373520508781395296771243863532 4:2 6:2 8:1 12:1 13:1 18:1 20:1 50:1 55:1 59:1 60:1 122:1 123:1 163:1 230:1 717:1 1021:1 1832:1 2032:1 5113:1 5114:1 5115:1 5116:1 5117:1 5118:1 100001:1 100005:1 100024:1 100025:1 #
0.011373520508781395296771243863532 4:1 6:3 12:1 112:1 949:1 1279:1 1492:1 2991:1 4956:1 4957:1 4958:1 4959:1 100001:1 100005:1 100025:1 #
-0.0072008335525850569389105793050021 4:1 8:3 12:4 13:4 18:3 20:1 40:1 59:1 60:2 110:1 135:1 163:1 225:1 233:1 269:1 280:1 309:1 343:1 394:1 1019:1 1408:1 1934:1 2077:1 2388:1 2648:2 2649:1 2650:1 2651:1 2652:1 2653:1 2654:1 2655:2 2656:1 2657:1 2658:1 2659:1 2660:1 2661:1 2662:1 100001:1 100005:1 100024:1 100025:1 #
0.011373520508781395296771243863532 4:2 6:2 13:1 27:1 55:1 59:1 82:3 114:1 121:1 123:1 155:1 163:1 174:1 175:1 176:1 177:1 4945:1 4946:1 4947:1 4948:1 4949:1 100001:1 100005:1 100008:1 100013:1 #
0.00062813072184553469905210487667091 4:2 6:1 20:1 23:1 25:1 27:1 40:1 63:1 132:1 151:1 271:1 376:1 392:2 395:1 408:1 480:2 562:1 634:1 710:1 824:1 838:1 1006:1 2532:2 3385:2 6591:1 8284:1 8960:1 8961:1 8962:1 8963:1 8964:1 8965:1 100001:1 100005:1 100008:1 #
0.011373520508781395296771243863532 4:4 6:9 13:3 55:1 64:1 104:1 112:1 145:1 192:2 401:1 442:1 690:1 738:1 1589:1 1686:1 1826:1 2241:1 2491:1 3285:1 4168:1 4413:1 4884:1 4885:1 4886:1 4887:1 4888:1 4889:1 100005:1 100025:1 #
0.011373520508781395296771243863532 4:2 6:5 8:1 18:1 150:1 162:1 304:1 442:1 462:1 1395:1 3281:1 3282:1 3283:1 3284:1 3285:1 100005:1 100025:1 #
-0.011373520508781395296771243863532 4:1 6:5 55:2 465:1 526:1 886:1 3940:1 4139:1 6957:1 6958:1 6959:1 100005:1 100013:1 100025:1 #
-0.011373520508781395296771243863532 4:1 6:5 55:1 82:1 126:1 205:1 1245:1 1416:1 2172:1 5449:1 5450:1 5451:1 100005:1 100013:1 100025:1 #
-0.011373520508781395296771243863532 4:1 6:4 55:2 167:1 192:1 442:1 1345:1 1346:1 4633:1 5643:1 8106:1 8107:1 8108:1 8109:1 100005:1 100025:1 #
0.011373520508781395296771243863532 4:3 6:4 8:1 12:2 13:4 18:1 20:1 33:1 34:1 50:1 59:1 60:2 96:1 110:1 112:1 121:3 253:1 254:1 290:1 343:1 474:1 493:1 631:1 671:1 779:1 1075:1 1077:1 1582:1 1791:1 2065:1 2508:1 2633:1 2741:1 3017:1 3043:1 3044:1 3045:1 3046:1 3047:1 3048:1 3049:1 3050:1 3051:1 3052:1 3053:1 3054:1 3055:1 3056:1 3057:1 100001:1 100005:1 100025:1 #
0.009569676956913531970516650915215 4:2 6:4 8:2 12:6 13:3 18:1 50:2 54:1 59:1 112:1 121:1 130:1 156:1 163:1 244:1 277:1 312:1 313:1 442:1 519:1 644:1 652:1 937:1 1388:1 1737:1 2508:1 3011:1 3117:1 3627:1 9027:1 9768:1 9769:1 9770:1 9771:1 9772:1 100001:1 100005:1 100008:1 100013:1 100025:1 #
0.011373520508781395296771243863532 4:2 6:3 8:1 12:3 13:3 18:1 50:2 55:1 64:1 104:1 112:1 163:1 215:1 260:1 1656:1 2938:1 2939:1 3005:1 3006:1 3007:1 3008:1 3009:1 3010:1 3011:1 3012:1 3013:1 3014:1 3015:1 3016:1 3017:1 3018:1 3019:1 3020:1 3021:1 3022:1 100001:1 100005:1 100013:1 100025:1 #
-0.011373520508781395296771243863532 4:2 6:6 12:5 13:4 20:1 23:2 25:2 50:2 55:2 59:2 89:1 109:1 112:3 121:3 163:2 236:1 260:1 318:1 343:1 631:1 690:1 980:1 1075:2 1263:1 1437:1 1802:1 2317:1 2500:1 2511:1 2558:1 2721:1 3057:1 3756:1 3758:1 3817:1 4835:1 5066:1 5620:1 5621:1 5622:1 5623:1 5624:1 5625:2 5626:1 5627:1 5628:1 5629:1 5630:1 5631:1 5632:1 5633:1 5634:1 5635:1 5636:1 5637:1 5638:1 5639:1 5640:1 5641:1 100001:1 100005:1 100024:1 100025:1 #
0.011373520508781395296771243863532 4:1 6:5 19:1 40:1 60:1 66:1 102:1 135:1 738:1 1374:2 3258:1 3259:1 3260:1 3261:1 3262:1 3263:1 3264:1 3265:1 3266:1 3267:1 3268:1 100005:1 100025:1 #
0.011373520508781395296771243863532 4:1 6:5 8:1 18:1 161:1 177:1 3280:1 3519:1 4830:1 4831:1 100005:1 100025:1 #
-0.011373520508781395296771243863532 4:3 6:3 150:1 414:1 468:1 469:1 1193:1 9384:1 9385:1 100005:1 #
-0.011373520508781395296771243863532 4:2 6:3 12:1 27:1 59:1 394:1 535:1 3276:1 4954:1 8450:1 11037:1 11038:1 100005:1 100008:1 100025:1 #
-0.011373520508781395296771243863532 4:1 6:3 8:1 12:1 18:1 19:1 26:1 40:1 133:1 874:2 4127:1 4655:1 5116:1 6178:1 6179:1 100005:1 100025:1 #
0.011373520508781395296771243863532 4:1 1683:1 100001:1 100005:1 100022:1 100024:1 100025:1 #
-0.011373520508781395296771243863532 4:2 6:4 8:1 12:1 13:1 18:1 19:1 20:1 50:1 59:1 64:1 112:1 121:1 141:1 152:1 163:1 228:1 285:2 286:1 343:1 562:2 631:1 838:2 1400:1 1502:1 1682:1 2076:1 2327:1 3217:1 3276:1 3825:1 4985:1 6238:2 6239:1 6240:1 6241:1 6242:1 6243:1 6244:1 6245:1 100001:1 100005:1 100025:1 #
-0.011373520508781395296771243863532 4:1 6:2 44:1 414:1 8318:1 100005:1 100025:1 #
0.011373520508781395296771243863532 4:2 6:3 12:2 13:1 23:2 25:2 167:1 210:1 505:1 1554:1 2077:1 2120:1 2353:1 3737:1 6130:1 6131:1 100001:1 100005:1 100025:1 #
0.004884839997444826581451948754875 4:3 6:6 12:2 13:1 23:2 25:2 27:1 55:2 59:2 121:2 223:1 265:1 270:1 442:1 707:1 1075:1 1355:2 1469:1 1676:1 1869:1 1870:1 2609:1 3582:1 6084:1 6141:1 6408:1 7203:1 7956:1 7957:1 7958:1 7959:1 7960:1 7961:1 7962:1 7963:1 7964:1 7965:1 7966:1 100001:1 100005:1 100008:1 100013:1 100025:1 #
0.011373520508781395296771243863532 4:1 6:4 12:3 13:2 23:1 25:1 55:1 62:1 104:1 112:1 121:1 192:1 271:1 274:1 924:1 949:1 1879:1 1880:1 1881:1 1882:1 1883:1 1884:1 1885:1 1886:1 1887:1 1888:1 100001:1 100005:1 100025:1 #
-0.011373520508781395296771243863532 4:3 6:3 8:2 12:1 18:2 20:1 23:2 24:2 25:2 55:3 60:1 104:2 132:2 192:2 201:1 285:1 371:1 462:1 489:1 505:1 595:2 754:1 1074:1 1286:1 1481:2 1826:1 2741:1 9741:1 9749:1 9754:1 10909:1 10910:1 10911:1 100001:1 100005:1 #
-0.011373520508781395296771243863532 4:1 6:1 12:1 23:2 25:2 55:1 121:1 130:2 1391:1 1437:1 2251:1 2327:1 4159:1 4887:1 6297:1 8303:1 8304:1 100005:1 100013:1 100025:1 #
0.011373520508781395296771243863532 4:1 6:3 8:1 13:1 18:1 19:1 20:1 40:2 109:1 135:1 141:1 374:1 418:1 698:1 865:1 866:1 867:1 868:2 869:1 870:1 871:1 872:1 873:1 874:1 875:1 876:1 877:1 878:1 879:1 880:1 881:1 882:1 883:1 884:1 885:1 886:1 887:1 888:1 100005:1 100025:1 #
0.0067169392086560185742283302090527 2:1 4:3 6:6 13:1 23:1 50:1 59:1 82:1 121:1 130:2 135:1 163:2 187:1 271:1 287:1 353:1 915:1 1007:1 1049:1 1237:1 1365:1 1439:1 1817:1 1920:1 1931:1 2875:1 3102:1 3333:1 3817:1 4658:1 5244:1 6901:1 6965:1 7116:1 7168:1 9498:1 9499:1 9500:1 9501:1 9502:1 9503:1 9504:1 9505:1 9506:1 9507:1 9508:1 100001:1 100005:1 #
0.011373520508781395296771243863532 4:2 6:3 12:1 13:1 55:1 60:1 167:1 462:1 587:1 1588:1 1682:1 1686:1 4409:1 4410:1 4411:1 4412:1 4413:1 100005:1 #
-0.011373520508781395296771243863532 4:4 6:5 12:2 60:1 305:1 631:1 1353:1 2144:2 2152:1 9214:1 10460:1 10461:1 10462:1 10463:1 10464:1 100005:1 100024:1 100025:1 #
-0.011373520508781395296771243863532 4:3 6:5 12:2 13:1 35:1 60:1 207:1 449:1 468:1 469:1 1193:1 2125:1 2398:1 2984:1 3169:1 6436:1 6437:1 6448:1 6449:1 100005:1 #
-0.011373520508781395296771243863532 4:2 6:1 26:1 241:1 2235:1 100005:1 100025:1 #
-0.011373520508781395296771243863532 6:2 12:1 20:1 60:1 121:1 145:1 163:1 436:1 684:1 770:1 1771:1 2626:1 2892:1 4236:1 5999:1 6000:1 6001:1 100005:1 100013:1 100023:1 100025:1 #
-0.0087279251883239823694982106871976 4:3 6:10 8:1 12:4 13:4 18:1 23:2 25:2 50:4 55:1 59:1 60:4 64:1 82:2 104:1 110:1 130:1 156:1 170:2 186:1 187:1 192:1 195:1 239:2 309:1 312:2 315:1 343:3 392:1 395:1 487:1 493:3 512:1 696:1 738:1 764:1 1039:1 1040:2 1045:1 1080:1 1166:1 1286:1 1295:1 1526:1 1582:1 1645:1 1698:1 1806:1 1931:1 2241:2 2473:1 3545:1 3582:2 3719:1 3975:1 4396:1 4436:2 5160:1 5393:1 5394:1 5395:1 5396:1 5397:1 5398:1 5399:1 5400:1 5401:1 5402:1 5403:1 5404:1 5405:1 5406:1 5407:1 5408:1 5409:1 5410:1 5411:1 5412:1 5413:1 5414:1 5415:1 5416:1 5417:1 5418:1 5419:1 5420:1 5421:1 5422:1 5423:1 5424:1 5425:1 5426:1 5427:1 5428:1 100001:1 100005:1 100008:1 100013:1 100025:1 #
-0.011373520508781395296771243863532 4:1 6:1 8:1 12:1 18:1 23:1 25:1 60:1 152:1 318:1 428:1 690:1 1080:1 3069:1 3568:1 10404:1 10405:1 100005:1 #
-0.011348672688127375146605047007142 4:2 6:5 12:9 13:2 20:1 23:1 25:1 55:2 59:1 60:1 68:1 104:2 112:1 121:1 163:2 182:1 283:1 309:1 348:1 493:1 568:1 691:1 766:2 1045:1 1079:1 1826:1 2009:1 2165:1 2251:1 2468:1 2489:1 3485:1 3496:1 3643:1 3714:1 3761:1 3841:1 3978:1 4537:1 5268:1 7469:1 8380:1 9220:1 9221:1 9222:1 9223:1 9224:1 9225:1 9226:1 9227:1 9228:1 9229:1 9230:1 9231:1 9232:1 9233:1 100001:1 100005:1 100025:1 #
-0.011373520508781395296771243863532 4:1 6:2 391:1 735:1 7534:1 100005:1 100013:1 100025:1 #
0.011373520508781395296771243863532 4:1 6:2 82:1 561:1 4139:1 4393:1 10249:1 10250:1 100001:1 100005:1 100013:1 100025:1 #
-0.011373520508781395296771243863532 4:2 6:2 20:1 23:1 25:1 55:1 59:1 60:1 68:2 110:1 135:1 152:1 229:1 271:1 355:1 436:1 565:1 679:1 832:1 930:1 1004:1 1616:1 2652:1 2766:1 3135:1 3689:1 3824:1 4414:1 4416:1 4418:1 6056:1 6654:1 6655:1 6656:1 6657:1 6658:1 10645:1 100001:1 100005:1 100025:1 #
-0.011373520508781395296771243863532 4:2 6:6 8:1 12:2 13:2 18:1 20:1 50:4 55:1 59:1 112:1 121:1 163:1 186:1 253:1 269:1 312:1 352:1 480:1 481:1 486:1 490:1 493:1 1080:1 1214:1 1422:1 2349:1 2459:1 2460:1 2500:1 2662:1 3552:1 4139:1 4652:1 5605:1 6239:1 6832:1 8473:1 8474:1 8475:1 8476:1 8477:1 8478:1 8479:2 8480:1 8481:1 8482:1 8483:1 8484:1 100001:1 100005:1 100024:1 #
0.0082234769496841494257344251650466 4:2 6:3 23:1 25:1 163:1 167:1 992:1 993:1 994:1 995:1 996:1 997:1 998:1 999:1 100001:1 100005:1 #
0.011373520508781395296771243863532 4:2 6:2 12:1 104:1 122:1 123:1 163:1 1335:1 1336:1 1337:1 1338:1 1339:1 1340:1 1582:1 100001:1 100005:1 100024:1 100025:1 #
0.011373520508781395296771243863532 4:2 6:1 122:1 123:1 1700:1 1701:1 100001:1 100005:1 100024:1 100025:1 #
0.011373520508781395296771243863532 4:2 6:1 122:1 123:1 7897:1 7898:1 100001:1 100005:1 100024:1 100025:1 #
0.011373520508781395296771243863532 4:2 6:4 8:1 18:1 20:1 23:1 25:1 27:1 135:1 152:2 229:1 271:1 436:1 449:1 565:1 832:1 930:1 1004:1 1616:1 1620:1 2454:1 4414:1 4416:1 4418:1 6056:1 6654:1 6655:1 6656:1 6657:1 6658:1 100005:1 100008:1 100025:1 #
-0.011373520508781395296771243863532 4:3 6:4 8:1 12:1 18:1 55:1 60:1 82:1 109:1 163:1 218:1 229:1 233:1 253:1 257:1 271:1 449:1 1045:1 1077:1 1204:1 1355:2 1356:1 1357:1 1358:1 1359:1 1360:1 1361:1 1362:1 1363:1 1364:1 1365:1 1366:1 1367:1 1368:1 100001:1 100005:1 100025:1 #
-0.0053769651894527920391042563608153 4:3 6:6 12:5 13:1 50:2 60:2 64:1 104:1 121:1 227:1 233:1 271:1 295:1 315:1 493:1 1284:1 1286:1 1931:1 2881:3 2919:1 2927:1 3017:1 3361:1 3640:1 3688:1 3980:1 4304:1 4557:1 4589:2 6319:1 10617:1 10618:1 10619:1 10620:1 10621:1 10622:1 100005:1 100019:1 100024:1 #
-0.0080341775949770398435045848373193 4:1 6:5 8:1 12:3 18:1 23:1 25:1 27:1 55:1 59:2 64:2 110:4 112:1 121:2 163:2 186:2 280:2 392:1 395:1 487:1 493:2 530:1 644:1 698:1 773:2 793:1 1041:1 1045:1 1077:2 1526:1 1582:1 2136:2 3043:2 4826:1 5003:1 5346:2 5550:1 5551:1 5552:2 5553:1 5554:1 5555:1 5556:1 100005:1 100008:1 100025:1 #
0.011373520508781395296771243863532 4:1 1683:1 100001:1 100005:1 100022:1 100024:1 100025:1 #
-0.011373520508781395296771243863532 4:2 6:1 4413:1 4887:1 100005:1 100025:1 #
0.011373520508781395296771243863532 4:4 6:5 8:1 13:1 18:1 34:1 37:1 55:3 82:1 121:1 135:1 171:1 468:1 469:1 502:1 1077:1 1365:1 1920:1 2155:1 4163:1 10366:1 11064:1 11411:1 11412:1 100005:1 #
0.011373520508781395296771243863532 4:1 6:1 465:1 1199:1 2327:1 100001:1 100005:1 100016:1 100023:1 #
-0.011373520508781395296771243863532 4:1 26:1 121:1 1453:1 1721:1 2312:1 100005:1 100022:1 100025:1 #
0.011161059098324200428153929465225 4:1 6:6 12:2 60:1 121:1 193:1 223:1 270:1 281:1 413:1 414:1 778:1 1045:1 1075:1 1272:1 1995:1 1996:1 3028:1 5041:1 6259:1 7674:1 7675:1 7676:1 7677:1 7678:1 7679:1 7680:1 7681:1 100001:1 100005:1 100025:1 #
0.0084413330694523523722860858242711 4:3 6:5 12:3 13:1 59:1 112:1 167:1 233:1 484:1 485:1 652:1 653:1 708:1 1222:1 1434:1 1479:1 1480:1 1481:1 1482:1 1483:1 1484:1 1485:1 1486:1 1487:1 1488:1 100001:1 100005:1 100025:1 #
-0.011373520508781395296771243863532 6:4 12:2 13:2 23:2 25:2 55:2 60:1 82:1 112:1 115:2 121:3 167:2 182:1 192:1 225:2 285:1 343:1 414:1 449:1 644:1 708:2 764:1 821:1 1034:1 1766:1 1934:1 6712:2 6808:1 8624:1 10297:2 10346:1 10347:2 10348:1 10349:1 10350:1 10351:1 100001:1 100005:1 100025:1 #
0.011373520508781395296771243863532 4:2 6:3 13:1 23:1 25:1 26:1 27:1 59:1 64:1 112:1 124:1 192:1 221:1 270:1 309:1 644:1 824:1 921:1 1021:1 2467:1 3789:3 3790:1 3791:1 3792:1 3793:1 3794:1 100005:1 100008:1 #
-0.011373520508781395296771243863532 4:3 6:2 150:1 468:1 469:1 470:1 471:1 100005:1 #
-0.011373520508781395296771243863532 4:1 6:1 12:1 55:1 59:1 68:1 805:1 1682:1 4962:1 5485:1 5486:1 5487:1 5488:1 5489:1 5490:1 5491:1 5492:1 5493:1 5494:1 5495:1 100005:1 100023:1 100025:1 #
0.0074417545241358684648957932949997 4:3 6:5 8:1 12:2 13:2 18:1 20:1 55:2 60:2 68:1 104:1 109:2 121:2 156:1 163:2 281:1 348:1 354:1 355:1 356:1 469:1 512:1 747:1 798:1 967:1 1045:1 1069:1 1083:1 1223:1 1353:1 1693:1 1764:1 1918:1 2466:1 2635:1 3067:1 3316:1 3317:1 3318:1 3319:1 3320:1 3321:1 3322:1 3323:1 3324:1 3325:1 3326:1 3327:1 3328:1 100001:1 100005:1 100008:1 100013:1 100025:1 #
0.0048630071698238727662122471429029 4:1 6:3 55:2 60:1 112:3 277:1 414:2 579:1 768:2 890:1 1721:1 1734:1 2960:1 4041:1 4042:1 100001:1 100005:1 100025:1 #
0.0029587798583916953207295641448127 4:1 6:3 20:1 23:1 25:1 27:1 44:1 135:3 141:2 285:1 378:1 568:1 1763:1 1876:1 3332:1 3337:1 3366:1 3367:1 3368:1 3369:1 3370:1 3371:1 3372:1 3373:1 3374:1 3375:1 100001:1 100005:1 100008:1 100025:1 #
0.0032049137754106265391085273108729 4:2 6:4 60:1 112:1 159:1 1493:1 2874:1 3494:1 6287:1 8150:1 8151:1 8152:1 8153:1 8154:1 8155:1 100001:1 100005:1 100025:1 #
0.011373520508781395296771243863532 4:2 6:4 8:1 12:2 13:2 18:1 20:1 34:1 112:2 156:1 163:1 489:1 502:1 690:1 1791:2 4500:1 6080:1 6388:1 7173:1 7174:1 7175:2 7179:1 7469:1 10861:1 10862:1 10863:1 10864:1 10865:1 100005:1 100008:1 100013:1 100025:1 #
0.011373520508781395296771243863532 4:2 6:2 20:1 23:1 25:1 130:1 135:1 141:1 1056:1 1502:1 1876:1 3338:1 3366:1 3373:1 3406:1 3412:1 3596:1 9853:1 10847:1 10848:1 100001:1 100005:1 100025:1 #
0.011373520508781395296771243863532 4:1 6:3 13:1 55:1 59:1 60:2 102:1 118:1 315:1 392:1 395:1 1495:1 4195:1 4780:1 5596:1 6419:1 8500:1 8603:1 8604:1 8605:1 8606:1 8607:1 100001:1 100005:1 #
-0.011373520508781395296771243863532 4:3 6:3 12:2 20:1 55:1 112:1 121:1 150:1 419:1 465:1 468:1 469:1 805:1 1238:1 2717:1 4847:1 5299:1 6438:1 10526:1 10918:1 10919:1 10920:1 10921:1 100005:1 100025:1 #
-0.011373520508781395296771243863532 4:2 6:3 12:1 13:1 55:1 60:1 301:1 309:1 318:1 540:1 690:1 977:1 1019:1 1429:1 3373:1 4066:1 4918:1 5030:1 6198:1 8387:1 10636:1 10637:1 10638:1 10639:1 10640:1 10641:1 10642:1 10643:1 100005:1 100024:1 100025:1 #
0.011373520508781395296771243863532 4:2 6:2 8:1 18:1 3622:1 8385:1 8386:1 100001:1 100005:1 100024:1 100025:1 #
-0.011373520508781395296771243863532 4:3 6:3 35:1 60:1 68:1 468:1 742:1 801:1 803:1 1722:1 1764:1 2025:1 2772:1 2773:1 100005:1 100025:1 #
-0.011373520508781395296771243863532 4:2 6:1 442:1 4413:1 100005:1 100025:1 #
0.011373520508781395296771243863532 4:2 6:3 12:4 23:1 25:1 112:1 167:1 206:1 223:1 257:1 1171:1 1393:1 3033:1 3034:1 3417:1 6234:1 6235:1 6236:1 6237:1 100001:1 100005:1 100025:1 #
0.011373520508781395296771243863532 4:2 6:1 43:1 151:1 1086:1 100001:1 100005:1 100025:1 #
-0.011373520508781395296771243863532 4:1 6:3 192:1 558:1 2025:1 2491:1 8850:1 100005:1 100013:1 100025:1 #
0.001477645157529688599296058271193 4:1 6:4 82:1 167:1 1365:1 1612:1 4163:1 6057:1 6058:1 9890:1 100001:1 100005:1 100025:1 #
-0.011373520508781395296771243863532 3:1 4:3 6:1 20:1 50:1 163:1 312:2 313:1 343:1 592:1 1682:1 2278:1 2417:1 6979:1 6980:1 100005:1 100025:1 #
-0.011373520508781395296771243863532 4:1 6:3 12:1 686:1 4595:1 4596:1 4597:1 4598:1 100005:1 100024:1 100025:1 #
0.011373520508781395296771243863532 4:1 6:5 12:2 13:1 20:1 55:1 60:1 150:1 163:1 315:2 343:1 375:1 612:1 631:1 742:1 756:1 764:1 766:1 903:1 1039:1 1453:1 1784:2 2065:1 2446:1 4891:1 6236:1 11000:1 11001:1 11002:1 11003:1 11004:1 11005:1 11006:1 100001:1 100005:1 100025:1 #
0.0036462429332698694309233822252736 4:1 6:5 12:1 13:1 55:1 68:1 104:1 167:1 233:1 248:1 253:1 254:1 1981:1 1982:1 1983:1 1984:1 1989:1 2449:1 2491:1 4317:1 5451:1 5590:1 10386:1 10387:1 100001:1 100005:1 100025:1 #
-0.011373520508781395296771243863532 6:2 12:3 13:1 20:1 60:1 64:1 80:1 109:1 112:1 356:1 512:1 710:1 1198:1 2312:1 2454:1 2892:1 2893:1 2894:2 2895:1 100005:1 100023:1 100025:1 #
-0.011373520508781395296771243863532 4:1 6:3 55:1 130:1 163:1 187:1 377:1 414:1 423:1 465:1 1245:1 4658:1 100005:1 100025:1 #
-0.011373520508781395296771243863532 2:1 4:1 6:3 8:1 12:1 18:1 47:1 50:1 76:2 112:2 207:1 355:1 356:1 2233:1 4147:1 4156:1 4445:1 4887:1 5554:1 5960:1 6017:1 7316:1 7317:1 7318:1 7319:1 7320:1 7321:1 100005:1 100025:1 #
0.011373520508781395296771243863532 4:1 6:1 12:1 121:1 127:1 354:1 355:1 356:1 423:1 1239:1 2554:1 100001:1 100005:1 100023:1 100025:1 #
-0.011373520508781395296771243863532 4:1 6:1 12:1 13:1 163:1 579:1 980:1 1211:1 3835:1 6251:1 6252:1 100005:1 100023:1 100025:1 #
-0.011373520508781395296771243863532 4:1 6:4 55:1 82:2 735:1 761:1 2609:1 2741:1 4377:2 8409:1 8410:1 100005:1 100013:1 100025:1 #
0.011373520508781395296771243863532 4:1 6:4 12:1 13:1 55:1 121:1 449:1 690:1 1186:1 1393:1 1931:1 2682:1 2971:1 6213:1 7551:1 9234:1 9235:1 9236:1 9237:1 9238:1 100001:1 100005:1 100025:1 #
0.011373520508781395296771243863532 4:2 6:3 12:1 20:1 23:1 25:1 55:2 110:1 163:1 362:1 480:1 807:1 949:1 2193:1 3515:1 4538:1 9392:1 9393:1 9394:1 9395:1 9396:1 9397:1 100001:1 100005:1 100013:1 #
0.0088973713234197244342782440185147 4:2 6:4 12:3 13:3 23:1 25:1 29:1 50:2 55:1 182:1 299:1 524:2 2170:1 3486:1 3487:1 3488:1 3489:1 3490:1 3491:1 3492:1 3493:1 3494:1 3495:1 100001:1 100005:1 100013:1 100025:1 #
-0.0021378787434953544326077246040541 4:1 6:6 12:5 13:3 29:1 50:1 55:3 60:3 64:1 112:1 163:2 192:1 194:1 289:2 290:1 465:1 529:1 591:1 652:1 728:1 980:1 1045:1 1649:1 1870:1 2048:1 2180:1 2234:1 2315:1 2652:1 2995:1 4387:1 4887:1 7135:1 7136:1 7137:1 7138:1 7139:1 7140:1 7141:1 7142:1 7143:1 7144:1 7145:1 100005:1 100025:1 #
-0.011373520508781395296771243863532 4:3 6:2 23:3 25:3 104:1 2428:1 11292:1 11293:1 11294:1 11295:1 100005:1 100024:1 100025:1 #
0.011373520508781395296771243863532 4:1 6:4 156:1 229:1 392:1 395:1 861:1 1602:1 1603:2 2194:1 2195:1 2196:2 5238:1 10445:1 100005:1 100008:1 #
0.011373520508781395296771243863532 4:1 6:1 207:1 1391:1 1453:1 1956:1 100001:1 100005:1 100023:1 100025:1 #
0.011373520508781395296771243863532 4:1 6:1 391:1 466:1 1391:1 5694:1 5695:1 100001:1 100005:1 100023:1 100025:1 #
-0.011373520508781395296771243863532 4:1 13:1 86:1 104:1 192:1 244:1 1931:1 4780:1 6316:1 6317:1 6318:1 6319:1 100005:1 100022:1 100025:1 #
-0.011373520508781395296771243863532 4:2 46:1 6988:1 100005:1 100023:1 100024:1 100025:1 #
0.011373520508781395296771243863532 2:1 4:1 130:1 2774:1 2775:1 100001:1 100005:1 100022:1 100025:1 #
0.011373520508781395296771243863532 4:3 6:3 20:1 23:1 25:1 27:1 43:1 205:1 819:1 878:1 1496:1 1601:1 1754:1 3276:1 5466:1 100005:1 100008:1 100025:1 #
-0.011373520508781395296771243863532 4:1 6:1 8:1 18:1 40:1 66:1 1374:1 4204:1 9438:1 11220:1 100005:1 100019:1 100024:1 100025:1 #
0.010699968478107087579975775781804 4:1 6:5 8:1 12:2 18:1 20:1 55:2 104:1 150:1 188:1 225:1 277:1 489:1 608:1 1021:1 1022:1 1218:1 1445:1 1593:1 3276:1 5670:1 7594:1 7595:1 7596:1 8784:1 8785:1 8786:1 8787:1 8788:1 100001:1 100005:1 100025:1 #
-0.011373520508781395296771243863532 4:3 6:4 55:1 150:3 419:2 468:1 469:1 11039:1 11040:1 11041:1 11042:1 11043:1 100005:1 100025:1 #
-0.011373520508781395296771243863532 4:4 6:3 60:1 121:1 150:1 163:1 192:1 468:1 469:1 728:1 764:1 766:1 878:1 1075:1 1249:1 1836:1 2916:1 4918:1 5169:1 8705:1 10388:1 10389:1 10390:1 10391:1 100005:1 #
0.0076667353110112107517082336016756 4:1 6:5 8:1 12:1 18:1 55:1 112:1 150:1 192:1 904:1 975:1 1210:1 1481:1 2185:1 2491:1 2991:1 3822:1 4214:1 4481:1 4601:1 11044:1 11045:1 11046:1 11047:1 100001:1 100005:1 100025:1 #
0.011373520508781395296771243863532 4:1 6:1 1240:1 1391:1 3801:1 5694:1 9286:1 100001:1 100005:1 100023:1 100025:1 #
-0.011373520508781395296771243863532 4:1 6:1 8:1 12:2 13:1 18:1 34:1 109:1 130:1 233:1 283:1 699:1 917:1 1959:1 2687:1 4171:1 4227:1 7662:1 10292:1 100005:1 100024:1 100025:1 #
-0.011373520508781395296771243863532 4:1 6:1 12:1 13:1 46:1 50:1 241:1 644:1 1075:1 2062:1 2065:1 2354:1 3221:1 4777:1 4778:1 4779:1 4780:1 100005:1 100023:1 100024:1 100025:1 #
-0.011373520508781395296771243863532 4:1 6:2 449:1 4658:1 10392:1 10393:1 100005:1 100013:1 100025:1 #
-0.011373520508781395296771243863532 4:1 6:1 12:1 20:2 23:1 25:1 112:1 121:1 184:1 192:1 512:1 526:1 805:1 921:1 1449:1 1450:1 1451:1 1452:1 1453:1 1454:1 1455:1 1456:1 1457:1 1458:1 100005:1 100025:1 #
0.011373520508781395296771243863532 4:2 6:3 12:3 13:1 20:1 23:1 25:1 50:1 55:1 59:1 60:1 68:1 121:1 254:2 707:1 755:1 996:1 1021:1 2378:1 3019:1 3025:1 3026:1 3027:1 3028:1 3029:1 3030:1 3031:1 3032:1 3033:1 3034:1 3035:1 3036:1 3037:1 3038:1 3039:1 3040:1 3041:1 3042:1 100001:1 100005:1 #
0.00031847446762287641604249888160894 4:3 6:4 12:2 13:1 55:1 59:1 60:1 112:1 163:1 167:1 439:1 464:1 652:1 691:1 2180:1 2234:1 2362:1 2834:1 3681:1 3871:1 3872:1 3873:1 3874:1 100001:1 100005:1 100025:1 #
-0.011373520508781395296771243863532 4:2 6:1 12:1 13:2 20:1 50:1 60:1 64:1 121:1 130:1 163:1 466:1 786:1 886:1 1492:1 1682:1 2881:1 2886:1 7760:1 9891:1 9892:1 9893:1 9894:1 9895:1 9896:1 9897:1 100005:1 100019:1 100025:1 #
-0.011373520508781395296771243863532 4:1 12:1 23:2 25:2 50:1 55:1 59:1 64:1 170:1 289:1 318:2 1286:1 1508:2 1657:1 2162:1 4832:1 4833:1 4834:1 4835:1 4836:1 4837:1 4838:1 4839:1 4840:1 4841:1 4842:1 4843:1 100001:1 100005:1 100024:1 #
0.011373520508781395296771243863532 4:2 6:2 16:1 27:2 34:1 502:1 758:1 1937:1 100005:1 100008:1 100025:1 #
0.011373520508781395296771243863532 4:2 6:1 122:1 123:1 717:1 5113:1 100001:1 100005:1 100024:1 100025:1 #
-0.011373520508781395296771243863532 4:2 13:1 104:1 163:1 192:1 489:1 2123:1 2991:1 3325:1 6122:1 8002:1 10240:1 10241:1 10242:1 100005:1 100013:1 100023:1 100025:1 #
-0.011373520508781395296771243863532 4:1 6:2 8:1 12:2 18:1 55:1 64:1 90:1 104:2 112:2 170:1 192:2 233:1 343:2 442:1 462:1 579:1 778:1 1039:1 1353:1 1393:1 1831:1 1892:1 2558:1 4066:1 5066:1 5324:1 5453:1 5583:1 8015:1 8016:1 9002:1 9003:1 9004:1 9005:1 9006:1 9007:1 9008:1 9009:1 9010:1 100001:1 100005:1 #
-0.0076187649089988849354648792200351 4:3 6:3 12:2 13:1 50:1 55:1 59:1 60:1 68:1 104:1 110:2 118:1 121:1 163:1 192:2 233:2 309:2 355:1 474:1 794:1 959:1 980:1 981:1 1021:3 1045:2 1231:1 1354:1 1921:1 2035:1 2323:1 3398:1 4297:1 4306:1 5294:1 5295:1 5793:1 5917:1 6062:1 6125:1 6838:1 6844:1 7068:1 7071:1 7245:1 9858:1 9867:1 10061:1 10264:1 10265:1 10266:1 10267:1 10268:1 10269:1 10270:1 10271:1 10272:1 10273:1 10274:1 100001:1 100005:1 100025:1 #
-0.011373520508781395296771243863532 4:1 6:2 12:2 23:4 25:4 55:1 59:1 60:1 163:1 287:1 633:1 1039:1 2239:1 4039:1 5757:1 8265:1 8266:1 8267:1 8268:1 8269:1 8270:1 8271:1 8272:1 100001:1 100005:1 100024:1 100025:1 #
0.011373520508781395296771243863532 1:1 2:1 4:1 2319:1 100001:1 100005:1 100022:1 100025:1 #
-0.0033678432191099317259685985703754 4:3 6:1 8:1 12:4 13:3 18:1 20:1 50:4 55:2 60:2 64:1 110:1 112:2 121:2 192:1 233:2 271:1 312:1 318:1 592:1 690:2 1253:1 1286:1 1481:2 1626:1 2136:1 2881:1 3001:1 3123:1 3360:1 5175:1 5670:2 5686:1 6322:1 6391:1 6529:1 6725:1 9810:1 10415:1 10416:1 10417:1 10418:1 10419:1 10420:1 10421:1 10422:1 10423:1 10424:1 10425:1 100001:1 100005:1 100019:1 100025:1 #
-0.0086283116907280195395646416045565 4:1 6:2 8:1 12:3 13:2 18:1 20:1 55:1 60:1 110:2 121:1 230:1 326:1 696:1 980:1 1409:1 2255:1 2679:1 3321:1 3756:1 4421:1 4500:1 4658:2 4803:1 4804:1 4891:1 5843:1 7993:1 9159:1 9672:1 9673:1 9674:1 9675:1 9676:1 9677:1 9678:1 100005:1 100025:1 #
0.011373520508781395296771243863532 4:1 6:4 23:2 25:2 141:1 393:1 394:1 412:1 710:1 1371:1 2833:1 2834:1 2835:1 2836:1 2837:1 2838:1 2839:1 2840:1 2841:1 100001:1 100005:1 100013:1 100025:1 #
0.011373520508781395296771243863532 1:1 2:1 4:1 6:2 23:1 25:1 41:1 414:2 937:1 2327:1 7308:1 9167:1 100001:1 100005:1 100025:1 #
0.0023504212842295805173387091002724 4:1 6:7 12:1 23:1 25:1 50:1 60:1 80:1 145:1 163:1 167:1 192:2 233:1 430:1 466:1 587:1 1435:2 1976:2 2024:1 2491:1 4025:1 4074:1 4140:1 6016:1 7284:1 7285:1 7286:1 7287:1 100001:1 100005:1 100013:1 100016:1 #
-0.011373520508781395296771243863532 4:2 130:1 348:1 1282:1 100005:1 100023:1 100024:1 100025:1 #
0.011373520508781395296771243863532 4:1 6:3 141:1 150:1 833:1 2756:1 4415:1 4887:1 5153:1 5154:1 5155:1 5156:1 5157:1 100001:1 100005:1 100025:1 #
-0.011373520508781395296771243863532 4:1 527:1 100005:1 100022:1 100024:1 100025:1 #
-0.011373520508781395296771243863532 4:2 46:1 6988:1 100005:1 100023:1 100024:1 100025:1 #
-0.011373520508781395296771243863532 4:2 8:1 18:1 60:1 1784:1 3545:1 3989:1 5300:1 5414:1 7010:1 8249:1 100005:1 100024:1 100025:1 #
0.0081983281015767517363457272949745 4:3 6:4 12:2 20:1 27:1 50:1 55:1 59:1 61:1 64:1 104:2 110:1 127:1 152:1 163:1 192:1 233:1 355:1 582:1 758:1 878:1 1084:1 1599:1 1614:1 1615:1 1616:1 1617:1 1618:1 1619:1 1620:1 1621:1 1622:1 1623:1 1624:1 1625:1 1626:1 1627:1 1628:1 1629:1 100001:1 100005:1 100008:1 100019:1 100025:1 #
-0.011373520508781395296771243863532 4:2 6:3 13:1 46:1 55:1 104:2 271:1 312:1 348:1 480:1 481:1 486:1 684:1 778:1 1034:1 1040:1 1931:1 2048:1 2395:1 4970:1 5373:1 5605:1 8748:1 8749:1 8750:1 8751:1 8752:1 8753:1 8754:1 100005:1 100016:1 #
0.011373520508781395296771243863532 4:1 6:1 127:1 754:1 1391:1 1956:1 100001:1 100005:1 100023:1 100025:1 #
-0.011373520508781395296771243863532 4:2 6:8 12:1 13:2 23:1 25:1 65:1 68:1 104:2 112:2 121:2 267:1 309:1 337:1 343:1 350:4 377:1 423:2 487:1 489:1 591:1 886:1 1735:1 2291:1 2679:1 2682:1 2741:1 2767:1 2774:1 3359:1 3721:1 3957:1 4032:1 4173:1 5297:1 6851:1 7549:1 9590:1 9591:1 9592:1 9593:1 9594:1 9595:1 9596:1 9597:1 100005:1 100013:1 100025:1 #
-0.011373520508781395296771243863532 4:3 6:3 12:1 35:1 60:1 68:1 468:1 756:1 801:1 803:1 1721:1 1764:1 2125:1 9429:1 9888:1 9889:1 100005:1 100025:1 #
-0.0079821070726625552305133481922894 4:1 6:4 23:1 25:1 82:2 736:1 1091:1 1099:1 1123:3 1141:1 1145:1 1148:1 1570:1 3078:1 8532:1 8533:1 8640:1 8641:2 8642:1 8643:2 8644:1 8645:1 8646:1 8647:1 8648:1 8649:1 8650:1 8651:1 8652:1 8653:1 8654:1 8655:1 8656:1 8657:1 8658:1 8659:1 8660:1 8661:1 8662:1 8663:1 8664:1 8665:1 8666:1 8667:1 8668:1 8669:1 8670:1 8671:1 8672:1 8673:1 8674:1 8675:1 8676:1 8677:1 8678:1 100005:1 100013:1 100025:1 #
-0.011373520508781395296771243863532 4:3 6:1 465:1 468:1 801:1 803:1 1812:1 1813:1 100005:1 100025:1 #
0.0044237490770360453351539575805873 4:2 6:4 13:1 55:1 60:1 68:1 167:1 434:1 442:1 1021:1 1481:1 2324:1 2866:1 3602:1 3828:1 6593:1 6594:1 6595:1 6596:1 6597:1 100001:1 100005:1 100025:1 #
0.011373520508781395296771243863532 4:1 6:4 8:1 12:1 18:1 55:1 150:1 163:1 423:1 1210:1 1838:1 2991:1 3496:1 4601:1 5801:1 5802:1 5803:1 100001:1 100005:1 100025:1 #
0.011373520508781395296771243863532 4:4 6:3 23:1 25:1 27:1 43:1 205:1 414:1 819:1 1061:1 1245:1 1754:1 4927:1 4928:1 100005:1 100008:1 100016:1 #
0.011373520508781395296771243863532 4:3 6:3 20:1 43:1 156:1 1601:1 1716:1 1718:1 1727:1 9176:1 9177:1 9178:1 100005:1 100008:1 #
-0.011373520508781395296771243863532 4:1 6:1 163:1 318:1 766:1 1041:1 4989:1 11221:1 100005:1 100023:1 100024:1 100025:1 #
0.011373520508781395296771243863532 4:1 6:4 12:1 13:2 23:1 25:1 55:1 64:1 130:1 152:1 167:1 1921:1 2380:1 8123:1 9643:1 9800:1 9801:1 9802:1 9803:1 9804:1 100001:1 100005:1 100013:1 100025:1 #
0.011373520508781395296771243863532 4:1 6:1 12:1 13:1 20:1 23:1 25:1 55:3 59:1 112:1 156:1 277:1 578:1 1657:1 1734:1 1735:1 1840:1 2917:1 5149:1 5150:1 5151:1 5152:1 100001:1 100005:1 100008:1 100013:1 #
0.0069665510919111545487525383180127 4:3 6:3 8:1 18:1 40:2 122:1 123:1 130:1 131:1 132:1 136:1 140:1 141:2 238:1 244:1 271:2 312:1 415:1 462:1 3403:1 4414:1 8167:1 8168:1 8169:1 8170:1 8171:1 100001:1 100005:1 100024:1 #
0.011373520508781395296771243863532 4:2 6:2 122:1 123:1 135:1 1371:1 6629:1 6630:1 6631:1 6632:1 100001:1 100005:1 100024:1 100025:1 #
-0.011373520508781395296771243863532 4:1 6:1 13:2 55:2 109:1 112:3 121:1 126:1 442:1 1028:1 2233:1 2312:1 2313:1 2314:1 2315:1 2316:1 2317:1 2318:1 100005:1 100023:1 100025:1 #
-0.011373520508781395296771243863532 4:1 6:2 12:1 13:1 50:1 60:1 112:1 121:1 130:1 466:1 786:1 886:1 1682:1 2881:2 2882:1 2883:1 2884:1 2885:1 2886:1 100005:1 100019:1 100025:1 #
0.011373520508781395296771243863532 4:1 6:1 127:1 1240:1 1391:1 8124:1 100001:1 100005:1 100023:1 100025:1 #
-0.011373520508781395296771243863532 4:3 6:5 55:1 60:3 68:1 121:1 267:1 468:1 580:1 770:1 801:1 803:2 805:2 915:1 1764:2 1777:1 2772:1 4143:1 11062:1 11063:1 100005:1 100025:1 #
0.011373520508781395296771243863532 4:4 6:4 23:2 25:2 40:2 43:1 141:2 156:1 223:1 392:1 395:1 563:1 758:1 1054:1 1716:1 2099:1 2100:1 2614:1 3171:1 3172:1 3173:1 3174:1 3175:1 3176:1 3177:1 3178:1 3179:1 3180:1 3181:1 100005:1 100008:1 #
0.011373520508781395296771243863532 4:3 6:5 20:1 23:3 25:3 40:1 43:1 140:1 147:1 156:1 392:1 395:1 414:1 465:1 819:1 831:1 1754:1 2212:1 5463:1 5464:1 5465:1 5466:1 5467:1 5468:1 5469:1 5470:1 100005:1 100008:1 100025:1 #
0.010662046968577271882638868305548 4:1 6:4 60:1 102:1 253:2 435:1 436:1 437:1 438:1 442:1 1019:1 1662:1 1674:1 1675:1 1676:1 1677:1 100001:1 100005:1 100025:1 #
0.011373520508781395296771243863532 1:1 2:1 4:1 6:2 674:1 2329:1 3758:1 10936:1 100001:1 100005:1 100025:1 #
-0.011373520508781395296771243863532 4:1 6:2 76:2 430:1 442:1 980:1 1453:1 3835:1 4037:1 4038:1 4039:1 4040:1 100005:1 #
0.006491694553396909136977477317032 4:1 6:4 19:2 20:1 23:1 25:1 40:1 60:1 102:1 141:2 221:1 271:1 411:1 412:1 533:1 1374:1 3461:1 3462:1 4803:1 6572:2 6573:1 6574:1 6575:1 100001:1 100005:1 100013:1 100025:1 #
-0.0049768633730758607761068823549522 4:4 6:5 12:3 13:2 20:1 23:1 25:1 50:1 109:1 112:3 163:1 228:1 281:1 313:1 343:1 465:1 468:1 493:2 767:1 786:1 801:1 803:1 1045:2 1770:1 1779:1 1791:1 1812:1 1987:1 3772:1 4292:1 4296:1 4396:1 5478:1 6995:1 7949:1 9277:1 10194:1 10195:1 10196:1 10197:1 10198:1 10199:1 10200:1 10201:1 10202:1 10203:1 10204:1 10205:1 100005:1 100025:1 #
-0.0062094400317720035292756719513818 4:1 12:2 13:1 50:1 55:1 68:1 112:1 121:1 163:3 192:1 312:2 352:1 490:1 1045:1 1065:1 1166:1 1766:1 1801:1 2349:1 2679:1 3270:1 3485:1 3746:1 3988:1 5351:1 5599:1 9174:1 9672:1 11057:1 11058:1 11059:1 100001:1 100005:1 100022:1 100024:1 100025:1 #
0.011373520508781395296771243863532 4:1 6:3 68:1 807:1 1708:1 3447:1 3602:1 4668:1 4669:1 100001:1 100005:1 100016:1 #
-0.011373520508781395296771243863532 4:1 8598:1 100005:1 100019:1 100022:1 100024:1 100025:1 #
-0.011373520508781395296771243863532 4:1 55:1 121:1 6584:1 6585:1 100005:1 100022:1 100024:1 100025:1 #
0.0013284806941877295907022960008703 4:3 6:4 12:4 13:1 20:1 33:1 34:1 50:1 60:1 112:1 163:1 182:1 187:1 313:1 375:1 524:1 699:1 700:1 702:1 750:1 760:1 876:1 1080:1 1721:1 1724:1 1766:1 3190:1 3326:1 3973:1 8681:1 9992:1 9993:1 9994:1 9995:1 100001:1 100005:1 100025:1 #
-0.00029462956980298043475896552223503 4:1 6:3 12:1 13:4 50:2 55:1 60:1 64:1 68:1 109:1 112:4 192:1 283:1 352:1 604:1 690:1 1166:1 1181:1 1194:1 1529:1 1737:1 3013:1 3531:1 3746:1 5780:1 5898:1 6210:1 7663:1 8427:1 8428:1 8429:1 8430:2 8431:1 8432:1 8433:1 8434:1 8435:1 100005:1 100024:1 100025:1 #
-0.011373520508781395296771243863532 4:1 6:2 269:1 271:1 661:1 778:1 2731:1 9902:1 9903:1 100005:1 100024:1 100025:1 #
-0.011373520508781395296771243863532 4:2 6:1 26:1 64:1 244:1 285:1 286:1 312:1 980:1 6188:1 6223:1 100005:1 100025:1 #
0.011373520508781395296771243863532 4:1 6:3 12:2 55:2 112:2 290:1 512:1 1201:1 1202:1 1203:1 1204:1 1205:1 1206:1 1207:1 1208:1 1209:1 1210:1 1211:1 100001:1 100005:1 100025:1 #
-0.011373520508781395296771243863532 4:1 8:1 13:1 18:1 64:1 130:1 4822:1 9438:1 9439:1 9440:1 100005:1 100019:1 100024:1 100025:1 #
0.011373520508781395296771243863532 4:2 6:1 37:1 122:1 123:1 1536:1 3605:1 100001:1 100005:1 100016:1 100024:1 #
0.011373520508781395296771243863532 1:1 2:1 4:2 6:1 293:1 558:1 1532:1 1533:1 1534:1 1535:1 100001:1 100005:1 100025:1 #
0.0061956525741913223703782875873003 4:2 6:1 19:1 40:3 141:5 156:1 392:1 395:1 550:1 551:1 552:1 553:1 554:1 555:1 556:1 557:1 558:2 559:1 560:1 561:1 562:1 563:1 564:1 565:1 566:1 567:1 568:1 569:1 570:1 571:1 572:1 573:1 574:1 575:1 100005:1 100008:1 100025:1 #
0.011373520508781395296771243863532 4:1 6:3 20:1 23:1 25:1 40:2 141:1 710:1 944:1 3660:1 3670:1 6454:1 6455:1 6456:1 6457:1 6458:1 6459:1 100001:1 100005:1 100025:1 #
-0.011373520508781395296771243863532 4:2 6:1 50:1 110:1 343:1 702:1 1075:1 1282:1 2013:1 2291:1 2345:1 2558:1 2559:1 2560:1 2561:1 2562:1 2563:1 2564:1 100005:1 100024:1 100025:1 #
0.011373520508781395296771243863532 4:1 6:3 55:1 60:1 112:3 277:1 414:1 768:1 890:1 1721:1 1734:1 2960:1 4041:1 4042:1 100001:1 100005:1 100025:1 #
-0.011373520508781395296771243863532 4:1 6:2 12:1 55:1 60:1 104:2 112:1 271:1 343:1 489:1 2577:1 3010:1 3015:1 5149:1 6444:1 8361:1 10306:1 10307:1 10308:1 10309:1 10310:1 100005:1 100025:1 #
0.011373520508781395296771243863532 4:2 6:2 13:1 29:1 33:1 34:1 3257:1 5246:1 100001:1 100005:1 100024:1 100025:1 #
-0.0093745311982127276645426761092494 4:1 6:3 12:1 55:1 64:1 87:1 186:1 233:1 348:1 798:1 1041:1 1045:1 2128:1 3294:1 4882:1 4921:1 4922:1 4923:1 4924:1 4925:1 4926:1 100005:1 100024:1 100025:1 #
0.011373520508781395296771243863532 4:2 6:2 12:1 13:1 122:1 123:1 496:1 659:1 2409:1 3681:1 100001:1 100005:1 100016:1 100024:1 #
-0.0074360911501088452005281403955905 4:1 6:1 141:2 271:1 562:1 838:1 847:1 1000:1 1001:2 1002:1 1003:1 1004:1 1005:2 1006:2 1007:1 1008:1 1009:1 1010:1 1011:1 1012:1 1013:1 100005:1 100024:1 100025:1 #
-0.0078257425431381109903750115108778 4:2 6:6 12:2 13:2 23:1 25:1 76:4 271:1 348:1 442:2 481:1 497:1 526:1 659:2 702:1 778:1 980:2 990:1 1931:1 3624:1 3690:1 3835:2 4038:1 4612:1 5024:1 5025:1 7957:1 8576:1 8581:1 8582:1 8583:1 8584:1 100005:1 #
0.0096414073443245595917971968447091 4:4 6:4 8:1 12:3 13:1 18:1 27:1 55:1 104:2 112:2 121:2 163:2 271:1 344:2 349:1 489:1 493:1 906:1 1039:1 1077:1 1683:1 2682:1 3528:1 4843:1 5066:1 6283:1 6489:1 6525:1 8137:1 8926:1 11453:1 11454:1 11455:1 11456:1 11457:1 11458:1 100001:1 100005:1 100008:1 100025:1 #
0.011373520508781395296771243863532 4:3 6:6 8:2 12:5 13:3 18:2 20:1 23:1 25:1 50:1 55:1 59:2 64:2 76:2 80:1 104:2 110:1 121:1 130:1 136:1 150:1 156:1 161:1 163:1 206:1 228:1 253:1 254:1 271:2 272:1 277:1 343:1 432:1 447:1 468:1 469:1 699:1 700:1 701:1 707:1 761:1 773:1 915:1 952:1 953:1 1166:2 1784:1 1791:1 2680:1 2741:1 4659:1 6566:1 7285:1 8022:1 9117:2 9143:1 9144:1 9145:1 9146:1 9147:1 9148:1 9149:1 9150:1 100001:1 100005:1 100008:1 100013:1 100025:1 #
-0.011373520508781395296771243863532 4:1 8:2 12:1 13:1 18:1 55:1 280:1 497:1 1041:1 1686:1 10504:1 100005:1 100024:1 100025:1 #
0.011373520508781395296771243863532 4:4 6:5 8:1 12:2 13:1 18:1 19:1 23:2 25:2 55:1 64:1 112:1 121:1 122:1 123:1 124:1 156:1 257:1 324:1 325:1 328:1 329:1 331:1 738:1 2673:1 2675:1 2676:1 2678:1 2679:1 2694:1 2700:1 2703:1 2704:1 2705:1 2706:1 2707:1 2708:1 7707:1 7708:1 100005:1 100008:1 100013:1 100025:1 #
0.011373520508781395296771243863532 4:3 6:7 12:2 13:1 20:1 55:1 86:1 109:1 110:2 112:2 167:1 170:1 239:1 327:1 699:1 1039:1 1391:1 1689:1 1690:1 1850:1 1957:1 1958:1 1959:1 1960:1 1961:1 1962:1 1963:1 1964:1 1965:1 4952:1 4953:1 4954:1 4955:1 100005:1 100025:1 #
0.0065368328904890585923093127007633 4:2 6:4 8:1 12:4 13:1 18:1 20:2 46:1 50:1 55:2 64:1 109:2 110:1 121:1 130:1 170:1 228:1 362:1 568:1 717:2 877:1 970:1 1021:1 1075:1 1237:1 1249:1 1391:1 1653:1 1862:1 1921:1 2489:1 2900:1 3117:1 3507:1 4312:1 4400:1 5113:2 5117:1 5118:1 5477:1 5483:1 5484:1 6713:1 8072:1 8073:1 8074:1 8075:1 8076:1 8077:1 100001:1 100005:1 100013:1 100025:1 #
-0.0080200924864461189955910924709315 4:2 13:1 112:1 309:1 668:1 794:2 814:1 1075:1 2065:1 2682:1 4894:1 6391:1 8364:1 8365:1 8366:1 8367:1 100005:1 100023:1 100024:1 100025:1 #
-0.003538479330743375152190655086315 4:1 6:2 12:3 60:1 112:1 192:1 309:1 2491:1 3691:1 6155:1 6929:1 6930:1 6931:1 6932:1 6933:1 6934:1 6935:1 6936:1 6937:1 100005:1 100024:1 100025:1 #
0.011373520508781395296771243863532 4:2 6:1 27:1 1683:1 4065:1 100001:1 100005:1 100008:1 100024:1 100025:1 #
0.010407413780474612796655975444082 4:2 6:3 13:2 23:1 25:1 55:1 68:1 112:1 114:1 121:1 163:1 167:1 174:1 175:1 176:1 177:1 254:1 544:1 4887:1 5579:1 7147:1 8247:1 8248:1 100001:1 100005:1 100025:1 #
-0.0078808797112910264348606403927988 4:3 6:1 13:2 20:1 50:1 68:1 109:1 121:2 267:1 414:1 468:1 728:2 761:1 768:1 801:1 803:1 805:1 1453:1 1812:1 3109:1 3756:1 5662:1 9988:1 9989:1 9990:1 9991:1 100005:1 100025:1 #
-0.011373520508781395296771243863532 4:3 6:2 12:1 20:1 60:2 68:1 465:1 468:1 526:1 647:1 801:1 802:1 803:1 804:1 1026:1 1028:1 1764:1 9679:1 100005:1 100025:1 #
0.0090009497909031566109661071095616 4:1 6:4 20:1 23:1 25:1 60:1 104:1 130:1 167:1 307:1 356:1 428:1 1502:1 2243:1 7322:1 7323:1 7324:1 7325:1 7326:1 7327:1 100001:1 100005:1 #
0.011373520508781395296771243863532 4:2 6:2 12:1 13:1 33:1 34:1 68:1 253:1 254:1 301:1 2446:1 2741:1 6086:1 6795:1 6808:1 100001:1 100005:1 100025:1 #
0.00061126881480437749577516726162685 4:4 6:14 8:5 12:8 13:2 18:4 20:1 23:2 25:1 37:1 55:4 59:1 60:2 109:2 112:4 163:1 181:1 228:1 233:1 279:1 280:1 298:2 309:1 312:1 313:1 318:1 320:1 343:1 348:1 376:1 462:1 529:2 639:1 671:1 690:1 698:1 725:1 896:1 1021:1 1045:1 1219:1 1266:1 1267:1 1271:1 1396:3 1461:1 1469:1 1482:1 1502:1 1603:1 1840:1 2045:1 2046:1 2047:1 2048:1 2049:1 2050:1 2051:1 2052:1 2053:1 2054:1 2055:1 2056:1 2057:2 2058:1 2059:1 2060:1 2061:1 2062:1 2063:2 2064:1 2065:1 2066:1 2067:1 2068:1 2069:1 2070:1 2071:1 2072:1 2073:1 2074:1 2075:1 2076:1 2077:1 2078:1 2079:1 2080:1 2081:1 2082:1 100001:1 100005:1 100013:1 #
-0.011373520508781395296771243863532 4:1 6:2 8:1 12:1 18:1 23:1 25:1 104:2 110:1 176:1 233:1 271:1 972:1 2995:1 4557:1 6715:1 6716:1 6717:1 6718:1 6719:1 6720:1 6721:1 100005:1 100025:1 #
-0.0064123703538012588251659984450725 4:1 6:1 12:1 13:3 55:1 60:1 86:1 348:1 489:1 644:1 896:1 1045:1 1446:1 1482:1 1889:1 5106:1 5373:1 6079:1 6080:1 6081:1 6082:1 6083:1 6084:1 6085:1 6086:1 6087:1 6088:1 6089:1 6090:1 100005:1 100023:1 100024:1 100025:1 #
-0.0013793178437818570149231423016545 4:2 6:2 12:3 60:4 233:2 526:1 747:1 777:1 805:1 977:1 1045:1 1240:1 1721:1 2666:1 6989:2 10699:1 11350:1 11351:1 11352:1 11353:1 11354:1 11355:1 11356:1 11357:1 11358:1 11359:1 100005:1 100025:1 #
0.0056814325136151401507422775694067 4:1 6:5 8:1 13:1 18:1 20:1 23:1 25:1 50:1 121:1 466:1 761:1 786:1 886:1 915:1 1335:1 1682:2 4073:1 4421:1 5455:1 5566:1 7572:1 8254:1 8255:1 8256:1 8257:1 8258:1 8259:1 8260:1 8261:1 100001:1 100005:1 100025:1 #
-0.0014115071786461740217799576413427 4:3 6:3 12:2 13:1 20:2 60:3 68:1 343:1 465:1 468:1 487:1 742:1 770:2 801:1 803:1 1764:1 1771:1 1784:1 1812:1 1813:1 2025:1 2312:1 2635:1 2652:1 4051:1 5032:1 10129:1 11010:1 11011:1 11012:1 100005:1 100025:1 #
-0.01132459973099205971514003010725 4:1 6:5 23:1 25:1 44:1 59:1 112:3 233:1 269:1 315:1 343:1 465:1 487:1 690:2 779:1 980:2 1420:1 1784:1 2165:1 3545:1 3626:1 4149:1 4278:1 5928:1 6091:1 6092:1 6093:1 6094:1 6095:1 6096:1 6097:1 6098:1 100005:1 100013:1 100025:1 #
0.0032584016249194965378355171026215 4:1 6:8 8:3 12:5 13:2 18:3 20:1 23:1 25:1 27:2 55:2 59:2 60:1 82:1 112:2 121:3 163:2 230:1 233:1 289:1 320:1 398:1 402:1 496:1 503:1 644:1 1400:1 1406:1 1408:1 1409:1 1427:1 1429:1 1480:1 1678:1 2197:1 3202:1 3203:1 3204:1 3205:1 3206:1 3207:1 3208:2 3209:1 3210:1 3211:1 3212:1 3213:1 3214:1 3215:1 3216:1 3217:1 3218:1 3219:1 3220:1 3221:1 3222:1 100001:1 100005:1 100008:1 100013:1 100016:1 #
0.0085813536809995830112463011118962 4:1 6:4 8:1 12:3 13:1 18:1 27:1 50:2 59:1 64:1 104:1 641:1 642:1 643:1 644:1 645:1 646:1 647:2 2556:1 2980:1 5299:1 9333:1 9334:1 9335:1 11285:1 11459:1 100001:1 100005:1 100008:1 100025:1 #
0.0078428338727072124947348186196905 4:3 6:5 8:1 12:1 13:1 16:1 18:1 19:1 20:1 23:1 25:1 27:1 55:1 233:1 271:1 953:1 1077:1 1386:2 1387:1 1388:1 1389:1 1390:1 1391:2 4266:1 4929:1 4930:1 4931:1 4932:1 4933:1 4934:1 4935:1 4936:1 4937:1 4938:1 4939:1 4940:1 4941:1 4942:1 4943:1 4944:1 100005:1 100008:1 100013:1 100025:1 #
-0.0092290411619569308332433621444579 4:1 6:2 12:1 23:1 25:1 64:1 82:1 121:2 130:1 163:1 192:1 356:1 505:1 679:1 1075:1 1862:1 2491:1 3110:1 3276:1 5162:1 8823:1 8824:1 8825:1 100005:1 100025:1 #
